1988 64
1677 0.018294035 -0.0114119155 0.23984273 0.040417224 -0.15819451 -0.21712743 0.23176576 -0.00050690153 -0.2670096 -0.31766537 0.12545446 -0.2055217 -0.098713994 -0.08812899 0.12182539 0.17791122 0.0051371567 0.14368501 -0.09490081 0.33568418 0.18682471 0.17011434 -0.033285987 -0.29761168 0.041929275 -0.024559507 -0.2148156 0.18818524 -0.07545499 0.07646177 -0.0726445 -0.16555502 0.03757597 -0.34717596 -0.10098766 0.08085713 -0.00751192 -0.089061044 0.027319554 0.026835782 0.11535958 0.17004533 -0.090087146 0.035711624 0.2809398 -0.1415146 0.0817967 -0.041288488 0.06853474 -0.040632047 0.060266335 0.041325577 0.1880784 0.28842074 0.20354764 -0.15445149 0.22455497 -0.15955082 0.008248614 0.35969076 -0.102156654 0.044275723 -0.05140437 0.28649214
114 0.039454684 -0.12858924 0.3430547 0.09933222 -0.029657885 -0.14173119 0.0669343 0.14231302 -0.21532749 -0.31338713 0.17205001 -0.28106302 0.048390638 0.04023655 0.1660095 0.27562258 0.059615444 0.11244719 0.08805768 0.36481142 0.33771026 0.19934121 -0.140096 -0.27327386 0.082069695 0.040848274 -0.13039508 0.036285754 0.04493071 0.16400318 -0.08600045 -0.3100403 0.002898229 -0.18984331 -0.15284368 0.081475265 0.009555845 -0.17227395 0.13651587 0.018664427 0.06500765 0.0018934698 -0.08531425 0.09236004 0.23979235 -0.18553811 -0.013999322 -0.13819572 0.01579244 -0.0101197 0.14010121 -0.042752303 0.15331541 0.25415924 0.16582072 -0.11443707 0.15405923 -0.18574491 0.085686944 0.295268 -0.004947469 -0.09099586 -0.08555793 0.105339214
1698 0.2375759 0.094172746 0.2357091 -0.036324725 0.15237473 -0.3570833 -0.29050177 0.06538822 -0.21308471 -0.102865346 0.4324529 -0.26288748 0.0008993523 0.16344303 0.101246856 0.28508878 -0.3673088 0.27354705 0.2012783 0.2037418 0.13105987 0.123101644 -0.09330762 -0.20260605 0.080724865 0.08410942 -0.24662168 0.3040404 0.19443133 0.012525846 -0.10197051 -0.5149019 -0.09513633 -0.461871 -0.0038905377 -0.048705705 -0.17402162 -0.18201748 0.21870314 -0.20791574 0.40721112 -0.012653727 -0.40364358 -0.00044549865 0.03287307 -0.065091535 -0.17154333 0.10460097 -0.22586258 -0.17300586 0.38376185 0.030011605 0.20479861 0.73613024 0.17855404 -0.02909422 0.008920075 -0.42309514 -0.015019301 0.085667275 -0.27799177 -0.45676392 -0.09957189 0.32588074
1760 0.3568893 -0.16989672 0.4021351 -0.067749895 0.005578565 -0.43863907 0.009416034 -0.12940378 -0.1563558 -0.14796963 0.14239478 -0.27647153 0.1346778 0.15053229 -0.16351466 0.4458359 -0.48648018 0.0960977 0.5754898 0.023707742 0.23471753 0.107370615 -0.09653354 -0.39909866 0.11677725 -0.0017292894 0.095588274 0.19162405 0.17229305 0.13847686 0.066579975 -0.4167249 -0.007175086 -0.28466952 -0.05381935 -0.07920536 -0.18476345 -0.3951094 0.6226319 -0.26746458 0.34446034 -0.024493702 -0.5206724 0.18928196 0.0037033786 -0.112152934 -0.21338753 -0.02231733 -0.4436732 0.10806233 0.5529767 0.1514466 0.37874317 0.57466006 0.2233542 -0.114792965 -0.013890096 -0.43235743 -0.18268831 -0.1427918 -0.15698555 -0.27437538 -0.7416539 0.3604112
1797 0.15566869 -0.15140721 0.3569593 -0.12462716 -0.33669853 -0.12035875 0.019040471 0.23444027 -0.36518157 -0.26586866 0.17523912 -0.14741732 0.07039082 0.19294386 0.05352165 0.5965002 0.33234182 0.55964184 0.15373796 0.30551788 0.46158236 0.31113806 0.046237674 0.10747691 -0.090476476 -0.037016053 -0.27720514 -0.07811337 -0.17370038 -0.22956428 0.05068372 -0.30862203 -0.004033008 -0.6727717 0.21422753 0.14684483 -0.008301688 -0.08369353 0.40405408 -0.4502877 -0.054472808 0.060648926 0.031150408 0.024459628 0.12234112 -0.3143612 0.12255844 0.10476002 -0.008885286 -0.19384724 0.25359377 0.32047167 0.16322216 0.577473 0.52065045 0.1802461 0.027700113 -0.2315866 -0.3851269 0.09701775 -0.1255419 -0.04730604 -0.027644014 0.19793983
1785 0.36909497 -0.28620595 0.19478367 0.06553171 -0.4635202 0.058388267 -0.16007787 0.46540648 -0.29259843 -0.46342817 0.20749217 0.078082755 -0.03182396 0.10883492 0.18111242 0.40304717 0.4245839 0.18434876 -0.07294201 0.2897006 0.47851992 0.18583934 0.27579734 0.05504319 -0.18453753 -0.057295848 -0.12251369 0.076077126 -0.09651203 0.18130696 -0.02255589 -0.24091798 -0.16617237 -0.73009557 0.030538691 -0.099224545 0.5056663 0.11105915 0.2666817 -0.23877524 -0.010191064 0.29884687 -0.14981115 -0.1886829 0.37012103 -0.6352634 0.41302678 -0.20368533 -0.3205803 -0.014968256 0.0127869705 0.040318422 0.29221645 0.63635576 0.49741408 -0.09566868 -0.05273896 -0.05761769 -0.17108296 0.06167322 0.079937376 -0.13430505 0.07304312 0.24210209
1680 0.47588718 -0.052003413 0.7043836 -0.375463 -0.18461171 -0.51704824 -0.43197376 0.10692954 -0.403493 -0.29870647 0.38788173 -0.15963922 0.10886227 -0.301569 0.3033702 0.19753276 -0.09228351 0.80223614 -0.15663378 0.018231722 0.49459407 0.42804363 0.4467912 0.39009908 -0.14100455 -0.31461018 -0.4693514 -0.34357244 0.094114855 0.059050366 -0.34194237 0.021090256 0.122476414 -0.45942488 -0.2536399 0.3700599 -0.08935327 -0.53505856 0.50333506 -0.2640953 -0.103320554 -0.1634564 -0.09112377 0.3202297 -0.04059351 -0.37426785 0.5487312 -0.18465038 -0.005870394 0.28508753 -0.15551254 0.19254296 -0.4387756 0.530203 0.48301336 0.114760436 0.12159118 -0.6491898 -0.040897634 0.21844958 -0.11546823 -0.18616974 0.24543428 0.43463144
119 0.26127356 -0.034874722 1.12868 0.16393991 0.31651834 -0.012402978 -0.29409564 0.47227702 -0.3151248 -0.15024422 0.47086662 -0.9932348 0.251047 -0.03186741 0.10826593 0.26857758 -0.12158035 0.42892793 0.4045435 0.5446201 0.33375606 0.27215862 0.15988347 0.40812802 -0.09001531 0.06427702 -0.07505695 -0.40806687 0.05310676 -0.15896253 -0.108609535 -0.24424444 -0.01073691 -0.2790863 -0.11262403 -0.09527333 -0.5373453 -0.37292928 0.5221787 -0.16894771 -0.4978062 0.5085445 0.16005631 -0.3431717 0.34210148 0.107814275 -0.09582456 -0.29636377 0.13128813 0.19144516 0.26034078 0.52618605 0.07610746 0.17573507 0.0620505 -0.09538318 -0.07721068 -0.3354587 0.35837764 -0.18391809 -0.37968737 -0.13580191 -0.04707066 0.5495864
1642 -0.046682358 -0.31477863 0.56032145 -0.28222302 -0.1081944 -0.34065855 -0.15151119 0.12919556 -0.35586232 -0.5895477 0.39919704 0.15658699 -0.28726992 -0.009315396 -0.00086075766 0.4036326 0.66444373 -0.1598438 -0.28168127 0.2242968 0.43206057 -0.35807645 0.4402501 -0.17399594 0.38890216 0.20077197 -0.4689211 0.010536267 0.05937115 -0.5533064 -0.35896122 -0.051490933 -0.00406945 -0.33358327 0.32757658 0.06915256 0.2377773 0.27600986 0.4165237 0.18248388 0.60464954 0.352814 -0.15627395 -0.52450275 0.37241322 -0.050567392 -0.03708558 -0.16300093 -0.17763802 0.3582072 -0.19270791 -0.19108576 0.27903843 0.46408793 0.12391338 0.26749668 -0.19974253 -0.0059145535 -0.48852244 0.2691696 0.18851139 -0.2282201 -0.12979698 0.25985098
1660 0.079746954 -0.27875125 0.3513961 -0.26905382 0.035674457 -0.33380237 -0.04043753 -0.23925547 0.0016677395 -0.5685666 -0.15675053 0.1727975 -0.38732415 0.39013213 0.30170536 0.18529849 -0.2830115 0.16875574 0.20334797 0.7163218 0.41811967 0.07597519 0.691026 -0.035796076 0.5955461 -0.337256 -0.14309862 -0.2322257 -0.18523768 -0.19815315 -0.20923822 0.2396958 -0.5637265 -0.34175813 0.39467114 0.07402898 0.30463368 -0.017100438 0.75800663 0.053710774 0.57305926 0.13757336 -0.26021487 -0.49835 0.082233645 -0.19725709 0.024914142 0.18546668 -0.22007222 0.65539527 -0.33176342 0.3056214 0.22942966 0.2940095 0.26220158 0.31752002 -0.16085516 -0.28770387 -0.4547233 0.29975706 -0.020707177 -0.60980403 -0.3451924 -0.16251484
1654 0.4681682 -0.2529177 0.31279162 0.0014834022 0.28644556 0.24574281 -0.1862693 -0.023753956 -0.29706156 -0.5700214 0.10242208 -0.54460067 -0.1792317 -0.16167054 -0.10988306 0.041668665 0.52869916 -0.13836762 0.23657499 0.29961312 0.691236 0.22756685 0.51138556 -0.2995893 0.21074672 -0.46354192 -0.35977224 -0.2439378 0.10183645 -0.27918386 -0.4917998 0.386018 0.15075979 0.5038933 0.21337746 0.0853262 0.2537588 0.73851967 0.6076063 -0.21155646 0.377386 0.016008083 -0.21228512 -0.5528759 -0.08129593 0.07099189 0.23146766 -0.29463378 -0.5579573 0.23821554 -0.29422706 -0.06571422 0.21047471 0.84989864 -0.069370285 0.3544269 -0.23397595 -0.52405524 -0.62648153 0.4534325 -0.19773391 -0.59930444 0.3311789 0.14865223
1632 -0.116313495 -0.7843603 0.3466298 -0.1521678 0.044410136 -0.06750597 -0.005020819 0.37200204 0.31538713 -0.039865714 0.34509692 -0.56532407 -0.0883984 0.19050764 -0.4386188 -0.3181436 0.6864481 0.22922783 0.33630276 0.87087023 0.5711504 -0.19506083 0.30714375 -0.02770254 -0.23046237 0.25406188 -0.70437163 0.13606842 0.36998984 -0.08245839 0.0060122977 0.2921612 -0.42095724 -0.2701881 0.2522231 0.46060157 0.013783065 0.48932287 0.5374977 -0.021039683 -0.053534914 -0.06787538 -0.28080034 -0.434733 0.79082936 -0.19909109 -0.28460428 0.038751055 -0.08664227 0.49090013 0.04515179 0.08190569 -0.07454128 -0.3119303 0.6607438 0.3214326 0.48759437 -0.19304813 -0.26122686 0.36225146 -0.15534562 -0.4063108 -0.58634984 0.48112515
1663 0.30366778 -0.27685288 0.6101638 -0.8149014 0.44049102 -0.2632808 -0.52127564 0.10152298 -0.17996018 -0.4326333 -0.10313924 -0.34547094 -0.4896616 -0.058876302 -0.31901315 0.31717837 0.38987598 0.0002533957 0.548233 0.6289139 0.1708897 0.19651009 0.31754625 0.053924896 -0.2512014 0.36416504 -0.6555078 -0.21293068 -0.26267913 0.17254864 -0.038985204 0.6161905 -0.14443938 0.29762864 0.1600719 0.011079574 0.23296091 -0.06037653 0.78886884 -0.07804914 0.2714043 0.44908231 0.0831435 -0.292225 0.07232603 -0.18475457 0.045472622 -0.03283445 -0.65145046 0.15763369 -0.69888383 0.25318995 0.4556623 0.3577706 0.34990188 0.16636993 0.10019069 -0.526617 -0.38729903 0.26053804 -0.35850424 -0.26412413 -0.25535432 -0.39767203
239 0.23925076 0.082013994 0.60206294 -0.096415974 0.18651386 0.01696048 0.28490403 -0.21375233 -1.0651954 -0.50528616 0.576611 -0.122974135 -0.24438587 -0.41033813 0.1406613 0.32485726 -0.49647623 0.46226478 -0.5931311 0.46507967 -0.2952851 0.017769314 -0.12601906 -0.5350045 -0.094331466 0.11028891 -0.24882913 0.0062057995 -0.101892166 -0.02635956 -0.16354905 -0.07954503 0.005047659 -0.011229629 -0.4470661 0.24740215 -0.81372833 0.4703411 0.030251242 0.1689247 0.38831976 0.13069445 -0.69612956 -0.27316183 -0.009951488 -0.2283422 -0.6155905 -0.24860257 0.25206155 -0.32582754 0.2435253 0.41979483 0.5209427 -0.16035385 0.45963588 -0.29931504 0.24416931 -0.14024386 0.26739335 -0.11040685 -0.8045393 -0.21945815 0.41181892 0.8407769
1667 -0.03764326 -0.07190617 0.372034 -0.267957 -0.4361658 -0.41389224 0.13449761 0.73193395 -0.38651744 -0.24980974 0.044487834 0.35022038 -0.19348241 0.016683664 -0.08417305 0.08673199 0.109309815 0.07435799 0.056364052 0.8162372 0.6444678 -0.28908688 0.44290927 0.3029644 -0.26972893 0.16103846 -0.41844916 0.005598629 -0.2631489 -0.48643398 -0.10723097 0.6270072 -0.016780024 -0.4139772 0.013345071 0.6952807 -0.044242293 0.76773 0.080512956 0.4413543 -0.25408077 0.74774504 0.10816861 0.23545864 0.40006423 -0.51805156 0.563339 -0.26011714 -0.2795751 0.57360685 -0.17747387 0.6820407 0.43478614 0.7030592 0.12307924 0.15019889 0.46554872 -0.34613937 0.49593925 0.39046663 -0.347086 0.010698674 0.1253979 0.23314957
1641 0.41729903 -0.26294875 0.5258604 0.12418753 -0.6444354 -0.13983913 -0.6237266 0.013157207 0.48619965 -0.12301385 0.75116855 -0.26500636 -0.18743643 0.12768924 -0.0996474 0.38119763 0.37471274 0.6063308 0.1712642 0.69886863 0.313396 -0.19092284 0.30614528 -0.17527378 0.34929878 -0.3163121 -0.649113 0.2301014 -0.020171793 0.25556034 -0.540745 0.44921595 0.014638724 0.06402356 0.14092153 0.22854392 -0.2520246 0.46637145 0.6079372 0.023294093 0.7726123 -0.095455244 0.08743864 0.16057038 -0.16717389 0.3859992 -0.49724156 -0.0906117 0.02358501 0.59285015 0.6686962 -0.07164306 0.6075659 0.16358902 0.2213785 -0.2585152 -0.00017779197 -0.28808185 -0.3140794 -0.2855751 -0.062242042 -0.70462805 -0.33102676 0.3643992
1678 0.02925998 -0.10321849 0.2084644 0.009469886 0.2989857 -0.09319065 0.3054026 0.16828446 -0.104127474 -0.2009334 0.44611964 -0.3947201 -0.31491 -0.022076901 0.54087746 0.20254017 0.32740456 0.11835105 0.18567449 0.82041246 0.12659809 -0.59317833 0.17731549 0.0068423045 -0.010365812 0.14868355 -0.74440545 0.030463845 -0.52580434 -0.5420389 -0.33176464 0.43076402 -0.18883832 -0.50720537 0.1158497 0.014345702 -0.050725166 0.31261808 0.07703013 0.15186952 0.046388667 0.08226135 0.076214984 -0.11029032 -0.10982229 -0.13408089 0.09825034 0.5848099 0.013591145 1.235563 -0.12239713 -0.020919535 0.34330702 0.26902536 0.4927027 -0.102758214 0.6170516 0.41809934 0.22215712 0.045058 -0.63612324 -0.97772557 -0.291007 0.8223847
1639 0.14903991 -0.118119776 0.41917667 0.20367688 -0.37038538 0.37038392 0.011027024 -0.014375026 0.19017647 -0.25807247 0.51078314 -0.6503616 0.1310809 0.23254178 0.35861796 0.5214279 0.059065323 0.30008474 -0.08653713 0.865297 0.64233893 0.17232499 0.39738688 -0.47498 0.17445375 -0.35464838 -0.073663495 0.06496903 0.0055867867 -0.6716532 0.27023152 -0.53421175 -0.43479446 -0.44833463 0.18756391 0.62275803 -0.056940928 0.3364338 -0.040347725 0.12888119 0.40469027 0.16856502 0.052778684 -0.3071379 0.6292384 -0.4328422 0.03017761 -0.20587973 0.1840209 0.36302555 -0.3577958 -0.5607567 0.053743355 0.17502059 0.3531439 0.78309864 0.07012635 -0.69604796 0.4475468 -0.36896476 -0.008510779 -0.0023732816 -0.42695406 -0.4535877
633 -0.26434308 0.03553165 0.12854388 -0.24381363 -0.049923107 0.30840555 -0.6547578 0.253668 -0.36306083 -0.31830898 0.0072500836 0.013717741 -0.28007478 -0.22073762 0.289764 0.16433834 0.058753632 0.081002794 0.023024518 0.86891335 0.8947494 0.36492142 0.27222145 -0.057345387 0.017044766 0.5181997 -0.20497485 0.058900114 -0.25453988 -0.03545396 -0.40065217 0.21925583 0.5625355 0.07655655 -0.23612486 -0.16217558 0.22429001 0.04377789 0.48483297 -0.34347433 -0.24520306 -0.006786372 -0.16863967 -0.88624907 0.23931524 0.26402625 -0.011961682 -0.48719034 -0.17077121 0.30335787 0.2033565 0.0821809 0.026394 0.46260446 0.32687014 -0.689341 0.48604155 -0.2551611 -0.124904886 -0.44822252 -0.509944 -0.011413569 -0.8938081 -0.11815469
1693 -0.44037837 -0.2022286 0.3639202 0.136762 -0.1450976 0.12529577 0.36371055 0.16066429 -0.47013587 -0.35682133 0.20771168 0.35220435 -0.06939393 0.4273232 -0.41609988 0.5647089 -0.16092369 0.1687927 -0.67081404 0.30625468 0.5575871 0.2916297 0.0715541 0.0686826 -0.09872179 0.6369378 -0.15188529 0.049398202 -0.78861547 -0.26658264 0.1915181 -0.33267075 -0.20957708 -0.14567241 -0.21860465 0.28491938 -0.2218218 -0.28016087 0.1427733 0.093814835 -0.23089167 0.047162984 -0.19805925 0.7161597 0.11881961 -0.39103594 0.09684494 -0.19367751 -0.0003435419 0.20708193 0.53681666 0.3894199 -0.6069817 0.18082458 0.5301635 -0.070902705 0.66960824 -1.0376943 -0.5873418 0.6129149 -0.28831992 -0.53601515 -0.44069573 0.17342691
190 -0.28803176 0.161342 0.37889436 0.34244847 -0.010714755 -0.208931 -0.21903569 0.097479574 -0.6425979 -0.5192735 -0.14412826 -0.47903952 -0.14991185 -0.6346295 0.16641249 -0.48920423 0.3721147 0.43972993 -0.14105429 0.49985713 0.4306462 0.64945495 -0.1313882 -0.31367016 -0.39712736 -0.22076936 -0.4853277 0.058370497 -0.41970956 -0.0119970655 -0.46053496 0.47992167 -0.39626572 -0.31381884 0.2960845 0.12031704 0.55927825 0.36648515 0.13786046 0.06784563 0.38540295 0.39283827 -0.018102841 0.1932267 0.7347856 0.24790236 -0.25357267 -0.81640726 0.1567401 0.1604901 -0.28597784 0.3251274 0.052464813 -0.26664573 0.9334725 -0.14763324 -0.6278387 0.13661675 -0.3470666 -0.27948457 -0.14098424 -0.48791027 0.27900833 -0.15293583
1666 -0.22749393 0.00487977 0.5740088 0.14460482 0.033955254 -0.14548482 0.10806661 -0.07014111 -1.0644785 -0.16618659 0.28693628 0.04638509 0.34218842 0.49499762 -0.13242015 -0.35141653 0.56880784 0.44176757 0.017420134 0.8613407 1.0046933 0.46637633 0.58050424 -0.21581087 -0.42483777 0.30253026 -0.43107843 -0.09029569 -0.31631804 -0.03987897 0.1240745 -0.08191945 -0.22543462 0.44948742 0.36484376 -0.057862207 0.15661839 -0.026960066 0.7884965 -0.40307176 -0.0455748 0.5755797 0.61214113 0.06197208 0.12406192 -0.1687788 0.5552142 -0.43526515 0.24835932 0.24960418 -0.42087537 -0.2802816 0.5336643 0.3085351 -0.042441595 0.011813239 0.3766846 -0.2593309 -0.14905612 0.02310584 0.22848985 0.017946014 -0.11394285 0.16063508
1630 0.20230713 -0.2091047 0.36991534 0.33746564 -0.27792272 -1.1225181 -0.5074568 0.44019365 0.14696082 -0.17862222 -0.075220674 -0.665085 0.2651317 -0.21630502 -0.013644402 0.59253037 0.27979967 0.2921769 -0.25765306 0.8013528 -0.3287216 0.20291169 -0.2619759 0.036766764 0.122227184 -0.38078356 -0.6427593 0.07914816 0.25750282 0.36024222 -0.47185445 0.6825633 0.7207138 -0.3380993 0.1191602 0.5625687 0.67545027 0.08775 0.45583165 0.41417405 0.15558052 0.15078707 0.20367119 -0.35999855 0.29025126 -0.058919646 -0.19102518 -0.023751076 0.3201753 0.3794852 0.031900667 -0.29534468 -0.2352143 0.3066887 -0.25802723 0.14591365 0.16785435 -0.53560156 -0.13426816 -0.19102284 -0.16911145 -0.39270443 -0.6937603 -0.13987078
131 0.44671404 -0.4785631 -0.32332444 -0.08905985 0.32178035 0.3690369 -0.12662302 -0.44171363 -0.86870503 -0.18531519 -0.73931247 -0.8925335 0.15728106 -0.043698918 0.09517579 0.32653347 0.020387527 -0.23429398 0.3744239 1.0158861 0.19867826 1.0094566 -0.17038798 0.29870188 -0.16298306 0.60824513 -0.5065559 0.5498324 -0.66875726 0.5569561 -0.27152717 0.3604681 -0.74602085 -0.18355955 -0.52412546 0.7259649 0.3987128 0.18551256 0.16298257 0.1372396 -0.028313562 0.25965706 -0.45373592 0.29869825 -0.37400013 0.15285648 0.11023212 0.0418938 0.3660722 0.5349063 0.3793636 -0.33356696 -0.17243159 -0.26259944 0.2534475 0.23637943 0.31663746 -0.20781748 -0.49463037 -0.22570156 -0.53220683 -0.20175555 -0.15302204 0.45731625
1668 0.7384729 -0.4308253 -0.145639 0.44358304 0.41558978 -0.083480746 -0.41245595 -0.010270032 -0.17467417 0.003115165 -0.3706938 -0.33430496 -0.016828647 -0.47021475 -0.11720339 -0.3307003 0.1853807 0.32230222 -0.043343987 0.81926906 0.62548614 -0.20184425 0.7237664 0.05385297 -0.19413121 0.35517687 -0.6389494 -0.11749587 0.4769698 -0.41016278 -0.35653037 0.29546514 -0.29143062 0.26464677 -0.042905565 0.039392203 -0.04318019 0.13209775 0.7847198 0.25079226 0.35548022 0.3450689 0.48425975 -0.23872457 -0.15057938 0.18691872 0.0006491642 -0.19349536 -0.58989495 0.5759627 -0.41427982 -0.33420923 0.06978535 0.6619728 0.27107543 0.072144315 0.4114242 -0.46056825 -0.56208825 0.51872396 -0.075348385 -0.036908682 -0.14241694 0.6669287
1 0.15368386 0.15968363 0.11484636 0.5415474 0.054357044 0.45887265 0.22947447 0.21159683 -0.42236674 -0.06340359 0.077400625 -0.5017636 -0.11902358 0.40199703 0.6362467 0.56403536 -0.2638961 0.072319515 -0.17875724 0.07505987 0.61323786 0.71618533 0.2129017 -0.13326512 -0.055138897 0.75401336 0.052201126 -0.64622194 -0.5433401 -0.10001185 -0.057139743 0.15741567 -0.28975245 -0.33656135 0.54994434 0.22176723 -0.30205137 -0.31567264 -0.3440983 0.2570948 0.5312602 -0.9981119 0.29617882 0.41473314 0.14547862 0.748914 -0.0066021024 -0.6499266 -0.10579348 0.84173036 0.09866833 -0.3925452 0.81281465 0.42006686 0.7321429 -0.22056888 -0.35768652 -0.44632643 -0.21885853 0.30941093 -0.23409739 -0.018109314 -0.40079376 0.30375323
1672 0.628786 -0.041727416 0.27021775 -0.3353512 0.42066008 -0.15328358 -0.27222833 0.6567462 -0.38401112 -0.19517612 0.6410785 -0.42747578 -0.3781535 -0.39158678 0.0208077 -0.6705579 0.20674792 -0.8908026 -0.23159385 0.26633096 -0.06344761 0.22104947 0.82653683 -0.63746226 -0.104491666 -0.3402868 -0.1576327 0.4078475 -0.004666161 0.8268896 0.27603886 0.3819335 -0.22973418 -0.67207175 -0.040681094 0.92969114 0.4677824 0.042906053 -0.144804 0.058757376 -0.014474556 -0.34087723 0.6164275 0.52452195 0.23988205 -0.47275358 0.23209794 0.06358529 0.27266163 -0.2212426 0.13579375 -0.2317838 0.6018928 -0.009527031 0.54813474 -0.130024 0.41114712 -0.6192734 -0.5541587 0.38950256 -0.111070015 -0.48594478 -0.54615724 0.050653998
154 -0.14825237 -0.10756583 -0.19061524 0.0603169 -0.48935613 0.27604613 0.57595176 0.47093147 -1.0228163 0.29414102 0.11583759 -0.48488605 0.11667253 -0.21668398 0.4027132 0.19910578 -0.7836413 -0.4359716 -0.5338763 0.67560303 0.6288087 0.4476089 0.39373368 -0.2350198 0.29129004 0.019137861 0.33434907 -0.32218885 0.39421317 0.357686 -0.49484134 0.18078087 -0.25956312 -0.3159475 -0.18019168 -0.04184528 0.7635098 0.2642464 0.010771093 0.30712262 0.39159593 -0.024481304 0.17511757 -0.69221723 0.33817324 -0.12075423 0.1961241 -0.018057145 -0.1252985 0.28076136 -0.105338074 0.51547545 -0.17028555 0.61611086 0.7032068 -0.052251935 0.55648494 0.09075597 0.184717 0.32848722 -0.21110897 0.021823868 0.23098989 0.27831164
1659 0.8555767 0.20704003 0.8568645 0.137405 -0.14518331 -0.42902085 0.8274648 -0.1647462 0.24855244 -0.2614751 -0.26276836 0.07461408 0.61679107 -0.12344711 0.340043 0.10708822 -0.20001394 0.09597297 -0.0019830496 -0.36294228 0.497091 0.23141865 0.06986035 -0.41991815 0.26544088 0.5340902 -0.26076192 0.4381126 0.09850508 -0.4033405 -0.6584351 0.039392456 0.04426259 -0.35194373 -0.16597812 0.75825876 0.5217755 0.16859654 0.10609564 0.0062584956 -0.14773968 0.40988815 0.15273039 -0.11550166 0.9385382 0.06944482 0.39729765 -0.85833436 -0.048165105 -0.111193426 1.0657625 0.016879065 0.4604265 0.3551249 -0.053180184 -0.011370772 0.50657785 -0.3029863 -0.81171346 0.035348635 -0.29346588 -0.4758977 -0.20244582 -0.30587488
1673 -0.0077767586 0.028533636 0.32723907 0.14915566 0.2657662 0.07626551 0.16809478 0.66129696 -0.63627493 0.3584495 -0.09353716 -0.13999394 -0.24609245 0.53254867 0.20505428 0.10417913 0.20654987 0.23646979 0.5379639 0.21487375 -0.060677994 0.26619935 -0.24362779 -0.5840722 -0.5738097 0.11303739 0.12236736 0.2571996 0.62215155 -0.13052338 -0.3436497 0.021515166 -0.4789161 -0.7591173 -0.18579623 0.23241726 -0.17069562 0.7535992 0.42324835 0.092654906 0.9905337 0.35699818 0.017451152 0.050724115 0.38413942 0.15565799 -0.13617787 -0.038286146 -0.0877015 0.7084845 -0.14544666 -0.1844448 0.3885382 0.48592976 -0.18601218 -0.3674519 0.7117825 -0.601645 -0.75090384 0.03059828 0.3029175 -0.35534266 -0.010783901 -0.48143974
24 -0.08474947 -0.03425123 0.1623097 0.31153616 -0.16586578 0.159093 -0.36896774 -0.4356661 -0.37908325 -0.11153069 0.19983232 -0.644517 0.17013364 0.11125627 -0.12562469 0.56221014 -0.19204319 -1.0117056 -0.5009287 0.10839591 0.35673422 0.645945 0.6436338 0.030464647 0.025264103 0.119509615 -0.7080554 -0.35621086 0.400706 -0.4953178 -0.67176604 0.15874554 -0.58437735 -0.30678087 0.02014861 0.956818 0.05969282 -0.5296303 0.71233004 0.19813286 0.23426749 -0.42553318 -0.1901572 -0.15321164 0.04449613 -0.13185063 -0.31424987 -0.28916934 0.1724021 0.22946008 -0.19238144 0.64258045 0.13610518 0.40682548 -0.35405833 -0.22304304 1.2683283 0.14088699 -0.43769968 -0.14199649 0.20856243 -0.026121277 -0.5400514 0.2159389
138 0.32237223 0.4859382 0.44369093 -0.24677192 0.10149937 -0.6884709 -0.26221344 -0.09234473 0.001317644 0.7552275 -0.6322315 -0.6046591 0.032796167 0.2682368 0.32908317 0.7340469 -0.18946317 0.17721714 -0.17979373 0.65696603 0.9906901 1.0332657 -0.08688913 -0.28813237 0.24812406 0.03268838 -0.07751534 -0.1804034 -0.6430723 0.061348554 -0.31392202 -0.21651328 0.114544734 0.23541392 -0.20740674 0.07209147 -0.03586121 0.7230421 -0.17127769 0.61974055 0.2776804 -0.4537946 0.56298685 -0.22895972 -0.12865607 -0.40806237 0.23891331 -0.24380456 0.55073076 0.061099302 0.024082128 0.1266223 0.2144596 0.78176355 0.516467 -0.5534883 0.0813964 0.3798504 -0.0857156 0.4025646 0.15678003 -0.5180014 -0.6046346 -0.24496157
1679 0.107857786 -0.0055783233 0.2488168 0.2524673 -0.18555236 -0.6472859 -0.10654016 0.6012989 -0.773347 0.068018995 -0.32509452 -1.1341518 -0.49812555 -0.1020435 0.10765429 -0.23435117 0.20116894 0.24577951 -0.7660483 0.22849648 0.24294016 -0.006812455 0.5961105 -0.043880284 0.12815455 0.6355528 -0.30372542 0.11292881 -0.09688329 -0.2892125 -0.84059805 -0.53241694 0.2366276 0.018127235 -0.21519326 -0.083324656 -0.4063406 0.2385031 0.33380437 0.053165387 -0.18150131 0.37992746 -0.42808974 0.44018984 0.23029262 0.28253695 0.30934027 -0.5718759 0.34283713 0.027697034 -0.35290343 -0.42632523 -0.19449729 0.63760203 0.37672123 0.11428149 0.33270428 0.124924 -0.5658706 0.44480968 -0.24086528 0.05894426 0.08120096 -0.15662314
1671 0.72395134 -0.25051922 -0.16173781 0.12723221 0.38596505 -0.68936753 -0.27438706 0.61461526 -0.5834651 -0.6366286 -0.24321888 -0.5886755 0.28120083 0.25865766 0.09765927 -0.019788073 0.054744773 0.097472124 0.061507195 -0.044189837 0.4614684 -0.17918849 0.014290553 -0.4565705 -0.46686625 0.066106185 -0.15418264 0.2799991 -0.44518974 -0.4490801 0.27670336 0.15809831 -0.34142402 -0.48598003 0.17042139 0.7168674 0.059191883 0.4169369 0.47818446 0.33795917 -0.13451809 0.27913478 -0.17989069 -0.6876026 -0.068118 -0.022808442 -0.30102414 -0.75963783 0.0054400726 0.82228005 0.16628167 0.17071472 0.41332072 -0.02202461 0.6377902 -0.036586136 0.25085104 0.23066692 0.46858114 0.70196503 0.07777852 -0.6038892 0.026753422 -0.18909326
89 0.25436667 0.23298526 -0.13825187 0.38547 -0.013587268 -0.38632607 0.30273196 -0.20823313 -0.668095 -0.07194825 0.085411035 -0.16586776 -0.45737427 -0.22464886 0.3139567 -0.17825453 0.004374554 0.060166426 -0.6402626 0.17760235 -0.36020753 0.5746286 -0.5261287 -0.25118124 -0.11561462 0.7067331 -0.16471216 0.8355607 -0.2367521 -0.26550248 -0.46339515 0.032649595 0.008194848 -0.5314117 -0.08854508 0.50665474 0.20936818 -0.3241018 0.5583 0.46664807 0.17621523 0.69065034 0.40519366 -0.48223966 0.25390482 0.15471669 -0.9976714 0.055928946 0.6669456 0.034100253 -0.53166884 0.34939578 0.9137217 0.7780985 -0.067835145 0.55278575 0.10921403 -0.6258819 -0.09077533 0.41629103 0.32061672 0.12731852 -0.6479729 0.4003313
59 0.56510967 -0.5279469 -0.117419966 0.26505086 0.19748925 -0.29909217 0.33574143 -0.22723106 -0.34499466 -0.34055457 0.6804006 -0.7124537 -0.7188739 0.827106 0.21279798 0.63772684 -0.06991102 0.13268602 -0.37677988 0.5334228 0.26832163 0.43701637 0.2686505 -0.00087050913 0.43091622 0.040007196 -0.7268366 -0.538309 -0.08377852 0.29817727 -0.16014527 0.2656572 -0.20418012 -0.89578074 -0.12075753 0.28558365 0.03266178 0.114631295 -0.21479915 0.32891664 0.007265871 0.8308871 0.89034694 -0.054354925 0.23324858 0.052242275 -0.08866096 0.04148613 0.3261976 -0.47794744 0.2589931 -0.21021633 -0.41134256 0.10965189 -0.44477484 -0.72642356 -0.028110966 0.16624536 -0.4875701 0.3775155 -0.11695346 -0.6799139 0.65954876 -0.5971041
65 -0.30330455 -0.4097132 -0.40942058 0.80917543 0.16677436 -0.11208586 0.028486028 -0.03049002 -0.56058294 -0.45306858 0.20156446 0.3438424 0.31420904 -0.46624428 0.12847447 0.05327147 0.5038459 -0.49920648 0.28803512 0.51273596 0.21934415 0.7288583 -0.41690773 -0.44140294 -0.083273396 0.21276075 -0.39420578 0.01874694 -0.37720174 0.057568874 -0.023581553 -0.026188584 0.5040117 -0.009586028 -0.3289317 0.25049374 0.056509648 0.24737306 0.6658198 -0.5940604 0.40478495 0.033701293 -0.056675114 0.47646534 0.30010074 0.18416429 0.057094015 0.36690956 0.1517036 0.98541695 -0.3825647 0.4965859 -0.50023174 0.80059457 0.8722746 -0.41454086 0.1658963 -0.31333798 -0.0011643063 0.93179387 0.68505466 0.15141137 -0.42289236 -0.35748386
35 0.59927994 0.7904914 0.030644398 0.6327977 -0.6786433 -0.056934476 0.29370362 0.10638261 -0.76205975 -0.5625508 -0.047924478 -0.31398037 -0.35519034 0.37165633 0.2601404 0.27297965 -0.2165198 -0.46821994 -0.28778046 0.7215692 0.18389902 0.7441029 0.3234654 -0.43923736 -0.89022577 0.1663311 0.022713972 0.6065388 0.5054733 -0.66987705 -0.08111154 0.22540782 0.6582107 -0.0679521 -0.44076452 -0.093244344 -0.21075763 -0.12381111 0.44660816 -0.2115488 0.10413538 -0.40588456 0.1398343 0.23339012 0.38430142 -0.5034088 -0.26027027 -0.6180165 -0.325042 0.5662248 -0.36938745 -0.25130296 -0.5445325 0.11280297 -0.60969746 -0.33365402 -0.35557714 -0.2545068 0.084775634 0.1628196 -0.51333874 -0.8642302 -0.030729989 0.4998153
53 0.014228638 0.39192414 0.29773042 0.23797859 1.2754492 -0.6717511 0.20068671 0.23679984 -0.16022107 -0.8399467 0.18399414 -0.6847575 -0.11060737 0.05489939 0.40209955 0.14004804 0.6157837 -0.08285172 -0.11699454 0.24458474 0.30129588 0.6787939 -0.3639329 -0.0982404 0.24540403 0.5701624 0.034146413 0.896258 0.45360675 -0.64311254 -0.51879126 0.16863608 -0.1045701 0.11256633 -0.49171442 0.07713072 0.031318456 0.29293215 -0.4687553 -0.26690784 0.6714128 -0.36935657 0.05687257 -0.3056115 -0.38279524 -0.1855809 0.60902 -0.7307851 0.3984738 0.5867101 -0.23577236 0.7296863 0.043324765 0.093985036 0.17778663 -0.002764317 0.49673232 -0.4361101 -0.2684973 0.17256792 -0.2912271 0.24856694 0.18031143 0.25853088
75 0.47174224 -0.34329972 0.32758528 0.430682 0.5919693 0.44766402 0.14068764 0.40925425 -0.2438178 -0.5309999 -0.3418895 0.26303822 0.3495534 -0.12504663 -0.16373305 0.3734018 -0.07601244 -0.47330102 -0.5727295 1.1167045 0.34473622 0.34097153 -0.68204343 -1.3694595 0.040901065 0.20664224 -0.9677356 -0.15555625 0.26230177 0.38095185 -0.5198082 -0.067402825 -0.23541082 -0.0129204 0.22965828 0.03457019 0.17971754 -0.2828889 -0.21731642 0.74043775 0.69099784 0.41214877 0.2918685 -0.45579284 0.080960386 -0.2524473 0.49027717 0.06980379 -0.10252889 -0.30150676 0.069417134 0.19975105 0.24435015 0.04157042 -0.6193212 -0.2000736 -0.1828029 -0.4284609 0.17825311 0.02225526 0.0796267 -0.40481582 -0.39100042 0.4523614
26 0.4758158 -0.056833617 0.051536493 -0.24321283 0.5372536 0.36282778 0.58218825 -0.27934256 -0.043774623 -0.20847103 -0.25923413 -0.8618442 -0.6777278 -0.4948695 0.16652218 0.32592756 0.15218586 0.22160342 -0.36737505 0.5245541 0.55339766 0.24807808 -0.038436804 0.024394926 -0.2817536 -0.3860226 -0.4067406 0.3686264 -0.26823744 -0.12968926 0.28045675 -0.05668095 0.53738433 -0.8666282 0.48826808 -0.14651762 0.24852529 0.21179004 0.14045732 0.40481862 -0.5897989 -0.027999278 -0.14477381 0.44501162 1.0242431 -0.03248054 0.14697798 -0.42304015 -0.71754706 0.61252093 -0.31431913 0.78770846 0.21958718 -0.07139492 -0.31055072 -0.6032203 0.7044149 -0.70221096 -0.44455552 -0.09592723 0.394165 -0.08707755 0.49703643 -0.3928359
1665 -0.30415404 -0.16684338 0.15369296 0.8359437 0.42193714 0.44768617 0.12259568 -0.17513838 -0.47845182 0.4333568 0.5137096 -0.03760859 -0.433211 0.20165457 -0.1478553 0.7291891 0.81006104 0.39138204 -0.13786098 0.53979087 0.47578806 -0.2563663 0.4254978 -0.5255528 0.5586334 -0.068924055 -0.41961545 0.35667178 0.14881323 0.42723733 -0.71032524 0.28149483 0.1212951 -0.4987309 -0.7401452 0.4497218 0.25952107 -0.17583506 0.37708893 -0.3679401 -0.67458194 0.14057751 0.56134635 -0.0067463163 -0.5133718 0.5702543 -0.31661463 -0.8551523 0.56145704 0.23909314 -0.13360985 -0.5761317 0.5398037 0.23706283 -0.051556785 -0.1341132 0.15738472 -0.2330961 0.05490491 0.5505221 -0.35020503 -0.16906162 -0.13562499 0.42401287
196 -0.14187945 -0.59104097 0.076620914 -0.6105272 -0.7846052 -0.19049762 0.24868506 -0.6394971 -0.42693278 0.016412083 0.31336284 -0.10448522 -0.62254083 0.38726467 0.2992132 -0.056527067 -0.040226206 -0.05611653 0.59635746 0.53055614 0.3488768 0.63831055 -0.11524225 -0.23258954 -0.33742493 0.47647044 -0.7339027 0.20489828 0.5977899 0.4289655 -0.47157663 0.4198421 -0.15248346 0.035971053 -0.0018698097 0.08052732 0.52477115 -0.6585587 -0.20891942 -0.19714625 0.040950768 -0.13705824 0.9387168 -0.1208118 0.42898783 0.05346455 -0.06607477 -0.67905194 -0.553876 1.1844304 0.47375983 0.2654929 -0.2580145 0.5051274 0.19820686 -0.30269292 -0.018420767 0.09439866 -0.6655527 0.09132732 0.23206308 0.1659419 -0.3516679 0.2361056
1675 0.5003304 -0.07134796 0.70498925 0.18119845 -0.063391246 -0.03260273 0.42842644 0.31796485 -0.78714514 -0.833639 0.047546655 0.20029393 -0.084604 -0.38098922 -0.46581554 0.34040624 -0.36627594 -0.1058443 -0.11725245 0.5475912 0.9174336 -0.10778466 0.35914847 -0.9087766 -0.60731274 -0.032898627 -0.42812788 -0.5739436 0.048957754 0.37674582 0.9442585 0.3864056 0.12789318 -0.58918434 -0.9481467 0.34277704 0.036297128 0.32943603 -0.14511348 0.101296924 -0.10218643 -0.1173164 -0.09007519 0.13187677 -0.19690923 0.46080816 -0.299085 -0.5944717 0.33062482 0.20952187 -0.13085233 -0.16557714 -0.44669822 0.95497406 0.3992287 0.0024152908 0.5760173 0.19009553 -0.018942218 -0.25846344 0.3929387 -0.035638515 -0.4756517 -0.29084325
83 0.29151034 -0.8235212 0.08255343 0.3700273 0.14000797 -0.011583498 -0.6324974 -0.2847124 -0.14629225 -1.3646755 0.4418908 -0.30460045 -0.26434335 0.17870887 0.8196735 0.16529621 -0.38216516 -0.32806846 -0.23475572 0.41198385 -0.0065265694 0.14728831 -0.25064984 -0.33201742 -0.14459677 0.15675515 0.10939261 -0.09749735 0.429285 0.0922102 -0.5565969 0.22709683 0.43932456 -0.42801782 0.08239287 0.09199755 -0.4416883 0.10504318 0.08933206 0.14198798 -0.1401078 0.28983667 -0.51739675 1.217396 0.4760215 -0.10607508 -0.0314069 -0.67516935 -0.04810101 -0.18205965 -0.3411362 0.2315606 0.7639055 0.6554992 -0.15510766 -0.010028459 -0.2645718 -0.22517236 -0.045095116 0.13510545 -0.44497916 0.078825355 -0.23369966 -0.7397988
132 0.41396263 -0.05966108 -0.2736321 0.38700423 -0.4914026 -0.09914337 0.21897705 0.13991876 -0.5879187 -0.60900414 0.35725638 -0.34143806 -0.7320799 0.092149675 0.20840587 -0.10259548 -0.5942558 -0.12251139 0.6848577 1.186087 -0.50770277 -0.44448858 0.2150855 -0.9848279 -0.168988 0.00010941771 -0.44756237 -0.14843519 -0.6362386 -0.05249295 -0.40277255 0.45797458 0.43835822 0.35553733 0.33109704 -0.113545865 0.6708374 -0.45618522 -0.1628517 0.03667986 0.10945919 0.22641443 -0.22164927 0.23494425 0.06305293 0.2401826 0.05046859 -0.39429006 0.71627736 0.6600022 0.071103714 0.20240067 -0.38322085 0.06401178 0.075704604 0.24112245 0.2907591 -0.7456553 -0.28852534 0.57288456 -0.74611604 0.18451828 -0.032499332 -0.027924115
107 0.5100183 0.01880055 -0.17693399 0.20249401 0.003440398 -0.3420098 -0.27497193 0.023281569 -0.54388934 0.45516184 -0.43489307 -0.33231738 -0.25027955 -0.09670557 0.079655714 0.5908616 0.47228026 0.021531198 0.158746 0.9201985 -0.018018123 -0.021626374 -0.14564592 -0.3566593 -0.2558922 -0.41228467 -0.34192684 0.14152013 0.522938 -0.1828956 -0.6640792 -1.158611 -0.45271435 0.27926263 0.10192092 0.7348852 -0.6807654 -0.083708234 -0.4189031 0.43590474 0.13231523 0.35032183 0.19187373 0.8893289 0.70619005 -0.27739477 -0.06743739 0.18564507 -0.2841505 1.3020513 0.29691973 0.9091458 -0.07151251 0.066510685 0.16205823 -0.058054227 0.047702733 -0.020096073 -0.16961491 0.5425611 -0.082533024 0.0065579177 -0.21933323 0.25215122
1656 0.09600978 -0.5380439 -0.33749238 -0.15172386 0.2831654 -0.42543104 -0.3454298 -0.61356986 -0.852519 -0.4692625 0.8510078 -0.42811948 0.44858757 -0.47159454 -0.7524506 0.38333493 -0.27729574 0.77401334 0.293946 0.37886664 0.059518315 -0.0265879 0.26355475 0.16688327 0.5091104 0.018490748 -0.24886177 -0.58549166 0.19077405 0.14168172 -0.26730803 0.05857308 -1.0288013 0.11126525 -0.17640136 0.35806146 -0.2386337 0.3895661 -0.24281965 0.041002948 -0.06565673 0.09343127 -0.10087729 0.052525017 0.39489105 0.5209612 0.24381639 -0.05316339 0.051910985 -0.28052807 -0.3522346 0.41930154 0.81301004 0.6893626 0.49367192 -0.37959695 0.67696327 -0.67774904 -0.6886743 0.22505607 0.46567112 -0.17408738 -0.18383345 -0.4827491
79 0.5351429 -0.7607445 0.3959954 0.75448364 0.1844508 -0.24325274 0.37539986 -0.35978964 -1.1735868 -0.039107773 0.004020868 -0.46443856 -0.16521508 -1.0061275 0.46575803 -0.17901778 -0.113393694 -0.15442255 0.30729395 0.2600183 -0.07583778 0.5422856 0.0623299 0.22474268 -0.33257812 -0.6752623 -0.60993993 -0.2882042 0.100808844 -0.27368268 -0.023040313 -0.20138627 0.19460768 -0.6472816 0.11974407 -0.346547 0.45968536 -0.14371368 0.45548972 -0.23182824 0.8592235 -0.3876411 0.16055165 0.18524194 0.12185713 0.042887762 0.2726238 -0.02079409 0.20793864 0.40538466 0.018047642 -0.4677574 0.8667941 0.08022166 -0.44649076 0.30177334 0.19135982 -0.099505104 -0.49373224 -0.0051834187 -0.1945792 0.48268676 0.028502349 0.4279474
106 0.14266644 -0.6193665 0.030493358 -0.51679194 0.28189075 0.3108443 0.83545667 0.36150423 -0.33935145 0.35102338 0.12681861 -0.05267783 -0.08733777 -0.75908244 0.04360036 0.8757433 -0.18246177 -0.004835934 -0.38251603 0.72529125 -0.3389138 0.06474275 -0.43911803 -0.09082013 0.036354087 0.047308106 -0.55606633 -0.25275055 0.5260394 -0.8484328 -0.15102914 0.59390736 -0.98355424 -0.10531903 -0.44939157 -0.20675553 0.17858484 -0.110999286 0.39066845 -0.17085293 0.2485218 -0.14833184 -0.22742292 0.0013522155 0.19034088 -0.618308 -0.08747667 -0.96725935 0.39526135 0.5187803 0.11509718 -0.088630736 -0.09589555 0.4236516 0.3092307 0.29840943 -0.48034126 -0.62581325 -0.45109913 0.24148257 -0.7154937 0.08908505 -0.67884713 -0.21599306
96 0.2982036 -0.57964784 -0.3917108 0.33574334 0.25678605 -0.048366446 -0.24334611 0.87121147 -0.12828785 -0.87681216 -0.046627894 0.28778568 -0.30619696 0.1432395 -0.35640666 0.52823615 -0.7666888 0.07592949 0.08574991 0.23793833 -0.109185755 0.7128201 0.66665447 -0.10602779 0.36445835 0.2389703 -0.39579937 0.6348127 0.032290094 0.65122867 -0.050249424 -0.60668045 0.23714852 -0.39090526 0.32474804 0.2715251 -0.31276962 -0.14465629 0.51885676 0.3325014 0.5388606 -0.69401526 -0.06397272 -0.32340246 0.7220611 -0.33987418 -0.18093601 -0.47770077 0.33888867 0.73050576 -0.78861135 -0.105434075 0.34475642 0.31590256 -0.12316742 -0.5280968 0.2615585 0.15831995 -0.014172958 0.58938503 -0.41880697 0.21129279 -0.0055633965 0.15909506
60 0.119246095 0.30508012 0.6665304 0.72864085 -0.29124308 -0.008316545 -0.003731881 -0.0641067 -0.090442605 -0.51640886 -0.00033019957 -0.71415216 -0.17976807 -0.054468635 -0.12766568 -0.29566866 0.2065168 -0.21352412 -0.7347669 1.199653 0.8960724 0.13249359 -0.36352083 -0.42047113 0.7218903 0.8238071 -0.11804516 -0.11811548 0.24807729 0.6503573 0.07843879 -0.33372423 0.35521293 -0.17922503 0.115679026 0.3245051 0.17530861 0.11039756 -0.19127731 -0.41371307 0.37586415 -0.13696058 0.14668891 0.16297033 -0.4071508 -0.6425945 -0.58041805 -0.024700474 -0.4353565 0.8691388 0.47159722 0.018433806 0.4481112 -0.039613068 0.46424335 0.29534128 0.75794894 -0.17218466 -0.10567771 0.08511457 0.67928904 -0.1497243 0.6132439 -0.2926961
42 0.5027624 0.44951725 0.33049497 -0.0009212843 0.23267558 -0.513801 -0.08660133 0.5736803 -0.8736515 0.09523848 0.21950749 -0.12722495 -0.87912995 -0.4838481 0.61136043 0.2679534 0.008731022 -0.84079146 0.094121106 0.92238325 -0.068391845 -0.34965193 -0.030537818 0.4342691 -0.19710472 -0.011068107 -0.2935348 0.038070593 -0.35193932 0.04042465 -0.16306719 0.101564825 -0.3613297 -0.073454335 -0.05518947 0.0547745 -0.07984455 -0.54494584 0.14706437 0.19117332 0.28695402 0.16466868 -0.22005275 -0.37593502 -0.4645769 -0.5342776 0.45640028 -1.1111139 0.2346048 0.438087 0.61478996 0.18729971 0.55461746 0.44987914 0.082822666 -0.73795384 0.100959376 -0.2761637 -0.033735473 -0.26050624 0.57882416 0.34405753 -0.26994428 -0.54275674
77 0.3080332 -0.4668903 -0.1242689 0.20669141 -0.2595115 -0.3900357 0.10891842 0.21122752 -0.45835188 0.26828736 0.11935702 -1.0600878 -0.4933713 -0.28125864 -0.44167495 1.0186917 0.2370561 -0.21860208 -0.004692709 -0.36325166 0.73713213 0.33268487 -0.48654145 -0.85231495 -0.54156536 0.79722273 -0.58025753 -0.02329828 0.30698928 0.35564974 -0.55711657 0.40632233 -0.59277403 -0.48097044 0.7341319 -0.4004196 -0.03447554 0.1377928 0.051292554 0.012631502 0.18297233 0.1932861 -0.25742465 0.016499298 -0.24135983 -0.6802616 0.057127807 -0.0039459923 0.42131156 0.4093483 0.34600452 -0.24230339 0.3475325 0.49162945 -0.08295791 -0.4797308 0.22839867 -0.61532915 0.25335693 -0.62158567 -0.00047048318 0.09346592 0.69681245 0.26453593
100 0.71033394 0.092846714 0.6395106 -0.18287086 0.25454694 -0.18820107 0.07529836 0.017864194 -0.88978374 -0.0064607006 0.4423398 -0.16782832 -0.36184156 0.21213305 0.27423626 0.25244677 0.12320791 0.035640907 0.535297 0.73900586 0.4521964 -0.0095149735 -0.57880396 0.084882 0.24497145 0.12350366 -0.21971397 0.41613102 1.137066 0.2576381 -0.08509316 0.35281783 -0.59945613 -0.011613998 -0.10053138 -0.033632394 0.53770155 -0.89441705 -0.04655441 0.75469506 -0.5536989 -0.40957212 -0.52648187 -0.029086407 0.719808 -0.044736397 -0.09780271 -0.36616543 -0.06333426 -0.3081603 -0.3690078 -0.19486825 0.22453783 0.16944556 0.32967734 0.35727397 0.91983867 0.07291606 -0.5619041 0.294402 -0.44266537 -0.4669927 0.21635894 -0.06637167
105 0.2737487 0.3289036 0.56134295 -0.1178735 0.23100778 -0.25969416 0.49366438 0.09842157 -0.29026648 -0.034262694 0.37737712 -0.040321685 -0.1849856 -0.41389418 0.3766987 -0.29723874 -0.5489334 -0.16362421 -0.7437458 0.26923114 -0.092656605 1.0277545 -0.6103728 -0.06128716 0.2967622 0.046370056 -0.7426308 -0.2916859 0.3634066 0.2731868 0.20125256 0.15539537 -0.40682176 -0.223677 1.3072016 0.3542602 -0.17311011 0.32183817 -0.06948141 -0.19795045 -0.15522109 0.7396379 -0.648963 0.023434073 0.11454793 0.42365745 -0.20107421 -0.4019904 -0.06237033 0.94564575 0.40986988 0.25201154 0.48152843 0.20388323 0.058186263 -0.33510953 0.21895644 -0.0644866 -0.4303642 0.76916975 0.033474047 -0.13683742 -0.24439634 0.22253561
111 0.1700041 -0.68368334 0.52472806 -0.019770082 -0.12263501 0.0695755 0.15990433 0.542915 -0.20009989 -0.37265387 0.1363358 -0.35054564 -0.13014692 -0.20000237 0.7553999 -0.2847659 0.49565288 0.27028906 -0.10815297 0.5774818 0.25618622 0.38047054 0.68601024 -0.29724503 0.008792667 0.7015513 -0.3027484 -0.10219172 0.07814056 -0.22758098 -0.10076206 0.45746884 -0.10608726 0.9187499 -0.5159834 0.009237222 0.17657237 -0.55156535 -0.50028557 0.5709361 -0.03852836 -0.43636474 -0.3858718 0.121484175 0.54014647 -0.44982272 -0.029767044 -0.44424272 0.7420771 -0.0020515756 0.47944018 0.6373297 0.8034335 0.8693224 -0.6349834 -0.49977103 -0.4013428 -0.39393112 -0.40452072 0.31624883 0.037091944 0.034310594 0.17232072 0.53106284
37 0.57224935 0.011878111 0.13820416 -0.10281317 -0.19569224 -0.3620177 0.13681388 -1.0663157 0.27467445 -0.02398426 0.30918038 -0.7273001 0.021845803 -0.13572347 -0.10995636 0.12677099 0.21637681 -0.47980273 -0.13192931 0.76954216 -0.1582637 0.09734642 0.40299505 -0.020716868 -0.11225627 0.68596756 -0.0044291173 0.1300104 0.8249293 -0.15166163 0.23486914 0.22876535 -0.37665886 -0.55983526 0.029655127 -0.82175124 0.15291749 -0.33191192 0.13933265 0.53603375 0.77454084 0.8554191 0.3812757 0.62013227 -0.100161724 0.63311934 0.6581174 -0.44150597 0.7484301 0.67936987 0.5068236 0.29147947 -0.007283566 0.23383218 0.9551141 -0.42342708 0.21499188 -0.500614 0.4947978 0.73027295 0.06660249 -0.357522 -0.5106953 0.015230712
28 -0.27524376 -0.62454957 0.0021685285 0.6017404 -0.0562681 0.15607835 0.016791556 -0.41073638 -0.65609336 0.6021611 0.43552977 -0.1640438 0.0920608 0.5290059 0.16377588 0.27805033 -0.026211338 0.22610211 0.16668054 1.0886139 -0.0049019116 -0.20141143 -0.93900543 0.43952885 -0.67926174 -0.182271 -0.5848011 -0.06598986 0.15648346 0.17688788 0.004612297 0.098759085 0.56652886 -0.03966519 0.5548554 0.021641614 -0.048910342 0.49823996 0.065510385 0.16980775 0.10794464 -0.38911292 -0.6382742 -0.20585771 -0.14209981 -0.18080579 0.39266068 -1.0041697 0.3567531 0.025853623 0.33867607 0.12511183 0.40283492 0.8768371 -0.0984219 -0.004502272 0.17606537 -0.22908624 -0.64467067 1.0226341 -0.010379919 -0.7722754 0.2101338 0.11072051
69 -0.1806035 0.34066704 -0.4470453 0.7761139 0.34253433 -0.08199699 0.27634886 0.4385603 0.13904329 -0.2762082 0.68350726 -0.50067484 -0.43847877 -1.0550225 0.28702235 0.9023942 -0.3902261 -0.19487631 0.4577089 0.2700233 0.47305098 0.40297753 0.072072536 -0.25076994 -0.76002586 -0.24827105 -0.37824246 0.04734197 0.23435432 0.21035852 -0.49467498 -0.12234492 0.19048709 0.14283161 0.08793557 0.719609 -0.4460937 0.38157573 -0.32945174 -0.7788324 -0.57193553 0.12069038 0.6775521 0.010871273 0.7806988 -0.06448269 -0.07510873 0.28283343 0.6098046 0.23914242 0.43520227 -0.061671376 0.52047104 0.5167851 0.167945 0.3629978 0.39707768 -0.52609664 -0.5799209 0.16635457 -0.33873013 -0.14268768 -0.08112463 0.10098552
29 -0.22145045 0.08246558 0.7465078 0.34358948 -0.08108211 -0.010011182 0.6199774 -0.58205116 -0.6419523 -0.3942599 0.58168083 -0.5098808 0.47207737 -0.40984607 -0.29177147 0.5350254 -0.14965662 0.3830014 -0.23148093 0.43316597 0.31045872 0.2197872 0.40892544 -0.24166934 -0.24897423 -0.5358677 0.38999486 1.2294006 -0.5058455 0.5551754 -0.14231409 0.3792346 -0.18869108 0.04372388 0.34979665 0.66038924 0.47136724 0.486209 0.046890847 0.26516715 0.38378263 -0.060847647 0.21666719 -0.031668037 -0.08596002 -0.37751603 0.085934624 -0.44654834 0.10548804 0.2823391 0.33034682 0.7629584 -0.042518094 0.5443553 -0.5962038 0.16304675 -0.14476967 -0.2541873 0.25333342 0.8317422 -0.06412614 0.23934537 -0.34976566 -0.18452439
51 -0.06406074 0.2019107 0.2720879 -0.4609659 -0.43630382 0.3904879 0.32298645 -0.29507887 -0.4238173 -0.6013248 0.11787004 -0.7757954 0.18957147 -0.59731036 0.17225629 0.7603026 0.46824706 0.31075874 0.04136709 0.34595442 -0.44620126 0.28615966 0.42444816 -0.65381896 0.4118927 0.4193743 -0.23942055 0.0690562 0.25548163 -0.20493189 -0.22778727 -0.10782735 0.16974811 -0.23442264 0.16073069 -0.4577034 -0.87733173 0.20323765 0.2602087 0.8723082 -0.31885383 0.063691005 0.34691235 -0.38481346 -0.044545162 -0.09131192 -0.38364327 0.16405454 0.60597056 1.0176601 0.42147085 -0.08211981 0.33470413 0.4812259 -0.33353996 -0.20708437 0.060288057 -0.38032547 -1.0794444 0.36307588 -0.5504481 0.08201357 -0.4717648 -0.6075258
32 0.08578359 0.5825362 0.452695 0.62258637 -0.07518202 -0.044009093 0.38385522 0.5307913 -0.64474595 0.22763771 -0.728562 -0.7291369 -0.11086544 -0.110266425 -0.1958515 -0.0007858799 -0.33726504 0.70938444 0.060141798 0.41080335 -0.712219 0.7401883 0.7434351 -0.2586709 -0.14922224 0.06994483 -0.40610188 0.53308785 -0.05457835 0.40284932 0.16789332 0.5418325 -0.66728354 -0.504717 -0.2615809 -0.43312302 0.18243328 -0.7096471 0.17180708 -0.13161097 0.22486836 -0.061024822 0.14808144 0.583865 0.033570416 -0.20105152 -0.3948709 -0.75442535 -0.4370564 -0.12503266 -0.041174628 0.96012545 0.12522128 0.4280935 0.65840226 -0.30680907 0.68627614 0.014152866 0.016048882 0.529057 -0.5378298 -0.4126102 -0.057931643 -0.546577
638 -0.42745465 -0.07485635 -0.05224929 -0.4700023 -0.24936919 0.075765505 -0.013625953 0.53004766 -0.70716274 -0.18001842 0.314158 -0.550901 -0.71507275 -0.11078465 0.07888017 0.5127125 -0.22830796 0.21462181 -0.05578329 -0.18031141 0.12622626 0.62300634 0.26463836 0.06012901 0.16566896 -0.11873381 -1.1322373 0.2356217 -0.14174218 0.37658548 0.31470814 -0.60837996 -0.084118046 0.26425022 -0.5315864 0.648105 -0.12543848 0.30034775 -0.57058066 0.8603258 0.63009953 0.02321405 -0.018702472 -0.2904075 -0.20994917 -0.09617045 0.24356931 -0.7812364 -0.69492346 0.7315631 -0.15273161 0.08959649 0.6479021 -0.13218237 -0.49845254 0.20652956 0.27558675 -0.53756326 -0.21303213 0.4167382 0.6022317 -0.5326647 -0.48132196 0.5235431
70 0.5664507 0.18084976 -0.1914569 0.4558871 -0.32222465 0.39669156 -0.026271377 -0.8125957 0.18698938 -0.22189486 0.38827005 -1.4028693 -0.47309127 -0.18736328 0.36822057 0.33869475 0.28397396 0.2521807 0.79373145 0.10375112 0.23233837 -0.0060056555 -0.21597345 -0.4307899 -0.15853159 0.33132768 -0.470332 -0.36012053 -0.09281926 -0.6280916 0.12416426 0.1937553 0.2847159 -0.33556125 -0.2337053 1.0728135 0.12837468 -0.02264074 -0.5691946 0.32922345 0.18687917 0.31465545 0.060964085 0.022073872 -0.16039409 -0.4587874 0.011652109 -0.7866725 -0.5395649 -0.47031176 0.094686404 0.60875976 -0.26326817 0.5078125 0.3388408 0.07502598 0.34913793 0.05889047 -0.3100292 0.49080577 -0.34678325 -0.38846254 -0.53747517 0.52448153
82 0.5848255 -0.033567317 0.753925 -0.035829704 -0.2149832 -0.28343797 -0.7759593 -0.34710297 -0.06922988 0.41321528 0.48684087 -0.18000576 -0.6783129 0.54927665 -0.09505119 -0.24199812 -0.29014665 -0.07852135 -0.39040872 0.2530427 0.9017886 0.5837251 -0.12068672 -0.43103698 -0.10731529 0.09185621 -0.5171422 0.5118185 -0.7051693 -0.21972457 -0.1504984 0.10518265 0.15566649 -0.4180622 -0.610063 0.02716355 -0.31659654 -0.111594655 0.42520353 0.0040582996 0.7980226 -0.16169107 -0.36140245 -0.20823598 0.9007753 0.2622853 0.5887619 -0.47478935 0.9455798 0.94890153 0.31422275 0.0977364 0.33878154 -0.40268904 -0.35412446 -0.1758205 -0.06894833 -0.5069092 -0.33231863 0.3961574 -0.11507691 0.4607932 0.2917101 0.022948638
23 -0.21781428 -0.4229583 0.5567641 0.13307029 0.14695114 -0.6661308 0.9003443 -0.18444987 -0.51623917 0.17654032 0.608649 -1.032435 -0.33013117 -0.25371706 0.53078204 0.32331353 0.46832076 0.0032349806 -0.03862539 0.37639466 0.376785 0.17625956 -0.103887916 -0.20815428 -0.06275982 -0.09033092 0.15876304 -0.6553141 0.23289263 -0.27537867 -0.3449296 0.36686236 0.078345776 0.2867869 -0.020468097 0.98838323 -0.24894683 -0.4526513 0.23885942 0.32033515 0.09220996 0.049449343 -0.5142259 -0.66269094 -0.16204844 -0.5348624 -0.13417512 0.38947102 -0.47058252 0.4401078 0.1956227 -0.20002104 0.7372888 -0.08494542 0.31797886 -0.65566427 -0.050376914 -0.08038633 -0.11184746 0.42805412 0.2741821 -0.16427095 -0.25637123 -0.9862112
95 -0.29909205 -1.1500559 -0.12646845 0.2296465 -0.22772622 -0.6471641 -0.37742102 -0.28030252 -0.3684003 0.11549848 -0.26187694 -0.7392253 -0.6034603 -0.4530548 0.6865163 -0.090749815 -0.0034152556 -0.40082622 0.4275573 0.10838636 0.22297008 -0.44099203 -0.19255848 -0.47722447 0.44376087 0.13641527 -0.40629736 0.56679535 -0.14407651 0.6834163 0.26229843 -0.17222625 -0.48558655 -0.5803233 -0.13874254 0.38908726 -0.45320758 -0.26033145 0.15531804 0.79990405 0.46059656 0.27958083 0.2351796 -0.73482025 0.6527296 0.063121304 0.31368876 -0.6005298 0.2980174 0.026756367 -0.5711337 0.11039325 -0.23511863 0.9357067 0.522537 -0.060200866 -0.04246781 -0.019268438 -0.35186902 0.14832376 -0.18722942 0.40968788 0.030205484 -0.2815003
66 0.4255285 0.42810598 0.75538856 0.59371644 0.40884763 -0.30114418 -0.25599682 0.39512324 -0.97548234 -0.43608677 0.031691846 -0.07413478 -1.1218889 -0.12959616 0.22173204 0.2175225 0.23891516 -0.39260367 0.37908214 -0.5170109 0.69426936 0.3997617 -0.02982473 -0.5897343 0.5596736 -0.41765872 -0.33224148 -0.022158498 -0.09009111 0.1738906 -0.2282605 0.09842928 -0.34467384 0.68702185 0.3179988 -0.3387348 -0.20909308 0.4814705 0.41989496 0.4676916 0.4105189 0.39758936 0.49013194 0.7911256 0.19481085 -0.14533338 -0.19603842 -0.010746807 -0.008540997 0.103434354 0.60149026 0.53174895 -0.16721496 0.22330606 0.09401334 -0.40222967 0.304274 -0.57909846 0.23472385 0.20198388 -0.17799538 -0.40399978 -0.90758705 0.0031752442
233 -0.29695916 -0.58042324 0.6207336 0.097189985 -0.2676211 0.10183152 -0.1966191 -0.78615177 -0.22972198 -0.18443854 -0.46587294 -0.17218076 0.08035503 -0.39925474 0.023794608 -0.19313471 -0.55166703 0.17138934 -0.23370214 0.8251582 -0.45742473 0.2767333 -0.05558238 -0.51859516 -0.29538023 0.49600908 -0.23823814 -0.5043708 0.57872343 0.31031463 -0.6802551 -0.6906129 0.07930273 -0.7472288 -0.9319215 0.3010768 -0.42983916 0.3834549 0.46050793 -0.20701274 -0.08629581 -0.25670272 0.1586182 -0.6326114 0.19799818 -0.015022288 0.36826643 -0.0027575595 -0.4802328 0.5011551 0.05708698 -0.063516684 0.79689217 0.16765074 0.12550469 -0.081206 0.36366162 -0.34931833 0.023849566 0.6842106 -0.647182 -0.9163885 -0.06985532 -0.38189834
85 0.3795301 -0.01784871 -0.7172251 -0.1062515 -0.18257287 -0.6874895 0.23463528 -0.2763341 -0.8792142 -0.4283219 -0.08241477 -0.0913625 -0.08891003 0.15022777 0.4271903 0.16241656 -0.71464926 0.5904404 -0.3760756 0.42433912 0.82001424 0.085992105 -0.15486175 -0.6628591 0.19082926 -0.22773027 -0.598188 0.3474238 0.09166685 0.42192858 0.5373598 0.54497284 0.45161512 -0.12706898 0.70119417 -0.021877564 -0.29961926 -0.10622754 0.16324331 0.4970378 -0.120330736 0.5194027 0.26990268 0.5499901 -0.03251339 -0.078279406 0.149475 -0.21837056 -0.31263503 0.2732731 0.4820262 -0.43479097 0.8235775 0.16097148 0.6933324 0.55372494 0.2610999 0.07671599 -0.53547037 0.2277777 -0.38969296 0.33815798 0.09776096 0.15648267
41 -0.5455046 0.7925544 -0.03416922 -0.008261808 0.25980932 -0.36233166 -0.6256644 0.4944113 -0.7678341 -0.15930194 0.0968401 -0.2705605 -0.250608 -0.57293034 0.18120831 -0.11130677 0.024579361 -0.28761578 0.449839 1.3282224 0.14467575 0.6173633 -0.23272574 -1.1013428 0.0011013979 0.2745585 -0.175505 0.008929511 -0.14387126 -0.510324 0.3236387 0.42268854 0.14580195 -0.14603454 0.4005011 0.45808843 -0.4633637 -0.43402064 -0.050606154 -0.041593425 -0.20365804 0.026249787 -0.27387136 -0.11266172 0.26238462 -0.37930903 0.3383189 0.028802114 0.14595407 -0.022728525 0.10971986 -0.56092465 -0.43746677 0.47422132 -0.2784216 0.30691472 0.08603227 0.11319959 -0.96761054 0.7299582 0.21713288 -0.8014209 0.2860396 0.015337747
1676 0.0074929637 0.26889765 -0.16902748 0.0063694324 0.23629463 -0.3077018 -0.2929271 -0.55131155 -0.23849547 -0.61112726 0.40435603 -0.043501142 -0.15731505 0.008585036 0.68925774 0.5667095 0.37318265 -0.2519009 -0.69327444 0.85700065 -0.28062302 -0.4344732 -0.07748518 -0.8180315 0.17004691 0.28559154 0.27842924 0.27534938 0.0051210914 0.15211883 0.50822145 -0.33726493 -0.72339463 0.13180758 -0.20735385 0.41910505 0.30561286 0.07013728 0.8015371 0.083791 0.2741695 0.10640573 0.3378518 0.2410063 0.6850925 0.5671353 -0.054480273 -0.5295969 -0.020537905 0.61187565 -0.030771187 0.46357983 0.611052 0.8061403 -0.043840405 0.61730903 0.7674957 0.0023694723 -0.91308266 -0.24406184 -0.5036543 -0.40630853 0.65643513 -0.19669601
33 0.97957486 -0.18844254 -0.10814835 -0.14453682 -0.15861559 -0.20906965 0.08055366 -0.27504852 -0.59087276 -0.40485424 -0.19703156 -0.42210358 0.2170132 -0.5883069 -0.57906115 0.24599162 0.4602688 0.68982697 -0.14395876 0.82417816 0.16243862 0.77016395 -0.15901539 -0.30186385 -0.24653642 0.018176576 -0.19163463 -0.049777713 0.22244245 -0.0854587 0.3752021 0.14008933 0.034885686 -0.038817134 0.23708259 0.26656556 0.05565008 0.23371795 -1.1843224 -0.42700908 1.0917276 -0.59888005 -0.28040433 -0.4284198 0.47522488 -0.07244957 0.28224513 -0.55873805 0.069872186 0.25488976 0.44177577 -0.051853087 -0.3882798 -0.07528464 0.089563236 -0.5697593 -0.1958295 -0.7818066 -0.33568862 0.44135892 0.3021811 -0.31019118 -0.24564138 -0.16990979
31 -0.41737622 0.03486618 -0.3954567 -0.1547661 0.34672874 -0.40273637 -0.0011542446 -0.19977283 -0.61516625 0.065993525 -0.07096147 -0.6051617 -1.006686 -0.08760373 0.2887407 0.44245657 0.19935377 0.040016554 -0.014127652 0.7141844 0.215657 0.6966622 -0.059250306 -0.36208946 0.18349741 0.3358982 -0.026971266 -0.10391059 -0.13891248 0.067015454 0.12440155 0.2996719 -0.6153493 -0.47617117 -0.053113032 0.63393307 0.52273035 0.11465709 1.0304662 -0.7993267 0.5668748 -0.040334485 -0.1539646 -0.21073277 0.32246426 -0.118384756 -0.25266257 -0.32556412 -0.4343052 -0.3505782 0.6400901 0.4096128 -0.16061753 0.3161001 -0.38379008 0.10564428 -0.55169994 -0.9769991 0.7975208 0.47665805 0.010933573 -0.13680089 0.23060508 -0.5351564
1670 -0.23029059 0.26193425 0.3455063 0.6819932 0.21511501 -0.8177516 0.020305919 -0.0004609328 -0.5510569 -0.15834498 0.932667 -0.47952396 0.99419916 0.21823967 0.43114161 0.6753229 0.27010208 -0.53662175 -0.2296678 0.31470534 0.3402373 0.29029694 0.21730767 -0.4043177 0.25316647 -0.369442 -0.8156401 0.39958477 0.021939903 -0.28856128 0.34474835 0.62290007 -0.49877134 -0.37841517 -0.39249527 -0.42726547 0.0016347922 -0.045172956 -0.42703784 -0.09117928 -0.14008366 0.25042924 -0.57658386 -0.0725932 0.4653123 0.5289045 0.5752486 -0.126528 -0.43750086 0.4775465 0.4154025 0.2499212 -0.099256374 0.104340196 0.19588865 -0.64508206 0.3036209 0.15801486 -0.59371984 -0.01085044 0.022135705 -0.123175204 -0.23108304 0.14031827
93 0.73139447 -0.531108 0.15890254 0.2844386 -0.72197175 0.18475093 -0.09231878 -0.53537655 -0.4283216 0.4227028 0.20764014 -0.06195493 -0.53587466 -0.67863786 0.18449886 0.5603169 -0.018643634 -0.22525285 -0.32268888 0.9224675 -0.018564494 0.14217451 0.5152499 -0.44483662 0.5244103 0.31104577 0.030465247 -0.16623543 -0.41597784 0.42265 0.06591667 1.0408474 -0.54997224 -0.21688396 -0.044768784 -0.12037018 -0.63106424 -0.072441354 0.02373627 0.16015352 -0.006115494 0.29641902 -0.8768016 0.20417464 1.211922 -0.6480676 0.18900134 -0.045559064 -0.35587373 0.09468769 -0.46948126 -0.2662625 0.1281754 0.071741275 -0.36466247 -0.19834195 0.27490845 -0.016114011 0.2570924 0.44433787 0.5963936 -0.863121 -0.33316648 0.43110004
104 0.94470984 -0.5892266 -0.00021994341 1.0036339 -0.19505598 -0.35556826 0.048739478 -0.2051583 -0.27703524 -0.32890958 -0.2725153 0.3774089 -0.37387004 -0.21134189 -0.12808001 0.120480135 0.39371952 0.032255508 0.24782705 0.35999575 0.82252884 0.91620195 0.19220437 0.14030024 0.14393915 -0.3147363 -0.004556686 -0.40374303 0.4694391 -0.22811252 0.124221936 -0.114550516 -0.25419372 -0.115121566 0.044287384 0.2501997 0.2955029 -0.20547858 0.47875068 1.0065478 -0.55701935 0.36927167 -0.3786426 -0.3533808 0.28704664 0.07469104 -0.5931979 -0.44083855 -0.10802049 0.19948152 0.599418 -0.4757844 -0.23903714 0.39319703 0.046514884 -0.4810031 0.19215445 -0.89521575 0.056886114 0.80848926 -0.7004001 0.47367498 0.3135127 -0.26901594
61 -0.22144361 -0.12002187 0.009656559 0.28485054 -0.05213321 0.14606196 -0.56882745 0.05958948 0.122502655 -0.07447089 -0.549118 0.03438978 -0.58396804 -0.87064505 0.8533026 0.77176386 -0.020517783 0.33651948 0.27280405 0.29986343 -0.14336798 0.628639 0.14908491 -0.52473164 0.29155692 -0.5045815 -0.7717901 -0.3278656 0.4692267 0.3839763 -0.47582325 -0.38178205 -0.031241873 -0.78051883 0.081271194 -0.2141557 0.4152328 0.09825804 0.24585232 0.38012558 0.06577372 -0.06762988 -0.6677773 0.28468347 0.13364068 0.53165925 0.15611006 -0.3625357 0.92507887 0.68153036 0.2651132 0.552016 0.48695156 0.325255 0.61358166 0.65221024 0.437283 -0.6538123 -0.21487392 0.18862705 0.6381627 -0.16120692 0.20363523 0.08929265
64 0.13070224 0.40084127 0.49271515 0.15535155 0.4967797 -0.5585823 0.030468713 -0.36961204 -0.51546097 -0.19431086 0.04575839 -0.37023163 -0.6098284 -0.3733573 -0.5520438 0.6514707 -0.2734926 0.23700614 -0.02406424 0.4222073 -0.025576914 0.028275542 -0.24889101 0.24185142 -0.3194161 1.1583071 -0.82435447 -0.6483309 0.06370182 0.4540753 -0.094365805 -0.48834962 -0.0010512925 -0.30282784 -0.09458699 0.3036961 0.5637323 0.11475738 0.16996247 -0.22102708 0.36411926 0.25879133 0.6324115 -0.21531771 0.7284164 0.030521508 0.24454406 -1.0994315 0.084466964 0.41715345 -0.18210019 0.1294674 -0.22782183 -0.30511343 -0.33471486 0.48539224 0.39182895 0.19869755 -0.07905443 0.49112138 -0.45536423 0.25047666 -0.94742197 -0.33438477
58 -0.13572392 -0.33423078 -0.02085451 -0.6207269 0.5801548 -0.6348133 -0.25979334 0.19607416 0.48608783 0.19144225 -0.17356646 -0.11571877 -0.6555689 -0.24856742 0.3596822 0.56101716 -0.25290242 0.28738138 0.042273857 0.7539875 0.30276653 0.25910497 0.3881279 -0.33813372 0.037400234 0.630369 -0.005716001 -0.038937643 0.31419897 0.25635943 0.06011185 0.14991611 -0.38527972 0.36770537 0.036977455 0.6720485 0.8014423 -0.05768986 -0.18295074 0.032901473 0.0062997146 -0.11433467 -0.7999562 0.549065 -0.17834893 0.006035933 0.22736236 -0.8119885 -0.13076797 0.49203017 -0.28506956 -0.6985768 0.3946914 0.31910872 0.013267846 -0.7157642 0.8991988 -0.39737475 0.08229801 0.7875582 -0.6256168 -0.1166377 -0.01878855 0.09216386
80 0.1940846 0.21866082 -0.24563631 -0.38073528 -0.5964986 -0.4663085 0.34139338 -0.034084402 -0.44275826 -0.07335805 0.5772704 -0.23283443 -0.6109026 -0.41566542 -0.049205992 -0.051077884 0.13811687 0.03055367 -0.38590753 0.76213443 -0.16692406 0.53902847 0.13416253 -0.44130802 -0.13576894 -0.35777894 -0.7445104 -0.3985226 0.25137666 -0.51621085 -0.15439346 -0.7091851 -0.39740428 0.25436842 0.17039654 0.3664921 -0.026037326 0.4778221 0.7286765 -0.26104107 0.0071035665 -0.34490913 0.5002942 0.7163771 0.48061356 -0.25576976 -0.07248534 -0.9530102 0.360488 -0.00891641 0.36124733 -0.2512857 0.70104754 -0.22214095 0.39278266 -0.7345553 0.2055912 0.25476712 0.43063378 0.5060658 -0.22336523 -0.36462742 0.1281891 -0.34625986
19 -0.1408698 -0.77511716 0.6331497 -0.28872326 -0.2685989 -1.1560594 0.45019364 -0.05859097 -0.17424645 -0.1433693 -0.083256334 -0.21375206 -0.5065728 -0.50044805 -0.5882174 0.11768323 -0.32661733 0.35879648 -3.2083615e-05 0.367892 0.68638724 1.037163 0.024579583 -0.7300131 0.4052601 -0.2685508 -0.46326163 0.17406355 0.5591345 -0.70390284 -0.25227234 0.19830558 0.2583836 0.23318921 -0.4855242 0.108511835 -0.49772778 -0.9335122 -0.16269517 0.28906262 0.13515234 0.27838144 0.27332443 -0.13920714 0.37004685 0.474689 -0.109972976 0.1292299 0.6915274 0.3888149 -0.49678552 0.112882234 -0.06604084 -0.34127614 0.39337292 0.13012457 0.88933176 -0.0036075867 0.18883155 0.37751022 0.1641239 -0.5729998 0.1521052 0.44728112
94 -0.4480021 -0.021090543 0.9362048 0.62499756 -0.5426562 0.37746432 0.082564786 -0.012317384 -0.78964394 -0.54279613 0.2754665 -0.3221152 -0.22343111 -0.3365942 -0.2822741 0.29890677 -0.5515896 -0.4753509 1.0623536 0.36351225 0.57657856 -0.1716923 -0.79574984 -0.12270702 0.16457178 0.28167367 -0.25152576 0.23935018 0.20996352 0.058098968 -0.27001575 -0.5550934 -0.3156544 -0.5718644 0.25451788 0.6508179 0.21068546 -0.28850132 -0.22827098 -0.078494556 0.60894877 0.83996177 0.028194515 -0.051968247 0.30860597 -0.3672651 0.833735 -0.29495913 0.2788064 0.2092903 0.037764296 0.10268532 0.32691407 -0.33662722 0.10440746 -0.7162574 -0.24036098 0.32293567 -0.41397226 0.40523842 -0.27968892 -0.41881156 0.31309834 -0.4759256
108 0.1200461 -0.045287322 -0.25140816 0.15049823 0.48114714 -0.4758598 -0.7072347 0.1998932 -0.038211517 0.4022144 0.90230745 -0.5593331 -0.25657114 -0.3566942 0.30620182 0.4149014 0.45286426 0.54323703 -0.5363284 0.8416742 -0.25863478 0.7038834 -0.33452308 -0.20684618 -0.064791605 0.51176316 -0.2337258 -0.2735643 -0.2165435 0.5071541 -0.11570764 -0.027053863 0.70351785 0.06445819 -0.72118306 -0.011867233 0.054714736 -0.5938755 0.3398721 -0.09411973 -0.107430525 0.24301343 -0.2695633 0.3572353 0.60982734 -0.009233386 -0.022771468 -0.5927753 -0.23661453 0.0667019 1.1115316 0.18416189 0.32785815 0.19270268 0.3531284 -0.007444019 0.14909853 -0.36936343 -0.10077061 0.17197032 0.32295924 0.3144896 0.033939645 0.32253033
103 0.48443192 -0.4203116 0.26000878 -0.42668146 -0.07168432 0.35104606 -0.08054484 0.43107295 -0.30934504 0.008460425 0.5326954 -0.78047234 0.07970363 0.39847955 -0.8831602 0.7835219 -0.44493353 -0.498883 -0.0016913033 0.80299395 0.098460056 0.6549213 -0.122512706 -0.087191485 0.5939559 -0.037419997 -0.3517655 0.42318466 -0.19185662 -0.69344527 0.25835526 -0.14676726 0.5100276 -0.7017818 0.27844894 -0.09685491 0.39997882 -0.33129746 -0.16889623 0.16710714 -0.06414532 0.5749084 -0.30341598 0.015011315 -0.48155147 -0.6388714 -0.61261696 -0.3925525 0.42227954 0.21821463 -0.40011257 0.30433336 0.78005874 -0.079441644 0.23854285 -0.28710562 0.21462935 -0.038419522 -0.6628556 0.6193907 0.16401242 0.5409047 -0.012901419 0.12062505
99 0.037257403 -0.86864495 0.08392827 0.36274776 0.18565735 0.056376535 0.47408357 -0.20479129 -0.03880332 -0.37933302 0.44825208 -0.4957309 0.21656978 -0.033619303 0.47143787 0.87254906 -0.16106522 -0.22077107 0.28026432 0.45893222 0.064038366 0.6884312 -0.03240829 -0.8046202 0.19296435 0.20780936 -0.5341033 0.33697295 -0.719849 -0.2881091 0.055296328 -0.1140984 -0.16942307 0.4942521 -0.041268736 -1.0738846 0.32972252 0.6422442 0.42857373 0.21265414 -0.6216043 0.14040855 -0.018700149 -0.24740598 0.70589614 -0.1746961 0.2867752 -0.60327435 0.1526053 0.09150552 0.58394754 -0.13343689 0.37867403 0.3722505 0.09978191 0.34366444 0.98058385 0.3038916 0.5192081 0.59188145 0.25723585 0.11124972 -0.15411128 -0.1569759
87 0.12115118 0.32896993 -0.718696 0.016594823 0.5519096 0.0040295986 0.67031366 0.16088283 -0.15730605 -0.2101449 0.88773775 -0.6854941 -0.2791188 0.4713727 -0.65689075 0.06302304 -0.56930596 0.11512439 0.44178808 0.41836765 0.667038 0.4355683 -0.067186624 -0.2962123 -0.26340914 -0.06288547 -0.3548122 -0.065637685 -0.050333776 -0.15760572 0.06239623 0.014372671 0.25816238 0.12673028 -0.67683876 0.14335817 0.29907483 -0.23799019 1.2774673 0.80978733 0.42203137 0.10555263 -0.3225287 0.23170939 0.5852482 0.03975649 0.12171118 0.17727841 0.13837603 0.1970683 0.43938458 0.26214465 0.56502116 0.57556427 -0.051898323 -0.84643614 -0.23995394 -0.11841285 -0.81179726 -0.0687263 -0.13902001 -0.37007403 -0.17635478 0.1469277
63 0.20431463 -0.16254885 0.48347026 -0.007133969 0.7218402 -0.48326832 -0.34409422 0.07586392 -1.0815521 -0.079975165 -0.23540221 -0.4109742 -0.09874233 -0.50301874 -0.40511695 0.5308086 -0.05322626 -0.6138758 0.1232978 0.7470861 0.31330767 -0.39478517 0.5887368 -0.53801167 0.46776813 0.1424735 -0.37885824 0.07507212 -0.2708498 -0.28035048 -0.18845238 -0.20863253 0.058148336 -0.6641131 0.404994 -0.49623448 0.19106752 0.08367237 -0.50438756 -0.3823735 -0.291549 -0.7620302 0.16632435 -0.36756498 0.73321337 0.45408586 -0.45049796 0.5558724 0.15230656 0.32096013 0.577715 0.53091335 -0.010130843 0.42525187 -0.37473106 -0.42779064 -0.0793519 -0.7828835 0.0026785822 0.5829026 -0.65838206 -0.039450992 0.21854864 0.18146265
1658 -0.4209066 -0.010155448 -0.12791914 0.020817677 -0.3238943 0.69598085 -0.35956073 -0.2413741 -0.27392563 -0.58257765 -0.26629975 -0.6272631 -0.5322168 -0.73456323 0.3318148 -0.4875053 -0.45768064 0.51957315 0.10974427 0.22326933 0.54037505 0.11770867 -0.07131926 -0.11864531 0.50808483 0.58844966 -0.9711724 0.7337211 0.088217095 -0.48472127 0.047196038 0.93252814 0.2680337 -0.36181372 -0.2852909 -0.14534585 0.06918895 0.16545485 0.00974866 -0.10974408 0.7033745 -0.12686554 0.41252106 0.17694277 0.3793086 -0.7762934 0.029601691 0.338258 0.31151083 0.12763935 0.1923695 -0.16026658 0.60932565 0.6260575 0.07996351 -0.5671168 0.4688674 -0.63181305 0.030319475 0.4567093 -0.015836146 -0.37998575 -0.33370072 -0.3817351
91 -0.41150007 0.7890241 0.23021986 0.6023959 0.04172657 -0.009721167 -0.2515045 0.1291979 -0.20672026 0.33439845 -0.35286075 0.25988674 0.016214645 -1.1840528 0.40160143 0.36211792 0.45147672 -0.049058028 -0.38626295 0.543255 0.9406619 0.56914914 0.19628629 0.23854074 0.3413597 0.10209601 -0.36427343 0.23119101 -0.16816613 -0.06328007 0.7867904 -0.59997666 -0.105695456 -0.48194522 -0.14766102 0.7643028 -0.1442839 -0.5458484 0.2880542 0.4556885 0.67502195 0.37127244 -0.193513 0.2656992 0.66169363 0.38978016 0.37420827 0.13139005 -0.052032728 0.10849482 -0.020546934 -0.0027736155 0.5454797 0.19566381 0.3146625 -0.44692937 -0.34986955 -0.15860803 -0.69410896 0.26229015 -1.1497662 -0.39349177 -0.04578137 -0.062186357
110 0.32573292 -0.69893193 0.56987274 0.14725877 0.89041865 -0.28795627 -0.5678953 -0.09286957 -1.0074515 -0.0344677 0.4861445 -0.45038497 0.06837004 0.0060765585 1.2902774 0.18929093 -0.9446445 0.34691218 0.012572384 0.24676174 -0.3205639 -0.0941136 -0.0979182 -0.23216018 0.10896863 0.5410569 0.42691678 0.094952874 -0.25111544 -0.16193186 -0.52176934 -0.094030336 0.23715961 -0.053920966 0.05899257 0.2657398 0.6101701 0.23405728 0.36315927 -0.11390638 -0.01631616 0.4430765 0.12822434 0.13625309 0.39093533 -0.59666306 -0.6977746 -0.018746486 0.05644049 0.6746594 0.27194288 -0.31018087 -0.5537635 0.049060535 0.30804497 -0.3626748 0.4344233 -0.37686545 -0.26751 0.56833553 0.41207027 -0.40166834 0.025424814 0.51187396
50 0.29737765 -0.8397439 0.022989256 0.5108909 0.46632028 -0.47188362 0.6209746 -0.06441897 -0.29585376 -0.55523723 -0.30697006 0.06755401 -0.5758187 0.15324779 0.31266397 0.25961456 -0.059649494 0.12589806 0.06271466 0.27918744 0.21052787 -0.10883808 -0.449325 -0.60665226 0.31709298 -0.0036086559 -0.31556985 -0.1788604 -0.6099017 -0.14459856 -0.687159 -0.478463 0.31048402 -0.094890565 -0.36034772 0.58452004 0.03622062 -0.18839009 -0.2696405 0.1561976 0.06306174 -0.17232127 0.06785126 -0.2897601 0.15614286 -0.81223387 0.10031093 0.05901772 0.08083131 0.38266304 0.010586112 -0.1442509 0.6751145 0.14104713 0.66947085 -0.7685127 0.30522028 0.1102947 -0.54227 -0.24432017 -0.9376976 0.13757491 -0.29952008 0.26143682
68 0.09278811 -0.40358838 0.2285615 0.18121761 0.091564104 0.8255234 -0.43281808 0.6214579 -0.59148794 0.065643735 -0.16638039 -0.004720489 -0.3244855 -0.40372166 0.12106884 0.28155848 -0.15189102 0.70320904 0.030376343 0.62689006 0.699922 -0.0035260194 0.29078415 -0.8207304 0.029050294 0.20509014 0.05339969 -0.11190281 -0.05159364 0.15468146 -0.60228384 0.51792145 0.12822965 -0.14161189 0.995753 0.8399712 -0.023108805 -0.21035005 0.7545017 -0.15068282 0.8017138 0.31326148 -0.27740827 0.18108542 0.32181373 -0.19497515 0.089157276 -0.5472254 1.0546947 -0.34470257 0.7051847 0.80052155 -0.200614 0.12987278 -0.18668276 -0.2957949 0.47308403 0.5191376 -0.34004277 0.5347806 -0.09028146 0.26152346 -0.27573478 0.19503391
20 -0.32047018 -0.3964617 0.87895083 -0.09878982 0.6636733 0.08266002 -0.17476046 0.18548724 -0.59872836 -0.1718235 0.5110148 -0.7497354 -0.38543168 0.4475747 0.796584 0.17008004 0.44446126 0.23692621 0.233077 0.6625136 0.5464268 0.85427433 -0.26181543 -0.8213006 -0.28616333 -0.08810927 -0.57593066 0.36634374 0.220612 0.6259646 -0.054898392 -0.29675874 -0.017239591 -0.44801894 0.18307361 0.20762476 0.11556106 -0.19917673 0.14084397 0.32605582 0.11770784 -0.12839757 -0.13393055 0.65181667 -0.33918077 0.16570348 -0.20181182 0.4568521 -0.22790666 0.667445 -0.26700142 -0.22324483 -0.16621238 -0.27532148 -0.4402482 -0.034037907 -0.14341572 0.4700994 0.11529 0.59798145 -0.8310077 0.2848328 -0.1368991 -0.41097906
16 0.07461536 -0.38853392 -0.28985876 0.36125284 0.71275145 0.54457897 -0.17178644 0.47652546 0.17593884 -0.88860965 0.51204395 -0.5383717 -1.1141508 -0.28937688 -0.18514714 0.23533775 -0.27122763 0.23732199 -0.12606983 0.15466782 0.6459928 0.4005591 -2.2730426e-05 -0.30529892 -0.08507335 0.30462122 0.08889529 0.16327734 -0.0029229831 0.37171707 0.2922268 0.34104663 -0.63038355 0.049954694 -0.40451637 -0.44581717 -0.46387798 -0.58216083 -0.2963752 0.12748665 0.5935682 0.562592 -0.37711748 -0.37102786 0.3151491 0.005716477 -0.61929107 -0.3006187 0.26377296 0.88481516 0.50895023 0.34813273 0.2864248 -0.09634208 0.2004303 0.7639544 0.26293993 0.4393374 -0.43677476 0.4996143 -0.3315813 -0.71385133 -0.31419516 -0.27385852
67 0.1081927 -0.66568947 0.35844374 0.35948715 0.5505244 -0.3831013 -0.22675245 -0.7774269 -0.42709696 -0.54243255 -0.3341203 -0.10278848 -1.0994759 0.1579245 -0.4544069 0.13268977 0.33545452 -0.23546834 0.70843196 0.5806318 0.42524716 0.57118875 -0.1842691 -0.12299223 0.050166205 0.52772754 0.34602472 0.22869007 -0.38626516 -0.19334532 0.008934743 -0.483999 -0.25239876 -0.53650767 0.5066347 0.49173093 -0.44893256 -0.0288875 -0.3151862 -0.15012166 -0.07238088 -0.4653201 0.178896 0.3458636 0.45358416 0.03563696 -0.116416566 -0.84422845 0.6159465 0.16966902 0.108984314 -0.15664075 0.28391632 0.4822912 0.28824428 -0.4340262 0.24387243 0.06190341 -0.04744083 -0.0057130004 0.45712617 -0.773396 0.2505418 0.74392974
1657 -0.6761478 -0.23450692 -0.48364845 0.0028329007 0.9326376 -0.5647466 0.37799975 -0.30792236 -0.6793226 -0.05143958 -0.48679715 -0.85953707 0.87897974 0.056070067 0.049044818 0.071173735 0.6246784 -0.120530136 0.0670232 0.18683831 0.43969902 0.22869396 0.8186872 -0.45633313 0.4359691 0.37676674 -0.5702854 -0.37466758 0.6032058 0.54302365 0.2989289 -0.4317621 0.24608788 -0.28994313 -0.23738316 0.47928888 0.57302845 0.36303943 0.2797704 0.34243745 0.4492077 0.11509116 0.050010245 0.47959352 0.4535247 -0.71299183 -0.2546525 -0.9225037 0.17163868 0.2404368 -0.10179197 0.30668432 0.30535617 0.46665972 0.049542457 -0.3124174 0.025155293 -0.29112014 0.09594642 -0.35879132 -0.30084267 -0.5638396 -0.027299557 0.4451362
112 -0.11488012 0.05893402 0.024296733 0.55849034 0.22946635 -0.0137396995 -0.106998 -0.2939182 -0.12355777 -0.7034074 0.14494145 -0.61489326 0.12545842 -0.65953463 0.2375539 0.24808225 -0.8017288 -0.033135496 -0.6030771 0.39653492 0.33086115 -0.22849795 0.8850223 -0.1553282 -0.3825923 0.09142177 -0.6573247 0.61166096 0.13272151 0.5109884 -0.42849737 -0.59469557 -0.20562921 0.22105442 0.0021795838 0.42908514 -0.34334323 -0.5049674 0.39179078 -0.18072027 -0.017495459 -0.032798816 -0.29733774 -0.4007775 -0.05486805 -0.28008902 0.38745996 -1.0048716 0.15011999 0.47133356 0.34304813 -0.50684464 -0.37722227 -0.37837386 0.65061265 -0.95051605 -0.28704903 -0.49958488 -0.79781693 0.20944601 0.36257705 -0.29073852 -0.07676437 -0.2522859
1092 -0.13300492 -0.09461573 0.382009 0.32034764 -0.301392 -0.58213377 0.16066967 -0.15626624 -0.33182916 -0.022997359 -0.31736276 -1.0091206 -0.52953804 0.15557529 0.45123768 -0.055315748 -0.6375516 -0.16112562 0.08664913 0.8926514 1.0446858 -0.8225552 -0.03125287 -0.38777968 0.4726467 -0.22473846 -0.6687796 0.5248654 0.25121504 -0.32280257 0.27639082 0.0019059767 -0.98367935 0.43269986 -0.5774631 -0.18715133 0.091855004 0.512229 -0.25940934 -0.42054105 -0.35420156 -0.08845418 0.19725029 0.36405125 -0.13261278 -0.11847455 -0.5006911 -0.23148498 -0.031765778 -0.20017232 -0.16626798 0.32616442 0.5554713 0.27092248 -0.053440847 0.067286894 -0.3534668 -0.38408387 -0.8962353 0.63553303 0.11238926 -0.23205829 -0.29788843 0.23849992
86 0.26590556 -0.8467447 -0.056859437 0.4271857 0.2713172 -0.72616476 0.3147201 1.0359677 -0.6205445 -0.5098112 -0.17275639 -0.452126 -0.010096045 -0.09137004 0.9681861 0.2811149 -0.20831175 0.48738688 -0.26888406 0.7357392 -0.08326694 -0.19702454 0.26315114 0.34830743 0.4191871 0.33198076 -0.54444176 0.07448395 0.10785042 -0.18534984 0.41814083 0.51138216 -0.088527754 -0.4438762 -0.23523559 -0.19077732 -0.6787421 -0.39771757 0.1309513 -0.73984176 0.4416866 -0.33273813 0.62119615 0.18929976 0.7462865 0.5324856 0.6567749 -0.0210663 -0.23731324 0.054288294 0.34895015 0.053466137 0.33056134 -0.23517424 -0.4424955 0.051391747 0.50453705 0.112262845 0.0014595664 0.538523 0.075413175 -0.24531119 -0.92997956 -0.26761615
109 0.17587915 -0.0061455197 -0.4480445 0.3175858 0.35071656 -0.26663658 0.3136695 -0.005717932 -0.17201284 0.30825576 0.35990497 -0.64271885 -0.43604198 0.42368954 -0.40362963 0.20198935 0.46231982 0.31773296 -0.2805508 0.2752804 -0.025531488 0.6000781 0.014927207 -1.3463343 0.11004663 -0.4212643 0.3423485 -0.26169378 -0.1911482 0.3682136 -0.82281864 0.5163708 0.17320253 -0.38074926 0.5649249 -0.017085036 -0.32971328 -0.3535427 0.44788697 0.05060826 -0.40067792 -0.048634555 -0.3979106 -0.34312174 0.38090307 0.030773677 0.80647975 -0.8714912 -0.22215839 0.44770807 -0.4814042 0.24739112 0.27385688 -0.42573893 0.42217255 -0.050327018 0.26147133 -0.88009983 -0.2844282 0.43016845 -0.2262134 -0.103129074 -1.1213727 0.098793566
36 0.058678955 -0.80712485 -0.47025117 0.045037787 -0.2606986 0.0086918995 -0.078524195 0.27519032 0.060431603 -0.37179944 0.407331 -0.88369983 -0.23055282 -0.42121404 0.11507766 0.3205009 -0.46474344 -0.6302054 -0.77328885 0.6457724 0.37703288 0.39011616 -0.419818 -0.021316085 0.2652057 -0.005316302 0.21444118 0.6222844 -0.35737386 -0.57120645 -0.59671605 -0.17672892 -0.071458936 0.13206376 0.13186012 0.6916347 0.050476365 -0.008053849 0.55255383 0.27998576 -0.20112577 -0.10176571 0.28816473 -0.29936567 -0.07689993 0.5498036 0.89612216 0.08347657 -0.37996492 0.042568684 0.3156462 0.13251035 0.5130107 0.078522906 0.9546226 -0.2680472 0.02759428 -1.0783145 0.15104295 1.0822747 -0.37794715 0.24054074 0.2996387 0.28410238
1807 0.2706722 0.036927912 -0.19708921 0.65227437 -0.39320052 -0.8849537 -0.7479982 0.16971259 -0.272009 -0.020035911 -0.14714399 -0.4606911 0.08959636 -0.3973328 -0.50800747 0.7200103 -0.06639694 -0.33377272 0.2685043 0.27191272 0.11999006 0.1346341 0.026225245 -0.4675503 0.3331123 -0.3068831 0.07935921 -0.30652985 -0.6277248 -0.1344759 -0.26811868 0.4102578 -0.44458136 -0.52878 -0.95388067 -0.15713288 0.7230642 -0.1929865 -0.059483178 0.2624214 0.20441131 0.16141617 -0.3218858 0.42717385 -0.12133613 -0.81895924 -0.35235995 -0.58308214 0.12903668 0.79510236 0.105186254 -0.024421787 1.2522883 0.20356394 -0.32683966 0.39837617 -0.19611476 -0.18242882 -0.35669973 0.78398037 -0.12307395 -0.3459607 0.26945236 -0.18484817
43 0.15258124 -0.48243412 -0.1596564 0.4843444 0.5392108 -0.70333546 -0.6331312 -0.073804796 0.20902663 0.5227361 0.44523206 -0.48575252 -0.17464578 -0.024573838 -0.27101406 0.26275983 -0.5304894 0.051113274 -0.90477264 0.75964755 0.36624312 0.22193392 0.41185495 -0.3317716 -1.197022 -0.09001507 -0.59384584 0.08943809 0.16057593 -0.43837094 -0.26339602 0.41658348 0.39088422 -0.17880791 0.34270725 -0.08446007 0.19413711 0.2582091 -0.4732767 -0.10744332 0.61216164 0.24851789 -0.011023423 -0.21653667 0.8304602 -0.14362045 -0.6500359 -0.13602859 0.050527234 0.09837896 -0.26888338 0.36532566 0.22557509 0.68604463 0.6344033 -0.46915865 0.4540269 0.0723466 0.16053443 0.72137237 -0.2859425 0.26909617 0.1702373 -0.45999402
101 0.6253037 -0.36192325 -0.07156173 0.07076227 -0.40388796 0.36540407 0.28144082 0.41350764 -1.0316172 0.07932682 0.12954502 -0.67759025 0.19654481 -0.41301712 0.41996387 0.5925449 0.04540702 0.20051245 0.039561078 -0.20103642 0.6736067 0.15069427 0.017916186 -0.95488966 -0.30220196 0.19162087 -0.33286175 0.29562208 0.019204592 -0.2466176 -0.034772154 -0.0397731 -0.40619114 0.27841657 -0.08567087 0.5384841 0.9394523 -0.49637938 -0.20530587 -0.9184167 -0.12761319 0.6478297 -0.4944098 0.3680642 0.57563514 0.8271676 0.059660647 -0.13740548 0.23569769 0.7225093 -0.6953106 -0.11342819 0.67221993 0.08288515 0.1929136 -0.59261864 -0.14154032 -0.05542288 0.25991955 0.03389695 0.0022295523 -0.0060148337 -0.6428058 -0.12531051
98 -0.035772357 -0.47307158 -0.22008982 -0.5169249 -0.335486 -0.5375711 -0.343813 0.5039302 0.1598739 -0.75949854 0.55959165 -0.35131857 -0.21016328 -0.43840262 0.61788625 0.5938318 0.073766485 0.7870775 0.33288106 1.3095353 0.35274845 0.3253081 -0.4438702 -0.29958636 -1.1818862 0.80994856 0.10237757 0.017779004 0.31307378 -0.06610736 0.09300113 -0.45512003 -0.4759434 -0.28178766 -0.15256736 -0.3655831 0.21482983 -0.21484187 -0.1937062 0.32909837 0.029584078 0.24104445 0.7397208 -0.26020208 -0.35895255 0.2164721 -0.4329438 -0.21822037 -0.12702052 0.1445686 -0.22980198 0.02035408 0.4184776 -0.24717149 -0.18407129 -0.49892482 -0.3450602 -0.5852902 -0.4514338 0.3672992 0.20369674 -0.34068522 0.37718067 0.38225004
1233 -0.22677387 -0.3046726 -0.09457208 -0.341036 -0.1904704 -0.63439333 0.07998937 0.304243 -0.59138095 -0.37622112 0.07277967 0.015946895 -0.006130253 -0.60686034 0.030296927 0.47805074 -0.38261032 0.333169 0.90877074 1.1775646 0.0056270952 0.6222952 0.11243069 -0.3523416 0.7598446 -0.39910704 0.64002544 0.48675963 0.27466202 -0.24532588 -0.15458354 0.33703727 0.31528187 -0.94317544 -0.84397477 0.17822877 0.07285166 0.94490397 0.3514979 -0.11455528 0.47365183 0.54383075 0.24382748 0.17750473 0.45135653 0.24063168 0.42994913 -0.35024476 0.27305615 0.4473458 0.24771279 -0.1089983 0.096933626 -0.05810027 0.19185002 0.000431307 -0.3182992 0.04846697 -0.36000377 -0.1998398 0.12706259 0.5083605 -0.25208327 0.54038537
56 0.060490992 -0.790607 0.7522801 0.313253 0.05232172 -0.30197465 0.50029343 -0.10665956 -0.7226223 -0.07511603 -0.67557514 -0.20347588 0.01266216 -0.40258065 -0.05398485 1.4310284 0.6644681 -0.295031 -0.33366558 0.87904 0.19577411 0.37100786 -0.16116023 -0.021603134 -0.3351976 -0.344445 0.70192516 0.5166715 0.14409189 -0.08660853 -0.20482688 0.3858972 0.46745905 0.6541775 -0.020524316 -0.18915665 0.007658418 -0.4772258 -0.01154881 0.24609432 0.33595964 0.30648604 0.24184532 0.66768986 0.42142966 -0.009994174 -0.44000372 -0.27887592 -0.05065387 -0.24632005 -0.12486747 0.100677006 0.3967555 0.39348915 0.4126306 0.26359186 0.67730284 -0.60248166 -0.5428928 -0.31034237 0.22939663 -0.32878485 -0.53537124 -0.3678498
62 0.6531329 0.45022345 0.22386865 0.1729647 0.68340796 -0.081315406 0.4625484 -0.14367157 -0.16404371 0.054397374 -0.13320369 -0.27356985 -0.24084151 -0.6574913 0.53358716 0.9690519 -0.42846656 -0.055360936 0.57534075 0.7369589 0.045977768 0.008292174 -0.3579289 0.32921165 0.37579682 -0.20699897 -0.6528571 -0.0853984 0.07426953 0.09044476 0.51810557 0.79950076 -0.030229537 0.24025619 -0.23981749 0.6083211 -0.007455651 -0.30024263 0.55155355 -0.22616695 0.21477659 0.927942 0.6276447 -0.33635205 0.113894664 0.10121457 0.09278305 -0.41413772 0.5673209 0.32268852 -0.52436364 -0.099149175 0.47043902 0.6052015 -0.1319496 -0.51588035 0.60440195 -0.43084842 0.71162134 0.271952 -0.17410249 -0.84934735 0.02489337 0.26304525
97 -0.085267365 -0.5053239 0.086252324 0.11156318 0.17083001 -0.040982887 0.22901374 -0.0034173229 -0.920975 0.25944287 0.6708124 0.14385797 -0.24728025 0.21974741 0.60642105 0.018737033 0.44166502 0.41392002 0.117920026 0.23206516 -0.22477783 0.18597364 -0.10570314 -1.047238 0.5268308 -0.419119 -0.89990777 0.3359787 -0.060777575 -0.22991422 0.34139267 -0.5264741 0.09267475 -0.32181045 0.36325347 -0.3928973 0.4525536 -0.5041643 0.012570546 -0.87517 0.7098822 0.22186008 0.45748797 -0.5406279 0.22708738 -0.6793729 -0.16244535 -0.40554938 0.4537523 -0.22519727 0.15145718 -0.09470187 -0.37898555 0.55587965 0.5095435 -0.17641827 0.926179 -0.47486508 -0.36646932 -0.30736655 -0.14392026 -0.41078338 -0.16421981 -0.4078529
73 -0.032797318 0.6165948 0.23779318 0.9663303 0.17724106 -0.2236869 -0.16651972 -0.3221224 -0.4529226 0.017110044 0.8382294 0.15714951 -0.15545222 -0.33580315 0.25497597 0.08794386 -0.05078289 0.11851273 0.6743499 0.49379152 -0.16697884 1.0338746 0.69786555 -0.018286763 -0.14415078 0.501974 0.04606825 0.34042984 0.42847535 0.16778858 -0.7699849 0.18528846 -0.34565654 -0.3468445 -0.007562272 -0.3717687 0.17853439 0.7247315 -0.26887992 0.4111863 0.06311529 0.34378147 0.18211684 -0.2208668 0.40375552 -0.63533944 0.1747345 -0.068875924 -0.6357854 0.026725903 -0.33745107 -0.22831981 0.6519464 -0.23098208 0.66308033 -0.1628485 -0.01224803 -0.20133576 -0.46473742 1.047011 -0.4341719 0.28415322 -0.63653994 -0.1867896
90 0.25080866 0.39763418 -0.49040478 0.5745429 -0.46486354 -0.09139709 -0.05626895 0.16131152 -0.8077984 -0.37073496 0.8181483 -0.05712118 -0.0925197 0.23362464 0.48219034 0.4816379 0.3488627 0.23450635 0.32375988 0.18838385 0.85327125 0.088267975 0.74691826 -0.26165676 0.34881404 0.06873925 0.7610823 -0.42183444 0.1331543 -0.56907475 -0.3337926 -0.3718211 0.36397585 -0.42078286 0.2076657 0.2306193 0.27420685 -0.19062026 -0.031746455 0.28259662 1.0110947 0.19039181 -0.0419212 0.10474947 0.015761102 -0.10592664 -0.2894311 -0.5908526 0.5664984 -0.11581072 0.13324855 0.19952273 0.6736188 -0.8305708 -0.21118048 -0.11579653 1.1049471 -0.4664507 -0.09830856 0.69951147 -0.2257937 -0.5232239 -0.045583926 -0.14551751
39 -0.25869134 -0.4564709 0.6676535 -0.27645832 0.36201105 -0.27268553 -0.22195758 -0.19178905 -0.24248512 0.06590366 0.7251993 -0.3055299 -0.7249313 -0.0075157173 0.2983566 -0.31556514 -0.1259179 -0.23045461 -0.032284033 0.92532414 0.07259047 0.5485748 0.22525114 -0.52458227 0.39676574 -0.3675418 0.85968524 -0.17088191 -0.06610417 -0.006471377 1.016808 -0.1369429 0.15213828 -0.20007503 0.20704792 0.07184882 -0.28053257 0.0635394 -0.10553563 0.51061326 0.37937805 0.4047379 0.48201323 -0.21956336 -0.44355184 -0.32209364 0.23432447 -0.52867174 -0.46803218 0.14440267 0.19269969 0.39221212 -0.0468269 0.94002956 -0.021166094 -0.8941415 0.78258955 -0.5706776 -0.5118279 0.024529222 -0.46236017 0.15672217 -0.10292917 0.9262408
54 0.062238216 -0.69977045 0.09189607 -0.14448632 -0.61891973 -0.65190935 -0.10572871 -0.49381322 -0.19988154 -0.42226684 0.18003665 -0.52179724 -0.4989824 0.21566832 0.10026609 -0.15103255 -0.38881642 -0.47542343 -0.057020634 0.45370957 0.4481366 0.7019539 0.5074245 0.39972153 0.29471833 0.33480218 0.116644755 -0.06045907 0.4646617 0.19567975 0.5519717 -0.12659001 0.91315556 0.34404233 -0.42176747 0.62348056 0.0023562158 0.35765487 -0.16248944 -0.5498558 0.7059737 0.7191672 -0.57329875 -0.063988514 0.5335999 -0.19970243 -0.17064884 -0.06830025 0.3867764 0.5350533 -0.107114226 -0.22963002 0.33973888 0.19009203 0.37358984 -0.40762663 0.3503998 -0.5479518 -0.685408 -0.27301472 -0.51663464 -0.76004726 0.30712724 0.09866903
71 1.158528 0.20633252 0.12452205 0.042398393 0.42377943 0.15978685 0.14015266 0.19288948 -0.4364446 0.38927343 0.16030507 -0.25695774 -0.1428534 0.07412891 0.29933873 1.2018881 -0.19025676 0.6018953 -0.8037696 0.4311044 0.933682 -0.4394882 -0.5691025 -0.3821416 0.11453121 0.3030627 0.41513067 -0.028963845 0.450329 0.83113027 0.024012847 0.09709873 0.21492195 -0.08313029 0.049498137 0.016005905 -0.07307027 0.4219559 0.09450739 -0.29182416 -0.1794964 0.22221321 0.3161353 -0.2538217 1.0403658 -0.26045993 -0.09406887 0.17928198 0.31790096 0.71225244 -0.27615252 0.07920715 0.36075237 0.3301129 -0.20464113 -0.14000764 -0.44685665 -0.45009223 -0.6743724 0.9385498 -0.049906887 0.21359292 -0.43860418 -0.017744306
34 0.013547215 0.16744156 -0.06584249 0.15114416 0.33522004 0.13283023 -0.29643017 -0.40558356 -0.17801267 -0.18260387 -0.35322207 -0.084372155 -0.26518163 -0.035978153 0.057972886 0.7232239 -0.00048052313 0.2075984 0.2656689 0.32581598 0.44481692 0.030726625 -0.15172967 -0.429737 0.40211794 0.45354027 -0.15391794 -0.3181354 0.36471877 0.0047502806 0.08836308 0.45529273 0.17838784 -0.3623813 -0.049015135 0.4727016 0.23024307 0.2355461 0.36781716 -0.06626886 0.06302388 -0.13598561 0.5632581 0.3667175 0.39076972 0.17494977 0.1329219 -0.61216706 0.15707268 0.5142879 0.25808156 0.23661463 0.2536749 0.526411 0.19339953 -0.24525896 0.6838828 -0.33532146 -0.26897335 -0.024818836 0.51425165 0.063618116 -0.26919383 0.00551465
84 -0.4294512 0.13912925 -0.18515314 0.23901142 -0.106537566 -0.8414398 0.5381425 -0.19054152 -0.5990695 -0.16923288 -0.17558002 -0.479447 -0.37928277 -0.07712357 0.6123465 0.13692057 -0.31063807 0.50604165 0.14411394 1.0715506 0.65210825 -0.074070744 -0.018614564 -0.2867576 -0.009731562 0.5324259 -0.8041367 -0.19822939 0.019768536 0.24261299 0.2545056 -0.6463023 0.41184327 -0.7666206 0.40204126 -0.27030605 -0.10227959 0.38741156 0.17172071 0.4528746 -0.364182 0.016788444 -0.8388075 -0.07449191 -0.17538211 0.021944817 0.25004297 -0.07321627 -0.0821313 -0.76698387 -0.04321445 0.06864609 0.017522184 -0.43330273 -0.36038896 -0.41000703 0.13886546 -1.1749876 0.048384137 0.28911853 -0.12457821 0.2458522 -0.7510586 0.19527516
17 -0.046636797 -0.28720552 0.3050636 0.68752533 -0.25430816 -0.41414276 -0.060886927 0.14768538 -0.082997024 0.28670004 0.28772572 -0.61579394 -0.57871175 -0.35547513 -0.3002782 0.71031314 0.33791557 0.81431013 0.11666136 0.08940578 -0.18875407 0.21677946 -0.014174789 -0.3785548 0.3179721 0.0015647815 -0.2341413 0.54064006 -0.5741871 -0.5581404 -0.04589789 0.12484698 -0.008869185 0.0036864441 0.0110999625 0.21379551 0.47173882 0.16033587 -0.02078672 -0.91668993 1.0324961 0.43875134 -0.013629675 -0.31057492 -0.075481154 0.20310846 0.084729396 -0.2779934 -0.68134385 0.47577724 0.15404688 -0.557798 0.22334899 0.63228077 -0.7440009 -0.46704942 0.8215035 0.024071813 -0.43098214 0.5788467 -0.8609172 -0.18605968 0.25154555 0.039192464
21 -0.04292269 -0.011512711 0.10448809 0.14454614 0.3866949 0.041945625 -0.14996693 -0.2535063 -0.65321827 -0.007908101 0.29039755 -0.30094394 -0.01651842 0.233491 -0.04107062 0.15852934 -0.24883515 0.19112845 -0.06258858 0.37637392 0.25928628 0.051169287 0.22968706 -0.5657804 0.05868982 0.12438035 0.008544627 -0.13497718 0.29140648 0.021894483 -0.100182295 0.29904208 -0.18008494 -0.16989927 -0.30333722 0.6459578 0.57158315 0.26860082 0.3439744 0.33056423 -0.047427792 -0.25816408 0.5114592 -0.03739555 0.22001705 0.003830667 0.02092429 -0.36159018 0.05008054 0.7271608 0.1637595 0.16377605 0.4091577 0.546628 0.5819524 -0.40309006 0.14996259 0.08861445 -0.27646565 -0.25378087 0.15322275 -0.33336848 0.004987003 0.15358151
961 0.0043703974 -0.14397399 0.2663321 0.7676985 0.025962736 -0.5476243 -0.2253565 0.035090454 -0.39419594 -0.27902326 0.10045811 -0.27163368 0.11699632 -0.007671503 -0.26423895 0.04965822 -0.17628023 0.06484716 -0.33427873 0.23380847 -0.33010653 0.13151811 0.4196793 -0.6564351 -0.0038168791 -0.120236196 -0.26289213 0.075579494 0.18652079 0.088718146 -0.19052146 0.19696471 -0.41855294 -0.39652887 -0.08994958 0.5518372 0.20609319 0.05995777 0.56753534 -0.03742888 -0.16645132 -0.09106135 0.00959624 -0.07743897 0.20030873 0.12974578 0.40857285 -0.5592964 -0.009069752 0.47006333 0.06715849 -0.20570335 0.53788674 -0.025813652 0.068587855 -0.2469293 0.2938896 -0.13783063 -0.547967 -0.08657691 0.14063099 -0.23225373 -0.06947049 0.004614307
40 -0.09902209 0.25546598 0.27005938 0.2981898 0.17270899 -0.23272981 -0.23125848 0.21273212 -0.5259801 0.14144652 -0.16956843 -0.30812696 -0.42092115 0.15884857 -0.03943412 0.19806303 -0.38838583 -0.14086385 -0.3277686 0.64964354 0.26707235 0.3126928 0.51418316 -0.5296089 -0.46420792 0.34779674 -0.014133166 -0.16750517 0.18519716 -0.63735306 0.152544 0.2896767 -0.10767171 -0.12789641 0.16970389 0.4437601 0.23318516 0.24421081 0.20385054 0.20408252 0.11386191 -0.001790742 -0.037484728 -0.21097125 0.17791492 -0.081768654 0.13879585 -0.51889974 0.020588303 0.44249076 0.12153516 -0.28669533 0.10060018 0.6313062 0.36353394 -0.29082847 0.112842396 0.11067059 0.064291544 -0.12125645 0.12144402 -0.26139173 -0.2655393 -0.20986106
727 0.2373212 -0.34356424 0.11026764 0.21699667 0.07726502 0.39076146 -0.16601397 0.37609473 -0.688871 -0.25751522 0.08330785 -0.72170067 -0.3518207 -0.007629793 -0.09034838 0.43820322 -0.41898346 -0.017157478 -0.081912525 0.0803626 0.29602316 0.21497418 0.53668064 -0.3673444 -0.08094498 0.35737044 -0.34268722 0.1521339 0.10226333 -0.21737257 0.13445403 0.0032859077 -0.23284835 0.03152237 -0.2686159 0.26864815 0.3328223 0.22635263 0.24873 0.35486785 0.13443373 0.42989108 -0.46774358 -0.46657816 0.109174006 0.21019182 0.22260384 -0.19482411 -0.09902116 0.50029135 0.17488183 -0.054304965 0.34361586 0.31836376 0.27904248 0.41473496 0.3688846 0.16101682 0.10365364 -0.22537781 0.17459773 -0.1615478 -0.3144801 -0.0763183
898 0.2002448 -0.34602195 0.17237625 0.18195081 -0.75596964 -0.12634389 0.052098162 -0.03572791 -0.21363388 -0.016409691 0.14931053 -0.2340584 -0.010704758 0.07100425 0.2796547 0.42300963 -0.08243114 -0.08833834 -0.15288804 0.5797147 0.15282024 0.3754609 0.32614988 -0.17594886 0.36955932 0.301171 -0.20493054 0.091417976 0.0854966 -0.29191378 -0.14859036 0.2713836 -0.07414894 -0.00021089581 0.1049798 0.9961923 0.19906536 0.07088905 0.18260887 -0.1047826 -0.05490338 0.24251886 -0.6740697 -0.282818 0.48858172 -0.03565699 0.08806419 -0.0049249283 -0.052565247 0.4252534 0.13457061 -0.035571013 0.36967525 0.19610277 0.13700706 -0.13860598 0.14711359 -0.15384421 -0.05979208 -0.48191488 0.05998756 -0.35070252 -0.39853182 -0.057811543
1240 0.136258 -0.38572666 0.2769918 0.2693444 0.29257962 0.013757208 -0.06042836 -0.43338832 -0.5596484 -0.33905804 0.14376876 -0.3705688 -0.4000812 0.3290218 0.19177976 0.19962624 -0.22722477 0.25778764 0.011476434 0.5230719 -0.031192485 0.35189554 0.16473475 -0.08729921 -0.13110459 0.49214935 -0.06527682 0.08961627 0.28782055 -0.27455655 -0.46961284 0.3009703 -0.52472264 -0.19261847 -0.15758964 -0.06492559 0.54988503 0.23438601 0.0012578825 0.06769229 0.23747031 0.56288475 0.31680852 -0.19904554 -0.021485204 0.16259533 0.23678347 -0.055336673 0.15246044 0.45340386 0.022344586 0.26864052 -0.3309868 0.1961773 0.53600216 -0.34399134 0.15563443 -0.35178152 -0.40945467 -0.106346026 -0.0040956344 -0.078794 0.103249595 0.036294337
1314 0.17953157 -0.41696164 0.21945184 0.12166547 0.14887033 0.0945878 -0.41978988 0.03660637 -0.5959074 -0.37291694 0.11316539 -0.17850403 -0.31329003 -0.08162836 0.065378666 0.08732335 -0.10908529 -0.25142485 -0.12008815 0.42855993 0.19195609 -0.038676377 0.46873093 -0.42966837 0.014781018 0.22221212 0.03994818 -0.017141636 0.4394001 -0.21025781 -0.29708445 0.17032458 0.13657586 -0.5771503 0.25949982 0.53966296 0.28981507 0.20638438 0.31362304 0.07347878 -0.09351045 -0.39267227 -0.17906085 -0.2600093 0.2983929 -0.11475953 0.23984864 0.1342585 0.14627841 0.18031247 0.270616 0.66465986 0.4683946 0.36263308 0.23182753 -0.13197108 0.15355551 0.20789008 0.11803594 0.107759506 -0.38656256 -0.32938522 -0.12326343 -0.23739746
92 0.036725275 -0.24662985 0.19201139 -0.09154493 0.21831873 -0.25907633 -0.6968115 -0.414442 -0.5012538 0.3181936 0.10962723 -0.030615022 -0.4424977 0.018188763 -0.45851249 0.08961421 -0.013797141 -0.074524425 -0.6340831 0.42042857 0.11518367 0.041509416 0.77927214 -0.52148134 -0.033937078 0.48381922 -0.5948586 -0.18882455 0.15169306 0.085441194 -0.26821864 -0.02795022 -0.2156036 -0.21688081 -0.34814426 0.2878667 0.2698357 0.34005743 0.23651844 -0.23981969 -0.10305747 0.13246863 0.042512193 0.050226137 0.5837394 -0.23791611 0.27454907 -0.48638284 0.28435776 0.08912522 -0.13556992 -0.32575572 0.70502573 0.07053328 0.087511525 -0.4357661 0.46296665 -0.25614798 -0.027473515 0.28046754 0.04610497 -0.11838706 -0.23346047 -0.079683214
44 0.40738207 -0.44098225 0.124552004 0.5076 0.13939333 -0.36583614 -0.055434335 0.30020517 -0.36631542 0.053028118 -0.352986 -0.404 -0.037901342 0.076514475 0.28195775 0.33717322 -0.08057833 0.2648302 0.023159312 0.28203043 0.22196047 0.21541268 0.01806569 -0.280353 0.19094326 0.45651525 -0.24360706 0.060370095 -0.49106997 -0.28373834 -0.37501755 0.19218537 -0.08391954 -0.42053583 -0.07851964 0.49294084 -0.0072717434 0.3893471 0.15819313 0.5053841 -0.014862023 0.14463736 0.31023762 -0.25400543 0.14899957 0.3528742 -0.0679639 -0.49291912 0.0059646964 0.25203452 0.043585032 -0.29841334 0.0307399 0.29841968 0.37107188 -0.32105717 -0.057403155 0.09805337 -0.6525155 -0.2795669 -0.24431372 -0.3254274 -0.14879955 -0.3318291
726 -0.11411138 -0.08261212 0.5147599 0.54026425 -0.36357173 -0.29512638 0.001018473 0.21951233 -0.39213294 -0.029945321 0.3950045 -0.3150497 0.075828135 0.11859131 0.009750633 0.46598223 -0.1794353 0.08253336 -0.3246146 0.44796026 0.16899619 0.22522858 0.36349538 -0.24622023 0.4332181 -0.17298888 -0.49935457 -0.08807367 0.20737596 -0.31512025 0.045912184 0.3213609 -0.12264285 -0.15560041 0.121592514 0.32762685 0.11620767 0.14305688 0.22364391 0.098355465 -0.046863724 0.07529089 -0.0096358685 -0.08521368 0.048230056 -0.0883573 0.38737443 0.07943316 0.14682163 0.6229882 -0.012071433 0.36422005 0.12848961 0.30702895 0.021914028 -0.17395921 0.17644882 -0.101354346 -0.097457014 -0.37389144 -0.11294193 -0.17705287 -0.20132557 0.10432036
1404 0.29828468 -0.4262011 0.25948736 0.55071235 -0.12275194 0.028655741 -0.34770486 0.11721108 -0.7319603 -0.4044745 0.28813678 -0.38290286 0.11705174 0.3201379 -0.054552197 0.508081 0.032920457 0.20315069 0.042833433 0.7238264 0.090956435 0.094428346 0.049414933 -0.24658546 0.19376017 -0.05170898 -0.59095204 0.10131583 0.42454976 -0.02244537 0.10266356 0.35994726 -0.5079889 0.07498577 -0.3876112 0.54864955 0.23857193 -0.07083511 0.1913722 -0.2318412 -0.41704702 -0.20984624 -0.2156568 -0.022700666 0.12145374 0.6980097 0.089974254 0.07192747 0.10354237 0.13069855 0.061195675 -0.19708607 0.2640376 0.120084636 0.19424601 -0.2407438 0.6160632 -0.07929078 -0.10793888 -0.2296977 0.055910014 -0.10738422 -0.72451 -0.05464689
1333 0.6029802 -0.12598202 0.30287597 0.11560885 0.2752521 0.02683874 0.23314929 0.06189986 -0.4679887 -0.10851118 0.14077203 -0.17855054 -0.2229917 -0.23777369 -0.11367666 0.08785827 -0.1878398 -0.06742559 0.2668302 0.7421784 0.24950455 0.15065876 0.51163185 -0.14492139 -0.055488918 0.1935491 -0.43142685 0.034436267 0.12450189 -0.031053111 0.37648052 0.24966595 -0.18986635 -0.08158313 -0.11724273 0.62856644 0.019071091 0.10254657 0.27789044 -0.022474661 -0.15491675 0.29014322 0.19672436 0.124353714 -0.29059112 -0.10854739 0.32515407 0.06210159 0.2017313 0.28658757 0.05031863 0.076087885 0.0626349 0.40689698 0.3971765 0.10534902 0.09933654 -0.16335288 0.05985548 -0.003710864 -0.15448724 -0.39229214 -0.06836909 0.21151169
380 0.5121366 -0.426749 0.046561055 0.0021722526 0.08458612 -0.2009906 -0.16743991 0.16067632 -0.40327466 -0.39076027 -0.0035723266 -0.013514876 -0.12124569 -0.108062655 -0.2993304 0.3977699 -0.3868812 -0.079121366 -0.064967394 0.29626778 -0.007038499 0.3452144 0.35479158 -0.21729425 0.19432728 0.2253051 -0.089544125 0.4409162 -0.010841415 -0.37725127 0.08350685 -0.22551106 0.18094404 -0.32577792 0.120909646 0.39313734 0.22785573 -0.12077169 0.63035285 0.28107467 -0.062944576 0.2080943 0.19292659 -0.45861602 -0.18677929 -0.20973566 0.12730287 -0.09056274 -0.1100811 0.2298449 -0.23342396 0.2544577 0.7275167 0.36387005 0.27006784 0.100004174 -0.1351835 -0.3465496 0.0137704015 0.5581918 0.066954635 0.04911575 0.061142936 0.22899336
1359 0.47629046 -0.101388164 0.36889735 0.036336012 0.16066702 -0.10961935 -0.036860168 0.41945052 -0.71313834 -0.49663544 -0.2445973 -0.5374256 -0.13016793 -0.17546834 0.1953935 -0.2925913 0.0960716 0.21092218 0.02629913 -0.2849485 0.41291875 0.26520437 0.012019567 -0.30723602 0.30397275 0.50889987 -0.5848567 0.44661504 0.54702175 -0.50637245 0.017303139 0.44877174 0.007485375 0.41566437 0.19994122 0.28465107 0.11039193 0.21772543 0.09017808 -0.076719366 0.07226793 0.38561568 -0.043339204 0.17252071 0.21299943 -0.014585285 0.3934128 -0.2347205 -0.09690876 0.2870479 0.32746208 0.105547436 0.6505566 0.4368714 0.42175195 0.0076781455 0.07276502 -0.19181089 -0.14188531 0.35705718 -0.09863428 -0.021203179 -0.07606057 -0.058514338
1253 0.13115185 -0.21215695 0.29867437 0.23934758 -0.35322282 -0.057954155 0.016416052 -0.4645954 0.014022233 -0.4098625 0.32096407 -0.33255586 -0.08302718 0.2000855 0.21176204 0.11213782 -0.031529278 0.3712169 -0.24709588 0.81352407 0.17306349 0.38164857 0.20355502 -0.198826 0.025597658 0.27024448 -0.36753792 0.22708616 0.017831333 0.36350346 0.31178606 -0.20316984 -0.20456961 0.27056313 -0.04875396 0.50284386 0.21742381 0.035777565 0.64326406 -0.26032823 0.29120398 0.11855897 -0.23545216 -0.04471579 -0.10588911 -0.23546396 0.16919631 -0.14554566 0.088928804 0.5271879 -8.712323e-05 0.028810313 0.1059207 0.036302716 0.43801942 0.09127746 0.2368865 -0.33870143 -0.4888109 -0.4382471 0.011705146 -0.21898931 0.10414513 -0.18620007
234 0.09074848 -0.33514154 0.46456012 0.28098315 0.18499489 -0.3748905 -0.44457883 0.3146589 -0.3181801 0.24923314 -0.16205236 -0.59132576 -0.14859949 -0.034107592 0.23943242 0.27073538 -0.11706496 0.4211866 -0.1532131 0.48429975 -0.122839786 0.2905033 0.23648927 -0.6109969 0.253831 0.098148145 -0.32723406 0.025513953 0.07571042 -0.5220528 0.11234716 -0.24016121 0.06636784 -0.12032499 0.29778692 0.3009967 0.15769105 0.22522488 0.19282682 -0.023789784 -0.007466821 0.01485117 -0.10827327 -0.22074218 0.18420945 -0.459814 -0.019770715 -0.113553084 0.15027541 0.07544106 -0.06651103 -0.43185663 -0.51383364 0.5222246 0.33054245 0.16036654 0.092755325 -0.036603753 -0.5913286 0.10007026 0.16447817 -0.47657424 -0.22436675 0.0043269107
57 0.58137864 -0.28409436 0.0008799818 0.2744636 0.27090344 0.23454009 -0.22746657 0.09216192 -0.11233861 0.38636515 0.29722485 -0.2340726 0.13496462 -0.26342243 0.650878 0.24501573 -0.017996825 0.23726222 -0.5188513 0.3631885 0.001426072 0.35842448 -0.17088802 -0.46479312 0.21672252 0.3051134 0.068809874 -0.25307333 0.25752875 0.007761287 -0.08990858 0.013265247 -0.42567846 0.37701088 0.15943821 0.40071872 -0.21489963 -0.4624936 0.110158384 -0.032418974 -0.44751367 0.08984866 -0.57813555 0.19823557 0.6771373 -0.33109924 -0.069932275 -0.7715783 -0.038549498 0.9733704 0.10432904 -0.18267563 0.086114265 -0.024863318 0.21800652 -0.52269465 -0.38519382 -0.671825 -0.208113 0.79066914 0.03706249 0.056946903 -0.44103703 0.37872967
844 0.24404933 -0.2869625 0.1433798 0.30991974 -0.016520096 -0.07796152 -0.03753532 -0.39050156 -0.35042745 -0.31428736 0.11740477 -0.41314167 -0.1130589 -0.3331937 -0.3846746 0.30906838 -0.08267065 0.52484214 -0.00013396228 0.48596546 0.10740861 0.06444702 0.48424944 -0.09669061 0.23912519 0.20433173 -0.3413989 0.64468455 -0.07120901 -0.005925561 -0.120644785 0.30754662 -0.43532953 0.0625897 0.011956832 0.32719368 0.42921257 0.3643252 0.4134369 0.17719942 0.3211153 -0.15297571 -0.10231451 0.12780981 -0.20799689 -0.26071036 0.12828861 0.23622201 -0.20398787 0.22136278 0.065957494 0.2962886 0.25276926 0.34245187 0.08831478 -0.13169606 0.044424005 -0.21895708 -0.24830592 0.15419601 0.09146288 -0.3264836 -0.0026023698 0.1510416
