3867 64
2731 -0.8921274 0.067674436 1.1939673 1.2906708 -0.57734567 -0.35868976 0.014691698 -0.0022804954 0.30534622 -0.7503289 0.36270002 0.10888401 -0.59763414 0.710046 -1.0073277 -0.55439 -0.9980969 -0.43796504 -0.33071414 -0.01866685 1.1313926 -0.51483715 -0.084680855 0.1015527 0.9668818 0.14885943 -0.19512145 -0.2552234 -0.39026275 -0.45192498 -1.7966074 -0.00475271 0.8923657 -0.39000985 -1.1718779 -0.7006881 1.2467463 -0.19312006 0.63191956 -1.4273282 -2.0884173 1.2760583 -0.60575336 -0.85510206 0.58921075 -0.27698296 -0.5924684 -0.2648624 0.6132814 0.09908198 -0.5519522 0.78605604 -0.38904655 0.29486635 -0.45807764 0.2973995 -0.59285116 -1.208387 -2.0805948 0.5923762 -0.19450769 -0.7014323 0.33467183 -0.97120774
2124 -1.0528507 0.09191701 0.8094013 0.48497516 -0.7988035 0.72566044 -0.048939176 -0.8982269 0.7611748 -1.2077738 -0.21094994 1.2918876 1.0214381 0.5976609 -0.81195885 -1.0936836 -1.8941593 -0.15437926 0.3219369 0.4392542 -0.31555828 -1.4130731 -0.39507425 -0.18734664 0.08522128 1.2131948 -0.32617733 -1.1039175 -0.037529655 -0.13407275 -0.63883317 0.23208262 -0.6028652 -1.0429573 -1.2218682 0.58005416 -0.32904416 -0.22519974 0.88866735 -0.6685792 0.42767635 0.20083033 0.80655175 -0.4607971 0.5917999 -0.19559185 0.63333356 -1.4522634 0.2621203 0.37941965 0.80383205 1.0759873 0.3808337 0.50686884 -2.0382042 -0.3662083 -0.7111248 -0.71035236 -0.27135953 -0.45710316 0.5556924 0.446431 0.03280024 1.1727796
581 -0.96531457 1.0680777 0.6908806 0.22327653 -0.29327592 -0.38068742 0.09128983 -0.5669913 1.3058984 0.5762617 0.71776074 0.7729045 0.6879671 -0.7021563 -0.72850823 -0.78822845 -0.90083754 0.23562112 0.9720874 1.3882931 0.78578466 -0.6031688 -0.01723648 -0.08787677 0.13459748 1.2995766 -1.2899489 0.3662145 0.6227208 -0.0769858 -0.66639113 1.1846718 -0.11053456 -0.093142286 -0.79323393 -0.6077004 0.11296604 -0.11822929 1.1557482 -1.905734 -0.041983042 1.2815412 -0.8223762 -1.3623734 0.94650936 0.015977083 -0.7555865 -1.3895398 -0.2892885 -0.28165698 1.0357796 0.30269036 -0.22491255 0.6231925 -0.74093354 0.26929465 -0.12943237 -0.5539614 -1.5965682 0.19100223 -0.19048281 -0.79626244 0.8405278 -0.4069622
201 -0.096427284 -0.8246063 0.28562906 0.3828896 0.35606056 0.3882154 -0.99576384 -0.25804538 1.0990497 -0.46896634 -0.82870644 -0.14386815 0.47912788 0.24135038 -0.5453704 -0.7537382 -1.6745083 0.57241 -0.180454 0.57486695 0.7888825 -0.51163733 -0.041170917 -0.3425122 0.55634314 1.2965639 -0.9246373 -1.8104712 -0.84725326 -1.1176791 -1.271314 -0.9676473 0.397124 -0.54844546 -0.025080707 0.24664807 -1.677348 0.34836364 1.2236139 -1.6573187 -1.0965589 0.3700737 -0.45991054 -1.0166707 0.82479227 0.2291382 0.2892869 -1.0504551 -0.76884985 -0.43463722 -0.13224874 1.1452398 0.31251106 0.91658735 -0.45982304 -0.17745806 -0.3583459 0.08275479 -1.2906449 -0.1297861 -0.19574654 -0.94955736 -0.7138236 0.24496582
2855 -0.7833999 -0.9607516 0.3122766 0.29949704 0.20664991 0.46336308 0.4044715 -0.1660848 0.36059102 0.59529924 0.4564248 1.137264 -0.005252603 1.356942 -0.10445646 -0.17998643 -0.71573335 -0.62220794 -0.21208224 1.4405415 0.96247905 -0.35367483 -0.92090434 -0.37274686 0.24169765 -0.093248114 -1.3974417 -1.129215 0.003604344 -0.75522155 -1.3231245 -0.51471084 1.708384 0.14128082 -1.6574484 0.67464584 0.83635473 -0.10343814 0.6890989 -0.8865488 -1.0708609 0.7995543 0.3994967 -1.1954615 -0.31504446 0.67735887 0.6318558 -0.91203135 0.9702768 -0.8620247 -0.10207002 1.1452762 0.33743265 -0.9380693 -0.8599363 0.73017114 -0.002184982 -0.86078376 -0.65114874 -0.41026124 0.9529264 -1.1403221 -0.065501004 1.1365719
2643 0.15989678 -0.16055469 0.69723713 1.4678242 -1.1793708 1.150084 -0.33955747 -0.46121725 0.6355944 -0.2377226 -0.6325999 0.100672334 -0.71289325 0.3600069 0.11978267 0.28673193 0.13993348 -0.6471674 -0.4768362 1.1775881 0.7352682 -0.2598174 -0.5294641 -0.4480241 0.43429217 1.1773083 -0.14026283 -1.0493679 -0.30507737 -0.5837723 -0.84089625 -0.4103915 -0.16178824 -1.0677629 -1.196167 -0.73404574 0.29188353 0.94364053 0.88432175 -1.3452373 -0.56998783 1.3912715 0.9443746 -0.24238563 0.24247465 -0.9862454 -0.27667445 -0.39677283 0.18643458 -0.99450856 0.84260046 0.37824905 0.18430153 1.4225922 -1.4337943 -0.63266695 -0.60702306 -0.22388071 -1.9941483 -0.48978606 -0.41506076 0.13952404 0.5731798 0.8116883
2340 -1.324289 0.036619235 0.99234927 0.9503885 -0.32437646 -0.5725441 -1.0987217 -1.0210501 0.7975338 -0.6551987 0.63719237 0.013287129 0.015097875 0.20494927 -0.97191375 -0.4617788 -1.3106972 -0.26694292 0.010434748 -0.062937096 0.06736563 -0.09286644 -0.3214558 -0.16707395 -0.25166938 1.6153599 -0.3447486 -0.81975424 -0.9974406 -0.58841753 -1.0657997 -0.5676672 0.10048594 0.92265195 0.016937915 -0.4985569 0.14569834 -0.24739042 1.246929 -0.13121447 -0.9886179 0.49236894 0.66646254 0.31502056 0.038564853 1.0526208 0.83216375 -0.6461261 0.56058216 -1.702951 0.18219346 -0.23682602 -0.06303971 0.092791684 -0.8976579 0.5687685 -0.19458562 -0.7709678 -2.63238 0.7608704 0.85110974 -1.4870663 1.1911823 -0.056007665
2305 0.23934397 -0.9112228 -0.062287435 0.41810003 0.27727348 0.98126596 -0.41544357 -1.3758123 -0.28117922 -0.31941554 0.06008171 0.30707112 0.47866452 0.40715492 0.120048575 -0.19187887 -1.6251501 -0.45700493 1.1022195 1.3994479 0.39891216 -0.32436916 -1.9548956 0.62444985 -0.6259086 1.1472267 -0.8178743 -0.19652593 -0.9005191 0.22094618 -0.473715 -0.48722422 -0.24787012 -0.6162983 -0.14110905 -0.531804 -0.9431448 -0.35664847 0.57284665 -1.02258 -1.0055418 0.50785613 -0.6921086 -1.2174813 0.88058573 -0.29089135 0.20822175 -1.714531 0.66454065 0.5186593 0.3815368 0.25217077 -0.67671514 0.32803988 -1.0651586 -1.0965719 -1.2586787 -0.49167523 -0.5352054 0.8719093 -1.1170937 -0.67388725 0.010599573 0.36271408
2100 -0.791336 -0.5427217 -0.28980526 -0.5975468 -0.75051945 0.37806913 -0.7432329 -0.94184923 0.02356941 0.021106903 0.50685215 1.0166837 -0.6192889 0.24706118 -0.126513 -0.93120766 -0.61298954 0.6227646 0.43377832 -0.39611858 -0.21719298 -1.541885 -1.0057704 0.7484395 1.1031275 0.8370977 -0.040019713 -0.6081289 0.27446395 -1.182848 -1.220248 -0.4748402 0.105652586 -0.2579871 -0.13738257 1.0957608 -0.74633276 0.09238404 -0.041811306 -1.4136096 0.16387025 1.5230733 -1.0078176 0.13096018 1.3263155 -0.22083494 -0.867736 -1.4686942 0.6367787 0.1238092 0.4201592 0.085362725 0.13298962 0.4499208 -0.7861813 0.13766888 -1.749448 -1.039287 -0.9014681 1.1160282 0.69591206 0.39540312 0.53731185 1.0919703
2039 -1.039878 -0.28430396 0.42142007 0.7184319 0.68216956 -0.4247077 0.20096132 -1.7490627 1.2564503 -1.255415 -0.59173423 1.0782465 -0.1777963 1.0639058 -0.08886611 -0.17347912 -1.4758263 -0.9184699 1.1574789 0.94031936 0.082312405 -1.4762996 -0.40464702 -0.21228436 1.171677 0.013947234 -0.4888168 -0.38315156 -0.22311112 -0.5737098 0.1531001 0.10967522 0.18418124 -0.25777104 -0.80773443 0.6420108 -0.39923134 0.5469709 0.09353117 -0.4926505 0.39985442 1.0400966 -0.18125382 -1.447895 0.71533334 0.007875578 1.0670425 -0.53673863 0.49233925 0.023056094 -0.42469057 0.032676328 0.33275363 -0.19054563 -0.18953688 0.7104393 -0.65772194 -0.46671796 -1.7762566 0.6703998 -0.25860307 -1.336229 -0.06668716 -0.7025459
885 -0.4701323 0.26917827 0.7145266 0.3329831 -0.08793893 1.1244364 -1.1775532 -1.9639988 0.80343866 -0.4613541 -0.4190426 -0.029612418 -1.2483616 0.051889643 -1.4715523 -1.010541 -1.0880134 -1.0185498 -0.40884772 -0.29728895 0.6946429 -1.2866166 0.38477468 0.06731327 -0.010824284 1.0947584 -1.5709054 -0.4693259 -0.79221356 -0.37244397 -1.1421671 0.10470132 0.3850333 0.5742143 -0.7229714 -0.36378404 0.6250293 0.75961554 -0.48923603 -0.11899136 0.18234433 0.38522673 -0.3887039 -0.33334863 0.90092695 0.12763293 0.68832415 -0.6597945 -0.40742534 -0.4414363 -0.16755772 0.8912752 -0.23577261 -0.22303642 -0.5662459 0.49089566 0.7093152 -0.25451133 -1.5136825 0.587082 0.49870676 -0.25411347 1.4951092 1.2248808
1695 -1.0056002 0.2709153 0.23785247 0.037207596 -0.8439893 0.3821158 -0.77329093 -0.8847656 1.2382905 -0.32234374 0.6234461 0.7693584 0.57677746 0.621153 -0.46858773 -1.0851978 -0.64638853 0.13145538 0.44085008 -0.13320796 -0.76990074 -0.48029938 -0.9102842 0.6133997 -0.24247572 1.6696877 -0.5814728 -0.09779219 -0.60710293 -1.0636435 -0.8454256 0.2474973 -0.28616184 0.08110304 -1.8071067 0.3769402 1.1608301 -0.22495177 -0.082983755 -0.4814111 0.34249762 0.2020305 -0.27993754 -0.5303735 1.5677745 0.09871751 -0.94479537 -0.9851214 1.2234575 -0.7771469 -0.30132306 1.1031061 -0.872542 0.22471182 -0.5563571 0.5796811 0.33678544 -0.5561781 -1.898003 0.5379389 0.3015532 -0.20627806 -0.36769703 1.2794683
1108 -0.76875556 -0.91834885 0.37062845 -0.11424092 0.23491918 0.282149 -0.35107845 -0.6132383 1.4570053 -0.7620061 0.88230336 -0.3143036 -0.6786735 0.525452 -0.82096195 -0.27381706 -0.9685342 -0.9857212 0.55132484 1.4549582 1.1150125 -1.2473572 -0.4427527 -0.067279905 -1.2596576 1.3748167 -0.28532195 -0.49493822 -0.36924696 -0.73430747 -0.7433238 -0.12950043 -0.9578841 0.73409826 -0.36671865 1.2119265 1.2205789 -0.48024315 0.69053084 -1.086601 -1.7739143 0.8671377 0.7173751 -0.77216804 1.4860075 -0.33665273 0.57778406 -0.15282577 -0.15088665 -0.2487206 -0.1770652 -0.17087023 0.51891446 0.7805804 -0.09016136 -0.33028665 -0.7447502 0.16863534 -0.8307667 -0.13697453 0.14158681 -1.2381736 1.0448847 -0.565961
2540 -0.36807173 0.75993454 0.49076575 0.6120789 -0.23285034 0.22712986 -0.15262544 -2.1557248 0.61544687 -0.022455897 -0.008920367 0.6132341 -0.6568095 0.4097728 -0.0883062 0.46082532 -0.8310754 -0.35234126 0.35737708 1.1579913 0.03447083 -1.9253778 -0.19548778 0.052766107 0.15962298 0.99562234 0.08548263 -1.722977 0.007655878 -0.7484411 0.48055777 -0.24883765 -0.59764636 -0.19562396 -0.9126268 0.2971387 -0.4259437 0.059388593 -1.2026758 -0.79773074 -1.2550683 0.72252274 -0.37293276 -0.98262477 0.3009847 -0.8771631 -1.2064774 -1.0656829 -0.25628 -1.4472715 1.135437 0.08806711 0.71754605 0.7707632 -0.7464158 -0.2895629 -0.14277661 0.53565896 -1.6817726 0.49174473 -0.039634448 -0.5037122 0.653863 0.84428936
401 -0.31860527 0.39231881 0.06411269 -0.544228 -1.2509884 0.193193 -1.3992405 -0.57013184 -0.060801215 -0.6148869 -0.50182074 0.8700344 -0.5599883 0.16920324 0.2647735 -0.26614207 -1.5527346 -0.28777856 -0.04815695 1.2103866 0.7487683 -2.014005 -0.46771562 -0.24211778 -0.14898239 1.4488463 -1.3833005 -1.2683876 0.53772247 -0.8504704 -1.0860354 0.57011 0.2868438 -0.52945185 0.14413986 0.13179444 0.20673586 0.6608668 -0.5797492 -0.42926753 0.124144115 0.86240387 -0.32169002 -0.7313691 1.1416339 0.45126456 -1.0895951 -1.014568 0.15555832 0.33853546 0.47768158 0.4478125 0.4547852 1.2013408 -0.8828553 1.3306826 -0.52493316 0.4219062 -0.17500283 -0.7037978 -0.36478958 -0.685422 0.61320186 -0.2876996
1110 -0.7655258 0.65638185 0.56205344 0.07344639 -0.7944384 -0.11075116 -0.9630741 -1.3176218 0.8528762 -0.24067801 -0.04989042 1.4614736 -0.6356747 -0.50242597 0.0025232625 -1.0847651 -1.029547 -0.92562157 0.43860042 0.6974128 0.9266474 -1.2683979 -1.1369915 0.28625968 0.89822555 0.27243057 -1.1521754 -0.7155673 0.34150532 0.46324065 -1.7232995 0.60502744 0.47805804 0.18174309 -0.25570762 -1.1320355 -0.9452504 0.77032524 0.91232246 -0.647732 -0.6136687 0.45688727 1.2298933 -1.0737801 -0.23749767 -0.66547626 -0.061476916 -0.49355984 -0.20102613 -1.6858332 -0.03725983 0.32099578 0.11881817 -0.30493143 -0.90484726 0.69719666 -0.25527596 -0.72244203 -0.68191004 -0.83901095 -0.11589242 -0.58377665 0.7604517 0.08562128
1174 -0.97354275 0.04336247 0.23129654 -0.3917279 0.26912716 0.19054678 -0.6945289 -1.1469971 1.8005886 0.6948508 0.5116447 0.9591336 -0.06687577 -0.17166641 -0.82933474 0.012645467 -1.1790527 -0.36963022 -0.6073447 0.7994741 0.056109954 -1.7085743 -1.0325991 -0.31995368 -0.32146806 0.9736174 -1.2059175 -0.7293237 -0.85170406 0.25250998 -0.77431214 0.09173671 -0.47408897 0.2324812 -0.12462192 0.19619142 -1.302577 -0.5284859 0.23375016 -1.0868808 -1.5766276 1.1698467 -0.66076475 -1.0939163 0.8933777 -0.49667358 0.23231147 0.18283413 0.13646275 0.9890798 0.23567419 1.1569229 0.28391135 -0.64316493 -1.5318447 0.68154687 -0.22030377 0.632665 -0.4359859 0.82358366 -0.74309796 -0.112714216 -0.00085780915 0.8614814
1361 -0.14540897 0.78621846 0.26231587 0.062662385 -0.25819656 1.2864548 -0.9855889 -0.5508692 2.0075514 -0.61365753 0.27507672 0.34774125 0.6857783 0.91783464 -0.046977516 0.1980665 -0.83071345 -0.71763706 0.6132611 0.25698724 0.08026244 -1.021121 -0.39185628 0.29406098 -0.057691496 0.18831447 -0.65907973 -1.719766 0.005810237 -0.8383035 -1.5567992 -0.8955796 0.6416006 -0.52639323 -1.4594028 -1.6104534 -1.2316904 0.2830681 -0.42065638 -0.23731044 -0.6200059 0.3377854 -0.23343994 -1.3927499 0.7096719 -0.23768274 0.47044164 -0.62335664 0.37976313 -0.4601158 -0.98326707 0.2545916 -0.56944954 -0.3549981 -1.0743732 1.2832826 -0.34304404 0.10674566 -0.65043694 -0.651887 -0.4506598 0.29663414 0.6966983 0.050238915
455 0.08638372 0.14653163 -0.89531887 0.42842507 -0.1463599 0.4972329 -0.16209695 -1.2069627 1.1400014 0.051191196 -0.0823946 0.14316984 -1.0156571 0.52337533 0.5958971 0.89564526 -1.6090515 0.35005963 0.65331113 1.2356801 0.72223425 -0.36947727 -0.9536362 0.80284387 -0.4750635 1.4223977 -0.9631053 -1.0671034 -0.47861904 0.19468178 -1.4284807 -0.44143376 0.74605584 -0.1747852 -1.1159366 -0.5735907 0.9985845 0.18690215 0.1527107 -1.2814867 -1.5660124 0.6235141 1.0070198 -0.85046214 -0.16196945 -0.24922584 -0.8031852 -0.7668376 -0.05331809 -0.31524605 1.1579633 -0.5247325 0.719431 0.5393447 -0.8627625 0.6187899 0.47645438 -1.028709 -1.3099205 -0.6350971 -1.0207542 -0.44148389 -0.16538626 -0.5124166
661 -0.6632395 0.59576154 0.61147964 -0.55014163 -0.8358716 0.5852893 -0.6814139 -0.87530494 1.2872804 0.1834312 -1.2961535 0.70322967 -0.57468426 1.4169562 -1.815295 -0.11741772 -1.2623677 0.24753785 -0.09236206 -0.22014885 0.22668721 -2.0106003 -0.49966946 -0.35475627 0.6531172 0.4436931 -0.84952855 -1.5468692 -0.22488596 -0.7945202 -0.18248567 -0.043786492 0.57936126 0.5888066 -0.09603708 -0.4692835 -0.3396932 -1.0651442 0.003401238 -1.290593 -1.2874758 0.53873795 0.26428664 0.091284424 0.2635219 0.048395008 0.76983505 -0.9647508 -0.6371088 -0.021878675 0.748845 0.39179587 -1.3644838 0.12134045 -0.8072896 0.99055874 -0.8297774 -0.7398016 -0.9544341 0.18668911 0.11015385 0.45579058 0.54271644 0.41176638
332 -1.6961205 0.91890883 -0.3072532 1.2021018 -1.4403603 0.6250414 0.5463421 -1.6227359 0.46460363 0.07396368 -0.2474058 0.944172 1.0414891 0.11677286 0.15825294 0.0788762 -0.92852783 -0.34082887 -0.064286925 0.515647 0.10265873 0.074246235 -1.1578461 0.18709958 -0.24154666 0.6947435 -1.5010633 -0.619594 -0.35451415 -0.73181176 -1.0911247 -0.44927698 0.18665366 -0.43327925 0.70306545 -0.4027736 -0.69629276 -0.009835437 0.8006915 -1.2573833 -0.32391256 1.1156983 -0.54336125 0.2704328 1.0162051 1.1574485 0.76264644 -0.3596758 -0.023664623 0.044630777 -0.20288771 -0.26229712 0.5737607 0.09866744 -0.6009491 0.97457606 -1.5306258 -0.084675565 -1.0083605 0.287149 0.18533605 -0.7841816 1.340789 0.5240175
2406 -1.014495 -0.59943044 0.02650188 0.90911657 0.28165293 0.21140568 -0.5278475 -0.6340177 1.1912228 -0.037733965 -0.20583606 0.5124547 0.13147962 0.16590856 -0.9854389 0.005069249 -1.0314044 -0.07811746 1.0851887 1.4286281 0.93573064 -1.0835515 0.42189503 0.091155 0.73948365 0.31183526 -0.5638561 -1.9502994 -0.61126924 -0.6230146 -0.15994152 0.65516305 -0.20390363 0.46830478 -0.0892767 -0.7118941 0.24086381 -0.4113769 0.8912412 -0.6415343 -0.6010273 1.4055706 1.0923011 0.18336324 0.4786928 -0.6169715 0.9593192 -0.29456055 0.3312122 0.04216141 -0.99997157 0.24709164 0.83358383 -0.04924779 -1.845723 1.0270914 0.03809828 0.3666841 -1.897287 -0.3833334 0.5991035 -0.7329211 0.8066245 0.84331506
198 0.16964364 -0.9732329 0.8953011 -0.3992318 -0.8464324 -0.44784832 -1.3296247 -0.33313176 1.3003732 -0.36519083 0.36888528 -0.07304639 0.4103467 1.1274247 -0.41300792 -0.7064762 -1.3043109 -0.2704362 1.0698601 0.5631959 0.14128022 -1.180032 -1.2579426 -0.19402632 0.49721292 0.5362794 -0.8056603 -1.7900124 0.55418044 0.30667314 -0.9690282 0.557107 0.9771956 -0.5371942 -0.064808115 0.41224298 0.70208704 0.3388165 -0.49552 -1.1640109 -0.7177942 0.9701209 1.2603579 0.32349566 0.48360953 -0.5198502 -0.5729515 -1.4683747 0.96415013 -0.2908567 -0.24746142 0.56368554 -0.39256883 -0.6566486 -0.59532416 0.8515641 -0.00893701 0.06245366 -1.0638196 -0.36234173 0.06758687 -0.41265273 0.18082786 -0.33274442
1697 -0.1484046 -0.1543955 0.40540728 -0.40267995 0.19788441 0.7748871 -0.58819795 -0.8166138 -0.1834469 -0.08598391 0.54023826 -0.43224323 0.67448306 0.5675954 0.43504143 0.46722525 -1.3532513 -1.0469764 1.5108527 0.925147 0.72263753 0.024540907 -0.23631342 -0.75241464 0.23686731 1.4554584 -0.7009614 -0.10394118 -0.31204993 -0.06599623 -0.91864777 0.8923009 0.108904004 -0.36481217 -1.3068137 0.5693121 -0.5388028 0.78586596 -0.23685507 -1.6542647 -1.3096459 1.439367 -0.48606226 -0.7338275 -0.006949735 0.92022353 0.47417217 -0.744538 -0.24934408 0.4454747 -1.010334 0.10905795 -0.44493476 0.16615386 -0.8434047 0.8284752 -0.33832404 -0.826958 -1.8007087 0.020793589 0.42749232 0.24341255 0.32760176 0.76342446
275 0.12766442 -0.63996017 -0.466355 1.2047795 0.29837656 0.10044293 -1.1817487 0.0030065288 1.2942443 0.36446062 -0.43162802 -0.4884187 -0.029695567 -0.2597951 -0.7114163 -0.6284213 0.11126145 0.2675557 0.277159 1.0844852 1.0013349 -1.5729461 0.24227494 0.35039052 -0.030887343 0.31899157 -0.68445253 -0.90904427 0.55556947 -1.1767534 -1.1876417 0.49723122 0.6633271 0.30774993 -1.6873853 -0.0823737 0.6215583 -0.2706842 1.1522335 -0.30371553 -0.5876895 0.25192937 0.20833682 -0.78621864 0.0112697715 0.009462174 0.3137501 -0.9946224 -0.07404774 -0.35597712 -0.39600545 -0.04537772 0.5631494 0.70476425 -1.2408291 -0.054052386 -0.98671883 -1.183394 -1.8613366 0.95791864 0.23717903 0.2749312 1.2799369 0.45753092
2550 -0.46065247 -0.7803385 -0.06754207 -0.23452534 0.8230093 -0.17620003 0.39271066 -0.27369747 1.4627995 -0.06838941 0.34034687 0.29842693 -0.76950586 1.0710894 -1.1280661 0.48092782 -1.6532744 -0.4868882 0.27813244 -0.7528947 0.50899726 0.004340638 -0.16844927 0.25239804 0.107708685 0.769263 0.14820333 -1.7130204 -0.9754632 0.2640038 -0.84995085 -0.2893793 0.9532743 -0.92227083 -0.75743484 0.36285403 0.40063348 0.14776534 -0.30631185 -0.9460308 -1.110881 -0.25517657 0.28915095 0.16377759 0.93320316 0.14393334 0.070450604 -1.9233044 1.1786667 0.46715432 -0.45617276 -0.15062602 0.061459422 -0.25564054 -1.3289232 0.24300015 -0.5656439 -0.86567396 -1.9290856 0.20342024 0.21796611 -0.11220106 1.120831 -0.22301011
1871 -0.930546 0.34487942 -1.0954846 1.0329156 -0.32525662 0.8766168 0.29632637 -0.5184054 0.71425956 -0.09913425 0.109178625 -0.37762192 0.43982977 0.9011002 0.71823704 -0.9740026 -0.9326777 -1.3205241 -0.5179117 -0.123454906 -0.06023522 -0.92854244 -1.6936375 -0.7416341 -0.64139664 0.21642849 -0.5081105 -0.52842134 0.4420513 0.053675227 -1.8698823 0.5574171 -0.30022374 0.27649245 -1.759147 0.55460703 0.004776008 0.9665143 0.17181183 -1.4112953 0.005786568 0.58759826 0.3225211 0.12218047 0.35067105 -0.0046964213 -0.108684584 -1.1404383 1.0393628 -0.61326295 0.4738241 -0.0031876198 -0.1285898 0.5468361 -0.9084433 -1.0680653 -0.20057772 -0.27967286 -1.4987117 -0.30334276 -0.4675893 -0.9147421 0.63429606 -0.1276022
787 -0.82454115 -0.39210898 -0.19550958 0.34309855 -1.2753134 -0.090710066 -0.2667974 -0.6757129 0.2468512 0.74518627 0.81975687 0.56821704 0.24104068 0.17962822 0.6597096 0.67729634 -1.2050561 -1.2678068 -0.19318686 0.9081838 0.57269615 -1.0966084 -0.54938483 0.89157504 0.7881975 1.5912898 -0.33120373 -0.646957 -0.21390124 -0.84483445 -1.2975006 0.27892002 -0.14355624 -0.3720815 -1.5406059 0.29166797 0.64388067 -0.92605305 0.24387346 -1.1662251 0.15551142 0.1150823 -0.20099136 -1.0072036 0.67893785 1.2193849 0.03654821 -0.39006287 1.3726925 0.54832137 0.93516856 0.5585454 -0.35539535 1.0174283 -0.95577013 0.09409846 -0.109818235 -0.4218133 -0.29421997 1.0124356 1.08029 0.015723115 1.3166996 0.1379404
1184 0.5955333 -0.09865724 0.1471087 0.35187092 -0.49250507 -0.117715046 0.37301883 -1.9098419 1.884869 -1.0442761 -1.0605011 0.32008556 0.17418526 -0.14211668 -0.21525022 0.6776354 -1.2829832 -1.0541515 0.3766698 -0.1576084 0.5587361 0.21513386 -0.76558477 -0.1631057 0.018800199 1.4083812 0.4448663 -0.2085113 0.02257113 -1.1725545 -1.1804097 -0.76040155 0.6518788 -0.086950324 -1.4145985 1.5698748 0.47484526 -0.9240959 0.31106263 -0.82692856 -0.2831301 0.02494514 -0.150144 -0.5375294 0.5799039 0.7241151 0.61490726 -1.1791604 0.33562568 -0.32670057 0.30880433 1.1726724 0.034978714 0.8264398 -1.7782861 -0.24332908 0.120487764 -0.009992214 -1.0726575 0.204672 -0.10089976 0.06084064 0.6595825 1.2606424
2414 -1.1898296 0.36057636 1.1542345 0.09262448 0.54964733 1.7225839 0.40711594 -1.2086343 0.7984469 0.871053 0.44336537 1.4427029 -0.68991727 0.67264265 0.1270203 -0.48093042 0.015057109 -0.32991323 1.1554366 0.63076097 0.3607518 -0.75078493 -1.7824779 -0.41586396 -0.6309966 1.2281672 -0.85743415 -0.040123772 0.5585673 -0.5893451 -0.7449242 0.12651467 0.39803785 -0.7687206 -0.088625155 -0.13806185 0.47900003 0.21247442 0.2063304 -1.0471983 -0.3458961 0.4465216 0.04147879 0.35978472 1.4693043 1.0940136 -0.10722516 -0.57617915 -0.45124674 0.22565305 0.679022 0.31854835 0.22971621 -0.5840211 -1.1895981 0.23372753 -0.47687712 -0.56109726 -1.2534893 0.76263565 1.2946146 -1.3848022 -0.07877015 0.08068576
1085 -0.56933695 0.37779737 -0.5896417 0.035203647 -1.1047269 0.778933 -0.43942815 -2.0514224 1.3075016 0.9633566 -0.17769283 -0.1517035 0.57287675 0.37072188 -0.8302617 1.0238545 -1.2877756 -0.9859843 0.2074298 -0.08657285 1.0407083 0.46518648 -0.89880764 0.90058875 0.43378106 0.42674568 -0.7814501 -1.7395343 0.13875675 0.0772019 -1.739825 -0.21754503 -0.80317324 -0.37522164 -0.10938628 0.9783624 0.38360372 0.33272234 1.0373995 -0.64166266 -0.7183127 -0.09933501 -0.47533348 -0.4537015 0.5490304 0.6493254 -0.73260707 -1.0830579 -0.23454939 0.0031844412 -0.8455984 0.26894337 0.20180446 -0.31872353 -0.82792944 0.23488712 -0.042517014 0.20929977 -1.5695503 -0.006152556 -0.4741439 -0.32319453 1.1596986 0.32689816
984 0.029148782 -0.08215686 0.2257183 -0.38182744 -0.9400861 0.096258715 -0.79024416 -0.29676658 0.21297641 0.9323872 -0.59450364 -0.28380483 -1.233351 0.5678931 0.43466696 -0.121950276 -0.52831024 -0.6706876 -0.19384381 1.3302321 0.8678454 -0.46118703 -0.5873384 0.35060498 0.5952194 0.60574627 -0.04114098 -1.0658646 0.2149584 0.09979972 -0.8574706 -0.5832884 0.22839166 0.5628212 -0.8040334 -0.27364835 -0.16448416 0.5038049 -0.011094465 -0.056809995 -1.3967746 0.9200035 -0.062769644 -0.7069339 -0.17102833 0.31663164 -0.1615375 -1.8612689 0.076536246 -0.5766917 -0.55133027 0.39470112 0.15556899 0.7496446 -1.4428779 0.98459697 -0.30187923 0.1331658 -2.0193 0.36655188 0.40217897 -1.952082 -0.15844066 -0.19028682
615 -0.68090504 0.9822588 1.0175778 -0.28558025 -0.35761967 -1.0897511 -0.90958714 -0.6692839 1.3850632 -0.18918718 -0.65766233 -0.016537823 0.09731393 1.1429982 -0.11571024 -1.2905855 -1.6897275 0.20007285 0.6468167 -0.10906654 0.63589495 -1.6958472 -0.046914898 -0.28159 0.035291463 0.40050355 0.17470928 0.089410506 0.27301234 0.37969393 -0.9621848 0.09368308 -0.57320774 0.3843978 -0.76527673 -0.7936148 -0.46648037 0.5432362 0.572565 -1.3070782 -0.8865696 1.1208965 -0.71378636 0.056565143 0.64610696 1.1221547 0.5838067 -0.6975391 0.5594785 -0.28486675 -1.0939279 0.5852306 0.1793139 1.104837 0.08183937 0.6927528 -1.5645685 0.021044737 -1.782414 -0.075193174 0.112008065 -0.0167957 1.0349959 0.6924661
513 0.5115327 -0.09907562 -0.68643576 0.021590248 0.565279 0.54404014 -0.46991208 -0.098841794 -0.024381699 -1.0587642 -0.5564857 0.57909465 -0.8610698 1.0797174 0.115093276 -0.019609896 -0.7270315 -0.63240117 0.8376036 0.26600334 1.5919061 -1.6001254 -0.8967197 -0.8818373 -0.4007457 0.75973046 -0.9521922 -0.8436015 0.12030604 -0.32863307 -1.171679 -0.4608296 0.16460524 -0.26902938 -0.8903283 -0.49367964 -0.49508712 -0.23904383 1.1457591 -0.39547554 -1.2643661 0.8127355 -0.56226337 -0.8373753 0.20952217 0.035673864 -0.8330235 -1.6767919 -0.14690866 -0.24166915 -0.24653852 -0.06061526 0.18753932 1.0745463 -0.18933006 0.040489987 -1.2822851 -0.093876064 -0.80036837 0.59874034 0.4969047 -0.741284 1.3755708 -1.2302167
744 -0.046059232 0.18691844 0.31125003 1.1548654 -0.5061102 0.12288155 -0.18502297 -0.38005865 0.3620609 0.45070878 1.0681826 -0.00031992196 -0.7757889 1.2724115 0.6194255 -0.25868428 -0.7026475 -0.16552074 -0.12842466 0.7514123 -0.11535083 0.07329404 -0.9959857 0.085472666 0.36735076 1.3237087 -0.7074042 0.21979195 -0.055710543 -0.8574382 -1.2547623 0.6405617 0.32993948 -0.6309488 -0.7217093 -0.14864077 0.36563605 0.3335383 0.9528125 -0.69883156 -0.76305795 0.98566115 0.67777413 -0.4272177 1.0784086 0.20123337 -1.077418 -0.11977183 1.0866331 0.35324362 -0.76909167 0.97577405 0.0801132 -0.34124663 -1.6802765 0.8521493 -1.7919105 -0.7656118 -0.74250656 0.9951142 0.7018045 -0.9241631 0.07090416 1.3007642
2545 -0.445001 0.29468602 -0.8402575 -0.3655063 -0.27032962 0.14568 -0.2181202 -0.7243578 0.33138376 -0.77004004 0.43710524 -0.38330838 -0.9229271 1.4004266 -0.44240853 0.086575076 -1.3682712 -0.8336761 0.76850337 0.24816678 -0.8810529 -0.7681077 0.14453717 0.45249423 1.1287482 0.7369175 -0.6448982 -1.0928236 -0.60577244 -0.64905256 -1.4468142 0.3308151 0.018270396 -0.051683735 -1.5651401 0.5208413 -0.504942 0.16717896 0.56769425 -0.27698418 -1.1441563 0.7022878 0.8040987 -1.2132225 0.013894505 0.7537489 0.43683517 -0.14996123 0.48706064 -0.8580474 -0.25858957 0.6106429 -0.6866973 0.08796463 0.07847286 -0.9835161 -0.35688758 -0.35288268 -1.607171 0.72231936 0.4703537 -0.35293752 1.8697127 0.013577
651 -1.5407779 -0.28737965 0.23787741 0.66410935 -0.47815478 0.28320637 -0.38554388 -1.2301605 0.14196752 0.1684721 -0.043510832 1.0982416 1.104435 0.41950354 0.19715437 -0.026975118 -0.9426844 0.21259087 0.05489721 -0.25143456 0.027968435 0.17772177 -0.47400513 1.1232231 0.32236746 1.0875412 -1.0391785 -0.9653569 -0.5235582 -0.43911168 -0.2831145 -0.5528232 -0.8639195 0.2504204 -0.95576435 0.9176562 0.7118166 0.51348114 0.12655301 -2.2921815 -0.78731805 0.6775862 -0.7367729 -0.4215918 0.09530837 -0.01814595 -0.0743961 -1.7327598 0.6794542 -0.018854978 -0.14583993 -0.22878312 -0.07159552 1.6850486 -0.53781724 0.24295911 -0.89872557 -0.49259606 -1.6196622 -0.060854957 -0.6687264 -0.21044366 0.69496393 -0.7922437
1212 -0.58930296 0.33411327 0.4086655 0.9968173 -0.74828297 -0.7289261 0.6560366 -1.2652588 1.3919657 -0.21622342 -0.22731958 0.7406093 -0.7106239 0.70787126 0.4504758 0.94416106 -1.7407122 -0.7056658 -0.0023496004 1.421685 -0.25522497 -0.43987986 -0.55382746 -0.87639487 -0.44362494 0.31256378 -1.1570941 -0.0035006942 0.6389217 -0.60109764 -0.12430498 0.599351 0.09066407 -0.4414542 -0.18990768 0.07721804 -0.38883826 -1.2846473 0.6899138 -0.48626813 -0.9488433 0.123204045 -0.15778488 -0.19753796 0.73572075 0.76812947 -0.7936201 -1.0162374 0.73689204 0.6463162 -0.98333657 -0.24308589 -0.8710102 0.3742667 -1.9936949 0.1641262 -0.9721286 -0.71910524 -0.9453979 -0.4260661 -0.11444056 -0.45920134 0.8502888 1.1433381
406 -0.4863595 0.061929185 0.20753291 -0.06513125 0.33406574 -0.10664919 0.47750977 -0.5232461 0.71872735 -1.1969396 0.8493363 0.01296995 0.30725163 0.13325319 0.9465958 -0.27417392 -0.53226495 -0.5473008 0.59592247 1.905068 0.84292173 -0.9481047 -0.534364 0.94477904 0.82955366 1.2326217 -0.34924543 -0.3756093 0.5970655 -0.11032203 -0.72836 -0.22608879 0.3053729 0.35908175 -1.5449685 -0.72824776 -0.48783296 1.1072239 -0.042196337 -1.7311494 -0.5773275 0.92796266 0.1637489 -0.09124225 0.44892934 0.1827897 0.60360515 -0.8707022 0.98104525 0.33413446 -0.22197545 0.6209227 0.8389592 0.30955398 -1.7482991 0.08817879 0.17568919 0.2413115 -0.9108761 -1.0320499 -0.050347157 -0.6330806 0.6962748 -1.0676124
740 0.36313447 -0.34050986 0.4184969 -1.0427309 0.36090887 0.78031796 -0.1732518 -1.1212176 0.88117117 -0.46155894 -0.5854541 0.85191935 -0.5332277 0.73609686 -0.7464206 1.120677 -0.8897989 -0.36248696 -0.3099176 0.5165349 0.61007035 -0.7364898 -1.3273726 -0.65211153 -0.17153823 0.51657426 -0.5901795 -1.2696182 -0.38629955 -0.69708365 -1.3312832 -0.5166728 0.15560393 0.75782424 -0.7399506 0.18882824 -0.41293582 -0.2672506 0.29274476 -0.60962415 -0.098992154 0.13240032 0.17060119 -0.6210844 0.8945265 0.30177546 0.7618676 -0.77738124 0.028536178 -1.5421935 -1.3017468 -0.12504968 0.1693421 -0.14510368 -1.1725471 -0.6273831 -1.6241498 -0.56027097 -0.6788821 -0.43607998 -0.2591812 -0.7519987 -0.3512646 0.59717894
135 -0.7172466 0.5194547 -0.10082269 0.34207398 0.23371962 0.49618512 0.6362223 -1.5652764 1.18449 -0.5124469 -0.8912581 -0.13155743 0.3237556 0.24188405 -1.404948 -0.11551915 -0.9509008 0.46594286 0.17326704 0.8837686 1.2343694 -0.4982795 -0.473672 -0.041256685 -0.37454206 1.751263 -0.9057546 0.19896044 -0.57158035 -0.36282757 -0.9999546 -0.17085488 -0.17200759 -0.34623495 -0.98677784 -1.221625 -0.15310265 0.3660401 -0.3143279 -0.46606785 -0.26093596 0.05334404 -0.1011952 -0.22281556 0.634185 0.31843626 -0.4234902 -0.9530805 -0.20631044 -0.715413 -0.88572097 0.8029953 -0.48927903 0.64909536 -1.6913332 -0.42669016 0.3095001 -0.35640228 -0.90153396 -0.72386616 0.5271494 -0.6088099 0.4592939 -0.34911618
2783 -1.0621942 -0.5917793 0.500628 0.5516774 -0.59570163 0.8493007 -1.5081226 -0.07793179 0.2664487 0.3541936 -0.5140643 1.1458389 -0.48594892 1.3991377 -0.07337828 -0.37197286 -0.046169426 -0.17578508 0.26125425 -0.5114331 0.9613019 -1.8991493 0.04940652 -0.9465066 0.4561708 0.63207495 -0.6232503 -0.3170231 -0.1506163 -1.1303958 -0.9408061 0.07073996 0.25242883 -0.7229424 -1.4725906 -1.719095 -0.28840056 0.46280584 -0.1979212 -1.2063667 -1.1588795 0.4975765 0.519816 -0.6069056 -0.43662903 0.28025934 -0.011380486 -1.1325176 0.039288327 -0.4466411 -0.47649133 -0.4355561 0.2704233 -0.3454633 -0.6331419 0.3728093 -0.8209802 0.32145536 -1.0140884 -0.019190235 0.34781915 -0.48080328 0.60215455 1.6287487
779 -0.65344673 0.25338078 0.77291393 0.121990815 -0.78637195 -0.7204685 -1.1379168 -1.4009166 0.50590706 0.098097675 0.5192993 0.38298 -0.39890158 0.85756636 -0.40285817 0.27031854 -0.019487591 -0.2879995 1.2714027 -0.14343318 0.8221041 -0.60804653 -0.104028404 -0.90771335 0.6698508 1.136042 -0.9111348 -1.444447 0.4342338 -1.2635258 -1.2154247 0.42686802 -0.74226546 0.8262135 0.017917283 -0.16400254 -0.102170065 -0.76438594 -0.3234086 -0.9650512 -0.0814756 -0.11977872 0.12748955 -0.7670624 0.2033295 -0.28534177 -0.67231435 -1.4159867 0.6562811 0.3578214 0.8054575 -0.25175375 -0.26663426 0.20488484 -1.9445397 -0.19257373 -1.2570351 -0.22052884 -1.3295007 0.59192747 0.3315281 -0.294649 -0.06480798 0.041796017
1189 0.28945288 0.18046106 -0.16961676 0.35551566 -0.05562274 0.251395 -0.9525649 -0.5501291 0.77235514 -0.20125145 0.47633967 -0.20610857 -0.79475534 0.7721638 -1.5947815 0.0008484284 -1.5399203 -1.0943882 0.087401785 1.1676971 1.083364 -1.2510979 -1.417063 -1.2292991 -1.3950773 0.34316042 -0.76216364 -0.69905716 -0.8605373 -0.0012837622 -0.15828052 -0.16532046 0.9722058 -0.8128513 -0.8407762 -0.5804201 0.9426807 -0.41022602 0.24774899 -0.6136308 -0.85674983 0.46341857 0.42758763 0.07142176 0.70971215 0.51894534 -0.5894782 -0.670121 1.4520735 0.38389325 -0.8828898 0.4868727 -1.0882506 0.27413306 -0.11129124 0.13303842 -0.27801463 0.06203486 -1.4222329 0.37492493 -0.32396394 0.029299375 -0.30556226 0.29038852
1482 0.5382689 -0.16806605 0.6597218 0.22326626 0.074285686 0.7063911 0.20081593 0.31716096 1.2793574 -0.11841767 0.7539875 0.30940786 -0.34196284 0.8611972 0.7831087 0.28022885 -0.13653727 -0.9543658 -0.14037167 0.5392801 0.36030123 -0.64312595 -1.578242 -0.07639614 -0.84400403 1.8912373 0.048642814 -1.4096754 -0.08250434 -0.6096449 -1.8006411 -0.7183254 0.5650713 0.4495849 -1.6257402 -0.30654547 -0.1864405 -0.028087746 0.39078626 -1.5464221 -1.350117 1.2251393 -0.65127397 -0.04016497 0.86732596 -0.42708892 0.05945363 -0.50558037 -0.7095034 -0.2934074 -0.7316281 -0.35574967 0.8713047 0.5698547 -0.5956735 -0.33744267 0.42675036 0.079853415 -1.2201481 -0.5142177 0.47536242 -0.33766037 -0.40323877 0.56117177
2338 -0.16155164 0.29700804 -0.57745326 0.6801071 -1.3806206 0.16376744 -0.31381273 -0.02180472 -0.57067084 -0.16414395 -0.26138285 0.80490226 -1.1235833 -0.24036889 0.041123062 0.30340993 -0.64906573 -0.8934535 0.28943348 1.1879457 1.0916563 -1.2751533 -1.4796145 -0.6644689 0.030865805 1.0454742 -1.972823 -0.34519017 -0.69701576 0.17794444 -0.7479321 -0.62000036 -0.027870405 -0.036561277 -0.8299579 -0.7994921 0.19303893 -0.3198361 -0.12187144 -1.9959129 -1.7584803 0.57951534 -0.7018701 -0.47593865 0.72059363 -0.014830088 0.536079 -0.38604677 -0.087526314 -0.41099223 -0.17139027 0.6829723 -1.0301782 0.043613426 -0.023767335 -0.7161138 -0.24947816 -0.26664948 -0.9108343 -0.17859337 -0.5260634 -0.82609445 0.24366796 0.07082626
2778 -0.110696614 -0.52301073 0.03865045 1.6300834 -0.45460898 -0.33562475 -0.32520968 -0.08326476 0.72950965 0.47613686 -0.27171695 0.14025189 0.5839245 1.2066377 0.07645274 -0.017283652 -0.6264001 -0.85928303 0.40550166 0.95635235 0.5319221 -1.1128592 -0.9144637 0.27862445 -0.6004892 1.2270356 -0.55084926 0.15514654 -1.2157068 -0.66832745 -1.3980689 -0.9230461 0.4322845 0.3229995 -0.4822852 0.04291476 -0.3781097 0.15122393 0.03061184 -0.30308017 -1.2539482 1.5176632 -0.21947113 -0.01994112 0.48897693 0.09869169 0.21937785 0.09110357 0.122301966 1.1046597 -0.002796797 1.0999699 1.3206012 -0.78372264 -1.919812 0.030757084 0.101072386 -0.9821008 -1.1549063 0.00024839546 -0.7068926 -0.65439296 1.6453054 0.43988454
649 -0.96837354 0.18958513 -0.42144954 -0.6856664 -0.23289376 0.54532886 -1.0809361 -2.1527095 0.4220996 0.18716519 0.16844893 0.6224283 0.6847856 0.4215876 -0.12636043 0.3455348 -0.32284904 -1.4277012 0.12374455 0.31405914 0.40814018 -2.4373176 -0.63863605 0.09223854 -0.054928243 -0.012269757 -0.65900373 -0.5129127 0.9285821 -0.48975456 -1.1977667 -0.03093208 -0.46805847 -0.9145785 -0.7709144 0.95395017 0.61531484 -0.38870937 0.5248521 -1.2003307 -0.3650594 0.24787104 -0.1793738 -0.4746209 0.32933572 0.531408 -0.17810562 0.15689321 0.86082137 -0.12521176 -0.044579055 -0.041926824 0.064789705 0.0049148793 -0.30579776 0.5454863 -0.7901853 -0.3126933 -1.3210322 0.13396493 0.22616893 -1.5453426 0.7338408 -1.3637465
927 -0.27714673 -0.4260474 1.080941 0.80662996 -0.881186 0.57256436 -0.093348086 -1.1045302 0.28631005 -0.73450124 -0.30134085 0.5831574 -1.4775573 0.3149894 -0.07518865 -0.7120294 -0.11929856 -0.42375305 0.6254627 0.4337827 0.4743676 -0.92375326 -0.2545048 -0.16517161 -0.19575146 -0.13265188 -0.83259684 -1.059298 -0.2845015 -0.96845907 -0.21954398 0.03741365 0.3024319 -0.44127613 -1.5695224 -0.8292853 0.5712015 0.2464305 0.7103199 -1.0907117 0.8183909 0.57184994 0.02126259 -0.86929137 1.105488 0.27495426 1.1813816 -0.19947487 0.3079743 -0.5695849 -0.3328721 -0.4487334 1.3076086 0.318112 -1.3273057 0.6451826 -0.62011695 0.4785145 -1.5273262 0.5955523 0.20854655 -1.7138222 0.4004772 1.845627
1623 -0.22044758 -0.64874375 -0.01594418 0.37244123 -0.4908962 -0.57900774 0.43517804 -0.6038875 1.6034037 0.44924286 -0.28044918 0.8023698 -0.47375196 0.13347727 0.24825205 0.30997124 -0.5971452 -0.7730728 -0.09285709 0.27157164 -0.3323255 -0.18726078 -0.6283274 0.18500271 0.760212 0.7093563 -0.76957256 -0.80861706 0.61753136 -1.2878764 -1.1249897 0.059011124 1.3244146 0.3776194 -1.3848196 0.9649668 -0.21612003 0.44456008 0.72678477 -0.9165611 -0.73267967 0.39658993 -0.15681913 0.388467 1.1412674 0.34671557 0.097187445 -2.0325053 -0.34048334 -0.0077484855 -0.96735036 -0.012819203 1.2748396 0.6682099 0.030393261 -0.049379643 -1.9638649 -0.9363711 -1.1944629 -0.30051237 -0.09384973 0.15246755 0.74234873 -0.6715134
1596 -0.00069078134 -0.63226146 -0.6348476 -0.41218516 -0.46690944 0.29295367 -0.96956444 -0.49751166 1.951641 -0.36578593 0.86077976 0.37721425 -0.5096533 -0.520467 0.040291082 0.14169806 -1.0137119 -1.6819863 0.09127429 -0.174596 -0.8394516 -0.6883008 -0.50582683 -0.56949234 0.12354931 0.59806114 -0.40536425 -0.14691342 0.29669902 -0.21587476 -0.93708277 -0.7804225 0.5678933 -0.36717683 -0.39400253 -0.06445753 -0.9579642 -0.38352293 0.7566651 -0.884086 -0.13968103 -0.108826086 -0.40377003 -0.57283777 1.502764 -0.24070632 0.3503924 -0.975054 -0.045177273 0.24308145 -0.020849997 -0.3622986 0.12099708 1.1027294 -0.7096939 0.09949755 -0.32430193 0.22861546 -2.0971718 0.8042731 -0.3139 -0.12418294 1.1177796 1.2009767
1855 -0.35098585 0.65649843 0.23134275 1.1736013 -0.73739105 -0.25301456 0.09250244 -1.6783054 1.3905958 -0.59209484 -0.24995403 -0.026016137 -0.28101903 0.41019768 -0.3747373 -0.98657453 -0.7524107 -0.9051429 0.13152865 1.337939 1.1210283 -0.9788949 -0.3966068 -0.39899993 0.15862627 0.8161759 -0.91265076 -0.6945929 0.7536655 0.036831293 -0.29454893 -0.079507306 1.4496714 0.30051976 -0.32168287 -0.8345532 0.03375963 0.051152054 0.6715331 -0.92026913 -1.1420199 -0.032514792 -0.18541697 0.45562056 -0.4780204 -0.15426506 -0.53843933 -0.16479887 -0.77505165 0.18244301 0.22559169 -0.03717471 0.76952195 0.27535725 -0.36596194 0.403842 -0.5797804 -0.46943548 -0.9035776 0.5813828 0.5428481 -0.65536547 1.2537636 -0.21354361
244 -0.44330424 0.40790418 0.54824895 -0.4698653 -0.27017912 -1.0110976 -0.44758636 -1.093767 0.78866297 0.23996058 0.9127034 0.083837524 -0.6635333 -0.13590218 -0.7083104 -0.774533 -0.81259435 -0.25982812 -0.022628404 0.57853293 0.22788922 -1.6769576 -0.776284 0.95415926 -0.3667061 0.3103664 -0.2572804 -0.528008 -0.8298975 -0.9545019 -1.0696285 -0.6261937 -0.682888 -0.9195083 -0.9024226 0.9604184 -0.83361495 0.27385515 -0.077431835 -1.0255541 -0.17306109 0.8007351 0.21503104 -0.85015905 0.47964236 0.73708075 0.58868235 -1.4040549 -0.18865931 -0.5002953 -0.10663809 0.47171757 0.8842572 -0.24130814 -1.0693476 -1.0300416 -0.31716284 -0.08587683 -1.3274463 -0.09840471 0.82821023 0.105308846 0.52126026 -0.50228524
853 -0.4944913 -0.6783737 -0.15918145 0.30868706 -0.8197721 -0.2746127 -0.15593702 -1.2013265 0.6809918 -0.56801367 -0.8082485 0.2566587 -0.3373505 0.12575804 -1.2284436 -0.037135735 -0.17959204 -0.58450735 0.2731103 -0.4981478 1.1938702 -0.10299209 -0.79079884 -0.71806866 -0.1541408 0.58313197 -0.5267489 -0.67034286 0.50938624 0.33425814 -1.3837098 1.1166317 -0.017924767 -0.76103926 0.031022703 -0.9711396 -0.9976055 -0.42487258 -0.26536322 -1.3372606 0.30107886 -0.04666558 -0.8906972 -0.4209847 0.79999286 -0.077230066 -0.06145893 -0.8571105 0.8805248 -0.56759185 -0.15668468 0.15358037 0.2427954 0.054385867 -1.3813444 -0.030754566 -0.57829106 0.44257355 -2.0912237 -0.19091435 0.50917876 -0.40162513 1.6438043 0.51321507
249 -0.34851313 -0.5294815 0.33834067 -0.30116206 0.5303098 1.5113559 -0.22311309 -1.0581264 0.5246275 -0.39054525 -1.3381025 0.21613462 -0.30893964 0.941397 0.31370836 -1.0017406 -0.23734769 -0.17050672 0.048128154 1.2053595 0.081099086 -0.58690345 -1.0019664 0.7942789 0.04008729 2.0338738 -0.44451967 -0.77595675 0.8946509 -0.4251221 -1.063145 0.42967433 -0.343071 0.5470653 -0.83786947 -0.2003016 -0.14750327 -0.8546343 -0.64296156 0.10747716 -0.6644244 0.33983308 -0.8505838 -0.2574195 0.8414731 0.093734734 0.027903363 -0.23464021 0.012781135 -1.2983986 0.20364226 0.43185416 0.28854495 1.1222304 -1.8389972 0.8937691 -0.8138876 0.002720269 -0.6744394 -0.04659331 -0.06724811 -0.12983648 0.71568465 1.0332109
2500 -0.11294634 0.10473845 0.6537722 -0.9010962 0.08059154 -0.42601094 -0.25649518 -0.81264776 0.5499297 0.6818027 0.30207106 0.82461005 -0.1366691 -0.4412225 0.8732805 -0.503649 -0.8732507 -0.599188 -0.28617117 -0.14953077 0.4050524 -0.7782775 -1.3355818 -0.69456756 0.43378022 0.86417615 0.019764818 -1.0037701 0.80815935 -0.78144133 -0.867627 0.6712724 -0.63111246 -0.49867475 0.09809434 -0.1306387 0.41499063 -0.0060607726 0.07069583 -0.9189571 -1.4291378 0.592924 -0.1642837 -0.8578183 0.49385402 1.1300372 0.2642028 -2.0715919 0.2547706 -0.28759554 -0.15024687 0.34515008 -0.17189695 0.16442788 -1.839722 -0.2805596 -0.08614825 -0.852559 -1.3361515 0.90159935 -0.4808929 -0.20284386 -0.40772754 0.40283537
613 -0.7330177 -0.7568741 0.01621471 -0.36006436 0.12595879 1.3611369 -0.2138266 -1.1031821 1.0239489 -0.61912435 -1.0946089 0.037290208 0.10973738 0.6670374 -0.19012594 -0.8524889 -0.5558536 0.317703 -0.63672346 0.7631454 -0.039185915 -0.13739091 -0.10108562 -0.15826966 0.4618459 1.7716663 -0.09854695 -1.6078793 -0.11555883 -0.28545794 -1.051334 0.17308138 0.062737994 0.6791828 -0.8079409 0.17664862 -0.21397 -0.6881392 -0.69340944 -0.28616616 -0.80678385 0.65491354 -0.2382339 -0.65285903 0.44734767 0.039633166 -0.6943526 -0.2590768 0.9373055 -1.3484589 0.20924668 0.63891965 0.67069197 1.6818999 -1.8487257 0.8109556 -1.1163658 0.087338455 -0.30784366 -0.15053068 0.6110777 -0.35916743 0.62367 0.43855155
1304 -0.033805467 0.8055297 0.34037545 0.7003474 -1.7779883 0.27617332 -0.050848372 -1.6526303 0.48747894 -0.3850818 0.9968989 -0.506446 -0.41431084 0.5812349 -1.4851664 -0.6347149 -0.5971281 -0.9875115 0.5932393 1.3597909 0.152165 -1.2383776 -0.34171936 0.5230916 0.052852362 1.380281 0.3467984 -1.1566972 -0.08326346 -0.5529119 -0.6702959 0.29994184 -0.47507596 -0.587379 -0.5205203 -0.8648638 -0.026148397 -0.37414545 0.83831614 -0.572237 -0.37178758 1.2886487 -0.32554233 0.055038705 1.1243721 0.29179096 0.4531191 -0.3896516 0.4573659 0.46615574 0.5564776 0.17444806 0.60540694 -1.2489452 -0.5434145 -0.80050725 -0.45619115 -0.23974375 -1.0455545 0.11856511 0.48322776 -0.64299786 0.6241417 0.5812168
2476 0.22379299 -0.81350595 -0.07125441 0.3734143 0.078399055 0.935735 -0.0740618 -1.4758571 -0.22326975 -0.4610512 -0.061049882 0.099643186 0.36733544 0.6254107 0.021544699 -0.2670039 -1.725554 -0.13535948 0.9945927 1.1599858 0.42073557 -0.32333407 -1.7907099 0.2901046 -0.6084253 0.77965146 -1.1851857 -0.09429978 -0.92257094 0.23709816 -0.5885877 -0.09000612 0.04102025 -0.7527226 0.04460933 -0.50218636 -0.6550664 -0.2928119 0.21690744 -0.79349726 -0.34099153 0.2855074 -0.95017034 -1.0353383 0.43506026 -0.104506694 0.13076936 -1.977306 0.678026 0.32928866 0.6673789 0.51143026 -0.92908233 0.55404836 -1.3055537 -0.763982 -1.2357553 -0.38742867 -0.53045493 0.93952787 -0.61368537 -0.72413754 0.20984213 0.116395704
1248 -1.4423932 0.43092144 -1.0619344 1.053914 0.1471711 0.1803832 -1.4388088 -0.9356786 0.87670046 -0.23804295 0.3310573 0.39284408 -0.5146247 -0.5612319 -0.46067244 -0.3764035 -0.6285724 -0.8418796 0.98702097 0.2212634 0.66565233 -0.43775305 -1.2076938 0.4498827 -0.23688564 0.76178545 -0.9824982 0.37868735 0.16829184 -0.13382679 -1.0466264 -1.0360026 0.7203542 0.69961375 -0.7131962 -0.30238333 -0.93931764 -0.075041786 -0.23848505 -1.551245 -0.8777808 0.84475577 0.34525445 0.5250823 1.5738177 0.073702104 0.6538712 -0.46586487 0.5102569 -0.39644235 1.3519409 -0.24474095 0.7449518 0.10481147 -1.144526 0.72530526 0.20234276 -0.3463268 -0.13795015 0.44420004 0.32586512 0.15823072 0.6639074 -0.19960636
1616 0.13451576 -0.21405345 -0.0013042828 -0.8684797 -0.93036544 0.6642702 0.06958413 -1.8484646 1.3036474 -0.3434535 -0.27078322 0.6298985 0.5623117 -0.7191804 -0.23943123 0.44690573 -1.0519457 -0.26496255 -0.2569264 0.5429322 -0.10591059 -1.1832721 -0.82543075 0.047026753 -0.4847621 0.12335638 -0.47375295 -0.51926255 -1.1030091 0.82702005 -0.5816122 -0.42241383 0.30846593 0.6524883 -1.4112765 0.007582214 -0.05963265 0.28174168 0.4408459 -1.1136686 -0.43939126 -0.1616379 0.83543056 -1.4245187 0.67779994 0.3028226 0.39312896 -1.3896948 0.6313781 -0.4970906 0.06742855 -0.5740646 -0.93460435 0.663201 -1.7630885 0.9736874 -0.33755356 -1.0946273 -1.6769735 1.1404055 -0.42361566 -0.031059165 -0.6375242 -0.62553513
4 -1.46852 0.089296676 0.27244857 -0.64952946 -1.0796149 0.3928411 -0.6630295 -1.6266139 0.2975675 -0.6058242 -0.078350335 -0.20610774 0.8187348 0.4603677 -0.24380314 -0.22135295 -0.22607645 0.5325246 0.420156 0.19072595 -0.16020381 -0.4861831 -1.0919445 -0.7166522 1.1749165 -0.8387454 -0.7292026 -0.89050376 0.18260294 -0.6957355 -0.9909273 0.078351915 0.069776766 0.73439014 -1.7513758 -0.28460297 -0.21833043 0.60226244 0.5661728 -0.7384223 -1.3568441 0.8799465 0.8510234 -0.7224661 0.28466648 0.42116597 -0.023774477 -0.23554376 0.49880004 0.63628113 0.22826883 0.35894334 0.51738673 -1.0367086 -1.3952515 -1.039476 -0.2673955 -0.29326105 -1.9970634 -0.21340708 0.3596423 -0.8322503 0.6354699 -0.027039625
1657 -0.67365074 0.50819093 0.32748637 -0.30273318 -0.3513578 0.56071675 -1.1785127 0.31193835 0.26056919 0.82169336 -0.44110224 -0.30279055 -0.7236229 0.7405373 -0.28818056 -1.0482279 -0.23764843 -0.07587259 -0.0970302 0.8162814 0.2681832 -0.5981602 -1.0628654 0.110434934 -0.0010614014 0.5562693 -0.8321327 -0.5710447 -0.73895985 -0.39115036 -0.8003667 -0.4052817 0.14120665 -1.0135707 -1.3307976 -0.9451675 -0.6590099 -0.7036824 0.022772713 -2.2092516 -0.17006712 0.8860533 -0.42464533 -0.14803582 -0.6615539 -0.33882725 -0.026694685 -1.6760379 -0.14127412 -0.9376642 -0.08686293 1.4276441 0.6970729 0.04700973 -1.1385187 -0.16580766 0.36470786 0.48862994 -1.2958473 0.66876704 -0.71206474 -0.35888976 1.3147364 0.10489763
1947 -1.3064802 -0.36923942 -0.3481463 0.3432019 -1.1036737 1.1328619 -0.12052046 -0.32315114 0.88686246 -0.053598486 -0.4117931 -0.44960886 -0.4180462 0.037937604 -0.16566885 -0.28361738 -1.2509959 -0.70405126 1.0853817 0.27998543 0.7100618 -0.12038676 -0.2922463 0.32283935 0.111540414 1.1574312 -0.95811945 -1.1968477 -1.0258932 -0.020459255 -0.9289969 -0.6498524 0.48718157 -0.1356565 -1.6108611 -0.020859422 -0.059942096 0.26391575 0.23008366 -0.118503466 0.39298263 0.32749215 0.40130925 -1.5071446 -0.14797494 -0.33222514 0.33554325 -1.0676932 -1.102342 0.21200073 -0.3289228 1.3221546 0.606687 -0.30145353 -1.2365384 0.25955266 -0.832268 -0.6549601 -0.32348517 0.46111608 0.91733414 -1.4754988 0.36791247 1.2624179
83 -0.15184715 -0.09541726 -0.9040609 0.03530974 -1.2849228 1.5678684 -0.807082 -1.201348 1.7506984 -0.4120761 0.0029789913 0.5638955 -0.13755082 -0.07543495 -0.62310195 -0.5982938 0.4430217 0.23440036 0.33441558 0.06939167 1.0428402 -0.50939965 -0.376231 -0.08728019 0.057092246 0.56861734 -1.1164021 -1.5168072 0.20680459 -0.7790543 -0.033455983 -0.06913845 -0.29297787 -0.55220646 -0.601179 0.5979684 -0.30442327 -0.9210243 -0.23584013 -0.86542857 -0.59446067 0.8442532 -0.0052662464 -0.94665307 0.42092055 0.124263875 0.05791158 -1.7056904 -0.8275937 -1.1014135 0.498905 -0.26160517 0.09488205 0.30821028 -0.37335393 0.48642093 -0.74850684 -0.26149 -1.4904592 -0.80957544 1.0017421 -0.7294309 -0.09695943 0.65716004
971 0.40751836 -0.24446061 -0.4018015 -0.13580246 -0.7675298 -0.47579804 -1.3309968 -2.2182252 0.459021 0.38453487 0.21224193 0.39614686 -0.6431638 1.3379551 -0.19644281 -0.5983 -0.44389212 -0.28321785 0.16525353 -0.034417972 1.1744235 0.07348955 -1.3070383 -0.2297943 0.14395618 0.8659574 -1.0680951 0.01381459 -0.30325922 0.13224456 -0.45938155 -0.109852955 0.4933968 -0.45425448 -1.258129 0.122518376 -0.23393981 -1.106476 0.96086735 -1.284478 0.30442 -0.23080425 -0.725799 -0.73935 1.2735293 0.19324657 0.089471266 -0.7252157 0.70399743 -0.14276503 1.2826849 0.9586481 -0.9163168 -0.67432916 -1.5266094 -0.03434352 0.15763244 -0.35129845 -0.7768951 -0.20738095 0.1771409 -0.7012227 0.43644884 -0.4226837
1300 -0.20421858 -0.45316833 1.123951 0.3475084 0.13366939 -0.20369047 1.086613 -1.5487363 1.7656578 0.06664521 0.8692132 0.18982996 -0.7838308 -0.0102073625 0.38028884 -0.66898835 0.07028575 -0.6691567 0.7196286 -0.03569819 0.07115173 -1.1152067 -1.5270684 0.8452816 -0.16118668 1.0814083 -0.29331434 -0.652075 -0.18231349 0.4907604 -1.1749346 0.8015705 0.9889777 0.15865797 -0.08966512 0.38401487 0.1271092 -0.27199307 0.27322033 -0.8183793 -0.16473868 0.9029936 -0.84467864 -0.35205486 -0.043475524 -0.583133 -0.58820736 -1.1078702 0.6599652 -0.24199003 -0.22493052 -0.123429224 -0.0019196494 -0.3714833 -1.7313133 -0.45172933 -1.4322381 0.436755 -1.2855344 0.83296 -0.09881371 -0.8388746 0.3767275 -0.8659979
1724 -1.0399665 -0.7446144 -0.7359511 -0.42028373 -0.24790187 0.08011738 -0.4504758 -1.4377712 -0.36960015 -0.06373099 0.02633139 -0.34407336 -0.8989738 0.22882734 -0.68552494 -1.0096291 0.16030036 -0.33814597 -0.45782372 1.6227206 0.90182096 -1.2352964 -0.5469721 -0.8337078 1.0591934 0.890635 -1.0373635 -0.0038068583 -0.17882602 0.53200436 0.05371561 -0.8860361 0.44946802 -0.4833533 -0.76935476 0.05221845 -0.11706901 -0.41669387 0.3105192 -0.6041947 -0.5784622 -0.3936437 -0.9145887 0.4491094 0.9410033 0.070787765 0.07304646 -1.6584313 0.49771798 -0.49267134 -0.64927006 -0.00322228 0.56696844 0.31923345 -1.8851506 0.09057546 -0.2705627 -1.1169726 -1.2936392 0.26978615 -0.113263585 -0.13854402 0.8888652 0.2895828
2542 0.02664102 0.55248266 0.19389957 0.943269 0.5297419 -0.014314914 0.030942472 -0.62937045 0.2349338 -0.8149373 0.89399576 0.9901672 -1.6794078 0.25642654 -0.0572136 -0.15712526 -0.85973614 -0.86664593 1.1570197 0.03675327 0.41668972 -0.80429506 -1.4449137 -0.7439055 0.13415533 0.340252 -1.1803269 -0.48781386 -0.4578446 0.15105975 -0.3859036 -0.5250135 0.7839566 1.1715654 -0.627698 0.7794054 0.4971393 0.029304849 0.46005592 -0.3682542 -1.2359242 1.1383069 0.81595004 0.5219549 0.69344044 0.23203513 -0.31243366 -0.8393417 -0.33330703 -0.2354903 0.30248007 1.2821165 -0.33786783 -0.05559642 -1.0701668 -0.2166908 0.029383793 -1.1817149 -0.9622046 0.1885875 0.1760377 -1.6879984 0.38649142 0.63998765
1027 -1.0636102 -0.463853 0.8080337 0.6698184 -1.3516802 1.189146 -0.8442475 -1.1637278 1.2939069 0.63443196 -0.33941337 0.3863132 -0.47552952 0.060504977 -0.615773 -0.5121814 -1.0855241 0.235067 -0.39339766 0.7263743 -0.3860125 -1.0170088 0.56143546 -0.36291844 0.05661341 0.05871588 -1.604448 -1.0095901 0.47511163 -0.33206186 -0.6967332 -0.6278139 0.105145074 0.33188522 -1.2632662 0.40917405 -0.53509706 -0.36482176 0.16440323 -1.076109 -1.3765913 -0.51726764 0.22138354 -0.051164053 1.330361 0.24130622 0.50436735 -0.9115893 -0.35391125 -0.07666784 -1.114632 0.6584907 1.0567898 -0.15254238 -0.44456035 0.25968957 -0.36501253 0.41949746 -0.16482964 0.56671226 -0.1388655 -1.32697 0.74840516 0.41472524
1873 -0.02745835 -0.32869342 0.2608176 1.0064752 -0.116362356 -0.595878 -0.55268353 -0.57879746 0.3365245 -0.78187907 0.19187506 1.5267235 0.39786124 1.4704945 0.025066603 -0.71126825 -1.0119804 0.23881744 -0.10069053 0.23577008 0.3524988 -0.42992714 -0.8378038 -0.66379696 0.5577613 0.12451225 -1.1004708 -0.4431465 -0.23790109 -0.47508144 -0.98520356 0.9776938 1.0718592 0.9318124 -0.40315193 0.2894742 0.071104 0.40468368 1.1064472 -0.3122294 -0.7241535 1.2610551 0.07392385 0.38839036 1.4274286 -0.17706463 -0.17861168 -0.20436521 0.30405027 -0.3726001 0.41241413 0.03532725 0.6920271 -0.14119253 -0.42420676 0.60895777 -0.51868296 0.28623846 -1.9823328 1.3127047 -0.7793299 -0.12158348 1.4663754 0.79661024
2225 -0.13766465 1.2097243 0.28738245 0.91373223 -0.17235227 0.0050618625 -0.81053424 -1.2372661 -0.19107409 -0.3225508 -0.36327314 1.279574 -0.23862696 1.0436407 -0.49434054 -1.1413896 -0.27972656 -0.46226782 0.71586525 1.0514745 -0.3405467 0.033600625 0.07077005 0.36183915 0.45912653 1.1813523 -0.9276414 -1.371182 -0.4151206 -0.58233106 -0.00612651 -0.6796098 0.9290361 -0.56947756 -0.4203479 0.4422993 -0.7336054 -0.034263942 -0.33983478 -1.0109935 -0.6483779 0.8901315 -0.8246505 -0.21337971 1.1284165 0.34225205 0.20250088 -0.43974188 -0.22767904 -0.4317201 -1.3843174 -0.6246709 -0.2747672 -0.06105475 -1.6648365 -0.3435565 -0.784841 -0.36714906 -1.4627342 0.37440225 0.51736194 0.3503409 0.051767197 0.38537663
520 -1.0270636 0.9168974 -1.1242863 -0.38173756 0.21275601 0.09789733 0.3076583 -1.4632114 1.0781349 -0.3063666 0.5252183 0.20752881 -0.7851396 0.6389162 -0.16707717 -0.121696725 -1.1673586 -1.1665133 -0.72306436 -0.15450402 -0.57755053 -1.0063044 0.10333704 -0.027079744 -0.7682663 0.08936951 -0.34878996 -0.8579092 0.09494923 -0.12648855 -0.5126236 -1.2650578 -0.94624597 0.7499733 -0.8821221 -0.33075887 -0.23271097 0.11390499 0.32528028 -0.4508842 -0.2994645 0.71024257 -0.13439788 -0.85420287 0.457932 0.84543794 0.11379237 -1.3534356 -0.0568232 0.6061421 -0.4742121 0.14770609 -0.519314 0.609109 -2.304038 0.6844849 -0.14269266 -0.42417955 -1.2460696 -0.4879135 0.42694348 -0.7757181 0.81818444 0.48223758
1257 -0.4054946 -0.65408176 -1.2501402 0.55654097 0.02263362 -0.17716832 -0.09725349 -1.3996817 0.85942775 -0.7617075 -1.0198847 -0.1794386 -0.9670901 0.02999255 -0.099793404 0.39493865 -1.1637387 -0.11027751 0.55476916 0.6879383 -0.21122374 -0.6566677 0.083500795 0.31469867 -0.20828597 1.5242718 -0.5750281 -1.1455185 -0.5952881 0.2405933 -0.41947618 -0.15586522 -0.07645374 0.5427913 -1.1691805 -0.3552866 -0.25963202 0.20500502 -0.24793477 -0.5467792 -0.3121218 0.4008773 -0.6651267 -1.0077586 1.439834 -0.31747025 -0.551255 -0.61933714 0.2391719 0.50932246 0.5216213 -0.46348694 1.0180701 0.19599156 -0.5037614 0.10658939 -1.1221449 -0.89350414 -1.966801 0.7868219 1.0606349 0.40206566 -0.35376766 1.1459783
774 -0.9208124 -0.5776058 -0.45807216 -0.719933 -0.54194295 -0.21548699 -0.07694653 0.4163764 0.50032055 -0.55127126 0.4364672 -0.9069092 -1.2843243 0.7076614 0.38701975 -0.07008204 -1.4509754 0.28707537 0.22965494 -0.30526623 0.9510331 -0.34469408 -1.1014394 0.03278239 0.50443643 0.39341763 0.00227237 -1.0968511 0.41860378 0.017312288 -1.1710532 -0.3527442 0.5882401 -0.13614723 -1.502149 0.29183865 -0.16924816 0.06773826 0.5576278 -2.0785906 -0.78945357 -0.25217444 -0.42035213 0.61876655 0.63226557 -0.303911 -0.4665889 -1.1643151 0.06912173 -0.45956945 0.56777537 1.303729 -0.21627803 0.044680364 -1.6304895 0.75900906 -0.67190915 0.31377524 -0.45197982 0.55956805 0.41696987 -0.3859185 1.3291836 0.08953934
2170 -0.52829975 0.074050866 0.8121338 0.49825415 -0.43157893 0.30552146 -1.4833348 -0.8158259 0.10375688 0.1305636 -0.20077999 1.0436622 0.34301335 2.0507343 0.49939927 -0.37300596 -0.11663444 -0.27772948 0.18481268 -0.72196627 0.9810597 -2.2010953 -0.3917221 -0.37861106 0.21234153 0.5099606 -1.0059532 -0.25634387 -0.61250675 -1.1375469 -0.29103956 0.44473734 0.57959837 -0.29239315 -1.2541674 -1.2600812 -0.086257964 0.85925823 -0.53063047 -0.81101483 -0.45970738 0.71147054 0.15868782 -0.5264575 -0.101585776 0.08853253 0.32832447 -0.9274049 -0.19874313 0.0291398 -0.22237468 -0.28373283 -0.4394093 -1.015582 -0.24512143 0.39062548 -1.2512866 -0.33379525 -1.6220683 -0.3255803 0.49925572 -0.22945724 0.627765 1.1548238
1809 -0.5202762 0.16659136 -0.2512584 -0.29537842 -0.34185055 1.1345174 -1.1015444 -1.0271446 0.36745492 -0.516193 0.34141648 0.98211056 -0.4663391 0.06831013 -1.091386 -0.40395522 -0.13077292 -0.5645318 -0.5281544 1.8231151 -0.58295226 -0.27279845 0.19613789 0.07852026 -0.067242265 0.6561584 -0.92750454 -1.7825902 0.18552227 -0.20406862 -1.3564224 0.12072654 0.5607119 0.12541808 -1.2908907 -0.836857 0.1680005 0.28224054 1.2204897 -0.9831536 -1.556519 0.51938915 0.46310368 0.2338323 0.81922203 0.06297129 -0.5631497 -1.2688639 0.45549005 -0.18264107 0.9791736 -0.22645786 -0.847638 -0.28615907 -0.7780011 0.08058007 -0.7948322 -0.7960761 -0.4000146 0.24120414 -0.21630672 -0.05749036 -0.27502304 -0.70303786
272 -0.29334116 -0.22282536 0.4044029 0.5822589 -1.2182463 -0.14886074 -0.6875359 -1.5036464 1.1407864 0.6097645 -0.9706778 0.35436165 -0.07118312 0.22543369 0.22218102 0.40883526 -0.86517817 0.6184207 1.4556625 0.050945446 0.60476816 -1.4424071 -0.25398192 0.27186093 0.46663016 -0.2423662 0.19220346 -1.3521608 -0.67463315 -0.11139781 -0.7352809 0.3872639 0.2014277 -0.28264984 -0.40715984 -0.20509861 0.7360904 0.4644059 1.5283443 -0.8065044 -0.6169222 1.0141894 0.15839398 -0.55111766 -0.03363108 0.31024107 -0.6942267 -0.70271254 0.9524353 -0.30706897 0.4732626 -0.07852931 -1.0061536 0.1018835 -1.1000212 -0.7969055 -0.7996535 0.07756947 -0.7303476 1.2674491 0.14148985 0.14818837 0.4299319 0.23093559
911 -1.0925877 -0.6724217 -0.21687195 0.8772882 -0.45261133 0.74060494 -1.3422655 -1.1584525 0.61479825 -0.41217947 -0.58950305 0.46329492 -0.6597184 -0.2847273 0.5307409 0.10254961 -1.4909145 -0.29315168 0.5895899 0.80429304 -0.1917298 -0.34164482 -1.4858712 -0.43746665 0.18348472 0.002244967 -1.1417592 0.19917753 0.6445845 -0.3151704 -0.85819495 0.27107528 -0.056436658 -0.89492893 0.33267662 -0.19026308 -0.08408916 0.03422061 0.8373719 -0.5561094 0.36465576 -0.27477354 0.26694956 0.117930785 0.80462366 0.3106552 0.2094986 -1.1842421 1.5265094 -0.0715532 0.53532207 0.76802915 -0.5923524 0.8609506 -0.981358 0.78979397 -0.4836634 -0.4539512 -1.2896396 0.048868466 0.7605616 -0.6947798 1.600108 -0.19898647
1054 -0.22084193 0.7048133 0.8872318 0.60058033 0.04630636 -0.6376645 0.5198022 -1.2336687 0.13718386 -0.46484926 -0.21993461 1.0442557 -0.9023477 0.23757906 -0.29068062 -0.07229411 -0.8047858 -0.06435151 0.45032552 -0.3855808 -0.15747161 -0.6958323 -0.9140491 0.4884486 0.30913237 1.5295573 -0.5365644 -0.99436045 -0.47104022 -0.8536613 -0.41104132 -0.10835161 -0.01086003 0.9736196 -0.5129529 -0.046724204 0.8042488 0.4685177 0.13048944 -1.6048498 -0.8077861 0.6102954 0.6097037 -0.5903367 1.5972263 0.58292514 1.0790331 -1.0398604 0.8564178 -0.26656887 -0.62859726 0.7853627 -0.78028584 -0.4114628 -0.42544332 0.6510871 -0.50252146 0.46757078 -0.8153985 0.416194 -0.048112802 0.1583178 -0.0029805703 -0.45323426
389 -0.12269956 -0.67327183 0.416887 -0.07896598 -0.45827043 0.04407417 -0.73477256 -1.7691225 1.6640842 0.61092615 -0.52331084 -0.17130826 -0.10359456 -0.11588839 0.5275975 0.85079783 -1.615822 0.5422696 1.4177235 0.119245045 0.13073784 -1.5894299 -0.5988271 0.51228386 0.036259416 0.039725453 -0.28223118 -0.97768104 -0.6050447 0.21901469 -0.88206995 -0.418924 -0.6245984 -0.063089736 -0.9750765 0.13063341 0.54240334 -0.33872086 1.1168674 -1.4963636 -0.2823774 0.86085486 -0.05791739 0.25871783 -0.046503466 0.69298226 -0.08695132 -0.4131773 0.6987512 0.014553766 -0.1501799 0.12976345 -0.5102627 -0.3726525 -1.0806967 -0.84838873 -0.6491313 0.74245286 -0.6580899 0.9864305 -0.18482131 -0.33140945 -0.21341138 0.31878263
526 -0.721095 0.26108432 -0.08208866 -0.1301506 0.08153112 1.1193339 -0.54656535 -1.3369379 0.5624943 -0.91996604 0.51031184 1.0310806 -0.6645327 0.23235941 -0.86331475 -0.29178828 -0.15918541 -0.87194026 -0.91930276 1.3826543 -0.47636783 -0.35152057 -0.099309854 0.32240206 -0.4285756 1.3124899 -1.2699661 -1.2378584 0.590948 -0.5204999 -1.5876081 -0.3984239 0.6386233 -0.20056543 -1.0771017 -0.46939704 0.37127024 0.23458087 1.1504667 -0.96592 -0.74026287 0.3868402 0.28349474 0.17645214 0.906114 -0.24002819 -0.74008775 -1.1994929 0.68444437 -0.56313837 0.8656749 -0.14631754 -0.45600662 0.10544895 -0.3575225 -0.43117028 -0.87271464 -0.7611917 -0.5552255 1.0143011 0.02208005 0.31355113 -0.68307674 -0.27805203
160 -0.8686546 -0.6812772 -0.03187094 0.076266795 -1.357043 0.18810304 0.19034949 0.09168218 0.956995 -1.117815 0.049519774 -0.08020844 -1.2754735 0.6562093 -0.48066267 -0.93536943 -1.3683186 -0.71361804 0.18638696 0.99038565 0.5884695 0.28949827 -1.1407622 0.012207115 0.37476903 0.20173003 -0.64849114 -0.20259723 -0.13932993 -1.1569495 -1.1776506 -0.1714137 1.1912116 0.7722498 0.26521543 0.005991287 -0.68885463 -0.6103504 -0.16110519 -0.9956755 -0.69307804 1.1968887 0.10185363 -0.65179 0.73836166 0.35018802 0.9762034 -0.21215679 0.49550846 -0.46273997 0.34652585 -0.2522084 -0.022128802 0.1371899 -0.5836315 -0.28096625 -0.48248565 -1.3822376 -0.5226588 0.36892527 0.25502264 -0.50177705 0.75220525 0.4523425
2408 -0.5920108 -0.1222207 0.9628997 1.0846009 -0.7452999 1.0666075 -0.63552874 0.29882973 -0.07603698 0.525088 -1.0462801 -0.0017528137 -0.020039428 0.48960695 -0.56095266 -0.14831075 -1.2694626 -0.8267925 0.88187605 0.897905 1.4794636 -0.046976805 -1.0078465 0.83667415 0.38185486 1.6228395 0.13251974 -1.4027339 0.5359669 -0.08080786 -0.6984928 -0.82025135 0.6416477 0.4471819 -1.623312 0.24756293 0.4901253 0.28716236 0.010923299 -0.81897277 0.15433037 0.9772012 -0.71574736 -0.24422635 0.43773305 -0.31442788 0.5798551 -0.19569008 0.99757826 0.25404856 -0.41331476 -0.08150613 0.14257635 0.05900086 -0.87110984 0.36176828 -1.2990781 -0.052599326 -0.7660169 -0.089685924 0.25450796 0.04070794 0.8065861 -0.2258937
1065 0.034576513 -0.12959847 0.010709944 0.36823404 0.1693777 -0.63115543 -0.32822415 -0.11306449 -0.109153755 -0.4625267 0.12883551 1.6207618 0.14124921 0.35378626 0.4858938 -0.39104092 -1.129801 -0.12186792 -0.23451921 1.065001 0.06160807 -0.78231007 -1.1360245 -0.37633398 -0.056114063 -0.0077157947 -0.69338983 -0.3348072 -0.7139865 -0.0699342 -1.1838697 0.76095855 1.5892667 1.0711105 -1.0133034 0.3220919 -0.55869436 0.3599809 0.87522525 -0.4409562 -1.2205681 0.92724645 -0.4104529 0.3141616 1.3221672 -0.23869653 -0.13625954 -0.5802585 0.7218108 -1.100145 0.8917493 -0.708992 0.22235735 -0.14899276 -0.97852767 0.54909825 -0.27398896 -0.2592451 -1.2685566 0.9347842 -0.95828605 -0.49893138 1.2605841 0.7678385
1600 0.21500215 0.6853797 0.618827 -0.009371822 0.6376157 0.8324849 0.17368646 -0.9251611 1.2232612 -1.3297426 0.91135573 -0.34007075 -0.24476972 0.77353996 -0.84145075 0.023011912 -1.4505779 -1.2866709 0.5618794 0.8930288 0.37333453 -0.004892636 -1.0167122 0.15770009 0.9665371 0.9241299 -0.69872344 -0.25734618 -0.35093185 -0.17685923 -0.30354515 0.027375199 0.96823514 -0.4293141 0.13037163 -0.33579156 0.12151849 -0.6786779 -0.30520332 -0.9280411 -1.0527085 0.43703038 -0.48626423 -0.49152204 -0.02972868 -0.6319477 -0.49978894 -0.66308886 0.64130294 -0.7717189 0.6500457 -0.28306305 0.5328221 0.44141197 0.054707836 0.020875892 -0.93790925 0.17067172 -2.399999 0.55313724 -0.2654008 -0.013609469 0.5839311 0.3676959
1216 -1.0315225 -0.66650987 -0.037708577 0.7836559 -1.216081 0.75465786 -0.66401494 -1.6394188 0.7083553 -0.5520339 -0.5922715 -0.363179 0.4172985 1.4794985 -0.89617157 0.4548055 -0.0079685645 -0.77047235 1.0739126 -0.012321615 0.28696382 -0.5998524 -0.95292425 -0.7022643 0.04261627 0.6906348 -1.4665059 -0.21381156 0.7990826 -0.6936042 -0.56371146 0.032135703 -0.36504394 0.60440505 -0.34789467 -0.03116612 0.38755864 0.40596738 0.040306624 -1.1439121 -0.4726462 0.9655147 0.12075962 -0.7262733 1.3137532 -0.6597763 0.046121657 -0.8456562 1.2361327 -0.7131349 -0.27458504 -0.84544134 -0.27353927 0.09659924 -0.9166468 0.9712306 -0.08137437 -0.4184469 -0.32531008 0.9080976 0.47534528 0.2509366 0.4085978 -0.9680104
949 -0.96551275 -0.18726367 -0.44181028 0.011780944 0.32311204 0.16758077 0.01568083 -0.20257686 0.3856603 0.09637908 0.40994287 0.59944177 0.45130417 1.3297452 -0.5388628 -1.7575737 -1.4285226 -1.5025707 0.6068016 0.4081921 0.7669462 -0.61242646 -0.5739706 0.3497006 -1.2170361 -0.1098925 -0.062523924 -1.1153512 -0.31295812 -0.90575826 -0.4424366 -0.3439214 0.7387526 0.08394258 -1.3426697 -0.61987495 -0.60719717 -0.0014403153 1.2343626 -0.24478893 -0.46826193 0.14689994 -0.42459068 -0.96824616 0.07798692 -0.51378834 0.8896231 -0.16612728 -0.21260288 -0.6626878 0.26279756 0.5793518 0.99426675 0.25686747 -1.3288571 -0.042363234 -0.84810597 0.6097016 -1.6335686 0.25655073 -0.054890726 -0.47909594 0.75900364 -0.5262466
1796 -0.23716164 0.13031283 0.43630418 0.22029862 -0.95970875 0.17628446 -1.0224775 -1.30636 -0.6723732 -0.5970337 -0.16194177 0.121367514 0.80197555 0.7822075 -0.3518829 -0.62686706 -0.8946697 -0.6087677 0.48083282 1.1025828 0.41588575 -0.98293453 -0.019601136 -0.682815 1.2828557 -0.33601764 -1.1409439 -0.28019166 -0.74321026 -0.4588958 -0.91066337 0.2698593 0.13248476 -0.69583386 -1.5381252 -1.1855339 -1.7595794 -0.17632176 -0.24429964 -0.75554955 -0.5534555 -0.14610936 0.26054576 -0.19355565 0.81204635 0.6627893 0.21353473 -0.9490039 -0.26086482 -0.1323698 -0.252703 0.33491647 -0.5137119 0.501831 -1.6117427 1.2495517 -0.67174536 -1.087236 -0.6798219 0.3706263 0.11359618 -0.75568473 0.116050944 -0.054830767
1734 -1.9293469 -0.3253989 -0.3839149 0.6055712 -0.97757626 0.42940885 0.29535058 -1.5004637 1.022094 -0.056481253 0.16162859 0.68814784 -0.78476673 0.12176407 0.33094713 -0.27611563 -1.4881532 -0.07657269 0.32604167 0.09522154 0.3095628 -0.61739147 -0.56850815 0.7556497 -0.18443692 0.2899495 -0.7712452 -0.22338027 -0.53865296 -0.5390251 -0.4512655 0.5348706 0.81574136 -0.6498262 -1.0979991 -0.028745197 -0.7560989 0.37748793 0.7410208 -1.5918393 0.048747532 -0.065695226 0.8123149 -0.29137477 1.1504756 -0.12220605 0.615449 0.2892742 -0.44430363 -0.5733184 -1.2321095 1.2300655 0.108091496 0.6055541 -1.338337 -0.8366036 -0.08522538 -0.64011747 -0.28685594 1.3033193 -0.2425129 -0.46149138 -0.18045981 -0.3238036
2267 -1.3008779 0.35014644 -0.099503644 -0.082717575 -0.14846201 0.3117548 -0.018993223 -0.48110458 0.93291616 -0.56688046 -0.09835254 1.1822017 0.76306367 0.026599906 0.020562015 0.6770727 0.5507171 -0.9263567 -0.18748118 -0.24665195 1.0442147 -1.140632 -1.1663394 1.0000931 0.52145416 0.60181236 -1.4273969 -1.3283173 -0.44192696 -0.0908587 -0.6746003 -0.102878414 -0.47454956 -0.20969446 -0.32301784 0.02238363 0.79183847 -0.4187946 1.0032085 -1.2980587 -0.75821286 0.6036169 -0.4659644 0.49810243 1.4464302 -0.12938443 0.61777437 -0.7842526 0.2843785 -1.2570649 0.13529734 0.44091457 -0.53946686 0.3548808 -0.16072461 -0.55683094 -0.16409512 -0.04565926 -1.8308294 1.162385 -0.45359766 -0.764601 0.98765 -0.34850937
916 -0.9294519 -1.0789882 0.08272889 -1.0434731 -0.5247294 0.33762878 -0.9937661 -1.3681343 0.78351086 -0.122731075 -1.2637905 0.06468357 0.26517192 0.53474116 0.33535302 -0.5252137 -0.55421925 -0.31505504 0.6915844 0.5286756 0.5471299 -0.50414175 -1.3291227 0.043494716 -0.10261993 1.226229 0.8835735 -0.64341927 0.519725 -0.68794125 -1.617063 -0.13226064 0.5792193 0.5531532 -1.4459553 -0.3750691 0.2534039 0.32478115 0.5251624 -0.5490665 0.3216512 -0.15254907 -0.96443695 0.2977699 0.9320391 -0.5763857 -0.7066064 -0.8048719 0.8439534 -0.33609152 -0.12987185 -0.6493016 -0.57992893 0.24139939 -0.61173326 -1.0805713 -0.26868582 -0.81625056 -1.1365628 0.4605258 0.36957267 0.65642184 0.7746226 0.7241406
2504 -0.8191241 1.2619662 0.77674955 0.7516626 -0.026270794 0.5000985 0.81960285 -1.2814158 0.47422075 0.12131255 0.01502615 0.27516735 -0.1661298 -0.21686618 0.855708 -0.06020263 -1.3311899 -0.14983498 1.1474036 0.0011810056 0.2975792 -1.3293442 -1.12688 -0.7158762 -0.68112665 -0.11634091 0.0976383 -0.7527439 -0.6575698 -0.5458379 -1.2332382 -1.059009 0.44250873 0.15851858 -0.9412639 0.23604095 -0.1714764 -1.0677458 0.16406322 -1.3968073 -0.98917216 0.105874956 -0.58331513 -0.5496701 1.1709433 0.09746673 -0.51300454 -0.17642058 -0.14234516 0.20264056 0.6156666 0.651234 0.6053368 -0.255401 -0.7685663 0.36921036 -1.3023317 -0.2972051 -1.3524716 0.4249502 -0.7729818 0.5382738 -0.42098784 -0.21249281
1258 -0.9970325 -0.64539003 0.94354486 -0.3052845 -0.46690115 0.8875083 -1.130168 0.018431395 0.14953707 -0.19545567 -0.13830864 0.3406923 -0.13553366 -0.1938618 0.18424606 0.41433457 -0.65161 -0.3493341 0.22347768 0.8211197 0.3909554 -1.6876296 0.32136717 -0.86584616 -0.17727885 0.59698975 0.177988 -1.1495359 0.55513996 0.028183786 -1.3112364 1.1861099 -0.55671346 0.85575587 -1.0130479 0.57874554 0.38190082 -0.34395435 0.23188037 -1.2941785 0.45559996 1.4909612 -0.63585347 -0.39002836 0.82948613 0.031999495 -0.07338644 -1.3201635 0.24545729 -0.90810287 0.3907242 1.1514155 0.19240347 -0.22715397 -1.2879033 0.3676838 -0.37085468 0.4980562 -0.83313304 0.09544664 0.9441234 0.09338137 1.0731907 0.7180111
932 -0.8425466 0.14744347 0.17658123 -0.6807799 -0.10399541 -0.043397654 -0.0642473 -0.7478265 0.69312555 -1.0519512 0.24281318 0.80501443 -0.21578567 1.2199885 0.47893623 -0.22884297 -0.114890404 0.34792775 1.2525868 0.8878669 0.15768237 -0.795605 -1.5786784 -0.55112463 -0.092579745 0.28893876 -1.431257 -0.40593174 -0.21979843 -1.164651 -0.6268754 0.55871093 0.5097504 -0.2790579 -0.38272873 -0.06088622 0.07098954 0.6193976 1.6085414 -0.32851952 -1.4085841 0.44045672 0.9030745 -1.5301261 -0.29619908 -0.018524466 0.21451391 -0.67372507 -0.14713499 -0.16896306 -0.011582847 -0.0066067725 -0.1454729 1.6085726 -1.2663455 -0.36648852 -0.39145562 -0.9732814 -0.6192727 0.8640724 -0.5632805 -0.088122964 0.62532616 0.74066395
1035 -0.3984761 -0.39129665 -0.24976923 1.1317664 0.5115745 0.6959181 -0.48152545 -0.48286158 0.51652133 -1.0827473 0.7677236 0.68169135 -0.02576371 0.9947551 -0.12900943 0.43027374 -1.5741166 0.41168427 -0.20109144 0.9033203 1.5364966 -0.36392182 -0.5724401 -0.24660279 -1.0020473 0.9610606 -0.05753542 -0.74106485 0.90489155 0.361576 -1.2530583 -0.49353132 -0.41136572 0.030770415 -0.45593163 -0.64035356 -0.5568442 -0.9635749 -0.0053237565 -1.1477007 -0.3271044 1.2595668 0.10861451 -0.40106174 0.58173937 -0.02159185 -0.85948294 -1.1793128 0.25707233 -0.16916782 0.7942691 0.79741955 0.0934579 -0.104402676 -0.0991593 0.7168262 -0.011229373 0.41160184 -1.7781893 0.09561161 -0.23748614 -0.93368196 -0.41622588 0.32350025
920 -0.21924451 0.5334892 -0.47154304 0.83507204 0.21126132 0.7893064 -0.5272875 -1.0342994 1.4311438 0.23610911 -0.13813168 0.49430138 -0.4129132 -0.10926362 0.7939529 0.1831616 -0.52302104 -0.49978063 1.0970306 1.1287664 0.98212874 -0.6262904 -0.6772168 1.3408707 -0.31993732 1.3007873 -0.7819983 -0.13673766 0.6768717 -0.46385607 -1.7451273 -0.5357096 0.38248917 -1.1786925 -0.66215074 1.1180815 0.5516509 -0.63073504 -0.2774979 -0.9413025 -0.5933359 0.2394996 0.087781474 0.39155266 0.29507393 0.8014743 0.015682258 -0.87974346 0.015434842 -0.90510035 -0.78954726 0.89500093 0.7374294 0.18539572 -0.14733079 -0.40890813 0.0688709 0.24689722 -0.96305543 -0.44516477 0.73840266 -0.8437047 0.689737 0.71527296
205 -1.0937662 -0.7915223 -0.24512239 -0.17243135 -1.1982117 0.33143762 -0.97360057 -1.0609136 -0.04475405 -0.63392097 -0.54953563 -0.24417739 -0.115216814 1.5499842 0.4191138 0.16904464 -0.83104366 -0.52139217 0.16247271 0.07851404 1.0628417 -0.97887266 -0.062082015 0.7723611 -0.6551826 1.3692216 -1.1082183 -0.2203827 -0.08245332 0.27965596 -0.8320356 -1.1812184 1.1550653 0.17725863 -0.99810994 0.2861675 -0.12140544 0.7676275 -0.24831587 -1.4752173 -0.8721494 0.80990815 -0.5840284 0.9546062 0.8847604 -0.6612684 -0.5852708 -0.8355007 0.015819198 -0.32074896 -0.4115333 -0.41421854 0.24816208 0.8859878 -0.8656303 -0.46188518 -0.41457412 -0.8951907 -0.8517892 0.090804935 -0.3095225 -0.7195881 -0.7864885 0.32255283
975 -0.8010583 0.85021204 -0.4010989 -0.11257329 0.059333574 0.19209692 -1.0058211 -1.2141244 1.2591642 -0.7176739 -0.8293533 -0.24501637 0.5917422 0.05348396 0.46256202 -0.80894166 -1.3253498 -0.573535 0.016589923 0.589194 0.53080815 -0.64621377 -0.4314433 0.834596 0.6261867 1.4329288 -0.6076345 -0.15190782 -0.15276699 1.3236935 -1.8325608 -0.5823318 -0.43568853 -0.051650997 -0.96134967 -0.10041614 -0.19083509 -0.872252 0.61597747 -1.230191 -0.6632584 0.3338694 0.106220454 -0.81086683 0.75475246 -0.048706274 0.62135166 -1.2503281 0.046648376 -0.9527415 0.20992136 0.18415603 -0.7832438 0.28832582 0.12429115 -0.6535994 -0.74262464 -0.112114415 -0.762514 -0.28933218 0.62762636 -0.41444623 0.46284142 -1.3016318
1260 -1.43689 0.27969328 0.18469572 0.520467 0.40007308 -0.16292122 -0.41693956 -0.34962982 0.80297804 0.5672633 0.5095948 -0.390708 -0.3870814 0.85436064 -1.1607469 0.72995967 -1.0166419 0.46787122 0.7960711 0.92903686 0.3855915 -1.211013 0.41272205 -0.088677816 0.8591935 1.0385004 -1.027892 -0.7451959 0.37555122 -1.0858371 0.1152185 -0.36855572 0.016425902 0.14494659 -1.1442142 -0.5702844 -0.0660996 -0.43648583 -0.31379795 -0.7375975 -0.9791514 0.71914965 -1.1255584 0.6437898 0.7213963 0.21784708 -0.59772134 -0.19421883 0.3794784 -0.48112687 -0.83619857 0.5757894 0.31625134 -0.022062188 -1.48618 -0.25294298 -0.9363873 0.34024477 -1.8188169 0.9334372 0.6331862 0.18009463 -0.705831 0.7460155
1608 -0.752024 -0.9235034 -0.58886194 1.3554947 -0.0749618 -0.31242517 -0.5648537 -0.6369733 -0.4507802 -1.1278787 -0.17615663 -0.5205944 -0.27427986 0.21707852 0.65411323 -0.53062004 -0.5138692 0.008648304 -0.4550788 0.65246236 0.5316022 -1.12671 -1.250613 0.27750883 0.868281 1.2165016 -1.8291247 -0.9413206 -0.5502779 -0.037012476 -1.3598878 0.032039728 -0.28260913 -0.23614421 -1.2548643 0.2596864 -1.2399637 -0.38066882 -0.036492232 -1.1359524 0.033761166 0.64570624 0.46297008 -0.4553075 0.14336257 0.3688496 0.07893753 -0.80772436 0.09616579 -0.2582979 -0.012914582 -0.60962373 0.85415614 -0.7224935 -1.2266284 -0.16809262 -1.1995295 -0.9670756 -0.5321937 0.7864742 0.7366306 -0.49017337 0.3773048 -0.5944357
2261 -0.28146672 0.18406343 -0.4111339 0.555184 -0.18190545 -0.124721326 -0.8768667 -1.2237463 0.16150673 -1.1424183 0.34938577 0.44264787 -0.728352 1.0128605 -0.21380714 -1.4909098 -0.6245725 -0.67963123 0.40611997 -0.07177658 0.18909724 -0.8569465 -0.7296339 -0.15961082 0.61127794 -0.8591915 -0.064199515 -2.0595655 0.2479631 0.21605952 -1.2434593 0.2822638 1.250411 -0.42202684 -1.111022 -0.915647 -0.7379979 -0.2863326 1.0089235 -0.4285519 -0.9145068 0.42102203 -0.31510475 0.03270188 0.3293119 -0.7615208 0.49485973 -1.4400548 0.4233378 0.1999386 -0.6081773 0.51505107 -0.6430485 -0.6207436 -1.1556402 0.024555147 -1.1293473 -0.5516153 -0.8094952 0.77552587 0.19649023 0.45962375 -0.0673364 0.97252744
776 -0.7563863 -0.64138454 -0.22071584 0.14611912 -1.3067722 0.39057794 -0.11882828 -0.008913774 1.049355 -1.149497 0.12689775 -0.31759992 -1.4206274 0.71331054 -0.34344205 -0.8474703 -1.5053205 -0.90659064 0.32376653 0.757583 0.6690897 0.103172116 -1.1099064 0.12443544 0.21270707 0.27919757 -0.54524237 -0.3980189 -0.39176422 -1.0950412 -1.2423043 -0.3589516 1.4104861 0.58907807 0.33793458 0.28148043 -0.7917105 -0.7308707 0.22150718 -0.84250015 -0.41586512 1.251798 0.16801858 -0.5701616 0.41406867 0.32953763 0.77498865 -0.047900867 0.30573097 -0.6220058 0.4560383 0.021097338 -0.15106903 0.2360001 -0.62660587 -0.40744278 -0.54144263 -1.1169218 -0.48461196 0.20672101 -0.04329217 -0.43179452 0.92652833 0.8042593
115 0.3000471 0.06982972 0.14855218 1.2572532 -0.114525504 0.15241858 -1.465249 -1.0279849 -0.15495954 0.22945529 -0.0013048672 0.42609322 -0.039807092 0.15876256 -0.49938026 0.24817926 -1.1712295 -1.0200313 0.6263422 0.49278414 0.93851024 -0.9745537 -0.8576063 -0.2531564 0.25474453 -0.3237658 -0.5518618 -1.3341707 -0.9937324 -0.24435367 -1.2253985 -1.034057 -0.4050173 -0.1803358 -0.9771166 0.5081004 0.2368862 0.29247916 -0.09303495 -0.5926528 -0.77491117 0.18661259 0.2807864 -0.010984219 -0.2667713 -0.9503223 -0.54430664 -1.7185357 0.20316045 0.49703625 -0.41947806 -0.38716245 0.8345493 0.044159066 -1.0639931 0.2955375 -0.9847993 -0.8779458 -0.84793794 -0.26268756 0.19748677 0.18115494 0.2837931 -0.062277168
1480 -0.60668796 0.504841 -0.19986512 0.532663 -0.47274393 0.9593082 0.5778956 -0.94292444 0.045934137 -0.17550996 -0.0928429 0.81512344 -0.41459954 0.1811132 0.07919652 -0.36639562 -1.6816266 -0.43040618 0.18867321 1.5451492 -0.16531537 -1.3697238 0.119412154 -0.8841041 -0.63721734 1.7746701 -0.31542173 0.2528704 0.5538707 -0.8406024 -0.111793876 -0.242789 0.45528588 0.9698251 -1.2262653 0.5566557 -0.14868885 0.09336191 0.2046857 -0.9538183 0.24816774 0.570279 -0.29024515 -0.6236414 0.24270104 0.23637141 -0.75676036 -0.74965954 1.0883323 -0.73716503 0.14099167 -0.1632758 -0.78730303 0.30306667 -1.5373703 -0.42363268 -0.15521708 -0.08466428 -0.46351904 0.7581112 -0.5111501 -0.6146661 0.9339148 0.5795749
851 -1.0898657 0.4276467 -0.2962307 -0.16105478 -1.1372068 0.8159497 -0.10732907 -1.137847 0.98319817 -0.53279257 1.3708501 -0.17421563 0.8120875 0.4084457 0.7632474 0.46162802 -0.038102526 -0.7337836 0.4243559 -0.21628962 1.6346992 -1.185628 -1.1600362 0.31714794 0.26370132 1.4842825 -1.0771182 0.14554691 0.18791157 -0.9487639 -0.48473826 -0.21014735 1.3020682 0.39058158 -1.0110397 0.19868493 0.49948072 0.664628 -0.2660423 -1.3058052 -1.2467922 0.8726565 -0.54504687 -0.35710436 0.42350954 0.7302198 0.012911366 -0.32960793 0.84600234 0.20426686 -1.3050159 -0.2268172 -0.035907105 0.12526698 -0.8924559 -0.58478814 -0.6706612 0.0397054 -0.43490615 0.44562462 0.32875302 -0.5561161 0.69713753 0.25874686
1242 -1.0525926 -0.15748776 0.5580305 0.72718495 0.08566483 0.7208537 -0.9984851 -0.036464605 0.44034177 -0.06803799 0.076904185 -0.2309527 0.068009965 0.22851121 0.85221785 -0.827122 -1.128558 -0.32299355 0.85530823 0.31913564 0.7883073 -0.6831059 -0.87327045 0.05132535 -1.1392415 1.2004519 -0.35041672 -1.3341773 -0.36089358 -1.4651175 -0.06272419 -0.688267 0.30607694 0.2961444 -0.944433 -0.40679082 -0.25769985 0.6888603 -1.0063572 -1.5582482 -1.740071 -0.09078192 0.2546881 -0.18285143 -0.31917953 0.22921386 0.3573754 -1.177083 0.29652217 -0.3213312 -0.20099944 0.6542492 -0.107782505 0.27397725 -0.24717414 -0.34908086 -0.5221143 -1.089823 -0.35798067 0.772324 0.43990535 0.1552583 0.7428467 1.2979031
549 -1.387363 0.18189643 0.626323 -0.45983782 0.27250513 -0.49244648 -0.9431901 -0.66335833 1.015246 -0.57895654 -0.41532496 -0.2253833 -0.3814246 0.3721926 -0.64912677 -0.46673813 -0.9022242 -0.3443197 1.0614637 1.146217 -0.43548217 -0.928584 -0.75303596 -0.3642746 -0.14873928 -0.23199604 -0.22626854 -0.1978484 -0.98928094 0.23205148 -0.32838607 -0.14459635 0.2270714 -0.48356622 -0.80301607 0.38028327 -0.4363861 0.003631689 -0.723315 -1.0930649 -0.33404464 1.517177 0.0280963 0.51131284 1.3030115 0.10964966 1.1663022 -1.1073372 -0.014290688 -0.85658914 0.2714995 1.0489665 -0.85772914 0.45694587 -1.171224 0.19900753 -1.0201157 -0.49289086 -0.660879 1.317095 0.13297467 -0.17693058 -0.029411327 1.0327826
2122 -0.16686264 -0.42288676 -0.18795682 1.2120062 0.15805973 0.2902146 -0.67443514 -1.3302357 0.517068 0.4727733 -0.018796679 0.039929036 -0.52854466 0.9654093 -0.7722445 0.6467236 -1.1354412 -0.58169734 -0.122215465 0.79744124 -0.13013595 -1.2684661 -1.0133307 -0.55041075 -0.48233292 1.4805139 -0.593828 -0.8808 -0.67051816 -0.31773692 -0.11802094 0.020927958 2.11392 0.46397206 -0.94738626 0.98338884 -0.9252382 -0.29404926 -0.6085907 -1.1602448 -0.4496129 -0.026485458 -0.74423814 -0.6673617 0.67017394 0.49693966 -0.34101507 0.0011332429 -0.40755025 -0.8773989 0.13812125 0.33417404 0.4693921 0.22491299 -0.34348038 0.68619156 -0.6976042 -0.57388705 0.057596505 0.45124498 -0.39660293 -0.19236714 1.0697955 0.46865505
2776 -1.3481268 0.020332286 0.505617 -0.020657089 -0.31982732 1.1922404 0.2823618 0.03513359 1.5011524 -0.8413832 0.49024892 1.0611707 0.21876982 0.50715226 0.39113852 0.22860588 -1.2411623 -0.6345406 0.6102765 0.028332056 0.37416574 -1.6272166 -0.07656627 0.8666669 -0.16543752 0.36533645 -0.5039215 0.3269488 0.028522968 -0.50947833 -0.8759038 0.35877815 -0.47427166 0.19323063 -0.87884015 1.0046085 -0.18055451 -0.03893975 1.2849404 -0.98883253 -0.48036146 0.2814404 0.48689544 -0.5426855 0.19324489 0.66776955 -1.200051 -0.8054012 0.022300642 -1.0027012 -1.2600029 -0.08550984 0.23358744 0.20999876 -0.7863326 0.19500642 0.12687662 -1.0088413 -0.7311204 0.58901423 0.08443634 -0.72893703 1.271775 0.11130754
1181 -0.37560955 0.045315593 -0.094301306 0.59764427 0.021579826 0.9499959 -1.0176761 -0.19801436 0.7979184 -0.041707337 0.35113132 0.110791214 -0.147321 0.28492424 0.9759166 -1.18831 -1.4385561 0.21894594 0.95394456 0.28929973 0.3668359 -0.3180337 -0.85055923 -0.1564324 -1.0439019 1.0094421 -0.6852983 -0.6707905 -0.7407648 -1.5067147 -0.32846472 -0.0413499 0.45534897 0.3432896 -0.10834985 -0.72886807 0.33077365 -0.18767837 -1.3325754 -2.101656 -1.1879208 0.627697 0.030139385 -0.4564038 -0.015575764 0.35692406 -0.5152023 -0.48092565 0.7614183 -0.41968513 0.3771249 0.739584 -0.51175886 0.78117126 -0.36205763 0.15671255 -0.4382174 -0.8246034 -0.5394236 0.24251959 0.50999266 0.18715915 0.45667645 0.90309864
94 -0.46325338 0.19867264 -0.7729314 0.89981186 0.13239342 1.3390366 -0.79506266 -1.3659005 0.12081562 0.3507838 -0.119129285 0.84955585 -0.0727231 -0.1583896 0.04949662 -0.017180799 -1.6118526 0.12024111 1.6594437 1.1067026 -0.5283153 -0.73122215 -0.6842591 0.5691383 0.74160945 0.920724 -0.565954 -1.0690671 0.27464837 -0.28333372 -1.1845776 0.0529042 0.9117769 0.077806704 -0.16608506 -0.7459446 0.04223013 -0.07786754 0.6636521 -0.25244817 -0.17140472 1.1832414 0.53622764 -0.84419185 0.83625704 -0.15306005 -0.17871791 -0.46739027 -0.5478285 -0.49374568 -0.6909424 -0.31156558 0.47397402 0.21771649 -0.4519878 -0.045291647 -0.4866218 0.3640624 -1.0528843 0.8314581 0.17552994 0.42145196 0.0001821388 0.3562425
49 -0.83236945 0.377666 0.021745581 -0.04074519 -0.9213743 0.4642584 -0.6380297 -0.6969897 1.137008 -0.23178247 0.5221175 0.64081097 0.2901539 0.80882496 -0.30936822 -0.8707519 -0.40785977 0.3268656 0.29330283 -0.019647436 -0.70978594 -0.48140535 -0.8479852 0.33677128 -0.1690455 1.4800398 -0.3642655 -0.18232507 -0.7628367 -1.0422173 -0.81155056 -0.0033049 -0.34642506 0.22542989 -1.7910365 0.18488643 1.0058937 -0.10278672 0.102832034 -0.4639208 0.12115364 0.06666205 0.040230073 -0.45801795 1.2356874 0.11065168 -0.8393501 -0.87046885 1.2232338 -0.659285 -0.30392724 0.9465629 -0.6499141 0.030867143 -0.5603308 0.46116674 0.47722524 -0.6660606 -1.6793897 0.31371206 0.13689074 -0.108328305 -0.3852855 1.3979717
1308 -0.9058912 -0.88555825 0.41259328 1.3201224 -0.57299715 -0.39620143 -0.017131288 -0.3174181 0.94610626 -0.45581874 0.28944352 0.76256096 0.18484604 0.58565706 -0.9323745 -0.25917396 -0.4225087 -0.30508015 -0.05408544 0.17073798 0.6397186 -1.0296321 -1.2145166 -1.2912886 0.82623047 1.0519538 -0.45232415 -0.65631735 0.41250524 0.1433719 -1.1768655 -0.6157665 -0.37426445 0.23597185 -0.79138035 0.30129358 -0.98440546 -0.15742628 0.3661979 -0.6826665 -0.5246493 1.1346952 0.44408053 0.001664378 0.55741346 0.021325532 0.10156327 -1.1506096 -0.16340546 -0.546408 -0.64056283 0.7036986 -0.07871163 0.5707222 0.0032299238 -1.4786553 0.091054514 0.4080524 -1.6287696 0.7323797 0.74318874 -0.19810247 0.40961897 1.3756053
516 -0.87347305 -1.197447 0.7273847 -0.09338256 -1.1509638 0.44523126 -1.4167926 -1.2098197 0.6999029 -1.0032424 -0.19913869 -0.09949808 -0.05921647 1.1355622 -0.909643 0.38476282 -1.0003684 -0.6026154 0.09271487 0.7991668 0.39503762 -0.6678897 -0.40452704 -0.33708116 0.11346012 0.2133026 0.20524906 0.6730055 -0.46264088 -0.7348124 -0.69606525 -0.6974821 0.8638695 1.08812 0.17744806 -0.33105886 -0.10462939 -0.5340051 -0.9041041 -0.119333655 -0.36545923 1.1037593 0.8103907 -0.35445133 1.0696869 0.18140735 -0.18496294 -1.1881031 0.2454499 -0.74816656 -1.0855869 0.6184309 0.6419778 -0.3862321 -0.77415305 -0.082547635 -0.65286195 0.20199215 -1.6296862 -0.3595588 0.008540918 0.01088331 0.33718303 0.100466415
530 0.025900086 0.6488312 -0.21146594 -0.03455493 -0.48977512 0.89524776 -0.18130343 -0.6096742 -0.009929476 -0.49044847 -0.44344947 0.572644 -0.26457182 1.6406128 -0.32964468 0.48943803 -1.2405745 0.8987922 -0.25637877 -0.037577648 0.7343974 -1.0585407 -1.6247464 -0.055922143 -0.60280406 0.7970467 0.15245077 -1.1943537 -0.1365904 0.17970574 0.5173331 -0.14084817 0.053669807 -0.38006887 -0.49321517 -0.55751693 1.0619063 0.35556594 -0.32697338 -1.1016554 -0.91519344 -0.013619985 0.46539465 -1.202597 0.7141165 -0.6509401 0.13820973 -0.6315017 0.5254839 -0.30394813 -0.63206303 0.43307716 0.062070347 -0.05931686 -1.2110734 -0.05842749 -0.31710422 -0.78811973 -1.6861773 0.21097584 0.47190198 0.055574264 0.8192149 0.5901505
830 -0.118522644 0.4663285 0.08106154 0.38171592 0.28483146 -0.003670563 -1.7708663 -0.5186798 0.85060495 -0.79015356 -0.005319143 0.44060943 0.041856032 0.6237219 0.105143785 -0.22839053 -0.2181984 -1.0958128 0.5269765 -0.018359875 1.1511762 -1.335353 -0.49220276 -0.18858534 0.86168426 1.2462815 -0.32301533 -0.43382144 -0.9567924 -0.022809673 -0.13772935 0.39919698 1.1351892 -0.333513 -0.09004751 -0.5690911 -0.5776762 -0.92812663 1.0661844 -1.1012949 -0.688728 0.92274714 0.14613199 -1.6200951 0.17256716 0.26560405 -0.34523693 -0.23697977 -0.03813713 0.06947228 -0.45135844 0.39831105 0.49023443 -0.91256416 -1.6830503 -0.96058977 -0.052854113 -0.80313945 -0.85508037 0.12721933 -0.21724857 0.42952722 0.25521475 1.5932425
1176 -1.608418 -0.07651149 0.45939118 -0.24671136 -0.28145134 -0.4944065 -0.5903507 -0.66495866 1.768059 -0.022039037 0.246675 -0.084001206 0.005685544 0.728773 0.53302664 -0.4606129 -0.30238912 -1.2600592 0.65090996 0.8632603 -0.3018407 -0.44125456 -0.5958759 0.6350058 0.47586182 1.4156713 -1.3025414 -1.617072 -0.49425808 -0.051552206 -0.8927127 0.24171185 0.27009928 -0.36315116 -0.38940853 0.4729563 -0.4508242 1.296337 0.17863144 -0.21310635 -0.17666757 0.7759864 -0.42086092 -0.53701 -0.33735144 0.4324891 0.21006249 -1.216466 0.65338933 -1.9114629 0.5772862 -0.7271277 0.54692775 0.17217459 -0.52700394 -0.40682635 -0.64015126 -0.74512875 -0.49819243 0.18612492 -0.40365148 -0.5536911 0.26869777 0.44292292
1284 -0.790299 -0.30374196 0.08949196 0.33954257 -0.7581936 0.8304731 -0.40232778 -0.33827847 1.4547831 -0.4010451 0.10396291 -0.58411044 -0.17179249 1.3427585 -0.51663834 0.08944127 -0.4477445 0.38935933 0.5859439 0.064075515 1.0641991 -0.30568305 -1.104163 -0.061258968 0.20928375 0.053122878 -0.6835862 0.524837 -0.64770496 -1.2830628 -1.3192838 -0.759517 0.44341606 0.4273052 -0.7591202 0.18570727 0.8598363 -0.8683212 -0.31788397 -1.7586766 0.016773818 0.19826932 -0.13256367 -1.064173 1.474119 -0.13589865 -0.9707591 -0.17047527 -0.53826594 0.76980114 0.06372547 -0.101642154 -0.1852307 -0.33897042 -1.39714 0.54046434 0.049898952 -0.18004031 -1.4711516 0.1097818 0.013413539 0.6021129 1.1767161 0.14325741
1968 -1.1444528 0.23933381 0.70578974 0.502341 -0.56051064 -0.08825334 -0.21685289 0.54613256 0.66671646 -0.08844332 -0.32151717 0.45522317 -0.38084468 0.5656585 0.8617388 -0.317029 -1.6611651 -0.3582882 -0.098887965 0.1914116 0.8348469 0.053705674 -0.6608014 -0.26150534 0.080564074 0.9163179 -2.0332954 -0.8266935 -0.46492878 -0.19251214 -1.6856819 0.9393615 0.3539175 -0.43789342 -1.0941099 -0.04120194 0.87421703 -0.5432654 0.69254196 -0.6004182 0.09097438 -0.22784108 -0.20275772 -1.2992276 0.57907397 -0.111310944 0.43730587 -0.7341687 -0.4165377 -0.13277017 0.5798143 -0.24754588 -0.10800874 0.07693044 -1.0745856 0.34793505 -1.6902876 -0.3965179 -0.72195256 0.5983096 -0.3988779 0.17001495 -0.12084489 0.13360497
2608 -0.41601285 -0.5913082 0.04380682 0.81008834 -0.987052 -0.44564405 -0.3203092 -0.118471324 0.7541477 -0.4696332 -1.3788389 0.7144745 -0.052879773 0.5106971 0.33482656 -0.16665229 -1.5655897 0.24730353 0.93152356 1.2244012 0.55097824 -0.1477428 -1.0389674 0.03907433 0.5018014 0.33885244 0.64824367 -0.09296294 0.036371633 -0.36038214 0.009603823 0.036208723 0.567765 0.20845881 -0.6173911 0.5118503 0.64413977 0.45921612 0.087148316 -1.3270651 -2.1470554 0.011782161 0.48059687 -0.4697772 0.8685316 0.44211105 0.18678756 -1.3878119 1.1075537 0.25001252 1.011868 0.49000177 -0.27501187 0.24566425 -1.6640934 0.016158877 -0.16718799 -0.6975793 -0.46104643 -0.5592989 0.7603065 -1.0837511 0.7839463 -0.37933892
2212 -0.563165 0.20289572 -0.29998282 -0.49827242 -0.6089724 1.1842432 -0.96162033 0.11029142 0.113501824 0.70604867 0.50561947 0.40321198 -0.44475818 1.0366082 -0.93134415 -0.33745015 -0.107355826 -1.6241364 0.41425633 1.0812781 0.57934725 -0.6729115 -0.50764984 -0.9453401 0.5530544 0.8775514 -0.5129973 -0.86143404 -0.7654359 -1.1303072 -0.9362679 0.09690968 -0.21156494 0.57705975 -0.7578629 0.85923153 -0.11192751 0.15410504 -0.23698063 -1.3977649 -0.24764834 0.34704736 -0.7434586 0.6696792 0.89733344 -0.5131498 0.5671454 -1.0334232 0.40626186 0.07278603 0.13961169 0.061658986 -0.5376328 -0.61324346 -1.1875838 0.1960732 -0.09046825 0.5108891 -0.5800094 -0.26690724 0.34387398 -1.5040613 1.0819919 0.31722048
943 0.10649221 -0.9063562 0.12834358 -0.3691052 -0.7332276 1.3049841 -1.141115 -0.6129691 0.2009833 0.5507016 -0.8167188 0.19757716 -0.87679625 1.593259 -0.11488859 0.060436793 -2.1909294 0.3373233 0.8544927 -0.08506607 0.2800643 -0.7611575 -1.337869 -1.1891294 0.22045997 0.90810984 0.29127678 0.025404565 -0.18593438 0.013874469 -0.3417414 -0.8727689 0.3492439 -0.030432163 -1.8345176 0.07364745 0.5266717 0.39684716 0.46102437 -1.1385726 -0.10086047 0.686962 -0.0008656788 -0.5910876 1.3745813 1.2447311 0.3475279 -0.8722192 -0.71394175 -0.3142263 0.4853052 0.05848927 0.07913585 -0.06820182 -0.8188696 0.25957558 0.076194845 -0.13175717 -0.56964296 -0.49645227 -0.098906144 -0.4016909 0.4518366 0.5241828
562 -0.52313375 -0.60874957 -0.13498665 0.07320509 -0.579091 -0.41658616 0.42470482 -1.981278 1.5731093 -0.27264693 0.45298204 0.08392312 -1.0707378 0.29606265 0.08818406 0.4730272 -1.560394 0.13611676 1.0280734 0.9603911 0.59846634 -0.5598956 -0.37504303 0.2054033 -0.26809353 1.285499 -1.2250558 -0.944506 -0.28594604 -0.17517892 -1.511749 -0.18221693 0.18084434 -0.7486443 -0.105483316 0.3188173 0.8393086 0.32507524 -0.43507314 -0.9779483 0.1738961 1.5540777 -1.0292395 0.39286727 0.6728738 -0.060200218 1.1367925 -1.0488842 0.17698473 0.9022776 0.07201894 0.49654976 -0.43824235 -0.033937503 0.12569441 -0.5604148 -0.36876994 -0.4636584 -0.8258626 0.8600391 0.288764 -0.027683273 -0.03242658 -0.2561658
543 -1.1202081 -0.37782192 0.5780202 -0.13648906 -0.14997983 -1.1665647 0.9935391 -1.2496455 1.2099228 0.31541803 -0.13749269 0.5813233 -0.40553284 -0.23677064 -0.29673207 -0.006961267 0.006220294 -0.9846392 0.05356688 0.46181053 0.72744226 -1.2534388 -0.519978 -0.17759994 1.2887926 1.6457502 -0.7071482 -0.58669966 0.97491646 -1.508619 -0.7657515 0.7010528 0.051409807 0.0028022921 -0.80603933 0.17271608 -0.7193386 -0.107363045 1.0300658 -0.19973287 -1.5858349 0.20954177 0.6852449 0.023721326 0.9496391 -0.031241108 -0.3242388 -0.17970677 0.59295803 -0.73671794 -0.5576433 0.5960317 0.3119642 -0.31671986 -0.56980467 0.2612419 -0.46085975 0.21281344 -1.2405094 -0.08096175 0.17772415 0.21036933 1.2116686 0.21954472
611 -0.33179167 0.517358 0.18860357 -0.36128622 -0.08679103 1.0738852 -1.5452341 -0.54694384 0.19542187 -0.08920084 -1.1275822 -0.41885608 -0.2670495 0.61076397 -0.73606336 -0.99431235 -0.83374274 -0.38085002 0.48498368 1.6438671 0.2957205 -1.4997344 -0.16732831 -0.20512752 0.34737793 0.8538132 0.24422978 -1.033599 -0.8210474 0.006326218 -0.67750585 -0.33152258 0.44504595 0.9790889 -1.1790568 -0.6108666 0.13319638 -1.2726481 0.29872063 -0.9813498 -0.99843144 1.5969653 -0.48240793 -1.3176831 0.5585406 0.7272693 0.060318653 -0.12904909 0.21614288 -0.14255463 -0.29346246 -0.38201472 0.9939524 0.03440357 -0.2301274 -0.3031808 -0.93056333 -0.8969124 -0.3082742 -0.6732619 0.3461138 -0.35375106 0.88929784 0.27036783
2622 -1.4203471 -0.37104484 0.7629333 -0.80673957 -1.2326988 0.7482116 -0.90245426 -1.3891829 0.70944214 -0.092200615 -0.5054895 -0.05583279 -0.026246909 1.2241415 0.65983206 -0.5296753 -0.8351686 -0.3816437 -0.2350261 1.1708096 -0.2725924 -1.098796 0.517039 0.28877527 0.60507745 0.95438 -0.9775582 -0.47454646 -0.58824766 -0.70070714 -0.76954645 0.36821508 -0.5460256 -0.26746637 -0.20109744 -0.08668129 -0.27151346 0.0450099 0.4205241 -0.9563801 -1.4264054 1.1476649 -0.055045474 -1.1551569 0.29687268 0.53011644 0.011413123 0.1374987 0.5313659 0.1495106 0.40469116 -0.8360368 -0.14721204 -0.1857313 -0.2282695 0.9029461 -0.004421597 0.31361684 -1.6757033 1.0399973 -0.7225976 -0.6436197 -0.29018667 -0.026640663
75 -0.5852624 0.48956305 -1.0529308 0.5993693 -1.0021664 0.9531633 0.7776671 -0.845754 1.124468 -0.39935008 0.14999701 0.6070978 -1.2136177 0.045263093 -0.92307097 0.5558001 -1.6170357 0.56441236 0.669812 0.83205163 0.9191479 -0.28466788 -1.0100079 -0.016941892 0.041909914 0.25753886 -0.84695333 -0.31383345 0.8948213 -0.2949351 -1.1541749 0.11457179 0.029600983 -0.06531595 -1.1586527 0.16720551 -0.658748 0.118764795 -0.5895125 0.066391006 -0.89480805 0.4566162 -1.309637 0.82430774 1.0670412 0.30191183 -0.29261747 -0.6449016 0.08511735 0.7974927 -0.44520706 0.7822639 -0.118807785 1.0762249 -0.6860091 0.9045803 -0.24848408 -0.0385273 -1.9191605 0.24982189 0.057665855 0.005899554 0.684756 -0.32724077
2795 -0.48273328 0.11125462 0.016940989 0.7145833 0.5496046 0.033348627 -0.53767735 -1.6316432 0.9955673 -0.33540136 0.3970335 0.5601475 0.19126797 1.2886227 0.66209805 -0.4272793 -1.5237834 -1.3457375 0.24687056 0.7306894 0.42358834 0.18276113 -0.7305092 0.25274983 0.18698896 0.70811224 0.15462258 -0.1379162 0.57966626 -1.0981497 -1.8153012 0.33694753 1.0825964 -0.7000115 -0.038870685 -0.605039 -0.070487164 0.4098061 -0.6737126 -0.5218534 -0.72738016 -0.041081276 0.5560606 0.6506056 0.7955681 0.6022321 -0.31369314 -1.2170624 0.24942982 -0.12362979 0.45640582 0.8812672 0.7585164 -0.14860633 -1.0872034 0.8376478 0.04971133 -1.1514325 -0.7890561 -0.033876568 -0.41711503 0.22893387 0.12040716 -0.70417273
1262 -0.7623081 -0.5803436 -0.36070585 1.1982392 -0.78998053 1.3267025 -0.5867092 -1.0122092 0.26728752 -0.43202055 0.2014189 1.1871393 0.026052978 1.0320318 -0.4061534 0.39098743 -0.8133747 -0.92050666 0.005498402 0.470592 1.1576555 -0.7513213 -0.30493093 0.59392 0.9899881 0.43930313 -0.82354194 -1.1151271 0.46171936 -0.7603296 0.31481645 0.86518127 0.5774888 0.60051805 -1.1047903 0.62451446 -0.6614862 0.89028937 -0.15468913 -0.108673 -0.69981223 0.582895 0.31280497 0.060420167 -0.2894578 0.31442943 0.6886309 -1.305564 0.58286375 -0.13365704 0.7514511 0.107596375 0.9210607 0.624683 -1.3006347 -0.671115 0.043934137 -0.53165275 -1.1527255 -0.13097097 0.07354735 -0.530533 0.16334331 -0.6430902
1594 0.4151206 0.14843605 -0.8539465 0.06675423 -0.27963567 0.511569 -0.6984393 -1.6213074 0.71034294 0.07440427 0.08654056 0.9596597 -1.3023043 -0.7226014 -1.1748677 -0.32401723 -1.5953959 -0.5052612 0.8919651 -0.15562208 0.4027442 -0.15312436 -0.32532713 -0.1531302 -0.22790322 0.19716167 -1.1306814 -0.7025652 0.5549447 -0.7550928 -0.63555276 -0.8854217 0.782828 0.46358377 -1.5222236 -0.0027720523 -0.23601764 -0.67544425 -0.03155866 -0.3817169 0.5411788 0.964844 -0.15971984 -1.5292995 0.75787354 -0.29532743 -0.44524458 -0.45655882 1.038045 -0.94910586 0.90442526 0.15582326 -0.39236647 0.329826 -0.40811282 0.6230379 -0.76325107 0.20246425 -1.1813672 0.03985206 -0.61600393 0.18844163 0.34370896 -0.21451442
957 -0.49093977 0.011981256 0.9757209 -0.062209684 -0.15435405 0.58172065 0.37991038 0.0895812 0.15040784 -0.8869426 -0.18832009 0.38844058 0.4189428 1.018568 0.23260246 0.1732489 -1.13672 -0.4059564 1.1410704 0.17114517 0.1924294 -1.2167418 -1.0669577 -0.14774497 -0.81666225 1.5823807 -0.5958081 -1.1958872 0.3146849 0.13243708 0.056581188 -0.44649073 0.5742036 -0.36558422 -1.0079163 -0.6695258 -0.24578984 -0.8528468 0.45460403 -0.44701234 -1.0446934 1.1816893 0.31239873 0.27974483 0.28671658 0.7772682 -0.21817668 0.3089082 0.11103894 -0.8911761 0.0043414556 -0.5184875 0.8733142 -0.50405324 -1.202932 0.5315124 -1.2095892 -1.0560666 -1.1798427 -0.7178209 0.4915219 -0.6607374 0.35564348 -0.3577102
1604 -0.041738857 -0.27374813 0.6449921 0.16785319 0.06663947 0.35728905 -0.28976265 -1.490723 0.67555934 -0.4465586 1.2590613 1.8245493 -0.4557658 0.08916069 -0.53586805 0.7177966 -1.7920154 -0.20515008 0.9668732 0.24333982 -0.2304065 -0.562544 -0.8514032 -1.0633043 0.4319736 0.15819374 -1.2426221 -0.7003579 -0.5575264 -0.23845983 0.037431758 -0.5443264 0.40107757 -0.6466569 -0.14336714 -0.61123395 0.8542582 0.2808848 -0.555437 -1.177158 -0.6429149 0.4831185 0.8189215 -0.32682925 0.67617476 0.0016791068 -0.022139814 -1.0228451 -0.35815853 0.33262283 -0.85737956 0.72233814 1.2704332 0.76514924 -0.38321835 0.3937839 -0.6959693 0.19088155 -1.00689 0.84614474 -0.29418433 -0.31547382 0.65095556 0.8120282
2538 -0.7089204 0.10484384 -0.29115766 0.30892667 -0.88785934 -0.32408473 -0.17298754 -1.9310365 1.20892 0.84930426 -1.2665291 0.8282208 -1.1219484 0.81860715 -0.8234489 0.085961945 -0.75177664 -0.92250717 -0.35199675 1.4961745 1.0811423 -0.653473 -0.2778181 -0.38916555 -0.01800792 -0.62695205 -0.59232783 -1.1548667 0.36657488 0.56188047 -0.5649351 -0.50041723 -0.002913842 -0.5932237 -0.7425626 0.25460124 -0.13336381 -0.7292621 -0.3924799 -0.4674094 -0.03301135 0.47619087 0.75500196 -0.7864193 -0.21324562 0.5392761 0.21447016 -1.0277663 0.012807162 -0.42056617 -0.17163654 0.060280394 0.37231067 0.2550363 0.06919436 0.0031556399 -0.55228454 -1.2407554 -1.8431798 -0.25382826 -0.6199788 -0.40952957 1.2180144 -0.020634074
1612 -0.38772687 -0.2274126 -0.35563797 1.216524 -0.12968728 0.5313582 -0.594714 -0.31207356 0.8794666 0.10534095 1.3943263 0.48962054 0.3211997 0.5837796 0.4416051 0.5913063 -1.6249987 0.17059368 0.60582244 -0.4958838 0.42265293 -1.1399497 -0.30299976 0.35378292 0.7314243 0.50605595 0.20658128 -1.6563654 0.19855721 -1.4947563 -0.90013397 0.08546992 0.20041397 0.59248716 -0.3833403 -0.25464064 0.5830169 -0.6182803 -0.044619393 -0.7479996 -1.2484201 0.08599147 0.43609226 0.5506315 0.5044496 0.08501149 -0.41960672 -1.1735108 0.43935356 -0.10290466 -1.3719926 0.65466386 0.04551568 -0.40409848 -0.871754 0.5667823 -0.8892302 0.61678624 -0.99759334 -0.43539023 0.2702501 -1.0695715 1.0816728 -0.47470376
219 -0.25813857 -0.250231 -0.13664053 0.00987029 0.22689487 0.36941916 0.444729 -0.17229104 1.2863199 -0.5704805 -0.0588262 -0.5305627 -0.2163198 -0.6947634 0.009644331 0.10954344 -0.9151272 -1.1915644 -0.013389369 1.1401455 0.53584 -1.6093776 -0.060473096 -0.302369 0.34706157 0.34596908 -0.041334663 -0.79819804 -0.0010385521 -0.08884079 -1.5631744 -0.7100294 -0.013066117 0.7549089 -1.4278216 -0.43837875 0.15817992 -0.915704 -0.48562488 -0.97232187 -1.1399165 0.7065874 -0.88233984 0.73835784 1.5919465 0.46203348 0.80545133 -0.97551185 1.1927398 0.28159288 0.4920388 0.11003781 0.4206549 0.83352226 -0.27163523 -0.033474024 -1.0085118 -0.61930764 -0.987641 0.344958 -0.22927183 0.046769567 0.5039093 -0.20416707
2450 0.024013178 0.04313155 -0.25981137 0.047567606 0.19140327 1.0651882 -0.48647764 -1.9565996 0.26876944 0.54887754 0.7741127 -0.5489445 -0.083302185 0.110171996 -0.33264276 -0.8817136 -0.953611 -0.8543107 1.0805334 0.671025 0.33128363 -0.8363891 -0.6626073 -0.045991182 0.023874652 0.95712155 -0.052847262 -0.2586432 -0.55041456 -0.0075627915 -1.8207504 0.056235 0.27065912 -0.09397035 -0.30386278 0.19574034 -0.6703531 -0.8962324 0.5889703 -0.158243 -0.27794427 0.22510904 -0.24950328 0.11888154 0.8648524 -0.57321924 -0.90831083 0.10997168 0.9027822 -0.48774573 -0.5186998 0.8889905 -0.13435575 0.5139284 -0.6958064 -0.07159762 0.15269156 -0.26638156 -1.7031904 0.33496282 1.1578836 0.05470332 0.46444213 0.9897997
1849 -0.636303 0.11055136 0.6030392 0.66183484 -0.35785782 0.25074744 -0.7742811 -0.8665767 1.6742485 -0.7449559 -0.08667183 0.039005797 0.24424638 -0.24940401 0.46355227 0.3279427 -0.7440666 -0.30451322 1.2957809 -0.37470052 0.723391 -0.0013972428 -0.28464606 -0.44712195 0.16501556 0.87649727 -1.022766 -0.43446925 0.48795184 -0.73387796 -1.9563746 -0.42282036 0.1243801 0.019895894 -0.7356979 -1.1518523 0.47706363 -0.30859378 -0.23096037 -0.43568647 -1.5685608 0.27582875 -0.17050637 -0.81679785 0.08269584 -0.4022301 -0.84730744 -0.4008672 0.12312861 -0.850684 -0.23869559 -0.6181715 -0.11897513 -0.08256825 -1.2604352 -1.0595219 -0.71057016 -0.643028 -0.61230534 -0.37624073 0.97443944 -0.07429325 1.5114188 -0.14032896
2615 0.1284194 -0.59906656 -0.004234319 0.1137275 -1.6360741 0.8232208 -0.55684596 -0.69439775 0.27132535 0.32073325 1.3922486 0.4801874 -0.1542777 1.0704825 -0.38463846 1.1093073 -1.3968576 -0.14847514 -0.15713404 0.043944754 1.0210955 -0.71027124 -1.0763087 -0.5967325 -0.40421307 0.43480283 -0.8143634 -0.14763394 0.06354939 0.13169184 -1.6888132 -0.25063896 -0.3656813 -0.9235316 -0.8707557 0.28914285 0.34051642 0.441333 0.5765156 -0.4042605 0.038831055 1.2657439 0.28978688 -0.8299223 0.29060876 0.31076553 -0.10284058 -0.14837834 -0.045676943 0.05231351 -0.20212394 -0.51342773 0.68307316 0.8649539 -0.99805784 -0.051772222 -0.6735766 -0.24661441 -1.3884821 0.756902 0.13244972 0.42794022 1.0795021 -0.3033614
