3867 64
2731 0.6517055 -0.029389506 0.6741658 1.4474986 0.22658847 -1.0297244 0.5930024 -0.72728205 -0.79759914 -0.047260955 0.44961476 -0.23782313 -1.7948049 0.6850944 0.4318183 1.222204 0.18442875 0.034656763 -0.1884096 -0.15743043 1.5090191 1.43623 0.42595547 -0.5422093 0.56438845 -0.2868408 -0.5953504 1.0496327 -0.012473476 -0.15023713 -0.48537835 -0.6450275 0.93347436 0.23946616 -0.36436942 -1.350868 1.4858642 -0.4273943 -0.2647321 0.35759118 -0.77718693 0.5314881 0.31415525 -0.8930213 0.4783461 -1.4089671 -0.0070363753 -0.16526897 1.0254644 0.016347732 -0.6524635 1.1533244 -1.1715968 -0.05512572 1.3785453 0.5386741 0.6905026 -0.11076551 -1.0927742 1.3492799 -0.955457 -0.7251855 -1.2192107 -0.9120745
581 -0.052933294 0.00888672 0.27378616 1.9743462 0.41426894 -0.5496401 0.5051422 -0.63450474 -0.04553409 -1.2117593 0.8170233 -0.2328664 -0.55486065 -0.5674063 1.1565771 0.7824924 0.46646902 -0.046655975 0.756021 1.114389 -0.4908432 1.4664375 0.5575976 -0.89205307 -0.5243637 0.8429462 -0.5917273 0.5329968 1.2495666 -0.052085716 1.4747005 0.05481277 -0.4423434 0.3794168 -0.298786 -0.38873824 0.63155 0.37605757 0.39608136 0.73772687 1.1240547 -0.15341608 1.5228071 -0.07490877 -0.36905438 -1.7484976 -0.40596783 -1.2345909 -0.6462741 -0.11174148 0.08120457 0.9290632 0.6532301 1.5172329 0.415664 1.0110849 0.19618593 -0.94888985 0.5868786 -0.104319386 -0.272217 0.35389218 -1.2167622 -0.07175764
2124 0.058687817 0.5450346 1.4789324 0.8456986 1.3088396 -1.2339393 1.0745546 -0.87962013 0.5622358 0.70592916 0.5737322 1.02139 -0.49386787 -1.1467489 -0.074635826 1.2148827 -0.085876286 0.69058645 1.5622164 0.3491125 0.7850267 0.85538876 1.2532884 -1.6933755 -0.19301027 0.546101 -0.4355378 0.46693096 1.6466061 0.7560419 0.3893525 0.48806658 -0.8407393 1.1014463 -0.5329801 -0.6239215 1.428252 0.6043236 -0.2698887 -0.7188468 0.94062555 1.0368091 0.6308412 -0.9367935 1.0197585 -0.22127761 -0.29823685 -1.2352747 -0.9981594 -0.8913252 -0.09041782 -0.31305674 -0.61471075 0.45921272 0.68334544 0.031444907 -0.28376085 -0.2485395 -0.636346 -0.7834545 -0.27541405 -0.86511403 -0.12384041 -0.6019722
1697 0.08391663 -0.9687338 0.075056754 1.5597454 1.5682865 -0.5488407 -0.7006532 -0.998086 -0.89621425 0.4316078 -0.120720476 0.04323233 -0.5880739 -0.09475674 0.025588252 1.3981339 -0.49832618 0.25286692 0.42440796 -0.77351254 1.6841685 0.8189737 0.17453116 -1.1301894 -0.20575836 1.3767427 -1.3220596 -0.36759168 0.023678511 -0.27108607 1.2042042 -0.78549224 1.4570602 0.95955694 0.5488965 -0.28094664 0.6585814 0.74868387 0.22651336 -0.7671795 -0.24237686 0.11229636 -0.1901782 -0.5522955 -0.26366827 -0.48663715 -0.6771774 -0.5867496 -0.16648594 -0.9349191 -1.1199989 0.82294846 0.22480062 0.53634 0.41302264 0.588973 -0.5337801 0.047012534 -0.6043444 0.37933517 -1.0294597 -1.1894823 -1.6396137 -1.3360457
2305 0.39222658 -0.582468 -0.9092922 -0.3857274 1.5919328 -0.22819756 0.7396225 -0.73199785 -0.760158 0.29666996 0.26676482 0.17363189 -1.4649503 -0.26236245 0.7735447 1.9390649 -0.06297939 -0.6474313 0.27819204 1.0712595 1.5305786 0.6334657 -0.99397594 -0.44976807 0.21571817 -0.7668772 -0.574707 -0.41750354 0.21839999 -0.6657199 0.26859304 -1.4236962 0.8074426 0.65557456 -0.6077836 0.14401536 1.380739 -0.7610673 -0.397395 0.62863106 -0.0772286 0.92693913 1.9275202 -0.5118838 0.119287804 0.14104347 -0.16079314 -0.5666289 0.07700305 -0.36327374 -0.9446234 0.6898746 -0.12082157 -0.16445896 0.92470425 1.3470205 -0.0343283 -0.3651472 0.29501656 0.3551499 -0.079761975 -0.29607967 -1.288503 -0.19918732
1108 -0.005685862 -0.13984908 1.662314 0.8972424 -0.54922926 0.23976044 0.7012083 -0.35025036 -0.006117035 -0.12493939 -0.06706308 0.2678408 -2.189615 -0.30350205 0.43462622 2.2708406 0.79511976 -0.7787724 -0.555688 0.62355053 0.8221658 0.8589531 0.10658982 -0.9230583 0.31869033 0.87817574 -0.065150924 -0.32597435 0.42278767 -0.60920566 0.32597697 -0.013379516 -0.9988395 -0.20974442 -0.4128758 -0.102143385 0.7528917 0.60376847 0.17174825 -0.50883555 0.5410809 0.73597586 1.8949376 -0.5503977 0.42651772 -1.2873664 -0.6976732 -0.16151088 -0.5367697 -1.4575375 0.348607 0.004837274 -0.2606855 1.3290509 0.3889874 -0.016548924 -0.5973761 0.4596222 -1.187277 0.48338443 -1.2892649 0.29718018 -0.53284395 -0.22745778
2100 0.23109917 -0.39266923 1.3657215 1.8288718 0.9156012 -1.3416919 -0.33076182 -1.5521083 -0.20589387 -0.46227106 0.9531525 -0.1946291 -0.61217207 -1.4052889 -0.10454508 0.940112 -0.8987124 0.15969293 -0.6245367 0.10116319 0.64095527 1.2413155 0.11375454 -0.31474116 -0.8629602 1.3743541 -1.0629798 0.51215565 -0.36659506 -0.06544315 -0.0077670645 -0.9576374 0.24244876 1.5967513 0.46888795 -1.1954672 1.1818277 -0.67651564 -0.17223103 1.0647393 -0.08641337 0.56176126 0.8655948 0.59107363 -0.7751912 -0.22499707 0.8892105 -0.6106082 -0.04111524 -1.931118 0.5540182 -0.30295384 -0.10620364 0.6986311 0.33819345 0.5408403 0.18352613 -1.1414766 -1.1922549 1.0612612 -0.11059342 -0.50037706 0.011917051 -0.19002104
332 0.47110552 -0.58846575 0.5499398 0.7952805 1.5002482 -0.73090094 -0.17888813 -1.7905834 -0.64103913 -0.78582907 0.4567154 -0.36113697 -0.49814358 -1.3929049 0.78464043 1.0287794 -0.6239903 -0.14090775 1.2298466 0.21082848 0.19540913 1.5187831 -0.25741017 0.58109725 -0.2976861 -0.051930062 0.42820233 0.9871994 0.5224772 0.40543202 0.9715548 -1.4513011 -0.47229967 0.2667638 0.5304693 -1.1800631 0.108156085 -0.58986115 0.47350162 0.41807058 -0.8764572 0.005363081 1.1859572 -0.9649641 0.42912486 -1.3499817 -0.08229835 -1.4979123 0.8254014 -0.36116013 -0.7150944 0.46590883 -1.106257 0.9407492 0.10791325 -0.14919367 -0.47441038 0.1673529 -0.2846058 0.63581955 -1.2688675 -0.9440467 -0.45703992 -0.8667256
2338 -0.9636356 -0.951699 0.34716663 0.5999272 -0.063264005 -1.3295212 0.19705896 -1.6361096 -1.1309097 -0.19260855 0.6496938 0.7510244 -1.9700805 -1.1473744 0.8396127 0.48884958 0.93206 0.42666522 0.7299035 -0.35567695 -0.28837803 0.15136828 -0.55989397 0.104798704 0.09272192 0.9935059 -0.40646443 -0.1847645 1.4196626 -0.6129391 0.49223202 -0.21533972 0.043546483 0.6704323 -0.49565953 0.33468744 1.1359551 0.38545954 -0.2619711 -0.21301746 0.8036434 1.1883149 0.05277485 -0.054984897 1.3277959 -1.6575478 -0.9426288 -1.2720463 0.58509904 -1.1742647 0.52112246 -0.40713567 0.15745644 0.43604243 0.61790633 0.73532546 -0.8093938 -1.0575746 -0.27006608 1.1294129 -0.18689439 0.3817197 -0.4945468 0.47443122
455 -1.3876399 0.2546298 0.08645096 0.8427505 1.2973129 -0.8778567 0.44847387 -1.5819112 -0.6848366 -0.9621941 -0.6576699 0.88653374 -0.9191264 0.07374729 1.1588104 1.3744758 -0.52272373 -0.2075367 0.8342088 0.8891558 0.2612419 -0.6185199 0.5139232 -1.1064174 0.13152608 -0.3096161 -0.68909675 0.34851265 0.33754244 0.023503589 0.9555451 -0.5637642 -0.5237522 0.020122085 0.54208434 -0.050189056 0.7670488 1.0194689 -1.1130596 0.19443572 1.4002331 0.8741179 0.8261106 -0.5250938 0.509355 -1.0934107 0.9664977 -0.23750414 0.37643304 0.15500587 -0.34976402 -0.49337623 0.00074039894 -0.54153234 0.960035 1.5989735 -0.057516236 0.21016422 -0.63518125 1.1734588 -1.2496706 -1.1554693 -0.7736119 -1.1891534
885 0.2226378 -1.1872048 1.0066078 -0.6463919 1.5139878 -0.7521328 -0.2428086 -1.9288223 -0.54186755 -0.7832811 0.6236864 -0.2929253 -2.0324237 -1.209013 0.28098807 0.6264299 -0.014840832 -1.3380538 -0.17189959 -0.0937915 -0.04943449 -0.2806876 -0.96002537 -0.20151024 0.34938326 0.2687727 -0.41962147 -0.43712133 0.6226444 0.107637204 0.11310227 -0.09424032 1.3371731 1.0614716 -0.009446744 -0.9082186 0.84515625 0.6800871 -1.4507968 1.0386206 -0.0045508253 0.22249453 0.28129745 0.712923 0.4167926 -0.6581493 -0.39395267 -0.8456599 0.042285148 -0.32641464 -0.8200009 0.8409723 -0.77538013 0.5463991 0.54013824 1.9037913 0.34841722 0.023692878 0.0045922156 1.4434257 -0.15353706 -0.06798827 0.5598029 -0.44797522
1871 -0.39070168 0.11447772 1.0384307 0.33335698 0.5440024 -1.3043284 0.44199702 -1.1544151 0.17264616 -0.013661076 -0.7339277 -0.09165128 -0.53251857 0.14095417 0.017534241 0.8261122 0.15354937 0.55396193 0.7296636 -0.22281721 -0.65469354 1.5031985 0.06566245 -0.2550717 -0.4149368 1.2597159 -0.9748294 0.3941251 0.15631019 -1.0547253 0.5977938 -1.0048584 -0.5510353 0.51983166 -0.77722216 -0.33947882 1.8832911 -0.13511346 -0.61150646 0.65960324 0.90142345 -0.51821405 -0.10901719 -0.94137716 0.8901504 -0.71577317 -0.5665066 -0.6990248 0.3443164 -1.1740304 -0.3563503 1.0329179 -0.62406117 0.82350826 0.61798847 1.8587259 0.669871 -0.5156338 -0.90716714 1.2426718 -0.75828636 0.601677 -1.7523057 0.5230332
1110 -0.35331112 -1.2767707 0.42718253 0.32297334 1.0205731 -0.5084867 -0.44954422 -0.9555121 0.03206363 -0.22199143 0.013366519 -0.4011211 -1.623087 -0.49486178 -0.6247956 1.6625552 -0.036330644 -0.672193 0.9242002 1.1487011 1.0209348 0.3835202 -0.047148913 -0.4249075 -0.82154316 1.1999525 0.2804939 0.5990224 0.5089396 -0.6422766 0.48096806 -0.83285034 -0.5592892 1.7773427 -0.1765567 -0.3147418 0.9429909 0.2495316 0.63052773 -0.38238817 -0.06915435 0.37405318 1.1965094 -0.6441865 1.2976612 -0.99622715 0.28628942 -0.95062095 -0.5521841 -0.7927248 -1.0276127 0.1370129 -0.028608128 1.0678685 0.94155365 0.09256046 0.728652 0.38510373 0.060422555 -1.2032888 -0.09820994 -0.41174528 0.0889976 -0.9222068
275 0.2990908 0.5658584 0.3669324 0.68666553 0.64010525 0.24333265 0.27540824 -1.9749174 -0.14611718 0.794851 -0.45714054 0.12306316 -1.1882366 0.41866234 0.8757513 1.534665 -0.018686552 -0.6402488 0.6623688 0.6267561 0.7859935 0.29684502 0.1643988 -1.6766915 0.7313844 -0.73409504 0.054579813 -0.6738027 0.17752284 -0.44445246 0.86452234 -0.6872447 -0.5365729 0.7966828 -0.33942515 0.06530684 0.16688704 0.7565952 -0.8036605 -0.2914264 0.4103986 1.6135039 0.0321787 -1.3300412 0.8230065 -1.4538004 -0.72712123 -1.2944013 -0.19560048 -1.0994837 0.08195144 0.16313837 -0.0022740741 0.29800665 1.0326123 -0.36873326 -0.08828626 0.2819663 -0.34478453 0.8380583 -0.051466543 -0.6151039 0.078961566 -0.38729724
1947 0.30905136 0.64729714 0.852636 0.41954982 0.58308643 -1.7066623 -0.04128085 -0.43618968 -0.3177205 -1.481561 -0.62107116 0.7619116 -1.5467222 0.026243353 0.38439825 0.7906841 -0.36461082 -0.20139793 0.4183639 1.1715677 0.52247524 -0.100211054 0.30985978 -0.63104314 0.22650656 0.61889166 -0.8715566 -0.01801721 0.95068824 -0.4891982 -0.088483095 0.2850326 0.18156621 0.48214048 0.65355706 -0.095563754 1.8754147 0.90173286 -1.5969906 0.6055287 0.7489607 1.2040974 1.2262455 0.33984312 0.79182124 0.1655467 -0.7939052 -0.56429666 0.67322135 -0.23335773 -0.9344272 1.0495701 0.57595366 1.2851063 0.6531004 1.9458739 -0.1722914 1.1486708 0.48010656 -0.054055464 -0.99088514 0.21625906 0.079330154 -0.7161064
2340 -0.11536935 0.3998825 1.0739926 0.9766284 0.77087414 -0.68996006 0.060166083 -1.7131675 0.25248915 -0.28078645 0.59056187 0.34893468 -1.2046406 -0.89538455 0.35703203 -0.12237676 0.5362538 -1.1765417 0.8127965 0.28802162 1.2737764 0.251283 -0.49783182 0.0075470847 0.06523371 -0.38929823 -0.9289194 0.2844642 0.6901031 0.48220363 -0.1509723 0.41582978 0.3655277 1.4627169 1.0547292 -1.284781 -0.31626096 0.5562892 -0.24144454 0.4936511 1.0349913 1.0303886 2.3181307 -1.4652185 -0.10249877 -1.2036277 -0.32076997 0.155936 -0.42514613 -1.1377044 -0.3414806 0.02262087 0.6978879 -0.064115375 0.88100696 1.7663981 0.20719787 -0.10145922 -0.35954404 -0.6058366 -0.52192 -0.47609332 0.43762285 -0.5551493
2855 -0.55183196 0.4218226 0.39481446 0.54783666 1.9080223 -0.51861453 -0.14153492 -1.5593612 0.42152128 0.6091232 0.7310826 0.69561183 -0.87641144 -1.0607796 -0.0035433308 1.436476 -0.68460584 -0.112866215 -0.6605399 0.6548319 -0.6576604 0.37682176 -0.35416022 -0.9196421 -0.57862896 0.3195617 -1.3086613 0.2303677 -0.04637008 -0.03366623 0.7824507 -0.43778464 -0.10818239 0.9490322 0.3415025 -0.2873769 0.39494798 -0.07368588 0.41098475 0.3852254 -0.5934944 1.0902503 0.28029957 -0.9193246 0.69084156 -1.4616207 0.29452553 -0.58497006 -0.40775913 -0.15292822 -0.35109022 0.5943069 0.96625865 0.15464666 0.61971694 1.3206083 -0.295842 0.71770006 0.22432654 0.6581691 -2.0844643 0.35889113 -1.2777667 -0.26062757
2039 0.61394763 -0.35109106 1.533758 0.7154998 1.3601766 -0.12955494 0.48547393 -1.0673995 0.56439453 -0.025785847 0.40969816 -0.78308827 0.17023046 0.8345137 0.45954958 1.952981 -0.42978314 -0.5208383 -0.13553414 0.1386533 0.51431686 0.2758741 0.73769104 -0.7730975 -0.7570341 0.56631666 -0.5111976 0.010427794 0.8212822 -0.37617707 0.46884593 -0.87036186 -0.08180696 0.0047138245 -0.89908504 -1.1375273 0.4639489 -0.4710722 -0.782618 0.21928033 -0.0013164298 0.30214623 1.0518066 -0.9480123 0.068717815 -0.09127369 0.027858013 -0.7011857 0.28515732 -1.4352181 -0.6063122 0.2968839 -0.90867347 -0.1750662 -0.23843406 0.8517822 -0.14667328 -0.36119738 0.2776078 0.51178116 -1.2983798 1.1564101 -0.1476473 -1.1659437
1085 0.16243574 0.7690522 0.41226923 0.76945776 -0.63973033 -0.9465793 0.15534003 -1.1314152 0.36903885 -0.03761832 0.050980337 0.22967109 -1.3669858 0.75929415 1.320016 1.7386488 -0.09851418 -0.22760467 -0.43287942 0.006561011 1.0878333 0.09101111 0.30893975 -0.24836446 -0.5854624 1.1642313 -0.60852706 0.027755205 1.2463545 0.6554539 -0.12203111 0.35092074 1.0601807 0.2613037 -0.47768113 -0.9992971 1.3956635 1.4803696 -0.5775274 -0.08959564 -0.59910583 0.9597593 0.77333754 0.007421108 -0.49773535 -1.4639682 -0.5435383 -0.7223233 -0.037109263 -1.4607979 1.024285 -0.2917119 0.7482211 0.65975296 0.34857085 1.4205441 0.79266334 -0.095235825 -0.5411718 -0.17748123 -0.801677 0.0035756405 0.15983045 -1.4347829
2643 -0.6389362 -0.23759641 1.3347074 0.8396272 0.68880063 -0.2889195 0.55458915 -0.6023839 -0.45962602 0.6849179 -0.61596924 0.6632111 -1.1275572 0.6342625 -0.30162606 1.5856037 0.106521375 -0.8282741 -0.1615694 -0.9014347 0.038485084 -0.124312624 0.21363871 -0.80986977 -0.48606768 0.71533394 -0.6852176 0.23666763 -0.20715377 -0.7660969 1.6719068 -0.8093687 -0.49928847 1.6528231 0.53746074 -0.9577914 0.77579063 0.023832561 -0.5362863 -0.24611305 0.37978593 0.4699631 2.056111 0.11094565 -1.3337243 -1.6731842 0.28663835 -0.46968895 -0.20127164 -0.19160491 0.53232807 0.6441247 -1.0730963 0.5274989 1.0265995 0.96730095 0.31581193 -0.22659181 -0.44437352 0.73545957 -0.45789254 -0.544715 -0.7829133 -0.2307719
1361 -0.9771065 0.2956563 0.82983696 1.1098206 0.49713212 -0.47626513 0.8910752 -1.2879331 -0.22836551 0.18659413 -0.25719827 -0.021696037 -0.63963133 -1.5185441 0.7775409 1.283782 0.9450928 0.051794816 0.34377277 0.66774565 0.054085847 1.351593 -0.97357196 -1.1718309 -0.6459611 -0.34362853 -1.524156 -0.9507634 0.24283126 -0.51452357 0.32580355 -0.04597987 -0.8353719 0.40998295 0.85204273 -0.6293069 1.3261418 0.37742928 -0.14038506 0.16214761 0.89907837 0.5530414 1.4408661 -0.37931582 1.0174041 -0.19016957 -0.46016598 -1.2077537 -0.76208305 -0.33473384 0.17916742 0.6111898 0.73517454 -0.40964055 0.87413937 0.39704663 -1.3204665 1.086284 -0.52051204 0.12525104 -0.65425086 -1.3504277 0.21732989 -0.41490433
201 -0.45917735 -0.82650197 0.08396205 1.2647455 1.0482901 -0.9146163 0.23267864 -0.75009924 -0.7729996 0.3998811 -0.28914768 0.5583354 -0.4093135 -0.6026775 0.46662208 1.514263 0.7739358 0.3304982 0.6506676 0.80191743 1.4036968 0.75983757 0.7303807 -0.13725817 -0.1402543 0.44190544 -0.6533758 -0.39688808 -0.5130513 0.24456978 1.6031655 0.891624 0.22313085 1.2318135 0.34346774 -0.8280396 1.9768463 -0.09314787 0.15928558 1.1155475 0.46796003 0.6302705 1.0912733 0.70691115 0.4342766 -1.2704587 -0.039772596 0.5472493 -0.17548132 -0.61838895 -0.38064325 0.032272443 0.57587457 0.034327257 -0.057823543 2.1075664 0.43420637 0.9142418 -0.36524108 -0.10598579 0.15897489 -0.069126405 0.18056862 0.47142932
2778 1.0951315 -0.7627 1.2043561 0.29413354 -0.29310143 -1.622501 -0.08207802 -0.32037947 1.0553144 0.17704603 0.3728572 -0.48128602 -0.34203303 0.49646154 0.91146904 0.5540678 -0.555806 0.013329313 1.1644621 0.36540768 0.6437881 0.32723993 -1.1647071 -1.0398281 -0.46715578 -0.24133947 -0.99740314 -0.56265223 1.2877429 0.66704583 0.5201374 0.29014564 1.0457665 0.7589465 0.81120414 -0.26761153 1.361791 0.5732232 -1.1478437 -0.21033597 0.29407302 0.5687198 1.0713462 0.15057172 1.2370911 -1.5839187 -0.57047284 -1.4188673 0.4944546 -0.37654027 -0.81163377 0.46103007 -1.0220406 0.07129924 0.4772923 1.3413527 0.2167706 0.30853948 -0.4784922 0.59134203 -0.5155475 -0.49710667 -1.1732094 -1.078058
651 0.5971794 -0.12958081 0.72581756 0.35476264 1.2931392 -0.2102743 0.49735576 -1.6108825 -0.5070313 -0.0026253632 0.527216 -0.39796227 -0.6652011 -0.30806082 0.8761386 1.9667958 0.6557964 -0.48311138 0.9339453 0.32142627 0.6515905 1.0629195 -0.39305294 -0.84849316 -0.7026781 1.0767548 -1.648661 0.5487153 -0.6264661 0.4641054 0.5090494 0.5913009 -0.08479093 0.50685143 -0.9518727 -0.21686932 0.51517075 0.66421753 -0.6958479 -0.7099561 0.10840983 0.7585509 -0.17500012 -1.0038794 -1.0131611 -0.5738069 0.19230042 -0.7551175 -0.8095697 -0.5800322 -0.3978933 0.22991064 -1.057356 0.05629777 -0.015118901 1.9963553 -0.23398536 -0.964264 -0.45366654 -0.29851234 -0.5870377 0.6086098 -0.7667343 0.6841721
2406 0.43742067 -0.9048091 -0.32332313 1.0858185 1.3587734 -0.85863507 -0.2915146 -0.4793618 0.27843156 1.3636056 -0.37898237 -1.0922873 -1.1423796 -1.0772768 0.48227626 0.5458638 1.1325568 0.45403016 0.11869217 0.2733864 1.3314937 0.375751 0.09703545 -0.07748005 0.29505467 0.045336865 -1.0907714 -0.39099413 1.4456931 -0.36200508 0.45095357 0.9244389 0.5837418 1.1433135 -1.2869054 -0.3769834 0.8984914 0.036014546 -0.48743698 0.7875924 0.071957566 0.5206683 0.6580372 -0.6411544 -0.12249318 -0.92447263 -0.6676894 -0.23793869 -0.5050636 -0.10770755 -0.7858873 -0.48498046 0.34328565 0.9724691 0.37095147 1.4211468 -0.968841 -0.9998597 -0.9328357 1.1201307 -0.1056942 0.71409947 0.33213586 -0.3573619
1212 0.24182373 -0.8928827 1.3628643 0.83861643 1.4717394 -0.8041185 0.60395235 -0.59747416 0.2528993 0.49573177 -0.2289438 -0.5233033 -1.4296665 0.1558673 -0.34325752 2.0867088 0.20203128 0.03846482 0.0854842 0.22586356 0.6710864 1.4350226 0.41696864 0.34354544 -0.04033843 1.3125966 0.43354914 -0.43167597 0.39226055 -0.15036678 0.627685 -0.22687547 0.1351857 0.13881595 0.53932345 -0.10029093 1.4481969 -0.5547886 -1.5238571 -0.33359233 0.18022732 0.28036788 -0.11535787 0.6826494 0.79943275 -0.7837465 -0.9901489 -1.5042303 0.518696 -0.032378152 -0.8168718 -0.9781948 -0.13653754 0.34936514 0.89729244 1.1547472 -0.7520906 -1.0715246 -0.8915383 0.11931343 -0.15874448 0.50393957 -0.22620814 0.23610643
1174 -0.30417123 -0.10244072 -0.16327754 1.1628622 1.1247734 -0.25960243 0.6787168 -0.45385033 -0.22877292 -0.39417213 -0.6061244 -0.14967325 -0.57710654 -1.1188244 0.7868495 0.93542683 0.3863757 -0.97566336 0.08952392 -0.5600051 -0.573881 0.8502001 -0.93236583 -0.7401904 -0.7209506 0.021558417 0.3267595 0.61021847 1.1069689 0.6346648 0.2724656 0.36619008 0.065723374 0.7718373 -1.2191205 -0.3996161 1.4898326 1.1987097 0.038269293 -0.60301214 0.9009388 0.08245924 1.6033205 -0.38572624 0.22135773 -1.1181438 -1.0936053 -1.3197936 1.3259414 -1.0247309 0.25659597 -0.60263175 -0.433451 0.30453995 1.0200778 0.1606347 0.28489578 -0.44842497 -0.89693767 -0.2905851 -1.2332486 -0.27317223 -0.82879025 -0.9032388
853 0.20922014 -0.0049208505 0.24756737 1.5681593 0.773583 -0.63254875 1.114763 -0.70122623 -1.102841 1.013876 0.06421553 0.17389975 -0.13164647 -1.9982109 0.7817298 1.6175038 0.05933099 -0.98580277 0.118486896 -0.73685306 0.7413166 0.9002246 0.48624867 0.3570998 0.1932055 0.22946912 -0.15460764 0.023093862 0.89051455 -0.1485233 0.07472617 0.185764 -0.089767225 0.7579889 -1.1249727 -0.48927993 1.1661841 -0.28100628 -0.93423814 0.72210205 1.0519166 0.24277204 0.9842682 -0.98829687 0.60735846 -0.55683935 0.5743941 -0.42019284 0.46986312 -0.08146863 0.62885493 0.9945819 -0.72227633 1.2242105 1.2611549 0.8044252 0.6399473 0.21680279 0.45683306 0.5655325 -0.1621977 0.0959992 0.53438926 -0.18854113
135 0.28343952 -0.5785154 0.46752155 1.1478019 0.69118994 -0.2201154 1.1000663 -1.2253281 0.8946417 -1.1313426 -0.79724735 0.46343362 -0.45151475 -0.462638 0.11133432 1.9491371 -0.5336115 -0.630792 0.44177833 -0.6893521 0.8970257 1.4973434 0.72124344 -1.0150741 0.4335031 1.1761887 0.3239265 0.54234093 1.6909122 -0.45212662 0.0591951 -0.8154266 0.465353 0.47286493 -0.34009635 -0.4218933 1.3209577 0.21806955 0.4229833 0.0933809 0.17331345 -0.3879005 0.17052184 0.068371266 0.36110878 -0.26355127 -0.06927047 -1.0691206 -0.4093454 -1.2692319 1.1564248 0.5568206 -0.30387554 0.65041745 -0.05276544 1.331423 0.15871885 -0.6649914 -0.6970133 -0.017647384 -0.5935987 -0.1853803 -0.32675308 0.11155568
401 -0.62290347 -0.8634505 1.3530558 1.0061212 0.9519257 0.06525014 1.1183574 -0.06462242 -1.152516 0.6503512 0.5635204 0.5684335 -1.3712981 -0.6007587 0.5645929 1.0654116 0.16341451 0.18623453 1.197313 -0.56858575 -0.15706031 0.9628754 -0.9278687 -1.0449852 -0.77308345 0.25749052 -0.5100061 1.4053493 1.4525269 -0.23608138 -0.46992227 0.041607138 0.41483328 -0.055008695 0.72570443 -0.3791633 1.3880296 1.1041162 -0.8685591 0.24232154 0.13210933 0.52136326 1.1447939 0.16656376 0.74130696 -0.45164806 -0.24930477 -0.54718804 -0.77098346 -0.3971091 0.40616438 -0.018546507 -0.9425005 -0.43751267 0.02577912 0.81212366 0.14159627 0.4816615 0.28020605 1.1295435 -0.25995645 -0.26036152 -0.86084753 -0.77282554
2550 -0.809296 0.5431925 -0.08650583 0.80262953 0.6761404 0.3541962 -0.12093196 -2.1098135 -0.5045776 1.0306255 -0.28607866 -0.23476018 -0.37283677 -0.5881551 0.007460614 2.198405 -0.6152448 -0.956865 -0.11146208 -0.62035036 1.054253 1.1307125 0.0011679706 -0.10342623 -0.4396147 0.36614317 -1.1235558 -0.8969422 0.9064391 0.01971837 -0.8670154 -0.825854 -0.43166512 0.61251503 0.10561443 0.11918333 1.1670952 0.59695673 -0.13561608 0.5376778 0.34613535 -0.30526507 0.7742458 -0.2876077 0.86278516 -0.21509533 -0.58443207 -0.65112877 -0.7092096 -1.5230211 -0.49256364 0.28440592 0.0787077 0.020647869 0.078857265 1.3953335 0.55927086 0.35862926 -0.7347138 -0.08576863 -0.8334193 -0.45701474 -0.46788836 -0.27226248
2776 0.39575866 -0.0040555596 0.41999495 0.13055892 -0.019880993 -1.3162451 0.3545563 -0.23721528 -0.4864745 0.6043884 -0.36621875 0.17002963 -1.3211027 -0.517076 0.45903787 1.1802622 0.80195534 0.14411077 -0.36789027 0.948684 0.40776488 0.74841654 0.37593016 -0.3898234 -0.34736997 0.8639088 -0.030305088 0.96746683 0.81596607 -0.12262002 0.8521995 -1.2769297 -1.0834413 0.91564834 -0.38590813 -0.66329014 0.7455808 0.4429859 -0.37872693 0.58216435 -0.013508051 -0.57426095 1.0798209 -0.8158057 -0.6774679 -1.1641312 0.18339367 -0.60814476 -0.21697128 -0.7619919 -0.17492174 0.10142977 0.12639637 0.9854786 0.5313603 0.58594525 0.62495655 -1.0548037 -1.5413718 0.32247245 -0.8462082 -1.8984936 -0.59145755 -1.1198217
613 0.5997193 -0.0025075413 0.7825242 0.5024481 0.7514946 -0.68726414 0.088803805 -0.52068585 0.7418433 0.06619798 -0.31129625 0.066338256 -1.0856 -0.24840336 0.7087954 0.6607199 -0.39093181 0.19911464 -0.04666932 -0.62350994 1.3153234 0.7407493 0.31857505 -0.75220525 -0.8315418 0.4719998 0.69133484 1.3603892 0.28510705 0.44828984 0.5293014 -0.39516756 -0.42343467 1.1930679 -0.39867133 -0.73225576 0.203754 0.9124339 0.5939167 -0.13965686 -0.051207215 1.0406624 0.69462097 -0.77641034 0.25412095 -0.17808342 0.44501513 -0.922664 0.5856448 -1.3004929 -1.2061867 0.03665065 0.32746783 1.0192468 1.3847755 2.459529 -1.0034872 0.42838344 -1.1874424 0.30886653 -0.58501047 0.4674833 0.13995892 -0.25036088
1184 1.1329972 0.13523218 -0.6890025 0.69648683 1.6900636 -1.0701165 0.1070461 -0.84178746 -0.49631283 -1.2664753 -1.2183006 -0.14578308 -1.2850133 -0.14575507 -0.21650939 1.6134012 0.9788811 0.10172861 0.41154194 0.14658524 0.8431359 -0.27775806 0.10739506 -1.543977 -0.49241632 0.31887633 -0.67059416 -0.42242607 0.36926508 -0.28210574 1.0236645 -0.37646556 -0.40928894 -0.1129737 0.30909595 -0.5032404 -0.008832147 0.21848153 -0.041169047 0.85985065 -0.41730067 0.66814816 0.4777774 -0.8411829 0.19400336 -0.16257414 -0.9684404 -1.2743703 -0.5116647 -0.10989709 -0.4695064 0.79508823 -0.5431496 0.22394328 1.4695282 0.62543535 -0.29003188 0.2959574 0.24226658 0.9870488 -1.0191207 -0.21612754 -0.113758214 -0.8197743
611 -0.4239893 0.53151256 0.83778244 1.6787872 0.20877229 -1.2649176 1.2382958 -1.2532519 -0.55440736 -0.08229146 0.39454624 -0.2515433 -1.8180768 -0.031676065 0.71835864 0.82524097 -0.4028326 -0.9278982 0.06315309 0.66028005 -0.32844898 1.3855045 -0.3406212 -0.4274468 0.35274312 0.41334325 -0.49717295 0.62066925 0.44687247 -0.5080468 0.040012915 0.05949862 -0.7192615 0.38834807 -0.610265 -0.582672 0.9948269 0.8483886 0.38057286 0.95629996 0.087583184 0.5048552 1.7439139 -0.31642437 0.577866 0.2652671 -0.67469794 0.17457207 0.40937525 -0.19385092 -0.28338623 0.5058354 0.87850606 -0.12597212 -0.50577694 1.4784943 -1.1561319 -0.52911514 -0.19938977 0.876983 0.017528186 -0.8459553 -1.2289134 0.46730068
2414 0.73089314 -0.08139994 -0.19598815 0.6576418 0.7964929 -0.5667032 0.6521507 -1.3184572 -0.87369573 -1.0317128 1.1631615 -0.6521958 -2.0383475 0.41683567 0.45154867 2.3897347 0.13896425 -0.33188045 0.20625174 -0.48428723 -0.6840447 1.1032416 0.5501189 -0.043257777 0.4177316 0.24235453 -0.81144166 -0.22526088 0.32309166 0.067040265 0.145463 -0.19431502 -0.24987666 0.061759893 -0.47379246 0.5049375 0.093887925 0.53092283 -0.009917112 0.6036695 -0.5462445 0.39372188 1.6728472 -0.46116352 -0.012592069 -0.50778264 0.09888603 -0.98307484 1.0344734 -0.42551294 -0.32464233 0.07937643 -0.7562701 1.4580488 1.4582115 0.21593654 -0.101663634 -0.3359579 0.011639709 1.1387112 -0.6362921 -0.7031009 -0.04018846 -1.2333266
1968 -0.21680212 0.22061525 -0.074129224 1.0413307 1.0130615 -0.21007867 0.046019178 -1.2221688 0.13466294 0.55118364 0.16993745 0.33372703 -0.516459 -0.64199954 1.1366376 1.1913191 0.28601965 -0.3054805 0.8867754 -0.22152072 -0.12746452 1.5296714 0.40217304 -0.90379393 0.73920166 0.06184525 0.20496029 -0.11866691 -0.42534924 -0.45670256 0.6600889 -1.0594832 1.2310205 1.5099916 -0.7926445 0.60511374 1.7010263 0.53665286 -0.7379301 -0.6377057 0.42775577 -0.40754354 0.9264974 -0.16199473 0.060358964 0.13357115 0.18141876 -0.16859548 0.43676805 -0.1889105 -1.5255659 1.0285765 0.8278324 1.7584244 0.7854101 0.93301475 -0.35764688 -0.06666738 -0.47169825 0.64417136 0.052810013 -0.0081856055 -0.06298059 -0.9283706
787 0.5421712 0.19372885 0.41834095 1.0273613 0.28245154 -0.9868504 0.92954165 -1.6942886 0.41344556 0.27731004 0.30637494 0.46235937 -1.6205661 -0.85439104 0.9257029 1.4086761 -0.3172723 -0.45336992 -0.019003699 0.44979328 -0.30351606 0.7105792 -0.34871638 -0.6479099 -0.48941252 -0.4262874 -0.59045714 0.26198354 1.6921985 -0.0023796586 0.85236555 -0.02470201 -0.34265438 0.9176388 0.25876924 -1.389007 0.0238571 -1.3604211 0.11529035 0.5463036 -0.73625106 0.56234354 1.1761394 -0.16151793 0.801645 -1.286 -0.029192768 -0.24377443 0.9710425 0.1847648 -0.83276296 -0.8333522 -0.8770209 0.61648977 -0.32782492 1.1874043 -0.8798422 -0.6143181 -0.059842713 -0.1461658 0.2759916 -0.47031692 0.8253604 -0.0041702804
1695 0.48937833 0.40219915 0.9319174 0.6620549 1.3577583 -1.301735 0.596495 -0.6521509 -0.09915389 -0.68756706 0.3174323 0.25348398 -0.30579987 -0.76916736 0.8529289 1.9616827 1.0622087 -0.13720663 0.51965886 0.545015 0.9801937 -0.07857426 0.30685878 -0.09322667 0.99061984 1.2537819 -0.15626249 0.47402418 0.3515642 0.30455422 0.44978806 -0.018804194 -0.3670321 0.27692625 -0.7471658 -1.363003 0.24171914 0.8878166 -0.26291075 -0.8025867 0.2938931 0.31376925 0.7575361 -0.28100488 0.9594977 -0.64356315 -1.0322866 -0.6775197 -0.21324898 -0.72184867 -0.4472011 1.2539498 0.41126835 0.25660986 -0.5480976 0.9353 0.728847 0.80414146 -0.26504058 -0.1980724 -0.77496934 -0.037934408 -0.35534093 -0.019850705
1054 0.81090087 -0.5466514 0.7237054 0.017390652 1.9093326 0.13274482 -0.21573308 -0.9670474 -0.53860074 -0.31208315 -0.6961399 0.79128885 -0.6308068 -0.1713781 -0.14762934 2.1135597 -0.37205017 -0.3456473 -0.8809225 0.8230694 0.55060273 1.0075829 -0.523717 -1.2407118 0.07069017 0.24744053 -1.2381613 -0.95408523 0.9727116 0.15000674 -0.61084354 -0.18300584 0.6766428 1.2502644 0.101084575 -0.4837959 0.5691827 -0.23858799 -0.45318362 0.865545 0.46994916 0.10055712 0.93198454 -1.2293978 0.45317173 -1.1525985 0.46065465 -0.28370973 -0.59849113 -1.3704255 -0.28739938 -0.52569145 0.25817236 0.32055274 0.41170818 0.39148775 -1.5649316 -0.492551 -0.4791849 0.12052551 -0.9769882 -0.490558 -1.2056448 0.26689282
615 0.7295541 -0.7781155 1.0120015 1.2241687 1.4383467 -0.2974702 0.7826276 -1.8611374 -1.1719058 -0.74841934 -0.35784736 -0.6339945 -1.4341196 -0.78723156 0.8742174 1.3552886 -0.6833126 0.64249235 0.76644945 0.5371028 0.64203936 0.87138283 -0.5234729 -0.2767133 -0.5691023 0.4393086 0.0037355432 0.13989061 0.62090814 0.25147837 -0.010425321 -0.13127473 1.314659 0.27871165 0.21531388 -1.3375559 -0.09168831 0.5465885 -0.6633359 0.060355414 -0.5031212 0.2198327 0.18860255 0.17394853 0.61568296 -0.1532262 0.5130635 -0.6945889 -1.1685069 -0.326418 -0.7414179 0.63981473 0.8020962 -0.3258671 -0.056921612 0.48716983 0.39707288 -0.6021169 0.08049446 -0.29364467 -0.28837338 -0.6483116 0.6900912 -1.1318754
984 -0.64517236 -0.90983737 -0.39951468 1.4167168 0.65666676 -0.010950192 0.58691466 -0.55152935 0.25686738 0.55110496 0.033880178 0.5941379 -1.4014028 -0.4010193 0.49400783 0.9920868 0.77456254 -0.5359791 -0.044095144 0.81306803 0.24059157 1.0014427 0.37815884 -1.2958874 0.14326161 0.33293703 -0.8041206 0.117981546 0.47696793 -0.108368814 -0.21720792 0.2894104 0.57494736 0.84741336 -1.0058185 -1.3964472 0.75506717 -0.48629278 -0.4847068 -0.2083173 -0.95514596 0.57149327 0.963102 -0.59049755 -0.6330023 -0.12272859 -0.5902248 -1.175198 0.0628054 -1.1096301 0.065080814 -0.86748433 0.29334024 0.14695911 1.0338337 1.2256787 0.099713735 0.3573866 -0.27233472 1.2709562 -0.18485184 -0.6125747 -1.5311968 0.37193933
399 -0.19765536 0.034758188 0.9933322 -0.09959036 0.77814454 -1.4796579 -0.4763116 -2.0484955 -0.0678633 -0.09530519 0.35536346 -0.10351858 -0.6467946 0.024847094 0.10998612 0.9900802 0.20508139 0.28060865 0.9043687 -0.88929385 0.8237093 0.800676 0.17937702 -0.58858716 -0.0956316 -0.03918094 -0.5164019 -0.53262436 0.7270865 -0.4109687 0.15737452 0.1440764 -0.8909479 1.0898997 0.1273366 0.06275701 0.7530237 -0.5180363 -1.3113492 -0.10802347 -0.8619126 0.001988542 1.5288175 -0.7747432 -0.116168246 -0.9722773 -0.55486304 -1.6255921 0.17930537 0.021390649 0.4523794 -0.005553739 -0.5860494 0.045165416 -0.006661816 0.84206504 -1.2094983 0.38888308 -0.9459408 0.5545478 0.06945168 0.7431195 -0.30540693 -1.2356527
740 0.6143319 -0.7665292 0.93959564 0.662114 0.76249886 -0.24396285 -0.02784572 -0.8224203 -0.4372999 -0.69722986 0.19528933 -0.35831425 -1.1593663 -1.2851876 -0.16724351 1.3174586 -0.011783878 0.025638096 0.6723406 0.18057883 1.2201786 0.24134812 -0.7794996 -1.028239 -1.2647076 -0.018088551 -0.40819505 -0.43058994 0.37110823 0.17549632 1.4180387 -0.3476331 1.3723013 -0.19499935 -0.40114024 -0.4161076 0.70609623 -0.10860069 -0.6268896 0.18736658 0.8708114 -0.41224226 1.3010874 -0.22917238 -0.11799526 -0.8586594 -0.7792013 -0.81073177 0.54234266 -0.23576069 -1.1462853 0.756675 -0.579593 1.3025835 0.8522041 0.081383064 -0.060804844 0.3306631 -0.831821 -0.23627298 0.5992064 0.8704525 -1.3459703 -0.42711246
272 0.6476177 -0.04894994 0.9636855 0.8498498 1.3613957 -0.34765533 -0.22850542 -0.8934787 -0.16568373 -0.28851488 -0.3054243 -0.45466456 -0.7314214 -0.39997464 1.2982451 1.239356 1.0928552 -0.7701872 -0.45300803 0.37541178 0.30437896 0.97572213 -0.92459136 -0.54881674 -0.98217237 1.1498197 -0.54387844 -0.29665062 0.9409251 0.09923546 -0.20012435 -0.5996651 0.2930271 1.41158 -1.5878139 0.15284495 -0.044209074 -0.15746859 -0.007991243 0.2589292 -0.73810375 0.8521157 -0.1362418 0.18323082 0.7135318 -1.0293554 -0.68057317 -0.5377127 -0.3217434 -1.2738235 -0.14045797 0.10359871 0.26041403 1.2366375 1.1664383 0.5422628 0.043081284 0.71278024 -0.48649323 -0.47349054 -1.3641489 0.021088153 -0.5768627 -0.040433414
2408 -0.34736565 -0.708026 0.26334843 1.6888472 -0.47085074 -1.5568 0.8266668 -0.5378088 -0.5122062 -0.16850342 0.09974757 0.59802014 -1.5224267 -0.73262656 -0.38509843 0.6835217 -0.70277536 -0.7505755 1.2946643 0.64806044 -0.31567714 -0.009173936 0.27389285 -1.0924037 0.13573149 0.15840802 -0.44421363 -0.2035805 0.026050854 -0.33315104 0.4420494 -0.6934198 1.0899329 1.5409825 0.2562123 -0.8358985 1.332379 -0.8676672 -0.8728948 -0.7194258 -0.32476464 0.6388745 0.47086975 -0.61260194 0.21101445 -0.22706348 -0.4487348 0.3283416 0.3314133 -1.1707715 -0.7703428 1.0309602 -1.0897403 0.6217552 0.38486725 0.4066766 0.10151857 -0.5996738 0.102995545 0.9499028 -0.9374017 0.025908519 0.4341649 -0.33862376
661 0.26227006 -0.30059978 0.04394564 1.3753381 0.589285 -1.209549 0.38583866 -0.8286874 -0.49788108 0.73216 0.13310905 -0.3874159 0.17793772 -0.2393607 0.93604076 1.6003048 0.3648786 -0.77820575 0.7372187 0.79303545 1.0328068 0.9253559 -0.38955 -0.94166595 -0.33692554 1.9653298 -1.4599311 0.85059005 0.41608995 -0.114187256 0.06131037 -0.90986663 0.34072798 0.9737402 -0.12815021 0.10644047 0.13917914 -0.06876465 -0.99139994 0.114232995 0.3392407 1.1269258 -0.032409653 0.3136287 0.9631452 -0.3955603 -0.029605301 -0.057593964 -0.032091096 0.09235589 0.97178787 0.5424997 0.17543162 -0.41068047 0.53697103 1.1101294 0.34259325 0.62493604 -0.8597448 1.3970667 -1.3041074 -0.6235005 -0.08645748 -0.28406703
2267 0.41306546 -0.32198197 0.21745571 0.39576766 0.54903513 -1.0619367 0.22465086 -2.0261552 -0.050002836 -0.6649488 0.5386199 -0.1459738 -0.55319643 -1.3007935 0.14944227 1.7196966 0.116517425 -0.1509255 0.04627119 -0.09176438 -0.18188557 -0.4135741 0.57722384 -0.6110844 0.27790684 -0.29841432 -0.45586294 -0.8898354 1.5118599 0.60102606 0.32435507 0.49845824 -0.47858727 0.60654575 -0.124215655 -0.14297818 0.42039883 -0.3851824 0.35527155 0.42410636 0.3199776 0.40347028 0.71339524 0.18913831 0.5751838 0.19917072 -0.8041162 -0.40468132 0.4840274 -2.058011 -1.2180078 0.9956571 0.8033459 -0.05016979 0.9940106 1.1993527 -0.8010113 -0.07932564 -1.0861311 0.26874894 -0.4563401 -0.7776918 -0.4581616 -0.42260203
649 0.59923047 -0.079506636 1.2169354 0.9266814 0.10157661 0.020668168 1.1751772 -1.2925239 -0.38646746 -0.4490081 -0.4354226 0.46681988 -1.4149383 -0.79885703 0.61862206 1.1766535 0.74153364 -0.5710733 0.032694537 0.72666174 0.26061514 0.059509527 0.84242135 0.07640688 -0.84522676 -0.62149763 -1.0180244 -0.68231523 0.54467326 -0.97066617 0.9336086 0.065859266 -0.05685226 0.3243379 -0.6275602 -1.3513519 1.3179584 -0.14796117 -0.20458359 -0.55531955 0.91247576 0.6116066 1.2786433 -0.4225512 0.6705986 -1.334495 0.61230105 -0.0034164244 0.1990722 -0.49100602 0.44000033 -0.899099 0.34216464 -0.050870217 -0.3199367 1.7323956 -0.36292663 0.49695322 -0.045107055 1.3087786 -0.4325114 -0.5053014 -0.73752916 0.78238976
2608 0.1766233 -0.3835327 0.24041355 0.22256118 0.92528486 -0.68311334 0.6167245 -0.29536757 0.5042521 0.3742207 0.16795884 0.7346863 -0.9764856 -1.5068341 0.9649453 1.5860935 0.8718521 -0.23523045 -0.23289146 0.48653695 -0.41197094 1.8905023 -0.12880008 0.24522227 0.50936323 0.77666557 -0.17067459 0.28036332 1.5211672 -0.5741744 0.13420986 -0.7150273 0.6967264 0.31798282 -0.5627352 -0.24283977 0.16280958 0.42347032 -0.034439817 0.41594946 -0.2377172 -0.031648688 1.881787 0.88082033 0.994092 -0.35708353 0.017872378 -0.7757438 -0.66272503 -0.046540122 -1.1933295 -0.20255962 0.5431212 1.090741 1.1091166 0.9991571 -0.98821807 -0.8354084 0.024934333 -0.19919817 -1.2205873 0.52295613 -0.5254927 -0.75241
1260 0.56576973 -0.5758872 0.8653099 0.33450946 0.63270044 -0.96438915 -0.4567519 -0.8281418 1.181035 0.012919042 0.99123037 0.33453578 -1.9099276 -1.0269794 -0.06843827 0.9288591 0.32616535 -0.19883399 0.46451336 -0.3720259 0.58678645 0.116987176 0.09820113 -1.0331188 -0.19014807 -0.007603379 -1.030545 0.5475181 1.2478725 0.20695874 0.23112585 -0.92129946 0.4289328 0.13195598 0.16367893 -1.4743525 0.5211136 -0.018601242 0.21156766 1.4310113 -0.81533945 -0.63723624 1.3830061 -0.61119634 1.240838 -0.5772999 0.32073084 -0.98364526 -0.24482465 0.3938135 -1.2969631 0.8378472 -0.5131377 0.335594 1.2112077 1.4584123 -0.78396964 0.31870103 -1.0258988 -0.13999407 0.46033126 0.25202343 -0.5393842 -0.673247
543 -0.29304042 0.5937796 0.6749035 -0.22140448 -0.5335674 -0.4122562 0.7267638 -1.4206451 0.5238616 -0.295085 0.6204036 -0.18900163 -1.4917136 0.04560378 0.7545197 1.6070141 0.66704 -0.8123834 0.36427352 1.5090814 0.9705207 1.0616686 0.077967234 -0.9303426 0.067821234 -0.302693 -0.6658872 0.44102904 0.9127117 0.30878747 0.53780067 -0.16584726 -0.117257826 0.789842 0.1162888 -0.92225444 1.9767077 0.7052399 -0.016332263 0.88251257 -0.23368756 0.11503592 0.8842936 0.2761297 0.1490764 -1.0136065 -0.9746384 -0.018410789 -0.114389814 0.34251258 0.074403994 -0.107386194 -1.1176953 -1.2240752 0.6955204 1.1278718 -0.6270857 0.112183325 -0.8787544 0.5809959 0.009769822 -0.36410186 0.23857747 -0.6007188
1623 -0.07699373 0.70449466 1.4748349 0.28434902 0.7443904 -1.6268556 0.013204888 -1.1206478 -1.0893694 0.878094 0.9620511 -0.17593166 -1.9258846 -0.57944304 0.44493452 1.8116146 1.212747 -0.08544459 0.036317647 0.13286681 -0.19002369 0.30273128 0.015141392 0.090815425 -0.7047489 0.076443404 -0.2604641 0.31503347 -0.028936185 -0.3690192 0.6857193 -0.42386815 -0.29413015 0.357337 -0.1358739 0.28340578 1.0682052 0.023269052 -0.83411956 -0.37830082 0.6988037 0.69345325 1.8976074 -0.44393024 -0.25443673 -0.4993272 0.66496474 -1.0468589 -0.5566969 -1.0483446 0.28708556 -0.14068691 0.64717007 -0.31563917 1.577568 -0.17924973 0.70382434 -0.033818185 0.051967762 -0.13845181 0.32969862 0.5405475 -1.1048379 -0.99966806
1257 1.0031589 -0.54404545 0.080258936 0.8904112 0.4017837 -1.5102783 1.0570533 -0.3909967 -0.040237878 -0.163646 -0.5331826 -0.12802061 -0.7568485 -0.38795468 -0.2888759 2.2608566 1.0263177 -0.35872522 0.86871547 -0.78642935 1.2529358 0.66621166 -0.45015097 -1.8996996 0.06185363 0.30121037 -0.7911362 -0.16552886 0.8751428 -0.30771133 -0.1970497 0.5295656 0.03194402 -0.12617195 0.30312976 -0.73113185 0.6412144 0.13144079 -1.1805665 0.35751706 0.9524061 -0.431018 0.8778451 0.7493448 0.4080462 -0.9656614 0.23893613 -0.5148145 0.66933596 -0.40230432 0.27633092 -0.4726865 0.12448695 0.31538773 1.2671181 0.17794764 -0.03448976 0.3406858 -1.288533 -0.03431054 -0.9034668 -0.27336964 -0.20127669 -0.16637486
513 0.41727117 0.12969057 0.13462299 -0.19049722 0.8012364 -0.83703923 0.9825291 -0.6159671 0.21761627 0.278944 -0.4554001 0.803143 -0.94982326 0.72226256 0.99005425 0.70614326 0.25315735 -0.65956414 0.44466648 0.43617335 0.26956278 -0.21428423 -0.41985455 0.060982037 -0.60882145 0.8628452 -0.020319182 0.29547837 1.1661965 -0.6864766 1.0535693 -0.2587439 -0.24432184 1.2898344 -0.18610865 -0.59931624 1.2690278 0.5473116 -0.71824 0.8146045 -0.06265376 0.24808255 0.85330456 -0.390798 0.98831683 -1.28323 0.46198037 -0.96098095 -0.99005026 -0.65877545 0.06689999 -0.043184746 0.38854805 -0.24788171 1.1186783 1.6492654 -0.012443473 1.092212 -0.89902717 0.21482685 -0.63160425 0.56122136 0.5820942 0.19525714
198 0.28405803 0.5683496 0.44917467 1.1586608 0.50167906 -0.56076443 1.2764542 -0.59883004 -0.18106437 -0.26158863 0.3606049 0.14329605 -1.5478818 -1.0736954 0.8120101 -0.036792245 -0.59253085 -0.77627605 -0.447621 -0.42443916 -0.061864153 1.5863732 0.16906606 -0.684493 0.25096786 1.0023464 0.035224393 -0.028211255 0.6249449 -0.43543133 0.9983868 0.42943442 -0.99846596 -0.022126712 0.799634 -0.57799923 0.9421519 0.15835635 -0.98068774 0.30410174 -0.32941502 1.5326606 0.42275044 -0.38189656 -0.31032258 0.17288607 -0.42462465 -1.4483651 -0.6654749 -1.012939 -0.9329197 -0.18112153 -0.002895693 0.64702857 0.316083 1.1748428 0.45957056 -0.5451767 -0.7319644 0.76722986 -1.2798946 0.39522448 -0.8743844 0.1344238
1027 0.047378052 -0.72818965 0.67544687 0.5343295 0.49043506 0.49819943 0.6199011 -0.7590615 -0.2635544 -0.19640115 -0.3623547 0.10016573 -0.87753165 -0.41328046 -0.42807108 0.63808024 0.5885249 0.40398508 -0.033451602 0.2863772 -0.37249923 1.0886414 0.37594792 -0.2008249 0.019642496 0.7866509 -0.054725435 -0.93819714 0.9373215 -0.047154248 0.50779533 -0.14705531 0.37493542 1.6938466 0.29173133 -0.3191453 1.1304367 -0.3340575 -1.3644187 0.55740774 -0.26526508 0.9449501 1.334357 -0.648592 0.34835362 -1.5275881 -1.1185501 -0.5176135 0.4740876 -1.3911968 -0.54846984 0.754536 0.8113113 1.3831419 -1.0742931 1.2267714 -0.6635418 0.7493014 -0.4303132 0.1749022 0.028678456 -0.6229529 0.080234595 -0.07046656
219 0.43912047 0.69449425 0.37850767 0.8609293 0.11222864 -1.3290267 1.1530801 -1.7363782 -0.0731865 0.14066364 1.438536 -0.63590896 -0.80024016 -0.83372617 -0.16425169 1.1991731 0.27106112 -1.1494951 0.47938263 0.8421636 0.30626133 0.6532584 0.25250363 -0.26405963 0.1578115 1.5954095 0.5672597 0.23424855 0.9167396 -0.21963862 1.2620918 0.26983252 -0.29064658 0.57210374 -0.16617848 -1.2085184 0.9442717 -0.9627884 -0.83156693 0.37235418 0.13152944 0.5486763 0.39597568 -0.1052311 0.28349516 -0.2313886 0.6674332 0.014519349 -0.053282067 0.17620069 -0.017613687 0.63739413 -0.0020418738 -0.36354202 0.9194228 0.33138505 -1.0855635 -0.0074585383 0.36518255 0.8088045 -1.3714335 -0.17816806 -0.29572284 -0.91439855
1189 -0.60593 0.08753085 0.67497015 0.8315137 0.72312725 -1.0909181 0.6229172 -1.4481673 -0.79510605 0.4619028 -0.11015824 0.63359386 -0.7794177 -0.44301552 -0.30954745 0.4068304 -0.2173409 0.31325907 0.108649865 0.88406396 0.42062008 -0.23293833 -0.5538201 -1.3002816 -0.70716316 -0.26183423 -1.2998636 0.19110264 0.88141453 0.043311767 1.2120967 0.021908088 0.037351474 0.679459 0.14344358 -0.66983956 1.0132773 0.7415276 -1.0433245 0.18650849 0.20386371 0.558822 0.16061625 -0.6963083 -0.44668567 0.3445491 0.006497198 -1.7956378 0.19151665 -0.79280365 -0.6828658 1.1728252 -0.6605977 1.043353 -0.5400043 1.0372322 -0.501363 0.40055057 -0.014969719 -0.014062255 0.1361315 -1.0830287 -0.5294872 -0.05326487
1855 -0.8878914 0.2175318 -0.3339295 1.2132893 1.0915916 -0.3835901 -0.3941474 -1.3273002 -0.44016916 0.52229136 0.8555649 -0.49625498 -1.1747526 -1.4068089 -0.23810703 1.2533946 -0.073763624 -0.34924904 0.6290339 -0.24752784 1.3444053 0.84139264 -0.33973572 -0.6391956 -0.5343733 -0.20708095 -0.8720862 0.7174614 -0.042673424 1.0614282 0.28385833 -0.65082693 0.4209813 0.80104995 -0.50821847 -0.66017556 0.40090296 0.82344013 -0.8606562 -0.5280393 -1.3432072 0.83502454 0.85608304 0.19828074 1.0822234 -1.0104951 -0.2555422 -0.46080825 0.6046525 -0.75017136 0.6548667 0.13596739 0.73831373 0.75679445 -0.32014185 0.8712959 0.5356435 -0.033760116 0.5231206 0.22064538 -0.56702095 0.34035802 0.21420388 -0.22372147
211 -0.4866019 -0.38876656 0.2682499 0.30963627 0.15983365 -0.5697492 0.99234444 -1.0972697 1.3819132 -0.3416388 0.15750639 0.2160228 0.13659653 -0.667789 0.23470145 1.7715237 -0.179346 0.13526145 -0.39770022 -0.3848984 0.6524567 0.5707851 -0.10757004 -1.0633065 -0.6507575 -0.43931264 -0.35738128 0.46727467 0.06978023 0.79263806 0.4993127 -0.05737948 0.3795345 1.279119 -0.6792455 -0.46588707 0.80384374 0.30900493 0.20296988 0.520928 0.24204613 0.20838068 1.6778927 -0.8748695 0.5595658 -1.7580863 0.6883114 -0.26824933 -0.07127565 -0.13215774 -0.84880203 -1.311489 -0.4192841 0.4293465 0.111564964 0.5014199 -0.36738044 -0.79320806 -0.8349987 1.1835619 -0.21806957 0.24682158 -1.2473253 -1.1754827
406 -0.24243875 -0.53858536 -0.23911867 -0.39155865 0.5135391 -0.9804903 1.06446 -1.6484839 -0.7213408 -0.15208298 0.38932633 -0.50795627 -0.99483943 -0.8895369 0.9865261 1.6651857 0.5763302 0.12936497 1.4955422 0.43942836 0.20238586 1.4616294 -0.4783871 -0.74870175 0.22667326 -0.8414275 -1.2263719 -0.2262678 0.49324778 0.38687855 1.5226806 0.19262362 -0.5585715 0.80895567 -0.46274325 -0.49067324 0.0125903515 0.051965788 -0.27465594 0.43726644 -0.27589804 0.18206693 1.2010385 -0.6596087 -0.49358457 -1.125345 -0.18678431 0.14425091 1.0898701 -0.2972803 0.092925884 -0.3615445 -0.52034825 -0.44643813 0.37536982 0.14412975 0.79621744 0.6243185 -0.6379152 1.1080716 -0.8265394 -0.006375514 -0.8613476 -0.47301686
2783 -0.34788463 0.49970242 0.19551007 0.40821558 0.9675529 -0.6876621 0.1060969 -0.4853493 -0.67909926 0.1098824 -0.9928383 -0.1311182 -1.5579368 -1.0948104 0.8623667 1.2387954 0.8731409 0.07225286 -0.12199522 0.73939353 0.10572287 0.64052963 0.11197887 -0.6193391 -0.66694736 -0.36096314 -0.7801542 -0.13511172 -0.5824663 0.10173183 0.34401292 -0.45977083 0.17458199 0.7057618 -0.59987515 -1.3126018 0.7113158 -0.51618385 -1.3932799 -0.09034663 1.2501942 0.45013797 -0.20496985 -0.15041237 -0.39832002 -1.3075342 0.75872153 -0.8111448 -1.13163 -1.1975201 0.06572689 0.6839264 0.6800452 0.49620083 0.62604994 0.53952587 0.677866 0.34416676 0.06476989 0.7442772 -1.3394153 -0.7665278 0.45333213 -0.9620234
916 -0.3880712 -0.5216971 -0.34713286 0.4539703 0.30194733 0.26507613 -0.12284646 -1.2335491 -0.07414634 0.13397063 -1.0115527 -1.3990041 -1.054573 -0.37128848 0.50093895 1.4643835 0.19017288 -0.13326222 0.501008 -0.3959665 0.13028029 0.98787475 0.40124294 0.16365042 -0.3833975 0.45019218 -0.6222353 -0.11525048 0.29815882 -0.64320344 1.0826389 -1.1356163 0.9220796 0.6809772 -0.5487523 -0.30047444 0.9063886 0.15184861 -1.1823851 0.86914164 0.92174584 0.6433934 0.7188047 -1.1745449 -0.017626343 -1.0416778 0.02058005 -0.8388498 -0.026840543 -0.0045971107 -0.74338204 1.6050371 0.33435994 -0.4405084 0.32451537 2.2952766 -0.06036017 -0.35886186 0.3379711 0.31222403 0.273148 -0.98446655 -0.51149434 0.32985255
530 -0.2807281 -0.057373483 -0.35664612 0.027073622 0.496188 0.22231145 -0.16069156 -1.8783944 0.723146 -0.18369134 -0.07324713 -0.3174039 -1.103546 -0.5229276 0.15716371 0.996633 1.0535244 0.45035797 -0.057193693 0.004609957 0.8751845 0.56864154 -0.5124652 -1.1886584 -0.80489385 0.25200412 -1.0763164 -0.48904666 1.6359634 -0.2975949 1.8212285 -0.6798176 -0.4826421 0.17228948 0.09353586 -0.33951008 0.4026423 -0.8489504 -1.229524 0.97406733 0.15948997 0.84797007 0.38541406 -0.6868654 0.7367576 -0.6605026 0.84598947 -1.206327 -0.7399114 -0.5414409 0.042790275 -0.2595571 0.447886 0.7672072 0.6321124 0.95467234 -0.4595351 -0.47555885 -1.3610804 -0.24413115 0.13757369 -0.81359845 -1.2762522 -0.041932218
205 0.7946929 0.008823927 1.0971798 0.14520231 0.773369 -1.0054955 -0.48492393 -1.8796188 -0.42955673 0.3688125 1.124215 0.05509495 -0.8140194 0.013505311 1.1031436 0.6231205 0.92160463 -0.5521673 0.5079127 -0.53146535 0.95022213 1.0201195 -0.517939 -0.3800015 -0.4480675 0.05946237 -1.0179942 0.91166455 0.17710878 0.030670531 1.3472966 -0.23606165 0.37495154 0.5814259 -1.3944159 -1.0236888 0.80040777 -0.83638567 -0.15169282 -0.25757888 0.7921065 0.16730598 0.32637212 -1.0662125 0.64134234 -1.1187266 0.40468448 -0.70032054 1.081225 -0.33166263 0.69225025 0.82595235 -0.6318513 -0.46799004 -0.41616914 1.0873437 0.79741436 0.37392744 -0.24965028 0.1843979 -0.65298325 -0.70420283 0.034688883 -1.2882018
249 -0.31592923 -0.43499836 0.82956463 1.0543463 0.5203944 -1.2337462 1.6931728 -1.4291823 0.619795 0.64475423 0.8344658 -0.13302374 -1.2289629 -1.0122484 1.0661925 1.0239543 0.79087806 -0.08114965 0.6827334 -0.45629394 -0.07277796 0.8360022 -0.5503262 -0.03939047 -0.49183583 0.6797965 -0.7404793 0.6213432 0.810163 0.3954181 -0.5046586 0.5979503 0.559277 0.74839973 -0.107337765 -0.053734284 0.5346945 -0.2034327 -0.6959763 0.864912 0.47881594 0.75618756 0.17709006 -0.33509395 -1.0395554 -0.89517975 -1.0413349 0.27159563 -0.06509639 -1.1045268 0.01875962 -0.30719456 -0.19989502 -0.15517591 -0.17341919 -0.0072477907 -1.4061323 0.13288145 -1.4900504 0.4688591 -1.1055124 -0.31055355 -0.4899535 -1.1617417
1252 -0.36632517 -0.4420111 -0.2887034 1.2074177 0.42270395 -0.43465137 0.646909 -1.4082949 -0.16320857 0.2149473 -1.2639174 -0.5599157 -1.1005638 -1.685051 -0.60596824 0.19681 0.5794683 -0.9355055 -0.09571624 0.95040023 0.9749613 0.10623931 0.8301125 -1.5395637 -0.3017082 0.9035527 -0.9441304 0.6040715 0.21986543 0.015873788 0.5977107 -1.0360376 -0.37881044 0.5328333 -0.12688586 -1.2540325 1.0941935 -0.48634344 -0.78933036 0.23646532 1.0492567 -0.19641517 0.6728605 0.57570374 1.1755038 -0.8887171 -0.23247427 -0.91978437 -0.35400566 -0.8680196 -1.333331 0.43773943 0.1269282 0.5287812 -0.7979366 0.80452716 -0.3740141 -0.53362817 -0.09350319 0.41127583 -0.22252636 -0.057671055 -0.06708544 -0.10880477
927 0.33698842 0.05774762 1.0667777 0.62652946 1.1294503 -0.91155285 0.7104936 -0.5318353 -0.49204347 -0.56454974 0.84218395 0.21418457 -0.948498 -0.065326735 0.7060644 0.7175683 0.98814595 -0.59283674 0.71733576 -0.21493107 0.59014404 1.2183131 -0.6819603 -0.4727733 0.8739989 -0.7710707 -1.327712 0.46514073 0.45943898 0.7321272 1.05087 0.3876487 0.29722995 1.3293203 0.55498266 -0.35751328 0.67704237 0.4554685 -0.012158964 0.7850109 -0.51744455 1.5429244 0.8854399 0.21850486 -0.46010715 -1.100732 0.024621215 0.107354306 -0.4366829 -0.48590776 0.515878 1.0751419 -0.74538517 0.6873659 0.52900314 0.27705905 -0.0034353419 -0.9809263 -0.056800794 0.9681925 -0.020327287 -1.2757183 -0.6591418 -0.033763856
971 0.19460125 -0.87046367 0.5447746 0.7439819 -0.066286065 0.0130255725 0.12738575 -0.78212875 1.0696807 0.3370583 -0.29120868 0.09440935 -1.0324539 -0.82671344 -0.77134985 1.8885722 -1.135493 -0.06464538 -0.2574589 0.03147728 -0.07761788 -0.01683662 -0.103884764 -1.690193 0.27962738 0.22420116 -0.7389046 -0.4666153 1.1854202 -0.5884778 0.8829568 -0.7451992 0.36457768 1.4167321 -0.4941607 -0.24865809 -0.21532226 0.39988545 -0.64645547 0.18274818 -0.09001876 -0.507608 1.9583308 -0.34782538 1.0546492 -0.23917598 -0.19801027 -0.22493726 -0.34454986 -0.31250307 -0.9579103 1.1416222 0.5023901 0.42788002 0.5298156 1.2994711 0.37424004 0.8186721 0.2226017 0.4455662 -1.4275085 -0.56257117 -0.72524756 -0.23069769
1604 0.5629309 0.37735116 0.7042496 1.2656729 -0.43602267 -1.4028596 0.20502979 -0.7998466 -0.086101234 -0.52732146 -0.06236511 1.0498521 -0.41090086 0.13160117 1.7580922 1.2834284 0.4900512 1.3993603 -0.55944353 -0.55885404 0.64939225 1.4018892 0.25505814 -1.2580785 0.40652043 -0.038216263 -0.74174994 0.23742434 1.5814797 -0.031104758 0.045645066 -0.12031651 0.04626296 0.16627495 1.0734444 -0.2810304 1.0600605 0.36949325 -0.17110825 0.58695835 0.7179329 0.7582451 1.3448485 -0.31733897 0.2815837 -1.3567753 -0.53115195 -0.02199515 0.09398106 0.17651431 0.21665636 0.60244876 -0.12064212 -0.17305844 0.5571985 1.1274552 -0.627628 0.41214383 -0.49823448 0.5918792 -1.3710864 0.79074234 -0.1494076 -0.7774445
1292 -0.17397891 0.4894904 0.5692077 0.47562873 0.47624806 -1.2477095 0.08801586 -1.5069361 -0.32820755 -0.9403255 1.0403118 -0.1132373 -0.4284868 0.19005543 0.36159423 0.51991105 0.13202088 -0.3257534 0.33893353 0.90358496 0.9562417 1.2466513 -0.21372785 -0.64347017 -1.308307 1.0942502 -0.06495683 -0.16575103 1.1721215 -0.076587886 0.36702985 -0.3966302 1.0663748 0.051993396 0.5660765 -0.1652946 -0.21020322 -0.10983654 -0.8020958 0.25385162 -0.16600443 1.0887414 1.0606527 -0.65614957 0.33156806 -1.184271 0.27309346 -1.1317577 -0.54475063 -1.6810826 -1.2368786 -0.2829231 -0.28369147 0.88806355 -0.28619537 0.030983903 -0.81820893 0.86974615 -1.0840577 0.51145345 0.06317902 0.7713231 -0.81226 -0.051205423
2538 0.21697405 0.44347233 0.2656958 0.4705913 1.4936962 -0.7537223 0.8316075 -1.6897961 0.33157247 -0.88535094 0.6647884 -0.25597185 -1.4776258 -0.35376674 0.75552356 0.73655826 -0.01458597 -0.43650073 -0.37100354 -0.4496307 -0.6844169 0.18509442 0.8525647 -0.94178826 -0.7864383 -0.16485314 -0.040678877 0.16129006 0.46148923 -0.6066751 0.8936805 -1.1928382 0.017980274 1.3745618 -0.42587116 -0.08111213 1.101872 1.4968978 -0.12591642 0.44523096 0.16719657 0.6486745 1.3529177 -0.8816397 0.98346597 -0.2554369 0.6402026 -0.60341734 0.19992433 -0.02258944 -1.352838 -0.6227525 -0.5366213 0.08211186 -0.4849535 0.93123174 0.7358972 -0.63335705 -1.3799748 -0.505752 -0.2984857 -0.33905846 0.13703686 0.021130087
1734 0.3994996 -0.107468314 -0.28787455 0.19465597 0.89073646 -0.824921 1.4562197 -1.2034229 -0.8755982 0.5520437 0.11258409 -0.65495956 -2.01022 -0.7496072 0.68752736 0.9701812 0.95832443 0.21232417 0.3414471 0.7975504 0.38898873 1.2112534 -0.7965994 0.24075654 -0.37473953 0.73175114 -0.3416907 -0.48718992 -0.48644346 0.2323067 0.5241183 -1.1074883 0.8404899 1.4613192 -0.46613312 -0.84166944 -0.02712637 0.5748404 -1.163848 -0.094632424 0.6268478 -0.32213235 0.5902392 -0.4815447 0.09111437 -0.9779219 0.1601228 -0.6058174 0.5550668 -0.33501932 0.33877692 -0.39418894 0.8754193 0.12881842 1.1638724 -0.25786456 -0.6711691 -0.57879716 -0.5512736 1.3325309 -0.49807638 0.28329057 -0.891025 -0.9153044
715 -1.0160621 0.43637195 0.10339661 1.1580093 0.9614504 -1.276602 0.45817077 -0.43692404 0.04868712 0.39905074 -0.17411196 -0.99223614 -1.5022569 -0.7571669 1.083253 0.87738925 -0.3187312 0.22650786 0.19065654 -0.5354254 1.0920725 1.0139731 -0.7419393 -0.9283406 -0.48187938 0.13828024 0.47761488 -0.2652042 1.0828372 0.24520704 0.62038827 -0.39479607 0.63136274 0.2561255 -0.7254442 -0.3112874 1.5342487 0.73952395 -0.06668407 -1.1331043 1.2966015 0.17278083 0.1354021 0.009937137 -0.009938073 -0.18274228 -0.6603739 -0.63941693 -0.544284 -1.0041958 0.65448534 0.93203497 -0.2623407 -0.15630406 0.22083057 1.0140846 -0.23428442 0.26432174 0.37131223 0.82689184 -0.7834824 0.35561478 0.39544317 -0.39339712
1393 -0.6135884 -0.016866121 0.9085416 0.57573736 1.001813 -1.7051743 -0.13632983 -1.6958549 -0.7602267 -0.289737 -0.050070487 0.16979688 -0.5123542 -0.022026308 1.3918366 1.2569149 -0.048609965 0.024835642 -0.48686853 -0.9045118 0.41319832 0.26040787 0.25163627 -0.6457942 -0.771247 0.19708933 -1.4272705 0.7299031 -0.008234137 -0.99145263 1.3939065 0.3974268 0.64784104 0.8720847 -0.2928532 -0.85384053 0.6998834 0.636665 -1.70975 0.042912472 0.58849555 0.8356104 0.02340753 0.08792749 0.1512059 -0.7941611 -0.17509648 -0.15623128 -0.19609594 -0.22260456 -0.08542784 -0.2670577 -0.8951745 -0.36718667 0.5663936 0.41690964 -0.94306296 0.050093427 -0.79240453 -0.8079898 -0.5792256 -0.22753277 -0.23000237 0.051873766
1302 0.7637849 -0.4210312 0.8926819 1.5162418 1.4542794 0.04034446 -0.27164444 -1.4096656 0.16748829 0.9642071 0.0034413747 0.6034413 -1.1182113 -1.2892686 -0.6951249 0.77472514 1.1580598 -0.9127284 0.3585897 0.9161472 -0.011932114 0.49662662 0.6465196 -0.8707791 -0.1797951 0.5868561 -0.018326245 -0.06125229 0.3149738 0.19734393 0.5204604 0.14428301 -0.32133037 1.2240357 -0.13666533 -0.9411228 0.5454388 0.04351155 -0.4146708 -0.35400924 -0.23347074 -0.080176294 0.2286114 0.5259723 0.87069595 -0.8247947 -0.90964234 -0.2406534 -0.6490873 -1.026156 -0.06264315 0.13600694 -0.6682453 -0.7217029 0.124825336 1.7061403 0.22428475 0.015163424 0.17487696 -0.6902798 -0.4033169 0.11268111 -0.949625 -1.24707
1596 1.5320748 -0.6386068 -0.58759975 1.5280483 0.6440989 -0.013633218 -0.27609327 -1.1518573 -0.43365723 -0.09764664 0.0035337983 -0.3989339 -1.0509454 -0.26797423 0.32715085 0.87523407 0.6284034 0.11987015 -0.2752896 0.023924612 0.4805496 1.5262461 1.0052516 -0.50362813 0.029592263 0.09248092 -0.7755573 0.07638454 0.55363864 -0.8253077 0.49010003 -0.14964926 0.87460905 0.8124348 0.54794633 -0.5655226 1.4137682 0.2092079 -0.10678609 -0.33503088 0.5647715 0.47676915 1.1213185 -1.2176722 0.21664716 -1.1373754 -0.7000461 -0.65852916 0.47386834 -0.79811686 0.27860108 -0.3244213 0.08776525 0.16661498 -0.46827176 0.123618916 1.0081482 -0.73327965 0.34938744 1.1182494 -1.2989321 1.0938627 -0.012871818 -0.6232997
520 -0.806012 -0.71326715 0.6627299 1.0337105 0.30326107 -0.33741522 -0.53908455 -1.1499505 0.5379594 -0.65239006 -0.606274 -0.100447714 -1.4995983 -0.6462079 0.598586 1.8261392 -0.06650289 0.37219664 1.056124 0.70253605 -0.40586704 1.1104589 -0.95469415 -0.97440463 0.23689835 -0.2752561 -1.2136012 0.29608613 1.0488993 -0.38258433 -0.043343477 -0.3526016 0.1569786 0.025476743 0.3787253 -0.24179277 0.5618155 0.9086676 0.4973305 0.57364845 0.7432616 -0.4413325 0.68816215 0.17725694 0.20365757 -0.07594854 -0.07077737 -1.0024232 0.81861097 -1.312345 0.01036065 0.12805799 -0.82604873 0.46085578 0.14489514 1.3372946 -0.267827 -0.25348762 -1.0372912 0.4316104 0.24699154 -0.52456146 0.641927 0.14884625
115 0.18020812 0.14237039 0.8957956 1.1844596 1.4061791 -1.255844 0.34064552 -1.37843 -0.527497 -0.72784823 -0.007816036 0.1395049 -0.9296814 -0.9841399 -0.10191901 0.24930781 -0.772282 0.5122168 0.626258 0.3293087 0.06069398 0.09148636 -0.48894042 0.096067995 0.88404495 0.4321925 -1.0161446 -0.88473207 -0.44824275 -0.38041228 0.25757167 -0.34967005 -0.18123361 1.1860285 -0.12425598 -0.31714505 1.2937075 0.115569375 -0.003965675 -0.51671606 0.23308843 0.89154595 0.6069424 -0.1956359 1.0140413 0.054285463 0.5872786 -0.9442364 0.052205995 -0.064536795 -1.1503268 0.3670529 -0.94523686 -0.28713623 0.5515391 1.2851686 -0.70451534 0.7616955 0.24661008 1.1416075 -0.931828 0.46300122 -0.8339561 -0.69585204
112 0.3290096 -0.05810567 0.8664389 1.2297676 1.4608296 -1.150162 0.044604674 -1.4006356 -0.036213227 -0.66687936 -0.4420688 0.032417163 -0.96274567 -1.1884103 0.25684997 0.66287446 -1.0601534 0.7198566 0.88384116 -0.0059466003 0.4079141 0.3046807 -0.11333544 0.05707534 0.6901357 -0.3842616 -0.8809354 -0.878158 -0.27585325 -0.009261096 0.25480732 -0.3510488 -0.21199799 1.1530449 -0.13701831 -0.5345314 1.3473214 0.30075645 -0.048689876 -0.115998894 0.20855808 0.9463585 0.44262663 0.27910888 0.55703646 0.13247451 0.40297818 -0.7734493 0.30830115 -0.088685095 -1.1921244 0.09876394 -1.0768744 0.46338305 0.34806564 0.8037966 -1.0089756 0.8640983 0.52852184 1.393551 -0.9246474 0.012155567 -0.8413197 -0.18017177
1838 0.68828046 1.0185069 -0.37618273 0.04525112 1.0669607 -0.16730605 -0.1779113 -1.5960606 0.5647912 -0.65346617 0.30166525 0.22055669 -0.7607935 -0.80554837 -0.12647063 1.000279 0.65360224 0.059470654 -0.34681132 1.2919068 -0.2382478 0.79186076 0.206195 -0.21843693 -0.9079778 0.8867363 -1.1337427 -0.2395391 1.7593616 -1.1082199 0.2835073 -0.6603191 0.049329765 0.3890235 -0.87438184 -0.36096948 0.8165649 1.3367538 -0.31016225 0.43891832 0.6583661 0.48434523 0.5859175 0.0668273 0.31672007 -1.0059035 -0.4386736 -0.22058463 0.8590286 -0.945162 0.044196736 0.053334285 -0.576662 0.16881445 1.0063114 0.15948412 -0.48851156 -0.4365136 0.064583175 1.2543336 -0.5051666 0.3273894 -1.1773303 -0.73270833
1873 -1.2501379 0.4574777 0.27678302 0.36542493 0.22360447 0.053802945 0.6920769 -1.2532281 0.25464326 -0.6167932 0.42636615 0.29757822 -0.76402277 -1.8621192 1.1814184 1.4198354 0.22488938 0.2536554 -0.21111524 0.21650144 1.1006417 -0.1191465 -0.54706925 -0.8647331 0.22725071 0.6220357 -0.6284025 0.6764762 1.2731302 -1.1156921 0.460438 -0.14187385 0.2990569 1.1148026 -0.7424551 -0.7688655 0.7013216 -0.16609113 -0.8185798 -0.9391548 -0.3096817 0.29274365 0.09949888 -0.16361746 1.1893836 -0.10996901 0.09391428 -0.9596193 0.22484206 0.05707415 -1.1262552 -0.3550529 -0.78862256 0.45370302 1.0960851 0.61635053 0.5016022 -0.15735286 0.27252844 0.4492759 -0.1085671 -0.313058 -0.5077944 -1.4853661
1676 -0.57633406 0.2920849 0.20914239 0.42458394 0.577798 -0.97113526 0.6290218 -0.5561144 0.0003833641 -0.21444835 -0.26683176 -0.18122771 -0.91852695 -0.78137285 0.10810697 0.33674863 0.27538273 -0.16776608 0.76300484 -0.32678464 0.5969104 0.70060045 -0.4410974 -0.17555645 -0.016866744 0.50311905 0.032400075 -0.40590504 0.49071425 0.32208097 1.364908 -1.257369 -0.044270474 0.77654 -0.54878956 0.07433021 0.5167573 0.29844466 -0.42724472 0.5242643 0.582083 0.68053 0.54085046 -0.061404906 0.82287896 -1.5672204 -0.3539356 0.47704872 0.32724738 -0.23547351 -1.3533206 -0.018894905 -0.641171 0.1564666 0.05184741 0.74364674 -0.33126587 0.16135164 0.6059796 0.12627542 -0.8439026 0.18344168 0.452001 -0.28431997
911 0.5919556 0.06613982 0.6333391 0.45489946 1.3915764 -1.1184088 0.98266774 -0.75606406 -0.6808008 0.3303065 0.6333489 0.07342711 -1.45075 -0.96040547 0.2760749 1.1470743 0.9832721 0.8179245 -1.1246248 0.6799704 -0.60911244 1.0555959 0.61733735 -0.67306745 -0.4306083 -0.2746071 -0.3329651 -0.33184302 -0.82868725 0.022398226 0.7959993 0.31176823 0.027980408 0.7342041 -1.0506055 0.23348737 1.2356166 -0.6828042 -0.5656202 0.13808942 0.20760287 -0.37647316 0.2993972 0.013415723 1.1127573 -0.8091609 -0.57229185 -0.48555085 0.14944102 -1.4737179 0.15153654 -0.20072913 -0.5462083 0.7368144 0.07538376 1.0776423 0.32544637 0.5714077 -0.10880868 0.74988323 -0.8255504 -0.05905573 -0.037079655 0.17314953
1849 0.20063467 0.77328706 0.44868168 0.26468545 1.5295719 -0.58582747 0.97396344 -0.70231944 0.16080934 -0.48326984 0.49979752 -0.6223088 -0.8685547 0.075096816 -0.6808094 1.5469412 -0.32157892 -1.1221095 0.6891679 0.36912152 0.53052896 0.48884675 -0.9579624 0.13134336 0.68820584 0.6419716 -0.7787417 0.26011652 0.08537248 -0.1637905 0.66748935 0.16471444 0.61315846 0.62795854 0.941077 -0.58148354 1.3934606 -0.4832687 -0.8798274 -0.046474274 -0.6485357 0.6780794 1.1338265 -0.15858987 -0.7992855 -0.91470605 -0.80593526 -0.308895 0.09391152 -1.0544423 0.43392733 0.1481177 0.8538805 0.46442604 0.43808138 0.9720183 0.21933214 0.41548166 -1.2450709 1.358782 -0.4007258 0.5050614 0.28433636 -0.1919659
744 -0.27511126 -0.013417628 0.37561503 0.5710986 -0.165946 -0.7230191 -0.20662996 -1.0898583 0.3149549 0.3547028 0.5130031 -0.24327911 -0.96289057 0.35172257 1.2869214 0.9222573 0.52268285 -0.331088 1.4418416 -0.30575526 -0.277322 0.45592558 0.47528383 -0.5699957 -0.24448292 0.41573578 -0.28161752 0.56143904 0.048894692 -0.04908178 0.5006954 -1.4617679 0.40105408 1.0032301 0.49743876 -0.6782279 1.0463488 0.8612132 0.11967293 0.6883665 -0.5950974 -0.0800961 1.0397598 -0.61925894 1.0884805 -1.2175134 -0.5892776 -1.3768008 0.71929187 -0.60532105 0.43437156 -0.9952543 0.19832937 0.27651823 0.19935232 1.7513387 0.47090843 -0.037097894 0.10468607 1.3093615 -0.0038489916 0.14292996 -0.01884309 -0.8470354
203 -0.45169115 -0.32275382 -0.20456716 1.0013968 1.456101 -0.95693296 1.4595854 -0.6504099 -0.5697793 -0.26661724 0.13440792 -0.4450026 -1.2016639 -0.2591462 -0.26049954 1.4133934 -1.2793701 -0.9000355 0.87351024 0.80083925 1.0559673 0.8884286 0.68431795 -0.46076924 -0.5581375 -0.12992603 0.23639165 -0.59106463 0.38350055 -0.9219984 1.5793842 -0.44892752 0.89829427 0.3500351 -0.89529765 -0.47152665 0.42693958 0.018652514 0.06824976 1.0753428 0.73032516 -0.549141 0.4774866 -0.20371947 -0.09965413 -0.91897494 0.018492648 -0.47763547 -0.8959468 -0.22918122 0.028397216 0.48381555 0.52623445 0.8583961 0.07845958 0.4949024 -0.94045895 0.16259485 -0.97760826 0.4903275 -0.4927184 0.28616428 0.22157092 -0.7096304
65 0.22774328 0.3719158 0.55523956 1.0454139 1.1105726 -0.8213402 -0.25519302 -0.4761356 -1.0615755 0.16837366 0.13178904 -0.045214124 -0.79864466 -1.026252 -0.11059719 0.52496594 0.7992747 -1.0485895 0.39964518 0.27806002 1.0711929 -0.014515531 0.50623107 -0.9587001 0.5939843 0.68074286 -0.4118214 0.46162757 0.3533497 -0.99610704 -0.3382047 -0.79423153 0.38504258 0.88740027 0.18233791 -1.6360583 0.91629374 -0.735185 -1.8408276 0.16159812 -0.16847087 -0.34752584 0.70878065 -0.5001094 0.09272791 -0.22040138 -1.2986578 -0.14965586 -0.68854755 -0.7747366 0.27119833 1.0447481 0.2840231 1.0578254 0.3352924 0.0007450933 -0.5160516 -0.7601601 -0.10979559 0.4637329 -1.0307704 -0.80824023 -0.2725293 -1.3982633
1245 -0.44992465 -0.0248774 0.013739345 0.9464441 1.0534683 0.21390969 0.15854542 -1.2947736 -0.6937755 -0.4324885 0.5420298 0.12610558 -0.80665696 -2.2286487 1.4597045 0.58119947 0.030622862 -0.5772269 0.6545697 0.59901595 0.86951876 0.39188808 -0.27175742 0.10263915 -1.2073284 -0.7126741 -0.85450315 1.354812 0.34263995 0.43941146 1.2143612 -0.07194259 0.014126719 0.30277961 -0.39492488 -1.1672021 1.1447246 0.013991202 0.50515294 -0.56361735 0.65602684 0.65109015 1.1447915 0.03490845 -0.090860836 -0.9998348 0.71402174 -0.6574096 -0.64866537 -0.78458786 -0.56372875 0.29259515 -0.33119574 0.49267375 0.3603198 0.3359207 0.68446004 -0.72457284 -0.21992885 -0.42532906 0.28796682 0.42332128 0.018145585 -1.3102751
2261 -0.61167145 -0.020729383 -0.15804307 0.6939781 0.34285262 -0.26468238 -0.33503902 -0.6491908 -0.47134727 -0.3244006 0.20648558 0.87730676 -0.27537802 -1.2774194 1.1209332 2.7425737 1.3315766 -1.0295379 0.06466611 -0.024193361 0.37524077 0.060566764 -0.2063626 -0.20902751 0.7311749 -0.18935125 -1.0845386 0.14470476 -0.050586846 0.9669366 0.50731844 -0.27739757 -0.016502652 0.5577981 0.87260544 -0.012866041 1.0379131 -0.114304416 -0.21203114 0.15448606 -0.16471063 0.92391425 0.7622143 -0.0052201 1.5655216 -0.5539251 0.18068604 -0.22635916 -0.20729227 -1.317453 0.020089539 0.33662683 -0.42835116 0.7038109 0.66547275 0.15059538 0.27586102 0.09762841 -0.9408711 0.6744415 -1.4077585 -0.74150723 -0.09238954 -1.1065582
1796 0.47745982 -0.97829 0.4279295 0.31560558 1.316434 -1.2248223 0.0144622475 -0.6943256 -0.415872 -0.04919609 0.12215079 0.26118878 -1.2696947 0.033310857 0.8303448 0.50006056 0.43534717 1.2421077 1.2822452 1.2741148 0.82739645 0.41390556 0.28294337 -0.7630402 0.35727233 0.5031629 -0.49279234 -0.5936193 0.8976685 0.0993813 -0.7842624 0.41887015 1.146282 0.99991846 -0.46562123 -0.4228338 1.6846699 0.7075099 -0.15423045 0.31981254 1.5346572 0.754018 0.5944849 -0.3565095 -0.597515 -1.38224 -0.7902233 -0.3240473 0.5110264 -0.8833053 -0.11132791 -0.082634196 -0.50896 0.1303679 -0.048292965 -0.122492984 -0.88088197 -0.41497883 -0.11666175 0.53318566 -0.30310664 -0.46642357 0.17838033 -0.4950128
1632 0.12679844 0.23048899 1.3924899 1.3805418 0.62023646 -0.20923437 0.8421021 -1.7353679 0.045126077 0.68173945 0.05363245 -0.22343153 -0.95037854 -0.8424817 1.2912204 1.0706398 0.67263925 0.39332157 1.1022291 -0.19582023 -0.048324913 -0.0305658 -0.4444203 -1.0975149 -0.33156896 -0.07613099 0.6591318 0.064379156 0.4480191 -1.159351 0.30585182 -1.0100154 0.40614852 1.0026907 -0.17469455 0.023333278 0.49982205 -0.5863487 0.12722152 -0.08464468 -0.6914212 -0.96689975 0.5468732 -0.22278726 0.07530053 -0.86099946 -0.51067877 -0.27842307 -0.35997 -0.54516417 -0.35145783 0.8893842 0.87329257 -0.46554983 0.6982065 0.66548556 -0.2153478 0.43986124 -1.2343422 0.014550383 -1.0822712 0.69121766 -0.90429324 -0.85564125
957 0.17358927 -0.2895541 0.9917404 0.48037383 0.2789724 -0.049730007 -0.07098904 -0.23483682 -0.35290563 0.31938353 0.49584967 -0.33584037 -1.3734945 -0.926907 1.1080872 1.9559797 -0.024943534 0.20016485 0.71719325 0.25596142 0.04319932 0.07638129 0.57556856 -1.195045 -0.99852794 0.4173993 -0.50799006 -0.08183014 0.52533954 0.31966537 -0.5072149 0.92458636 -0.022642761 1.6601192 -0.58708626 0.49205256 1.2529665 -0.7544119 -0.24055736 -0.32886755 0.92659277 0.9069155 0.72877866 -0.124151446 -0.36941603 -1.3786349 0.2200357 -1.3928049 -0.20823531 -1.2571827 -0.09029057 0.8148758 -0.7365584 -0.17451227 -0.19930279 1.1297861 0.13371739 0.7595874 0.26149368 0.22741665 -0.67215794 0.758552 0.90982556 -0.2623118
1216 -0.8987905 -0.7367291 1.3575475 0.09635063 1.3402638 -0.4675071 0.26690468 -0.76683015 -0.90731144 0.70910263 0.7177192 -0.39443344 -2.185869 0.20757347 0.9998219 0.98985815 0.3224783 0.6240267 0.30566338 0.6342302 -0.03367126 0.80177724 -0.0032414582 -0.7062803 0.22867957 -0.4169766 -0.22112414 0.5387693 1.4592326 0.3090451 0.68854475 -0.28147498 -0.42594537 0.88597584 0.6568273 0.33079022 0.4908263 -0.038454954 -0.27325195 -0.09658598 0.6481123 -0.17112023 0.71118927 -0.69739264 0.20429993 -1.0873626 -0.90621024 -0.37568152 0.32902244 0.11683932 -0.8532343 1.0616347 0.34785756 0.80361974 -0.36066988 -0.046687577 -0.6504381 -0.15294233 0.35494637 0.39121252 -0.99694365 0.7340808 -0.10760241 -1.7709154
1248 0.44797623 -0.35485426 -0.4820837 1.1332589 1.1137204 0.8517493 0.5260763 -0.23556623 0.4273057 -0.7118348 0.50085026 -0.37159362 -1.1072806 0.3171514 -0.10445901 1.2384921 -0.833502 0.33187577 0.21234544 0.26922658 0.94614315 1.1775042 0.25745586 -0.96114665 -1.2822455 0.57919306 0.2465382 -0.34218758 0.82739884 0.35629526 -0.0988553 0.13135958 -0.62040985 0.65043765 -0.078456104 -1.1084628 0.17491752 -0.8463479 -0.688941 0.020811813 0.85336757 0.6679493 0.7138769 -0.76804656 0.3324783 -0.8091356 -0.46747005 -1.1121191 -0.1588924 -0.25120294 0.24945594 0.46586016 -0.06033674 -0.021406462 0.9965178 1.3073457 0.7660573 0.4243346 -0.84096366 0.27101585 -1.2741973 -0.82735103 -0.8051309 -0.57245207
63 0.49343738 -0.6290798 1.0182564 1.4246224 0.9663085 -0.025220677 0.13329677 -1.118189 -0.24355598 -0.5214472 -0.22845714 0.9456535 -1.5092858 -1.1042628 0.37998202 0.96502626 0.62281126 -0.068604514 1.2377491 0.49326456 0.37728277 0.43543628 0.44366863 0.07347519 -0.96373343 0.33290315 -0.6170507 0.23042199 0.7291251 0.117730826 0.2952055 -0.36138564 -0.11324451 0.12526254 0.2655696 0.44513342 1.0363073 -0.95938104 -1.4711113 -0.8644571 0.115605675 -0.3509708 1.5611944 0.19956058 0.34906197 0.060424067 0.5675858 -0.9050757 -0.13727319 -1.9255874 -0.74038786 -0.20066196 0.9022308 0.9535114 0.70936304 -0.04131378 -0.057906453 -0.49747896 -0.3441357 0.01940681 0.08447653 -0.5210053 0.7525251 -0.07000611
2170 -0.42945093 0.2022716 -0.096622765 0.20919491 0.52624595 -0.52083546 0.1591089 -0.5592671 -0.97970694 -0.18541487 -1.0229924 -0.43929783 -1.3537201 -0.5845897 1.1021658 0.9684653 0.31329408 -0.10525238 -0.10446836 0.88034445 0.6400609 0.7780975 0.15514086 -0.4629913 -0.38919282 -0.16018413 -0.9614014 -0.4468428 -0.20041925 0.624278 0.46442816 -0.42739105 0.8254807 0.91489875 -0.5590288 -0.79031956 0.83312196 -0.26659614 -1.0131238 -0.27862176 1.0722601 0.8323361 -0.3904584 0.07884571 0.24381764 -1.8778747 0.568963 -0.88330686 -1.0709897 -1.0400473 0.054083277 0.4420504 0.52800596 0.8017115 -0.10249406 0.54960775 0.8260973 0.25136945 0.17187242 0.38333598 -1.5259471 -1.1569384 0.165316 -0.73005056
779 0.483843 0.3349711 0.57595044 1.3201333 0.9094979 -1.0063512 -0.3610721 -1.016079 -0.29804936 -0.31885064 0.17650416 -0.5266165 -1.0886712 -0.7099086 1.1867036 0.68688667 -0.79698974 -0.54744256 0.06344494 0.5754887 0.6924695 1.3108526 0.7435521 -0.38696057 0.63919556 0.8884812 -0.6885772 0.0792556 0.54564553 1.0271765 -0.2608359 -1.0700834 -0.14109448 0.49859956 -0.7211775 -0.16717985 0.3627307 -0.41858414 -0.4501305 0.05874 0.12381634 -0.11361939 0.5997991 -1.0164645 -0.14802817 -1.0294014 1.0615454 -1.6225253 -0.94865215 -0.8476483 -0.7614595 -0.61848336 -0.43320742 -0.34394053 1.1652974 0.2318034 -0.5261649 0.20389053 -0.21027663 -0.38438308 -0.40824905 -0.027445728 -0.22320788 -0.8624937
535 -1.288062 0.106460184 0.40824443 1.0622555 1.2404218 -1.3108203 0.27330357 -1.5509628 -0.14501885 0.49198925 -0.52203315 -0.12286492 -0.6952028 -0.09491158 0.21801159 1.7130146 0.10938619 0.7143816 0.79649925 -0.034621507 0.15597606 -0.26876974 0.60308427 -0.7950195 -0.02610582 0.45459306 -0.7826053 0.14976697 0.7206069 -0.22623405 1.334583 -0.91525185 -0.10146719 0.40187302 -0.6853617 -0.51023775 0.9187671 0.67167234 -1.0289487 -0.33852488 -0.73240083 -0.07044336 0.27210245 0.5165741 -0.33113235 -0.8182461 -0.06688433 0.42338312 -0.5761683 -1.9293817 -1.1711274 0.04928729 0.44994968 0.9594823 -0.06114209 -0.08349562 -0.28242147 0.1793523 -0.74212646 0.18590009 0.24887209 -0.15079264 -1.0389433 0.06891412
2230 -0.52426064 -0.9906679 -0.21163543 2.0570664 0.9751938 -1.3578184 0.019468544 -0.6469296 -1.1568098 -0.19052476 0.4581493 -0.9742918 -0.6908566 -0.5329225 0.7394736 1.2890352 0.17526053 0.22436987 0.06634487 0.83067876 0.7807473 0.4636407 -0.7891803 -0.7166118 0.27204794 0.36527124 -0.69496894 -0.5073114 0.45908737 0.16898261 -0.13433598 0.13613859 -0.22660129 0.9082282 0.0066339406 -0.19776374 -0.0033480625 -0.22673883 -1.0522373 0.2954973 0.26375714 0.6928513 1.7974687 -0.34124982 0.07285216 -1.1208858 0.5537397 -1.473307 -0.88224185 -0.14376765 0.1952478 0.17305827 0.6407826 -0.1268739 -0.48799464 -0.07403338 0.27494404 -0.4639671 0.2547517 0.83432364 0.31700116 -0.34926236 -0.78676856 -1.3543465
1602 0.18931468 0.02612201 -0.13801408 0.85102034 1.0227883 -0.6856571 -0.010406016 -1.9664648 -0.89343274 -0.22566307 0.9590896 0.15112546 -1.0990942 0.6299831 -0.29056054 0.3331501 -0.19020061 -0.10650108 0.8981804 -0.10201548 1.0718657 0.43836904 -0.49714795 -1.2318196 0.122501366 -0.34402308 -0.071693316 -0.75470966 0.37087378 0.16761512 1.0521271 0.5015027 0.6474481 0.41395247 0.009729768 -1.3185561 0.3602162 -0.25415564 -0.3303835 0.3855355 0.13763216 0.32781425 0.920666 -0.24228889 0.81091124 -1.8518641 -0.4104436 -0.7666768 -0.36791825 0.6582584 -0.7442634 0.33923566 -0.30007666 0.045582417 -0.40606758 0.9356306 0.08927599 -1.0238782 -0.27830625 0.9879587 -0.8274047 0.4472311 -1.0354855 0.36443213
1308 -0.41055602 -1.1826059 -0.22268124 1.1258842 0.65181077 -0.124230534 0.4097042 -0.9960477 0.598452 -0.6406132 -0.28415295 -0.09993363 -2.0197017 -0.4519893 0.7237941 1.2980484 0.22177851 -0.88515204 -0.4451761 0.4933974 0.98877615 1.4648623 0.03108378 -0.18976137 -0.2913229 -0.198091 -0.9139317 -0.40685782 0.74417424 -0.379828 0.1795455 -0.49668255 1.1587971 0.6579087 0.7251725 0.4179481 0.25046116 -0.26192412 0.4730306 0.59982526 0.30621153 0.706585 0.9581646 -0.35167348 0.90503186 -0.06949597 0.45743537 -0.003921883 -0.9698889 -1.3840317 0.15559834 0.10832068 -0.20778081 0.8874133 1.174996 0.23982547 -0.42230803 -0.3895705 0.6049179 0.7537192 -0.48857442 -0.31334397 0.6396082 -0.3086556
1239 0.5963704 0.24059114 0.6927578 1.6219976 0.6630711 -0.41909724 -0.7849173 -0.27209395 -0.18469113 0.34791023 -0.04695952 -0.2633558 -0.90911984 -0.16085114 -0.076452725 1.4593295 0.012259758 -0.9050437 0.26567093 -0.2150979 0.75501835 0.7406625 0.34562272 -0.4733511 0.24849808 -0.840569 0.19738962 -0.25599128 0.31785825 -0.4582462 -0.022586219 -0.5748566 -0.3367556 0.9449457 -1.2021713 -0.57394797 1.2410588 0.38814205 -0.46061307 0.491907 -0.95207894 -0.56000423 1.1500014 0.81242776 -0.81612086 -1.48903 -0.5159496 -1.3138297 0.20186725 -0.32745922 -1.4071141 -0.27723974 0.5115102 -0.14320132 0.09015522 1.0386608 -0.76290005 -0.8130175 -0.5658869 0.2914144 -0.82813746 0.38077933 -0.25282636 0.31427395
1181 -0.4773355 0.052209895 -0.36231974 1.592857 0.37757215 0.07286479 0.13166271 -1.0091237 -0.35312414 -0.73860145 0.42133337 0.68211704 0.033855982 0.2790263 -0.22844769 1.7789673 -0.80226606 -1.0663984 0.16206193 0.4682948 0.5419351 0.07676376 -0.09374086 -1.8314422 -0.13379459 -0.045580164 -0.6010771 0.35473996 0.54405606 -1.1727602 0.84376156 0.19404596 0.4927808 0.9683515 -0.30978757 -1.2506924 1.661979 0.45285976 -0.22915065 0.22538362 0.10964251 0.7349549 0.85875154 -0.13079618 0.34698543 -1.0857992 -0.44465807 0.105783194 0.1844846 -0.8029884 -0.18982728 -1.072638 -1.039783 0.93436533 0.77271765 -0.23134279 -0.4823725 -0.071584895 -0.37041712 1.0433093 0.08377545 0.05424425 -0.38522378 0.2023926
1065 -0.96479094 0.6311795 0.045463078 0.6788437 0.06643483 0.45376897 0.3982228 -1.0500779 0.2243519 -0.33847606 0.65565395 0.5140613 -0.974848 -1.2518116 1.1711609 1.952688 0.51969963 0.2601122 -0.23561269 -0.10424054 1.3057405 0.0669021 -0.09983432 -0.2896441 -0.15137729 0.52603716 -0.8210579 0.80804944 0.9972986 -0.8940525 0.6667631 -0.5241648 0.5014166 0.9585583 -0.46769652 -0.5208037 1.1505934 0.44839853 -0.9331477 -0.6140929 -0.59394103 0.68533975 -0.07245548 0.21968251 1.0098732 0.0431332 -0.052803 -0.98981124 0.37846354 -0.29274887 -0.92634743 -0.36139888 -0.82910365 1.0508461 0.9744956 0.013907272 -0.011361637 0.13525288 0.45254642 0.24192216 -0.5298734 -0.05538468 -0.6450158 -1.587047
1657 -0.77846384 -0.36552766 0.18872984 1.0155667 0.71063334 0.43208918 -0.32509115 0.13406399 -0.31885216 0.18915953 -0.5015683 -0.58726823 -1.4206446 -0.48404625 1.1188043 1.7488049 -0.07845082 -0.20446903 0.9336733 -0.9963428 0.6632117 0.34656733 0.45285305 -0.5862384 -1.1527948 0.5702478 -0.6109083 -1.1724744 0.58776516 -0.868794 1.6608227 -1.063692 0.3098803 0.31502178 0.3814329 -0.4207942 1.5523355 -0.11809591 -1.2446368 0.02031358 -0.8506644 0.13176653 0.66681904 0.10697489 -0.06497907 -0.7331113 0.30450836 -1.3232274 -0.19447179 -0.4858867 -0.8117619 0.46531782 0.64964545 0.87176925 0.10281447 0.47154185 -0.15659152 -0.5123343 -0.30253723 0.9580928 -0.3276325 0.0027599712 0.82440877 -0.15125094
1344 -0.71663976 0.1837905 1.0799706 0.17485003 1.3668165 -1.0796124 0.29640067 -0.3351081 0.0932337 -0.21266946 -0.65560967 -0.82513446 -1.2895724 0.07039298 1.1713536 1.1475172 0.6169012 0.28434554 1.5689225 1.039476 -0.13126472 0.24401176 -0.6256179 -0.16639091 0.075597055 -0.06407964 0.1328978 0.5299767 -0.1997608 0.35410547 0.4186361 0.2637195 0.33730933 0.59876037 -0.5473759 0.2245937 0.6460685 0.6180613 -1.5240707 -0.6849171 0.08219689 0.4639316 0.9194547 0.019012084 0.97771925 -1.416668 0.4779129 -0.58841103 -0.42255014 -1.0505822 -0.26882595 -0.072694786 0.066869006 0.2525113 -0.0834261 0.5354782 -0.9983488 -0.20264286 -0.33202967 0.7343567 -1.0154357 0.012088423 -1.3018289 0.08863393
1046 -0.08220079 -0.013009486 -0.055141617 1.5854118 0.5948676 -0.9498077 -0.43424135 -1.5818061 0.3821579 1.0156609 -0.5904774 -0.005848605 -0.8768013 0.24422555 -0.38438767 1.8685317 0.55240095 -0.08184998 0.24583623 0.2855427 -0.5961463 0.15296894 -0.46630004 -0.7110235 -0.8831278 -0.10914004 0.7590504 -0.0744947 0.37133563 -0.5135851 0.7654666 0.09918118 1.1231767 1.2532521 0.075835586 -0.938015 -0.104793295 0.5591255 -1.2795393 0.31672978 0.42597878 -0.43041283 0.8182242 -0.1323546 -0.27465856 -0.058063146 -1.3000691 -0.6289987 -0.108666524 -1.5207914 -0.5874221 0.40444577 0.55600697 0.60258657 0.53786063 1.2750572 -0.46353716 -0.16774414 0.6591163 0.95116353 0.15318638 0.6484321 0.0067484244 -0.039316732
1480 0.06392054 0.17904373 0.8146958 0.40930915 0.9435139 -0.052334543 0.67186576 -0.8849014 0.0895902 0.22419165 0.23455875 0.3086927 -1.7777957 -0.7956518 0.8748178 1.0596646 -0.43627793 -0.6540551 0.40361685 0.5222519 1.0157387 0.23078713 -0.024145253 -0.24653637 0.29127336 0.5563541 0.3583644 1.3217818 1.2204833 -0.5280133 0.48082763 -0.22158967 0.37440762 1.1787453 -0.26159868 0.42277923 0.29587993 0.032625236 0.050533973 -0.6899391 0.13868275 0.4796714 0.53189236 -0.5131042 -0.06835839 0.04546776 -1.1025991 -0.8139947 0.32247484 -1.4949944 -1.0296292 -0.41768897 0.22590062 0.6785583 -0.8287795 0.5767495 0.5987433 -1.1451479 0.35012105 0.8468622 -0.722153 -0.64860827 0.04079143 -0.37769124
2243 0.15964416 -0.24224642 0.3698436 1.0132481 0.62033457 0.574353 -0.4981683 0.75102144 0.064788945 -0.26742652 0.15625519 0.011687019 -1.4147328 -0.7925266 0.90026635 1.1751604 -0.01987035 0.3185467 1.7619439 -0.9184118 0.648114 0.6934308 0.3429374 -1.06355 -0.79304093 -0.018451964 -0.46063077 -1.0475188 0.13629839 -0.65209436 1.7295951 -0.38889396 0.040939137 0.5418054 0.262979 -1.1639158 1.4502957 0.21818112 -1.3892392 -0.2237704 -0.8040321 0.5010629 1.2329743 -0.6335797 0.13647951 -0.74453956 -0.23915784 -0.7716251 0.4416977 -0.34463757 -0.3850496 0.5044013 -0.31380567 0.8716784 0.368222 0.4503369 0.3823439 -0.77108866 -0.44621605 0.071342595 -0.1444561 0.21908209 0.70275074 -0.30736148
516 0.28146952 -0.041068412 -0.18723664 1.7487843 0.54877156 -0.8478509 0.5449921 -1.4990555 -0.57262886 -0.3731733 0.41240972 0.31363574 -1.0048703 -0.3285805 0.4882601 0.7056817 0.21069852 0.46261674 1.1524307 -0.093983844 0.006270342 0.7031342 0.53882396 0.35921955 0.03509648 0.783507 0.4732739 -0.84705085 1.2776554 -0.15075481 -0.34535462 0.3899048 0.9996666 -0.29888782 0.029958157 -0.79767615 0.09720089 0.68700784 -0.6658741 0.39511335 0.8919622 1.1363299 1.1488904 -0.11081738 0.56391686 -1.0086554 -0.5501124 0.74259573 -0.14728022 -0.41179973 -0.98612356 -0.14783826 0.94974667 0.76624745 0.9892559 1.0622216 -0.083920084 0.30866238 -1.1270782 0.8187787 -0.0950593 0.24402115 -0.96393 -0.15019847
1176 0.2986652 -0.1288706 0.07944993 0.99087995 0.3581736 0.15370221 -0.65315825 -0.58731574 -0.48546234 -0.11602175 -0.39168936 -0.25287834 -0.37531266 -0.04534046 0.91314375 1.4438396 0.568806 -0.4477692 0.45789197 -0.0032909776 0.5414345 0.62395316 0.5785461 -1.17535 -0.008207632 -1.1703423 0.2843966 -0.13295896 0.58515286 -0.9545348 0.6076523 -0.565558 -0.5944978 1.4983602 -0.49068725 -0.77585703 1.3207296 0.68902695 -0.13290592 0.49482292 -0.123724096 -0.6903418 1.1354903 1.2368947 -0.67302984 -1.1587621 -0.48296848 -1.3366945 0.33594048 -0.6467669 -0.5927542 -0.0651753 0.12176174 -0.4329037 -0.026574457 0.9897284 0.32869482 -0.40487048 -0.42550954 0.26705784 -1.3431927 -0.066877075 -0.9665338 0.2892441
2781 0.023313908 -1.1084297 0.99331206 0.9168844 1.3314598 -1.6610744 0.5498245 -0.9158722 -0.031263717 0.28234854 0.44776103 0.187954 -0.10347425 0.52012694 -0.26633105 1.2026372 0.867677 -0.42918488 0.21205074 0.5742192 0.06880964 0.8695187 -0.119531095 -1.2757217 0.21855128 -0.24247198 -0.5147499 -1.1635658 1.0525516 0.13098736 0.593101 -1.2216161 -0.013999907 1.4340677 -0.15857793 -0.61602575 0.32590267 0.041194946 -1.2499278 1.0120316 0.2642435 0.18569267 0.6350746 0.10496661 -0.73957133 -0.73610425 -0.8875089 -1.1338931 -0.32572898 0.118534684 -0.18215759 0.6109106 1.1202884 1.0591809 0.9348056 -0.13632275 0.05886374 0.18191293 0.10089045 -0.3092477 -0.57717156 -0.09251616 0.56384045 -0.15016332
2450 -0.6649697 -0.55044204 0.43433666 0.706853 0.4891434 -0.30964416 0.46388376 -1.6094522 -0.0541363 -1.2694769 0.32732347 0.2694574 -1.6529137 -0.26087666 0.6460441 1.1413295 0.54510474 -0.9009797 1.2049627 0.057988223 -0.19914016 1.1714263 0.29626274 0.47021773 0.16654022 0.5261674 0.4764345 1.237074 0.39967853 -0.6074393 0.51513857 -1.2537171 0.29989335 0.7487254 -0.12487607 -0.6209651 0.18550918 0.29253405 -0.83344823 1.2740407 1.0587665 0.43978956 0.07107447 -0.69890976 0.38471043 0.01606175 0.015383649 -1.064935 -0.49663842 -0.5513809 -0.8890874 0.063292824 0.21654087 -0.5736566 0.3568614 0.1531487 -0.69017124 -0.17125255 -1.2319958 -0.05156565 -0.9453698 -0.77607447 -0.003503635 0.05043619
2245 0.49556425 -0.50766075 -0.2988797 -0.0014190322 1.0615097 -0.45683312 1.1825968 -1.4289745 -0.5996952 -0.75050426 0.043415595 0.40874475 -0.9361223 -0.23701999 0.20587283 2.1746125 -0.37582278 0.6852998 0.2652822 -0.42626077 0.24679804 -0.4729075 -0.4187785 0.29333475 -0.81111544 0.08694287 -0.46122858 -0.44372508 0.871579 -0.8040395 0.40824223 0.1810213 -0.3603161 1.233896 0.96832204 -1.0456533 1.4555368 0.036326203 -0.5517723 -0.55424595 0.31345242 -0.21940893 0.57446176 -1.1731086 0.54986674 -0.20988145 -0.40199864 -0.4250247 -0.066717006 0.37912387 -0.7446237 0.09678192 -0.23386282 0.4982333 0.84265417 0.8452365 -0.57589585 -0.7579968 -0.22445448 0.5456043 -0.38560727 -0.31405494 -0.4528195 -0.21553315
49 0.061824545 0.40596694 0.28479198 0.7696179 1.1962843 -0.7468642 0.23533721 -0.7572465 0.04445978 -0.8594193 0.035864938 0.595832 -0.48195577 -0.8800423 0.662021 2.055829 0.57272923 -0.22145043 0.5154987 0.4968876 1.1739953 -0.3387237 0.16050936 -0.55221975 0.85563356 0.9054814 -0.20060202 0.21962017 0.24054058 0.4775834 0.78518385 0.43151757 -0.079784915 0.30465767 -0.36718765 -1.5428977 0.21230675 0.56092644 -0.24104053 -0.8346374 0.24763994 0.27664506 0.88374615 -0.45620328 0.9094346 -0.676867 -1.116449 -0.5465722 -0.5452241 -0.5776804 -0.455218 1.0129875 0.2896155 0.20971407 -0.6604496 0.6860617 0.8307143 0.778338 -0.41276976 -0.1321273 -0.91102767 0.0069253934 -0.54436785 0.3418006
2615 0.26329485 0.82693464 0.5153202 1.3861816 0.19328763 -0.63449764 -0.27054062 -1.7416857 0.0029991867 0.69922066 -0.9302121 0.22275327 -2.0055168 -0.13326295 0.31125885 0.72809064 -0.67095125 -0.5614103 0.67495245 0.45792475 0.48508584 0.0825921 0.45992574 -0.5853843 -0.09293493 0.26264578 0.07124571 0.20714469 0.38858697 0.3626671 1.1947124 -0.29365057 0.3624749 0.26996535 -0.21916348 -1.2608718 0.8201179 0.36752644 -0.13791116 1.3017797 -0.4763515 -0.33241788 0.4623289 -1.3299509 0.1375264 0.3598369 0.34181657 -0.29695442 -0.732241 -0.50322056 0.7251018 -0.4165965 -0.77491236 0.8621992 0.15804614 0.22553171 0.09586114 -0.109170504 -0.4421924 -0.14755197 -1.4517035 0.15879838 -1.2677896 -0.46003205
526 0.59399307 0.2614558 0.8440837 1.0354729 1.3723845 -0.08898323 0.012866148 0.1388555 1.0066571 -1.0554621 0.21720189 -0.21925582 -1.7684854 -0.40552342 0.13597761 0.7684554 0.51423955 -0.20617281 0.9850266 -0.32800305 0.896531 0.7158048 -0.20026998 -0.28118134 -0.23109668 -0.5759801 -0.49948007 0.8757303 0.23426124 -0.765308 0.20079379 -0.74297816 1.0387559 1.3487098 0.5010299 -0.6074993 0.95212597 -0.3489314 -0.8690695 -0.99188584 0.850443 0.4096612 0.37766716 -0.23044841 0.89910436 -0.72500604 -0.7345223 0.03508011 -0.42160645 -0.0865718 -0.024940437 0.018137464 -0.7436052 0.5104866 -0.1847558 1.1879971 -0.049997244 -0.07186599 -0.40757766 0.53884774 -0.95384353 0.08061498 0.41124916 0.117028795
1158 0.051274132 0.46490362 0.60726815 0.8945507 0.30624297 -0.6306834 0.038920674 -1.1469059 -0.7686303 -0.55103207 -0.59274167 0.33228996 -0.3493608 -0.6213291 1.0706631 0.36192527 -0.68189967 -0.20076838 -0.07147814 -0.16233641 0.8395214 1.6011143 0.46221295 -1.5223372 -0.047252174 -0.051227808 -0.77260196 0.31655675 -0.1406624 0.20947565 -0.8515453 0.5432418 -0.059714966 1.2836787 -0.1598289 0.26257038 1.260461 0.15895107 -0.21349598 0.7115259 0.4486413 0.28639054 1.0257964 0.07961039 0.0025590186 -0.6021469 -1.3645481 -0.7200559 -0.25078472 -1.267373 -0.6170825 0.28033605 -0.36187056 1.508136 0.6728163 -0.3109428 -0.6705248 -0.2786243 -0.58575475 0.26998386 -0.89666307 0.26727077 -0.74355745 0.0005937322
1035 0.36393932 -1.3503376 0.60172594 1.083301 0.11510925 -0.8087565 0.22435513 -1.0142022 0.9063087 -1.329383 -0.9346225 -0.42029008 -0.24965951 -0.25395116 0.9159928 1.3674082 -0.035707723 0.2621334 0.29739302 0.32312244 0.4743185 1.6658849 -0.8131423 -0.17158262 0.091130055 -0.31468657 0.7074366 0.83449006 1.4004526 -0.49082026 1.3150836 0.05780743 0.60779786 1.3629682 0.5997507 0.163408 0.9483803 0.49765047 -0.821251 -0.45367178 -0.91458094 0.1580605 0.9440902 -0.7178783 0.6185285 -0.7259923 0.3673192 -0.8802186 -0.014618463 -0.31560403 0.33067477 -0.20521975 0.016183972 0.70822215 -0.25604653 0.3336179 0.16693234 0.15137221 0.29392868 0.60644495 -0.46843067 -0.469725 0.15494381 -0.9055046
1728 -0.15419611 0.1651407 1.8880296 0.39688396 0.1406679 -0.9302758 -0.5205109 -1.0674888 0.100477666 1.0926132 0.6591324 -0.8269013 -1.6803391 0.055198077 0.0666432 0.7177829 0.7801848 0.75730604 0.5842393 1.1219239 1.2062981 0.6590069 0.48084322 -1.5140172 -0.055551138 1.4629241 -0.722892 0.4519831 1.06036 -0.30046767 0.11729413 -0.25230494 0.21394676 0.5880422 0.036386512 0.21013221 1.1585894 0.33165404 -1.4312028 0.26603237 0.079057306 0.03407725 -0.43328145 0.10224273 1.2229394 -0.29385775 0.5250469 -0.30258396 0.6089377 -0.5600406 0.24282163 0.19055861 -0.09046915 0.24562523 0.42704242 1.5704653 -0.27986398 -0.14144887 -0.17986469 -0.29227844 -0.42250612 0.36390576 -0.3058069 -0.79955876
67 0.06385272 -0.8178132 1.1255205 0.3836745 0.78176254 -0.03643916 -0.6041125 -0.5886161 -0.7255447 0.60080355 -0.39654168 -0.8231763 -1.4713026 -0.14427839 0.019566659 1.3313783 -0.0034223904 0.59712213 0.75399584 -0.17547145 0.4530583 1.1157365 -0.32237455 -1.4957877 0.46221086 -0.35495135 -0.5075145 0.45576215 0.49075574 -0.47798055 0.92182726 -0.8427854 0.5720088 1.1870832 -0.7933361 -1.163563 1.3881309 0.66054076 -0.26123407 0.48288846 0.79776525 -0.44768268 1.0902369 -0.594591 -0.010593483 -0.21730244 0.16434954 0.3485416 -1.1770749 -1.0684559 0.36418086 -0.2511765 0.43765092 0.06797214 -0.078739464 1.1545618 0.71603817 -0.44042537 0.3982309 -0.80792665 -0.67742807 0.6436457 -0.7146971 0.21962936
943 1.1377629 -0.14796075 -0.06328724 1.3448323 0.46028647 -0.72949106 0.39333853 -1.8782905 0.045611408 -0.31321082 -1.1093485 -0.45216313 -1.4859093 -0.05876837 1.2967988 1.1642895 0.61887175 0.22385257 0.00064034184 0.4938646 -0.4935453 1.2778203 -0.2081625 -0.5796363 -0.09150171 -0.51198953 0.030508675 -0.6686656 0.044578332 0.496975 0.09676861 -0.07973691 0.25803205 0.20479074 0.16895759 -0.7261322 1.2923056 0.7057818 -1.1918569 0.46874654 0.6093989 0.6469527 0.094635546 0.835112 -0.56088704 -0.96010274 0.8170094 -1.0798241 0.18940645 0.11430081 0.47139275 -0.58757883 -0.3795286 0.24287026 1.0176086 0.75367063 -0.39284164 0.37105942 -0.5972963 0.43810457 -0.10665688 -0.09678981 -1.4347761 0.05063855
905 -0.39042506 -1.0450629 0.66413534 0.647668 1.0544584 -1.1433861 1.1873884 -1.1520423 -0.68971 0.025987146 -0.5154712 -0.31115386 -0.21606281 -1.162078 0.9170042 0.6677569 0.59100616 -0.5304763 0.09446222 -0.005944929 0.9936146 -0.4213637 -0.9207138 -0.6433077 0.4627931 0.7903521 -1.3356826 0.5331677 1.2912607 -1.0682651 0.504142 0.0020430107 -0.059711423 0.29243648 1.0444478 -0.9038151 0.02752178 0.11162537 0.38200736 0.3485533 -0.41804138 -0.32577363 2.1078608 -0.4855221 -0.017276619 -1.3260837 -0.60530674 -0.5291572 0.25427923 -0.9094673 0.18579598 0.38335535 -0.021119822 0.37498716 0.5878142 0.047095504 0.16961984 -0.058544785 -0.6426426 0.57245785 -0.420584 -0.084176786 0.41387668 0.011916485
69 0.49936587 0.25917062 0.3939876 1.0727812 1.7238342 -0.058844943 0.2592174 -0.82310677 -0.5368929 -0.5229675 -0.53268737 -0.8725848 -1.5355605 0.19395764 0.3478252 0.3982211 -0.12081764 0.30533978 1.0366869 0.6619372 0.44676915 -0.07816082 0.64916193 -0.8029083 0.25741163 0.93949395 0.19176026 0.4528519 -0.49089837 0.16510464 0.69447565 -0.19938807 0.07418899 1.8582522 0.29684654 -1.2394096 1.5895344 -0.28506574 -0.718817 0.8325598 0.032042917 1.5058666 0.6647607 -0.8561045 0.087784186 -0.22620648 0.20076807 -0.009287005 0.4488079 -0.3366223 -0.24886318 -0.14538866 0.9824761 -0.3027481 1.0259292 0.36059454 0.30559763 -0.67109793 0.4638648 0.11582521 -0.27837503 -0.062311213 0.05466816 -1.0807663
2545 -0.21459337 -1.2018925 0.070275046 1.0469842 0.61566514 0.1857457 0.06509005 -1.0017452 -0.72025573 -0.85270214 -1.1007317 -0.19941661 -1.5727556 0.5448946 0.69114774 1.0812552 0.088953674 -0.7625139 -0.10868343 0.3935261 -0.41246757 0.37647098 -0.38700277 -0.8519549 -0.339969 0.51137686 -0.40933543 -0.13797562 -0.3794269 0.21045421 1.3948488 -0.36468568 -0.13497522 0.36467677 -0.29365867 -0.5743051 -0.069312625 -0.10348895 -0.83787054 -0.5080972 0.30746782 0.4765889 1.0550718 -0.51616055 0.98774546 -0.23415267 0.20414399 -0.10227474 0.6618852 -0.37346652 0.17462038 0.37561348 0.037694365 0.87320304 0.8811361 0.7952558 0.45819542 0.7928179 -1.0915293 1.647395 -0.91306305 1.0526029 -1.2043695 -0.9282351
2241 0.15347108 -0.08046302 -0.8285887 0.5922683 0.44631708 0.46708784 0.4685093 -1.1737727 0.42574343 -0.3697613 0.07492484 0.048599727 -1.7196558 -0.024800137 -0.21519096 1.8674942 -0.15707645 0.7720256 0.86309564 0.8743385 0.4297023 1.364397 0.040735703 0.21706732 0.36607724 -0.28607374 -0.53954273 0.5961023 1.3023963 0.54507 0.6158938 0.01784494 0.27627835 0.81023943 -0.7624933 -1.5362206 0.056709792 0.48388416 -0.9399511 0.57931256 -0.18885921 0.13721432 0.096744716 0.5910335 0.19141829 -0.7519527 -0.2662135 -1.4209789 -0.19183227 0.4499976 -1.4438256 0.3290944 0.26646134 1.1175934 0.4623484 0.55581534 0.19057146 0.41413993 -0.9095055 0.12273447 -0.046071947 0.4196928 -0.03914082 -0.56774646
657 -0.14047019 1.021802 0.24345554 1.2293775 1.6656144 -0.26086462 0.20341279 -2.1550794 -0.01868302 -1.2654312 0.008028218 -0.07166471 -0.2069779 -0.17840593 1.1499629 0.34504408 -0.29974952 -0.1163894 0.029896317 -0.23337732 0.28820494 1.3937027 -1.0420288 -0.8249935 -0.28066152 0.30746886 -0.19913846 0.07566823 0.55193716 -1.0502346 -0.20534712 -0.0018222887 1.0968206 -0.4810863 0.23230863 -0.83664775 0.40178347 0.27177683 -1.2401475 0.97298783 -0.80615216 0.27282122 1.2410482 0.35731423 0.14778 -0.6635576 0.13532533 -0.73497623 0.006802113 -0.23457353 0.1970512 1.0795184 -0.14227723 0.13784517 -0.28026158 1.0986326 0.27324012 -0.41133174 -0.30375803 1.5350269 -0.39051428 -0.087003686 -0.88731086 -0.9302708
1284 -0.6254811 -0.8401926 -0.031240666 1.8387384 0.5180554 -0.46403193 0.34144714 -1.7523227 0.0048452397 -0.40555707 0.7090241 0.68366176 -0.42937708 0.21939024 0.22239482 1.4899954 0.6360969 -0.12922738 0.9602832 -0.12382201 0.3511828 -0.42869318 0.2567063 -0.057000395 0.21747936 -0.4754361 -0.5472419 -0.26042265 0.7142011 0.02884271 1.4273854 0.90990055 0.4050031 1.2209982 -0.17767349 0.42207482 -0.008981367 1.0656958 -1.1765134 0.8403629 -0.32660037 0.3261029 0.6387682 -0.05380709 -0.14492288 -0.6698072 0.055569652 -1.3672935 1.1984721 -0.3681423 0.51537365 -0.31007567 -0.38028073 0.7461221 0.46973646 0.34879053 0.1638742 -0.17182623 -1.0081034 -0.01397356 -0.532739 -0.29962814 -0.9239621 -0.9845808
947 1.1051322 0.77477133 -0.2884615 0.17477842 0.0035301738 -0.5000034 -0.23766178 -1.0073823 -0.5583046 -0.011686317 1.016839 -0.13590316 -1.6221272 -1.0219516 -0.13419573 1.0647322 -0.29128093 -0.21202236 0.7905825 -1.0579567 -0.031332064 1.17605 0.3547167 -0.42035645 -0.9069439 -0.45418566 -0.42658836 -0.2229932 1.2042923 -0.48910737 1.2972515 -0.6098698 0.99972457 1.1431844 -0.54708195 -0.0018280871 -0.24142894 -0.13920593 -0.90768594 -0.33225387 -0.46440923 1.1195543 0.9595474 -0.522998 0.09319303 -0.29630604 -1.248412 -0.49764147 0.5559339 -1.0594031 0.12310233 0.03468516 -0.37969017 0.51649964 0.13690309 0.78337365 -0.53147215 0.024221249 0.26237682 -0.57370114 -1.0701077 0.3117199 -0.5679441 -1.0889246
622 0.15438396 0.5128347 0.7712036 0.57313037 0.94057035 -0.21457231 0.016880892 -0.0756339 -1.1007179 -0.614275 -0.18436195 0.5391053 -1.3599107 -0.48526135 1.0789083 1.4942273 0.78489435 -0.12719242 1.0818288 0.46726954 0.587243 0.20936838 -0.36336404 -0.79318553 0.018918687 0.042344984 0.005892624 -0.328311 1.5435035 0.15623225 0.116167665 -0.14815454 1.1033177 1.5315461 0.078529745 0.025502078 0.97212255 -0.6956021 -0.30556214 0.11790088 -0.4777818 1.3979882 1.2410061 0.032764137 0.17776886 -0.68019295 -0.33703 -0.48526764 0.26864588 -0.36839846 0.14638999 -1.5075144 -0.24486993 -0.22604635 0.6278097 0.9124005 -0.6228031 -0.9066711 -0.011377925 -0.8926032 0.31383684 -0.83266854 0.17908624 -1.5133499
674 0.81914 -0.41813168 -0.59665823 0.9328315 0.8202809 0.5069867 0.79210895 -1.451313 -1.160019 -0.6980511 0.81335056 1.1613537 -0.9534024 -1.0453767 0.700731 1.1974548 -0.2875962 0.60485196 0.9047829 -0.50554246 0.36309943 1.1139139 -0.32027778 -0.28992856 0.45085552 0.06742347 -0.8960523 0.53234416 0.56311446 -0.19810683 1.1930234 -0.68481004 -0.75426954 -0.2878062 0.29915395 -0.111872755 0.5796489 0.050510664 -0.78629005 -0.08570818 1.2491406 0.031076876 0.37143126 -1.1148158 0.7160239 -0.8014829 -0.21099867 -0.8222157 -0.17880417 -0.8080753 -0.34823292 -0.23106335 0.7777696 0.9318414 0.5798302 0.992459 0.119137384 0.12385311 0.17588098 0.7885847 -1.0828817 0.41944945 -0.20492697 0.7029241
1770 0.31147653 -0.52603835 1.4372306 0.13703339 -0.4839915 -0.5201424 0.59124917 -1.0948337 0.85943705 0.14137968 -0.68961054 -0.30497274 -0.9370577 0.27756482 0.44652042 1.6968573 -0.6098004 -0.78916985 0.2773581 0.7682996 0.74595153 1.3410778 0.51501584 -0.2644471 -0.1320841 -0.33708477 -0.36618343 -0.2184791 0.9237692 0.45271796 0.59513307 -1.3488833 -0.20016547 0.41947708 -0.8208432 -0.02523857 1.1918961 -0.18679474 -0.83277005 -0.44814336 0.58116555 0.5212983 1.3559009 -0.81423926 -0.6248793 -0.2623135 1.0840904 -0.70196295 0.43678695 0.027422026 -1.0288407 0.4997832 0.45045173 0.7032176 0.93206704 0.028077247 -0.7169364 -0.7454356 -0.8192868 0.4253793 -1.1746144 -0.5056326 0.32651246 -0.58936447
815 0.9300421 0.11423663 0.45892534 1.1915541 1.677311 -0.5665093 -0.054012146 0.02206927 0.5927312 0.33601254 1.3504411 -0.49047863 -0.3458751 -0.9862089 1.0434622 1.9245852 0.012450958 -0.11746972 0.31972447 -0.034597345 -0.89240414 0.7719862 0.8156495 -0.0776299 0.81270176 0.30651572 0.46685258 -0.7243735 0.7250342 -0.35175252 0.66223043 0.29707867 0.7749833 0.8446473 0.725407 -1.362946 1.0075129 -0.30773175 -0.44656885 0.21292655 0.032752294 0.06765771 0.89748967 0.22139609 -0.06905321 -0.90379125 -0.528964 -0.6182366 -0.59939784 -0.83562124 -1.0988138 0.32964292 0.21900374 -0.25179502 1.1364287 0.68158484 0.16796714 -0.04468452 -0.25514418 -0.23823355 -0.41490144 -0.6035656 0.3509094 -1.0556297
2542 0.194585 0.036153775 1.0261849 1.336834 1.1495723 -0.12710845 1.1988435 0.18401913 0.39291233 -0.33656484 -0.4664336 -0.43289775 -1.1121784 -0.1904476 0.70859456 0.51903385 1.0169191 -0.8182585 0.040915433 0.7220741 0.35343668 0.20362908 0.582784 -1.2115343 -0.044233862 -0.14307502 0.046123974 -0.5227239 0.84515995 0.13053359 -0.28145283 -0.937471 -0.43215656 0.9236122 -0.6328174 -1.2653211 1.4461772 -0.10971337 -0.932802 -0.47252256 0.18485756 1.2299447 -0.14928076 0.49434316 1.2850115 -1.343221 0.80324715 -0.30780748 0.14677918 -0.5879709 0.604738 -0.009892911 0.29810512 0.73792243 1.32306 0.7919428 -0.5985 -0.61415017 -0.7128365 0.107437566 -0.20264147 -0.19813173 -0.05926792 -1.178316
2795 0.36372706 0.10776425 -0.2560404 1.1511862 0.87974495 0.022863226 0.76833546 -1.6295809 0.41303578 0.77367526 0.36835092 -0.56138575 -0.54590845 -1.4422504 0.5365884 0.8506379 0.71167177 0.5526124 0.47133097 0.010375284 0.51488084 1.7782171 0.5040208 -0.5654707 -1.0264152 0.685688 -0.5418935 -0.0501929 -0.7424663 0.11344791 -0.122505955 -0.43329594 0.036797617 1.0430678 1.141711 -0.73708576 0.649815 -0.5457 -0.024616405 0.7363512 0.7930607 1.0539911 0.06889412 -0.52008384 0.78337574 -1.012062 -0.5377818 -0.5200439 0.38060293 -0.027547158 -0.5431336 0.9042675 -0.5429245 0.5639831 1.0472659 0.1447111 0.34389934 0.10002658 -0.494711 0.35905784 -0.09086145 -0.38423306 -1.1457626 0.06353694
848 -0.022220518 -0.49337205 1.0537742 0.9807018 0.7798059 -0.7985256 -0.54296005 -0.518296 0.17941359 -0.9854823 -0.44000146 1.2015994 -0.07343843 -1.444719 0.8912252 1.8426783 0.32554162 -0.4160826 0.46145537 -0.31942105 0.9008757 0.57778347 0.24839836 -1.014473 -0.33151397 -0.2913021 -0.77344793 -0.017861297 1.5637478 -0.580494 -0.3317271 -0.087254904 -0.4253836 0.88591456 -0.22659737 -0.82274383 0.87473863 0.5431247 -1.0435985 1.05582 -0.18366955 -0.27846032 0.17256568 -1.328545 0.66418374 -1.4082737 0.06087253 -0.51019955 -0.07365251 -0.60348666 -0.6769956 -0.46672815 0.58061105 -0.14039329 0.45763323 -0.017868359 0.31776917 0.61983067 -0.30750912 0.06623201 0.6400371 0.22373727 0.42533544 -0.10401099
1409 -0.0076412964 -0.35974976 0.7203069 1.4729296 0.31114233 0.5308305 0.17606519 -0.77192897 0.19982916 -0.26684478 0.7040767 0.103594445 -1.2584882 0.40943387 -0.34949747 1.6325978 -0.1736815 0.85426414 -0.0224658 -0.2936673 0.81261766 0.8313006 -0.22138822 -0.98125124 -0.5777558 0.8913338 -0.4939642 1.0163904 0.74690366 0.07665732 0.6605807 -0.07517443 0.3279438 0.007134872 0.19158655 0.17025988 0.1618423 0.19511089 -0.052087035 0.33839697 0.5538665 0.6694352 0.79704124 -0.23775426 0.8041068 -1.0213953 -1.5743723 -0.42681074 -0.8266516 -0.124398135 -0.8438472 -0.5350996 1.038705 0.19206457 0.44632253 1.8100321 -1.0218757 -0.37775508 0.4772206 1.1165198 -0.62539804 0.7066147 -0.20507874 -0.5137458
83 -0.5952118 -0.9139461 0.9318338 0.47617698 0.79439425 0.21003094 0.9151106 -1.6957891 -0.055503815 0.034721658 0.5263592 -0.57265514 -0.6765202 -0.11741086 -0.5327971 0.1361775 -0.2929845 0.49443787 -0.50881696 0.47884816 0.81041795 1.38758 0.51014775 -0.35677642 0.16622631 0.3629454 -0.8609313 0.26154232 1.3190558 0.30566978 1.2922473 0.20718856 0.6254919 0.51833093 -0.22300217 -1.3001534 1.5466019 0.21446714 -0.2650873 -0.8257011 0.44985515 0.6889903 0.7704897 -0.62266093 -0.812205 0.005828045 -0.051756762 -0.75623804 0.014813039 -0.80535185 0.28519616 0.40506583 -0.47822362 -0.2880494 0.8198596 1.0207901 0.7131991 -0.18099055 -0.11758081 -0.3971442 -0.27764028 0.5064558 -0.656214 -1.4029119
