1013 64
1 0.03775937 0.26729056 0.24958675 0.1567912 0.051167738 -0.43828148 0.04361352 -0.00594007 -0.026672788 0.0491842 0.22752371 0.12942873 0.10147001 -0.10524064 -0.13907902 0.07338885 -0.32237002 0.1590126 0.013983772 0.19954203 -0.16691408 0.068037614 0.2647422 0.013757941 0.22417624 0.30338842 -0.33612448 -0.06821942 -0.15511158 -0.24589488 -0.25300968 0.049945097 -0.12657666 -0.4255415 0.20333914 -0.0744282 0.04301009 -0.036761083 0.3484361 0.17300577 0.20262793 0.3780469 -0.046237364 -0.3765296 0.11882631 -0.24589758 -0.13200054 -0.029366229 -0.0064019654 -0.06319118 0.2325551 -0.05763016 -0.040983476 0.18315044 0.1997656 -0.011057325 0.08809238 -0.42362538 0.111136734 0.07838821 -0.06046565 -0.2651872 -0.05154065 -0.081859805
4 -0.092714444 0.11328936 -0.14031021 0.2842554 0.036859076 -0.21518065 0.06922515 0.050129663 0.26200074 -0.16805303 0.31937924 0.055458605 0.4681616 -0.22815491 -0.18874286 -0.13961199 -0.3828187 0.24325512 0.2897616 0.27211908 0.039611503 0.23413119 0.4180992 -0.34041834 0.10970352 0.5035308 -0.16377881 0.09197958 0.16547365 -0.049724434 0.14329958 0.35491216 0.065441675 -0.34698802 0.14794299 -0.103062265 0.08939859 0.3122325 0.2847824 0.12071982 0.35792693 -0.056808867 -0.017200423 -0.15261504 0.028245576 -0.3425737 -0.15518399 -0.46189913 -0.21140216 0.19942157 0.21683112 0.052276544 0.33298284 0.29930633 0.07366077 -0.24294871 0.11849284 -0.42055765 -0.11198009 -0.24347864 0.153662 -0.11237374 -0.081771 -0.089239754
5 -0.14750624 0.16569634 -0.00978518 -0.059932366 0.28579366 -0.43801332 0.16577984 -0.16284232 0.36957842 0.14688885 0.3357633 0.3250718 0.13019021 -0.27187875 -0.2603772 0.111062534 -0.38472238 0.42779708 0.4696687 0.34824222 0.20836662 0.38580063 0.5342613 -0.75090736 0.0470439 0.405328 -0.19245847 0.2384893 0.06954616 -0.082593225 0.026760662 0.32841268 0.23135893 -0.016913725 0.052300032 -0.43503627 0.30621743 0.24190839 0.35800833 -0.10874523 0.4010014 0.14567848 -0.045370176 -0.2032292 0.17124566 0.16398638 -0.10988313 -0.3846386 -0.49321842 0.13760398 0.22074136 0.06753561 0.000739318 0.3348586 0.12060207 -0.45365423 0.019389426 -0.3716536 0.0027343044 -0.4559133 0.019102663 -0.4102811 -0.089507796 -0.17410682
6 0.21447659 -0.001447398 -0.22567624 0.13710967 0.24386705 -0.4792858 0.039553132 -0.28857094 0.09327131 -0.02505378 0.15144593 -0.08153603 0.16498986 -0.16506493 -0.31458807 0.15589412 -0.42752942 0.19723295 0.16127132 0.18242745 0.44650626 0.18931091 0.4690388 -0.48717594 -0.017033987 0.2615123 -0.41414154 0.06646966 0.11983911 -0.3277188 0.010388941 0.16238664 0.22870922 -0.1459413 0.34830025 0.17291217 -0.12511443 0.603843 0.43924385 0.15410987 0.09098622 0.19126159 -0.18309091 0.022939859 0.031071829 0.14398745 0.06281026 -0.52987796 -0.29819626 0.1380557 0.17715628 0.06374616 0.35589325 0.5098408 0.13181072 -0.3487477 -0.21405055 -0.09135703 0.31336918 -0.3746532 -0.09571252 -0.4943073 -0.30613703 -0.26098347
2 0.15751258 -0.406653 -0.12327898 -0.17026287 0.12221796 -0.4626088 0.14482921 -0.10815129 -0.19205604 -0.05556584 0.53140974 -0.07755957 -0.45763302 -0.324456 -0.19986747 0.11351734 -0.031858176 0.3768341 -0.20282592 0.43001908 0.34738517 0.14931712 0.21356937 -0.06402082 0.0059828595 0.20235768 -0.34966266 0.18108116 0.18457542 -0.4472501 -0.22934024 -0.1351252 0.23520392 -0.39266184 -0.018440483 -0.045396183 0.57313794 0.083527304 0.53204167 0.31196874 0.37441513 0.5375771 0.0807388 -0.38175902 -0.020678485 0.0017957649 0.3231086 -0.44968843 0.03140264 -0.3927294 0.18407708 0.48603016 0.22970563 0.09848751 0.45680717 0.100749314 0.4698383 -0.44861743 0.1878772 -0.0023965517 0.45427883 -0.26625997 -0.20914757 0.20938295
16 0.2040401 0.025002817 0.5796198 0.18313064 -0.08811678 -0.1958556 0.33256167 0.25007913 0.12702122 0.08755323 0.21994328 -0.1640527 -0.11780309 -0.15602387 -0.1838423 0.38747767 0.23608637 -0.1125068 -0.40417165 0.4000585 -0.001635269 0.05352387 0.16061322 -0.20108499 0.5273475 0.37844378 -0.057836916 0.14655356 0.101824775 0.43636107 0.2699366 0.33367676 -0.6656317 -0.5076823 -0.09610477 0.5816589 0.1429852 0.61730886 0.47960192 0.13160807 0.19959702 0.42424116 0.3097292 -0.021922978 0.14014316 -0.64317244 -0.016783988 0.5567948 0.4815519 -0.4412595 0.520423 -0.4499089 -0.11678831 0.4364468 -0.1168339 -0.56568074 -0.34953532 -0.12624627 0.10789473 0.45755577 0.009975999 -0.0026883131 0.21261624 0.043564446
38 0.18027467 -0.24671277 0.302814 0.40105686 0.07847581 -0.48045057 -0.28515184 0.13305864 -0.014048349 0.1505639 0.52006316 -0.12495176 0.31583288 -0.70711774 0.17793636 -0.16090076 -0.13942851 0.10540768 -0.40513697 0.17526536 0.12828821 0.25149664 0.14531994 0.20158982 -0.4116681 0.15855813 -0.15535994 0.035039034 -0.31588006 0.3499605 -0.4386712 -0.2207984 -0.40221792 -0.0027941768 0.22593306 -0.2253126 0.52843416 -0.10423501 0.19099447 0.602263 0.12776928 0.523289 0.14188628 0.19963911 -0.45813265 -0.11662726 0.4739052 -0.02197609 -0.024993068 -0.54609406 0.7029927 -0.2637919 -0.06689859 0.22080602 0.20603544 -0.14599285 0.3077618 -0.6880032 -0.2578994 0.6552217 0.05870753 -0.28121737 0.28846925 0.08384355
12 0.38037172 -0.2671404 0.15771061 -0.034009386 0.41091102 -0.14833531 -0.3271506 -0.7540546 -0.27564806 -0.39229384 -0.25910744 -0.022635266 0.20818284 -0.36661807 -0.2749929 0.01085713 -0.45110616 -0.20266646 0.28864437 0.5812796 -0.11764532 0.23602682 -0.18483749 0.2657265 -0.2690735 0.6331876 -0.21037322 0.24795888 -0.34461415 0.32778078 0.41686097 -0.27573478 -0.69550025 -0.21656919 0.21208031 -0.009602859 -0.2844019 -0.033854745 0.56303984 0.72226346 -0.15464438 -0.006133847 -0.18251123 -0.028339297 0.43362004 -0.4893052 0.08670077 -0.35733825 -0.09065769 0.118260235 0.04873143 0.07373822 -0.48389095 0.45720446 -0.073076345 -0.5108579 -0.3586916 -0.1885143 0.09711736 0.31683952 -0.36512035 -0.37465283 -0.07108375 -0.047568195
15 -0.08904846 -0.058105342 0.28244388 -0.20422186 -0.1900306 -0.54498637 -0.2849519 -0.2541031 -0.53996456 0.22464095 0.5250038 0.29650125 -0.5218626 -0.53672224 0.24851106 -0.22163887 -0.17632854 -0.2811631 -0.078423105 0.17604725 -0.0019533408 -0.23268142 -0.15812136 0.07754658 0.21348597 0.46547085 0.23864836 -0.1357811 0.27124685 -0.54749644 -0.5568542 -0.12545618 -0.44802633 -0.40970325 -0.055465464 0.8778824 -0.05141744 -0.21715502 0.09746012 -0.4099244 0.21378636 0.7198403 -0.7317141 -0.40474978 0.15904082 -0.2022914 -0.46548665 -0.54895216 0.30285594 -0.03453089 1.0009125 -0.36768153 0.034341775 0.22479166 -0.2681576 -0.16748367 -0.20580621 -0.94871753 0.25598726 0.31646433 0.18468761 0.096031554 0.015978795 0.5837468
27 -0.3144524 0.18905239 0.28324544 0.4793202 0.0797115 -0.12654775 0.26144984 -0.29989755 0.30778572 0.037141457 -0.089278765 0.33629245 -0.08225061 -0.081875935 -0.24877518 0.44690618 -0.44714096 0.19271897 0.16350882 0.53668666 -0.28492373 -0.92756015 0.17869008 -0.7162714 0.4703272 -0.08017922 -0.24407668 0.09945791 0.09133865 0.19279687 -0.007511316 -0.02809774 -0.41969702 -0.05718263 0.505135 0.5283094 0.14552572 0.35694662 -0.23358703 0.17870925 0.6026056 0.49270058 -0.25976822 -0.5890056 0.10148617 -0.07035267 0.4646987 0.42857856 0.032896426 0.28377774 -0.071526036 -0.1415917 0.09503459 0.31415737 0.69238347 0.5234419 -0.04457304 -0.033583876 -0.17729805 0.17418018 -0.5567584 -0.6616845 -0.1089632 -0.41431615
9 0.3069471 0.0028830175 0.28179678 0.0071507404 0.4560245 0.4018221 -0.22846733 -0.8375476 0.08409836 -0.35025385 -0.24459676 -0.2916388 0.19857973 -0.110709004 -0.35894254 -0.5195339 -0.6547087 -0.31679407 0.09974557 -0.010208762 -0.1574075 0.012355726 0.00137724 0.04825432 -0.43665358 0.48741078 -0.28566027 0.09685155 -0.39429644 0.023430761 -0.30417213 0.091319256 -0.5220299 0.144761 0.25550592 -0.08727201 0.21247113 0.38016877 0.05314279 0.30628234 0.4046783 -0.4546833 -0.4699413 -0.31409648 0.038898427 -0.7087279 0.6817831 -0.26436293 -0.16019994 -0.011231521 -0.12543704 0.08710963 0.060671017 0.28738388 0.2211574 -0.04649001 0.2851708 -0.32374728 -0.15277153 0.29189372 0.049740467 -0.6915962 0.2067458 0.21430896
10 0.05647474 -0.19516735 0.25242788 -0.15196814 0.14338471 0.061486047 0.098186225 -0.54921556 0.14761923 -0.29719236 -0.066073634 -0.29540747 0.37809342 -0.11509349 -0.33165944 -0.5235467 -0.64482045 0.22389272 0.1454568 0.3094857 -0.40199015 0.5288282 -0.18699533 0.49865848 -0.50283396 0.7166259 -0.42169255 0.44997987 0.07169575 -0.3206986 -0.013558785 0.36078018 -0.47689936 -0.38634178 -0.20504522 0.09758791 0.6511042 -0.13606666 0.45790708 0.67219716 0.23126505 -0.36445385 -0.3481818 -0.29719737 0.5383341 -0.111904055 0.06725223 -0.41095883 0.22434168 -0.43060336 -0.089369796 0.5234716 0.045215324 0.46716 0.22134072 0.0015885534 0.26155815 -0.075535506 -0.18551958 0.24080938 -0.14068268 -0.09793027 -0.2676929 0.3140301
8 -0.044775747 -0.24102437 0.21836971 -0.050073773 0.2875717 -0.24562751 -0.25587007 -0.67558885 0.42286012 -0.6353051 -0.2691988 -0.122595005 -0.4407638 -0.042788323 -0.5189639 -0.08516238 0.16112378 -0.039777916 0.31449482 0.6458403 0.1280224 0.11786538 -0.3397497 -0.084984995 -0.55882555 0.60126084 -0.4969707 0.0624172 -0.2970038 -0.27700248 -0.09615838 -0.24718496 -0.7036679 0.3805901 0.40944216 0.4432816 0.25169396 0.16571513 0.23659325 -0.12824133 -0.27163097 -0.1919035 -0.11964965 -0.23971882 0.38840866 -0.13808624 0.51979244 -0.14758722 -0.43585685 0.029279634 -0.13035929 -0.04447321 -0.15959258 0.56436676 0.7364496 -0.06753193 -0.07754244 -0.19568893 -0.117863655 -0.16477458 -0.24110459 -0.5871377 0.29560262 -0.26683107
19 0.45417234 0.438921 -0.106560275 0.51330966 -0.30734566 0.6209281 0.30805728 -0.44828713 0.38018766 -0.005283935 -0.121769555 -0.24691856 -0.16160849 -0.35650644 0.017320542 0.2868417 -0.2539729 -0.015767079 -0.33616737 0.4953821 -0.063279144 -0.1820388 0.44219655 -0.4105987 0.06404176 0.36374164 -0.021596188 -0.2880186 -0.44977412 -0.62698966 0.38623402 0.37671602 -0.46030813 -0.6775463 -0.18411092 0.17220801 -0.000891824 0.25013453 -0.50432 0.063760325 0.7909685 0.2784789 -0.6816706 -0.12091262 0.02282838 -0.71956885 -0.49037817 -0.23222038 0.07871514 0.06216272 0.53130466 -0.08166857 -0.0013904091 -0.11469865 -0.23699933 -0.80075026 0.06049248 -0.3720199 -0.22714205 0.008695714 0.29252657 0.21503781 0.9631521 0.49968505
35 -0.014798646 0.42999208 0.27320093 0.005955634 -0.56924367 -0.2923769 -0.14293036 0.15287249 -0.5933045 0.011620075 -0.3211435 0.41501287 -0.40731388 0.032753184 0.059879422 -0.20650159 -0.005014464 -0.0060171625 -0.5623696 0.2670545 0.402088 -0.17941986 0.75199485 -0.3640413 0.00822809 0.8820825 -0.5073846 -0.016237855 0.036545176 -0.3488165 -0.67031854 0.33574566 -0.84612167 -0.24552548 0.37041998 0.0005741742 0.64587903 0.3985545 -0.055046316 0.7523655 0.26954648 0.25518352 0.37250116 0.4837653 -0.1866192 0.26936138 0.12911992 -0.082458116 0.038131103 -0.25397405 -0.058007482 0.6937535 0.43264222 0.42481157 0.28429767 0.26283395 0.22893968 -0.21190183 0.30379996 -0.26144487 0.092024244 -0.010550625 0.099633746 -0.028904712
11 -0.14347762 0.20814385 0.34845832 -0.06575469 -0.0644652 -0.3781304 -0.3765689 -0.48035106 -0.30749658 -0.16271402 0.57795405 0.11711647 -0.10973181 0.034482654 0.06839365 -0.43955746 0.17506103 -0.2834549 0.53055793 0.57629323 0.36497656 -0.04638549 0.24405222 0.2513675 -0.16937427 0.18903355 -0.7988696 0.2690002 0.82998055 -0.071391076 -0.2691338 0.42315862 -0.070024066 0.08769312 0.6963087 -0.4231689 -0.43338546 0.35953304 0.7655325 0.38608855 0.36111903 0.020425543 0.19197471 -0.48067257 -0.14268267 -0.1843528 0.08279178 -0.16033134 -0.492718 -0.1960731 0.40027007 -0.41536 0.4429273 -0.15345389 0.25636318 0.06864537 -0.050289612 -0.41772765 0.4534304 -0.302776 -0.6013079 0.200481 0.5179002 -0.1900195
22 -0.43061957 0.3682266 0.21327576 -0.04808031 0.6402756 0.28409472 0.1351089 0.046248615 0.31563738 0.12174488 0.47940505 0.26511544 -0.024358323 -0.7610084 -0.60757583 0.4838058 -0.266033 -0.062808745 -0.47841987 0.60359716 0.10725991 -0.4313962 0.02802617 -0.64677835 -0.6875972 0.45545134 -0.66722107 -0.1840743 -0.3052651 0.21770343 0.026096765 0.04116015 -0.31577528 -0.31649423 0.4310966 0.6755403 -0.30022055 0.20817423 0.27615002 0.19676404 -0.5395651 0.7428842 -0.48598385 -0.5861957 0.16267441 -0.255322 0.29375482 0.37290436 -0.18391952 0.30160344 0.5280225 0.2980512 0.37363446 -0.19551298 -0.32155508 0.7317244 0.17795856 0.36170933 0.58592147 -0.11642902 -0.5912441 0.22398804 -0.25469878 0.2419927
25 0.36567143 0.47764388 0.91914386 0.155006 0.1540474 -0.1275638 -0.22114383 -0.3526389 0.7260156 -0.4586173 0.27293038 -0.42831206 0.9471082 0.5653896 0.0831544 -0.055404007 -0.10033349 -0.14481579 -0.05112785 0.47381535 -0.3452923 -0.21230003 0.24432246 -0.3061244 -0.13525902 0.42018336 -0.09166827 -0.014723268 -0.059964433 -0.5275607 -0.57534164 -0.18108428 -0.7461348 -0.7343057 0.1823288 -0.63182074 -0.4630118 -0.13715108 -0.19582038 0.25512937 0.30848652 0.022503667 -0.19908054 -0.74643964 0.24714258 -0.22398892 0.03676666 -0.3025254 0.4038415 -0.054458693 -0.25205696 -0.3274962 -0.49454987 -0.13322341 0.45322093 0.7383237 -0.3185731 -0.5707326 0.81667185 0.008594857 0.017852 0.4607317 0.22828785 -0.048479572
23 0.50480515 0.5144237 -0.35876414 0.21012765 0.05368044 0.49039516 0.08238553 -0.35172784 -0.16955845 -0.028905407 0.13241567 -0.5065082 -0.07002353 0.043321453 0.023511771 0.039960355 -0.771069 0.27559972 -0.36601514 0.89524025 0.06139598 -0.09231623 -0.025002332 0.031248352 -0.5021362 0.4425228 -0.78835315 -0.31652212 -0.38267687 0.5742374 -0.7190022 -0.5106299 -0.26233566 -0.37754878 -0.2644456 -0.07171606 0.34956917 0.299021 0.17094417 -0.30483723 -0.09809247 0.1231606 0.15417232 -0.9866075 -0.45561525 -0.3755438 -0.43983567 0.17273961 -0.020165732 -0.06683209 0.26517856 -0.5858128 0.4577754 -0.13137016 -0.07102165 0.44473246 0.7162038 -0.607529 -0.29392013 -0.54798174 -0.77026844 0.096660204 -0.18045056 -0.5151668
785 -0.1521906 0.25536725 0.6609711 0.30795142 -0.31466487 -0.24836172 0.069084525 0.77268475 0.045372143 0.42265975 -0.28620687 0.4339191 0.07030076 0.11299103 -0.66629994 0.0491189 -0.037258014 0.029740011 -0.473312 -0.5789612 -0.22944038 -0.74184763 -0.028462786 -0.14902773 0.045492645 0.58079165 -0.84608936 -0.07391896 -0.2825843 -0.6864064 -0.046026614 0.38356936 -0.51289934 0.41709444 0.7924071 -0.44560662 0.34511498 -0.2578662 0.3876179 -0.07772185 0.06518963 0.4421412 0.7342536 0.10764258 -0.41462842 -0.5533536 0.4744314 0.30986112 -0.08395875 0.5097318 0.8639251 -0.16152471 -0.5525969 0.1976979 1.0370181 0.25706103 0.24169102 -0.5863987 -0.22319424 0.055361632 0.25148195 -0.73192847 -0.14838795 0.05041838
772 -0.30496565 0.64359134 -0.009360839 0.60841686 -0.24167748 0.08390374 0.039136365 -0.38264927 0.010296105 0.16051482 0.020841567 -0.2638658 0.93961495 -0.6280119 0.23408642 0.08224411 0.736325 0.32687896 0.22080782 0.6161465 -0.52549887 0.47862425 -0.66277176 -0.35690895 -0.68667656 -0.38545096 -0.68482816 -0.53852385 -0.60345244 -0.11101478 -0.5595219 0.20351037 -0.811516 -0.29303145 0.51759535 0.6005693 0.24163988 0.3304605 0.39772758 -0.2887664 0.44894746 -0.12636307 0.5912803 0.28015515 0.28193092 0.30817524 -0.6837208 -0.59634024 0.10014377 0.41715735 0.63284445 0.24673532 0.4270631 -0.18186498 0.73822856 -0.046775877 -0.88174856 -0.08077606 0.30088374 -0.31349117 -0.40632668 -0.50739235 0.034114067 0.3471681
93 -0.23789635 -0.10308501 -0.22683176 0.07829897 0.7836706 -0.37483948 0.5065543 0.13490094 -0.92889184 0.21703056 -0.17455354 0.13389865 0.6540905 -0.35024908 0.12263037 0.27938375 0.11041849 0.2530515 0.5273566 1.1360409 0.26738575 -0.0030599814 0.7184818 -0.08660944 0.47199997 0.35152987 -0.49550673 -0.24311975 -0.5643227 0.598638 0.716987 0.61657643 -0.42343685 -0.24585271 0.47418278 -0.011745244 0.096071616 -0.1779165 0.4436237 0.33640075 0.5967164 0.5967566 0.48505068 0.26273584 0.3157053 -0.8592329 0.38108304 0.26618108 -0.1103519 -0.16733257 -0.23453626 -0.5365512 0.45739034 -0.3248638 -0.44911674 0.25082052 0.33548227 0.3467892 0.37015367 -0.25530392 0.4115187 -0.23590124 0.41788337 0.44463724
786 0.3002139 -0.80518687 0.49895293 -0.36948347 0.17592898 -0.7141986 -0.15011351 0.19951664 0.5144231 0.33081025 0.50502014 -0.17681918 1.0017166 0.09407172 0.033434447 -0.3917226 0.10156545 0.59547365 0.16389476 0.22595929 0.15264678 -0.26531535 -0.6173859 -0.8296861 0.3065199 0.017861571 -0.90887094 -0.37501338 0.2361809 0.22234552 0.06993277 0.86428756 0.13807647 -0.369658 0.6834187 0.25995302 0.45347658 0.733332 -0.47578248 -0.02466751 0.1682157 0.49024293 0.18428165 -0.0899292 0.35867926 -1.158992 -0.3394988 -0.4094737 0.49400702 0.37752023 0.13766631 -0.31797323 -0.56313396 -0.38747042 0.4844564 -0.07420637 -0.02681283 -0.13206719 -0.30923298 0.2970104 0.04566406 0.036930807 -0.26844126 -0.54008144
826 0.025042187 -0.20147339 -0.31111026 -0.7623528 0.6144892 -0.19001742 -0.106633715 0.17079268 -0.3635005 0.10514611 0.040898778 -0.46896353 0.4154535 -0.24237897 0.32917243 0.16539381 0.02592231 -0.13578947 0.25455546 0.36510587 0.3091499 0.36714742 -0.1435473 -0.34331408 -0.27378476 0.79612446 -0.7620199 0.9277818 -0.91936314 0.19478276 -0.082400575 0.76440096 -0.6724047 -0.08752333 -0.49780074 0.58351463 -0.24280468 0.45541197 0.121328406 -0.62816787 -0.15524971 0.5597818 -0.37510803 0.11313317 -0.37871364 0.14956954 0.30667087 0.027071575 0.1973987 0.5691545 -0.11208957 -0.66227806 -0.6830868 0.04872864 0.18183607 0.41233107 -0.07396793 -1.262917 -0.38376874 -0.22608 0.71608204 0.13505067 -0.55937517 0.41723087
815 0.15416203 0.115962684 -0.7853639 0.7633649 0.32224074 -0.3285328 0.027575463 -0.063806504 0.43148407 0.467011 -0.5634513 -0.65620637 0.41422668 -0.46526727 -0.45500088 -0.08906803 0.64872485 0.16343364 -0.2184742 0.7196903 0.11665172 -0.20680644 0.5197221 0.44012398 -0.10440838 -0.4121192 -0.3654432 -0.0656348 0.43098795 -0.49737284 -0.21315648 0.7818448 -0.38725534 0.14009121 -0.4210594 -0.06370472 0.12532164 -0.062323548 0.22875555 0.46036142 -0.08605194 0.21647157 0.21714911 -0.79127485 -0.5617351 -0.32980356 -0.38269004 0.31895155 -0.35927215 0.5817062 -0.09224186 -0.5927925 0.58024037 0.8212997 0.12801656 -0.023576412 -0.64029354 -0.91833735 -0.18525982 0.47040272 -0.118650265 -0.10284602 0.8048301 0.3176037
735 -0.4306234 -0.4760661 0.04940194 0.39358592 0.469544 0.04955962 -0.32899904 0.4815652 0.14720307 0.27432582 -0.555273 -0.051218726 -0.43701875 0.6561088 -1.3341883 0.70756537 -0.49579832 0.33618358 0.07405858 0.26685655 0.6064676 0.2129919 0.34298727 0.2460646 0.11033153 0.9990343 -0.048696425 -0.797332 -0.17635575 -0.56555426 -0.023954086 -0.22712389 -0.18867412 -0.50908476 0.58484626 0.6787961 0.24764647 -0.12231583 -0.05192671 -0.21013415 0.5185594 -0.46609318 -0.21613438 0.119789034 0.1015515 -0.2977285 -0.30030924 -0.11160663 0.63120884 0.18340221 0.20225611 -0.2327634 0.67350554 0.54171485 0.28083736 0.15466624 -0.42314032 -0.9609925 -0.20165263 0.03166985 -0.036768604 0.27653855 0.08482265 0.11650875
680 0.01470343 0.5066316 -0.2821722 0.7365337 0.3893349 0.10331263 0.50293046 0.12056206 -0.15910819 -0.462596 -0.27571303 -0.20862386 0.6907529 -0.291503 -0.066280045 -0.36103576 -0.8796503 -0.5672895 -0.21499489 0.01195976 -0.2479806 0.06275793 -0.18785408 -0.531242 -0.10688115 0.2736162 0.25167274 0.8039775 0.7353359 0.49831617 -0.43733478 0.7568509 -1.2009714 0.09022385 -0.22660407 0.2572724 -0.07128748 0.3980452 0.7158489 -0.16202475 0.71811306 -0.15681955 -0.034083594 0.23987469 -0.51591504 -0.08219003 -0.14731695 -0.20824511 0.7339545 -0.057383318 0.39893064 -0.41770574 0.11205924 0.15853187 0.41401315 -0.113878645 0.37347648 -0.27444375 -0.103178054 -0.560853 0.29350153 -0.3005921 -0.16743648 -0.22298881
399 0.19547673 -0.022124438 0.11367216 0.28569743 0.08138285 -0.15680942 0.14413191 -0.050045855 -0.19856974 -0.09097832 0.15555114 -0.29079035 0.010498441 -0.18910854 0.058660433 0.075897306 -0.1210429 -0.0380508 -0.0569481 0.40264592 0.040190775 0.07498362 0.023527961 -0.18316978 -0.20634276 0.1713772 -0.31394026 0.0002611605 0.11622556 -0.072513446 -0.13744226 0.3684559 -0.49679905 -0.22576474 0.14092875 0.09069733 0.27223435 0.098177314 0.05870539 -0.0078203445 0.1246441 0.08315814 0.012340967 -0.14815482 0.014011366 0.093499824 0.019793477 -0.16281717 -0.17079619 0.23771058 0.19079848 0.011468329 0.0671192 0.25170228 0.19545123 0.119196616 -0.008111619 -0.23378706 -0.18674304 -0.08077804 -0.097644284 -0.14859721 0.0768005 0.120183736
708 0.010140666 -0.10688301 0.3771108 0.063401654 0.118415125 -0.14070593 0.08533755 -0.055607803 -0.079781696 -0.059653822 0.10556767 0.059862792 0.05124289 -0.06425725 -0.11983669 0.23576823 -0.26603943 -0.057066184 0.0049468353 0.38120505 0.25883448 0.12462647 0.0652409 -0.19545604 -0.14070746 0.24133039 -0.33501783 -0.109598614 0.015663316 -0.13152485 0.0022663244 0.06754808 -0.49616987 -0.062415194 -0.03153265 0.11098375 0.090046614 0.21013029 0.1433613 0.20522685 0.1290071 0.05608737 0.003217186 -0.25983563 -0.07026495 -0.17469642 -0.04993607 -0.11309601 0.027354721 -0.03758576 0.1738414 -0.00027848707 0.20682763 0.31253222 0.22601748 0.037403088 -0.055161297 -0.15773249 -0.21315278 -0.039730057 -0.2597917 -0.12588295 0.020154895 0.103078954
219 -0.10801425 -0.0938618 0.12208421 0.22942616 0.18426359 -0.15024059 0.16385822 -0.16355875 -0.15246242 -0.1351247 0.010921807 -0.082100846 0.052873798 -0.10007473 -0.18788588 0.20326887 -0.14217955 -0.24810176 0.084761575 0.3889475 0.16097952 0.3675039 0.057665076 -0.20594874 -0.039021976 0.1978943 -0.3369149 -0.058290042 0.010685989 -0.19077127 0.024293443 0.09936288 -0.48198876 -0.20853333 0.17566936 -0.015989343 0.22626019 0.23746566 -0.025255442 0.10457084 0.2507779 0.009068634 -0.0036126086 -0.1354925 0.039413366 -0.17951125 -0.03267216 -0.11971781 0.00011322576 0.12278793 0.120285004 0.04923913 0.03747606 0.296756 0.24562016 0.035168774 -0.06813505 -0.17921087 0.06995066 0.051044695 -0.19618784 -0.07051852 0.07267314 0.057614688
904 0.15810773 -0.0561279 0.23079638 -0.027529497 0.11126204 -0.24225357 0.03555867 -0.21564236 -0.039712697 -0.0029851291 0.18601808 -0.021403642 0.08466676 -0.044977684 -0.10453823 0.23340717 -0.21437527 -0.100609735 0.13422619 0.21992755 0.2227028 -0.007745861 0.087285295 -0.26481822 -0.28309822 0.28242576 -0.3378078 -0.12295095 0.0021299687 0.00937533 0.022099858 0.11595564 -0.46501365 -0.10634681 0.106979 -0.009805082 0.21790677 0.15222721 0.0586004 0.19714768 0.10848993 0.21395949 0.15416512 -0.3665034 0.05101721 -0.24302253 -0.018595435 -0.069700345 -0.051693637 -0.092235655 0.07374184 0.13787453 0.11626426 0.13293743 0.28154153 0.0556995 0.21765757 -0.15842904 -0.23999089 0.06800953 -0.23003301 -0.1675245 -0.07452152 0.05879967
814 0.113671064 -0.01632554 0.3028456 0.16108347 0.17131609 -0.33598328 -0.034851044 -0.12007762 -0.21991274 0.046492152 0.11478402 -0.13448867 -0.06553418 -0.12961559 -0.30868056 0.10004042 -0.2894006 -0.018098371 -0.008870255 0.39839438 0.13508472 -0.07454692 -0.015480831 -0.11331208 -0.25000557 0.1798732 -0.29719827 0.039126348 0.03173934 -0.09622593 -0.09631093 0.33805707 -0.38683578 0.03354627 0.04683272 0.09083284 -0.048188463 -0.061405238 0.18895404 0.21906197 0.054450676 0.13568097 0.02322121 -0.21400204 -0.1161968 -0.18355322 -0.06417268 -0.07157189 0.07395453 0.07789033 0.12505682 0.01507271 0.07676012 0.33622906 0.1903027 0.15968494 0.01377675 -0.15489928 -0.08177023 -0.036707204 0.04858149 -0.3073031 0.10287756 0.17765194
725 0.10028653 -0.035369426 0.199581 0.24437639 0.24360275 -0.2377123 -0.0016807597 -0.030758886 -0.16568162 -0.034517612 0.17892456 -0.13552997 0.0011475568 -0.029553154 -0.267815 0.09282254 -0.20136078 -0.07071613 0.043037184 0.4283237 0.2603109 0.09223419 0.01662504 -0.22881848 -0.17004116 0.32973227 -0.19926308 -0.057816558 0.14230236 0.07133826 -0.11885863 -0.09931076 -0.27633867 -0.01086849 0.09766029 -0.025757866 0.060609426 0.10365406 0.035461448 0.004155057 0.10386474 0.13301301 -0.15268958 -0.3130907 -0.02452733 -0.1629208 -0.1255809 -0.24230462 0.07500858 -0.08443713 0.28896958 0.08171057 0.07909667 0.2605618 0.2500494 0.12009424 0.17976795 -0.2707507 0.031763718 0.045110345 -0.19971825 -0.18318245 0.0883623 0.11492672
84 0.06997288 0.021871569 0.1779225 0.31540442 0.20660791 -0.22235274 -0.040971097 -0.102798834 -0.16355942 -0.098385915 0.14699575 -0.27345794 0.11808536 -0.08670283 -0.26222137 0.13625982 -0.29258358 -0.20032072 -0.024332842 0.54755545 0.14985466 0.15822074 0.018953001 -0.19173428 -0.049837656 0.34235504 -0.18136205 -0.05065017 0.10397988 -0.08106753 -0.15856837 0.21633053 -0.394119 -0.019180264 0.0945558 -0.024431063 0.069611505 0.09537942 0.123325706 0.18838437 0.0038006715 0.15998726 -0.08750107 -0.26466355 -0.13560805 -0.08328835 -0.16787122 -0.08310717 0.08640071 0.1649273 0.0029763735 0.19090094 0.06812871 0.42753845 0.075503536 0.15083069 -0.05646098 -0.029245427 0.023678364 -0.04318963 -0.1484925 -0.13357554 0.1345102 0.10820474
31 0.16024646 0.034307502 0.266341 0.18093619 0.23124743 -0.2633908 0.040485848 -0.045844518 -0.09369595 0.09803429 0.17760137 0.037623066 0.052748628 -0.09190966 -0.15944679 0.1558429 -0.20912902 -0.089081876 -0.04930992 0.23976666 0.15731251 -0.03289801 0.09977979 -0.3449658 -0.13324036 0.3257245 -0.3815243 -0.13653092 -0.0016018364 -0.15481813 -0.042878687 0.13228877 -0.5243186 0.029527053 -0.064551406 0.09649974 0.27246025 -0.077487804 -0.01107293 0.35488513 0.014017344 -0.06852358 0.07970979 -0.2867497 -0.27656457 -0.2122542 -0.12361857 0.07009768 -0.044090617 -0.015309603 0.015239826 0.06969733 0.15994392 0.24894871 0.2072367 0.11233945 -0.015132021 -0.30465484 -0.23131104 -9.9894016e-05 -0.043601364 -0.14654346 -0.05777478 0.21547945
557 -0.009348369 -0.23283142 0.16804667 0.18464294 0.045133453 -0.39350015 0.12547144 -0.27760902 -0.20176882 -0.012859045 0.25569007 -0.06866281 -0.016661268 -0.0317937 -0.24510172 0.1608439 -0.015491446 -0.08045133 0.032558817 0.1188691 0.113419935 -0.11991259 0.21583402 -0.27507043 -0.27647126 0.26918393 -0.6072467 0.034607943 -0.09204549 -0.18518165 0.017458854 0.21378782 -0.32393694 -0.023889594 0.06820702 -0.121411994 0.1842176 -0.062039297 0.0888206 0.22823822 0.16426678 0.21497943 0.04542657 0.017991327 0.12704007 -0.35636535 -0.19341823 -0.17167386 0.08745721 -0.06997511 0.10666859 -0.094513625 -0.009174391 0.12484211 0.2763413 0.05147881 0.08273765 -0.15930493 -0.17980091 0.13338229 -0.078376636 0.01939154 0.23067407 -0.021678463
71 0.09465229 -0.024872743 0.28773355 0.03516775 0.22894722 -0.33955008 -0.012295531 -0.008626731 -0.11329501 -0.0020905347 0.15783697 -0.05775201 0.04298856 -0.17179368 -0.04608938 0.1933173 -0.29948595 -0.07207188 -0.07351604 0.26130778 0.21663149 0.20346174 0.12741767 -0.17609616 -0.22815499 0.3997717 -0.35985127 -0.18061079 0.018757792 -0.07635897 0.00920969 -0.006852638 -0.46787196 0.07551091 -0.014978191 0.049228348 0.14120054 0.15582596 0.18287711 0.09349923 0.18575779 -0.058237273 0.03984567 -0.181841 0.04232917 -0.1657668 -0.08082741 -0.10023638 0.056863442 0.021575777 -0.03380539 0.09481128 0.08928233 0.28562665 0.1741901 0.097230144 0.027090393 -0.35031524 -0.23559155 0.092525475 -0.10263974 -0.04987884 0.0086860685 0.21758556
733 -0.08620666 0.030160567 0.18212129 0.22259025 0.21055116 -0.20170192 0.1311537 -0.07300066 -0.099567406 -0.050812535 -0.007201396 -0.18166967 0.14981112 -0.08533264 -0.15063936 0.046956275 -0.24938287 -0.18258928 -0.05429667 0.3261601 0.13031858 0.33481455 -0.05013364 -0.33303392 -0.11291568 0.10069949 -0.3017346 0.14059173 0.13350643 -0.03939305 0.047551766 0.13386677 -0.4493272 -0.24559657 0.2027462 0.106057644 0.22005694 0.3456697 0.16690345 -0.02710052 0.10445048 0.017947614 -0.11446067 -0.2727215 0.123017296 -0.070525125 0.10054898 -0.26746473 0.07522432 0.20805103 -0.007873932 -0.0038347775 -0.08784855 0.22449279 0.24148646 0.042119645 -0.019597765 -0.31926796 0.048800204 0.03793817 -0.031172415 -0.13674916 0.056587555 0.097375974
934 0.075857885 0.020245107 0.052273136 -0.050402332 0.14792764 -0.24822123 -0.00370373 -0.2035379 0.033576757 -0.00080745923 0.16900398 -0.2741639 0.15380289 -0.16305663 -0.17248143 0.027290769 -0.2250866 -0.20651129 0.12523434 0.25400314 -0.033699807 0.00888196 0.1489523 -0.17065172 -0.18608388 0.3812604 -0.39469013 -0.12547493 0.044362053 -0.17209786 0.008542676 0.08855722 -0.40968227 -0.23187707 0.0154159935 -0.05147043 0.09696323 0.16331452 -0.0295266 0.013075877 0.20511347 0.22993812 0.008015883 -0.22876799 0.2051354 -0.28699028 -0.23245934 -0.18560064 -0.029351112 -0.05887977 0.013670126 -0.048860427 -0.11117928 0.21575943 0.24085565 0.037675485 -0.02766757 -0.18507554 -0.05326942 -0.004295598 -0.11759907 -0.06296774 0.11753022 0.058673054
643 0.09416537 0.08527669 0.04930871 0.13079028 0.101964384 -0.2971198 -0.011185345 -0.16372253 -0.12687826 -0.056813456 0.15770337 -0.011525159 -0.0074248323 0.050584458 -0.20713715 0.14486797 -0.09826003 -0.15480405 -0.12171645 0.4310185 0.14622103 -0.026389929 0.06597304 -0.3148215 -0.25606725 0.2013501 -0.3777811 0.015358229 -0.052949563 -0.1564927 -0.2175868 0.12290959 -0.60353976 -0.10408065 0.17905992 0.020237604 -0.0139721455 -0.07980123 0.017150952 0.1243644 0.12593018 0.081440896 -0.058240548 -0.16335772 -0.067152195 -0.050818637 -0.07929288 -0.0914578 -0.051777013 0.04989233 0.2968021 0.07351624 -0.021325985 0.18124415 0.20506549 0.22049728 -0.0097679 -0.1628742 0.0020208117 0.08139399 -0.018876716 -0.4164708 -0.10536093 0.09184442
380 -0.019658606 0.060690474 0.24779291 0.103517406 0.13804756 -0.2491063 0.20675963 -0.0057263933 -0.10833226 -0.022203548 -0.05883364 -0.07222899 0.11296062 -0.079145655 -0.150676 0.054501217 -0.45755824 -0.09837043 0.15318339 0.31550488 0.12275055 0.08802559 0.008916779 -0.2894969 -0.17321894 0.38760442 -0.43454605 -0.029730631 0.11220538 0.024385666 -0.066306435 0.18801129 -0.31125152 -0.14147758 0.098706976 0.20762625 0.08870082 0.24371704 -0.0010307675 0.120631956 0.07567613 0.18294594 -0.13628766 -0.09957482 0.08754991 -0.07816841 -0.18805325 -0.19084758 0.0851338 0.035658818 -0.09299413 -0.03476523 -0.10076222 0.21698631 0.36380085 0.049900245 -0.16107115 -0.368549 -0.0604482 -0.058981698 0.030218387 0.011677083 0.14089346 0.15179941
150 0.06966994 -0.015492872 0.19519319 0.10390562 0.085225545 -0.29527408 0.122549236 -0.24067388 -0.20267694 -0.0016060475 0.23478234 0.04577614 -0.033480536 -0.066997215 0.03152722 0.07550459 -0.19116911 -0.076892674 -0.050757546 0.2831673 0.19010758 0.13089147 0.045057453 -0.204232 -0.27244052 0.21668717 -0.3045354 0.07205924 -0.03077811 -0.07049983 -0.08911466 0.22440375 -0.46898708 -0.11429173 0.26948398 0.0158467 -0.019478636 0.16008547 0.07860001 0.077174045 0.050069906 0.007853086 0.008080875 -0.046700407 0.09328706 -0.046164706 -0.09352552 -0.21697915 -0.17267658 0.026520975 0.18594284 -0.13968837 -0.019021796 0.21365099 0.24177738 0.22239578 -0.077264525 -0.39713576 -0.113273084 0.21021311 0.04529388 -0.3000659 -0.004326103 0.17663519
493 0.18382238 -0.1451194 0.18551157 0.071533255 0.2670813 -0.17892356 0.0077312086 -0.2497269 -0.11561481 -0.004269657 0.22261913 -0.20729986 -0.12677392 -0.19151406 -0.035853643 0.12288456 -0.16240418 -0.22744726 -0.15677768 0.2677125 0.23198958 0.102225825 0.15790313 -0.22238533 -0.18704523 0.1800547 -0.09490858 -0.19218564 0.05317837 -0.15796043 0.1446569 0.24218693 -0.45593068 -0.07852272 0.016088892 -0.121797875 -0.040071536 0.19335398 0.071837984 -0.07752185 0.2676681 0.113755375 0.07063071 -0.22254753 -0.0017967186 -0.31189972 -0.082663834 -0.09747585 -0.19452642 0.034015097 0.13933578 0.01882906 0.067426085 0.3845079 0.11159535 0.11468207 0.20026995 -0.26228958 -0.15830275 -0.013268472 -0.12258429 -0.1612764 0.042262778 0.17451411
955 0.21230493 -0.09955209 0.35562572 0.19749506 0.16555563 -0.14308356 0.0330232 0.10845717 -0.189011 -0.117519364 0.21028833 -0.0772435 0.13357812 -0.066514015 -0.13749583 0.091074124 -0.28013375 -0.07491835 -0.06392486 0.26579583 0.292546 0.1536713 0.16882867 -0.19385469 -0.18140328 0.36406493 -0.27680263 -0.090751976 0.113931365 -0.16359451 -0.16061829 0.048359316 -0.38880068 -0.08851918 0.016219554 0.016464498 0.17346676 0.18264392 0.14660425 0.20605199 0.26699135 -0.09297091 -0.04387996 -0.2793192 -0.078047484 -0.19206694 -0.06272314 -0.032368444 0.18104033 0.027557645 0.021989394 -0.02645867 0.20877281 0.24365939 0.21264647 0.041150138 0.14925976 -0.16657168 0.008109145 -0.06782687 -0.24816166 -0.08455797 0.008984705 0.20192578
308 0.33327416 -0.064184114 0.27882203 0.26058167 0.12664993 -0.17043425 0.05291861 -0.095594674 -0.22084609 -0.067460045 0.2564742 -0.21116644 0.1193277 0.004714453 -0.1043475 0.09378787 -0.1774202 -0.18752295 0.049217474 0.3410625 0.24129066 0.05787571 0.06384474 -0.26341486 -0.1085307 0.32468325 -0.13076003 0.1086569 0.0981314 0.05096594 -0.18642834 0.13949783 -0.34734878 -0.0473686 0.19257724 -0.094970174 0.08660161 0.06436963 0.14340569 0.17513666 0.10947991 0.15150441 -0.008686295 -0.21808414 0.054925315 -0.23400272 0.030730193 -0.10694936 0.13405856 0.04021464 0.11002107 0.004865133 0.10044396 0.24741557 0.25740266 0.14310113 0.09612947 -0.16253673 0.13552153 -0.08115518 -0.16954415 -0.34265277 0.043693755 0.097256355
598 0.070493765 -0.14391758 0.15790862 0.27623275 0.20866638 -0.17752643 0.14092717 -0.13047978 -0.32637432 0.06899111 0.11221478 -0.32846436 -0.029507406 -0.3077508 -0.08044474 0.0061459905 -0.1421428 -0.07550898 -0.1886496 0.40843335 0.030841047 0.07597739 0.09071474 -0.17198387 -0.0086600995 0.23674957 -0.14468996 0.120444894 0.033103403 0.047302153 0.102262706 0.44188976 -0.20477106 -0.19915551 0.07496135 -0.017022 -0.07772695 0.16469014 0.2351133 -0.107584134 0.22048236 0.21463922 0.0031830997 -0.06719996 0.081916064 -0.25856605 -0.013788183 -0.14229661 -0.08180084 0.10564399 0.06814858 -0.1846759 0.07384644 0.36379787 0.04899657 0.014390813 0.0142546 -0.39233357 -0.05210962 -0.032853365 0.022909813 -0.011845874 0.246779 0.044099815
964 0.059194352 -0.019591551 0.12898725 0.25945708 0.29117402 -0.19594665 0.1152378 -0.14003754 -0.0497859 0.20649056 -0.038297746 -0.063364215 0.1898455 0.0014636519 -0.06620093 0.33303475 -0.0400549 -0.093221046 -0.04864228 0.5284437 0.06952694 0.14325285 0.08325831 -0.267937 -0.072497554 0.22812936 -0.25639474 -0.25106815 -0.08184474 -0.05851306 0.10650882 0.07527366 -0.46685597 -0.12019767 0.05346271 0.05826306 0.049578715 0.1312278 0.09967514 -0.02695342 0.2968969 0.22367276 -0.07592125 -0.23153208 -0.02208483 -0.16868629 0.0055255834 -0.060797285 -0.067905806 0.028680539 0.24694735 0.16906475 0.302013 0.12356858 0.113808714 -0.07051094 0.13837945 -0.22760932 -0.117023416 0.13711563 -0.25867754 -0.014753655 -0.1260143 0.025238456
337 0.1023121 -0.09809802 0.34674898 0.14681658 0.052675877 -0.2601661 0.14384618 -0.2077423 -0.1647136 -0.03583016 0.18755794 -0.002306119 0.0027141771 -0.048761845 -0.22728005 0.09334735 -0.15034612 -0.10118419 0.018855918 0.04607483 0.23071651 -0.052235097 0.15602481 -0.28580284 -0.098686494 0.11307901 -0.3193883 0.0813094 0.023305463 -0.11473119 -0.017449882 0.23452267 -0.43944618 -0.21438035 0.055973537 0.013784863 0.1591728 0.021518521 0.065893754 0.24623935 0.1272878 0.12692197 0.107924104 -0.27410927 0.031269968 -0.22876899 0.010781954 -0.13331872 -0.028332213 -0.08169484 0.11410804 -0.02969553 0.0976475 0.22346324 0.38237536 0.0794595 0.019112144 -0.17213883 -0.16866387 -0.07527154 -0.037156723 -0.3313177 0.045996822 0.061737746
87 -0.081346 -0.011197964 0.25612354 0.12188497 0.2163374 -0.05164053 0.08638565 -0.2936014 -0.044509828 0.06734323 0.21886504 -0.16523558 0.111835375 -0.09488204 -0.10416544 0.16310628 -0.2992509 -0.29163215 0.059954796 0.32144484 0.11692398 0.22843465 0.05638335 -0.22974966 -0.16795665 0.03058809 -0.20272401 -0.064002134 -0.06007175 -0.2539984 0.113911174 0.137385 -0.48619986 -0.27624527 0.14361596 -0.046767857 0.12924781 0.274331 0.0908427 0.018363005 0.11996588 0.12914822 0.050441988 -0.31707925 0.12331998 -0.111152954 0.007894143 -0.14363688 -0.056548864 0.08948869 0.13865203 -0.06284047 0.11481671 0.2128897 0.20949827 0.09041965 -0.061252173 -0.13924423 0.046995915 0.020865088 -0.18282685 -0.26389366 0.036089078 0.04671621
55 0.039957866 -0.030684376 0.108659886 0.37629667 0.20940986 -0.30876055 0.1450388 -0.12069875 -0.20996433 -0.04280673 -0.023831284 -0.10515589 0.1966325 -0.22011016 -0.2026287 0.038717564 -0.12417708 -0.009558496 -0.04959728 0.027243003 0.03924981 -0.022677744 0.30282718 -0.3674654 -0.25900555 0.38897887 -0.43587956 -0.020678017 0.011379273 -0.09476897 -0.044494774 0.29421306 -0.23922983 -0.070459455 0.0772412 -0.05542903 0.3101015 -0.022311857 0.27683887 0.15284204 0.1691433 0.15607405 0.060919017 -0.043465868 0.16060954 -0.2537432 -0.14632423 -0.1133403 0.21610527 0.053916167 -0.13149256 -0.031370535 0.033541262 0.005285474 0.38999367 -0.08916554 0.23032169 -0.2028123 -0.104924604 -0.062002726 0.038588863 -0.08021386 0.032616436 0.20889746
906 0.1191018 -0.022967596 0.23089202 0.04537017 0.106116764 -0.21501952 0.03847789 -0.2034398 -0.02172548 0.07667263 0.2689501 -0.19708213 0.09785505 -0.020145433 -0.15680245 0.15800478 -0.36891755 -0.18170479 0.055902414 0.185923 0.258203 0.23193586 0.0824717 -0.31898126 -0.10140644 0.1250363 -0.2145077 0.18772604 -0.06616102 -0.048027907 -0.009251429 0.063235186 -0.51693046 -0.1499883 0.15720288 0.050171155 0.121940576 0.24749094 0.13625206 0.053138502 0.065103196 0.1481676 -0.054376647 -0.34768626 0.13149965 0.014706849 0.09616127 -0.21334504 0.013025268 0.07832131 -0.020204829 -0.041157812 -0.02075429 0.23325111 0.2710322 0.21640266 -0.055054635 -0.37871855 -0.098718904 0.09353604 0.067261666 -0.19803266 -0.017079195 0.050687574
976 0.14758998 -0.05769324 0.1597145 -0.006980832 0.17358598 -0.21511476 0.010409585 -0.13159794 -0.18244894 -0.025171975 0.27377325 -0.2830098 -0.114501506 -0.26413774 -0.062345356 0.037711818 -0.2979599 -0.15378769 -0.027581599 0.2833764 0.12978068 0.081291094 0.08900354 -0.10571738 -0.21152247 0.29979756 -0.33515382 0.0291752 0.15734835 -0.014822821 0.030341513 0.19387506 -0.39961287 -0.04332434 0.060519397 -0.050234176 0.028139947 0.14097527 0.06038936 -0.06880783 0.14470512 0.028075395 0.012751501 -0.1404974 0.121915266 -0.22845782 -0.05360445 -0.19828314 -0.14389122 0.00067085173 0.15620609 -0.1122433 0.0047200364 0.2575179 0.1884395 0.27714345 0.045317136 -0.33904466 -0.1948783 -0.0039712717 -0.0031432777 -0.22554429 0.07096422 0.122299954
365 0.12784688 -0.04874063 0.15510306 0.039537217 0.14948049 -0.19903554 0.10243354 -0.1598704 -0.21681404 0.23927885 0.29231247 -0.120423734 0.111174226 -0.097969025 -0.08207769 0.07236842 -0.115830556 -0.108332425 0.22440165 0.129939 -0.0071689216 -0.073498204 0.16791306 -0.25554037 -0.1308754 0.2824088 -0.26105034 -0.009339937 0.14711647 0.001095911 0.03725576 0.15758118 -0.33314142 -0.2187974 0.08980906 0.0034983282 0.022259183 0.27685186 0.10519334 -0.09713586 0.2065537 0.3530946 0.059208337 -0.2388421 0.14065626 -0.41659236 -0.051310375 -0.25795034 -0.036024053 -0.12993567 0.16508721 -0.097818695 0.20027524 0.10896643 0.31412452 -0.019933835 0.1530966 -0.10417601 0.08013833 -0.14233203 -0.2043336 -0.15587151 0.009097636 0.12749976
627 0.1359274 -0.1714139 0.20609744 0.047803525 0.2427126 -0.2530797 0.10222425 -0.045169108 -0.18087 0.20497914 0.13009101 -0.10878283 0.038310636 -0.18323341 -0.04598546 0.035889532 -0.12560032 -0.07188594 -0.20014368 0.20286678 0.15326704 0.14054382 0.10069254 -0.3149695 -0.23978423 0.2849073 -0.27742866 -0.11969992 0.08509561 -0.071889296 0.18645595 0.12608655 -0.33333018 -0.13382456 0.10278436 0.057134103 -0.09351054 0.27298066 0.104938105 -0.07141203 0.25877142 0.084712364 -0.16465244 -0.04747613 0.1241183 -0.17794907 -0.11947767 -0.24000192 -0.16634773 -0.06135887 0.06252388 -0.19497758 -0.00036569944 0.28667003 0.2098035 -0.052348755 0.02779187 -0.5179842 -0.11734671 0.16347629 -0.03138171 0.09171698 0.016155154 0.16239917
518 0.1270359 -0.010714683 0.15157534 0.21929973 0.18429835 -0.11995617 0.06143615 -0.24087717 -0.14376982 -0.13969521 0.13747366 -0.20365319 -0.086554475 -0.16719556 -0.08925117 0.13472296 -0.31481192 -0.22697146 0.09757685 0.42020932 0.08493844 0.014310194 0.041414753 -0.2588978 -0.08474677 0.32707196 -0.25099602 0.014636974 0.15188922 -0.023855777 -0.12300362 0.36675063 -0.38384756 -0.018526599 0.03138691 -0.053789806 0.19733241 0.016864728 0.019484388 0.25631368 -0.10441555 0.09542311 0.020913495 -0.123663865 -0.13962404 -0.20438275 -0.12707874 -0.087101996 -0.063554324 0.06089428 0.08007599 0.00723944 0.058148406 0.46032804 0.26068094 0.23396325 -0.14587843 -0.18164383 -0.1710005 -0.2107893 -0.16062035 -0.24009933 0.087125085 0.14104868
851 0.058510426 -0.06639971 0.19109747 -0.07040843 0.23468445 -0.19830616 -0.13728574 -0.07140484 -0.025295611 -0.0886759 0.17874861 -0.18407477 0.020240195 -0.14562869 -0.16383795 0.22883987 -0.36207253 -0.14523786 0.036975317 0.34935272 0.23681915 0.31350526 0.030605284 -0.08875919 -0.21643409 0.41823763 -0.3862713 -0.12365991 0.10661387 -0.115913704 0.11911484 -0.060282525 -0.44399425 0.007732432 0.07099906 0.07006313 0.14233902 0.35365888 0.19311094 -0.0032913035 0.17748788 -0.15887092 -0.073957786 -0.26373643 -0.0002957628 -0.27579105 -0.11660199 -0.19426823 -0.053544268 0.042779937 -0.019273955 0.037294306 0.10005628 0.38698402 0.024253549 0.2639631 0.06864328 -0.30411085 -0.14804642 -0.011348901 -0.22982968 -0.0247687 0.03704876 0.15570056
314 0.17991294 -0.032671247 0.22052935 0.0935324 0.11313803 -0.16655587 -0.019421116 -0.2734038 -0.0320345 -0.097717255 0.3473264 -0.18347093 0.10095283 -0.050165366 -0.15810852 0.14793846 -0.31667575 -0.237344 0.09813553 0.42033154 0.1998808 0.15549469 0.03891052 -0.06427447 -0.27136815 0.2195004 -0.24883376 -0.099561445 -0.046646796 -0.20388196 -0.12654608 0.120080076 -0.53504825 -0.031688094 0.16324282 -0.13588677 0.036123667 0.15155016 0.007947149 0.23919906 0.16985679 0.18263058 0.06438646 -0.29927155 -0.06290543 -0.21370973 -0.13352643 -0.015598969 0.035709124 0.028338674 0.14504984 0.07946101 0.060303103 0.28126734 0.12809579 0.24965802 0.096633166 -0.063294135 0.10096889 0.05656422 -0.22324435 -0.13700566 0.10159585 0.071261935
46 0.20364541 -0.11198645 0.17847392 0.21089198 0.03938276 -0.2252613 0.15373759 -0.2567219 -0.083939016 -0.104022734 0.22521286 -0.15093368 -0.012496457 -0.12224064 -0.23518032 -0.019583706 -0.12063141 -0.20129469 -0.14163627 0.20412992 0.27161255 0.16116852 0.23717529 -0.31772572 -0.021800483 0.13470857 -0.16821985 -0.045673486 0.0062641976 -0.13956471 -0.07325596 0.08975875 -0.5177996 -0.27912456 0.14713183 -0.058046546 0.0061483816 0.1292762 -0.07343911 0.0457071 0.33249092 0.19123548 -0.0530324 -0.26768747 0.1600233 -0.17760523 -0.01598837 -0.096590966 -0.056163047 0.026733756 0.1078918 0.09395083 0.00015418233 0.18492143 0.31650746 0.0129015315 0.01593143 -0.20183448 0.020641001 0.08728682 -0.017400935 -0.14307038 0.0212283 0.06939237
296 -0.11358066 0.04995671 0.2630443 0.41637743 0.33658022 -0.21021427 0.16515501 0.11385235 -0.19499433 0.025300385 0.11996884 -0.07109529 0.22885309 -0.0088514015 -0.1363625 0.091140285 -0.11379274 -0.13881253 -0.12445085 0.29356733 0.20304896 0.25227162 -0.0075852913 -0.40495098 0.00024260211 0.20775993 -0.26948687 -0.07288067 0.08655555 -0.030820947 -0.10789134 0.029790912 -0.35067466 -0.1722523 0.1566079 0.027635783 0.25177878 0.1691334 0.0025998382 -0.0095229205 0.1120547 -0.061073996 -0.04429792 -0.25308445 0.0056597944 -0.061686512 -0.071279 -0.22692972 0.19332376 0.14258033 0.19521147 -0.08165873 0.032794744 0.16251394 0.28237653 -0.08063937 -0.04791658 -0.3366964 0.030306147 0.07236644 -0.16540468 -0.19276498 0.023467408 0.09158777
661 0.037574593 0.106463924 0.09011806 0.14581628 0.34455433 -0.21454498 -0.18576713 -0.3303662 0.010698756 0.0087694 0.29548076 -0.25805402 0.15431377 -0.37309763 -0.27647716 -0.0052559017 -0.22000317 -0.1425094 -0.01670144 0.42615888 -0.03556773 0.114162736 0.056071226 -0.18022679 -0.15468167 0.31521055 -0.20758033 -0.14444315 -0.060069557 -0.13924731 -0.09045617 0.21064581 -0.46705237 -0.039866526 0.12024878 -0.09325874 0.06459009 0.07775366 -0.03351009 0.18544613 0.010922891 0.117528394 0.037170377 -0.267099 -0.017400239 -0.13029268 -0.14697127 -0.08841165 -0.072208665 0.0063938093 0.09141557 0.036326617 -0.063981704 0.2936337 0.11203548 0.090290576 -0.03876758 -0.15386298 -0.005725453 0.13806926 0.034976687 -0.10217934 0.06825416 0.12995467
490 0.17691694 -0.13844928 0.20270704 0.15647279 0.032755688 -0.15163349 0.037118852 -0.3598633 -0.08780154 -0.06490231 0.10018432 -0.17909305 -0.07282399 -0.10306989 -0.19809385 0.27768224 -0.30992877 -0.09079723 0.19647078 0.39934874 0.17421375 0.12077602 0.14494182 -0.08875951 -0.08332494 0.18551221 -0.31638482 -0.017659837 0.048964486 -0.09309773 -0.06534392 0.2635638 -0.4568866 -0.023864461 0.06406541 -0.0573417 0.24222918 0.072158106 0.13821453 0.25391382 -0.035998005 0.16403852 0.029827032 -0.22454739 -0.09306827 -0.14284457 0.04315276 -0.14346012 -0.15273108 0.0033284621 0.12625438 0.10253431 0.2593383 0.41053176 0.2470764 0.30120292 -0.09585707 -0.1415706 -0.26382628 -0.13781166 -0.14924833 -0.18682954 -0.0097049195 0.062253285
847 -0.059947696 0.041081358 0.27732825 0.14467283 0.28069818 -0.30820057 0.029628186 -0.36416724 -0.1888633 0.12623893 0.15395452 0.044903334 0.04468682 -0.045484584 -0.25274798 0.2657239 -0.27927953 -0.099930994 0.009522294 0.24020715 0.11295867 0.009580606 -0.014552796 -0.2816347 -0.34891105 0.12831973 -0.31338048 -0.051476438 -0.08135403 -0.054506786 0.18263082 0.1588558 -0.47553048 0.042528708 0.08297465 0.0049761795 -0.0028965054 0.054790325 0.2126797 0.186728 0.039829824 0.11218868 0.088777415 -0.3162287 0.020514006 -0.28395137 0.012108793 -0.16074163 0.06781857 -0.059665266 0.06553673 0.120439075 0.16243535 0.11901851 0.22544278 0.088237606 0.2619265 -0.111151405 -0.19291411 0.12758832 0.027190192 -0.32478935 -0.090693474 0.11155107
17 0.10248337 -0.13966231 0.17693311 0.13871895 0.054029137 -0.18555942 0.005909086 -0.4141653 -0.06873652 -0.17768723 0.20136867 -0.21230489 -0.005060088 -0.20538688 -0.29219317 0.10974525 -0.26409355 -0.21870837 0.076383956 0.22054763 0.21887106 0.23534472 0.18151844 -0.09291618 -0.15004846 0.24462757 -0.26772746 -0.047053307 -0.04273275 -0.17875823 -0.00862421 0.15695442 -0.34996545 -0.07724326 0.19058107 -0.26502165 0.09117197 0.12922886 0.030436782 0.17036664 0.2607817 0.13494301 -0.013978789 -0.13320114 0.18119267 -0.24210583 -0.15695164 -0.20902084 -0.070695736 -0.06004724 0.13992305 -0.04470311 -0.03270923 0.2957797 0.2585924 0.1554505 0.053421415 -0.18667336 -0.057702202 0.08817398 -0.051496033 -0.11327706 0.14489503 -0.023064481
655 0.20795375 -0.15531515 0.23438178 0.03922463 0.09246569 -0.23875952 -0.07834043 0.05903924 -0.16507277 0.073142536 0.3693592 -0.092801616 0.095424816 -0.026908519 -0.0384866 0.06296907 -0.045082524 0.017617818 -0.14959341 0.28987628 0.21268736 -0.1392189 0.18092676 -0.29874682 -0.33947447 0.34760192 -0.30166778 0.024703104 0.06527412 -0.13863935 -0.036903944 0.10570565 -0.38134977 -0.078468435 -0.002602216 -0.09253972 0.04612699 0.040364403 0.29226828 0.013201064 0.16704544 0.08251144 0.019166077 -0.17533894 -0.03350526 -0.24637651 -0.15592223 -0.055789545 -0.06633935 -0.05389501 0.28695893 -0.0044592614 0.14057331 0.17414178 0.14718984 0.15544264 0.22940834 -0.21127523 -0.13312116 0.016835524 -0.20839056 -0.30036613 -0.018611742 0.15264736
726 0.09236353 -0.16088726 0.21329527 0.06395652 0.11876108 -0.13252796 -0.06504602 -0.37198135 -0.10966298 -0.12824862 0.3249811 -0.11764753 -0.07763007 -0.28010607 -0.26096258 0.0029176318 -0.23711352 0.00631219 0.042320926 0.10977357 0.15549307 0.16805218 0.17963487 -0.06913127 -0.25392652 0.23479089 -0.1908541 -0.004748045 0.08592672 -0.21438225 -0.0127790775 0.124770015 -0.47421932 -0.07834373 0.112750016 -0.1319899 0.03573672 0.22887199 0.09936433 0.089687765 0.13430884 0.03407869 -0.041700263 -0.22683682 0.16430081 -0.19331595 -0.0823216 -0.33550388 -0.09695574 -0.13943025 0.2095468 -0.12187015 0.051781334 0.33158022 0.32593387 0.16980655 0.09448043 -0.18641287 -0.1438505 0.07623973 0.012180733 -0.22286963 0.012024213 0.20744772
76 -0.071882576 -0.067210816 0.28123978 0.12820035 0.18565337 -0.2824181 0.16021924 -0.18080798 -0.28716063 0.115382 -0.04918118 -0.05425958 -0.17732352 -0.09750561 -0.20689335 0.19790635 -0.23610196 -0.1883883 0.070979536 0.37565878 -0.012140207 -0.025427148 -0.009179019 -0.047612008 -0.071323164 0.27312538 -0.5146034 -0.039569367 -0.053457774 -0.13307208 0.08957121 0.08748133 -0.28507984 -0.074177824 -0.09545176 0.05316384 -0.07944394 -0.12342735 0.012894389 -0.11023891 0.3566095 -0.0052945046 -0.0034820212 -0.08746217 -0.04052301 -0.544714 -0.027718762 -0.051700227 0.014143836 -0.032776345 0.38112876 0.059186433 0.19257686 0.17381695 0.2376158 0.12310609 0.0025991006 -0.33624664 -0.055887192 -0.081035376 -0.19282249 -0.17529102 0.17815074 -0.022807315
403 0.1978113 -0.16569549 0.26848316 -0.03842038 -0.0032623163 -0.24296793 0.14394991 0.019520722 -0.12992685 0.09082834 0.34007633 -0.102520816 0.11312241 -0.07650552 -0.028648356 -0.00065892295 -0.1056795 -0.0052723987 0.13228597 0.22643195 0.08242352 -0.11509477 0.14977805 -0.2842788 -0.19701517 0.2571272 -0.44044322 -0.048415054 0.1976982 -0.07916003 -0.17575464 0.088578075 -0.4124977 -0.18578291 -0.004867871 0.016415184 0.15617843 0.10885152 -0.014981415 0.12322739 0.19590801 0.25443983 0.011655292 -0.19950931 0.12522598 -0.18228175 -0.15247315 -0.18067575 0.041628897 -0.16848668 0.25666192 -0.065249465 0.15032469 0.13094422 0.39204323 -0.037145987 -0.079149805 -0.11706785 -0.100692846 0.016294109 -0.3196564 -0.10865922 0.021716641 0.0381891
289 -0.04187601 -0.075363435 0.033039145 0.02214744 0.2734055 -0.29943225 0.07559237 -0.22391003 -0.1531199 0.12139236 0.11949464 -0.18125077 0.10417767 -0.11650676 -0.07314407 0.14085518 -0.2139195 -0.045003198 0.106774814 0.2996753 -0.029980576 -0.0078046974 0.26406896 -0.25055945 -0.18377204 0.41080147 -0.48282284 -0.14335708 0.023374448 0.06376907 -0.015386694 0.123180725 -0.3244296 -0.106440626 -0.05609294 -0.12643565 0.15001209 0.08444127 0.12385769 -0.030902687 0.06498851 0.275599 0.05633033 -0.07592437 0.26415247 -0.30618057 -0.14741755 -0.306324 0.10786439 -0.14340203 0.07568242 -0.06279121 0.14730154 0.07241915 0.22196607 -0.03889274 0.05980516 -0.10280185 -0.24042137 -0.016508387 -0.17971137 -0.122823834 -0.025797581 0.036930546
334 0.22619389 0.18921956 0.017671626 0.34641784 0.10198843 -0.2739104 0.10749732 0.036303237 -0.14611836 -0.08801675 0.077798925 -0.25357804 0.12954962 0.07741926 -0.016394949 0.12340365 -0.10495613 -0.11887197 -0.014222072 0.4504613 0.1818803 0.10854784 0.091967724 -0.32372552 -0.15603898 0.30829886 -0.25955686 -0.043283865 0.084516905 0.10958998 -0.36586368 0.034081925 -0.49883512 -0.14815715 0.15231699 0.035772804 0.22600354 0.05624865 0.04105845 -0.08345492 0.107530974 0.18679829 -0.061391026 -0.14576766 0.111503184 0.08064932 -0.12873724 -0.26418296 0.123867065 0.13689479 0.3096704 0.19619057 0.04639378 0.10997618 0.23797578 0.07642126 0.014304291 -0.2201444 -0.041117415 0.02975962 -0.14898679 -0.4388796 0.00418134 0.15976433
68 0.19439064 0.034429036 0.26919332 0.19348685 0.21886002 -0.25593713 -0.061543033 -0.03813918 -0.039188232 0.19633079 0.18611899 -0.15698862 0.09408753 -0.055192854 -0.24752283 0.11144195 -0.05751384 0.026026653 -0.13060834 0.37844774 0.08064953 -0.15968966 0.0075572548 -0.30677056 -0.0947754 0.13399631 -0.26296863 -0.041804433 -0.03994379 -0.10847614 -0.04930114 0.17888172 -0.47938702 -0.101080626 -0.061679836 0.139501 0.13786238 -0.105853185 0.104693696 0.1082096 0.13211904 0.16315645 0.04320375 -0.42887294 -0.18730569 -0.09289149 0.048408628 -0.08952124 -0.047319494 0.0039814455 0.26243803 0.0916825 0.15005465 0.22321182 0.14955872 -0.009954795 0.11208435 -0.23779818 -0.18121383 -0.009813643 -0.021368586 -0.31653416 -0.01321813 0.051410194
949 0.14624986 -0.020736428 0.28989074 0.047245815 0.12816946 -0.19070607 -0.02496546 -0.26902825 -0.084008 -0.0054274434 0.1890156 -0.017751945 0.009153022 -0.17569652 -0.22332282 0.06132768 -0.38871145 -0.0018902366 0.01735151 0.37370935 0.08031153 0.07433374 0.022047998 -0.07473366 -0.24585116 0.25588387 -0.20094557 -0.16401672 0.008109906 -0.13794042 -0.054613113 0.20371234 -0.54395664 -0.094465286 0.15901297 0.04967966 -0.07019254 0.14255838 -0.01031756 0.20410693 0.07870581 0.15745345 0.008175956 -0.24287365 0.016287312 -0.07040484 -0.08743218 -0.10054977 -0.15984073 -0.11275944 0.17658079 0.12427441 0.083377406 0.2783532 0.3119484 0.16573271 0.0055654943 -0.102204785 -0.16540925 0.14588918 0.019201858 -0.24040002 -0.05696333 0.19758742
113 -0.0077296128 -0.2194009 0.03523973 0.34417057 0.08398504 -0.23669739 0.2587616 -0.18764795 -0.34504867 -0.0494197 0.2843842 -0.023092287 0.15789841 -0.02518225 0.0072477423 0.07439773 0.27868602 0.031374615 -0.17682602 0.21312825 0.18139319 0.15284492 0.2994235 -0.347068 -0.24136135 0.20307475 -0.36908314 0.013382348 -0.0009704305 -0.1482103 -0.07944466 0.302286 -0.40859032 -0.2770007 0.2405322 -0.16118261 0.15893449 0.28757676 0.18702263 0.03528304 0.2632354 0.20992455 0.09083625 0.026805302 0.23349138 -0.1939878 -0.117075495 -0.24367386 -0.0051212166 0.05292476 0.12561129 -0.1992385 0.17862292 0.096150436 0.21843834 -0.16894059 0.14294685 -0.01738759 -0.05522086 0.15625566 -0.24367236 -0.037668925 0.013780891 0.08371868
97 0.060740195 -0.0055439123 0.30969986 -0.055385623 0.22000423 -0.38459444 -0.06319568 -0.14117351 -0.12198265 0.035093192 0.3954761 -0.2473594 0.06855352 -0.22438458 -0.21692954 0.02263874 -0.3289985 -0.15820916 -0.17089021 0.16594909 0.18172435 0.22437938 0.08542354 -0.260406 -0.29570326 0.16135603 -0.25910485 0.07961567 -0.1270972 -0.124358766 0.014168767 0.040359944 -0.66561645 -0.10317943 0.11002935 0.09450501 -0.00028537714 0.22246209 0.16043343 0.03902989 0.1879604 0.077804156 0.056097094 -0.32584625 0.23412208 0.015799133 0.042608686 -0.10657362 0.057703707 0.073456444 -0.16793106 -0.013557168 -0.14514759 0.22317284 0.105818406 0.14164215 0.013089063 -0.25531736 -0.0904717 0.20816661 0.117980964 -0.09158173 0.038539324 0.13666208
900 0.16372193 0.110861905 0.080311775 -0.004573604 0.23022161 -0.4171334 -0.124728896 -0.08760103 -0.03226399 0.22967672 0.27964064 -0.20060346 0.19239685 -0.057278845 -0.23451862 0.11452477 -0.072830684 -0.1504668 0.0039091078 0.1703286 0.019485082 -0.14552727 0.042017035 -0.36319116 -0.3683389 0.34833157 -0.42074713 -0.12849885 -0.07800268 -0.07971527 -0.0052964627 -0.0015513867 -0.37738973 -0.03519095 0.15675457 -0.04154574 0.12670878 0.042868137 0.05060558 0.030620696 0.2001392 0.18150562 0.14771645 -0.2528709 0.07482652 -0.38102475 -0.18804565 -0.08965646 0.09595365 -0.06734172 0.09897531 -0.014153759 -0.10946654 0.08461641 0.18175727 0.08794539 0.24311374 -0.21591651 0.08204609 0.12215397 -0.11662036 -0.22145873 0.011533769 0.08466553
323 0.14057988 -0.016473679 0.2354176 0.1055733 0.1259847 -0.16821565 0.0006926767 -0.15334374 -0.10384047 -0.1641685 0.16543017 -0.13513322 0.008828664 -0.1430483 -0.046435855 0.17877424 -0.31367406 -0.032390065 0.08307717 0.33320853 0.20454115 0.0581949 0.17967911 -0.15688415 -0.26315683 0.29572648 -0.26801267 -0.1243537 0.033065144 -0.06221984 -0.17730851 0.14521578 -0.49568462 -0.04545136 0.040208858 -0.07708236 0.19307072 0.10369215 0.15158468 0.07891648 0.13990173 0.10256659 0.09266284 -0.25356996 0.036859646 -0.15653968 -0.065898634 -0.10044622 0.07664807 -0.01295293 0.19980104 0.070371814 0.20186684 0.17705427 0.24370252 0.22775446 0.16011338 -0.090045035 -0.14463809 -0.073398 -0.23649019 -0.21676789 0.020675218 0.17379403
714 0.25586754 -0.057752192 0.16272102 0.17263527 0.14041995 -0.22272609 0.13403162 -0.16208105 -0.3563101 -0.11487139 0.09054446 -0.33115816 -0.075760104 -0.1635149 0.028317416 0.14261001 -0.2566023 -0.30356592 -0.07536692 0.347367 0.1609252 0.034337673 0.11955954 -0.09827541 -0.14571337 0.39905244 -0.19983679 -0.011984346 0.027439747 0.046451904 -0.095775664 0.32778737 -0.22253402 -0.1103115 0.0012087735 -0.111177325 -0.044745624 0.06992955 0.20993845 0.035965953 0.367327 0.27546945 0.17056422 -0.084764846 0.15751876 -0.51775926 -0.07101987 -0.007015221 0.26057202 0.11362637 0.038254127 -0.03660841 0.11230898 0.30882895 0.07287443 -0.094139144 0.10640324 -0.18053775 0.026214382 -0.19297539 -0.2583766 -0.20195365 0.21132472 0.05941662
839 0.15108615 -0.07843299 0.2705603 0.23809747 0.139338 -0.20353802 0.10592017 -0.13236763 -0.19295964 -0.17184316 0.04070191 -0.0852195 -0.06533474 -0.27460966 -0.062071364 -0.04782213 -0.31616646 -0.08899867 -0.045919314 0.27470645 0.17771895 0.13302723 0.20749639 -0.2234564 -0.1926205 0.2860222 -0.19107915 -0.17552958 0.09110667 -0.1187909 -0.17736506 0.22033352 -0.3384176 -0.13819243 0.11125949 -0.028884817 0.09802902 0.08211407 0.08505023 0.06071021 0.2018805 0.14205909 -0.07228948 -0.08675068 0.14171757 -0.06560782 -0.1244607 -0.16272153 0.013331024 0.02134526 0.15087697 0.020453118 0.016027447 0.19865873 0.36333716 0.010579314 0.043427754 -0.26089695 -0.011817274 -0.08339782 -0.045902003 -0.15933536 0.03572653 0.28525296
342 -0.011994701 -0.049044404 0.25630042 0.19622421 0.18735264 -0.09060643 0.06393126 -0.1852947 -0.15522872 -0.2615485 0.18468249 -0.28142425 0.10476681 -0.09519205 -0.20773545 0.02722028 -0.44056636 -0.34653482 0.08875634 0.27687317 0.19296159 0.28144655 0.044577163 -0.1954161 -0.115877464 0.22717561 -0.1421102 0.09687067 0.09467766 -0.09052671 -0.10446416 0.13470966 -0.41864035 -0.19599703 0.09841415 -0.1304863 0.13260688 0.25820926 0.10842845 0.05441946 0.115885414 0.11145956 -0.043397788 -0.28758794 0.14610808 -0.19977954 -0.10333452 -0.20402753 0.25997925 0.08666907 0.09877561 -0.08761836 -0.08424423 0.31707698 0.22605778 0.1365885 0.060260985 -0.08382698 0.12414581 -0.120650224 -0.19475132 -0.22269748 0.1432674 0.035019502
81 0.07849032 -0.22629878 0.2853844 0.13892259 0.17267846 -0.24702427 0.19471835 -0.22070955 -0.10901539 -0.11617649 -0.0222117 -0.04684704 -0.12872414 -0.19145927 -0.18190701 0.14497267 -0.21576099 -0.103711456 -0.008916509 0.22468278 0.23251599 0.23465246 0.12667817 -0.22875474 -0.061539654 0.119483545 -0.37763435 -0.18923385 -0.0084467 -0.09558785 0.023921587 0.09633923 -0.48326564 -0.107113056 0.037471566 0.061256897 0.17820916 0.11458634 -0.046865642 0.2066854 0.32556778 0.08901877 -0.002885296 -0.213935 0.09881299 -0.1647466 0.042695876 -0.12234771 0.015519086 -0.04482048 0.050012067 0.041998424 0.06856407 0.27731544 0.3562741 -0.08488355 -0.04261195 -0.31280065 -0.24850231 0.10895493 -0.12547314 0.058643702 0.0189149 0.0718615
672 -0.104939416 -0.09790251 0.22614975 0.2854285 0.2709407 -0.26201782 0.24586192 -0.19031537 -0.3505248 -0.18315524 0.0064878548 -0.011069281 0.022594988 -0.16218197 -0.120407306 0.14730905 -0.31685197 -0.13524291 0.132713 0.24243678 0.13218135 0.24573344 0.08555749 -0.06688452 -0.15091492 0.39844078 -0.44027948 -0.0487026 0.05815874 -0.042135652 -0.05142355 0.23423968 -0.22288004 -0.05145394 0.12517086 -0.032283824 0.16136023 0.22899674 0.08010958 0.15892455 0.18586732 -0.0005722002 0.05290678 -0.030755443 0.11426583 -0.3915426 -0.10334182 -0.18653972 0.21051808 0.073718004 -0.04228609 -0.11706499 0.118331924 0.23348981 0.24019441 -0.017733673 0.02521662 -0.13977493 -0.012452723 -0.03833266 -0.24982108 -0.0061330567 0.16359815 0.11122045
245 0.13364132 -0.13542615 0.30824056 0.06656381 0.16828468 -0.34960282 -0.0914787 -0.010823153 -0.1198533 0.0014297612 0.14082271 0.018569138 0.05158008 -0.17701408 -0.32137358 0.14666462 -0.25229526 0.104205646 -0.046630297 0.34400785 0.24909104 0.16528295 0.27191305 -0.17116526 -0.17363898 0.30871767 -0.3669802 -0.24281348 0.11556119 -0.22161749 -0.10979418 0.030571986 -0.39933503 -0.016099712 0.14007473 -0.017448505 0.021155067 0.11730043 0.14071068 0.15359193 0.27477995 0.012931455 -0.14015283 -0.19758928 -0.011041988 -0.062868886 -0.14310241 -0.10053112 0.014783926 -0.10503816 0.16922837 0.076751545 0.16756189 0.18275808 0.23630852 0.16794339 0.10389997 -0.12621656 0.018775793 0.1239264 -0.100029625 0.035611913 -0.15294684 0.25781798
297 0.046243265 -0.0618408 0.29353017 0.29623348 0.2629229 -0.20124717 0.24116963 0.045868978 -0.23878716 0.031943392 0.18256584 -0.13030611 0.09914738 -0.013089812 -0.07618802 0.1402866 -0.20956351 -0.054851495 0.1461811 0.23749003 0.18559256 0.12993903 -0.11923434 -0.34015298 -0.31592828 0.21392633 -0.41182324 0.047760293 0.12619688 0.12016565 0.011374771 0.16598698 -0.2185167 0.0007227669 0.23195538 0.08730989 0.16266799 0.31540677 -0.022910206 -0.045570403 0.06601272 0.075554214 -0.13885245 -0.0815621 0.103753075 -0.08318603 -0.1113225 -0.40173534 0.05618864 0.12339874 0.15392731 -0.29590008 -0.08273886 0.18506995 0.33307207 0.14542054 0.058916908 -0.41282624 -0.04257973 0.018600194 -0.1565501 -0.039180487 0.1769337 0.09453682
891 0.13020648 -0.14075619 0.21412429 0.1898809 0.17409323 -0.25606188 0.045855306 -0.1152578 -0.24974057 -0.10438959 0.12845609 0.03266065 0.012905097 -0.2393568 -0.15979148 0.16137205 -0.041331023 -0.06954563 -0.18253662 0.20411287 0.29142225 0.30937192 0.2141027 -0.1739901 -0.011366029 0.41151553 -0.22870351 -0.10714049 0.13579537 -0.10020769 -0.083229974 0.0820282 -0.29902735 -0.017520765 0.17080183 -0.14042461 0.05343471 0.12596296 0.08948524 0.16269752 0.257639 -0.15805277 0.0446111 -0.18055595 0.027056884 -0.30180463 -0.06955905 -0.1166723 -0.025915049 -0.07094981 0.13767289 -0.12330019 0.20250697 0.29170242 0.20839342 0.085238084 0.062099665 -0.41786605 -0.0765377 0.14907251 -0.14484929 -0.07203634 -0.07835018 0.134314
1002 0.06090721 -0.06628993 0.2375615 0.20632455 0.31442785 -0.13424058 -0.048653435 -0.12214731 -0.14067955 -0.15313868 -0.090135604 -0.2728811 0.0346975 -0.16858748 -0.17091352 0.18522887 -0.4034047 -0.1947968 0.12714005 0.3281906 0.18146159 0.28256053 0.12647273 -0.12264989 -0.078251936 0.3777395 -0.26145306 -0.16575827 0.16579945 0.0016879061 -0.019801551 0.06055844 -0.28113782 -0.022176838 -0.03746188 -0.07544376 0.30704537 0.18227227 0.17943585 0.04213301 0.09908923 -0.013162084 -0.0748088 -0.23178086 0.024850544 -0.32193768 -0.019836182 -0.2758733 0.12403561 0.054067682 0.05660229 0.07202163 0.12001609 0.36117327 0.19024123 0.14622776 0.097046554 -0.17854537 -0.0864444 -0.22882447 -0.23951764 -0.17351386 0.06270157 0.22511885
889 -0.0118376 -0.03365598 0.25963333 0.17673342 0.20511033 -0.33459184 0.09371977 0.16135229 -0.13476118 0.20311263 0.0017154247 0.1389767 0.12997243 -0.032113165 -0.25158662 0.21419756 -0.30899093 0.10201319 -0.0072017666 0.31666154 0.20986368 0.06504857 0.11480836 -0.38267905 -0.33091918 0.2855026 -0.5575289 0.027227115 0.04590741 -0.1296263 0.18390694 0.113451004 -0.37869143 0.082479924 0.12882039 0.20357497 0.26116297 0.07306369 0.27955508 0.22988191 0.04066061 -0.0967484 -0.11754969 -0.122010835 -0.20356593 -0.033631317 -0.0099748075 0.014276176 -0.10885033 0.0025710466 -0.017212043 0.059773933 0.13130558 0.1334295 0.2972209 0.18661208 0.11174715 -0.43616983 -0.18632238 0.11757022 0.06797691 -0.019058246 -0.060533375 0.21434987
468 0.28143612 0.0069374065 0.08383167 0.18903443 0.124486625 -0.26276612 0.06148024 -0.30925602 -0.041973695 -0.0051282053 0.015400274 -0.11660348 0.04961241 -0.18700798 -0.25819328 0.1331524 -0.22781302 -0.0075580673 0.05760821 0.340179 0.13790444 0.08250621 0.12600401 -0.20980312 -0.058396526 0.25899056 -0.27328715 -0.019003062 -0.003996236 0.0061948877 -0.12651241 0.35643414 -0.4407971 -0.01048647 0.17941578 0.022415962 0.1697818 -0.059523884 0.019598067 0.4079698 -0.025571365 0.1797845 0.014747912 -0.20505825 -0.09090493 -0.041231494 0.00868314 -0.086862825 -0.1181563 -0.028766543 0.020154063 0.10506261 0.10812626 0.3276077 0.33052886 0.16859199 -0.13761513 -0.3334245 -0.24246186 0.11850128 0.12731515 -0.115241274 -0.08901134 0.15312932
230 0.19674544 -0.1439598 0.084586255 0.28324255 0.06015958 -0.19914734 0.0628941 -0.10787555 -0.06614421 -0.21924369 0.1528842 -0.20883174 0.0087551735 -0.08687009 -0.08129629 0.08338537 -0.12602441 -0.16301954 0.0070853443 0.38041767 0.18089123 0.16852517 0.18615828 -0.21500695 -0.08117148 0.4500317 -0.32035083 -0.1459664 0.05576861 -0.074856676 -0.29608124 -0.052768547 -0.3860371 -0.06660389 0.11186353 -0.1408332 0.2152759 0.02930996 -0.03016204 -0.028895605 0.33708838 0.049129665 -0.1292124 -0.071100906 0.029592853 -0.26714292 -0.17729343 -0.087717995 0.06774609 0.034986958 0.33976802 0.13192089 0.07466274 0.20210133 0.24245061 0.1617076 0.094214626 -0.3037447 0.01907714 0.022699816 -0.34591016 0.021655254 0.05676721 0.057479113
167 0.05184261 -0.26192102 0.17119472 0.18992245 0.1156052 -0.18830436 0.08603935 -0.3749039 -0.14015314 -0.27287358 0.09010343 -0.076938085 -0.095308594 -0.23047085 -0.16407819 0.044101663 -0.28215647 -0.11946506 0.07737354 0.26419443 0.24736372 0.20673892 0.27506527 -0.1839935 -0.15241161 0.29879534 -0.20585236 -0.09136994 0.08126723 -0.20572175 -0.037128128 0.22379255 -0.27837685 -0.107124925 0.13550797 -0.22874475 0.15941201 0.15530679 0.1475246 0.123873994 0.17716528 0.08430259 -0.048066724 -0.05002201 0.066806234 -0.2595925 -0.1309747 -0.14554812 -0.14382723 -0.04643774 0.11398233 0.09356078 0.084377475 0.35983953 0.36201388 0.19496226 0.066100255 -0.15851828 -0.09535183 -0.07898857 -0.16296296 -0.061494615 0.04897169 0.19299266
278 -0.10458651 -0.044307895 0.18285292 0.17079334 0.23163196 -0.40277302 -0.010023188 -0.17768799 -0.18885857 0.17045513 0.39788398 -0.14795735 0.111186825 -0.079939894 -0.080138214 0.056376655 -0.18306887 0.059913732 0.004026535 0.28655806 0.13951936 0.032944877 0.17755279 -0.26536053 -0.29211712 0.24965298 -0.37992808 0.16527724 -0.17845403 -0.08922162 -0.07141836 0.16584507 -0.36126912 -0.008073145 0.19911934 -0.06944928 0.05149326 0.1892878 0.28020576 -0.15579884 0.07442355 0.20170523 0.011455068 -0.07212017 0.13100852 -0.19593659 -0.045897886 -0.14487168 0.12114145 0.168021 0.041252155 -0.028252807 0.019710042 0.0098472005 0.07775393 0.23670086 0.17354329 -0.30373055 0.040116817 0.15841 0.02023812 -0.030154908 0.20818973 0.14999892
225 0.22992754 -0.114867315 0.3061941 0.12172412 0.13466084 -0.16968441 0.14993529 -0.27288 -0.19337143 -0.0822381 0.092673376 -0.16029671 -0.11784322 -0.37363115 -0.149847 -0.043896362 -0.27041903 -0.08670297 -0.026129447 0.26019973 0.018619696 0.059454206 0.074589685 -0.08525683 -0.17785752 0.13538043 -0.27761152 -0.16406973 -0.02253649 -0.12264737 -0.03916122 0.28874287 -0.5146015 -0.1769611 0.025933733 0.046300493 0.03703387 0.031780146 -0.086840756 0.17207703 0.3326301 0.20683202 0.057347696 -0.24841751 0.10538818 -0.10853463 0.08658929 -0.09591148 -0.13507016 -0.051997483 0.14247419 0.07805888 0.050248835 0.25181776 0.34740466 -0.08359242 0.05871066 -0.19756156 -0.15136701 0.05063773 -0.017866213 -0.097209215 -0.0245535 0.1124501
873 0.11044164 -0.048549738 0.057576198 0.085476235 0.19986245 -0.2139981 0.07829545 -0.3048292 -0.09997677 -0.14020066 0.12384525 -0.07553572 -0.109795995 -0.25267762 -0.15801711 0.074650496 -0.1644788 -0.18109266 -0.12692693 0.29423514 0.13243641 0.14199618 0.14558604 -0.18889719 -0.18832509 0.16715996 -0.27962768 -0.22825249 0.050938774 -0.15082134 -0.004847296 0.22013855 -0.5483495 -0.15412015 0.13538781 -0.077674724 0.049775314 0.10994692 -0.04942016 0.16933396 0.1925457 0.13686016 0.014533197 -0.14003156 0.14619774 -0.14911051 -0.08558336 -0.19254635 -0.12518765 -0.06525889 0.19605239 -0.006849861 -0.041430876 0.28741214 0.27094844 -0.016725713 0.043032136 -0.1429943 -0.1449496 0.13166992 0.004787489 -0.21555257 -0.08097258 0.13941407
298 -0.07076817 -0.105334446 0.14711173 0.20544556 0.21812989 -0.17745657 -0.16348155 -0.28828916 -0.05814344 -0.009627387 0.18052891 -0.2583337 0.1174359 -0.24397722 -0.30990544 0.18576825 -0.07226915 -0.081300944 0.0047860835 0.48625135 0.04601312 0.14481542 0.041371565 -0.12510155 -0.08154275 0.1715347 -0.21921065 -0.06716928 0.019433876 -0.3071833 0.07230079 0.3437461 -0.32145932 -0.11783994 0.053430345 -0.14389044 0.1751887 0.13465533 0.12946711 0.17641708 0.04977674 0.11469582 0.023656908 -0.23593727 -0.16980366 -0.15527277 -0.17146562 -0.19789253 -0.19429478 0.016485134 0.22273602 0.0023441417 0.065873854 0.4636691 0.08367622 0.13978276 -0.006613269 -0.08125868 -0.09922941 -0.029179368 -0.08130514 -0.105288744 0.1536512 0.06610983
857 0.046153195 -0.06886425 0.23880045 0.16018061 0.1431483 -0.18980819 0.1632644 -0.41389176 -0.14720713 0.21772501 0.31152797 -0.19885424 0.04091624 -0.10554354 -0.11433217 0.15481043 -0.22783418 -0.16358216 0.26060256 0.2005785 0.015143203 0.0569181 -0.1246905 -0.23130886 -0.15410705 0.15225096 -0.2389384 0.18885612 -0.040029 -0.09043077 0.17354062 0.4185615 -0.33645758 -0.14231631 0.24995396 0.010946341 0.11995386 0.23664252 -0.11647556 0.10894351 -0.10075179 0.15876031 0.098568544 -0.20172086 0.0424641 -0.20289202 -0.08073676 -0.24587768 -0.3054401 0.06194471 0.0016035012 -0.1645859 -0.039944883 0.34576145 0.30242187 0.25179166 -0.13953936 -0.40592644 -0.16944067 0.08688196 0.028839044 -0.102908514 0.18961316 -0.018664641
349 0.18455707 0.025617126 0.09240913 0.019200427 0.06552268 -0.29581746 -0.073256835 -0.11910172 -0.10505465 0.06094539 0.06620457 -0.15627559 -0.052583266 -0.1316337 -0.07460579 0.17849274 -0.26856473 -0.12427998 -0.08286713 0.14924276 0.17444338 -0.044435434 0.21927242 -0.3588263 -0.15895717 0.40755245 -0.3705549 0.12203878 0.06061463 -0.069209404 0.09410624 0.21242197 -0.2984696 -0.08531627 0.082530424 0.021132842 0.20715791 0.04578673 0.29305995 0.0007496199 0.083010375 -0.02217316 0.04238858 -0.09985233 0.0048953965 -0.3412106 -0.08268447 -0.08176351 -0.12290298 0.029341415 -0.008707032 0.04610917 -0.006326627 0.25488713 0.12826547 0.32002828 0.071966805 -0.43198147 -0.17362122 -0.12122422 0.07305311 -0.27686602 -0.004944569 0.19815592
180 -0.08908294 0.006475544 0.10746737 -0.10384217 0.114676334 -0.26893526 0.045596115 -0.027568256 -0.13170697 0.16984557 0.24809209 -0.01373775 0.16326639 0.08138546 0.09463312 0.049535383 -0.06463292 -0.076257385 -0.22646166 0.42197043 0.15141529 0.086181715 0.015996836 -0.4162513 -0.350745 0.3074423 -0.33352008 0.03356722 -0.049234748 -0.14245123 0.05952546 0.17145446 -0.48326078 -0.3427083 0.23784184 0.15041015 -0.07919322 0.40003332 0.23403203 -0.04443308 0.05850733 0.18106619 0.006270357 -0.058213837 0.13655853 0.039147045 -0.2160836 -0.17970923 -0.18950889 0.07354958 -0.007344808 -0.06223783 -0.10190834 0.2706592 0.124522895 -0.04561342 -0.14258033 -0.32785395 -0.023198066 0.18607411 -0.08301635 -0.12966493 -0.03670248 0.089162216
69 0.04699493 -0.15608254 0.22270477 0.14655565 0.14038268 -0.22691196 0.0410199 -0.06598743 -0.21339406 0.07799764 0.43842688 -0.051669005 0.138235 -0.0907696 -0.07100732 -0.079269215 -0.0652994 -0.050439227 -0.16361843 0.37452623 0.17881784 0.021602418 0.22109167 -0.363741 -0.14427382 0.27508482 -0.15083924 0.10688824 0.017186278 -0.20224525 -0.14066607 0.18951514 -0.39017993 -0.18902259 0.12513281 -0.12328394 -0.09599268 0.115147494 0.15544313 0.038552098 0.11348403 0.18317878 -0.051945485 -0.09654899 -0.0009766041 -0.063776635 -0.16513337 -0.0467059 -0.12564501 -0.037443575 0.20384839 -0.12399888 0.0660731 0.22970214 0.2067428 0.052806016 -0.044549085 -0.18384272 0.080492616 0.10511166 -0.14770974 -0.1450574 0.06692444 0.07600627
440 0.10681737 -0.10014986 0.17138329 0.2629534 0.28880712 -0.17277494 0.09049171 -0.122246616 -0.20198125 0.3306114 0.09948588 -0.35813466 0.14971307 -0.17691666 -0.07805467 0.18884948 -0.20863335 0.021343697 0.08235367 0.36300358 -0.028707698 0.027320765 0.13623488 -0.20651244 0.018139564 0.27894253 -0.3252123 0.11763835 0.056428377 0.040067326 0.15940034 0.3992538 -0.28733787 -0.13173793 -0.042965494 0.15030266 0.26867458 0.043330543 0.31791404 -0.003946548 -0.04041148 0.2039748 0.02479629 -0.24143732 -0.0058549084 -0.196953 0.14319928 -0.11502295 -0.07646279 0.11472196 -0.13526836 -0.04604867 0.33011192 0.20265962 0.09869554 0.055347793 -0.04584709 -0.32062754 -0.29256797 -0.15389238 0.053528838 -0.057075758 0.07523075 0.08736392
259 -0.072671086 0.052016404 0.15712242 0.12176801 0.14725323 -0.18194737 -0.016363068 -0.13375552 -0.0545215 0.17119771 0.3271788 -0.15415338 0.39812875 0.017116152 -0.16052197 0.13623843 -0.30225006 -0.23494878 0.16942948 0.1934676 0.028704824 0.16738304 0.124148935 -0.2770352 -0.26305652 0.29287526 -0.33446398 -0.044407867 0.037470214 -0.3150033 0.09849354 0.13254887 -0.3968068 -0.27922806 0.2857883 -0.09054005 0.26786673 0.3586629 0.03378737 0.04397482 0.10723927 0.087684415 0.035765145 -0.2215473 0.13172238 -0.17675847 -0.24723734 -0.202506 -0.014240592 0.027819257 0.026282694 -0.06757597 -0.0050852615 0.06460414 0.18806976 0.08423623 0.119011626 -0.04662333 0.18798529 0.11600009 -0.16321185 -0.120179124 0.07318455 0.11693421
420 -0.097775675 0.09874528 0.08548483 0.105681725 0.40084422 -0.29865754 -0.008590241 -0.14268155 -0.07888978 -0.035088103 0.01938657 -0.052622218 0.05169601 -0.24255809 -0.13097379 0.15669554 -0.35913998 -0.17659125 -0.036371704 0.32083184 0.108069755 0.4102523 -0.051566582 -0.120703764 -0.2376517 0.24089468 -0.47128648 -0.11583424 0.049670026 -0.12149261 0.14822581 0.12884848 -0.51684207 0.037688605 0.28497356 0.09818663 0.20461074 0.3154736 0.06661165 0.16016053 0.096739635 -0.23075265 -0.0032691744 -0.14411433 0.054531537 -0.14095803 0.05959443 -0.27855146 -0.08226882 0.17990316 -0.051234093 -0.0996067 -0.069506966 0.2930515 0.14653847 0.06890467 -0.03098392 -0.41010612 -0.088289954 0.19863833 0.07728057 -0.12907284 -0.021558065 0.15742122
585 0.075739905 0.033557683 0.15402977 0.043509044 0.25542572 -0.25305125 0.0863694 -0.3147283 -0.13775037 0.08615162 0.14916681 -0.17151387 -0.031252325 -0.19274524 -0.08035054 0.12160739 -0.40221715 -0.113982126 0.17283493 0.33379242 -0.04634465 -0.011200349 0.094544634 -0.09925835 -0.23914118 0.2706761 -0.32800484 -0.09605614 0.030555584 0.032113165 -0.0015454867 0.09561118 -0.47385234 -0.0050470964 -0.01344492 -0.047307756 0.0727435 0.03636392 -0.001321111 0.043520924 0.08268552 0.18745142 0.059262604 -0.17911854 0.1710084 -0.2720351 -0.01679886 -0.18030615 0.020795913 -0.11824563 0.13769628 0.046727706 0.15258315 0.1582336 0.26145902 0.12146134 0.05097767 -0.21727581 -0.16132434 0.0589279 -0.10478088 -0.23863661 0.020569181 0.10776027
384 -0.010678997 -0.020019457 0.22509116 0.28885806 0.19481708 -0.2902025 0.117440365 -0.09307141 -0.37872624 0.022452617 0.25758106 -0.10232625 -0.04958441 -0.12973884 -0.16151631 0.10875555 0.2031344 -0.03607682 -0.19434598 0.45570374 0.018467976 -0.014702404 -0.16813613 -0.15945515 -0.040691257 0.10077433 -0.3290073 0.096806765 0.022118632 -0.0660791 -0.08520908 0.3840196 -0.478157 -0.18686555 0.105509914 0.06321255 0.02824163 -0.10635444 -0.06831054 0.19097312 0.078382656 0.048929185 0.19293839 -0.27075475 -0.09980061 -0.09274196 0.07365158 -0.19874144 -0.13698597 0.05018802 0.39780807 -0.14634886 0.12467922 0.3096717 0.178844 -0.024440745 -0.106046505 -0.2710087 -0.19203685 0.1378751 -0.008304952 -0.33972502 0.05656596 -0.080383494
393 0.299063 -0.086463444 0.09027424 0.21426599 0.059058893 -0.24125314 -0.043112893 -0.10286486 -0.036608208 -0.051009092 0.05812894 -0.40998587 0.15797815 -0.18419926 -0.16206184 0.0890468 -0.20518199 -0.14354877 0.010832407 0.41163954 0.017059397 0.07269228 0.29650062 -0.26320967 0.036905956 0.413821 -0.33148295 -0.15664744 0.10239674 -0.20813367 -0.15250601 0.22160462 -0.3512456 -0.2291175 -0.047920834 -0.10309042 0.2992993 -0.13162652 0.046908062 0.10837431 0.19515906 0.18633597 -0.10414012 -0.17596859 -0.056181617 -0.13597745 -0.16031066 -0.0043313545 -0.08806553 0.038671855 0.03864271 0.27942404 0.081930675 0.20916785 0.18593451 0.17220604 -0.043690264 -0.17971945 -0.107774355 -0.12286206 -0.11468967 0.096455984 -0.013468033 0.14909835
918 0.023745414 0.13006303 0.1455377 0.27464136 0.3003674 -0.20093748 0.032723725 -0.1382348 -0.15025818 -0.17425473 0.15793145 -0.031430654 0.16897984 -0.09874879 -0.072564326 0.12742485 -0.23509781 -0.11342421 -0.055085305 0.32268283 0.1669768 0.21922927 -0.045535963 -0.16640256 -0.37961528 0.21665551 -0.20050521 -0.13419785 0.08818374 -0.0906158 -0.059491422 0.2966415 -0.5373314 -0.07180812 0.27931738 0.012044553 0.14011203 0.27844465 0.085113734 0.259488 0.026810328 0.016695304 0.086653754 -0.22439334 0.07390475 -0.013122168 -0.08645763 -0.2663867 0.0895366 0.12077856 0.07576453 -0.06412545 -0.01798578 0.23762518 0.19647595 -0.022425054 0.14553933 -0.07943651 -0.057195727 0.18173987 -0.007896141 -0.35356128 -0.034199424 0.29784587
92 0.05976286 -0.032702494 0.21922296 0.25973648 0.39696082 -0.17456974 0.087109916 -0.16380069 -0.36405113 0.038794093 0.17910463 -0.22677438 0.09516541 -0.34309903 -0.077265926 -0.13468608 -0.32630485 -0.1464507 -0.13193728 0.2020547 0.00985699 0.068373986 0.21896158 -0.2123062 -0.1586757 0.28946975 -0.0623521 -0.003790723 0.08983192 -0.013238314 -0.10035205 0.3921714 -0.3733117 -0.09455362 0.02444547 -0.09722566 -0.05876995 0.07484184 0.2067502 0.004405373 0.09058802 0.12155911 0.029236434 -0.085495174 0.2325041 -0.2470976 -0.029787786 -0.1799156 0.24240404 0.046506096 0.009689575 -0.2457472 0.08978514 0.12776837 0.24999109 -0.08498414 0.06162461 -0.21943031 0.0012333386 0.020834137 0.10112817 -0.22790165 0.063412674 0.2635388
484 0.03796491 -0.18890604 0.22236578 -0.018472431 0.014186306 -0.21647778 0.08412613 -0.20266509 -0.12889864 -0.20360874 0.18549259 0.0009061922 -0.043760177 -0.06365181 -0.15207821 0.071849726 -0.22571579 -0.07992963 -0.07848165 0.30368736 0.33218792 0.159235 0.1927447 -0.16596356 -0.16708833 0.25851908 -0.3387935 -0.0013473874 0.0027694989 -0.11795677 -0.07286292 0.18983763 -0.429144 -0.087730005 0.09687235 -0.08921809 0.04110678 0.25081217 0.22574966 0.27189383 0.17766377 0.20155111 0.06406128 -0.103021815 0.13996273 -0.16785817 -0.07140892 -0.16620436 0.006622668 -0.076286696 0.09598653 -0.07279523 0.04535616 0.41956592 0.24650636 -0.0112171015 -0.068811014 -0.11785731 -0.16131145 0.01365136 -0.1335782 -0.17224865 0.033733487 -0.015607939
917 -0.08111508 -0.12761351 0.17323627 0.23410626 0.19026172 -0.3280395 0.14918728 -0.2248248 -0.20815794 0.19062343 0.2669508 -0.099821 0.29589894 -0.0875078 -0.31664422 0.09971691 -0.1327921 -0.13414426 0.15915628 0.07834813 0.016942607 -0.028956676 0.22892511 -0.29231173 -0.24539956 0.29537246 -0.5481991 0.04332868 -0.14587425 -0.27012265 0.036733974 0.13906443 -0.20815225 -0.08673104 0.12023207 -0.18924467 0.15107574 0.012907868 0.0578712 0.11616488 0.23665962 0.22210275 0.038098905 -0.09423231 0.14252827 -0.40251157 -0.1951526 -0.08736404 0.16657218 -0.035016466 0.03556235 -0.16369611 0.034506924 -0.033668034 0.32661855 -0.019663343 0.16352516 -0.13267615 0.17093173 0.09260586 -0.14640105 0.044436242 0.15754627 -0.011381392
887 0.08122359 -0.20726222 0.3185568 0.14579572 0.089646466 -0.22789681 0.25153705 -0.17681038 -0.29027876 0.24289481 0.2858291 0.09396763 0.086547114 0.1082277 -0.06641046 0.196539 -0.17799114 0.0070026647 0.061336506 0.2540121 0.19333927 -0.014879952 0.1553502 -0.22416863 -0.171492 0.30527842 -0.35086128 0.057695758 -0.055508118 -0.016194543 -0.024839731 0.16796342 -0.3681856 -0.050253663 0.16956738 -0.010696951 -0.0071263453 0.16889495 0.19521376 0.26498583 0.11050781 0.27800977 0.07428827 -0.06808408 0.12873574 -0.31492272 0.042500712 -0.1280824 0.0968874 -0.09699634 0.05991929 -0.16428667 0.3351994 0.18836573 0.27844116 -0.07772233 -0.014933382 -0.17454658 -0.0765501 0.13608256 -0.22706614 -0.1570855 0.021669172 -0.07179598
760 0.08665336 -0.0467624 0.1482113 0.094650425 0.3831564 -0.24652563 -0.0006111609 -0.27575666 -0.15446378 0.29342252 0.14392275 -0.22480541 0.09326211 -0.10338647 -0.09035946 0.16005088 -0.21609238 -0.09543709 0.07357021 0.38762262 0.051664602 0.024318967 0.16593023 -0.2261663 -0.07690727 0.27826 -0.12738453 -0.023730647 -0.16227363 0.013997352 0.13873902 0.14369759 -0.35639673 -0.13240469 0.025017738 0.008908286 0.051876813 0.08324245 0.2700848 -0.10256485 0.17425111 0.29411203 0.10680307 -0.31891477 0.04860064 -0.38798696 0.1304228 0.018342294 0.012836643 -0.013729974 0.02353494 0.15622221 0.29919127 0.089043476 0.07698756 0.028822841 0.23300496 -0.2853274 -0.008864286 0.005105927 -0.14756602 -0.10798775 -0.0503997 0.10863314
619 0.15933211 -0.11214923 0.19388536 0.0024665396 0.18371768 -0.24637549 -0.055454373 -0.10429701 -0.1194183 0.20225148 0.24255478 -0.08674963 0.123514004 -0.17050974 -0.19638132 0.066617504 0.020575205 -0.024467742 -0.24116804 0.12022866 0.10859966 -0.043480404 -0.004580941 -0.28792986 -0.22468746 0.26111856 -0.19372208 -0.13857456 0.006115875 -0.070412315 0.18266799 0.21204841 -0.35249922 -0.15308817 0.104689695 0.091193125 -0.10884666 0.2720071 0.1216057 0.028738018 0.23841663 0.26946175 0.06718503 -0.2641296 0.09646541 -0.31568453 -0.16220888 -0.18220048 -0.072167024 -0.12040808 0.0714055 -0.16973118 -0.044085395 0.28561208 0.23074348 -0.06843798 0.17379723 -0.31846425 -0.13399264 0.17587112 0.058390275 -0.09671568 -0.07386456 0.13441421
1012 0.09364009 -0.023306854 0.18322107 0.07494462 0.085322596 -0.3281133 -0.07112063 -0.31458783 -0.109209806 -0.20072803 0.21828754 0.05073573 -0.08395529 -0.07564851 -0.28535315 0.16829184 -0.10798502 -0.106319696 -0.1525916 0.14424558 0.3202856 -0.0045718397 0.15861243 -0.2602595 -0.27949283 0.33327934 -0.42231867 0.06524911 -0.10410325 -0.15707386 -0.10504551 0.19316462 -0.40887362 0.03976863 0.17134826 -0.069125146 0.055318575 -0.031999797 0.21925242 0.36654416 0.056700077 -0.049257714 0.104952574 -0.075600974 0.0030514132 -0.27721912 -0.16691965 -0.14853762 -0.016517097 -0.06791066 0.1121936 -0.10664961 -0.028759686 0.38256863 0.19064896 0.21500573 -0.0054721213 -0.22442012 -0.1533383 0.013252261 0.023406196 -0.42058584 0.008166891 0.09943603
67 0.25125426 -0.04661978 0.2368627 0.13928117 0.10745234 -0.23309445 0.14980395 -0.25578418 -0.123153895 0.07483703 0.092137575 -0.1339995 0.075342216 -0.20194395 -0.32793364 0.13601555 -0.19960804 -0.122387916 0.11349215 0.019987287 -0.014126317 -0.059316706 -0.041674268 -0.2038658 -0.3059727 0.085333854 -0.49137908 -0.030826611 -0.08187924 -0.08968828 0.18832539 0.3189011 -0.33296674 -0.07646171 0.18313262 0.018923795 0.13515188 -0.022816138 -0.11143595 0.29867643 0.31724527 0.24793738 0.08122638 -0.28056872 0.12590209 -0.33892265 0.024488412 -0.14227022 0.006495338 -0.048953574 0.078226596 -0.16691506 -0.1089926 0.07531189 0.39389202 0.0016104615 0.2055436 -0.30021274 -0.13165948 0.1093655 0.13869329 -0.102251075 0.003611432 -0.04100821
806 0.07533389 0.06276972 0.13541406 0.48491785 0.4059636 -0.18784563 0.06669546 -0.20424856 -0.32613933 0.15059501 0.074812345 -0.230724 0.09787718 -0.3546299 -0.13002165 0.029385146 -0.06781627 0.035019808 -0.03295662 0.2610399 -0.04272351 0.006285807 0.13872671 -0.22091 0.026862696 0.279135 -0.06664739 0.043155756 0.088194184 0.0831194 -0.05698281 0.5086922 -0.18638657 -0.07946051 0.088311195 0.0041707684 0.1635018 0.020932665 0.26410857 0.109638155 0.047267828 0.16407658 0.15901026 -0.25379127 -0.045708977 -0.2945087 0.062132604 -0.12390424 0.070273034 0.10051716 -0.026900742 -0.16576767 0.25686148 0.24036132 0.18446828 -0.032169133 0.0937295 -0.3460808 -0.057743452 -0.12682685 0.09006219 -0.15167397 0.10523319 0.21443997
471 0.16702436 -0.12553254 0.07946425 0.41460314 0.26428455 -0.10006773 -0.018201534 -0.18454112 -0.09842831 0.026822653 0.14924157 -0.2730173 0.14667751 -0.27421236 -0.36121592 0.06307627 -0.032297086 -0.17054078 -0.084206335 0.34157056 0.08628743 0.2582823 0.16162415 -0.17440732 0.08731068 0.30524006 -0.19406942 -0.1450055 0.024192411 -0.21138754 -0.06498701 0.14569166 -0.2973066 -0.04717715 0.21767652 -0.06822415 0.053925376 0.14671157 -0.04173299 0.076575376 0.31615368 -0.010375538 -0.16875753 -0.13110803 -0.113879636 -0.30403543 -0.14249498 -0.070571885 -0.08072468 0.09584015 0.18655854 -0.1810312 0.10143205 0.3540602 0.12273403 0.091185085 0.018275151 -0.3144603 0.20276809 0.028764548 -0.1459867 0.12347852 0.09870567 0.052363846
817 0.06728042 -0.07708103 0.19437766 0.11151975 0.1257474 -0.18840553 -0.01922153 -0.051657386 -0.04105556 0.19786154 0.22815248 -0.1818562 0.21613288 -0.10136437 -0.13126732 0.12579432 -0.16839705 -0.14421226 0.036404435 0.19805963 -0.02281496 -0.12175463 0.18318409 -0.38032845 -0.27876967 0.32552165 -0.38630757 -0.13990797 0.09421135 -0.3027222 0.23183572 0.15166642 -0.21504053 -0.20667893 0.015650244 -0.066187285 0.17645802 0.13402182 0.16664468 -0.08790675 0.23929553 0.20236182 -0.05865502 -0.14961632 0.017677465 -0.31113407 -0.30528933 -0.11795768 -0.12328089 -0.036959086 0.16796534 0.01365481 0.054309927 0.086493775 0.20330833 0.015521614 0.26187813 -0.102985576 -0.00874953 -0.1056008 -0.19535606 -0.042215306 0.09774011 0.15156479
149 -0.0086686285 -0.039525025 0.13297454 0.19009961 0.38917214 -0.20048383 -0.16855097 -0.24587204 0.10696903 0.020002518 0.34755954 -0.26889077 0.14526485 -0.17526402 -0.37897307 0.050461497 -0.09404586 -0.15857112 -0.16526884 0.3744961 0.1385914 0.25149918 0.04030825 -0.30950886 -0.114692785 0.18295641 -0.22776622 -0.094002575 -0.082052186 -0.22347963 -0.024559999 0.14215517 -0.5742744 0.019852038 0.11095306 -0.029656908 0.19712768 0.19456527 0.05274846 0.2994533 -0.008585049 0.076217845 -0.055750526 -0.32227308 -0.097858496 -0.008029658 -0.06649206 -0.18059018 -0.028114637 0.0856485 0.001030485 -0.05412663 -0.06214224 0.41741616 0.05265685 -0.040876992 -0.0748619 -0.17999385 -0.08133217 0.17391694 -0.008936356 -0.0049881726 0.029390668 0.032214098
829 0.13178982 -0.07600464 0.14521024 0.1174589 0.09934872 -0.2747115 0.04105186 -0.30898973 -0.14345694 -0.2702599 0.034224987 -0.027952822 -0.05698983 -0.16198671 -0.11664275 0.14673537 -0.21201065 -0.051058117 -0.090023115 0.28975913 0.34512946 0.19752386 0.19256297 -0.2274175 -0.15890704 0.33391902 -0.22549285 -0.13578206 0.0051339543 0.0379634 -0.15892065 0.22192812 -0.42290664 -0.033337854 0.1317023 -0.14943883 0.06455173 0.14532247 0.12727506 0.15025836 0.12329303 0.1573094 0.052936126 -0.07933682 0.07803229 -0.11078297 -0.18549709 -0.21136907 -0.020765387 -0.08071801 0.15936898 0.10669976 0.019995868 0.32957187 0.2991124 0.15883954 0.008785009 -0.2539383 -0.2924127 0.043380693 -0.014306658 -0.16753075 -0.064198084 0.17011338
622 0.01932761 0.18975678 0.15279983 0.38116756 0.20176543 -0.23224351 0.021792658 -0.06532821 -0.28925496 -0.097454906 -0.0051811156 -0.1877832 0.13862729 -0.18864761 -0.19434398 0.12823845 -0.16962178 -0.16368808 -0.021866284 0.09767086 0.027331864 0.024295522 0.12119673 -0.3249964 -0.21644007 0.17149274 -0.29667452 0.08439469 0.2221316 -0.10406003 0.00042939163 0.30070445 -0.22453013 -0.2770628 0.14850767 -0.14670144 0.31563306 -0.034087047 0.15174064 0.024424832 0.076034956 -0.04571773 0.09236527 -0.3040979 0.15710911 -0.12855999 -0.100780934 -0.3434754 0.08312811 0.06414373 0.24647103 -0.08710127 0.0072723576 0.03490846 0.32984087 0.09478742 0.24389195 -0.16734678 -0.030170335 -0.11961292 0.044868574 -0.5583121 -0.016437529 0.24895695
351 0.06312718 0.06446578 0.08596839 0.3537493 0.14847054 -0.108879335 0.18473175 -0.10024778 -0.21970409 -0.014419877 0.22597879 -0.3318195 0.26734507 -0.06842049 -0.04069951 -0.05421191 -0.02193097 -0.33620924 0.024800895 0.20694812 -0.058694176 0.074325174 -0.045168277 -0.24529576 -0.12265101 0.2773475 -0.2026798 0.0906357 0.070749424 -0.1378273 -0.0758966 0.23953524 -0.3097641 -0.44490218 0.27853474 -0.07209285 0.19249876 0.23406509 -0.09304969 -0.083463445 0.2975075 0.11494014 0.08133193 -0.21208715 0.17068826 -0.24047999 -0.118411325 -0.18522236 0.010902104 0.17532285 0.17369416 -0.21183993 -0.11088679 0.10926263 0.2724394 -0.100821175 0.09755874 -0.27557442 0.24330173 -0.004235448 -0.22775131 -0.21501675 0.1914404 -0.04600555
587 -0.04504277 -0.08967297 0.31811067 0.25490132 0.19910097 -0.273202 0.025885032 -0.03724925 -0.13494396 -0.052645825 0.0015929871 -0.07213121 0.0060269753 -0.16145201 -0.37933582 0.028025027 -0.20821065 -0.143859 -0.100337 0.124716274 0.14415489 0.11786426 0.22992343 -0.31713563 -0.14335003 0.24715026 -0.42398545 -0.16552477 0.180064 -0.29254985 0.024163224 0.011009127 -0.28883058 -0.05038098 -0.046897493 -0.13686432 0.15576726 -0.07038338 0.012864355 0.07835909 0.23225854 -0.098499395 -0.17380038 -0.14386478 0.012287137 -0.190005 -0.27668136 -0.24257106 -0.02430473 -0.15625338 0.26302636 -0.061073735 -0.023033207 0.24913816 0.41710815 0.06315872 0.038923245 -0.27331793 -0.123408124 -0.0183204 -0.033532277 -0.10786689 0.06518042 0.17908952
383 -0.1446566 -0.029418275 0.29063523 0.2535008 0.15571211 -0.20782332 0.17405556 -0.019710949 -0.04693645 0.122186325 0.053043097 -0.04739414 0.29328215 0.06583574 -0.2908986 0.1133763 -0.2535256 -0.15365174 0.1519376 0.11515639 0.19261517 0.17292823 0.112113215 -0.49265254 0.007947815 0.23385032 -0.3888164 -0.080721304 0.090314604 -0.09355882 0.07282779 -0.029105823 -0.2983627 -0.28054413 0.13687144 0.07968529 0.2780978 0.30788383 -0.04669591 -0.02715471 0.14834669 0.12350161 -0.12609324 -0.32911488 0.06765516 -0.16924359 -0.18227552 -0.25421834 0.021662049 -0.022427715 0.019369537 0.008372002 0.0027513714 0.11234304 0.4435773 0.051708676 -0.025664952 -0.24770992 0.012414113 -0.03287534 -0.15401524 0.031344593 0.0453602 0.050586134
1005 -0.0050805053 0.044779092 0.31756467 0.14766361 0.29995283 -0.12031603 0.13312119 -0.12590665 -0.06369647 0.036067117 0.21509258 -0.04981941 0.027358245 -0.06176895 -0.038674507 0.10050643 -0.4053845 -0.12331099 -0.0031903796 0.25288674 0.19975248 0.10062713 -0.09519006 -0.31675297 -0.23513488 0.20435858 -0.115035355 0.061716985 0.013942127 5.3923537e-05 0.13038932 0.24668136 -0.5367088 -0.11154169 0.19584644 0.21789491 0.12802033 0.38942328 0.123405084 0.079544574 -0.031507183 0.1208258 0.06643007 -0.34826198 0.032413665 -0.18331005 0.1351908 -0.10201298 0.05187712 0.20481068 -0.15232664 0.010953458 0.027309868 0.29223153 0.21474087 0.09605069 0.09004491 -0.33482155 -0.07193496 0.006565014 0.0054895715 -0.21007387 0.07495077 0.20611012
89 -0.05095789 -0.07583604 0.1637634 0.26800963 0.114652395 -0.35013953 0.091642134 -0.12042143 -0.1860873 0.1933687 0.1763058 0.101640515 0.27229142 0.045951642 -0.21589269 0.057222318 0.08120652 -0.08903051 -0.21847215 0.04150269 0.17366493 -0.030697241 0.33221456 -0.5385234 -0.007254747 0.42563403 -0.35203642 0.0065213754 -0.07240631 -0.21035041 -0.04668892 0.1397661 -0.2819304 -0.1865836 0.14373425 -0.094878145 0.17432551 0.06335383 0.19115348 0.15041913 0.15524432 0.19104588 0.029643496 -0.09228436 0.102224536 -0.29507127 -0.17597495 -0.08158773 0.1357582 -0.07647875 0.045512296 -0.09805937 0.05079628 0.045779 0.30981618 -0.18336421 0.06288872 -0.246934 -0.051178582 0.1455132 -0.019839054 -0.13245356 -0.075660214 0.011704311
888 -0.020072654 -0.07039612 0.19972952 0.26654986 0.030468265 -0.20571949 0.10698966 -0.048711162 -0.24788299 0.13342659 0.12161791 0.05075432 0.2796789 0.105906956 -0.17897926 0.17610972 0.20954625 0.10356565 0.088937335 0.14158085 0.021807397 -0.10526971 0.023515286 -0.39859128 -0.15057166 0.2071436 -0.46489343 0.19206247 0.051774483 -0.12673889 0.12737201 0.20067154 -0.2004475 -0.37775728 0.21147996 -0.0060782447 0.2667413 0.13079277 0.12490252 0.047684293 0.11035759 0.06368545 0.035942487 -0.25829828 0.057505418 -0.23540251 -0.110365376 -0.36892736 -0.20078358 -0.05389214 0.34844416 -0.19715658 0.08576097 0.052982423 0.3810305 0.037158474 0.14400148 -0.23564187 -0.09670588 -0.024216859 -0.14669332 -0.33791238 0.013661891 7.385102e-05
912 0.09473763 -0.20434275 0.18975101 0.2677028 0.107095145 -0.12701204 0.09633263 -0.2526387 -0.21050873 -0.19499308 0.15596673 -0.40644985 0.120284855 -0.23709744 -0.13328464 -0.03789837 -0.36775824 -0.29589933 0.0454587 0.33490822 0.09608551 0.2505362 0.21904647 -0.20969163 -0.17833784 0.21840015 -0.11044732 0.06992209 0.13604741 -0.11153382 -0.06308761 0.20785637 -0.2626454 -0.22945322 0.06518051 -0.33037102 0.13682494 0.1918409 0.18537648 -0.037238423 0.25484538 0.29617104 -0.109583974 -0.13115776 0.18430598 -0.17129153 -0.10837087 -0.18566638 0.10926191 0.0023433946 0.12696502 0.0041860933 -0.06135873 0.23576754 0.30678916 0.06476658 0.19321449 -0.10238631 0.16692296 -0.06844641 -0.195767 -0.0006835688 0.14999148 0.08129094
446 0.14162895 -0.08225081 0.16151644 0.2962601 0.38979232 -0.23456484 -0.014082839 0.061308846 -0.09941379 0.29799402 0.1513439 -0.09128797 0.22854939 -0.23284659 -0.30712616 0.055558458 0.24756931 -0.021293681 -0.21700916 0.28971902 -0.03987236 -0.16213542 -0.023229986 -0.36449143 -0.12743464 0.31423962 -0.3505613 -0.29983875 0.024022603 -0.21099068 0.17963387 0.21884505 -0.29627445 -0.07945269 0.06519648 0.12528032 0.08733917 -0.023605213 -0.06486244 0.2084532 0.2263006 0.07442823 0.011884099 -0.2549589 -0.24267921 -0.3319145 -0.20982854 0.0009922428 -0.20232783 -0.029892836 0.16092707 -0.15301283 0.046665136 0.27499422 0.16535012 -0.18865125 0.116111875 -0.3242092 -0.03251735 0.11924525 -0.10516139 0.066708304 0.046739593 0.11208785
238 0.15495035 -0.2554117 0.2246154 0.37606847 0.25267786 -0.18892212 0.07902008 -0.19230138 -0.3304372 0.24420261 0.31275144 -0.23386997 0.08539753 -0.1539458 -0.1261204 0.13056666 0.10775024 0.037873007 -0.13824539 0.29058865 0.07778531 0.026665252 0.2522641 -0.27802014 0.032577332 0.28663015 -0.13447428 0.077765845 0.025944065 -0.10539381 -0.00095543393 0.38379592 -0.24091767 -0.074307635 0.0573985 -0.13869642 0.1253997 -0.028902082 0.283576 0.13367474 0.035517845 0.18962942 0.061436772 -0.14849672 0.0066328286 -0.214242 0.026404649 -0.13597769 -0.05693535 -0.0016106929 0.11870668 -0.15935092 0.39006677 0.29819438 0.15716125 -0.048188478 -0.013088756 -0.24880351 -0.14067976 -0.010826346 -0.11003706 -0.0861299 0.037103165 0.018909866
799 0.112191506 -0.15653156 0.10685023 0.24416836 0.05908647 -0.29150027 0.16924469 -0.19005778 -0.215732 0.0877672 0.16307732 -0.115346335 0.21425262 -0.05594905 -0.13850866 -0.048977282 0.002990993 -0.06578758 -0.072894715 0.20721056 0.058870256 -0.029704446 0.342856 -0.4164645 -0.11201553 0.4109405 -0.26065314 -0.061919533 -0.048689887 -0.13585138 -0.10816003 0.14455895 -0.24474105 -0.35211903 0.19001822 -0.09932416 -0.037704404 0.115132615 0.086540945 -0.095119774 0.3237632 0.38746843 -0.087001875 -0.039195348 0.22045575 -0.22654933 -0.24099308 -0.09080196 -0.039411314 -0.061084904 0.05675633 -0.008648482 -0.00874088 0.050335385 0.33140206 -0.068461046 0.1159107 -0.15910387 0.1465374 0.052136056 -0.13354085 0.06387906 0.046688985 0.120636374
485 -0.09068112 -0.11050268 0.32472125 0.0035011386 0.2714938 -0.19816339 0.11701591 -0.08276425 -0.015094193 0.06201684 -0.05910633 -0.049519975 -0.03408716 -0.05993763 -0.19014138 0.13570006 -0.4796029 -0.12040385 0.023796348 0.23385939 0.22511747 0.29431367 0.023314092 -0.23930372 -0.055093627 0.19368996 -0.41927624 -0.0061105243 0.03611414 -0.1325208 0.25676173 0.1776243 -0.40114114 -0.09098544 0.10360315 0.16266163 0.20990404 0.35532886 0.18639801 0.16059403 0.060401835 -0.06457997 -0.048281703 -0.17795998 0.046068326 -0.23736444 0.13813873 -0.17237587 -0.041212298 0.14772762 -0.21270232 -0.073430546 0.019290447 0.42343733 0.24638614 0.046237167 -0.16069788 -0.42887065 -0.1721923 -0.040468648 0.005029255 -0.028197521 0.048630632 0.07666902
704 0.07547565 0.116790056 0.048370965 0.30498466 0.037936494 -0.20080645 0.10838211 -0.36380148 -0.08928772 -0.07293297 -0.013747292 -0.035794444 0.21229465 0.07254339 -0.062242918 0.18633069 -0.19626701 -0.30936432 -0.070351996 0.40235656 0.21071385 0.24499165 0.1259784 -0.34529048 -0.034071792 0.29553467 -0.19997977 -0.019816734 -0.04615588 -0.09127381 -0.12568827 0.13883446 -0.40145835 -0.29571444 0.3454575 -0.11093113 0.12962572 0.1338124 0.017247451 0.17103581 0.079530366 0.11308961 -0.0060064523 -0.14403048 0.119645596 -0.06446195 -0.13010179 -0.12392259 -0.06622637 0.054923266 0.13317774 0.12378268 0.009310134 0.14379509 0.25678292 0.06926807 -0.098079085 -0.2795011 0.02041259 0.1788038 -0.06113981 -0.3238496 -0.1038935 0.003946848
480 -0.12941259 -0.17693722 0.26356807 0.14006622 0.21151523 -0.12418026 0.14930318 -0.1182195 -0.18135798 -0.006296246 0.13144808 -0.0032728368 0.09115147 -0.083268724 -0.16717169 0.14436054 -0.056261864 -0.17128326 0.009388096 0.15233336 0.2278291 0.17578213 0.10400833 -0.2588733 0.017418163 0.32016706 -0.36391398 -0.0338761 0.09568288 -0.084773876 0.18954067 0.08924049 -0.21696034 -0.14968091 0.032121193 -0.01661495 0.042948958 0.40649572 0.11582637 0.07180577 0.18978679 0.015445475 0.018595697 -0.18862483 0.021545384 -0.44344386 -0.1540439 -0.270259 -0.07198884 -0.08017416 0.05140838 -0.3206503 0.076624736 0.435864 0.2624124 -0.07160234 -0.079275884 -0.33170146 -0.08394931 -0.112273194 -0.27756917 0.0032547384 0.17807886 -0.015908837
876 0.15631092 -0.027387727 0.18290189 -0.14065129 0.09797016 -0.16973001 0.11455249 -0.22191833 -0.04706622 -0.04051457 0.16371381 -0.11878116 0.02204833 -0.064213514 -0.08798429 0.19073205 -0.33450058 -0.24484603 0.1795274 0.18894914 0.11187438 0.036158144 0.007920383 -0.14955437 -0.17256963 0.28067952 -0.4356555 -0.10505938 0.08320801 -0.006962796 0.0865188 0.07945471 -0.47777826 -0.12861025 -0.004120753 0.034915313 0.20159101 0.21265537 -0.018421045 0.21429352 0.15579131 0.26816803 0.15871537 -0.37401405 0.17120321 -0.4121771 0.009495074 -0.1785476 0.049645763 -0.09787128 0.021364776 0.034589533 0.050213378 0.25109786 0.3063462 0.037888773 0.05157901 -0.13859427 -0.24439487 -0.057664428 -0.20435932 -0.26448274 -0.038462777 -0.040901814
827 0.0032466836 0.027483175 0.16387068 0.04882703 0.113176 -0.14515933 0.10558627 -0.32243645 -0.037662674 0.061850898 0.0707988 -0.15770577 0.023382552 -0.04867464 -0.09963458 0.23922884 -0.4471925 -0.109317526 0.16056766 0.2923783 0.16609661 0.12543616 0.11036935 -0.24716115 -0.11399775 0.2088219 -0.33682358 0.062481463 0.03831821 0.021701392 0.12972417 0.23693338 -0.37330583 -0.124497995 0.10418041 -0.026137898 0.18363455 0.24362953 0.18752685 0.065304264 -0.07536713 0.26498803 -0.03775862 -0.24366425 0.14065045 -0.06869922 0.034548823 -0.29585212 -0.08885169 -0.02073148 0.03334123 -0.052777454 0.07814936 0.17768942 0.27350873 0.24213095 -0.04708066 -0.33553195 -0.2899242 -0.04598683 0.1359129 -0.23207521 -0.014870761 0.0507537
177 -0.22685824 0.004911802 0.18087985 0.20611642 0.20653784 -0.14099735 0.091199026 -0.22634906 -0.24824326 -0.1797473 0.13305739 -0.10712429 0.12649648 -0.12880039 -0.04946838 0.05621864 -0.2697395 -0.11228535 0.08994267 0.4091299 0.027648808 0.22358824 -0.014611551 -0.10169621 -0.21361263 0.1970387 -0.3154171 0.12556112 0.0742106 -0.07074833 -0.057124585 0.24276808 -0.31775936 -0.2499398 0.1701975 -0.13845354 0.12731878 0.2537962 0.20861387 0.02879526 0.012772723 0.031963635 0.046739955 -0.09038158 0.20011139 -0.17159912 -0.14247006 -0.39850613 0.0812978 0.07137737 0.25563532 -0.17693748 0.025583131 0.2676308 0.23553997 0.09438333 -0.0651275 -0.109340966 0.011823632 -0.043207675 -0.18792243 -0.36527526 0.18511988 0.08213603
160 0.023457745 -0.086195394 0.23715551 0.13193516 0.08639761 -0.18366307 0.16570535 -0.287885 -0.13226639 -0.20475231 0.1779948 -0.011787343 -0.0150504755 -0.101801865 -0.069223486 0.16302176 -0.35893974 -0.1814553 0.13435006 0.22874774 0.27459943 0.1845527 0.15335986 -0.12500386 -0.2109589 0.20114775 -0.32403135 -0.005601109 0.078228615 -0.06978685 -0.09281245 0.16814917 -0.42651945 -0.040267717 0.059061643 -0.13595182 0.1704908 0.16544051 0.07577128 0.2720317 0.09638515 0.08906125 0.09780651 -0.17087343 0.05635703 -0.18102701 -0.07332299 -0.22183609 0.083257206 -0.049073707 0.13186075 -0.10152201 0.12042513 0.27095595 0.36088806 0.108774 -0.0027955342 -0.20704117 -0.19864653 -0.026225 -0.1377242 -0.24336277 0.0697121 0.064281456
