3890 64
2124 -0.2365361 1.036264 -0.25853282 0.621156 -0.29804304 -0.5697995 0.595563 0.7460727 -1.3174624 0.09506637 1.6808733 0.40309066 -0.7883503 0.9465199 -0.49588278 0.066661194 0.7894501 -0.03826364 -0.9715029 -0.34525177 1.0302856 1.4350121 0.41231957 0.7153973 0.09175913 -0.055512693 -0.098886326 0.5156464 -1.3722501 -0.0016598181 -1.774717 -0.2646695 0.59336805 -1.1215216 -1.2343245 0.73518413 0.43997747 -0.49174 0.15541928 -0.75554204 -0.6252488 1.37179 -1.495214 -0.5983844 0.35149592 -0.92295516 -0.88454896 0.7827376 0.28836206 1.6141778 -0.25367776 0.8755275 -0.4180651 -1.0354668 1.0968022 -1.014223 0.87224287 -0.78367037 -0.2456864 1.2768098 -0.09695959 0.081458464 -0.4245529 -1.0982212
581 -0.06066305 0.44595608 -0.7595887 0.07682757 -0.4590767 0.6127161 -0.31069696 1.3713709 -1.0046208 -0.27829635 1.3273674 0.22398525 0.17244038 0.20451944 -0.3164351 -0.14069153 0.014250102 -0.7430908 -0.004190651 1.9750345 0.16505122 1.1970683 0.21965602 -0.11049254 -0.7964742 0.67528135 0.035507903 -0.33230856 -0.08788715 -0.12417715 -0.046152595 -0.26778823 -1.3571277 -1.1462759 -0.90779895 1.3069988 -0.6422178 1.3216965 0.37099746 0.14056624 0.78210855 0.27815598 -0.31776947 0.11686593 0.23369227 -1.8716012 -0.23101966 -1.0989585 -0.19699043 1.735188 0.6313375 2.5389042 0.26808405 -0.12354893 -0.4147283 0.1750543 1.3054981 -0.45910957 0.7600639 -0.25168774 0.28599566 1.0904403 -1.2914306 0.547734
2731 -0.086453885 1.0889535 0.23679562 -0.5106135 0.049674273 -0.6617378 -0.2936247 0.098862335 -0.41251865 1.3426965 1.8854077 1.1823967 0.2181918 -0.21723045 -1.4330013 0.72278893 0.1227615 0.33803338 0.25137073 1.7259523 0.97093636 0.89975435 0.392829 -1.1320221 -1.1247848 0.23068887 -0.9452129 0.6601551 0.3815516 0.78444135 -0.6873574 0.42901102 -0.78189534 -0.52979505 -1.3718796 0.38830253 0.012277212 0.64437115 0.5506785 -0.56266755 1.0458708 1.5190674 -1.0439645 -1.3025843 1.079115 0.4272276 -0.45285645 -0.90198386 -0.5431838 0.7864258 0.20303185 1.1698815 -1.0198134 -1.46754 0.27163294 -0.9266369 1.1347969 -0.88967705 -0.09748596 0.13740247 0.10086128 0.088920884 0.006009363 0.017559055
455 0.23628218 -1.3005891 -0.94528556 -0.40235695 0.8121964 -0.37146714 -0.9302968 1.2066375 -1.6508982 0.89250934 0.52178925 0.07743818 0.10759153 0.34692702 -0.5907709 0.942444 -0.43064085 0.41128618 -0.73837596 0.6794607 1.2185742 0.5560744 0.842009 -1.0002062 0.29383352 1.4743621 -1.6878629 -0.8576242 -0.31196854 -0.09916295 -1.1980325 -1.6849028 0.38232204 -0.5715021 0.14485464 2.0267074 -1.2044629 0.33762908 -0.022307597 -1.0732708 -0.61143076 0.30926558 -0.86534566 0.09614686 0.80027044 -1.1201752 0.07751374 0.34729367 -0.40216437 1.0289184 -0.15019235 1.0967406 0.3204451 -0.9368059 -0.21042949 -0.39968312 0.5123175 -1.1297145 -0.51925445 0.17122489 -0.90270567 -0.5758769 -0.82268035 -0.7048706
2855 -0.6366302 -0.29429853 -1.9256145 -0.34198976 0.442394 -0.23047954 0.7255132 0.82349926 -1.115685 1.7223444 1.8462948 0.54292166 -1.8400079 0.5814188 -0.015033381 0.6827358 0.18967226 0.041254155 -0.4886691 1.2242959 1.2322624 0.84975266 -0.45533165 0.4988652 -0.55776435 -0.4156847 -1.0755683 0.43367946 0.34093142 -1.2375994 -0.9469829 -0.94582784 0.76647574 -0.095233716 -0.40286735 1.1575712 0.29056832 0.06631668 0.20023713 -0.427804 0.81131536 0.67692155 0.14926936 -0.79948616 -0.6945664 0.48258048 -0.42898992 -0.47689584 0.88461226 -0.29650077 0.33839056 0.97119963 0.41256592 -1.935905 0.55094045 0.21480197 0.62564176 -1.0283551 0.4325934 0.7399975 0.77999914 0.09425026 -1.1662048 0.41063136
2643 0.36130512 0.3439783 0.02137656 0.3748831 -0.70529836 0.22082023 0.39135537 0.9953655 -0.3254886 0.82176733 0.7705315 0.14645736 -1.5977926 0.08535872 -0.23885244 0.9664832 1.255111 -1.3345566 -1.0664569 2.1559274 1.3768837 1.1514103 0.46268958 -0.1378001 0.005181364 0.10990827 -0.037952796 -0.72342014 -0.67447364 -0.015000819 -0.75503296 -0.35020638 -1.1625639 -1.1115532 -1.6126426 1.0513107 0.04510333 1.4333246 0.31771013 -1.2306571 0.24412684 0.9423826 0.17739932 -0.22041598 1.2140387 -1.4130437 -0.031765185 1.1273118 -0.18712358 0.0753614 0.6797193 0.038952153 -0.5978406 0.08910868 0.16281782 -1.0812938 0.30577704 0.49021557 -0.6723411 0.698925 -0.53628016 0.99857587 0.105290376 0.050546564
201 -0.24163452 0.10799205 -0.4836592 0.073576756 0.29105842 -0.46665844 -1.5342618 0.61639774 -1.0179639 0.36342 1.8523471 -0.22262213 -0.7397704 -0.25567228 -0.7155995 -0.061828338 -0.7326866 -0.5727337 -0.93203783 1.246578 0.6606138 1.4317057 -0.24819417 0.0028316113 -1.0905209 0.44014248 -1.0728493 0.18292212 -1.1427536 0.027508462 -1.8341324 -0.98356116 -0.6326562 0.4108964 -0.0387286 0.6383564 0.07497352 -0.4962324 0.12695782 0.3570799 0.5380648 0.8920761 0.043119833 0.7406434 0.14156483 -0.73562837 0.819883 0.2989281 0.5552757 -0.21938808 1.6180686 0.4109274 -0.35343212 -1.2716336 0.25392604 0.4229816 0.89265627 -1.0759273 -1.6085619 1.4200524 0.3814021 -0.37198478 0.0060062106 0.1523986
2039 0.010140218 -0.72099143 -0.5592885 0.024127986 1.1484246 0.38710597 -0.22757278 -0.32165176 -0.89250946 0.2248292 0.857196 0.11506813 -0.59508663 -0.58862627 -0.83237 0.08454047 -0.28093183 -0.7925263 0.5992728 1.4156312 0.47626942 0.81461805 -0.7929682 0.67615515 -0.25748786 0.7081296 0.06069392 -0.06327297 -0.25797358 0.2655413 0.029112969 -0.97154194 -1.1198472 -1.2069716 -0.47701612 0.4362888 -0.84616673 0.24366516 -0.06842431 -1.0750517 0.2775344 0.6580871 -0.08820271 -0.081498526 0.9071123 -1.090103 0.6887038 -0.7905402 1.1056997 1.2781754 0.07930451 0.73893356 -1.3854021 -0.9258337 0.25518984 -1.3412054 0.1924727 -0.46567634 0.3841643 1.3672364 -0.53057826 -0.48838714 -0.6027341 0.013513054
1697 -0.86714107 -1.0967817 -0.943098 -0.27566516 -0.39157462 -0.33050865 0.0005397781 0.57077 -1.6585515 0.91054183 1.6799705 0.7854592 -1.4821622 0.2982402 -0.17295033 -0.76450646 0.107828766 -0.30326474 0.27043885 0.6099251 -0.0007615282 0.29043353 0.39169952 0.31212866 0.40349197 1.0120571 -0.0829103 -0.3700874 0.47369045 -0.7324926 -1.3146864 -0.847448 -0.73676354 -0.5303463 -0.72405994 1.718447 -0.02241782 0.6073993 -0.23188174 -0.8758764 1.1566176 1.39439 -1.2961901 -0.07361738 1.664724 -1.6431568 -0.5900839 -0.47060943 1.5754225 0.48190707 0.7566755 -0.30178207 -0.14013651 -0.7841832 -0.054933257 -0.049903665 -0.31289327 -1.0471908 -0.12470553 0.6540823 0.59844226 0.8484365 0.20331587 0.26261437
2340 -0.7760292 0.67215806 -0.8847274 -0.00711183 0.8771468 -0.3844926 0.4580223 -0.19551504 -0.770533 0.08490472 0.4960396 1.0733131 -1.2937729 0.5506791 0.39986068 1.4303944 -0.83851063 -0.932361 1.1705047 1.448636 0.19090503 0.09001231 0.151827 -0.89969933 0.14701319 -0.5761912 -0.62613887 -0.17923799 -0.09559788 0.13441885 -0.9043644 -0.03940078 -0.6310425 -0.21557702 -0.77113485 1.8867527 -0.3497915 1.1003941 -1.0988715 -0.26789668 1.336491 1.7218885 -0.0848637 -1.0168529 0.47001436 -0.59826875 0.6084031 -0.30714697 -0.10939548 0.8450057 -0.32942697 0.64538294 0.028120166 -1.3365124 1.0994077 0.28147334 1.0984735 -0.18295929 -0.7172592 0.51347846 -0.59708416 -0.40075657 -0.8136869 -0.7297568
1085 0.2211485 -0.34051535 -0.07375821 -0.76469505 1.3729693 0.7905301 -0.31387204 -0.47374043 -0.82408744 -0.056676988 1.9753116 -0.5606381 -1.498524 0.73574835 -1.2662202 -0.4229514 0.13993025 -1.352352 -0.5052784 -0.10130738 0.54536456 0.60708904 0.5751034 0.08865195 -1.0297086 0.6406155 -0.5538748 -0.49205387 -0.4304826 -0.34056568 -1.049471 0.18189809 -0.28939676 0.34726557 -0.5363515 0.039782245 0.5241393 1.2081928 -0.6970409 -0.046893362 1.0101469 0.06393898 -0.85759896 -0.6235693 0.86975896 -1.064396 0.6302437 -1.8065739 0.028534777 0.43782517 -0.037407752 0.8502271 -0.32265323 -1.2470967 0.49461466 -0.9254983 1.5198051 -0.91115963 -0.66932213 1.6658784 0.8006114 0.2582641 0.587035 0.092353866
332 -0.41408283 0.3224924 -0.08428719 -0.2325653 -0.40398484 -0.53034836 -0.15228844 0.2867888 -0.09981034 0.29404593 0.511224 0.32335752 -0.13747819 -0.11475389 -1.2591236 -0.11983078 0.28445128 0.04575236 -0.07039778 0.021952495 -0.07944807 1.2185615 -0.88061005 0.61233085 -1.0873038 1.0361183 -1.0483173 -0.14793167 -0.8417435 -0.7373614 -1.4312743 -0.45699057 -0.67609125 -0.7232373 -1.8082705 1.0838218 0.62316465 0.13820313 -0.91070914 0.13622123 1.1066765 -0.0056953765 -1.5266002 -0.78850526 1.6203117 -0.99572814 -0.89012426 -0.3836072 1.4707663 0.34527114 -0.3905885 1.6377743 -0.8499366 -0.4539967 -0.24099803 0.46397868 1.4334824 -0.39795104 -0.8556322 1.2588474 0.08805583 0.5485723 -1.1955668 0.7282955
1174 -0.9299341 -0.5140392 0.063669 0.20566253 0.31356627 -0.62573916 -0.13903771 1.1946437 0.51150966 -0.49400982 1.2161309 -0.6166115 -0.84235543 1.289609 -1.518748 0.61531097 0.267628 -0.38425025 0.54358727 1.3993261 1.2132058 0.64441085 0.14835323 0.16909565 -0.8716638 0.24130738 0.49433547 -0.30012783 0.006660329 -0.7053535 -0.8349433 -0.023575125 -1.3003004 0.58807796 -0.86290205 1.32877 0.4738486 0.15686153 0.28053385 -1.3590821 0.4902087 1.0033888 -1.0038481 -1.3097694 0.90423864 -1.549356 0.93210524 -0.720008 0.07067632 1.4907427 -0.6410991 1.043048 0.12183658 -0.36139777 0.7739587 -0.61919725 0.86101276 -0.37991843 0.0613978 0.15130721 -0.34363842 -0.025236787 -0.09122298 -0.22591211
2305 0.4912229 0.94250566 -0.5524931 -0.14828639 -0.03046255 1.0677998 0.04641456 0.11535057 -1.0764779 0.78487456 1.1620097 0.033327594 -1.117195 -0.06159531 0.12509684 0.42983317 -0.60433716 -1.2044872 -0.3417093 0.3122792 1.0248804 0.5988961 0.3596808 0.011850494 -0.100668184 0.6238226 0.09233632 -0.8880668 -1.4308712 -0.27534744 -0.2244793 -0.14025506 -0.499664 -0.7253574 -1.7223433 1.0661548 -1.4352845 0.34499446 -0.6813102 -0.011566375 1.0513282 1.2215925 -0.6525827 -1.0606564 -0.17454419 -0.5864024 -1.3836337 -0.1501933 -0.009424227 0.062423583 0.63268715 0.80698675 0.78660965 -0.749646 -0.14712736 -0.9536224 0.44078007 -0.6510649 -0.19617377 0.85734665 0.8252289 0.36783296 0.32614034 0.8257625
2540 0.019546468 0.8662272 -0.04911475 -1.0658709 -0.78096175 -0.43086886 -0.955983 1.1026199 -0.515944 0.15221745 0.058508758 0.6609807 -0.83852464 0.042211615 -0.83792406 -0.2252046 0.2436754 -0.6177391 -0.8673264 1.4968419 1.3854308 0.8668793 0.63643354 -0.44057202 -1.3659272 0.877541 -0.9684393 0.31493765 0.83465314 0.40667716 -1.5252092 0.67124015 0.21847872 -1.3735741 -0.519024 1.4438477 0.27439058 1.8096794 -0.7508422 0.32055333 0.13405323 1.3998389 -0.01369778 -0.2127491 1.421338 -0.17027521 -0.27354723 -0.6416246 -0.028414605 1.0970087 0.01010198 1.1517932 0.19199134 -0.15501218 0.347068 0.13781285 0.55466104 0.049029116 0.20272473 0.1730042 -0.85039324 -0.37867707 0.21081735 -0.4600871
2100 -1.0420179 0.13188815 0.23598962 -1.0284274 0.66958296 -0.65251607 -0.6897328 0.21613942 -0.42409447 0.25835723 1.0435935 0.31153148 -1.415949 -0.39015988 -0.5187898 0.13748853 -0.054569457 -1.4856621 0.062852874 1.6844133 1.1736335 0.2640857 -0.1803308 0.79030055 -0.13496725 0.19146676 -1.1146411 -0.15541466 0.1936318 0.029880201 -2.0105414 0.29809058 -0.2144897 0.53319335 -0.12801588 0.5834551 -0.7926915 1.5418278 0.57484037 -0.31741342 1.2469065 0.5128787 0.10361408 -0.7109387 0.5053153 -2.1335766 0.33982095 0.21643062 0.517202 -0.047310393 0.045182634 1.0024257 0.82735354 -1.2275438 0.4863955 0.1254833 1.3038386 -0.6572137 0.29994035 0.07420029 -0.38804162 -0.22848879 0.4507853 -0.100435644
2338 -0.5329901 0.52380174 -0.09527714 -0.77070975 1.0389603 0.6034483 -0.95120853 0.4717391 0.23071173 0.7423321 1.1292619 0.13474014 -0.53937083 0.5365095 -0.90013236 0.23560022 -0.29886788 -0.73915744 -0.94848436 0.89169145 -0.32906738 -0.5263563 -0.26637402 -0.20332092 -0.65056664 0.5934427 -0.7654056 -0.14139883 -0.49654981 0.24472767 -0.4632302 -0.16984911 -0.94957906 -0.6710067 0.026023367 0.9328384 -0.71988904 -0.12719484 0.026280206 -0.0099169705 -0.8335122 1.0038347 -1.1356313 -1.0924741 1.2090615 -0.9645781 0.1479629 1.0985785 -0.2515145 1.8050181 0.536879 1.6220834 0.5454389 -1.5974581 0.10464068 0.2503947 0.9110198 0.52260303 0.70685047 1.85734 -0.37488055 0.61201376 -0.6655015 0.20587876
198 0.51659894 0.61980486 0.19623984 -0.13887255 0.30543816 0.18334758 -0.422734 0.47584745 0.03879324 0.30730316 1.5611973 -0.7671112 -0.09572657 1.1211501 0.06226404 1.2761002 0.8895281 -1.1009264 -0.23173046 1.0951918 0.40499803 0.65473676 0.55019486 0.7919291 -0.56155497 0.26130632 0.2722725 -0.8043643 -0.30509028 -0.69366807 -1.6606067 -1.3447468 -1.0352578 -1.105323 -0.7655 -0.37942672 -0.8509012 0.27296552 -0.73447216 0.32626155 0.7339871 1.1217698 -0.28003272 -0.7893593 1.1351305 -1.2105304 -0.003708419 -0.22059654 0.16294518 0.3087977 -0.3652806 0.28465846 -1.551894 -1.3279352 -0.2527793 0.28983122 0.49197868 -1.1138227 1.0265151 0.81673944 0.34163722 0.62956846 0.35670048 -0.10876427
275 0.70133936 1.0645674 -1.0407546 -0.02198617 -0.2178927 0.8643797 -0.3697843 -0.16364802 -0.63557965 0.2161691 0.84806013 0.1608289 -0.9439377 0.5257082 0.531717 0.69050574 -0.69670033 0.34938172 -0.25728133 1.6667479 0.5953587 0.8318839 -0.16009752 0.26023802 -0.935223 1.2266724 -0.3131273 -0.18905073 -0.4605371 0.6620939 -1.5532795 -1.0661894 0.056276742 -0.3432319 -1.0945451 0.9474523 0.38873604 1.507367 0.37770545 -0.41586757 -0.49346486 1.569645 -0.041424986 -1.2037854 0.20770338 -1.2729449 -0.5188857 -0.6768602 0.37897795 -0.03166392 0.9597568 -0.24278452 -0.15278746 -0.42059335 0.11939461 0.148378 1.8000253 -0.74668187 -0.61764514 -0.49845293 -0.4060966 -0.22115551 -0.4302531 -0.99846274
1108 -0.104342386 0.8939941 -0.60061115 -0.6779263 0.028513743 0.15271406 -0.15924197 1.0273365 -1.162259 1.4246992 0.20629735 0.65143394 -1.146165 0.79957557 -1.205274 0.9334588 0.20401286 -0.5668893 -1.0495948 0.23451535 0.10835994 -0.08532786 0.025644425 1.0641927 -1.0621532 1.130886 -0.79629856 -0.28132764 -0.53049326 -0.9826797 -0.35781705 -1.0759947 -0.4698506 0.42574552 -0.33078158 0.041660078 0.18351063 -0.09323194 0.078308485 -0.8560423 -0.0822368 1.3736182 0.5099069 0.3985307 0.14131607 -1.5365323 0.70064634 -0.22221757 0.1706962 0.93927455 0.9793939 1.1445358 -1.2503711 -0.63379234 1.040386 0.37605584 1.3606865 -1.0797887 0.347793 0.63236576 0.5370597 -0.3950024 -0.40138003 -0.11369054
1361 -1.569809 0.3727066 -0.43859988 0.4808295 0.41229594 0.04997097 0.012034512 0.19498399 -1.1149297 0.6207606 0.73694295 0.52257514 -0.15865141 -0.10605774 -1.0315995 -0.25446 0.4969767 0.37281632 0.38299298 0.9472781 0.2835163 0.8717663 -0.14738573 -0.5257585 -0.42648998 -0.37278622 -1.5061783 -0.7844126 -1.160888 -0.051914237 -1.8832369 -0.15587252 -0.9341914 -0.582903 0.07543496 1.3668433 -0.28708822 0.78711754 0.08844441 0.09180932 0.9622178 1.6142646 0.5136291 0.5783477 1.5106959 0.00019708346 -0.8356275 -0.57126516 -0.3070588 1.6611584 0.5428544 1.0075971 0.7203138 -1.2523907 0.53567165 -0.28017378 -0.10155836 -0.2349288 -0.39239472 1.1643771 -0.3253141 -0.342201 0.52567947 0.605582
1212 -0.35069665 -0.53156185 -1.3079824 0.44251198 1.3241991 -0.27676192 -0.19450647 0.08479353 -1.4028049 0.7434692 1.3206279 0.5423256 -0.5079341 0.3407816 -0.5677558 1.6446797 0.4081024 0.24088083 -0.6082294 1.4169334 1.4187063 0.69235575 0.7425179 0.47680125 -0.30371758 0.7156603 -0.45330545 -0.55690295 -1.280199 0.3581754 -0.65648174 0.36192027 -0.2763472 0.22908095 -0.43967953 0.761825 -0.22133967 -0.17207092 0.23979627 0.1990387 0.48045245 1.4730712 0.311096 -0.10489792 0.61001176 -1.0460515 0.65660447 0.2164165 0.23939967 1.1305271 -0.5579121 0.4178612 0.45012525 -1.5851847 -0.33866256 0.84655803 1.688627 0.42327002 0.29381126 -0.2203101 1.1513294 -0.38292548 0.6116626 0.027618093
787 0.31148148 -0.7008243 0.088130146 -0.9797059 -0.38158837 -0.77332765 -0.87301886 0.76958776 0.23147823 -0.171068 0.81818956 -0.2673069 -0.34270567 1.4315299 -0.010685711 0.044058613 -0.3512485 0.3124789 -0.39350042 0.9626864 0.9925353 -0.22341792 -0.7659883 0.113292634 -0.584762 -0.332546 -0.9927428 -1.3696145 0.6245296 0.22062702 -0.8915402 -0.3571381 0.838811 0.084406525 -0.42402303 0.95808864 0.01901646 1.3705953 -0.6611911 -0.6092181 0.36130425 1.1237155 -0.44332692 -0.10855961 1.3071185 -1.495393 0.0015388257 -0.91651183 1.206814 1.4801186 -0.002984482 1.5422889 -0.9042464 -1.4800502 -0.095781855 0.57040465 0.8729367 -0.28137395 0.5616337 0.5644297 -0.45771652 0.20430627 -0.6088176 -0.786083
272 0.52506745 0.28028584 -0.95406914 -1.1165371 0.8592613 -0.09424791 0.13177341 0.39496624 -0.63648474 0.4392806 1.5571885 -0.8517694 0.7750531 0.38783345 0.34356216 0.2729118 0.020486208 -1.0777179 0.34030193 1.0104367 0.32828623 1.33546 0.11760994 -0.376611 -0.70421296 0.7471893 -1.2457443 0.46844476 -1.0661025 0.4826309 -1.1590708 -0.16184278 -0.629089 -0.38450298 -1.2489058 1.2291994 -0.7494604 0.53250456 -0.4234207 -0.72632456 0.12398951 1.4359574 -1.6038269 -0.26671466 0.31167924 -0.39172485 -0.46225038 -0.2854239 -0.05512255 1.1907661 -0.15725337 -0.0060593905 -0.49044362 -0.51208967 -0.113193154 0.8225407 0.82171524 -1.1601554 -0.6788143 -0.4625301 0.11421658 1.1191206 -0.6233738 0.8084037
779 0.8847758 -0.16386253 -1.1657652 -0.037366513 0.44058317 -0.35051468 -0.762448 1.1225716 -0.8612771 1.4049833 0.678078 -1.0301311 -0.7002359 -0.4638317 -0.9210085 0.13171442 0.7929056 0.57968676 -0.51933044 1.9628359 1.3602678 -0.03623094 0.37720364 0.37940115 -0.40030274 0.38417017 -0.7576531 -0.3482383 0.121177845 -0.7474095 -1.5538261 0.34427488 0.15717256 -0.24070519 -0.8950196 1.1366247 0.013785295 -0.21900035 0.27400562 -0.13511465 0.12268236 1.2018342 -0.7805245 -0.5816583 0.1435612 -0.8336117 -0.7047903 0.33011374 -0.18592696 1.1099104 -0.48522714 -0.008328481 0.51153594 -0.18971127 -0.79351634 0.18056658 0.11456114 -1.1590044 -0.3804624 0.88668835 0.36717525 1.4676857 0.40061063 0.5731509
984 -0.11569116 -0.020770095 -0.3024237 -0.26990488 1.2778076 0.08638961 -0.6102239 1.2444078 -0.03481829 1.1757778 0.48936516 -0.47481376 -1.4854193 0.90055376 -1.1395819 1.000956 -1.1599058 -0.21220326 -0.6252563 -0.16793697 0.8174737 0.9912364 -0.23220025 -0.29999548 -0.7039074 0.8605518 0.69983274 -0.44622195 -0.7701422 -0.06946721 -0.32129776 -0.8035272 -0.32615215 -0.49719107 0.032689065 1.5834904 -0.06978277 0.07352804 -1.1755937 -0.6060681 0.20927873 0.8670694 -0.6976195 0.58498216 1.4752644 0.24791692 -0.64333886 -1.1649231 0.94376886 1.1788929 -0.25028786 0.39954102 0.14716573 -0.63364357 0.591508 -0.16895682 0.6752445 -0.70086557 -0.49252748 0.2749202 0.42451528 0.20492119 -0.38388225 0.7219472
651 -0.38886896 0.48228198 -1.2796092 0.7389086 0.65550107 0.78559256 0.31101876 1.411432 -0.23720971 0.62082946 1.0724088 -0.6154905 0.16248077 0.10427444 -0.13702458 0.66555536 0.5357462 -1.0496248 -1.3839471 0.85019654 0.74049073 0.54722464 -0.4959404 -0.6444484 -1.2429771 0.31270838 0.09880885 0.72560424 0.17539568 0.19461654 -1.2552315 0.49840355 -0.73647887 -0.14893839 -0.9647241 1.6185578 -0.35457212 0.95065695 0.34511676 -0.93303937 1.1900595 0.1896473 0.7340189 -0.0898637 0.22239695 -0.9420624 0.26849723 -0.3977169 1.0952998 0.58731574 0.45254007 0.14665172 0.5123359 -0.8435908 0.13759792 -0.38624498 1.4679307 -0.92129874 -0.378192 0.28431442 -0.1422279 -0.16680892 -0.03792117 -1.190697
1184 -0.035161186 0.20660433 -0.53379256 -0.38062602 0.36854383 -0.93095344 0.3596124 1.5430168 -1.4233198 0.7099969 0.4823775 -0.097134545 0.25792208 -0.46555758 0.17624016 1.3938482 0.5650563 -0.78572077 -0.74542636 1.2701502 1.1334736 0.17682238 0.32484052 0.8024467 -0.10118702 -0.3006408 -0.031550284 -0.7686507 0.00695538 0.8891993 -1.1949779 -0.01839372 -0.45898765 -0.62027156 -1.8079559 0.9721474 0.44964123 0.6647358 -0.107471064 -0.21828094 1.2999195 0.10933316 0.2377733 -0.6314773 1.0061461 0.1844184 0.38674986 0.36463186 0.8032822 1.3849703 1.0183041 1.1977872 -0.51527935 -0.5172803 0.7215546 -0.24029762 1.9409406 -0.25502652 0.8345948 0.4412557 1.0020674 0.038230706 0.50450194 0.23015246
2406 0.37514374 -0.5752921 -0.15621673 0.2580928 0.6250581 0.06437536 0.35365763 0.3424956 0.101300485 -0.30624107 0.7842355 0.16270776 -0.45136884 0.19093831 -0.3461538 1.2011299 -0.6645266 -1.2912215 -0.9768426 0.33971584 1.3595665 1.5179118 0.49761206 0.33266938 -0.6939744 0.81421334 0.36397427 0.029821025 0.46102142 -0.8577831 -1.0992048 -0.55632794 0.9377875 -0.31790277 -1.9806141 1.0802307 0.2029517 0.22539108 0.28042394 -0.6790554 -0.2583102 0.8521863 -0.34598228 -0.2395081 1.2149427 -0.5646349 0.8420098 -0.793844 0.28387782 -0.21749805 1.070224 1.3966998 -0.32378396 -0.64690214 -0.6274753 0.07135064 1.1621859 -0.81496006 -0.5889635 0.58732146 -0.029791467 0.43260807 -0.0010812866 1.247639
1110 -0.26394242 0.30765814 -0.117051475 -0.84337705 0.14667228 0.18743 0.35403705 1.2883494 -1.137628 0.92396754 1.5627089 0.8797218 -0.2773793 0.4448619 -0.33811775 -0.34968218 0.34802258 0.61211354 0.16345036 0.04708576 0.52302873 0.7652391 -0.4771766 0.24528775 -0.7285297 0.5998521 -1.412747 0.019552134 0.6403894 -0.011686409 -1.4635676 -1.5987684 0.20135185 -1.0665218 -0.24487586 1.5397379 -0.20494711 1.7186892 0.017934147 -0.4046199 0.21318103 0.31129268 -0.47921076 -1.1583562 1.6078978 -0.5154381 -0.011754166 -0.09553466 -0.80336016 1.077476 0.6333797 0.17546947 -0.36811832 -0.23501197 0.87301064 0.24537057 1.2525721 0.15847684 0.03890387 0.08072178 -0.1899191 0.027694423 -1.1289988 -0.5130474
211 -0.5040802 0.48733425 -1.0397207 -0.08818232 -0.43721917 0.16784121 -0.901703 -0.22412755 -0.407383 1.2704346 0.65171635 -0.8167029 -0.0934933 0.3467686 -1.2422304 1.1031746 -0.5542243 -1.0182093 -0.7414055 0.61860484 0.91519284 1.2185022 0.7512591 0.45639625 -0.09373742 -0.33600554 -0.9114193 -0.7698179 0.13601883 0.33937675 -1.0138932 -0.58956414 -0.40892786 -0.8390384 -0.35438827 1.826622 0.5761032 0.73182684 0.3658015 -0.3870887 -0.25694168 -0.20368505 -0.4873185 -0.80419487 0.47069487 0.5227211 -0.65274274 -0.006826098 -0.21817945 0.18134007 -0.14894867 1.934396 -0.20763375 -1.6005113 -0.57239616 -0.23638557 1.1599313 0.075374365 -0.3412544 0.15001611 -1.2014068 0.41270873 -0.24215776 -0.9497635
1695 1.1123365 0.029907504 -0.8127508 -0.010368869 -0.508959 -0.3433855 -0.53532946 0.27304906 -1.5214564 1.3343415 0.2718127 -1.5595162 -1.457814 0.5776798 0.30293733 1.1291753 -0.45263126 -0.6984944 -0.6605806 1.139204 1.0642163 1.4469732 0.5305967 -0.20858194 0.4722368 -0.063329116 -0.025881374 -0.3888425 0.5454182 -0.3204532 -0.22026564 -0.5308195 -0.59754485 -0.6257088 -1.1511363 0.5183249 -0.46550524 0.7016558 -0.7535921 0.13485989 0.36604914 -0.17766397 -0.44155213 -0.61941004 0.19665205 -1.4498985 0.04139412 -1.4143807 0.8324345 0.84749025 0.342511 1.1562957 -0.19534747 -0.27018493 0.33217695 0.24615316 0.5170507 -0.62544084 -1.2294381 1.3530055 -0.52958965 -0.598925 -0.3299697 -0.6447773
1871 0.9083192 0.58205736 -0.42747748 -1.0487971 0.27658257 0.5086864 -0.44151387 0.74831694 -0.66485393 0.6960547 0.055130947 -0.8988699 -0.29152286 1.137495 -0.014367103 0.08790624 -0.6983847 0.19345415 -0.7144118 1.4115434 1.4793303 -0.47060403 0.2264237 -0.16796997 -1.433598 0.055752438 -0.20109956 0.5610244 -0.3274898 0.6552644 -0.9688066 -0.69418937 -1.0959911 -0.122740045 -1.2244153 0.74193656 -1.2399704 1.4096787 -0.83768076 -0.7497858 -0.30313244 1.5700481 -0.8151965 0.072321095 0.8896365 0.028661886 0.58571666 -0.54731786 0.44675553 0.16492002 -0.42103192 1.6995931 -0.024592733 -0.9785778 0.84181315 0.68480104 0.56060326 0.05507744 0.22370979 0.29529813 -0.47753838 0.94278187 -0.34660146 0.9157187
135 0.9079431 0.40837562 -0.9655394 -0.8195733 0.7650138 -0.43206942 -0.1417365 1.2571663 -0.7771355 -0.4377158 0.20195653 0.36164677 -0.57066834 0.5941201 -0.21426268 0.5785075 1.0640293 -0.1206663 0.39428633 0.55156225 1.3431557 0.0954354 -0.54701006 -0.6435317 -1.2317635 -0.6991477 -0.0787343 -0.7325606 -0.832171 0.013380267 -0.7216988 -0.64595693 -0.57917464 -0.34201247 -0.5865683 0.64601994 -1.1636724 0.15782017 0.29473647 0.13433558 0.020901652 0.822039 -0.7447203 -1.3234574 0.8349052 -0.47235197 -0.3751732 -0.8747594 0.042530693 1.046604 -0.30848852 1.0703547 -0.5734347 -0.32364127 1.0726393 0.4922049 0.68514174 -0.18787463 0.63117015 1.1428854 0.19910601 -0.41518864 -0.22005853 -0.5993194
406 -0.07173101 -0.45990515 -0.29436186 0.5467876 -0.16357428 -0.5591427 0.32549104 0.90929884 -1.0523504 0.8896712 0.8217868 -0.51175857 -1.075754 1.3047091 0.19483337 -0.08910914 -0.6180353 -0.5413716 -0.5849759 1.0488042 0.7748789 0.79099226 -0.33859766 -0.13029197 0.4294187 0.6137149 0.0681262 0.01896 -0.5620082 -1.2300276 -0.5416412 -0.94177026 -0.37664175 -0.77401716 -1.5677105 0.50724596 0.09827672 1.3263432 0.30568278 -0.14131248 -0.55738837 0.6398457 0.16766784 0.20991822 1.3694516 -0.4030535 -0.65318227 0.6113957 1.5616766 1.0706705 -1.1241442 1.5810847 0.4662266 -0.8773952 -0.26003093 -0.21092585 0.16019219 -1.4076972 0.72914857 1.1967298 0.73831224 0.13621387 -0.4133898 0.7613728
399 0.922452 0.2287687 -0.9442353 -1.0158159 0.44456786 0.5438454 -0.12990874 0.85874677 -1.1727555 0.14691556 1.6301804 -0.37732488 -1.219873 0.6798039 -0.35100514 1.3012669 -0.5997302 -1.3161323 0.06784734 0.73112303 0.0038944106 0.4485834 0.006913296 0.50932324 -0.3946916 -0.2537618 -1.3167442 -0.82695484 -0.18909597 0.7166931 -1.5670415 0.16509306 -0.3368153 -0.0659458 -1.6586753 1.6027653 -0.26355585 0.20889877 -0.35640207 0.08237332 -0.81759363 0.67408305 0.65003014 -0.61209494 0.3220009 0.5816028 0.58022857 0.4765481 0.65739644 0.57621735 0.16708834 0.7512865 -0.8168472 -0.5670906 0.2737297 -1.1520807 0.3091921 -0.15187536 -0.21258844 1.4684093 -0.17671672 -0.29861292 1.0924453 0.06834644
611 -1.2492245 0.011519544 -1.4031936 0.26723525 0.6263621 -0.26473147 -0.5352259 0.22623879 -0.59553516 1.1242318 1.4268141 0.7425517 -0.36777714 -0.03543112 0.63741785 0.346541 0.49495158 -0.3063577 0.13010521 0.09679654 -0.111465886 1.3838592 -0.21152276 0.7656394 0.14927493 0.09964483 0.80247796 -0.33553043 -1.3915222 -0.52025104 -0.84226096 -0.360302 0.42830092 -0.054539178 -1.3598044 1.2974182 0.7552326 0.9385341 -0.15025152 -1.1317683 0.7571666 0.03973242 -0.63394225 -0.62194103 1.3266132 -1.0402591 0.17822559 -0.06423764 0.8830199 1.3472418 -0.42017344 1.1558622 0.19771092 -0.101971924 0.45696896 -0.33416384 0.062382407 -0.08756761 0.0942309 1.877697 -0.28981805 1.0618498 0.35798034 -0.4034552
1604 -0.0465416 0.8933067 -0.76720387 -0.105710484 -0.19766574 0.07510407 0.142938 -0.054031894 -0.4713755 0.7695956 1.1318616 0.24776463 -1.5809511 0.29475945 -0.522605 1.1767794 0.011623956 -0.6552359 -0.9790525 2.0234227 0.17455605 1.0278419 -0.35344437 -0.5364658 -0.9762613 -0.34606355 -0.4751664 0.541787 1.0296327 0.13940538 -1.1034032 -0.18129632 -0.15443513 -0.20850562 -0.53852236 0.74047285 -1.3856984 0.06340055 0.825486 0.16696578 0.037928876 0.37652013 -0.47754326 -0.14742555 0.7271471 -0.93593204 -0.45030618 0.18306622 1.0745927 1.5956372 -0.4211083 0.9717493 -1.306679 -0.9259654 -0.32761785 -0.0423385 -0.27744058 -0.54897374 0.7075755 0.063932374 -0.20683944 -0.45985517 0.6412479 1.0771875
1947 0.6043187 0.68051016 -0.7679669 -0.6629134 1.2069222 0.011019231 -0.06569562 0.05531362 -1.5289909 0.4621684 1.5318805 -0.67896926 0.37599277 -0.26633784 0.023162214 0.5676031 0.69132763 -0.72915703 0.3887582 1.820813 0.8219086 1.0278298 -0.0141861215 0.8997539 0.26136157 1.3065495 0.23224339 0.077731214 0.9137802 0.42913756 -1.3434149 0.04134092 0.0553544 -0.3805722 -0.6543994 0.26609448 -0.7220156 1.0663813 -0.5181463 -1.0192363 -0.04428882 0.83799195 0.4176188 -0.5416353 0.4070552 -0.77316767 -0.4074525 0.08343838 0.25588733 0.99767846 -0.39468172 1.794625 -0.3603655 -0.33138 0.17869319 -0.14477722 1.5384021 -0.02788698 -0.13617532 -0.5611687 -0.33005372 0.0029640975 0.1341208 -0.99263585
661 0.056239806 -0.43342826 -0.4225162 -0.11269168 1.1817807 0.5480755 -0.5458785 -0.026426 -0.867306 1.0532295 -0.278762 0.77091163 -0.29800233 0.75586826 -0.72183067 1.2163321 0.40279678 -0.26676115 -0.78931254 1.0348762 0.7942552 1.7701527 -0.76860994 -1.0845867 -1.0644095 0.03346827 -1.1067199 -1.1124183 -0.36760813 -0.18098955 -1.4337482 -1.146243 0.20289342 0.57682157 -0.4823678 1.4205 -0.915988 0.027998183 -0.59616834 0.26037723 1.0459337 0.6774349 -0.5429887 -0.80130607 0.85200876 -1.3195814 0.5082891 -0.8890166 -0.17765497 -0.4244481 0.6911618 -0.12715447 0.045873437 -1.2481694 -0.19883205 -0.16686204 -0.5478191 -0.3216631 -0.0321076 0.47492686 -0.73587966 0.1489508 -1.1205525 -0.1962469
1623 0.20344304 -0.26755375 -0.35732278 0.7930134 1.3019099 0.10220996 0.8532553 0.037447438 -1.5007851 -0.23383066 0.354618 0.46089795 -0.9287097 0.9647713 -0.6411168 0.01847705 -0.51791394 0.35773495 -0.30263424 1.3260303 0.9346488 0.14625277 -0.69223136 0.6961227 -0.6786154 0.9498208 -0.19680172 0.07233724 -1.1841478 -0.3808314 -1.5035874 -1.1409836 -0.12620063 0.044931058 -0.8528041 0.105651036 -0.8664855 0.8905271 -0.9024532 -0.22867629 -0.021916065 0.2549069 -1.087749 0.22198676 1.6058438 -0.4856372 0.7700766 -0.44064134 -0.4336914 0.6798526 0.043070823 1.3544654 0.6324077 -0.87509507 -1.0172242 -0.5688897 0.6115777 -1.2470235 0.06346635 0.035195075 1.1706657 0.047305793 0.05358136 -0.6361545
885 -0.8809432 -0.60178137 -1.388381 0.29376307 -0.2722875 0.77406794 -0.58741313 1.1131282 -1.2926179 0.93995106 -0.095915295 0.5036485 -0.9575867 0.91642493 -0.4764635 0.7120925 0.63338697 -0.44607288 -0.2545267 1.8741883 1.0069187 0.15388462 0.5782332 -1.323527 -0.002781816 0.6639333 -0.63544405 0.08296071 0.0023563132 0.5575746 -1.1264504 -0.09238204 -0.29957324 -0.105670184 -1.5510215 0.63926846 -0.57583404 0.48079312 -0.47878098 -0.41417688 -0.8471501 1.1501268 -0.20818254 -0.57176775 0.5532927 -0.29825342 -0.004270064 -0.6556269 -0.5794786 0.207973 0.5186196 0.61489594 0.50306886 -1.0332425 -0.67857087 0.9620199 0.4582268 0.07185849 -0.40652436 0.6147762 0.5166663 0.21818207 -0.8433038 1.3435992
205 -0.34356222 0.3358453 0.057086047 -0.67411464 -0.30515042 -0.8404935 -0.54174966 -0.25173295 -0.16616878 0.4932946 0.738585 0.1944098 0.05482396 0.8993129 -0.4803883 1.2390815 0.97477216 -0.2936486 0.21836214 0.13164039 1.6422603 1.287556 0.3220921 -1.2143985 -0.55125874 0.7493529 -0.56336147 -0.56429666 0.28632733 -0.69538736 -1.2574768 0.22046708 -0.5337239 0.60940075 -0.65330493 1.6483026 -0.27124858 -0.051705852 -1.3061757 -0.47030157 0.31097546 0.6308391 0.5332414 -0.9451404 0.043898728 -1.2517121 -0.2213922 -0.5340807 0.21452786 1.7542971 1.2282118 0.80489284 -0.79482764 -1.2758217 -0.72583956 -0.3288755 0.43475536 -0.53829306 -1.1601124 0.71479225 0.7036708 0.4092027 -0.54949445 -0.5864256
543 0.59383476 -0.1377094 0.20607583 -0.047650672 0.6436063 0.33462426 0.021477005 1.1951483 -1.3072062 -0.18599379 1.0850577 -0.20523152 -0.83692807 -0.035968874 -1.5817001 0.8293246 0.52962476 -0.39367378 -0.12937646 1.8047818 1.2097179 -0.19188945 -0.9078481 -0.9477448 -1.4145057 -0.20722121 -1.0507228 -0.95049006 -0.99844295 0.24426602 -0.33039966 -0.46278074 0.7131035 -0.83686155 -1.2384561 0.7546924 0.7834263 -0.13781607 -0.33170295 -0.09442423 0.496742 -0.011205867 0.024666803 0.25622767 1.0926235 -0.20773396 -0.71821237 -0.3166796 0.65524834 0.65522724 -0.75486445 1.4955295 -0.37094405 -0.47300196 0.55068254 -0.63438153 1.0075651 0.25793314 -0.17314412 0.013188986 0.65223634 1.0711508 -1.0813673 0.4932152
744 0.50832963 0.07071728 -0.5428591 -0.018585565 1.4509655 0.06269045 -0.20401275 1.3163245 0.16257122 0.34735784 0.6867318 -0.089394994 -0.16512579 0.7170761 0.7623278 0.33058208 0.40755004 -1.5339006 -0.6984955 1.1432647 0.7964345 0.5473808 -0.6003362 0.3183523 -1.0958827 0.95286214 -0.4721225 -1.3143504 -0.42166686 0.5290221 -1.0538079 -1.1007321 0.05604829 0.47219324 -1.6049895 0.6013246 -0.6080542 0.49145946 0.19401039 -1.191348 -0.13509536 0.76630974 -0.9275952 -0.048374616 0.84664744 -1.2667165 0.28435966 -0.017091317 -0.31979275 0.11986219 -0.52208346 0.47758183 0.68271327 -0.7105047 0.29492745 -1.3615543 1.1803991 0.25068557 -0.45692036 0.08887399 0.1150892 0.07382743 -1.3044823 0.15478133
2776 -0.18511257 -0.86509746 -1.0931429 -0.16779207 -0.6864131 -0.16702892 0.12491678 1.0150489 -1.0492699 0.06192567 0.5498096 -0.12889683 -1.0887285 -0.03230155 -1.1308383 0.34765282 -0.7305026 -1.0875144 0.6063882 2.0610938 0.11737869 -0.4187213 -0.67757875 -0.4859143 0.19531906 0.22293046 -0.40530133 -0.28954563 -0.7719798 -0.32780886 -1.222935 -0.38599175 -0.055401973 0.31861472 -0.54109216 0.8759676 -0.4369204 -0.2831243 -1.0520965 -1.0570545 0.27802065 1.301111 -1.2023872 0.4765763 1.1085943 -0.40545052 -0.5346861 1.1069129 -0.11558439 0.69346386 0.25241864 1.7692311 -0.2782126 -0.74676913 0.8308553 -0.17495719 0.6441 -1.23769 0.2416367 0.7132229 -1.0505447 -0.3989247 0.8195833 0.22085483
1873 0.07426629 0.3520378 -1.7120718 0.6527934 -0.20891488 -1.0738697 0.5738996 0.49219063 -1.0628395 1.0408609 0.37488213 -0.056421816 -0.44943076 0.62790525 0.66996336 0.21948679 0.8288398 -0.9502536 0.66233695 1.457664 0.7107815 0.49166164 -0.46699896 0.21046178 -1.3085904 0.345763 0.38788536 0.9440531 -0.7170173 -0.758536 -1.3665986 -0.84641284 0.49083456 0.40757993 -0.001064588 0.37317044 -0.18953031 1.1233286 -0.32628807 0.45590514 0.41888428 1.3446897 0.0039497465 -0.4904346 0.23022468 -0.5523966 -0.10074126 0.25803828 0.28265452 1.0673891 0.5453667 1.3669459 0.97802967 -0.9012094 -0.36992666 0.18113764 0.46127778 -0.4533827 -0.43433782 1.5807534 -0.32056287 0.01859867 1.0664374 0.22109693
1189 -0.12876701 0.3521479 -0.6542223 -0.886178 0.25309563 -0.99418914 -1.0156158 0.097214 -0.7964389 -0.06748824 1.8659036 0.0866862 -0.0040084296 -0.63899565 -0.4684227 -0.56832707 -0.07944544 -0.70473355 -0.46088383 0.38124487 0.221009 0.18114926 0.33392534 0.06056335 -0.0316908 0.7766228 -0.53904545 -0.36575657 -0.05842708 0.2947014 -1.7953292 -0.9532961 -0.5520779 -1.0399933 -0.54530567 1.734407 -1.17373 0.3406501 0.76270574 -0.37895396 0.38789755 0.9360603 -0.6030488 -0.04877541 0.9276001 -0.88458985 -1.2867986 -0.08186713 0.789694 -0.40953362 -0.7559032 1.5017841 0.34554774 -0.6252003 0.8439959 -0.11180339 0.87986207 -0.06733118 -0.74021316 1.0385349 0.3303478 0.12694056 -0.41193646 -0.50956637
2225 -0.089355245 -0.3186868 0.062150892 -0.35699424 0.30285433 0.6492766 0.631372 0.07332181 -0.72353244 0.58143926 0.46113196 0.56752807 -1.7556384 0.10022893 -0.066809244 0.58592254 0.02130693 -0.5997297 -0.16447993 1.1092905 1.1607704 0.21205947 0.68920976 0.35335308 -1.2874386 0.43664992 -0.8112414 -0.7194478 -0.20466925 -0.7776064 -0.06044911 -0.6389762 -0.15809865 -1.0296978 -1.3200785 -0.3211092 0.5087231 0.590103 0.14160639 -1.2166873 1.5411023 1.0632465 -0.5970179 -0.42874357 1.3832304 -1.3228918 0.69575995 -0.12766431 0.75766736 0.891093 0.6867716 0.38490525 0.45137647 -0.782709 -0.45702946 0.407177 0.058968667 0.5137873 0.08089329 1.3594258 0.02540032 -0.28669137 -0.6844754 0.7360869
1257 -0.060807925 -0.3737128 -1.583108 -0.79954684 0.20281343 -0.3497674 0.2870079 -0.04660822 -0.014418113 0.8773708 1.3302677 0.11808645 -1.1752636 -0.48010182 -0.20263691 -0.23187916 1.2847288 -0.9382682 -1.3540574 1.4404553 0.29885915 1.119009 -0.4571397 0.2214719 0.058842067 0.5052619 -0.8699691 -0.18800418 0.40314716 -1.193933 -0.6884644 -0.47928128 0.03577477 0.43159825 -1.0686755 1.225582 -0.7968912 0.14518435 -0.26175043 -0.4607536 -0.080540635 0.3827224 0.39250976 0.474264 1.1161094 -1.1483288 -0.88424563 -0.95677644 -0.0023869337 0.7378703 -0.16021012 0.6849329 0.39482152 0.22457683 1.0878066 -0.67240435 0.27859968 -1.3144186 0.06975795 -0.039111525 -0.3408528 0.589388 -0.35524482 0.41755405
1855 0.24268913 -0.8219633 -1.0635867 0.17102337 0.41199717 -0.11144556 -0.25718027 1.2896715 0.25395802 0.74871224 1.2552474 0.52653337 -1.1306703 -0.052373286 -0.01184691 0.36754963 0.21581732 -1.1488339 0.30650866 0.37339923 0.6650526 0.70069396 0.373313 -0.92325175 -0.36578497 0.24870285 -0.4862668 0.42659676 -0.4620978 0.0451115 -1.3911479 -0.7221745 1.0403135 -1.395066 -0.4927978 0.3697962 -0.7480727 0.03270893 0.22395137 -0.30836675 0.36036128 -0.24585985 -0.26997894 -0.59333813 1.2689502 -1.7654248 0.22274014 -0.73652184 -0.03126741 1.4029174 -0.017349854 0.16938964 -0.33621 -0.8955942 0.57981056 0.031181555 0.75431496 0.14113936 -0.8527938 1.4197197 -1.0606904 0.65713805 0.08584433 0.08411728
649 -0.68826765 0.2650289 0.66623473 0.19676344 -0.2590505 0.6421839 0.46736738 0.89617634 -0.20450494 0.00022488832 0.36443394 -0.240241 -1.7047428 -0.22647896 -1.0840127 -0.06745851 0.20297839 -0.5551062 -0.17910436 1.6760019 1.8405414 0.3420939 -0.77782756 0.19558795 -0.55118597 1.599935 -0.54470557 0.016350808 0.11872237 -1.0944064 -0.72348344 -0.46042636 -0.4141101 -0.28252447 -0.38228074 1.3653641 -0.412676 -0.047037892 -0.6881977 -0.5150053 0.29004157 0.51107144 -0.3866836 0.6998184 -0.3328218 -2.175485 -0.23814626 -0.56927973 -0.52955014 1.076189 0.20931077 1.2792975 -0.07527573 -1.3854308 0.26468563 0.25849047 0.06069632 -0.3276355 0.120850354 0.76943 1.0011673 -0.038712714 -0.16176745 -0.15156989
1245 0.24470344 0.5723336 0.11363855 -0.9883492 -0.15675177 -0.64010376 -0.2119381 0.97286034 -1.0831462 0.9269151 1.1343758 -0.31021455 -2.0802076 0.21988875 -0.5141022 1.0891806 0.97368664 -0.43092415 -0.46742108 1.2511547 0.13273722 0.27264065 -0.147963 1.2267079 -0.87018603 -0.4280427 -0.22890733 0.4439433 -0.9116609 -0.7272016 -0.93585527 -0.2403395 -0.77395916 -0.33634424 -0.89016736 0.74708337 -0.6529442 0.9964422 -0.26395813 -0.24900317 0.39341646 0.59011406 0.10149604 -0.32962963 0.008097046 -0.2018424 0.6734488 -1.0291742 -0.54631454 0.5480395 0.5949756 0.1867986 1.0226418 -1.0881088 1.1713609 -1.0864387 0.715276 -0.13858198 0.11550991 -0.24578598 0.36158964 0.8233765 -0.96695715 -0.87358177
4 0.8983767 -0.49834245 -1.4166445 -0.07058166 -0.5203258 -0.26097077 0.35784438 0.383724 -1.2287395 0.48567942 0.9090253 -0.3508422 -1.0614169 -0.34014466 -0.8814027 1.1743515 0.682219 -0.34968382 -0.096258104 0.25708744 0.9393995 0.9434615 -1.0729215 -0.71714014 -1.0253217 0.6241051 -0.31684664 0.01684456 0.61838526 0.3358011 -1.3987782 -0.3956199 -0.67729306 -0.71336573 0.20661455 0.7527886 -1.0962607 0.0029723004 -1.3862437 -0.48326832 0.56337136 0.6215341 -1.4012403 0.38695836 0.8598151 -1.5968552 -0.5011156 -0.6319586 0.78173214 1.04085 1.1332968 0.6392152 -0.14775407 -0.14023496 0.011378849 -0.6497267 0.6309306 -0.7588579 -0.43878883 -0.7722034 -0.13169305 -0.38025826 0.700797 -0.11293508
1216 0.776169 -0.16087526 -0.40474072 -0.38104305 0.043325983 0.2840898 0.3934026 0.31723636 -0.082549974 1.6745852 0.7443252 -0.60228074 -0.72463137 0.67745984 0.43845302 0.5491172 -0.18392232 -0.08129653 -0.82712334 1.1740083 1.0306215 1.3752822 -1.1544931 0.30750713 -1.6573232 1.1060427 0.027544161 0.46591625 1.0036081 0.34845462 -1.1516135 -0.8274194 0.26797774 -0.22019155 -0.5829143 0.19594756 -0.23839518 -0.19226295 -0.5854236 -0.43263516 -0.93410087 0.17611657 -1.1976156 -0.26656997 0.94662035 -1.1674361 -0.22428413 -0.054719932 0.27052927 0.35951784 0.60752916 0.37607136 0.2788648 -1.0517306 1.074519 0.1379096 1.3233563 -0.5726045 -0.71218514 0.8353119 -1.1988462 -0.17080684 -1.4570025 -0.4190528
622 0.32773504 0.33361846 -0.4594243 -1.1768864 0.08213936 -0.073539324 0.25484055 0.9655388 -1.2974569 0.76455146 0.77691835 -0.15532897 -0.7032921 0.059538987 -0.025424872 -0.4782068 -0.12356471 -0.7843792 -1.1718733 0.9042809 -0.05829101 0.41378272 -0.255599 0.24718106 0.25278443 -0.021397537 0.25940892 -0.31523642 0.49880522 -0.6743482 -1.0424945 0.1025273 -0.7051806 -1.4606231 0.5902083 0.81442803 -0.3903411 0.7937186 -0.3934973 -1.37122 -0.28067872 1.3962871 -0.46934047 -0.6446928 0.8582683 -0.8722977 -0.37198648 -1.3455349 0.42526415 0.8577353 0.1558786 0.27702695 0.29233932 -1.019878 -0.1890802 0.4013022 0.7570409 -1.0907911 -0.9067155 1.3283199 -1.399902 0.9475283 -0.5737511 0.99707913
2243 -0.6146478 0.1490673 -0.8619785 -0.4004088 0.9110714 1.0313517 -0.3415451 0.58208776 0.36429447 0.8941358 0.6142359 -0.0063545634 -0.25094977 1.1125431 -1.285398 0.64266837 0.33117664 -0.16210012 -1.6196816 0.9054536 0.33564702 1.7573298 0.62467986 -0.017131105 -1.2746389 0.7831677 -0.57447547 -0.73093694 -0.48742425 0.07832695 -1.0101401 -0.15035628 -0.008262377 0.65878135 -1.4321753 0.10755704 -0.26599792 0.18360023 -0.66358805 -0.5314588 -0.28619272 1.1490741 0.08227293 -0.39735952 0.08215068 -1.2932063 -0.46666127 0.3628392 0.639307 0.23888454 0.17616905 2.1338038 0.6414148 -0.2399571 -0.57018894 0.24472857 0.7952644 0.16768365 0.41275626 0.7745245 0.25459778 -0.782177 0.47392547 0.5584442
1968 0.28510135 1.0768973 -0.8793003 0.17354123 -0.19600281 -0.3588113 0.2581035 0.021713309 -0.5377168 0.6143804 2.0504467 -0.36875638 -1.0872852 0.3338364 -1.0339432 0.5113731 0.77891606 -1.0481588 -0.74233776 1.3128312 0.82294995 -0.18879028 0.6111009 0.34538698 -0.19838072 0.9448097 0.18616405 -0.22426166 0.013628327 -0.48828512 -0.29665342 0.055746984 0.052475583 -1.083076 -0.19248725 -0.3945747 0.57433486 -0.43610287 -0.64943016 0.14938602 0.07395738 1.1221502 -1.3626459 0.2710773 1.5682642 0.049881265 0.3180386 0.17801492 1.209766 1.9231958 -0.44359115 0.5543151 0.23194829 -1.555864 0.6697722 -0.5163965 0.2094812 -0.3041941 0.59096307 1.0928977 -0.39828947 0.5087883 -0.42418683 -0.6716836
1027 -0.07340696 0.32435143 -0.16720031 -0.47613525 0.44087362 0.8962969 -0.7455159 0.14628959 -1.2178464 0.77978104 0.98731756 -0.930308 0.28646487 0.76152474 -1.1432593 0.9917388 -0.03889846 -0.16451804 -0.78287053 0.7278456 1.9418297 -0.2807189 -1.1370033 0.37258622 -1.6358666 -0.3210794 -1.5964197 -0.5235018 -0.9150763 0.5977648 -1.2077004 0.49842575 0.5992087 -0.5748847 -0.5185502 0.0010783088 -0.41646397 0.38055834 -0.13107178 -0.51438946 -0.11770438 0.6133109 -1.1857678 -0.31259102 -0.2492769 -0.2066764 -0.17182091 -0.5402403 0.23641416 1.2532125 0.6102475 1.4030617 0.03517844 -0.71549183 -1.0322888 -0.6520998 0.58936995 -0.016286684 -0.976675 1.4290913 0.06611538 -0.5203348 -0.18836078 0.5021345
1260 -0.7787791 -0.35431984 -0.3080935 -0.26184884 -0.4621371 -0.36241597 -1.146652 0.4702095 -0.7311205 0.30053446 2.0825455 0.01986779 -0.99728847 0.27286538 -0.6753471 1.1512924 -0.47153944 -0.5135154 -0.08336878 -0.1820267 1.66692 0.87452567 -0.44748026 0.2819401 -0.6944594 0.23325643 -0.8865006 0.17053463 0.5507114 -0.4294661 -0.65817964 -1.4401245 0.019797513 -0.5083891 -0.4319075 0.8949537 -0.9297096 1.1328821 -0.29790553 -0.47200927 0.49910673 0.50362194 1.3477798 0.6127552 1.9990264 -1.23218 0.5886464 -0.24888846 0.47277236 0.35864288 0.2320366 -0.28476176 0.75565606 -0.513477 -0.026369195 0.13917986 0.82235926 -0.8249664 0.16554564 0.8398676 0.3712111 -0.17628069 -1.2124354 -0.32003835
1035 0.53451777 -0.51986206 0.06722602 -0.7512771 -0.3132278 0.026558189 -0.29871273 -0.00014970034 -0.21588641 0.49492016 1.7124588 0.064897954 -0.58314866 -0.71317095 -0.7151636 1.1170365 -0.79459417 -0.09862815 -1.3594521 1.0557575 0.3458503 0.74895865 -0.19287726 0.2295815 -0.55103165 -0.27815682 -0.57625985 0.1373227 -0.093875825 0.8507318 -1.3896852 -1.6757759 -0.13372445 0.7301091 -1.453887 1.2056575 -0.34299555 0.9041071 0.34635884 -0.44203064 -0.090137035 -0.5196097 0.67270654 -1.0494659 0.53918076 -1.1989751 0.84034944 -1.0677589 0.48408523 1.292584 -0.32591015 0.2865875 -0.6229341 -0.85734034 -0.6167364 -0.10345738 0.76029 -1.2953166 -0.62962306 0.68207234 -0.12289471 0.5964992 -0.4307488 -0.37477502
1596 -0.53065956 -0.07272582 -0.87576175 -0.55318564 0.09952193 0.2834177 0.20802069 -0.24054842 0.15194482 0.31449956 0.8169847 -0.67761195 -0.4202274 -0.135615 -0.047025014 1.1587389 0.49791437 -0.21581535 -0.30786842 1.7293513 0.14587936 1.6517941 -0.5840181 -0.18462197 -0.022803789 -0.29775512 -0.09659986 -0.6171927 -0.1731613 0.1779465 -0.7290563 0.42911562 0.15621887 0.11480567 -2.1806393 0.2273169 -0.86378825 0.43724692 -0.060762547 0.5670227 -0.45100594 0.551133 0.8641913 -0.1771229 0.4556334 -0.33122557 -0.039203834 -0.048372347 0.62248945 0.86664003 0.8918106 0.9799772 0.47917226 -2.005968 0.05157663 -0.9938424 0.7877203 -0.58153635 -0.16283986 2.460867 0.034827806 -0.07498602 -0.43333232 -0.5274226
615 -0.5543238 0.9940713 -0.4240325 -0.7014811 0.3192396 -0.71475077 -0.67224866 0.43515873 -1.0228542 1.3678448 -0.09208493 -0.023116078 -0.6686563 0.010779491 0.22911832 0.23395362 0.33649722 -0.27466923 0.27103356 1.5491153 -0.6172032 0.42182922 0.07506477 -0.257622 -0.443646 0.46893287 -0.4243972 -0.020863814 -0.6570396 -0.36801198 -1.2041379 -0.43147868 -0.5384766 -0.9213258 -1.2495061 0.47607708 -0.28732082 -0.1332514 -0.747177 -1.0790436 1.3056331 0.8796179 -1.1196817 0.4319585 -0.03263114 -1.5396551 -0.07106281 -1.2612771 -0.072595656 -0.17252965 1.6632091 1.0903573 0.60238755 -0.6122489 0.42633188 -0.37652335 0.7869189 0.35595524 0.4794505 0.95344347 -0.6915664 -0.245796 0.44882074 -0.11638875
613 -0.056781992 0.8101696 -1.3723886 -0.49857938 0.67579406 0.0347604 0.48800188 0.9330829 -0.16878848 -0.15766567 0.7197213 -1.5049008 -0.9271269 0.4213319 -0.95374644 0.86543673 -0.12723336 -0.38540694 -0.19982037 1.0881196 0.9913458 0.9310508 -0.0754184 1.3439118 -0.28566554 0.04734716 -1.2507476 0.16835754 -1.5608914 -0.64490205 -0.6553127 0.05673852 0.87307566 -0.39489055 -0.36991206 0.81888306 0.40366662 0.5481387 -1.2030321 -0.2971021 0.516553 0.39326638 -0.48943725 -0.85421145 -0.072335094 -0.7988669 -0.02569166 0.3855535 -0.61110806 1.1968073 -0.19163029 0.7994064 0.21402575 -1.0399731 1.3293368 0.39986372 0.034815297 -0.7355946 -0.056797285 1.3364054 0.45445955 -0.2581556 -0.09482333 0.9675752
2550 -0.42827916 -0.59753156 -2.157908 -0.5799939 0.16789176 1.0943917 0.31510907 0.5559936 0.26254022 0.7374244 -0.027225167 0.6114562 -0.30359918 -0.2483948 -0.2913651 0.33198357 0.5192798 0.3662675 -0.63442403 1.2909861 0.8832637 0.9433096 -0.62082404 0.23154005 -1.0312194 1.0938655 -0.46736345 -1.2363982 -0.19762824 0.08979224 -0.8845158 0.036670253 -0.23880422 -0.29681012 -0.12882246 0.9227802 -0.33699366 0.5396046 -0.4854657 0.183057 0.16484801 1.5419276 0.12153066 -0.5469079 1.4644948 -0.46193025 -0.90407664 -2.015794 -0.41427097 0.8496242 0.66491616 0.55237013 -0.47583652 -0.79945934 0.19725886 -0.26556483 0.3542453 0.25271985 0.09043581 -0.24679765 0.50395846 0.7316234 -0.2842588 0.10252661
2267 0.36267322 0.094221294 -0.6290376 -0.4417489 0.15669215 -0.6958769 -0.5219209 -0.48981327 -0.29775912 1.5536395 1.1299258 0.028108487 -0.17134362 0.9009953 0.24421783 0.55630857 0.18733169 -0.89440334 -0.41299266 0.86856824 1.4923499 0.259338 -1.2125475 -0.55605954 -0.8426524 0.9979221 -0.8624384 0.30585173 -0.76605296 0.35725698 0.6620764 -0.3760943 -0.36412254 0.05749874 -1.7018411 0.1937862 -0.29226944 0.095173515 0.46941602 -0.47307384 0.8538666 0.33563253 -0.14909138 -0.5326816 1.1959075 -1.0319004 0.72106177 -0.6158301 0.7559016 0.46287018 1.1156775 1.5423303 -0.37029648 -1.7062464 0.030083565 -0.121964686 0.06596575 0.42056316 -0.07804136 0.8298167 -0.7929205 -0.40768528 0.35782582 -0.74202394
1482 -0.2786956 -0.7703568 0.137095 -0.5833701 0.56180316 -0.03609857 0.88270384 -0.22289947 -0.3074788 0.8366604 1.2255859 -0.4017856 -1.2712067 -0.48159793 -0.19323704 0.74511987 0.1985662 -0.8865468 0.3238414 0.8371482 0.37788033 0.4644075 -1.3359077 0.86382383 -1.2814357 1.3328203 -0.64492184 -0.23579672 0.32682362 0.44666436 -1.0913188 0.3216913 0.5472483 0.073803015 -0.76118106 1.5698828 0.28986728 0.57793623 0.06600913 -0.14316358 0.6180938 1.5923536 -0.8100273 -0.38612676 0.47947615 -0.702778 -0.8335669 -0.1613318 0.00053773075 1.2129921 0.6697202 0.5185119 0.27656692 -1.2079848 0.20125152 -0.7209775 -0.44842258 0.7276702 -0.8720805 1.0661349 0.1075003 0.051832706 0.23046404 -0.6652256
2542 -1.0073276 -0.8417007 -1.0837553 -0.6331069 -0.14622727 -0.38635147 -0.26191115 -0.20996733 -0.86798185 0.7697759 0.4845723 -0.51547056 -0.6364409 -0.018488804 -1.7570775 0.31397676 0.52713186 -0.3621339 -1.0171158 1.5620724 1.5718488 0.13291231 0.6235215 -0.68070984 -0.8095758 0.6611831 -0.6681434 0.24332282 -1.1903777 0.6975762 0.018868055 -1.5196149 -0.41129848 -0.7027932 -0.8834491 0.2876075 -0.022423621 -0.2498963 0.7032082 -0.3112014 0.4168126 0.15951881 -0.51991993 0.11064723 1.4376522 -0.69236183 0.48129073 -0.88688606 -0.41333055 0.18340182 -0.73776996 1.047869 -0.20923251 -0.5199211 -0.47210205 -0.17479272 0.9366449 -0.60613376 0.08350588 1.344498 -0.65071976 0.16345415 0.49525857 0.053477466
1728 0.2558969 0.8357279 0.12549716 -0.31726116 1.0427037 0.074625105 0.44671527 0.8831222 -1.1490514 0.38372728 1.4354084 0.59353334 -1.5117317 0.4510512 -0.23650017 1.059502 0.6870237 -1.1038617 0.012566085 0.2384282 0.78293264 1.3968513 -0.3830648 -0.87129235 0.07258839 -0.25149307 -0.8099237 -0.04880592 -0.43915415 0.7075829 -0.36881632 0.13498396 0.709189 0.17979574 -0.21683857 0.6315887 0.2999886 1.2621891 -0.1305788 -0.004711623 -0.57390815 1.3035947 0.84240556 0.7566469 0.23256396 -0.5693749 -0.34908688 0.3185459 -0.28443214 0.5497151 0.76910627 2.007588 -0.072584994 -1.2750671 0.52409494 -0.36717612 0.7589263 -1.18469 -0.17635329 0.9226697 0.7682967 -0.5038647 -0.26219296 0.49196994
2778 0.4885349 0.2504498 0.19413607 -0.250697 -0.35961017 0.95927477 -1.1115043 0.45164046 -0.3317166 0.6903238 1.0364327 0.56360704 -0.6698556 -0.79639286 -1.1153682 0.7849938 -0.20165956 0.5670825 -0.6089477 1.6822332 0.8812933 0.24093208 0.8204495 -0.35599637 -0.41712645 0.13025492 -0.97722626 -0.7176169 0.25748932 -1.0995585 -1.552526 -0.9161951 -0.091748096 -0.51554185 -1.3073266 1.0321543 -0.3978001 -0.5972855 -0.92936325 -0.48006168 0.14984143 0.041333016 -0.15319131 -0.5961021 0.96158713 0.1616544 0.5725717 -0.04465102 -1.1199787 0.8514501 -0.52424705 1.4328253 0.40159425 -0.7272456 0.28811237 -0.23673156 1.4514076 -0.049321465 0.7181872 0.42367962 -0.713018 -0.53287023 -0.25229323 0.23690754
1300 1.0123639 0.15682235 -1.1171709 0.24257779 0.13449681 -0.29751658 -0.20561954 0.23904726 -0.67701286 -0.10155942 0.98535866 0.38383964 -0.29277003 0.68369675 0.7068273 0.85531825 -0.21767974 0.11870912 -1.2161338 1.009634 1.6512032 1.6495872 -0.5782284 -0.7478972 0.285847 -0.570952 -0.72331274 0.52181345 -0.04421523 0.2658874 -1.5334175 0.8269281 0.51508236 -0.19407876 -0.010610777 1.1784412 -0.3215807 0.032709256 0.11521674 0.23878777 0.60538685 1.5588832 0.15703624 -0.11559539 0.6092883 -0.91207516 -0.15389656 0.55075705 -0.6878416 0.86348104 0.22195287 0.7544604 0.53015876 -1.3487288 -0.50008297 0.3090996 0.77310526 -0.04460656 -0.93869513 1.5224228 -1.2529861 1.0805434 0.20749898 -0.1864654
2545 -0.7799663 0.8209823 -1.0849674 -0.06547911 -0.2072276 -0.27897203 -0.031469643 -0.5059471 -1.6902936 0.11613642 1.0907218 -0.22992204 -0.6747062 0.56880355 -0.55778664 0.1012537 0.3865184 -0.71298724 0.25055277 1.8167257 0.56165624 1.4115804 0.2418277 0.25707823 -0.35623124 1.2741014 -0.80279785 -0.71491766 0.15912916 -0.23528 -0.33392498 -0.21717097 0.25838464 -0.62883633 -1.1919835 1.4501779 -0.3590561 0.58228266 -0.7204263 -0.34961006 0.33676544 0.8309758 0.083693385 -0.32746506 0.8423356 -0.18796413 1.0037642 -0.527797 -0.17026521 0.15204032 -1.4632555 -0.042238317 0.13985966 -0.22379878 -0.28144935 -1.1986864 -0.12872323 -0.20640615 -0.8361856 1.2936639 0.81922626 1.1103542 -0.11107636 0.77307993
830 0.17884584 1.0525544 -0.9080591 -0.2382991 0.0017541206 -0.5746379 -0.08601175 0.26683372 -0.46360245 0.31876698 1.2984451 0.43275434 -0.25420576 -0.080416135 -0.5773327 0.09558841 -0.09208369 -0.9221704 -1.4703071 0.44842458 0.390597 -0.107954346 0.32034525 0.31859237 -1.0455465 -0.7962585 -0.17493863 -0.8342513 -1.082205 -0.32083914 -0.63906693 -0.9943351 -0.5425007 -0.062318794 -0.8620625 0.5116765 -0.5223568 1.2977085 -0.5569345 0.078087986 0.05721212 0.7166892 -0.3513379 -0.41060936 1.0038362 0.1837007 0.64120555 -0.6786295 -0.29228818 1.7508073 -0.81123835 1.1566023 -0.6180406 -0.66437966 -0.5251863 0.30684167 2.1416311 -0.6467758 -0.76632136 -0.16395275 -0.07396328 -0.6634117 -0.071883455 -1.1267682
1796 0.03215636 -0.35492048 -1.303298 -1.0601089 0.274047 0.20889199 0.07016466 0.10575815 -2.214991 0.4100354 0.5168775 -0.41566518 -1.9773506 0.26758108 -0.44426382 -0.16429287 -0.14212702 0.13717876 0.53586465 0.4522875 -0.17696032 0.56511074 -0.6349024 0.77912253 -1.398279 0.04700774 0.19597417 -0.9895853 -0.95326364 -0.4198892 -0.12850706 -1.0266205 -0.32529777 -0.35635054 -0.4367537 0.57065576 0.24380505 0.6106595 -0.94142056 -0.10595495 0.5013045 0.6794836 -0.22676504 -0.11091495 -0.28174922 -1.1694041 0.015229006 -0.5282505 0.6642102 -0.05244777 0.69428086 1.0122297 0.4674157 -0.9102178 0.48338577 -0.20651822 0.29912382 -1.1581012 -0.2701033 1.743667 0.18114787 0.9437553 -1.2787943 -0.08054646
2538 -0.42242414 0.20516273 -0.9403938 -1.0208822 0.157247 0.049825907 -0.08319817 0.33107623 -0.9482027 0.16919875 0.23786338 -0.8699763 -0.8564273 0.82861644 0.28155407 0.454326 -0.39625758 -0.037338126 -0.092421204 -0.311669 1.4271984 1.0965847 -0.79522145 -0.23307528 0.18257837 0.18294644 -0.10364444 -0.7084002 0.16889021 0.87811714 -0.73065734 -1.1391013 -0.19447894 -0.58409053 -1.5575464 1.7886403 -0.26381126 -0.05914318 0.63073945 -1.0483322 0.94791245 -0.059376888 -0.57679 0.3984986 0.7126566 -0.9097007 -1.1265689 -0.3679754 -0.1969982 0.69601494 0.909542 1.4776253 -0.27266672 -0.7979646 -0.16414978 0.6381882 -0.07958906 0.17434353 0.97431666 1.2639394 -0.4638467 1.1022679 0.22753932 -0.5596236
949 1.517011e-05 0.51990956 -0.27703542 -0.12585941 0.41560924 -0.30083165 -1.3079348 0.3166758 -1.3509389 0.13217407 0.84994036 -0.10069128 -0.13707227 1.1479168 -0.07477435 0.14414021 -0.27301425 -0.5064184 -0.0369182 -0.4198939 1.1356374 -0.4571979 0.2803295 -0.18474254 -1.3847094 0.2434976 -1.3061707 0.52555746 -0.5613389 -1.4577558 -1.0874275 -0.38681686 0.0063699777 -0.17599715 -0.6273419 1.009047 -0.7491414 1.3442982 -0.7358501 -1.076512 0.5901002 1.2584938 -0.84237677 -0.14018475 0.5122033 -1.0298018 0.4376091 0.28029975 -0.6528984 1.8771344 0.3295214 0.66754085 -0.813586 -1.4622139 0.5503361 -0.41295865 -0.3770058 -0.5474661 -0.7546552 -0.18732621 0.41373026 0.38466567 -0.4320009 0.74125904
1054 0.79354453 -0.007078259 -0.3895834 -0.19498105 0.7539167 0.8130147 -0.99674624 0.53572893 -0.12332956 0.636519 0.71888447 0.5905964 -0.92650694 -0.48196977 -1.0101106 -0.14377883 1.0983759 -0.84734404 -1.1032993 1.6179116 0.36329633 0.9097051 0.029439855 -1.3039173 -0.59965795 -0.15952143 -0.40757272 -0.4563138 -0.37837338 0.3145705 -1.3241417 0.5193852 -1.0492945 0.5712131 -1.1333015 -0.12726015 0.05290879 0.76115525 -0.5676557 0.071842626 -0.8523793 0.2919034 -0.65056807 0.1828747 1.705443 -0.5563249 -0.35826838 0.2155743 -0.0477572 0.70358557 0.1589186 0.6102764 -0.74664 -1.4493234 -0.82490295 0.6095826 1.1661822 -0.66827613 0.23756722 0.3626673 -0.14010961 0.28274658 -0.7667676 -0.70463824
2500 0.644223 0.28036183 -1.3359948 0.5225671 -0.33920383 -0.04087529 0.18847503 0.017535027 -1.3035374 0.8069474 -0.38880777 0.51492316 -0.9029811 0.33342767 -0.1828318 0.388368 0.60285133 0.38085714 -0.9141979 0.70765895 1.2491623 1.0976834 0.26789993 -0.82176363 -0.70944166 -0.42542607 -0.29245502 -0.8226036 -1.069956 -0.5446448 -0.29399776 -0.19599786 -0.08877842 -0.30400774 -0.26966658 -0.17513254 0.64963937 0.41919157 0.21978822 -0.024660021 0.42147118 0.9268808 -0.27886176 -0.9035 0.59070987 -0.8884597 -0.8612656 -0.5596164 0.8098033 0.6947694 1.243277 0.7406714 -0.2781153 -0.837547 -0.59029204 -1.181429 0.93316174 -1.4292519 0.060691025 1.0595067 -0.9972245 1.0405356 0.25257748 -1.3138852
1181 -0.40306503 0.0818955 -0.84434927 0.104094826 -0.07877539 -0.22558746 -0.93167657 -0.19795161 -0.516474 0.028165465 0.032662436 0.19959995 -1.5255454 0.086270526 -0.57122165 1.3244046 -0.08258145 0.122735396 0.27391377 1.7824633 0.84824884 1.4505278 -0.785665 -0.5762183 0.28032368 -0.38876018 -1.4085656 -0.10775351 -0.40212226 -0.61695695 -1.5564383 -0.3887074 -0.029651778 -1.2377155 -0.12641662 0.64125735 -0.38612258 0.61078674 0.38170817 0.7352363 0.8237986 -0.24363425 -0.25239012 -0.5928648 1.1735274 0.12787387 0.70491046 -0.34382603 0.8935656 1.0230976 0.02609883 1.5534081 -0.6833029 -1.0527456 0.16418058 0.5071407 1.0708475 -0.50232875 -0.58604616 0.59377164 0.58385396 -0.40704343 0.4796923 -0.2254581
1676 -0.1457177 0.934284 -0.36491093 -0.72502404 1.0674183 -0.27380165 0.4719691 0.7990945 -0.46659905 0.08777389 0.9634707 0.56462127 -0.66980404 -0.54910254 0.21190248 0.13163137 0.18650112 -0.360046 0.115804955 1.3949293 0.20733914 0.2747771 0.23690854 -0.018864738 -0.15733586 0.8688847 -1.0112238 -0.6748328 -0.906995 -0.60898274 0.059974656 0.3780463 0.17481083 0.21378012 -0.73686165 0.87890124 -0.3651987 0.5144907 -0.18334256 -1.1885321 0.35582927 0.65635204 0.041946482 0.611991 1.0383373 -0.42391083 0.18606426 -0.5080357 0.5356489 0.015952239 -0.47772095 0.8622109 -0.81506777 -1.1096826 -0.08698704 0.5533585 0.6089098 -0.893923 0.13841072 0.6001982 0.057499427 0.40102422 0.23754372 -0.34115326
1176 0.3793209 -0.34624162 -0.05647517 -0.21916883 -0.43156368 -0.3585169 -0.35571924 0.24230823 -0.20531619 1.4292948 0.36661342 -0.5884089 -0.10160408 0.035055615 0.08578659 1.3397282 -0.51980793 0.7298442 0.16261964 0.8319334 1.087177 0.80909044 0.36206913 0.560541 -0.15406401 -0.62879974 0.34403703 -0.3510534 -0.32179043 0.2365329 -1.0038639 0.057538535 -0.07560186 -0.05231208 -0.49870628 1.5786946 0.26064637 1.2674936 0.5717693 -0.5641968 0.14680912 1.6344984 -1.2148405 -0.3413459 0.30604574 -0.3475025 0.0150028225 0.85656875 1.296792 1.5685006 -0.1156243 1.1627042 0.0072324057 -0.68180907 -0.20479964 -1.2450032 0.58349425 0.36836234 0.64248455 0.8683081 -0.28429738 0.19987184 -0.6012503 0.72071975
2783 -0.15499535 0.48874778 -0.93900174 0.13932268 0.078186 -0.0882077 -0.6547045 -0.71251106 -0.6075757 -0.26763004 1.2703141 0.26638892 -0.7717752 -0.6184736 -0.86684245 0.22738746 0.37335786 0.8244888 -0.64289933 1.1403637 -0.0017735544 0.9225698 1.0071502 0.15538602 -1.3517292 0.7192298 -0.75484705 -0.5540345 0.3069107 -0.8981588 -1.617287 -0.97715753 0.13235228 0.06472535 -1.0858794 0.64462596 0.6569768 0.82236826 -0.20865378 -0.35995063 0.4132074 0.7961241 -0.7967711 0.17667407 0.41884798 -0.8783328 -0.056203723 -1.0892721 0.022225823 0.27280986 0.9287529 0.25175866 -0.59679425 -1.2742603 0.3452013 -0.62323344 -0.37569264 -0.60898626 0.92305624 0.5578144 0.081249386 0.88604873 -1.0851599 0.17207871
776 -0.62344134 -0.26403987 0.21980059 -0.96735317 -1.009449 -0.48504236 0.6267806 0.16217884 -0.92407304 0.46158293 0.6363983 0.18984286 -0.7733674 -0.40899497 -0.78762347 0.5199209 -0.28977925 -0.38330403 -0.17028731 1.5612679 0.7055328 1.1324594 -0.40054742 -0.60290045 -0.24694031 0.667991 -0.27521876 -0.9525597 -0.1264587 -0.52758944 -1.0104682 -0.44958127 -0.12812172 1.0100944 -0.67984194 0.26027963 -0.5105244 -0.53188384 -0.5768831 -1.4004053 -0.34767464 0.8306441 -0.9925556 -0.54248536 0.5827555 -0.2226064 0.5923973 -0.7368825 0.60153425 1.3550208 0.4078057 0.40211457 -0.33306256 -1.2021872 0.30844042 0.122584574 1.6582359 -0.97235143 0.35465696 0.55815226 0.56814504 -0.91395205 -0.35908094 -0.7611614
2408 -0.73563623 0.3447923 0.51648647 0.26725817 -0.27707615 0.21011299 -0.4782011 0.5456147 -0.7023425 0.86034477 0.081380576 -0.6794086 -0.3000416 0.24487542 -0.59277576 0.38372228 -0.30535042 -1.0363042 0.8376895 1.0209562 0.66761225 1.4380393 -0.41577938 0.16282779 -0.42810926 0.28555512 0.32324177 -0.7150163 -0.45294565 0.48284718 -0.4517257 -1.1249993 -0.60363275 -0.4689402 -1.5178328 2.0253456 -0.036134593 0.29583374 -0.38855743 0.56630874 0.8542594 1.3212838 -0.9146348 0.99955153 0.6581215 -1.2392318 0.5238348 0.9235433 0.041581176 1.2649026 -0.9380038 0.47320688 0.009627761 -1.2540749 -0.9515591 0.124969654 0.21504438 -0.34212813 0.13597171 1.0631267 0.5601836 -0.09869824 -0.005336918 -0.08616838
203 0.4060565 0.16087422 -0.42666355 -0.35984707 0.86924255 1.2661818 0.1681911 0.7440089 -1.345394 0.5417323 0.6612907 -0.77273184 -0.4788223 -0.5207791 -0.5056201 0.48231423 0.5795891 0.09473255 -0.8861963 1.3652903 -0.050393403 0.6051208 0.4702706 -0.23428488 -0.8271742 -0.97198164 -0.094197735 -0.22022875 -0.23091513 0.2886916 -0.20491505 -0.25304112 0.29700163 -0.68394196 -1.4256305 1.0370693 0.05537397 0.25496072 0.33242673 -0.5376999 0.7528524 2.054201 -1.1193255 -0.1541475 0.6967096 -1.0133479 -0.30691037 -0.7835286 0.62243575 -0.7536628 0.5325827 -0.1038464 -0.48477378 -0.87765557 -0.59067804 -0.07481636 1.6250918 -0.7588896 0.44549748 0.7623083 0.3870603 0.7678274 -0.16680767 0.32133543
249 0.19274953 0.95127046 -1.4762424 -0.9312343 1.106727 -0.08408295 0.4812031 0.6758085 -0.09484136 -0.37548757 1.3998219 -1.3808595 -0.9524596 1.0417585 -0.9204412 0.7985211 -0.29230312 -1.0186062 -0.2508512 0.76395386 0.6754389 1.2085449 -0.34391356 0.26966634 0.3521267 0.3356219 -1.1531307 0.23021412 -0.9157815 -0.32170498 -0.26232743 0.39076576 0.8059957 -0.518786 0.3267483 0.793059 0.118597955 -0.027426856 -1.1317941 -0.9291396 -0.35350928 0.27371338 -0.52509147 -0.28392085 0.107770726 -1.1786695 -0.48545066 0.24055645 0.30122197 0.89494485 0.5013186 0.63560337 0.42973822 -0.9956909 0.72738314 0.2669006 0.37329316 -0.3285251 -0.6614436 1.3316777 -0.23521264 0.3464237 0.12088233 0.7267541
911 -0.2852778 -1.03168 -1.1146467 -0.4388283 0.12174389 0.06227289 -0.030059962 -0.055379502 -0.46075395 0.38564056 1.2661366 -0.5928165 -1.601731 0.33838084 -0.07948918 1.6920645 0.31319976 -0.7097048 0.20783235 0.09729007 0.34839138 1.043409 -0.61226726 -0.24336456 -0.9359348 0.5423989 -0.40802777 -0.20331293 -0.8950811 -0.3462389 -1.0145217 -1.1754166 -0.28953284 0.5994232 -0.415368 0.62042683 0.10183943 0.28455552 0.86080617 -0.60074806 -0.8381049 0.23585363 -0.6057619 -0.68437606 0.8942619 -1.3773323 -0.786782 -0.9576258 0.84895754 0.27006376 0.91985244 -0.19112164 -0.051681586 -0.90796924 -0.058863223 0.28150854 0.9245171 -0.4708336 0.0691697 1.0514625 0.26982507 1.0030829 0.024771975 -0.78553885
1757 -0.18439586 0.15585867 -0.6943835 -0.28030992 0.67681426 -0.4793467 0.17310964 1.0239083 -0.8294444 0.41694924 1.0947214 -0.70525956 -0.12356678 1.2990817 -0.22908324 -0.7907703 -0.7004489 -0.84370947 0.10649417 1.5773762 1.598836 0.21083982 -0.02080514 0.2516579 -1.4357862 -0.052944455 0.03675489 -0.56279933 -0.6134838 -0.8162058 -0.38427484 -0.74878323 0.63078207 -0.7251692 -0.7433006 1.0698485 -0.018738236 0.442624 0.32823494 0.55222696 1.0219113 0.09925279 -0.8835441 0.04832977 0.6087722 -1.3704304 0.42397997 0.27261686 -0.13747765 0.5420416 1.0760925 1.0800265 0.41367304 -0.1224889 -0.430036 -0.46748713 -0.08619134 0.30651805 -0.1700233 0.58973587 -0.2519773 0.38850468 0.44766417 -1.1748164
715 -0.5099538 0.8706163 -0.12758818 0.07755865 0.89049786 -0.19000423 -1.0669563 0.5083934 -1.3583637 0.96743834 0.38431033 -0.8421868 0.55132216 0.49754828 -0.9793066 -0.09655816 0.47949314 -0.4583946 -0.27045813 1.2716595 0.8051261 0.58214396 -0.009967696 -0.4344437 -0.86448485 0.52803534 -0.1273575 0.10341551 -0.43826815 -0.028006697 -1.0522941 -1.5311831 -0.5582414 -0.07280135 -0.5290771 0.31907734 -0.25204536 0.16491732 -0.16166514 -0.37246817 -0.4395093 0.8761267 -0.029409004 0.18038058 0.7800103 -0.6776159 -1.3443023 -0.2947781 -1.0698771 0.7780405 0.977777 1.406401 -0.7247267 -0.6284269 -0.87110454 -0.4868955 -0.008110837 -1.4165602 0.6295554 0.3627481 0.23381089 -0.18651819 -0.83026075 -0.852467
1809 -0.19405134 -0.088836886 -1.2122405 0.04015567 0.23576699 1.2837566 -0.7093517 0.10333347 -1.0103191 0.15560414 0.27883595 0.65317154 -1.233606 0.76666427 0.045485497 0.07759965 0.16006303 -0.13460669 -0.6526515 1.381863 0.86397636 1.1469021 0.22037688 0.28424257 -0.6477017 0.8974535 -1.0783406 -0.0026378336 0.47188228 -1.1348089 -1.0001411 0.50947773 -0.19143572 -0.98690915 0.18886405 0.37989074 -1.226906 0.3393072 -0.21649575 -1.0565625 0.49434227 0.42747784 0.1395636 -0.29760116 1.306221 -1.4624349 -0.28040278 -0.3480875 0.958915 -0.16293424 0.6325157 1.3680682 0.76050717 -0.62430125 -0.55578995 -0.9053832 0.2514965 -0.076408535 0.545131 0.50356215 0.5787012 -0.09785189 0.10164304 -0.12176644
810 -0.9397444 -0.20222118 -1.3837225 -0.7549705 -0.40132526 0.897166 -0.073713005 0.58582574 -0.36033145 0.27939054 -0.24064104 0.91154146 -0.42956963 -0.70922136 0.05681279 1.587388 0.43071002 -1.2830758 -0.39000893 0.56634444 0.8975066 0.3259557 -0.2457053 1.0311216 0.11524119 0.008114497 -0.7513023 -0.29657674 -0.7234204 0.2946521 -0.7907805 -0.6473649 -0.98104006 -0.084800914 -0.82429796 1.3591223 0.30941144 0.43700102 0.5004784 -0.30129284 0.49860495 1.2105455 -1.0217005 0.3490244 1.22404 -1.0376424 0.5795753 0.05947921 0.34929225 -0.4851046 0.48128086 0.80093664 -0.4515529 -1.1946965 0.73774487 -0.5137942 1.1463836 0.16095191 -0.9058126 1.3774381 -0.22212689 -0.21950646 0.9471885 -0.6204426
1724 -0.7451632 1.1216059 -1.4971958 -0.684952 -0.59179294 -0.19780025 -0.250963 0.70814973 -0.60971874 -0.40449226 0.6617666 -0.0021808955 -0.031529777 0.3381983 0.17117995 0.17137913 0.3584001 0.1511365 0.06464886 1.7621981 0.31847858 0.86152583 -0.6633547 1.1724702 -0.69306886 -0.65145683 0.24680525 -0.55518425 0.098591916 -0.51540685 -2.0241456 -0.8515978 0.60171217 -0.03369951 -2.0176644 0.6619698 -0.40455577 0.3274909 0.6877136 0.30144474 0.60610396 0.26367348 -1.3476775 -0.36930302 -0.28124934 -1.1254115 -0.64802873 0.27955607 0.5860262 -0.07680877 0.49746898 0.8717751 -0.47914463 -0.39560115 0.6503667 -0.38526776 1.1768204 -0.82435757 0.11725524 0.3241544 -0.28973383 0.42948523 -0.7918757 -0.013774862
1292 0.013748615 0.5804122 0.6707713 0.53368 0.4230811 1.071021 0.6052548 0.42784625 -0.52570444 1.4590323 1.0780867 0.018252768 -1.4164757 0.061230414 0.41223466 0.96600896 0.03814964 -0.21185839 0.5598342 0.5905644 -0.2530178 0.41933683 -0.5986808 -0.62460107 -0.72096705 -0.7017651 0.55396956 -0.7942375 -0.25497657 -1.0293051 -1.3676187 -0.8634008 -0.3659456 -0.037587333 -0.8697107 1.3804106 -0.5634472 0.22538526 -1.0089048 -0.41540518 -0.44619402 -0.39288756 -0.65327835 -0.3308066 0.8345533 -1.1569456 -0.5624536 0.37603533 0.1424343 0.59406775 0.43622664 1.4254956 0.91807836 -1.3776832 0.19823371 -0.018250234 0.5660255 -0.34534147 -0.458152 0.25451675 -0.14891648 0.79130936 -1.2690885 -0.14683187
1284 0.60752827 -0.10631776 0.6768448 -1.2174826 -0.43245602 0.80906445 -0.78197974 0.88062114 -1.0211871 1.1647856 1.0275981 0.17529097 -1.0026227 -0.26554367 0.13082598 1.4864918 0.2141089 0.5989056 -0.49308163 0.54485315 0.8290847 0.073529385 0.53835106 -0.50012124 -0.7691346 0.45283735 -0.01811904 -1.1700627 0.20638344 1.0621285 -1.3161002 0.5346465 -0.3330042 0.6023421 -1.1073872 1.0686265 0.59020257 -0.36811903 -0.2578547 -0.76991606 0.8863029 1.2983677 -1.0013642 -0.41513613 0.37054795 -0.84676945 0.07848135 -0.83813393 0.20761174 0.40962344 0.81005126 1.6250513 -0.3919126 -1.2310613 -0.73172486 0.48149732 0.6921909 0.16451919 -0.07925541 0.41527244 0.4203835 0.708132 0.25644562 0.45381284
975 -0.8108113 0.54364735 1.0290258 -0.3482415 0.092050985 0.47610205 -0.47663772 0.56587034 -1.5288815 0.57666296 0.9215075 -0.0131674595 -1.6124474 0.33120474 -0.06719936 -0.52567244 0.5487996 0.9405785 -0.29186776 0.7544111 0.6634447 1.1366311 0.26695943 0.13907644 -0.16186066 -0.5570683 -0.123203166 0.34487885 -0.89279354 -0.066465214 -0.44860685 -0.7388751 -1.3509794 -0.7847502 -0.09302449 1.1335955 0.060249247 0.20913707 0.4937114 0.21535759 1.1880937 0.5296192 -1.4522489 0.45189774 0.62806016 -0.6433552 -0.2979609 0.36364698 0.016248083 1.0815083 0.25768715 1.2972133 -0.6492275 -0.7627152 -0.09155024 -0.4861195 1.2903 -1.3652191 0.11291232 0.30727744 -0.5099628 1.3098971 -0.19348127 -0.4912917
927 -0.032129984 -0.2395451 -1.0343467 0.60535675 0.560753 0.7852209 0.21698052 1.0238111 0.11586049 -0.10693586 1.333818 -0.16424365 -0.92805713 0.61794233 -0.4305369 0.83517736 -0.30199364 0.5933573 -0.10754642 0.89107144 0.300457 0.6477781 -0.16271777 -0.258388 -0.6572836 0.1777965 0.36463025 -0.48301023 0.6014371 0.3460137 -1.5320444 -0.47604525 -1.0562936 -0.555498 -1.0419189 -0.115518846 -0.85509056 -0.26039934 -1.0024129 -0.79660106 1.7422557 1.2363658 -0.0071564903 -0.04254397 0.9658017 -0.473713 -0.7438467 -0.7372084 0.85582435 0.5043648 0.67037857 1.0981622 0.12712628 -0.888914 0.234897 1.025908 0.6293808 0.8155325 -0.9684791 0.33385944 -0.7118167 -0.10056009 -0.46528798 0.44718978
2608 -0.2328171 -0.7737322 -1.0641558 0.22689693 0.54572815 -0.27338958 -0.044834252 0.90530384 -1.1940999 0.7311548 0.024296597 1.1900362 -1.4533861 -0.5346258 0.24785054 0.46502337 0.2731364 -0.73224163 0.3321562 0.7472629 0.8928613 0.6977335 0.47936332 1.041721 0.17150743 1.187575 0.23771365 -0.4649692 -0.59420073 -0.13907771 -1.0335279 -1.2890265 -0.44790548 -1.3697275 -1.0502621 1.6633943 -0.38093236 0.011614534 -0.106258824 -0.54689735 0.5873892 -0.2586566 -0.07660392 -0.28823698 0.07168524 -0.80774295 1.3762245 -0.38149473 0.43193 -0.28945494 -0.03705008 1.1263235 1.1088197 -1.0103009 0.7022723 -0.9440193 1.0759966 -0.46877417 -0.4683366 0.6332663 0.019600917 0.31353197 -0.26403725 -0.21472295
1258 -0.6075909 0.54579717 -0.27346212 -1.0726079 -0.16480073 -0.72119826 -0.31409028 0.5739151 -1.1452156 -0.18407142 0.34826824 -0.37459025 -0.62464744 1.0798485 -0.69327617 0.5596676 0.7449878 -0.4806285 0.09720964 0.8388892 1.1006844 -0.32727998 0.9572014 0.1528941 0.05277863 0.2767489 -0.62230873 -0.67331076 -0.7405386 0.3829793 -1.0895256 -0.30688828 1.3716254 0.054947097 -0.90359837 0.8465341 0.62492645 0.78917617 0.14795558 -1.3243763 -0.42607096 1.5423688 -0.48559737 -0.08827429 1.2059481 -1.171625 -0.53008515 -0.69246286 0.11097009 0.10096641 0.3698314 0.48602495 0.3199618 0.21208681 -0.36291185 -1.4361064 1.2845913 -0.75091875 -0.05683202 1.2324413 -0.20880896 -0.3589331 -0.8000869 -0.68455267
2504 0.31078708 0.7466456 -0.6675049 0.25179964 0.3053647 -0.4210637 -0.29147273 0.29174227 -1.0649251 0.42071 0.5728324 0.14062963 -0.07280242 0.14500692 0.6499185 0.28549314 -0.8902364 -1.252454 -1.0961591 0.74538344 1.3190331 0.8540163 0.89405376 0.29299614 0.18821964 0.19752797 -0.31128484 0.23419696 -0.6056879 -0.10601981 -1.5596287 -1.5148028 -0.13091636 -0.63309515 0.0070421332 0.9939833 -0.8973751 -0.20795293 0.32973558 -0.47922727 -0.2432227 1.1588557 -0.8543791 -0.7811759 0.79715765 -1.161855 0.5330774 -0.71364397 -0.014720612 0.98030025 0.17176582 -0.03784052 -0.6639434 -1.4218777 1.1108521 -1.5978478 -0.13078842 -0.4457149 0.1804725 -0.08500209 0.44509697 0.18225615 0.35732913 -1.1745833
1612 -0.80668616 1.088623 -0.37038794 -0.036386974 0.52826285 -0.2612049 -0.3008744 0.51970977 -0.99669766 0.29256347 0.7821918 -0.38489708 -0.109392405 0.64780974 -0.49436247 0.80774695 -0.016571684 0.778444 0.46129742 1.6714752 1.2515514 -0.023787068 0.30337432 0.3266074 -0.5850929 0.87014973 -1.2834901 0.10824562 -0.10117466 -0.5599146 -0.41933107 -1.197572 -0.8026239 0.5782295 -1.1152046 0.013638074 0.19858791 0.40639302 -1.2394199 -0.81831056 -0.6814131 0.9510155 -0.5017352 0.2619557 0.17191035 -0.61680424 -0.70903295 0.3023742 -0.23794974 0.619585 -0.14761305 1.0302922 0.5460739 -1.5566716 -0.6393149 -1.0681856 -0.14026906 0.13581367 -1.2775208 1.1272395 0.024744924 0.2350647 -0.7772686 0.15053986
851 -1.1790435 0.32782432 0.5028289 0.517848 -0.072508015 -0.13067532 0.09922513 0.6942268 -1.7256215 0.112930655 0.60608613 -0.7944259 -1.0118566 0.8058971 -0.31145662 0.51163757 0.19731095 -0.094472244 0.2849644 0.8210128 0.9395649 0.88632303 0.39751315 0.16643243 0.03084566 0.6893036 -0.051230676 -0.10367748 -0.8458331 0.12798868 -0.5353595 -0.017650433 -1.9636387 -1.249832 -1.1390529 1.1488253 -0.45361006 0.8663816 0.5089987 -0.99490386 -0.21020502 0.480587 -0.03754738 -0.59027284 0.7381828 -0.093486115 0.1258009 -0.98510736 0.056384303 0.94279677 1.4526415 0.99846226 -0.007883373 -0.33667293 0.15843663 -0.5256991 0.67197466 -1.0829782 0.23685256 0.95798874 0.72079927 -1.0635355 0.2820024 -0.38490248
916 -0.5510152 0.9253655 -1.2887918 0.3605057 0.7122777 -0.33349633 -0.6294165 -0.42459938 -1.2391504 -0.09389091 1.3332984 -0.30002582 -0.5874046 1.1026781 -0.22054994 -0.22807889 -0.48634315 0.06400173 -0.07228236 0.57131565 0.49439391 0.48902655 -0.28031936 -0.5882683 0.008851991 -0.2197663 0.41527838 -1.5603 -0.77389383 0.41473654 -1.0507843 -0.07880949 0.2102566 -0.76262385 -0.4197156 0.0387753 -0.8637405 0.24077566 0.58426416 0.14079773 -0.0035050728 0.5106599 -0.8307096 -0.10876433 1.1099011 -1.5595067 0.30752483 -0.4107706 0.44005886 1.125464 -0.5065856 0.6735314 -0.07059643 -1.5016768 -0.5239771 0.21832965 -0.36229947 -0.97797424 -0.20619614 1.2074152 -0.034357548 1.1154724 -0.6158152 0.76412785
2795 -0.5246229 0.3678128 -1.4235814 0.21085842 -0.17279798 1.0062004 -0.69511044 0.63443106 -0.11968129 0.06713357 0.6715254 -0.23891924 -1.6535625 0.64381117 -0.058173113 -0.23508076 -0.15917948 -0.71905535 -0.36047578 0.99689674 1.0216497 0.6305951 -0.8426025 0.31296176 -0.7930796 -0.3847433 -0.62536603 -0.6615038 0.3556796 -0.8555657 -1.3258917 -0.57507807 0.65956295 -0.19423579 -0.6169732 1.6913457 -0.2631396 0.118382305 0.22521889 -0.38959557 1.5304478 1.8279172 0.15611759 -0.727068 0.93705 -0.18562773 0.6611638 0.61493117 0.13345455 0.098512664 0.7446058 0.4155883 -0.34610298 0.21645923 0.51591736 -0.92575616 0.3981213 -1.1482024 0.6686261 0.23288932 -0.37479264 1.0177428 0.27754855 0.6209187
932 0.4209965 1.1601846 -0.4723695 0.19269565 0.41903284 0.08535607 -1.2299361 -0.50719213 -1.441038 0.92247474 0.14784463 0.061383996 0.0296152 0.03302404 -0.69674194 1.1814142 -0.21026851 -1.4450547 0.43707484 1.8490068 1.2143449 0.40397173 -0.46938065 -0.06257664 -0.53207964 -0.83525914 -0.006962308 -0.36314237 -0.6171278 0.26498154 -0.94872713 -0.4868593 -1.1957538 0.3204752 -1.5771755 0.92536825 -0.013988321 1.2385737 0.03922429 0.5632622 -0.13306741 0.65941846 0.36402684 0.30731922 0.5397878 -0.669014 -0.26808426 -0.8156465 0.29415187 1.1059368 -0.41311947 0.48635545 0.7251774 -1.137502 -0.4331693 -0.6976562 -0.54717237 -0.81004685 -0.32883507 0.042892806 -0.4338063 0.61518276 0.4505672 -0.17926225
2615 -1.1931264 0.4506841 -1.0786983 0.46986312 0.10231629 0.2102459 0.35936093 -0.39393157 -1.8074294 -0.06417489 1.2529354 0.4918547 -0.26620772 0.9184125 -0.6113333 0.9661116 -0.4167505 -0.73387915 -0.61580616 1.8283942 0.82693213 0.7903636 0.72057295 -0.2745466 -0.74547225 0.29188293 -0.6073365 0.89951843 0.55415493 -0.40536937 0.01747486 -0.058397625 -0.19087653 0.06863339 -0.81900066 0.32166973 0.8141431 0.66805923 0.07936076 -0.9812026 -0.047197916 1.1566846 0.055779185 0.009215461 1.6399297 -0.9279757 -0.10805922 0.024084328 0.28990224 0.6651017 0.6968827 -0.107928 -0.58524567 -0.26874137 1.0468864 -0.7144107 0.19400284 -1.160245 -0.25700653 1.1580615 0.24364878 -0.70953107 -0.46914825 -0.33976224
2414 -0.65761554 0.85964423 -1.2387718 -0.5465983 -0.43014014 0.6424456 0.3456649 -0.00467882 -0.3080082 0.12763938 1.4179306 -0.20642212 0.2805633 -0.2245207 0.33770216 1.70162 0.30615154 -0.113694824 -0.38233277 0.42457184 1.7260101 -0.023958486 -0.9941111 0.42001274 -1.2064588 0.6510822 -1.1164408 0.5354233 -0.52852935 -0.62421876 -0.7871878 -0.4784914 0.37133726 0.3391852 -0.9433991 1.4923866 0.16449131 0.47454938 -1.0048615 0.15977655 -0.171419 1.0785993 -0.69574946 0.60178804 0.97585565 0.1863629 0.060457863 -0.19012344 -0.35875174 1.4231809 -0.2500575 0.33670714 -0.0017315759 -0.61745286 0.5310642 -1.153812 1.009833 0.54488504 0.5013757 0.6712716 -0.40097982 -0.3617721 -0.7372246 -0.62855
853 -0.32272026 0.59559 -0.13917269 0.033382606 -0.21816014 0.84913737 -0.67600536 1.1803174 -1.8042346 0.5810754 0.77833796 -0.54665095 -1.2571155 -1.203902 0.508918 0.6048676 0.11593244 0.21020307 0.40694222 -0.033807438 0.8668011 0.9798424 0.05289382 -0.1379829 -1.4344518 1.242661 -0.88879067 -0.5960746 0.04748628 -0.399951 -0.16652353 -0.8483803 -0.068048514 -0.27157152 -1.3638737 0.7775937 0.17374615 -0.4099897 -1.2414017 -0.15667278 -0.6631441 0.858053 0.12682791 -0.2506385 0.1619105 -0.35219628 -0.26331177 -0.9616915 0.18348697 0.8313111 -0.28713477 0.84896374 0.07938583 -0.74730515 0.13538316 -0.04540198 0.6556267 -1.2191926 -0.19208185 1.3022842 0.033641305 0.27145508 0.85039675 -0.07709513
957 -0.226081 0.5199218 0.17581663 -0.35957578 0.5017517 -0.6082939 -0.1796183 0.7931874 -0.7371307 -0.17042707 -0.057707 -0.40526843 -0.89953274 1.2177985 -0.20982026 -0.671272 1.0549779 0.7158834 0.14271386 1.7268078 0.60949486 0.63888294 0.0669983 -0.022570882 -0.13167298 -0.91417366 -0.013077181 0.28090146 -1.3838723 0.5426783 -0.5404788 -0.6292671 -0.23293214 -1.0150161 -1.3326824 0.62647545 -0.22709602 1.244417 -1.0976008 -0.503267 0.8786393 1.3379384 0.29842955 0.3876313 1.2368428 -1.4179937 0.5460875 -0.612958 0.24887292 0.35655317 0.6350091 0.20307271 -0.24097978 -1.1129593 -0.040944137 -0.13702053 0.50953084 -0.9436413 -0.43375742 0.8072859 -0.5867417 0.449181 -0.9560392 0.5984249
920 -0.41350448 0.23587014 -0.5659665 0.23163891 -1.1765653 -0.24858113 -0.5311817 -0.22383931 -1.4414743 0.9050307 0.31366533 0.9363715 -0.5082851 0.74394405 -1.0828012 0.5976076 0.33651313 0.83624005 -1.4220437 1.2206361 0.6179942 0.58295304 -0.43276092 0.029873746 -0.028945126 0.59639335 -0.28402033 -0.3523335 -0.41148585 -0.25959215 -1.5359225 -0.12807292 0.89163995 -0.12010664 0.0600634 1.297698 -0.99158496 0.7929146 0.6323107 -0.4664122 0.67106265 1.2162694 -0.7073746 -0.7314474 0.24587744 -1.2649785 -1.0273277 0.31067 -0.31379923 -0.16707152 -0.035517957 0.7151025 0.17199191 -0.48542368 0.9457402 0.84626603 0.7145064 -0.9515545 0.29853758 1.008014 0.08886125 0.19970167 0.31014717 -0.20162533
1393 -1.4810815 0.93938005 0.11539419 -0.8561019 0.49498084 0.6021183 0.16488706 0.93679214 -0.3227132 0.4223699 1.5016936 0.5205475 -0.5950191 0.5659439 0.34165576 0.6609648 -0.04155588 -0.08375406 -0.4213505 0.97210586 0.08507435 0.28134418 -0.20341381 1.0941483 -0.5228808 0.656804 -0.03429259 0.3074995 0.16747968 0.010253044 -1.5205588 -0.9009549 -1.291751 0.70993346 -0.9116363 1.9431577 -1.043854 0.23795813 0.57822 -0.45356455 0.19114514 1.0262971 0.04727935 -0.42908722 0.79657227 0.13128169 -1.2076256 -0.38730296 0.8086296 0.29419988 -0.19300506 -0.0078674955 -0.6643693 -1.0564128 -0.7241641 -0.26461628 1.1080334 -0.70939463 0.058400862 1.1574967 -0.3103784 0.3669373 -0.119097464 0.23942916
2230 0.7780054 0.9557715 0.13505664 -0.10396462 0.88866997 -0.069779165 -1.0016998 1.7606493 -0.07596927 0.31394798 0.9865593 0.69361514 -0.9174447 0.422452 -0.6676093 0.5728602 -0.3405245 0.08418486 -0.29578647 0.14959995 0.7968698 1.051607 -0.5195129 -0.59851116 -1.4791152 -0.1674276 -0.6990337 -0.22326717 0.025605146 -0.19454886 -1.0223339 -0.37448043 0.3155436 -0.15539399 -1.1177694 0.44086513 0.06795529 -0.14995906 -1.7274631 -0.87215984 -0.91594934 1.1852462 -0.020033937 -0.73611563 -0.05860736 -0.53676605 -0.049907677 0.07821696 -0.04616869 1.0024478 0.7240492 0.91405237 -0.60682887 -1.319631 0.7367498 0.45757785 0.99613166 -0.9457866 -0.11090613 -0.67535394 0.615841 0.16239454 -0.82874256 -0.6297597
1849 0.01995658 0.323922 -0.68018746 0.36797056 0.5896477 0.47291282 -0.46997088 -0.038662605 -1.3059477 0.5697189 1.0855483 0.50626785 -0.5578899 0.057437938 -0.35789457 -0.21212304 0.15450126 -0.18960382 0.37733138 0.74345917 -0.1459016 0.5186127 1.1266341 0.9178074 -0.509434 0.4157063 -0.11694019 -0.8179934 0.557072 -0.05990057 -1.3840808 -0.17301266 0.85984504 -0.3404229 -0.49431264 0.45681036 -0.858391 1.097486 -0.7232537 0.22985111 1.041678 1.4523343 -0.012426377 -0.8984644 0.9245507 -1.8128443 -0.005307752 0.9433054 -0.29196715 0.9203858 -0.011005091 0.31798494 0.5416544 -0.33433983 0.92732006 -0.60634285 0.6412618 -0.22999984 -1.0344001 0.9986211 -0.2902376 0.70966935 -1.1757244 0.37759775
520 0.40954855 0.06856702 -0.9864436 -1.479154 -1.1362892 0.45329875 -0.30356392 -0.04237922 -0.93198997 0.3519291 0.344065 -0.022177914 -0.61306065 0.23806448 -0.26719406 0.4127678 1.3723847 -0.42263442 -0.54095995 1.0709376 0.07230981 0.4976323 0.35157648 -0.53131145 -0.41608903 -0.2847502 0.25097603 -0.091564775 0.05018051 -0.9878498 -0.5099471 -1.3279554 -0.023463259 0.5598289 -1.3814052 0.9129138 0.075536706 1.1255883 -0.60691285 0.3657464 0.87640834 0.28469563 0.10566294 0.4575299 0.71440357 -0.17415667 0.014240934 -0.68878585 1.5922626 0.2803621 0.41947502 0.579975 0.22394796 -0.95232904 -0.15550748 -0.008855483 1.7518815 -0.84082687 -0.16983145 0.8884316 -0.7693856 0.55157644 -0.65198296 0.61915964
2245 -0.027404178 0.48082724 -0.6357287 0.40666112 0.37578002 -0.47166696 0.11487091 -0.34007314 -0.8850827 -0.21311817 1.6752479 -0.13567135 0.06778013 -0.16856813 -1.0781475 0.4295632 0.77316636 0.306165 0.33321315 0.9276027 0.8543288 1.4447407 -0.26891237 -0.42251223 -0.013866565 -0.9907595 -0.11712017 -0.22799589 -0.51396894 1.2987095 -0.9308983 -1.2661811 -0.84109235 0.20985979 -0.8319996 0.63439685 -0.086579986 0.37482995 -1.3759705 0.36171788 -0.34771788 0.8772785 -0.59361416 -0.19771892 0.6068231 -0.08211705 -0.81943065 -0.56249654 0.9228172 0.8561688 -0.03052231 1.1400012 0.51024103 -0.46350244 0.4364202 -0.67322046 0.9781613 0.017584806 0.12548336 1.0641191 -0.3284972 0.9697069 0.22957222 0.97101486
516 -0.56400734 -0.7116231 -0.340545 -0.57806367 -0.22137234 0.7633925 -0.5332475 0.29794413 -0.45944208 0.07710322 0.7793675 -0.38883758 -1.4812118 0.7128469 -0.48503205 0.5622129 0.18531413 -0.59983754 0.42365903 0.3548707 0.47321957 0.73223346 -0.18741022 0.19952033 0.19777419 0.088948295 0.08379934 0.24127848 -0.0429094 -0.70032835 -0.8480334 -1.663312 1.008096 0.39584753 -0.37028325 0.83987284 -0.17412683 0.008816277 -0.28090882 0.5180463 0.55627966 0.7781267 -1.4351547 -0.2982861 2.0192728 -0.64074445 -0.37991476 -0.6248515 0.0733866 0.58473665 -0.870863 0.76869434 -0.3293316 -1.8552792 -0.4664265 -1.0356101 -0.06776547 -0.7375175 -1.3699814 0.46731383 -0.31464428 -0.2520277 0.4964489 0.75424093
401 0.77324843 0.78430897 -1.0206786 -1.1736923 0.26913404 0.07794993 0.5064095 0.15466058 -1.07735 -0.16363817 -0.14507651 0.11344613 -0.3720032 0.21924333 -0.93155795 1.0270022 -0.04007135 0.55750877 -0.500851 0.7775768 1.2820374 -0.4933547 -1.2710224 0.68467075 -0.91362363 0.6045541 -0.15059993 -0.13673416 0.13504028 0.5991328 -0.49099097 -0.362461 -0.47673866 -0.92987156 -0.40345347 0.41822225 0.78580326 0.40155798 -0.91108876 -1.0356593 0.1287544 -0.22913246 -0.34237587 -0.6923731 1.7056801 -1.1031246 -0.8495968 0.16211247 0.5915564 0.4568357 -0.12375677 1.305694 -1.1868372 -1.3131641 -0.31373674 -0.14912845 -0.0057334485 -0.72595245 -0.33530882 0.7136754 -0.16048968 0.92502075 -0.19873653 -0.01818707
1302 0.14606173 0.71326363 -1.0442015 0.016332442 0.22706111 0.5115656 -0.31743136 0.27068415 -0.117016256 0.10942508 0.8028029 0.19871622 -1.0162979 0.63313526 -0.8128932 1.8526355 -0.0207085 0.37585777 0.5385635 0.7703121 1.037413 -0.5927282 0.21408285 -0.4165257 0.18550749 0.4548137 -0.6627595 -0.44541723 -0.46009517 1.3788476 -0.102933936 -0.50522876 0.6426731 -0.14233859 -0.951692 0.24009734 -0.48511836 0.42631426 -0.065827616 -0.89854985 -0.3393074 0.50682265 -0.34950966 -0.5702807 0.9071872 -0.81937885 -0.23441836 0.34865695 -0.35894483 2.0977836 -0.47217005 0.89141285 -0.006932422 -0.4845066 -0.7017506 -0.70120287 1.5134274 -0.8278322 -0.18034023 0.91447747 -0.36104506 1.3451642 -0.2232903 0.65755856
2450 -0.44269753 1.2403655 -0.19500823 -0.56153876 0.28217164 0.043419134 0.074442826 0.2508453 -0.7709963 1.3066646 0.74297446 -0.4423542 -1.2737639 0.65846485 -0.34807104 0.43703946 0.2555031 -0.6463054 0.08781782 1.4473901 1.5946862 0.66803443 -0.45681655 0.62071925 0.1056709 0.37025335 -0.4891146 -0.7294958 -0.7922977 0.49077848 -0.31242073 -0.77683634 0.098289095 -0.40044466 -0.9050749 0.45774513 0.43717796 0.675796 -0.23515409 0.6781794 0.3043304 -0.36877954 -1.3732591 -0.69208556 -0.09825205 -0.2753096 0.089782655 0.30204073 -0.83484995 -0.26421458 0.5619736 0.67946506 -0.7394297 -1.4701458 0.22249307 -0.96409124 1.0965853 -0.43843892 0.754011 0.437441 -0.25270033 0.17283674 -1.0188389 0.581944
1046 -0.09167342 0.5633122 -0.2930322 -0.18948016 0.08135914 0.8525736 -0.36293212 0.72017366 -0.409231 -0.15361117 0.8716639 -0.7706822 -0.34498385 0.32399526 -0.68761027 0.27031535 0.47265077 -0.24226043 0.57767326 0.89957815 0.53647864 1.0812641 -0.7590724 0.32744846 -0.9276957 -0.6452306 -0.8397338 0.7056586 -0.44375417 -0.3380337 -1.6028222 -1.2038394 -0.11504489 0.1617453 -0.31698707 1.055987 0.14805573 -0.61099064 -1.1390795 -0.90325904 0.9447596 0.08642386 -0.6321536 -0.7224461 1.0997016 -0.30063084 -1.2740018 0.3805119 -0.7278044 1.618854 0.26531622 0.71313924 -0.7621111 -0.8469325 -0.60570776 0.19805332 1.1066433 0.40956095 -0.31096438 0.12022966 -0.29492018 0.8791816 0.42163533 -0.079389736
2476 0.36641908 0.90219176 -0.44968578 -0.10429788 -0.045147583 0.9867766 0.048604943 0.14175737 -1.0195541 0.75015134 1.0829751 -0.14478585 -1.0629789 -0.07612122 0.02900193 0.25697452 -0.56198335 -1.1642532 -0.46427903 0.23375177 1.0643916 0.6581232 0.30884746 0.04628022 -0.03129234 0.5839423 0.15098505 -0.8835133 -1.4251348 -0.2782859 -0.24476203 0.029689578 -0.39678565 -0.649156 -1.6488258 0.9635856 -1.1996884 0.14958332 -0.5616226 0.08460194 0.9249146 0.987715 -0.597916 -0.93009734 -0.18854415 -0.6238423 -1.2003162 -0.10383606 0.0090619605 -0.058844667 0.4360441 0.79680157 0.71016395 -0.69645125 -0.15063637 -0.87644565 0.41657522 -0.5143054 -0.18374522 0.8563383 0.8456865 0.41303492 0.30075902 0.78857946
535 0.9766003 -0.57978207 -0.9166531 0.20769726 0.65316755 0.42706934 -0.6501374 1.1821246 -1.8817431 -0.098442584 0.362265 -0.11609946 -0.6945921 0.14876704 0.15992539 -0.044222526 0.11760589 -0.31246388 -0.30435947 1.0679356 1.291836 0.58743954 -0.7990071 -0.22157916 -0.25187752 -0.5313156 -0.22875929 0.088879064 0.45144188 -0.24584168 -0.19482061 -0.52646846 -0.6543448 0.4825363 -0.54029846 2.1824818 -0.04798383 0.9636563 -0.60623825 -0.444295 -0.11093257 0.3392508 -0.17114924 0.4194838 0.4649208 0.077473365 0.7815914 -1.0329882 0.14463589 0.6041126 -0.052588504 0.7222763 0.32515922 -0.7921293 -0.6933686 -0.28585607 0.9932725 -0.89436686 -0.2694346 1.4093767 0.63362557 0.145489 0.34485888 0.31641215
160 -0.40336305 -0.13022894 -0.0011361024 -0.9103047 -0.9142634 0.14194085 -0.20941806 0.26454917 -0.6917352 0.93067 0.96621054 0.018766662 -0.8670933 -0.18851684 -0.85104233 0.25436127 -0.1484822 -0.84200406 -0.106242366 1.3463163 1.2512366 0.347588 0.045553718 -1.0514246 -0.23199913 1.2226573 -0.049334288 -0.8931326 -0.574734 -0.32644922 -0.90605235 -0.11303269 -0.33508587 0.8842955 -0.71414906 0.62645924 0.06618815 -0.18202671 -0.1306522 -1.5884637 -0.5340024 0.6556767 -0.99760395 0.124709636 0.438733 -0.025643276 0.6315028 -0.30999434 0.65829927 1.0683644 0.6825551 0.23021439 -0.12348524 -1.2518924 -0.22568145 0.08183388 1.5715879 -0.6231379 0.54257387 0.35030514 0.7446817 -0.98647857 -0.32605052 -0.4832957
1838 0.10209795 0.107097894 -0.2624737 -0.34146518 0.37393478 0.81161135 -0.6689516 0.9828206 -1.4021577 1.2061096 0.24403869 -0.7022419 -1.2361368 0.54241216 -0.5171557 0.9407224 -0.6667362 -0.44439435 0.83966684 0.5588305 0.07544255 1.3090763 0.14881477 -0.8107935 -0.79830724 -0.023950601 -0.5104136 0.61899865 -0.065150626 -0.082925245 -0.7287072 -0.79996693 -0.06814062 0.086784534 -1.3486799 0.11667216 0.5093314 0.64953226 0.102959275 -0.22884393 1.1269358 0.3654477 0.08886325 -0.760995 1.0421482 0.18664129 -0.04518223 0.11755349 -0.38502288 0.2095255 0.043316647 0.75342566 0.20466661 -1.8187437 0.3156377 0.51385057 1.6900052 -0.059310976 0.813903 0.30968586 -0.27718452 0.18766175 -0.06586238 0.26560268
2170 -0.02422524 0.26071775 -0.94427294 0.30240703 -0.021339491 -0.3637732 -0.5891981 -0.6199351 -0.6544967 -0.1683886 0.9334613 0.02573037 -0.6472049 -0.67137027 -0.73359597 0.21209136 0.25448322 0.94947475 -0.42959395 1.208712 0.14908548 0.8656022 1.0065837 -0.013964919 -1.0921199 0.50656575 -0.5184074 -0.6468651 0.030515369 -0.6471481 -1.7300593 -0.8870625 0.108028375 -0.10676443 -0.94327205 0.5424365 0.69222486 0.8199443 -0.6477908 -0.63890237 0.5402969 0.8791128 -0.9721747 0.3224342 0.21402082 -1.0707974 0.14064541 -1.0119952 -0.11475746 0.35304347 1.0605096 0.27540097 -0.6795857 -1.0088177 0.49526924 -0.6911133 0.033461463 -0.76027125 0.7721766 0.6233819 0.3000472 1.1101588 -1.2785286 0.31830388
1344 0.13118145 -0.1063493 0.37816986 -0.3871409 0.7547368 -1.2878442 -0.047112476 0.053083282 -1.5187483 0.05991569 0.13917299 -0.50496906 -1.2590525 -0.90157676 -0.46026555 -0.3915157 0.6562465 -0.38921067 -0.14687671 0.63782465 0.8916697 0.6897643 -0.39462718 -0.24560663 -0.44181687 0.30867067 -1.2229203 -0.7621765 -0.22522472 -0.7254524 -1.06272 0.5135766 -0.27190897 -0.77924 -0.9368579 1.2746829 -0.38427332 0.7292367 0.22447044 0.2158428 -0.91468346 0.23330869 -0.0191643 -0.12529328 0.20608203 -1.2482442 0.035050664 0.7818625 -0.2936631 0.5109866 0.9350805 1.3794556 -0.119964145 -1.160576 0.24443923 -0.05684117 1.2925991 -0.5892903 -0.65703547 0.75211865 -0.10807797 0.68573815 0.04036545 0.16196145
1304 0.48224142 0.9982831 0.062115293 0.003587867 0.8406855 0.004996737 -0.8968452 0.3879172 -0.8294939 0.23496236 0.1482631 0.1567196 -0.6823517 0.75379634 -0.006986724 0.8119593 -0.512255 -0.042479213 0.26527563 2.2462525 0.29309556 0.7690797 0.5748184 0.19784844 -0.92531306 -0.03127796 0.5017322 -0.07420976 -0.7586941 -0.40284294 -1.3950511 -0.8689329 -0.8288165 0.24410442 0.31189224 0.7217052 0.57728356 -0.2100353 -0.6023229 0.6245566 -0.4597159 0.97065455 -1.047273 -1.211169 0.41131666 -0.30390885 0.315935 0.004658895 0.6021257 0.7827586 0.2180807 0.5724187 0.33225915 -1.676243 -0.14326759 -0.101760484 1.216346 -0.18942927 0.32917494 -0.028182648 -0.401729 0.30914626 -0.25728163 -0.34791532
1065 -0.5464897 -0.18683207 -1.4105194 1.0253161 -0.2894419 -0.45364124 0.6645435 -0.2284005 -1.1398549 -0.022530317 -0.029694788 0.1756339 0.02516827 1.1592414 0.22391002 -0.4653772 1.3358966 -1.200722 0.31398323 1.459932 0.058679033 0.29220372 0.032308478 -0.07886652 -0.73334956 1.193702 -0.08845984 0.5965584 -0.66195875 0.32227054 -1.6144367 -0.7513603 0.094805844 -0.026222805 -0.21169123 1.0480704 -0.82350224 0.97343683 -0.1494244 -0.44180438 0.2621117 1.234961 -0.2004851 -0.2735371 0.8332282 -0.1816691 0.40912232 0.014995623 0.62266344 1.0793728 0.49610907 0.6537359 0.40418229 -0.66518897 -0.018861106 -0.015206882 0.7422947 -0.08303383 -0.045644768 1.2324154 -0.90221316 0.13644351 0.22995934 0.15235151
71 0.76266694 0.78778005 -0.7452542 -0.39285117 -0.29119146 0.2877779 -0.059314623 0.70462203 0.1756975 -0.38656038 0.9013728 0.23990116 -0.889548 0.5858536 -0.6923755 0.65056497 -1.2041293 0.12405634 0.07223752 1.1897309 0.22745724 1.6651502 -0.26033384 -0.40445393 -0.38733587 0.71875614 -0.0020266033 -0.6110708 0.49143526 -0.3381472 -1.025465 0.38660452 -0.19523354 -0.04843483 -0.4816096 0.436782 -0.40227547 -0.09344151 -0.3121174 0.30862704 0.31802285 0.20792434 -0.94446826 0.6638431 0.89699304 -0.14211711 -0.121126615 -0.15936875 -0.3775466 1.8959439 -0.23886885 1.8708783 0.16052556 -0.37809965 0.543438 0.5288614 1.258534 -0.17524317 -0.37941745 0.68996334 0.18373628 0.5699911 -0.23828208 -0.31635207
2248 -0.45987222 0.27615267 -0.44079283 0.006917139 0.66354823 0.04291122 0.29268935 -0.40345472 0.10235105 0.035225 0.99185705 -0.63057333 -0.25479642 0.26722506 0.048175115 0.7788117 0.056295957 -0.854506 -0.6599047 1.3421968 0.733932 1.5251836 -0.35789135 -0.17060776 -0.3344449 -0.0063184705 0.37344047 -0.5064348 0.07850453 -0.005562323 -0.84455717 0.51920766 0.3506878 -0.16593637 -1.3386066 -0.01261977 -0.3675121 0.36332184 -0.3975381 0.58295906 -0.32780108 0.3345376 0.5405601 0.70815396 0.9268156 -0.021774154 0.27445474 -0.58707243 0.5333295 0.4887941 0.6913973 1.361265 0.82005 -1.7393594 -0.62496793 -0.5503704 1.0023884 -0.7984171 -0.030358404 2.4171023 -0.25779134 0.029706756 -0.69055784 -0.88935065
537 -0.7366649 -0.6332499 -1.6717267 0.11339559 -0.45973408 0.7322848 -0.6837833 0.26913843 -1.2039725 0.40425718 1.0627332 1.119153 -0.7604406 0.48862183 -0.77007383 0.8328728 -0.071158424 -0.47628555 0.34782645 0.9758785 1.6590148 -0.20978078 -0.05932077 0.12046256 0.44883195 -0.33757383 -0.2860699 -0.99905646 -0.28594744 -0.88921404 -0.11697812 0.14263085 -0.4262498 0.09232766 -0.9156633 1.3847103 -1.6348941 1.2768298 -0.46326736 0.5675661 0.036385857 0.4153231 -0.41002968 -0.60466284 0.5933831 -0.9035361 0.10369698 -0.44541442 0.8222581 0.52060944 0.17024584 0.6305211 0.7343711 -0.68784076 -0.4753289 -1.0232103 0.14527388 0.020262085 -0.81475925 0.58757424 -0.27325422 0.07978276 -0.47609615 -0.2924033
260 -0.72588634 0.82739925 -0.6907879 -0.7893841 0.6768523 0.11391094 0.14093336 0.66329366 -1.1284193 0.014568421 0.38989177 0.83067477 -1.0766164 -0.3964146 -1.1718761 0.15114594 -0.11880281 0.16146655 0.26295587 0.15769285 0.84046143 1.452766 0.21205437 0.29472613 -0.56960094 0.5354435 -0.45835415 -0.056476396 -0.361638 -0.15331818 -0.18478006 -1.0995822 0.80382437 0.6905786 -0.26196116 1.7308025 -0.7493395 0.24710986 -0.07578151 -0.55899763 -0.6380094 0.7618456 0.16278376 -0.7386431 -0.13709809 -1.3512197 -0.36900347 1.1182916 0.7128532 0.948636 0.7512844 1.8149362 -0.45322224 -0.706504 0.33276606 -0.51845205 0.6242691 0.33065212 0.4388069 -0.18338515 -0.1980966 1.2353688 -0.45274237 -0.51343435
1396 -0.53728056 0.46256477 -0.16776584 -0.6486228 0.24970569 0.1065981 0.9079394 1.2161593 -1.2553471 -0.7889452 1.3949035 0.1792984 -0.684982 1.0078243 -0.54270333 0.8808113 0.7215057 -1.4933261 0.17854469 0.8045551 0.81081367 0.08557621 -0.3198946 0.27224833 -1.2586311 0.8178075 -0.0401859 -0.39043087 -0.3650108 0.22134852 -0.033797447 -0.80780995 0.024860093 -0.5898129 -1.6521058 0.747066 -0.16617891 0.30240443 -0.34728944 0.289378 0.33560717 1.5313537 0.16210538 0.5199903 0.27157038 -1.0004486 -0.36843812 0.009526578 0.16455281 0.4243736 0.5376143 -0.8852711 0.49986234 -1.6515381 0.43796593 0.6762449 0.27361742 -0.99912685 -0.4172281 0.33944914 0.1956454 0.61885273 -0.12168849 -0.5889513
1630 0.6873511 0.5568216 -0.040404797 0.24455464 0.6819981 0.07585267 0.58216786 0.36291787 -0.59448946 -0.5514749 2.4998364 0.14888342 0.042371664 -0.24870348 -0.195167 1.2058994 0.6403531 0.06127964 -0.052947037 0.48593912 0.5278445 0.9408923 -0.43527514 -0.691305 -0.8474933 0.121644266 -1.1135646 -0.6685397 -0.7986172 0.6870095 -0.4533797 -0.23991573 -0.5220863 -0.10824253 -0.113255285 0.15504166 0.19657682 -0.3453681 -0.15353823 -0.08129503 0.608794 0.7010765 -0.5648977 0.36544937 0.03056801 -1.3166614 -0.06635527 -0.061312594 -0.17950676 1.6622365 1.4361995 1.2088752 0.08685778 -0.35510284 0.26043597 -0.6778192 1.6045573 -1.2070026 -0.6617694 1.138994 0.14226909 0.3429433 -1.1266171 -0.6523973
2258 0.5700076 -0.53365904 -0.16209418 -0.04151311 -0.4757653 0.45145485 0.092072934 -0.13429102 -0.7731897 0.69719726 0.012863521 0.016111156 0.12534495 0.6220893 -0.034974128 1.0884856 -0.25638777 -0.7696516 0.29680958 1.6550299 0.814174 1.4910091 0.36773145 0.28722194 -0.7546388 0.23815139 -0.49079236 -0.64198726 0.036137473 0.62985474 -1.6088423 -1.1328901 -0.5980302 -1.273564 -0.82199806 2.01614 -0.157077 -0.54300416 -1.4529995 -0.09992839 0.4748841 1.0447295 0.14821975 -0.48297298 0.47465396 -0.24716982 0.06255699 -1.0742978 0.59876674 0.9505227 0.32808176 0.46486887 0.63594997 -0.2596327 0.7425948 -0.7654235 0.692209 -0.02531356 -0.91611993 -0.29861984 -0.10191321 -0.90122384 0.4506464 -0.56120545
2610 -0.11208205 -0.20298876 -1.0904651 -0.21353105 0.9235401 0.52930224 -0.37701342 1.4732608 -0.83528244 0.7535109 2.026227 -0.72122777 -0.86946845 -0.1456956 0.14178243 1.6544591 -1.5073472 -0.55042243 -0.13988413 1.198467 0.054249577 0.5243527 0.15559664 0.5418795 0.2970219 0.50082994 0.8255759 -0.837344 -0.039301287 -0.31174085 -0.62868625 -0.22234046 0.48270348 0.40603706 -0.3007864 0.5068188 0.6801273 0.27355084 -0.2711317 0.015341704 -0.10132667 0.9396535 0.24092646 0.19612625 1.2000304 -1.0579271 -0.23285627 -0.59424317 -0.16886136 0.25121722 -0.43305856 1.1676466 0.11263474 -1.2171017 -0.14605828 0.24285789 0.51682353 0.56241447 0.6146407 0.9440074 0.24063905 0.31743222 0.99358183 0.36801356
63 0.1891836 -0.33639959 -1.0799882 0.56241363 0.68053144 0.23973498 0.46641576 1.0979564 -0.6607195 0.2836062 0.6381166 -0.41817635 -0.41583925 -0.40437964 0.49055758 -0.0031812773 0.26374096 -1.4395795 -0.6090534 1.0721948 0.5364834 0.49427915 0.049002085 -0.25904655 0.32566372 0.61109674 0.2921887 -0.69541377 0.07195935 0.53750193 -1.6051637 -1.0125425 0.1431715 0.9268264 -1.0947499 0.66133493 0.36841553 -0.14693831 -1.0759114 -0.54058087 -0.02050115 1.3653238 -1.0982399 0.66785854 1.2968135 -0.92096424 -0.23181051 -0.73500425 1.0176706 1.3973491 0.5524876 0.30952784 0.4877414 -0.29500335 0.5405401 0.083427615 -0.16541265 -0.72631246 -0.1893061 0.2585484 -0.16969328 0.2295105 0.22621511 -1.2302573
1726 0.4691016 0.36925405 -1.3593892 0.21984093 0.19191709 0.2225314 -0.115481675 0.13256332 -0.9875093 0.94611144 0.8734017 -0.3193253 0.26524863 -0.9520307 -0.009538958 -0.20315799 0.437969 -0.42234883 -0.3731106 0.30524713 0.9647426 0.73303694 0.39750347 -0.12435796 -1.4514362 0.50691694 0.058258664 0.33346277 -1.4744712 -0.28471226 -1.5949298 -0.42212927 -0.0874808 -0.46784082 0.32045853 0.07172518 -0.4700172 -0.05104033 0.23256548 0.3135307 0.22655487 0.91023827 0.19309452 -0.19128093 1.4013218 -0.4550708 -0.9446504 -0.56780076 0.72969145 1.2125857 -1.0010281 1.2691928 -0.52269584 -0.032261647 -0.30658674 -1.0767746 1.2407534 -0.8882643 -0.29328528 1.1297685 0.73237664 0.50743103 -1.1672949 0.11748749
65 0.13682379 0.3225149 -0.23559362 0.50240093 -0.1213758 -0.038867697 -0.78291196 0.11078508 -0.6734035 0.88124746 0.89355093 0.8505926 0.69947803 -0.4201868 -0.16631642 0.5357735 0.51593083 -0.16117069 0.37697697 0.5294577 1.4758136 1.2881814 -0.19122246 -0.47909182 -1.4577658 0.20706227 -0.3840731 0.117719 0.8303827 -0.6929544 -1.8748157 -0.4430784 -0.18067507 -0.3647403 -0.46036038 0.50639933 -0.064933226 0.2954674 -0.85704076 0.3847938 -0.14724077 0.420664 -1.3921983 -0.28575882 0.97358567 -1.5981896 -1.1032962 -0.10076651 0.0433056 0.22145738 0.19241951 0.32302862 -0.08375128 -1.8474503 0.039258216 -0.8449167 0.5961645 -0.37904644 -0.26259193 -0.4498551 0.3835191 1.4829379 0.66597396 -0.42015702
674 0.4320873 -0.10412386 -0.29901785 1.0389626 -0.19091293 0.70349175 -1.3318294 0.26207426 -1.0805188 0.643273 2.193233 -0.06881887 -0.41605982 0.88931787 -0.2458692 1.4669107 -0.22055434 0.05603229 -0.4817203 0.0722739 1.03682 0.31628647 -0.21930388 -0.15624344 -1.1031495 -0.04979347 -0.23018864 0.32876956 -0.49549642 0.14697975 -0.9292556 -0.3217165 -0.37938783 -1.104064 -0.018766006 0.7583 -0.21864845 1.3422786 0.04369661 0.8980352 0.738366 0.9560641 0.09244228 -0.56119627 0.70224386 -0.4917089 -0.81011075 0.10226585 0.13025849 1.2989753 -0.73899037 -0.32311153 0.25900948 -0.7686932 -0.15559681 0.54595 -0.005799811 -0.8008396 -0.39347392 1.8922516 -0.34879032 0.6390659 -0.08624875 -0.21260534
1646 -0.38132986 0.00012811467 -1.0914937 -0.22404918 -0.61072844 0.047446694 0.8452602 -0.49134445 -0.0008861939 -0.0122697335 1.2613404 0.9767291 -0.97999 0.6531701 -0.40842256 0.8984827 0.5414341 -0.55220634 -0.20991226 1.0213875 0.3971379 1.2801359 -0.5281373 0.22908984 -0.30993438 0.05615244 -0.0418766 0.79718876 0.08545198 -0.33287737 -0.6053388 0.090839155 -0.12012543 -0.9356863 -1.3400329 0.42450705 0.102691874 0.80371606 -0.5607863 -0.18002564 0.65049136 -0.2978805 -0.21551839 -1.1401594 1.0560248 0.18232477 -0.94084007 -0.57296515 1.088729 1.4165076 0.111170836 1.3695114 -1.0139343 -1.1396794 -0.22471222 -0.4421676 0.76309836 -0.54812634 0.02633254 -0.04645704 -0.09556692 1.4106041 -1.5999517 -0.72753423
