3863 64
2124 0.012423093 -0.588295 0.66878545 0.03336884 -0.270508 0.4313037 0.25708696 1.1076194 0.36930743 -1.4583051 0.5896969 -0.44054908 -1.1214371 0.3304296 -1.0887475 -0.09817915 -0.77621394 -0.5404927 -0.67758346 -0.8349445 0.38777056 0.61893463 0.18611173 0.80738634 0.26759255 -0.043885 0.49442348 1.0909551 -0.47527587 -0.57641655 -0.6139053 -0.54866046 -0.20313796 -1.3103546 -0.54462546 -0.5901315 -0.30587554 -0.9782972 0.11776371 -0.58924675 -0.6807007 1.508305 -1.4869587 0.7794816 -0.3122911 0.17600459 -2.31275 1.5424366 0.23033816 0.7337079 -0.5478928 0.35327864 -0.7892226 0.052200973 0.39306286 -0.29692313 0.59408164 -0.95494074 -0.8980538 0.7308729 -0.8924064 -0.24382758 0.67122585 -0.9606234
2305 0.25761575 -0.96279085 0.6513583 -0.7395253 1.0505719 1.077858 0.30578595 1.4136822 0.82369614 -2.266203 0.117900155 -0.37080663 0.14537103 0.33046135 -0.8036819 -0.861534 -0.9907143 -0.24011423 0.8759855 0.9299296 -0.846565 0.20968486 -0.22962795 -0.11793659 -0.03635527 0.7175149 0.42489675 0.3240517 0.1606292 -0.36897898 0.8341492 -0.57715935 -1.5690241 -1.0693156 -0.009035666 0.69923997 -1.1462468 -0.08899026 0.42901388 0.27442864 0.6957636 0.6408011 -0.4203565 1.9334059 -0.45757446 -0.342076 -1.3273138 -1.0351119 -0.7506615 0.39250895 0.4740426 0.61338586 0.13445301 0.59769714 -0.74509054 -0.055832222 0.36216924 -0.43455294 0.4027997 -1.2283431 0.13452385 -0.016715787 0.098931134 0.33067235
2731 0.21498026 -0.09144717 0.73438025 -1.180574 0.43612015 0.5311723 0.43396553 0.3705155 1.6285677 -1.2297513 0.7287329 0.58141875 0.2709165 -0.34968057 -1.3915684 0.031953834 -1.0106256 0.63884044 -0.02562474 -0.36770308 0.35692894 -0.40388295 -0.3461781 0.32173422 -0.43692467 -0.07381892 0.8041111 0.8535334 0.22441517 0.10409005 0.22400387 0.74682635 -1.7019471 -0.7375838 -0.826126 -0.6121284 -0.34987625 -0.14897782 0.78493327 -0.75157684 1.1801251 1.64115 -1.2010549 0.3644987 0.6873515 1.1280352 -1.2010114 -0.067116044 -0.85456854 -0.63649076 0.98606664 -1.0744578 -1.5053855 0.63576055 0.19291109 -0.73165625 -0.032061644 -0.82935226 -0.4407315 -0.9442077 -0.33318225 -0.78410566 1.1751751 -0.5739338
581 0.1729222 -1.5901115 0.40121427 -0.6925227 1.6157827 0.6166261 -0.7641738 0.36991137 1.091051 -1.110118 -0.8631023 -0.35720235 -0.36913964 0.2165893 -0.40084884 0.015454335 -1.6923802 0.2661683 -0.430045 -0.17193252 0.96922463 0.30939218 -0.040754355 0.16302454 0.8247149 0.920228 -0.6086797 -0.037680082 -1.1922692 -0.9023084 0.16167963 -0.9546772 -0.6360582 -0.74835694 1.1304525 0.71565443 -0.79843 -0.1732346 0.94563556 -0.72297716 -0.3086181 0.22698955 -1.1167605 1.5814215 0.26711726 0.33323815 -1.5502901 0.21614887 -0.70080876 -0.27541888 -0.16533637 0.51774865 -0.17232525 0.20380265 -0.14165486 0.09930257 -0.66219676 -0.534673 -0.43073204 -0.7221587 -1.4430991 -0.59125054 0.2229006 -1.1426927
455 -0.0017781568 -1.7747133 -0.55973697 -1.4663719 1.2788453 0.11621037 1.0593587 0.729337 0.43834126 -0.82703656 0.3062049 0.09924804 -1.5425632 0.70664746 -0.481365 0.56350476 -0.66312104 -0.037580363 -0.63592714 0.6701053 0.7724295 0.19327669 -1.2088219 0.94793683 0.12354217 -0.823549 -0.20616522 0.2629968 -0.3781254 -1.2575144 -0.93358785 -0.92503065 -0.58681613 -0.946122 -0.07409079 0.6406325 -0.15819515 -0.7084776 1.1416256 0.4316448 1.3972623 1.4466654 -0.46089196 0.7986432 -0.049616683 1.1358166 -1.5069957 0.3819911 0.38293004 -0.3544448 1.2415277 0.8277373 -0.15704209 -1.1250756 -0.06119978 0.5640435 0.31830558 -0.9019839 0.52620906 -0.19226117 0.2963859 -0.41641515 0.42308044 0.5331706
2340 -0.22222793 -0.8322129 1.3486103 -0.12236195 -0.62106806 0.9916518 0.96393436 1.0286053 0.58670145 -1.5755376 0.10775322 -0.55787444 -1.6671543 -0.17187206 -0.18884666 0.77441865 0.42714998 -1.0790569 -0.6458113 0.8723816 -0.38472334 0.14939763 -0.21239804 0.5305531 1.0611807 0.5777276 0.52080125 -0.14394142 -0.12443738 -0.56927943 0.5300777 0.15663338 -1.9333547 -1.1102171 -0.4452306 0.08620117 -0.04158572 0.49475956 1.0006193 -0.67688656 0.2865777 1.5087773 0.29906365 0.9086441 0.4412984 0.21562035 -1.1275632 0.95140904 -0.3427906 -1.3290654 0.89087594 -0.36702245 -0.69159734 1.2991834 -0.6209361 -0.11062327 -0.48142573 -0.49699873 -0.9060095 0.24466941 -0.9719483 0.11697784 1.853617 -0.11631386
2855 -0.7252465 -1.1849779 1.3178484 0.050321672 0.4634127 -0.6748462 -1.039463 0.58529776 0.7356324 -1.1595154 0.7307128 -0.09856859 -0.16504617 -0.37127373 -0.47371945 -1.1046727 -1.5757569 -0.16483088 -0.18921174 -1.1059676 0.18532905 0.29264373 -0.67704916 1.2336751 0.1394285 0.4541169 0.37164086 0.4081365 -1.1323819 -0.07053796 -0.4928698 -0.91461086 -0.79998463 -0.24222906 0.215657 0.020671247 -0.46057263 -0.84188306 0.8437367 1.1749333 -0.3323736 1.4426985 -0.7794341 1.7457199 -0.7650166 0.6410959 -0.7050393 0.24038407 -0.3259135 -1.1746056 1.5652626 -0.96332437 -0.84882754 0.4314755 -0.8126714 0.4679501 0.7157783 -0.42890474 -0.8370413 0.4349786 -0.26943648 -0.81409085 1.1044843 -0.6577548
885 0.44024852 -1.2114158 0.37267992 -0.8120651 1.0648426 0.03615155 -0.48864594 -0.16857567 -0.09513001 -1.5815036 -0.4110247 -0.9024747 -0.0670713 0.21802838 -0.26657647 0.5465189 -1.5615181 -1.2440025 0.75484025 0.7686371 -0.2089763 1.0227538 -1.2641675 1.2215884 -0.09203947 0.40897453 0.7537955 1.0691377 -0.8767305 0.0511614 0.6470435 -1.108253 -1.8194405 -0.9744994 0.5567521 -0.3414922 -0.5615998 -0.88951665 1.2255495 0.2690733 -1.2057068 0.48466134 0.11256043 0.54258585 0.19481601 0.19161686 -0.95435476 -0.8768403 0.3820761 0.4570473 0.027627392 -0.25651786 -1.1745288 0.13342579 -0.88261503 -0.5688946 -0.07005453 -0.32961017 -0.21285588 0.13233511 -0.8611667 -1.0875539 0.35797703 -0.7785426
2643 -0.31908393 -1.5933701 0.28574434 -1.2277284 0.24659327 0.3553478 -0.56686217 0.29439715 -0.023321033 -1.2890365 0.9887503 0.39469862 -1.260865 -0.45136762 -0.40579355 -0.6662243 -0.8214429 -0.4386874 0.31608823 -1.1470842 -0.52225846 -1.3305043 -0.59987193 1.6042302 0.32185546 0.7050947 0.5454455 0.06252968 0.656317 -1.2670474 -0.72622365 -0.44577837 -0.98829776 -0.39994407 0.0027639472 0.65454316 -0.6060467 -0.64927566 -0.029624473 -1.0294422 1.3223083 1.7177635 -1.3287537 1.0368496 0.8008367 -0.37165076 -1.468984 -0.7715767 0.97057223 0.13171051 0.44885597 -1.5188075 -0.24397503 0.21362801 -0.49526143 0.2500073 -0.7598801 -1.0401855 -0.09025085 0.32896605 0.5862926 0.8422538 1.1220019 0.2770018
1174 -0.3921014 -0.67550606 0.08530715 -0.6100634 1.7610546 0.20945208 0.5133554 -0.08707586 0.6416432 -1.8995233 -0.13383943 0.60372365 -0.8654009 0.2307762 0.3171095 1.2418255 -1.8030708 -0.55059755 0.90498567 0.7323407 0.03710547 -0.766801 -1.0692259 0.58535856 1.695756 -0.33878523 0.39745715 0.5049179 -1.2783886 -0.7889383 0.29676065 -0.26647523 -1.7144694 -0.56073534 -0.23261303 0.5848458 -0.7665875 0.11249736 0.17628355 0.27469537 1.4831071 1.1491902 -0.47181746 0.3432875 -0.1966498 0.3776242 -1.0794315 0.554804 -0.17491922 0.25834057 -0.6265519 -0.9000669 -0.58989173 -0.580881 0.2264145 0.5136401 0.11812372 0.10240425 -1.2003355 -0.05918913 -1.4153048 -0.35875094 0.053233054 -0.7989866
1108 1.0076634 -1.6516901 0.8897324 -1.0132576 0.5246658 1.2097471 -0.086233675 -0.6834449 0.71311945 -1.0259142 -0.69930905 -0.9944513 -0.9881558 0.44248125 -1.2952034 -0.4575239 -0.906486 -1.2974627 -0.78256804 -0.63875985 -0.14454012 -1.0520009 -0.30589002 1.0067858 -1.151789 0.95456254 -0.10819063 0.087113105 -0.70270246 -0.91509825 -0.15566057 0.2909348 -1.510544 -0.51117134 0.27942407 -0.91728383 0.53058434 -0.17925401 0.4462446 0.63434255 0.7610203 -0.4149829 -1.0009049 1.2053385 -0.107228495 -0.6453102 -0.537048 0.081144094 -0.6880682 -0.52029246 -0.29937223 0.34874848 -1.5479083 -0.34028104 -0.58184814 -0.2027756 0.33753204 -1.1843178 -0.2436261 -0.09312793 -0.39889672 -0.9321542 1.7153038 0.28774652
2338 -0.43971306 -0.6652913 1.1357347 -1.5056368 0.031942688 0.23483089 -0.28547958 0.80874693 1.3463697 -1.6384519 0.6325062 0.5363368 -0.2542041 -0.018188883 -1.0873877 -0.062914595 -0.5606937 0.49524626 -0.3371963 -0.56031644 -0.6284148 0.30076435 -0.9074463 1.4332954 -0.45320332 1.1038417 -0.39147446 0.6914194 -0.4881595 -0.8835366 0.061543044 -0.5082006 -1.5174806 -0.3823656 -0.7614737 -0.07307216 0.065677196 -0.7656393 0.35264796 0.18147488 0.877887 0.46185428 -1.6369127 1.0380892 0.87223417 0.50317556 -2.3133264 0.09996497 0.3060917 -1.0090535 -0.61514455 1.0793793 -1.1608636 -0.10852006 -0.13865042 0.68182266 1.006204 -0.7874839 0.08650225 0.55314124 -0.15148874 0.6266434 -0.2445259 0.7170023
2406 0.06145306 -0.6161611 0.7526905 -0.5201408 0.7878789 0.73608965 -0.18820232 0.66828465 1.5825621 -1.7698771 -0.22484368 -1.2922772 -0.85472876 -0.57732016 -1.2545725 0.35303158 -0.18079077 -1.0390335 0.0766497 0.5479404 0.58873475 -0.08188218 -0.4055131 1.389283 -0.6171329 0.5442648 0.5953947 0.38420302 0.22297741 -0.71692985 0.58246154 -0.80074143 -1.490861 0.73115915 0.30714402 0.6665516 0.5212863 -0.5825156 1.0087967 -0.23107696 0.12861116 1.0715294 -0.36341086 0.10886918 1.0702274 -0.5153081 -0.43872318 0.20334883 -1.1071321 -0.39772066 -0.38825583 -0.43945822 -0.48132935 0.70720583 0.00031118764 -0.94339436 0.8736632 -0.068018734 0.17980182 -1.0588505 -0.107982166 -0.46243855 2.2146394 -0.85319734
1947 0.65355885 0.4659503 0.43489718 -0.13810088 1.3433717 0.83340484 -0.10394696 -0.8937412 0.8371687 -0.94397897 -0.2638173 -0.1669377 -1.1539533 -0.17314722 -0.5934276 0.04840554 -1.0514418 -0.29863608 -0.7903687 0.50694007 -0.20630497 -0.39114815 -0.37922326 1.0555319 0.46246478 -0.14985456 0.18583146 -0.8050313 -1.2807298 -1.2118187 0.7931778 -1.0509973 -2.2756457 -0.37080947 -0.4730536 0.064605966 -0.76923347 0.19691874 -0.68404514 -0.019846896 0.14334637 1.0956959 -1.1914257 0.6954793 -0.41575202 -0.7533342 -1.8593187 0.49492344 -0.34889466 -0.9012754 0.4578287 -0.053359684 0.24127722 0.16982934 -0.18428066 -1.092638 -0.8951916 -0.15880509 -0.64559054 0.17731518 -0.16954538 -0.09579859 1.7942761 0.87835515
2039 0.21498413 -0.38479468 1.1621405 -1.0899103 0.35655093 0.2606157 -0.7362776 1.1551471 0.6872554 -1.6967456 0.044964552 0.47576854 -0.5771227 -0.34019047 -0.34704813 1.1730499 -0.7729978 -0.8024954 0.2058786 0.18702391 0.3708467 -0.8243267 -0.9237828 -0.5973731 0.8769306 0.23786126 -0.38058475 0.036555655 -0.012914309 -0.7992793 -0.32020897 0.763118 -0.7285756 -1.1452909 1.2585081 0.41709092 0.23625493 0.5058807 -0.97530204 0.9866761 -0.05392189 1.407309 0.040395126 1.5852617 0.2489019 0.52484 -1.5858914 -0.39379445 0.07542858 -0.100510895 -0.10954294 -0.16511221 -0.044404965 0.1264899 0.11944536 0.021776922 0.4654664 -0.0129315695 -0.17329985 -0.036256168 -0.9589252 -0.79439414 1.0685055 -0.046672847
1697 0.1074806 0.038363356 0.9597824 -0.61404634 0.09624097 0.24429435 -0.18794782 -0.044590972 1.0311911 -1.9515866 0.32340333 0.21123077 -1.138652 -0.8954782 -0.28594625 -0.2606149 -0.79315734 -0.60562724 0.76654464 0.3236522 0.40739995 -0.46581218 -1.1754564 1.0447422 0.30502585 -0.48107386 -0.26655754 0.5928254 0.3783836 0.1491492 -0.9481343 0.6020084 -0.92510915 0.114331685 0.9385454 -1.0752426 -1.7128738 -0.27462012 1.2469462 0.39951178 0.9211646 0.73447955 -0.3063265 0.8744729 -1.1562645 0.05748844 -1.9000114 0.063375354 -0.6682618 -0.6821769 1.1119338 -0.72303617 0.6694841 -0.91255665 -0.42031178 0.7757523 -0.23701322 -0.5368615 0.261088 -1.1601988 -0.2515969 -0.2903897 1.7359318 -0.31342256
1871 -0.290038 -0.8947022 0.38995486 -1.3502028 1.1630948 0.5276422 -0.82372797 0.32242435 0.92321646 -1.0763998 0.63271564 -0.29493746 -0.74891555 -0.38774812 -1.7073283 0.3685793 -1.02707 -0.47325346 -0.87185353 0.8265376 -0.32058054 -0.7791631 -1.2311026 0.16498932 -0.612146 0.8578679 0.32005754 0.07428712 -1.4103715 0.03530477 0.51547706 -0.69850624 -1.258146 -0.33410403 0.45096022 0.5626844 -1.1564336 -0.8473547 -0.15056883 0.031675916 -0.6753145 1.372698 -1.4134113 0.59340304 0.02204373 -0.15252298 -0.64340687 0.8800023 -0.5579997 0.68020695 0.47196934 0.19023617 0.0011744701 -0.67652565 -0.6284376 0.35003668 0.6046075 0.7661682 0.9004556 0.40813482 -1.3543844 0.14752859 0.6116642 0.37549308
2100 1.0803838 -0.1309709 0.8798806 -0.37797844 0.95101 1.0236735 -0.79339963 0.2795023 1.6594819 -1.1512655 0.3857304 -1.0454341 0.3056341 0.46052438 -0.60187966 0.24862894 0.041757777 -0.6779465 -0.21809722 0.6131205 -0.29880142 -0.6308718 -0.12986726 0.73572737 -0.12323952 -0.3028589 1.348287 0.22583252 -0.40471306 -0.81357807 -0.77812666 -0.97323 -1.5350513 -0.9588375 0.09355717 -1.3629862 -0.9125582 -1.2469496 -0.40190744 1.3133714 0.27146778 0.91444993 -1.1188294 0.14624241 -0.21477593 0.3636919 -1.0391124 -0.08515074 -0.08831525 -0.31167695 -0.85956824 -1.0826101 -0.89115566 -0.27872157 0.10164388 0.5849403 0.2642892 -0.5131524 0.4966443 0.009524112 -0.8888149 1.0263027 1.0741959 -0.74064654
1361 0.88229614 -0.075837314 -0.008857223 -1.2657309 0.69916046 1.2372836 -0.3483993 0.36856824 1.1008121 -1.2233663 -0.17546324 -0.47157997 -1.7144235 1.0545663 -0.19383816 1.5645666 -1.4264785 -0.39808246 -0.7742686 1.0209464 0.8778794 -0.15962262 -0.77568966 1.2421945 -0.16230565 0.4258564 0.42118534 -0.38309088 -0.44829604 0.3890319 -0.8875227 -0.61708266 -0.19669347 -0.87316155 -0.33895642 -0.5080961 0.39978674 0.21886033 0.3696126 -0.68190765 -1.123162 0.92902255 -0.1089232 0.6118134 -0.44456804 0.1682195 -2.0389464 -0.31289467 -0.15879725 0.06407753 1.2742903 -1.0317992 -0.39174145 0.8577294 -0.8460685 1.2309498 1.0251186 -0.8838461 -1.0822098 -0.8421365 -1.0812144 0.020246904 0.41008124 -0.91237336
272 0.38518256 -1.0318668 1.0476924 -0.9248679 0.42631733 0.7516128 0.24627557 1.0838368 0.52498615 -1.472763 -1.024301 0.76677006 -1.3253325 0.92665064 -0.99674034 0.46221298 -0.34452134 -0.43989757 -0.13864122 -0.52652186 -0.1822432 -0.8394347 -0.61091477 -0.013748565 0.14299178 0.12975572 0.1802526 0.2611594 -1.5106944 -0.41188034 0.5312763 -0.5748414 -0.63316524 -0.13592067 0.9421809 -0.102570586 -0.64264816 -0.8499754 0.92006695 -0.42307785 -0.2478077 1.4942175 -0.017279498 1.9225852 -0.40190506 -0.11563758 -0.6363564 -0.090750605 -1.2903637 0.17089948 1.3772826 -0.2825392 -1.4523253 0.54525656 0.4406137 0.013410924 -0.1506339 -0.92072934 -0.24860519 0.5291704 0.17316516 -0.8836029 0.17244913 -0.47066835
2550 -0.5911659 -0.35810298 0.74000615 -0.18623355 0.23991667 0.7442117 0.6486079 0.43277267 0.34422457 -1.2470002 0.07734608 -0.9186049 -0.6260554 -0.41824943 0.025842307 0.30840135 0.023209952 0.4467962 0.43775982 0.78397685 -0.69553876 0.45668933 -1.3595226 0.7565756 -0.46062645 -0.07463901 -0.16722596 -0.21591829 -0.6594168 -0.36294538 -0.88768995 0.32128024 -1.5696371 -1.3160866 0.9183318 0.5844621 0.5474668 -0.36067018 0.5669433 -0.29597494 0.74416965 1.13565 -0.20678797 1.7619951 0.28137136 0.7789905 -2.2288222 0.1259838 -0.35998943 0.8795658 1.1804116 0.24665602 -0.04797057 -0.48712185 0.18750468 -0.43649593 -1.3005346 0.22061136 -0.38318342 -0.6280237 -0.8027605 -0.8198537 1.0586823 0.09824741
1695 -0.51843745 -1.8163393 0.028996464 -0.9466383 1.1634476 0.6170372 -0.1204227 0.08537388 0.7240205 -1.0857759 0.210579 0.2835142 0.020785583 -0.84508616 -1.278374 1.1450838 0.17515473 0.60490674 0.5355972 -0.2171858 0.22541362 -0.76831996 -0.6327044 1.7877479 0.5266781 -0.16277204 -0.10197386 0.4949835 -1.2237155 -0.7037238 0.67237586 0.7376295 -0.9861312 -0.1646878 0.05743081 -0.6565517 -0.7256308 -1.3030823 -0.20464052 0.73495173 0.24469838 1.3966233 -0.11072885 1.7000337 0.45908636 -0.38917163 -0.0704437 0.7386819 -0.07614171 -0.32647598 0.13545685 -0.27283692 -0.6217963 -0.020730438 -1.0851091 -0.1839157 0.76180136 0.16996107 -0.5893233 -0.6570876 -0.6286117 -0.38685665 1.4016858 -0.34183833
787 0.5866235 -1.199353 1.0916202 -1.7787132 0.0023944585 0.81520706 0.0434611 1.1263325 1.55394 -1.3297101 0.36485678 -1.4537799 -0.3153184 1.0555153 -0.48260316 -0.5682347 -0.90541977 0.34839684 -0.67607296 -0.33791444 -0.8171442 -0.862014 -0.78769696 0.52981657 -0.19034562 -0.041033793 0.39750788 -0.16209538 0.49718726 0.07402445 0.17357968 -0.09431706 0.034729876 -0.46485436 -0.5478687 -0.05158585 0.21543619 -0.61006117 0.117035784 -1.6468515 0.16694877 0.67499125 0.04911143 1.4777888 0.18934843 -0.6528525 -1.0289588 0.45681188 0.4572733 -0.23788437 1.2336508 0.44034946 -0.27569446 -0.3698229 -0.7506793 0.49647146 1.1260605 0.03317422 -0.052261136 -0.110484436 0.025632855 -0.4344508 1.0886053 -0.7443566
406 1.1601905 -0.99823636 -0.17436805 -1.5930917 0.8481254 0.9847427 0.4533699 0.43190035 0.13428803 -1.088356 0.17624998 -0.93874305 0.04181724 -0.22661264 -0.14067996 0.46765524 -0.8593975 -1.451395 0.41003245 0.21825641 0.615279 0.07217227 -0.60547704 -0.42557016 0.51443833 0.45688662 -0.5135032 1.3319781 -1.0157039 0.18018414 -0.021490157 0.4058413 -1.5894864 -1.1016399 -0.51426184 0.116846554 -1.2346395 0.3916457 -0.43934473 -0.7165933 -0.1891165 1.4452221 -1.2539688 0.5993287 -0.32204252 0.5738858 -0.7582351 0.38288897 -0.17432022 0.48980337 -0.36887667 -0.8059057 -1.6566371 -0.45355737 -0.54690623 0.0861153 0.40384287 -0.7128627 -0.28272438 -0.4639681 -0.6829493 0.08723802 0.8286916 0.50326866
651 0.78435606 -1.4350452 -0.41083935 0.29892638 1.4623466 0.60076904 -0.5540014 1.0673393 1.413888 -0.6786587 -0.37369102 -1.2208829 -0.70786345 -0.7590266 -0.9672942 -0.81297076 0.15301464 0.70173717 -0.26597017 0.40758526 0.50755817 -0.7537168 -0.46711248 0.9839709 0.51407444 0.020960052 -0.1943362 0.014207203 0.63072896 -0.7303626 -0.09388021 0.10648271 -1.0728112 0.013849196 -0.24556123 -0.37757626 -0.48597726 -0.6354996 1.0465087 0.33138567 -0.057859547 1.4497297 -0.84146976 0.8215542 -0.67808944 0.24244618 -1.670751 0.67200613 -0.63616335 0.24154644 -0.20426778 -0.9326775 0.5576421 0.68309915 -0.85793406 0.1320429 -0.6568638 -1.0209614 -0.8279303 0.30847496 -0.26240838 0.91211873 1.7590431 0.4344635
611 0.7935501 -1.0033534 1.0603242 -0.08970126 1.2407235 0.5392823 -0.21442369 0.53265685 0.90390086 -0.44979775 0.03544746 -1.3032181 -1.0005845 0.5564827 -1.4648226 0.9987295 -1.0846963 -0.3289674 -0.6148281 -0.36362416 0.5791158 0.5563569 -0.81256574 1.029753 0.16128252 0.6443136 1.1566688 -0.64738065 -0.38911527 -0.3427771 0.73888177 -0.6584971 -0.14559296 -1.0942706 0.28667757 0.90243083 -0.038085952 -0.8223895 -0.6398197 -0.63697076 -0.0020478312 0.045644823 -1.1603259 1.7190202 0.809542 0.53040445 -1.611529 -0.22904591 0.54266226 0.59123534 -0.42093804 -1.1045246 -0.26147038 -0.279058 -0.22342516 0.017125916 -0.683481 -1.5332457 -0.7621955 -0.1523356 0.34997818 0.25521085 0.5992808 0.058515485
1212 0.21614893 -0.37602866 -0.296362 -0.617457 1.1600791 1.693776 0.74539906 0.96011627 0.86670804 -1.4919913 0.2715213 -0.39740887 -0.23337033 -1.0526652 -0.13528639 -0.04720287 -1.061224 -1.4017452 -0.7853006 -0.0328125 -0.80927473 0.4460538 -1.8205352 0.28558728 0.06454493 -0.42589888 0.8689394 0.63368016 0.8272044 0.24416134 -0.7813361 0.39883402 -1.0567689 -1.2489179 -0.39809218 0.8711716 -0.31674924 0.2605864 0.32740095 -0.6636077 0.94093376 0.35092098 0.18296644 1.1694429 -0.5973094 -0.06020253 -1.4148035 -0.5028248 0.3640926 -0.86085117 0.66681314 -1.3820139 -0.31701404 -0.22483155 0.25137636 -0.7649321 0.5251604 -0.6679323 -0.06300574 -0.43449888 -0.72096086 -1.3350916 0.56223285 -1.0074729
201 0.3051906 -1.1620878 0.7417858 -0.87310517 -0.14526719 1.0909548 0.4548881 1.100694 0.28241962 -0.81923056 -0.06741029 -1.08629 -0.27094012 -0.7162573 -0.20482673 0.47277227 -0.82960755 -0.7705785 -0.22738114 -0.13607734 0.50417286 -0.21527678 -0.34080547 1.817624 0.8776806 -0.035210166 1.5075217 0.39060128 0.6598884 -0.09433587 -1.012806 0.37893414 -1.5242014 -1.205081 -0.59006613 0.11486029 0.23432507 -0.15291378 0.63534874 0.53472394 1.3801731 0.69008076 -0.36517638 1.1084261 0.3375508 1.178248 -0.6464443 0.989205 0.39423403 0.40858242 0.70593154 0.024280462 -1.1975219 0.49141687 -0.5885866 -0.016838666 1.3864809 0.34203556 0.5588467 0.28385502 0.2971766 0.15203223 1.7867686 0.1916029
332 0.92515916 -0.7969316 1.6345179 -0.14523377 0.7497836 0.41132602 0.0034877923 -0.2643496 1.6804408 -2.438559 -0.49799758 0.029779071 -0.17421146 0.16210207 -0.37836146 1.1732947 -1.4004934 -0.62897974 -0.080148876 0.1197966 0.32960415 0.380166 0.5742815 0.81646466 -0.43866324 1.0692362 0.8937223 0.87282306 0.14303173 -0.6474142 -0.35661858 0.20338666 -0.09622733 -0.86510026 -0.43489978 -0.13968283 0.4928429 -0.90786564 1.1945173 0.5198548 -0.42096752 0.81698495 -0.57541335 0.8899754 -0.14059816 0.8172897 -0.3986428 -0.05137486 -0.70250756 -0.6689361 0.5141487 0.5999179 -0.6760642 0.60738957 -0.9188396 0.4859128 0.91711414 -0.39255813 -1.024553 -1.0561752 -0.98246855 0.06435203 1.0013689 0.052945193
1216 -0.5143346 -1.0644509 1.4026273 -0.33325553 0.7964457 1.9272783 0.43778667 1.0413336 0.56442714 -0.15837479 1.1504278 0.9106831 -1.1316345 0.2120772 -0.3380785 0.0035273074 0.07729122 -0.45054418 0.5881808 -0.17843997 -0.14411528 0.028536147 -1.8899863 0.277113 -0.5887978 0.013291278 0.3708221 0.94944227 0.6272824 -0.6472557 -0.21673642 -0.600045 -0.91334164 -1.5666658 0.5195423 -0.4992721 -0.6520867 0.14731877 -0.12928098 0.52346116 0.59074634 0.46045208 -0.34490877 1.589066 -0.023045763 0.96197593 -1.1955425 0.5433875 -1.2781241 0.7136386 0.9610938 -1.1580672 0.074920975 -0.26362178 -0.52084625 0.33640265 0.8201535 -0.5303149 -0.104754485 -0.012982099 0.02674416 -0.33479 0.50794655 -0.40313503
2540 -0.58223546 -0.034859817 -0.5820983 -0.515931 0.0021922917 1.4334487 -0.14163975 -0.5949648 0.67370796 0.041452304 -0.6134474 -0.87875426 -0.40028232 -0.06687107 -1.0858562 0.862143 -1.2402061 -1.1532843 -0.18786116 -0.3092867 0.12769945 1.2080636 -0.42558944 1.3300935 0.34845984 0.13019247 0.64755964 -0.21357027 0.5602711 -0.23719217 -0.94325733 -0.6971775 -1.5618397 -0.9952392 0.48589227 0.32226077 0.06537339 -0.47057444 0.07642227 -0.32011223 -0.14514643 0.2648561 -0.82215524 0.955149 0.30640852 0.4895932 -2.4150605 -0.08176253 -0.5688047 -1.2846661 -0.30124396 -0.14780918 -0.6298237 -0.65074354 -1.2845858 0.28360382 -0.12518613 0.87377614 -0.57469016 0.09664606 -1.1483909 -0.55797666 1.5490407 -0.1413104
1110 0.953226 -1.1195661 0.7269744 -1.3939517 0.73884094 -0.14112522 -0.22738107 0.7584992 0.4003611 -0.16055071 -0.964095 -1.2185907 -2.108621 0.66660285 0.04294852 0.8197268 -0.6044672 0.27795762 -0.4632741 0.49168748 0.09159248 0.016932175 -0.9322815 0.99375397 1.156431 0.019814268 0.7287814 0.7409857 0.059946656 0.12924519 -0.1884087 -0.47594038 -1.3555437 -0.16828649 0.119964905 -0.4280807 -0.24167493 -0.25122404 -0.4336949 0.8683202 -0.27952605 0.7620912 -0.28794992 1.7014362 -0.777545 -0.12810352 -2.0009027 -0.5817404 -0.17587063 -0.2788995 -0.41280982 0.08223696 -0.2565153 0.8589862 0.21198809 -0.24483564 0.25895736 -0.36336306 -1.3134404 0.6085519 -1.205561 -0.84426886 -0.00015967118 -0.31539556
275 0.23099728 -0.49772096 1.0756712 -1.025692 0.63191617 0.046138924 -0.61397696 1.0411015 1.0094196 -1.4756749 -0.5770092 -0.15757984 -0.79965216 0.6894642 0.40962842 -0.94698554 -1.6306027 0.67620456 -0.32118362 0.0823539 0.4032543 -0.40360442 0.03786306 0.6048268 -0.9628395 -0.2536654 0.7412075 1.5716637 -0.39579672 -0.25258285 -0.6836013 -0.1743871 -1.3469219 -0.53543854 0.3483435 0.07437382 -0.6962152 0.59479386 0.07528637 -0.47359324 -0.55371493 1.3307562 -1.036864 1.4338397 0.0059974752 1.0975242 -0.99198943 0.25192884 0.22268482 -0.06669421 -0.67785436 -0.38917688 -0.32274184 0.12113082 0.17686494 0.86334074 -0.98509926 0.4472536 -0.7877088 0.10908353 -0.18837309 0.49176344 1.3564736 0.37842268
399 0.49747002 -1.2045575 -0.6287857 -0.57270557 1.0588021 0.69351923 -0.016617259 1.067491 0.94776344 -1.0492773 -0.61216956 0.48727995 -0.6928011 0.42800546 -1.1496133 0.7590068 -0.71287173 -0.46318462 1.1065266 -0.5532176 0.08535185 -1.0763263 -0.60087335 0.08071647 0.102703966 -0.20793217 0.078835554 -0.34139228 -0.14663582 0.26231498 0.628036 -0.45294008 -1.4033579 -0.9647385 0.34537232 -0.5625063 -1.6240884 -0.03716049 0.4488066 0.46913087 -0.8586685 0.82616836 -1.0034661 0.5593481 -0.0119114565 0.024798332 -1.7698401 -1.1995225 -0.8844805 0.29578424 -0.7026395 0.039249778 -0.68105954 0.12415133 0.0039048113 0.29478693 -0.24400897 0.8507216 -0.4445834 0.033463493 -0.52423316 -0.8089129 0.72227037 -1.0951605
205 -0.20537587 -0.45640984 1.2307614 0.094087034 0.06786494 0.364361 -0.15877418 -0.2827674 1.1910269 -1.3153683 0.061503004 -0.55677986 -2.0072286 0.9913158 -0.06179473 -0.469715 -0.6893876 -1.1172613 -1.3274488 0.026867762 -0.2555407 0.6337857 -0.71662813 0.5962229 -0.79932374 0.14851262 0.33861881 0.7426663 0.49931395 -0.68504995 -0.8548095 -0.25015882 -0.9471101 -0.6428954 0.29409584 -0.8312767 0.2425562 -0.45715764 0.9379674 0.27414817 -0.29765558 0.8736528 -0.4348374 0.5477699 0.030552797 0.63589907 -1.546806 0.63911283 0.38372034 -0.11157816 0.9857399 -0.23645344 0.61608374 -0.17312776 -1.4431183 0.8007438 -0.7909199 -1.1891928 -0.48388574 -0.71179736 -0.16363688 -1.1777191 0.4904405 0.044738956
543 1.0743178 -0.9468883 -0.55655 -0.6171338 0.45102632 0.2134577 0.21158375 -0.06252211 0.18452758 -1.5052025 1.0022303 -0.23054351 -1.2243079 1.1120492 0.046491444 0.8779774 -1.1369 -0.82067597 -0.23709841 -0.12888274 -1.3106291 -0.5300532 -0.98587245 0.65187776 0.796679 0.6813712 -0.02037526 0.32725602 -0.07159587 0.25447348 -0.5182653 -0.37929156 -0.69602346 -1.7447389 -0.27253553 1.0554607 -1.4693686 -0.4370216 0.5549654 0.80920804 -0.17086536 1.4856764 0.26312453 0.799348 -0.44044137 0.8720028 -0.60529274 0.2743865 0.34399307 -0.232042 0.31673926 -0.71686673 -0.7909438 0.524988 -0.14192489 -0.98499745 -0.26839072 -0.5148474 0.18159258 0.6551668 -0.46976382 -0.95586336 1.577998 -0.9416704
2778 -0.3195836 -0.80258477 -0.38395974 -1.2555478 1.1776241 0.29893568 -0.6660221 -0.05389927 0.8210863 -1.1881785 0.69668776 0.09122357 -0.7225488 -0.8418277 -0.14602593 -0.20663346 0.09929832 -0.33387205 0.07300475 -1.174752 -1.0405449 0.8153977 -1.1899488 0.6343849 0.6577738 0.43587914 1.2476217 0.26545846 -1.2264662 -1.0121031 -0.14561296 -1.0795004 -0.48366553 -0.4319104 -0.59389865 0.70967895 0.4618466 -0.29540092 1.0106914 -0.9767521 0.05677904 0.49546978 -0.8427424 1.2203091 -0.38803506 0.336259 -1.8117837 0.3207452 -0.11689648 0.57373965 -0.14842458 0.51764596 0.057764895 0.6473019 0.0075392043 0.008779929 0.056251917 -0.4355879 -0.24698135 0.41846356 -0.5199529 0.9227769 2.1100929 -1.3393624
779 0.6006913 -0.39398426 0.96811414 -0.90372086 0.5984124 -0.09582891 0.50590247 0.6115758 1.2175217 -0.6026411 -0.1266345 -0.035650328 -1.1370949 -0.22972879 -0.78050834 0.17792511 -0.8110377 -0.23681603 -0.9188665 0.39031935 -1.1936774 0.2600408 -0.2857352 0.094040535 -0.41028368 -0.5518688 -0.1122016 0.5426345 0.54985064 -0.33974493 -0.09729368 0.34878612 -1.348127 -0.19463582 0.37341326 -0.16715808 -1.1617596 -0.94390637 1.3579146 0.4749846 0.12800857 -0.08556078 -0.18240097 1.3852361 0.3044023 0.8964082 -1.4981331 0.7482144 0.17437129 0.51747453 -0.7707099 -0.7701203 -1.9054102 -0.31151664 -1.2793157 0.51712257 -0.7008387 -0.64888644 0.74499613 -0.43971536 -0.76207596 -0.46102443 1.1293329 0.6160413
244 0.62942815 -0.4785421 -0.059654772 -1.1219447 1.4625369 -0.46658632 0.5712392 0.12289276 -0.0691302 -1.6590867 0.49950573 -0.21553378 0.3748403 -0.14556532 0.56626105 -0.06368617 -0.38780692 -1.1775795 0.14336304 0.9142752 0.051925115 -0.029361023 -0.6837863 1.2388008 0.91118777 0.66004664 0.8216775 0.9768518 0.3405072 -0.14961265 0.21495369 0.2562655 -0.5977651 -0.5332737 -0.4617556 -0.98759776 -0.7243117 0.75236946 -0.5356579 0.10798369 0.1768227 1.1381973 -0.78102547 1.9708191 -0.06711151 0.946188 -1.679563 -0.03871945 0.68480754 -0.43023652 -0.43341467 0.48021594 -0.33994663 0.037189428 -0.9890081 0.78970397 -0.12346 -0.021451464 0.47409955 -1.1494304 -0.3718884 0.458712 0.93473136 -1.062213
401 0.3772893 -1.3600417 0.96179026 -1.6979648 1.1973691 0.85532355 0.19256885 0.17494941 0.8143404 -0.7683027 -0.28912327 0.4415475 -1.0991021 0.08277483 -1.3839918 1.0281694 -0.83871007 -0.7111934 -0.65314734 0.43778896 0.643899 1.1770732 -1.0374615 -0.32330072 -0.30400354 -0.10972801 -0.42891267 -0.15275566 -0.2806438 -0.08760461 -1.4107908 -0.27087796 -0.96576613 0.34116372 -0.039409388 0.16235097 -0.33801216 -0.88728666 -0.7582355 0.7154029 0.39318347 0.7808374 -0.3234566 0.39373437 0.39291438 -0.111174785 -0.63043976 0.31464922 -0.31423163 -1.8090752 -0.13448788 -1.1930038 -0.78521955 -0.578699 -0.8020867 -0.1084615 -0.4925335 -0.4612122 -0.22240739 -1.1316164 -0.7045997 -0.25162208 0.81004924 -0.26234362
2408 -0.059534878 -0.82476497 0.6762363 -0.029534645 1.1576138 0.64490473 0.47560817 -0.264539 -0.15221739 -1.6410018 -0.86941123 -0.81102675 -1.0626354 -0.5123772 -0.4542765 0.5549466 -1.2912557 0.3859086 0.13754779 0.39664662 0.36083794 0.58399767 -0.5274051 0.6538472 0.56609607 0.3787336 0.7511821 1.370588 -0.22256204 -0.28259987 -0.73904777 -0.6679152 -0.48730195 -0.7305498 -0.4104962 -0.85353535 -1.0850973 -0.008555928 -0.1318973 0.37799498 -0.2837062 0.13294755 -1.1815655 1.4972513 0.673645 0.5678322 -0.26086104 0.25111815 -0.75299037 0.12535301 -0.45589066 0.63568527 0.31577787 -0.115349695 -1.134965 -0.043191753 0.6638247 -0.8487032 0.077462316 -1.0276914 0.39200473 -0.12408633 1.7176201 -0.7748125
615 -0.7391152 -1.6834475 -0.07341029 -0.47718328 0.7160564 1.715368 0.05694907 1.173243 0.9031282 -0.8355084 -0.19508556 0.6737632 -1.7286292 -0.027787391 -0.70417964 0.07347288 0.35429642 -0.57208973 -0.22937502 -0.15514873 -0.68494797 -0.46618408 -0.43011504 -0.056481782 0.90116227 -0.04450909 0.7543186 1.0419838 -0.70985734 0.26524878 -0.41252372 -0.4017329 -0.7418925 -1.2082182 -0.8189567 -0.29003552 -0.3273431 -1.1758317 0.26909292 -0.17990516 -0.8907906 0.5260255 -0.006630899 0.6286489 -0.95261145 0.5943916 -1.6323365 0.35575002 -0.3918413 -0.11540036 0.17400523 -0.6509951 0.3229545 -0.11925283 -0.76782244 0.51962805 -0.3697447 -0.009111682 -0.4532966 0.98087925 -0.7130756 -0.8408198 0.6092772 1.0543197
2545 0.27388147 -0.99376696 1.1933236 -1.0473329 0.8603553 -0.12791361 -0.85437816 -0.41710612 1.3469285 -1.6976621 0.57835394 0.19731836 -0.15224417 0.70199084 -0.71298116 0.40710244 -0.030559173 -0.8548613 0.39546835 -0.5455444 0.3374507 0.20617324 -0.5682273 -0.31784397 -0.054918475 0.40395102 -0.20931381 -0.3182359 -0.12526494 -0.910757 -0.27570522 0.39140457 -1.3094981 0.38895997 0.20842257 0.15395106 -0.7805051 -0.9982222 -0.6089626 -0.45145968 -0.8576476 1.046078 -0.17992654 0.56801593 -0.70543134 -0.928511 -2.381604 -0.78854614 -0.29465303 0.32692254 0.87575257 -0.23968819 -0.850833 -0.5912237 -1.5597136 0.024025043 -1.0484937 -0.41772082 -0.69386834 -0.12446632 -0.4495849 -0.14612062 0.7575573 -0.7687628
1260 0.5124295 -1.5538993 0.646527 -0.2739983 1.3193332 1.0140389 -0.55688107 0.6038611 -0.12320608 -2.3908262 -0.0945742 -0.1490147 -0.67880595 -0.020550802 -1.2197059 -0.02245642 -0.5426634 -0.9954164 -0.23146977 0.3827018 0.30754298 -0.8781062 -1.7289698 -0.39973468 -0.45236152 -0.4098403 0.10124465 -0.47435656 -0.46892038 -0.40735725 -0.06630133 -0.19126323 0.02506478 -0.7731628 -0.4133534 -0.5813225 -0.06936141 0.10475898 0.82873046 0.283001 -0.058307312 -0.09315491 -0.354052 1.5715395 0.63539356 0.49703756 -2.3938005 0.26072347 0.54047954 0.03835906 -0.5746683 -0.065826565 -1.373666 -0.24983498 0.19742024 -0.28969797 -0.026877683 0.16693349 -0.43793133 -0.009836132 0.09377501 0.52729857 -0.47254685 0.08730306
1482 1.3137798 -0.21968423 0.7179824 -1.303958 1.3175149 0.40921965 0.8307027 0.8601791 1.0579718 -1.5502886 -0.15464517 -0.25831443 -0.27199343 1.1595421 0.07830349 0.28199464 0.09235344 -0.60930926 -0.7498821 0.043297768 0.48630843 0.2236343 -1.432332 0.15590619 -0.8864807 -0.0070380815 0.7960893 -0.47665808 0.009436793 0.8769169 -0.56656224 -0.9449532 -1.0256572 -0.3862929 -0.691487 -0.84304065 -0.9036884 -0.76832175 0.08400092 -0.5277248 -0.4470383 0.6645009 -0.79193294 1.8863912 0.40383446 -0.4663237 -1.3324928 0.70670366 -0.8785746 -0.7246101 -0.05245208 -0.5646173 -0.3320134 0.5683459 0.09371345 -1.1343265 0.19917504 0.24727938 0.15867113 -0.8005567 -0.32738507 -0.24296562 0.2219039 0.28071296
4 0.3684892 -1.9656214 -0.1499123 -0.2770396 -0.20209666 -0.073881246 0.42237708 -0.04108604 0.2864393 -1.3265936 -0.15436433 0.14623347 -1.4336193 -0.46172187 -0.77356046 -0.043145496 -1.24196 -1.2942456 0.91525084 0.6868076 -0.387327 -0.93651074 -1.0799656 0.6391029 0.7865238 0.21274742 -0.07388217 0.54306525 -0.8411969 0.060825896 -0.7348148 -1.0408934 -0.6177876 -0.011817609 0.464881 0.013576014 0.51133233 -1.313236 -0.23229934 -0.6899566 -0.081534944 0.69252324 -0.77244663 0.41163415 1.4389248 0.5537106 -1.2682558 0.977763 -0.18863659 -0.49632517 -0.090541735 0.35097957 -1.0837042 -0.30213365 0.77222174 0.15318683 0.37366548 -0.47133785 -0.27737728 0.64253396 -1.6109186 -0.35750425 0.9477095 -0.24631539
740 0.15822487 -0.26044214 -0.6228781 0.51141256 -0.027608432 0.106007434 -0.008270539 0.6376525 0.19764656 -1.0227994 -0.41542056 -0.81291145 -0.023327125 0.9349859 0.0013612504 0.33223915 -0.39848334 -1.1647927 0.41993544 0.9763084 -0.0935827 -0.23683822 -0.8206562 0.4085978 -0.21823949 1.0169193 0.33711463 1.2741058 -1.0820402 -0.6711461 -0.2421107 -0.8954523 -0.92780226 0.4265249 0.2162286 0.21639587 -1.117026 -0.3643481 -0.22160985 0.6324119 0.22629645 1.4139457 -0.8298672 2.0862465 0.19165088 0.32472813 -1.2043457 1.4120641 0.2660499 0.42714038 0.827606 0.3580343 -0.3534154 -0.48742723 -1.0519997 0.24516195 0.54853153 -0.5473593 -0.15903707 0.6481123 -0.82819414 0.053666547 1.6558758 -0.0260947
2170 0.50217474 -1.1608564 0.07402627 -1.5909609 0.30527425 0.24409215 -0.0595496 -0.47909164 0.45100275 -1.9006976 0.2398057 -0.76933724 0.21784982 -0.37045324 -0.4727893 0.3569893 -0.31967068 0.11174889 -0.27584893 0.13740245 -0.7131888 -0.86551684 -0.12740074 0.18750614 0.61042434 -1.1352538 1.6440393 -0.28974378 -0.027001185 0.02608004 -0.2556187 -0.19221298 -1.1643072 -0.7704966 0.32471344 -0.15412316 -0.868256 -1.1565452 0.901194 0.401753 0.2626595 0.40976173 -0.61839014 1.4776798 0.24594004 0.43715814 -1.6141438 0.10610468 1.006111 -0.8763217 -0.55535966 0.27380207 0.09278237 -0.51350236 0.1934272 -0.1534334 -0.35356876 -0.3869252 -0.7112357 0.44563946 -0.4588556 -0.9847271 0.6459135 0.10075986
203 0.8095782 -1.1712219 0.7657162 -0.75291544 0.24074365 1.0245699 0.14506567 0.1597341 0.5657862 -1.9854099 -0.07339935 1.0672858 -1.1311635 -0.4692408 -0.7008921 -0.048346315 -0.5548123 -0.43660393 0.09293305 -0.03956641 -0.0399749 0.2561299 -0.47786993 1.2102582 -0.71864295 -0.28299737 -0.8624544 -0.36665457 -1.235903 -0.96700686 0.66545963 0.12907647 -0.78058624 -1.334495 -0.30986217 0.045486514 0.42425847 -0.80661994 1.1474367 -0.35612813 0.28934556 1.4176182 -0.4261751 1.1177248 -0.2935168 0.1379967 -0.97648597 1.0715204 0.3486058 0.04718132 0.24544625 -0.25563672 0.55393565 0.54522294 -0.51809984 0.8397662 -0.7556751 0.65540636 -0.048879646 0.63313854 -0.17450419 -0.2988749 0.790333 0.37735033
1308 -0.17873274 -0.84257126 0.13201173 -0.5218893 0.5997174 -0.5429936 0.6430864 0.62168753 1.2521459 -0.87564516 -0.19855069 0.15087119 -1.242836 -0.94562817 -0.076774746 1.4878733 -0.0030335921 -0.6941895 -0.48345113 0.21561731 -0.64615315 -0.5358395 -0.38122484 0.86864966 0.7976488 -0.10155787 0.16546467 0.45895404 0.75567645 -1.1040142 -0.0035923878 -0.7056475 -0.872379 0.37371087 -0.6392456 -0.12880494 -0.7489086 -0.53195703 0.85378885 -0.06321105 -0.029451812 0.35240874 0.4461259 1.8837605 0.98487794 0.16680887 -2.046758 -0.27498546 -0.48951116 -0.079468444 -0.3372371 -0.41090548 0.026596714 0.512562 0.10093895 -0.45890495 -0.26193294 -0.6017252 -0.27419287 -1.0019807 -0.973571 -0.20501819 0.7174918 -0.96062887
1189 1.3929106 -1.2669507 -0.106075265 -0.19368863 0.6226313 0.64010656 -0.603963 1.33804 1.6825744 -1.6367015 0.44050795 0.2808549 -0.66095555 0.2709917 -0.38684916 0.8424152 -0.70961577 -1.2539757 0.36984318 -0.13198861 0.19538374 -0.00080202403 0.21377453 0.771417 -0.09879808 0.411308 1.3500082 0.7783572 -0.28695542 0.5575248 -0.1889526 -0.73226124 0.15177582 -0.6545642 0.56978756 0.05304741 -1.1504531 -1.1486064 0.29738048 -0.3094519 -0.6386402 0.37552974 -0.55449975 0.7646856 0.59516126 0.102005206 -0.61114347 -0.39552253 0.40613756 -0.44859952 0.30612886 -0.70071954 -0.21781483 0.89360636 -0.10080215 -0.37477484 -0.05585595 0.122211635 -1.0257069 0.6613147 -0.08427683 0.05272887 1.6579913 0.9261357
1873 -1.028071 -0.50898254 1.252516 0.692847 0.029627455 1.2537202 0.10349104 1.133411 1.0645815 -1.5480288 -0.14496656 -1.2035029 -0.93353486 0.17776497 -1.071081 -0.5870027 -0.2278003 -1.0951344 -0.17758194 0.35328045 0.50318646 -0.11311906 -0.7171561 0.9714122 -0.13646874 0.40425083 -0.09957676 0.46036416 0.026521469 0.09925694 -0.21875896 -0.26263538 0.21036029 0.24572209 0.5577731 -0.6804287 0.005688332 -0.6899981 -0.52878845 0.25644845 -0.6554335 0.54529566 -0.21788608 1.8490846 -0.35617882 -0.79569197 -1.3908287 0.34658894 -0.7847203 0.420243 0.40274474 -0.44480073 -0.54187375 -0.49360964 -0.52075195 0.34490588 -0.53760916 -0.088884555 -0.03428803 0.41316032 0.23854263 -0.32133782 2.1944082 -0.82444507
622 -0.043995712 -0.82174486 1.0160698 -1.2897735 0.48658028 0.22055133 -0.1432438 0.8338033 0.61509395 -0.49582353 0.4252665 0.25525317 -1.8472805 -0.52590436 -1.3201379 0.6765502 0.22848046 -0.550697 -0.33323383 0.45551872 -0.93084204 -0.1437581 -0.9152833 1.2744939 -0.65885127 -0.43099037 0.8141269 0.48170298 -1.0026565 -1.068436 -0.3359151 -0.40635124 -1.7705717 -0.7687637 -0.23215425 0.607021 -0.26817057 -0.372728 0.19758204 -0.33488315 0.09086255 0.8696452 -0.3020684 1.2074196 -0.3403095 -0.1870436 -0.8024604 -0.805707 -0.42197162 -0.29864386 0.7391824 -0.34151393 0.18685794 -1.0588055 0.05469275 -1.3268243 1.013522 -0.2204925 -0.041011505 -0.50128525 0.26236123 0.028390685 0.20640235 -1.6160439
1181 0.72540545 -0.70679396 -0.41407645 0.21090055 -0.19594668 -0.23308456 0.384099 0.80793273 0.54895514 -1.5188795 -0.53687656 -0.7483822 -0.8855165 -0.47480297 -1.7607675 1.1068211 0.006846906 -0.7700575 0.21686736 -0.5787875 0.726675 0.61539686 -0.358243 0.25579432 -0.60726166 0.26764876 0.9468067 0.15091264 0.49062237 -0.083014175 -0.35055533 0.30976492 -1.2943486 -0.63932186 0.68016636 -1.4983457 -0.4767514 -1.1573738 -0.67571664 -0.4554502 0.354609 1.252203 -1.2418116 1.2859232 -0.9431936 -0.2695156 -1.4072214 -0.024904422 1.2293202 -0.04735377 0.533854 -0.29703915 -0.54535955 0.24878615 0.07850951 -0.20547904 0.19307303 -0.6458678 -0.5288364 -0.80418015 0.2691462 -0.30556062 1.9276539 -0.27832884
1245 0.100593835 -0.615586 0.73861116 -1.4488533 0.58078027 0.31357783 0.21340765 0.6957952 -0.010310525 -0.8790943 0.23436886 -0.5184059 -0.9467551 0.34185028 0.23457026 -0.035797462 0.03232885 -0.036182858 0.5029845 1.3458351 -0.11574243 0.21250965 -1.0768262 1.1342276 -0.2669282 0.4282886 -0.29563287 2.2301176 0.90122354 -0.3990348 -0.42138276 0.5060751 -1.1692394 0.4586129 0.32922894 -0.3922557 -0.37364742 -1.0580859 0.33757666 0.5549183 -0.20589994 0.40389183 -1.3129547 1.1663072 0.70446795 -0.41616404 -0.91617686 -0.4214757 -1.2668421 -0.049506176 0.5311866 -1.3270472 -0.6126064 0.03314865 -0.47651598 0.41617975 -0.42873698 0.038622495 -0.3176732 -0.42991266 -0.9793021 -0.08770629 1.4378862 -0.09571726
2258 0.50084525 -0.75810665 0.47375157 -1.0288489 0.8040551 -0.09564468 0.69977766 1.4506192 0.091878176 -0.4804721 0.23399918 0.19677243 -0.8626605 -0.3911065 0.27722797 -0.35905853 -1.1595192 -1.2768778 -1.0120522 -0.59837425 -0.8081832 0.44282693 -0.6658842 0.45517737 0.43661138 -0.012694579 0.55913633 -0.035571158 0.85375327 -0.7048455 0.7233481 0.27981716 -1.9825156 -1.356319 0.69450784 0.7253603 -0.25648648 -0.24869725 -0.19852088 -0.71893346 -0.3461744 1.250774 -0.5329148 0.48406458 -0.18631129 1.044209 -1.4892114 -0.03140218 -0.46820253 -0.6514442 -0.3629364 -0.18495643 -0.04093339 0.2673413 -1.1671965 0.28250593 0.15657121 -1.0373609 -0.8953301 0.42738396 -0.75618327 -0.37380445 -0.00086851226 0.68536645
2538 -0.39658004 -1.9248519 0.11522258 -0.8888378 1.5940503 1.3282031 -0.17077224 0.4820117 1.0750238 -1.2230833 -1.0015876 -0.57278407 -0.40783894 0.8794875 -0.95771945 -1.04437 -0.33137867 0.24209619 -0.8638454 0.016702833 -0.9119095 0.13178031 -0.28247634 0.8137206 0.61243695 0.8605073 0.9666033 -0.1589249 -0.1338061 -0.2869005 -0.39352885 -0.5086479 -1.1957675 0.32955506 -0.083273865 -0.37135807 -0.52870625 -1.0837504 -0.58368355 0.5857464 -0.16710632 0.9915109 -0.18113619 0.44606963 -0.5027162 -0.5448829 -1.5692258 0.16835809 0.69215137 -0.66974133 0.3122176 0.5820124 0.32167518 0.5979579 -0.87441057 0.22255984 -0.6461352 0.06171257 0.38860708 -0.8642078 0.44688252 -0.8045713 1.2413877 0.16553949
1724 0.9326039 -0.53649276 -0.17376938 -0.70878613 0.4287195 0.10808516 -0.39064112 0.21733423 0.83041865 -1.9135596 0.89335823 -0.8222138 -0.9070765 -0.6277272 -0.72658134 0.2388036 0.09756979 -0.5572865 -0.3180181 0.6584244 -0.94491816 -0.18964039 -0.3532172 1.0272144 -0.18742436 1.7793089 0.5135669 0.39404845 -0.036976278 -0.4276774 1.0538144 0.4546931 -1.2204131 -0.80192965 0.090061836 -0.69044715 -0.2864103 -1.3409107 0.20872512 0.30331594 0.5821791 0.8382451 -1.0751393 1.3223234 -0.14203124 0.8003681 -1.1952999 0.7334871 0.8709097 0.52528757 -0.04145933 -0.35710907 0.4582555 -1.5974102 0.1853828 -0.2971129 -0.3955848 -0.907096 0.6702542 0.29222438 -0.14790478 -0.15595546 0.52174085 -0.040941972
830 0.41677168 -1.5315735 1.1240288 -0.41819912 0.6407265 1.4922653 0.737317 0.17644602 0.08102851 -0.4684878 1.0162346 -0.3171445 -0.19891499 0.80070466 -0.9004872 0.15511669 -1.4893345 -0.15586191 -0.6775847 0.17232637 0.95474654 -0.33985147 -1.5574921 0.9840198 -0.9966909 -0.38680312 0.33443826 0.23824695 -0.49100885 -0.07046416 0.049235556 0.45662206 -0.29632357 -1.0352769 1.2572168 -0.34421265 -0.36302707 0.020052968 -0.3107506 -0.2007057 0.16113146 0.91311944 -1.1409379 0.61787796 -0.6175919 0.6214434 -1.292454 -0.8890252 0.050894123 0.025558807 0.4757317 0.5324385 -0.46490112 0.9939952 -0.57252157 -0.5419839 -0.87337434 -0.17075315 -0.18821622 0.8760265 0.3439734 -0.55217624 1.5009542 0.10452356
661 -0.42438444 -0.15811628 -0.007240294 -0.08717648 1.0333037 0.5390268 -0.73677343 1.056211 0.5844094 -0.6758287 0.74327976 -0.4975327 -1.7501464 -0.8498602 -0.57368207 -0.093537144 -0.53454787 -0.7359294 0.05213711 -0.28239322 0.27925944 0.41246837 -0.9518998 0.2345092 -0.6105538 -0.8160171 -0.0069639673 1.7057114 -0.31731915 -0.43449703 -0.13672248 -1.4484216 -0.9505187 -0.05288576 0.24412405 -0.3388745 -1.3270664 -0.3722091 -0.2536973 -0.6577963 -0.7215782 1.0235857 0.020962415 1.5820051 0.78952104 -0.24209335 -0.8538991 0.6562786 0.9718633 -0.40809566 0.7590079 -0.5880172 0.48028532 0.53678346 -1.0551369 0.23794587 0.75243026 -0.47988212 0.4224841 0.08277011 -0.923219 0.5552672 1.4145974 -0.3942451
2414 -0.35454637 -0.82601947 0.42548063 -1.4053329 0.21752562 0.09107829 0.39336538 0.07276586 1.0492697 -1.6622015 0.35079968 0.3639004 -0.33042756 0.10494819 0.2934797 0.058677465 -1.0214458 0.13070022 0.18217508 0.40617898 -0.17128733 -0.12203133 -1.6165552 0.31219837 0.07595078 -0.54315794 1.1371692 1.5732832 0.019677844 0.9146451 -0.026806712 -0.2290657 -1.5827777 -0.43816596 -0.94811904 -0.24945104 -1.0050224 0.24658027 0.514629 0.37882346 0.03713533 1.5771637 -0.48488063 0.3329947 -0.8483214 -0.49299288 -0.9603154 -0.4082175 0.15979582 -0.064823486 0.1593033 -1.0966784 -0.36157733 1.3313515 -1.4392073 0.50909 -0.09240282 -0.6391687 -0.7832317 -0.34005544 0.11698909 0.6595118 0.18127462 -0.2454576
916 0.1147338 -0.9421507 0.30677184 -1.6233317 0.23087873 0.061723534 0.571137 -0.39275625 0.1802977 -1.3964683 0.62117124 -0.90226305 0.10203764 -0.73792505 -0.3628066 0.68880296 -0.63365406 0.7555433 0.017218087 -0.0858884 -0.60381204 0.004143456 -1.7236824 -0.0134135485 0.75793374 -1.1878281 -0.21782875 0.2391472 -0.010644784 -0.16713496 -0.1784472 -0.15380134 -1.0682484 -0.42603633 -0.5611148 -0.5729232 -1.2386653 -0.4685334 0.30334154 -0.0864995 -0.10373998 0.8518678 -0.23508027 0.8950478 -0.3443775 0.06583014 -2.3679378 0.8822633 0.23668832 1.1778823 1.2016573 -1.1205497 -0.8052821 -0.8292956 -1.1257516 -0.5100051 -0.09046732 -0.5959731 -0.5897806 -0.012639405 -0.025851665 0.5276201 0.8552746 -0.1862459
649 0.15283117 -0.21710795 0.68594736 -1.183726 0.841408 0.33980805 -0.2672264 1.1840734 0.55043787 -0.53428507 -0.3334657 -0.30762294 -1.1481022 -0.18586473 -0.44093603 -0.61744905 -0.12904687 0.82033813 0.19877844 0.4357621 -0.2433902 -0.247538 -0.8920262 -0.04697691 -0.31284314 -0.04941416 0.43805143 0.30478635 -0.9011677 0.6945367 -0.2511437 -0.83456844 -1.4854393 -0.49286577 0.19835672 -1.322534 -0.3606291 -1.0386711 0.1487262 -0.90928984 0.93954694 0.7177286 -1.229947 1.830678 -1.1449249 0.18224093 -0.85747164 -0.2388516 -0.52164245 -1.0835749 0.7003572 1.2620797 -0.06519827 0.54755604 -0.39403433 -0.109208144 0.9238109 -0.15698461 0.5222747 0.6908451 -0.947976 0.2624749 1.540826 -0.33101276
1596 -0.3745974 -1.2088649 -0.019838225 -1.8551893 1.2164453 1.1038057 0.4774071 1.3874502 1.1012696 -0.5418636 -0.62821704 -1.364565 -0.9232048 -0.37620485 -0.5214534 0.78253937 -0.7932788 -0.2889319 0.17654742 0.49828738 0.5688698 -0.31256714 -0.6223202 1.0558958 0.0033679428 0.17841047 1.3428023 0.018883763 -1.3344268 -0.021889485 -0.19071467 -1.4537164 -0.78145343 -1.0473169 -0.16264383 0.32090375 0.2235218 0.19869892 0.0029487214 0.39245188 0.3762058 1.0196252 -0.35075083 0.95176727 -0.22093132 0.4736269 -0.25785866 -0.5982772 -0.7065255 0.64176965 -0.7103309 -0.08804576 -0.39398086 0.5726167 -0.079168044 0.63621587 0.15296642 -1.0296329 -0.19730932 -0.35756078 -0.11503619 -0.7323865 0.5731446 0.00015455224
853 -0.13703695 -1.0761213 0.05503173 -1.0679438 -0.4170507 1.7199697 -0.018455176 -0.23614398 2.137863 -1.1038511 -0.5789618 -0.1490017 -1.0098908 -0.65972966 -0.23572564 0.074415684 -0.5143607 0.5700527 0.37117517 -0.12040129 0.28407446 -0.031432424 -1.5475746 0.09733738 0.14770178 0.39967436 -0.44097614 0.17642014 0.3332329 -0.96926534 0.49689487 -0.660809 -1.2450403 -0.43676254 -0.28050026 0.21916255 -1.3627433 -1.0516926 -1.0370708 -0.37051493 -0.5040359 1.3261323 -0.95926046 0.5042343 -0.34341493 0.51381016 -1.2120538 0.026627997 -0.684247 -0.753268 0.41660365 -0.33027986 -0.34330142 0.14786696 -0.24300775 0.5156526 -0.21894182 -0.07985159 -0.7020298 -0.7974387 0.3025469 -0.6514328 -0.052357364 0.696736
198 0.48642895 -1.3196806 0.4440784 -1.6777152 0.3824108 0.7891438 -0.7460481 0.32687512 0.36833364 -1.3804754 0.5471244 -0.2423173 -1.3522416 0.2955018 -0.6411156 -1.1278495 -0.933404 -0.04493334 -0.12955564 -0.4332906 0.21903019 0.22495389 -0.70875067 0.42686144 0.33775675 1.2401069 0.07566903 1.023557 -0.8585938 -0.27770805 0.035657953 0.3540451 -0.6354754 -1.3894858 -0.6027209 0.5925619 0.2078058 -0.3931606 0.24001381 -0.5508522 0.916937 0.59112453 -1.4642189 0.25951257 0.4127377 0.6542987 -0.26041666 -0.54101974 0.4923441 0.7566883 0.37817165 0.5205644 -1.6691016 -0.40457648 -0.75944686 0.059154596 0.70437115 -0.4754214 -0.24756055 0.03000287 -0.8048417 -1.1983536 1.0676 -0.30735075
1027 0.5702978 -1.1084075 1.2774488 -0.69684947 0.9851297 0.21169458 0.9862709 0.26456752 0.58225274 -0.22187226 0.65387166 -0.43566087 -1.0755635 -0.7235311 0.5682068 -0.25133967 0.036237486 -0.10193574 0.49044064 -0.6356087 -0.10465065 -0.2666783 -1.6204233 1.0937147 -0.026217097 0.9546364 0.55506283 0.42824838 0.18242976 0.7621607 -0.6257975 0.5961964 -0.031093061 -0.14623478 0.41086835 0.5218714 -0.0006761612 -1.0394042 0.3015799 0.22242446 0.6020575 1.5557121 -1.0965827 1.0695795 -0.8284327 -0.4030364 -1.793591 0.51540816 0.15286048 -0.26140147 0.65276027 -0.72537124 -0.40125394 -0.29309976 -1.0971464 -0.23840488 -0.75426894 0.17459217 -0.83855206 0.5270335 -0.713233 -0.2950911 0.63436127 -0.6333809
2243 -0.43252686 -0.92997277 -0.23960508 -1.0231642 -0.0016960031 0.60963804 0.0455061 -0.5147498 0.7118603 -0.7946118 0.12065814 -0.5667175 -0.70152074 -0.73770285 -0.8909064 -0.6820535 -0.5908592 -1.2384478 -0.9514366 0.76707715 0.7093036 -1.143146 -0.18047035 -0.33352813 0.1207274 0.7040106 0.20959345 0.7178281 0.22959767 0.52031785 1.0540246 -0.5510588 -1.7401409 -0.6104255 -0.024222808 -1.2814999 -0.22476408 -0.8119078 0.090434976 0.3941106 0.6214099 0.21781592 -0.3716676 1.6562936 0.7880441 0.16929695 -1.01051 -0.11960921 -0.16449949 -1.6328702 -0.28997585 -0.2270582 -0.2690255 0.6543053 -1.4682807 0.026274214 0.41626108 0.0817904 -0.45387596 -0.40630153 -0.45898128 -0.12169308 1.1837506 -0.28776237
389 0.41238326 -0.3836751 0.7534601 -0.50402415 0.91767144 0.6500103 0.41975456 0.84635425 0.6621412 -1.7266108 -0.28747964 0.200275 -1.5958247 0.6637215 -0.8644816 0.43535802 -0.3390783 -0.7364012 0.34345433 -0.36931446 0.6182145 -0.039958484 -0.5853764 -0.124247745 0.23535933 -0.50332004 0.1014408 0.059795845 -1.3893938 0.5477753 0.21509558 -0.26759365 -0.2915481 0.20566678 0.7645027 -0.017206201 -0.08154648 0.03372071 0.8506598 -0.18904567 -0.36482525 1.4750793 -0.13746035 1.9180393 -0.6341976 -0.0715396 -0.5350925 0.13899428 -1.2187002 0.07923182 1.0525638 -0.009296082 -0.8744002 0.27473313 0.45529544 -0.033833537 0.016724473 -0.90700835 -0.4728834 0.34263358 0.058934372 -1.1864743 0.3716331 -0.16020799
722 0.79136443 -1.1648401 0.2909995 -0.1840521 0.0711467 1.80497 -1.2758049 0.04252848 1.1514742 -1.4737842 0.09410275 0.17983697 -1.4279774 -0.13742143 -1.4630842 0.27357912 -1.7249175 -0.013356829 -0.822585 0.23917466 -0.038884904 -0.7949366 -0.48912856 0.30882072 0.30553398 0.18016715 0.03986443 -0.34589985 0.5990806 -1.0109086 0.054846566 -0.95339423 -0.83359444 -0.39163065 -0.6388605 -0.7383293 -1.0192535 -0.35416633 -0.32413635 -0.41556352 -0.20054084 0.29649955 -0.11310748 0.8276889 0.584402 1.0073515 -0.21007484 0.025297908 -0.8302465 -0.49295235 -0.4421041 0.61360306 0.15404576 -0.1679621 0.13207698 0.56041354 0.30954528 -0.40925977 0.58754665 -0.072081715 -1.37028 -1.1467037 0.93483776 -0.69640744
211 1.3772663 -0.63084334 0.041305594 -0.5394133 1.2541687 0.17633335 -0.08716536 -0.21267492 0.37159678 -1.50811 -0.36208725 -0.24208836 -1.0003647 0.33423725 0.3237873 0.08520457 -1.466005 0.3400169 -0.33461136 0.15533434 0.69412744 1.2103505 -1.1246657 0.019724257 0.44312838 0.18751265 -0.006978224 0.84729123 0.09773744 -0.06684023 -0.827684 0.26136738 -0.031688366 -0.15038124 0.46121672 -0.1247191 -0.28989944 -0.3325818 0.55222857 0.19903846 0.32952052 1.3566277 0.32882378 1.563883 0.17308395 -1.0889225 -1.2365098 0.60530597 -0.9167655 -0.67772686 0.9662731 -0.8037777 0.18073742 0.38539988 -0.49032307 0.81378376 0.43381116 -0.2681469 -0.73122233 0.18119471 -0.40456372 0.7886788 1.116505 0.2620834
1480 -0.3776693 0.005504833 -0.14850608 -0.7082442 0.48411253 0.5753246 -0.25596324 -0.35522375 0.39528182 -1.9895221 0.39043832 0.60473937 -0.6151788 0.47079778 -1.0504104 -0.1844549 -0.9961675 -0.6274825 -0.37637538 0.64551896 0.11114354 -0.465241 -0.8971746 0.54553455 -0.59203196 0.93807805 0.21978348 0.53856 -0.4793995 -0.69009495 -0.36572868 -1.2819486 -0.35967305 -0.7600896 -0.2019444 0.090779744 -1.1553209 -0.25694728 -0.3753192 0.18012668 -0.10838869 1.2419958 -0.628511 1.0946051 0.40005285 0.8762745 -0.5407399 -0.04005043 -0.61697817 -0.7878197 -0.468723 -1.0649202 -0.5486298 0.6304309 -0.8223554 -0.6278869 -0.40527043 0.180733 -1.4722203 0.20289123 0.06337904 0.50199425 0.51463234 0.84642726
1602 0.21233445 -0.12262047 0.61874014 0.05058331 1.58625 1.4848669 0.33411974 0.11782916 0.9549001 -1.9277467 0.40821525 0.2615292 -0.77602416 -0.57632166 -0.11221856 -0.22977546 -0.62056583 -0.4928461 -0.24495873 -0.77497256 -0.9013899 -0.14679089 0.3858541 0.40644568 -0.11024161 0.16962656 0.5975696 -0.07700122 0.07747545 -0.6549489 0.31882364 -1.2945635 -0.4140419 0.29602486 -0.09854677 -0.36864132 -0.4754616 0.2948624 0.5952421 -0.23255512 0.88162047 1.0958694 0.18779092 0.8810148 0.56972206 -0.3550872 -1.1269776 0.32711387 -0.505583 0.5718797 -0.21129645 -0.96599865 -0.58798975 0.25665963 -0.94745886 0.6620642 0.7847671 -0.20772123 -1.152771 -0.4082989 -0.33728245 -0.40188873 0.63854086 -0.7160468
1046 0.49661598 -0.48200074 -0.32281664 -1.1348935 1.0263718 0.5045305 0.24528487 0.49714047 0.13879216 -1.6783149 0.0035400668 -0.7354164 -0.9341934 -0.19408374 -1.052226 0.5029707 -0.30794844 0.097994335 0.9188365 0.26604658 -0.7775055 0.3981035 -0.8291077 1.2296058 -0.25557432 0.11137182 1.300644 0.09744864 -0.278345 -0.09173659 0.38218296 -1.3962748 -0.23510003 -0.018093625 0.07171706 -0.7584439 -1.2857642 0.5082636 -0.4229654 -0.74378824 0.9736053 0.26226872 -1.1072228 1.283217 0.35084835 -0.229506 -1.3852396 0.5296202 0.050086305 -0.90564793 0.75387657 -1.0043728 0.09084017 -0.6357239 -0.56193894 -0.3728279 -0.6655554 -0.69435114 -0.60968685 0.78470886 -0.49525422 -0.26035804 -0.04440351 0.22103304
2615 -0.7100439 -0.8572234 -0.04082016 -0.7030116 0.8035339 0.28885588 0.4070005 0.7285563 -0.4068497 -1.2349756 0.067716494 -0.73524916 -1.5351985 0.3565454 0.014288426 0.39981917 -0.685887 -0.47037542 -0.026749901 -0.79781616 1.0777657 0.48390642 -1.193397 0.31661388 0.64962536 -0.37984982 0.35084364 -0.17225417 0.17320597 0.011109832 0.77402675 -0.8621141 -0.88890773 -0.93916094 -0.58981764 -0.0083751185 -0.46510184 -0.22543217 0.7664188 -0.5519875 0.59432125 0.12578508 -0.8818943 1.1546679 -0.45226127 0.043437634 -1.4008646 -0.09669224 -0.5312184 -0.3699534 1.1229022 0.49666372 -0.4866984 0.19526385 -1.2689127 0.9977277 -0.18269928 -0.35510975 1.078391 0.64103067 -0.57156414 0.3577408 0.99207515 -1.1567903
613 0.2138655 -0.32145247 0.7691385 -0.69660825 0.7417454 0.904398 -0.5133069 0.049899727 0.28100976 -1.6073462 -0.78741336 -0.99527746 -0.07380442 1.06425 0.7054245 0.6515361 -0.45572627 -0.76927406 -0.16388977 -0.038588785 -0.19457123 -1.4379348 -0.51022035 0.63174945 0.48122573 -0.16980349 0.39561057 1.0128924 -0.44290498 -1.0934762 1.0433618 0.047690637 -0.7212438 -0.43173647 -0.6496059 -0.9798193 -0.30278686 0.59561676 -0.13969637 -0.13610251 0.5118134 0.83636904 -0.9804877 0.833863 0.2790707 0.26337558 -1.1644133 0.89469177 -0.6126043 0.29404446 -0.004704871 -0.5548384 -1.7698598 -1.0509746 0.09058984 0.7538089 -1.1180915 0.21004416 -0.8595641 -0.88087106 0.043344595 -0.11990153 1.8076537 0.0019953668
219 0.31969184 -0.36010453 0.17717992 -0.47754076 0.6857847 1.6978555 -0.6684479 0.8641731 1.147128 -0.78126884 -0.10703781 -0.08775466 -1.2954636 -0.95803666 -1.3559556 0.045367543 -0.13655074 -0.21342081 -0.3738564 0.5559497 -0.58856815 0.19510633 0.39610142 -0.30793297 0.3855495 -0.37475953 0.27804306 -0.2623744 -0.6662807 -0.036891196 -0.6579992 0.31038588 -1.6331172 -0.7507221 0.13381349 -0.2675508 -0.29724318 -0.14428669 -0.3999484 -0.8371455 -0.37186068 0.23911132 -0.9709361 1.3801546 1.0866172 -0.70622325 -1.907439 0.58845174 -0.24948932 0.91375774 0.46533597 0.4168021 -0.2594303 -0.08443012 -0.994932 0.47433436 -0.0034619474 0.05829515 0.46156108 -0.4968324 -0.36336085 0.12339909 0.7393922 -0.9914571
65 0.53452355 -1.5601115 -0.72584707 -0.26405975 0.36274165 0.75239027 0.1502206 -0.26958966 0.22217819 -2.0069218 -1.0563682 0.50912416 -1.2073627 0.47390833 -0.52667683 -0.3086549 0.12229291 0.52831686 -0.16339153 0.23233795 0.021542493 -0.004540125 -0.17367256 0.8251497 -0.6393201 -0.27560163 0.18203157 -0.35394612 -0.44648963 -0.9441178 0.016877767 -0.075257406 -0.2841246 -0.65327746 0.6180496 -0.45791417 0.29839498 -0.36017516 0.48390108 0.27032694 -0.10875328 1.3391235 0.06983615 0.08848392 -0.16217804 0.116781324 -2.4087212 0.47838715 -0.20525001 -0.31017086 0.6174655 -0.36354682 -0.12276053 0.34708938 -1.3107396 -0.37469536 1.0183502 -1.0772417 0.71390384 0.22887518 -0.9819128 0.392316 1.3238894 -1.2050035
2212 -0.5190152 -0.8247302 0.57095045 -0.67300206 0.72057813 0.99870706 -0.6369109 -0.34039265 0.9128798 -1.6758912 -0.95340556 0.52666825 -1.0616738 -0.54333264 0.27472258 0.69918406 -1.4624177 -0.27167764 0.63582975 0.05557405 -0.3235276 0.48254433 -1.1607306 0.14316756 0.09263786 -0.965107 -0.37567607 0.83193105 1.0129056 -0.51970524 0.24046524 0.19248265 -0.58664495 -1.1307355 0.41694748 -0.15771735 -0.07715917 -0.40879178 0.63479036 0.4071315 0.71678156 0.1758026 -0.2916699 0.678277 0.16249488 1.5588471 -1.0093488 -0.6960326 0.55428725 -0.033812895 0.083934695 0.35167947 -1.2766353 -0.47925675 -0.42439064 0.8196414 0.18892872 -0.4193132 -0.7446979 -0.20246027 0.31797642 -1.3659139 1.7226303 0.037198212
1184 0.21693003 -0.032393184 1.0887012 0.0934233 1.5836287 0.08699535 0.95844716 -0.49041024 0.38293102 -1.9306867 -0.14806418 0.521076 -1.714501 -0.5992589 -0.51967216 -0.3557404 -0.8385457 0.16421716 0.08635529 -0.17350352 0.11315312 -0.45707077 -1.4013286 0.89753497 0.556628 0.6965812 -0.02326699 -0.24382257 -0.8007227 -0.42156392 0.23526867 -0.8618566 -1.5122968 0.046238046 0.0815238 0.29303893 0.15020059 0.51420933 -0.31605443 -0.9394411 0.07220121 1.7769634 -0.09257953 1.2983949 0.8308658 0.4863121 -0.90708774 -0.4462176 0.44832018 -0.23530953 -0.35262415 0.023572093 -1.1264936 -0.5770286 -0.3961465 0.6576818 0.119417384 0.609222 0.3678168 0.3078591 -0.20704634 0.71546394 0.602789 0.051266342
1300 0.36664563 -1.6780411 1.2232829 -0.76703507 0.65338075 -0.1238845 -0.6455168 0.11032395 1.2388053 -0.5910113 -0.90478724 -0.91836435 -0.18532902 -0.8075892 -0.012897286 1.3782668 -1.2838092 0.22784817 0.7108316 -0.24428315 0.09804835 -0.31846368 -0.07305043 1.0584573 0.3518054 -0.7095918 0.88342637 -0.13088216 -0.12715338 0.016033283 0.053067908 -0.5066617 -1.6348301 -0.23608647 -0.09210094 -0.14716169 0.04856826 -0.09660895 0.7452672 -0.35804877 0.5998111 1.4643666 -0.7132918 1.1044908 -1.3790187 0.50157833 -1.2268775 0.50606775 0.116795324 0.10991603 -0.18948123 -0.34012982 -0.9469933 0.7130245 -0.8732223 -0.7144765 0.27879274 0.21093804 0.7653269 0.2373223 -0.60115916 0.010995323 -0.04595948 0.18550156
1608 0.45752063 -0.3669705 -0.093602635 -1.2443287 0.47275552 0.89108753 -0.2986133 0.13498494 0.8575844 -2.2944994 0.26513714 -0.108630694 -0.93040156 -0.56565565 -0.7191254 -0.4159397 0.1069353 -0.32941154 -0.8034999 1.3150173 -0.540507 0.22699443 -0.7366124 0.09210023 -1.0813478 0.88249034 -0.05412761 0.010154314 0.6606219 -0.89589477 -0.5668061 -0.50809014 -0.5423103 -0.40902308 -0.0267398 -0.24380627 0.5015254 0.3622353 0.7829324 0.16559978 1.1890866 1.2844113 -0.17434987 1.3518386 0.5136341 0.3936719 -1.6706194 -0.9775169 0.4741254 -0.8734552 0.28903088 -0.4788191 -0.7033774 -0.09704644 -0.95611215 -0.5314789 -0.9083981 -0.4051171 0.40725502 0.8092353 -0.48864454 0.4694305 0.07580392 -0.2296974
1604 -0.57844794 -1.5067613 0.8780964 -1.0975448 -0.11011802 -0.27785435 0.7092482 -0.09434795 0.82833064 -2.0025094 -0.61440986 -0.524447 -0.42913494 -0.91703886 -1.2970909 0.095821075 -1.0124376 -0.046482656 -0.4888375 0.10214772 -0.7424163 0.33209196 -0.95744956 0.0883209 0.55657095 -0.1239874 0.12960102 0.30967313 0.99815255 -1.4303061 -0.14804284 -0.4221531 -1.1362748 0.2336863 -0.0062337765 -0.64651793 -1.1593477 -0.47966546 -0.549356 -0.64413077 -0.48275995 0.5341567 -0.5057222 1.311156 0.42119718 0.2720762 -0.17138848 0.3805491 0.43345213 -0.010143464 0.39652213 -0.9267842 -0.65643513 -0.48873773 0.16972485 0.5074684 0.6772789 -1.1085722 0.28582448 0.5384403 0.21922065 -0.869535 1.2267716 -1.0492144
957 -0.2271478 -0.94730467 1.7267631 -0.33161923 0.4439829 0.88930935 0.019696664 0.31565088 -0.22980909 -0.7592702 0.50242054 -0.39539036 -0.33094403 0.3873532 -1.5283976 -0.091431394 -0.49546468 -0.23962724 0.24467057 -0.017205609 0.017743774 -0.7402899 -1.3318233 0.8659434 0.28137335 1.0890813 0.68380266 -0.79068667 -0.6511378 -0.23336378 0.19747318 -0.7446944 -1.0568322 -0.22996496 -1.116425 0.48521116 0.23666213 -0.6923226 0.034369245 0.03322058 0.05036574 1.572535 -0.8656201 1.6243509 0.40365642 -0.9576269 -0.6875249 0.5965661 0.0665134 1.5394003 -0.8996531 -0.5096264 -0.45636013 0.22823869 -0.57700837 -0.30882636 -0.2149186 0.20078017 -0.7988921 -0.53840363 -0.45379773 -0.13699788 1.3523997 -0.7467919
657 0.98075104 -0.43138742 0.537429 -1.201799 0.95052963 0.7048232 0.19366573 1.0188411 0.12967567 0.13055262 0.012974508 -0.52823514 -1.2212852 -1.0114944 -0.39595905 0.52913153 -0.8422057 -0.006665766 -0.7576186 0.6672445 -0.58991057 -0.048206367 -0.1272077 0.99474734 0.16291891 -1.0748016 0.17129539 0.23888049 -1.355877 0.31516403 0.40287432 -0.10853598 0.19453795 0.012968681 -1.0897448 0.33939275 -0.32388955 -1.1511527 -0.20446062 -0.4578747 0.31071016 0.95326567 -1.1961498 1.1179124 0.06424112 0.83347815 -1.3916808 0.4400018 0.16772059 -0.72992015 1.1567519 -0.9359949 -1.05453 -0.23371096 -1.4025034 -0.21426986 0.7526738 -0.33936167 0.5616926 0.15699793 -0.9000513 0.11819572 1.1239566 0.2970951
2504 0.7577888 -0.47013265 -0.4758954 -1.3030608 1.1918026 0.644598 0.8864494 0.4978717 1.6302661 -1.7423841 1.2075449 -0.82326233 -0.26899272 0.112331025 -1.4749135 0.22120926 -1.0905355 -0.6428498 -0.016226357 -0.16291252 0.037344124 0.6667509 -1.5582979 0.8248778 0.8600211 0.049050685 -0.2292977 0.17886716 -0.6963809 -0.025263729 0.24479356 0.03579688 0.07050105 -0.1092503 0.326702 -0.13490178 0.50459844 -0.8279617 -0.4849889 -0.36492527 -0.2134033 0.36218533 -0.73819315 0.4689794 -0.5120215 -0.66108924 -1.4829633 0.05693231 -0.20528373 0.34046715 1.1510204 -0.6695709 -0.34397727 0.7892555 -0.12479999 -0.39412993 -0.16772562 0.07675992 -0.54826885 0.88656026 0.2513893 0.328674 0.68984973 0.17662777
971 -0.5682977 -1.7722156 0.43768188 -1.6020017 0.0983823 0.14098096 -0.32503018 -0.03538385 1.4112796 -0.7690193 0.4553885 -0.54042983 -0.6872204 -0.11979096 -0.16074666 0.7018475 -0.6813169 -1.4351104 0.8067643 -0.791067 -0.28017327 0.3725354 -0.9054545 -0.30851573 0.26952624 0.5974446 -0.37559083 0.6931087 0.13001251 -0.036631364 0.012786406 -1.0674556 -1.354127 -0.31433472 0.43288606 -0.07392231 0.5216013 0.05114343 0.5315884 -0.20817944 0.30899882 0.38365766 -0.53162014 0.14213522 0.47295418 -0.7746227 -2.2886944 -0.9129508 -0.079648204 -1.5393696 0.6853041 -1.0707214 -0.31384704 0.74705 -0.42394418 0.05632826 0.13164677 0.06686013 0.3671374 0.36804935 -0.07641364 -0.21225818 1.0744926 -0.91028607
1248 -0.64106476 -1.114887 -0.13420467 -1.3011721 1.2920249 0.61113805 0.25887537 0.39851916 0.648216 -0.85983217 0.67121357 -0.5694716 -0.6110438 0.50867635 -0.6976087 -0.4791621 -1.7111183 -1.218764 0.5039715 0.8282187 0.5226115 -0.27153906 -0.9645673 1.1161242 -0.44617692 -0.6510085 0.95556265 -0.5992722 -0.6523066 -0.5058304 0.30846244 -0.57471913 -0.096456505 -0.4456105 -0.6254262 0.047031518 -0.67316395 -0.81230706 1.05592 0.7384318 0.4655794 0.088612065 -0.9935966 0.8804738 -0.20791396 -0.36851647 -0.57970136 0.5521361 -0.66348577 -0.39059827 1.0017989 0.4034707 0.39486063 0.1848219 -1.0183772 0.014381896 -0.6580023 1.0527275 -0.8971895 -0.09564329 -0.11227246 0.40714684 1.310495 -0.558698
918 -0.4477411 -0.5699165 0.26231778 -0.1398302 0.5631026 0.16464514 -0.4274113 0.38523483 0.0868419 -0.59702355 -0.3042678 -0.5009534 0.15690783 -0.1025216 -0.86631525 -0.56429166 -0.82154715 -1.0553098 0.2132462 0.8009352 -0.016028931 -0.639796 -0.34070715 -0.5317032 0.7898684 -0.07942538 0.4216353 0.54839706 -0.4930922 -0.94634974 -0.53966403 -0.76606286 -1.0106938 -0.7730296 0.5173508 -1.0702128 -0.7591239 -1.0024905 -0.7694947 -0.69132715 -0.9121266 0.58752954 -0.27934706 0.8855266 0.4220584 0.66935706 -2.417706 0.35837767 -0.59175164 0.13650726 0.39784226 0.82591766 -1.1615658 0.36671677 -1.5904504 -0.092263885 -0.83256406 -0.868499 0.25875154 0.0880361 -0.0038472633 -0.9246289 1.1156904 0.06946723
2795 -0.35652116 -1.3475126 0.60618657 -0.3771203 0.3123901 1.353983 0.62810755 0.15727066 0.74768126 -1.5947126 -0.14401026 -0.453104 -1.1984404 -0.74774134 0.3825294 -0.8623312 -1.1985303 -0.08532601 -0.2852731 -0.39096734 -0.07496386 -0.016873553 -0.3876282 0.82326823 -0.331137 -0.7683368 -0.07378101 1.0757669 -0.75767624 -0.94453603 0.12727731 0.602588 -0.6335376 -1.2235914 -0.45732245 -0.26970902 -1.2721707 0.22347486 0.55780977 -0.6142673 0.64297605 -0.21467806 -0.07155195 1.1707867 0.030353418 -0.09538079 -1.2038355 1.31996 -0.31432042 -1.4135206 -0.69479334 0.007031899 -0.23615882 0.66279393 -0.90070796 -0.6814054 0.8070762 -1.060343 0.48013753 0.6644799 -0.5181929 -0.16883115 0.44093263 -0.82952595
1085 -0.88921124 -0.54336447 -0.19699842 -0.9666224 -0.038886916 1.0961198 0.35446802 1.1433529 1.0434383 -1.30023 -0.2589162 0.17954879 0.3420113 -0.19695157 -0.39139986 0.72730005 0.35211584 -0.6594201 -0.26367846 -0.14092556 0.65032464 -0.2170741 -0.7993378 1.0520649 0.19562423 0.49510863 -0.25743502 -0.024719948 -0.8826517 0.8626728 -0.062241543 -0.17415011 -1.1001768 -0.26576698 1.445967 0.9194388 -0.24552499 -0.78539014 1.4293628 0.06472319 0.13218614 0.8697425 -0.8137696 1.5490168 0.743124 0.5750139 -1.2426629 0.34650978 -0.19958664 -1.2232764 0.042974487 -0.17249493 -1.1832952 0.32455927 0.1993576 -0.95744616 0.25247636 0.7995707 -0.45901802 0.04400563 -0.83877224 -0.6526362 1.2114602 -0.7119238
516 -0.52993464 -0.4077215 0.15710919 -0.24120225 1.1041325 0.9462472 0.10606288 0.83901507 -0.09508199 -0.7424109 0.14515555 -0.25872454 -1.2030733 -0.30059147 -0.38345617 0.19019417 -0.17239983 -0.27123168 0.29520693 0.93952084 0.36026317 -0.17444533 -1.3946705 0.53879 0.39541322 -0.17011258 1.0344037 -0.015218688 -0.098628454 -1.3677087 0.12322301 -0.09080123 -1.3657868 0.20752351 0.071027085 -0.26569796 -0.041423205 0.33921057 1.0018716 -0.097108044 0.80986905 0.85597646 -1.6904879 0.6337042 0.6578823 -0.7483532 -1.5570631 1.3389581 0.6705221 0.90348446 -0.121918015 -1.117395 -0.71072435 0.22615463 -0.21351574 0.10711017 -0.08008149 -1.2200135 1.0301346 0.16121863 0.109572776 -0.5705765 1.1110942 -0.010294262
949 0.14643984 0.12714799 1.2209471 -0.6330791 0.6396336 -0.22065212 0.16179335 -0.7806313 -0.48401606 -0.39199463 0.22286369 0.21973525 -0.39101478 0.2498892 -0.788186 0.6316531 -0.7792636 0.59432006 -0.4391096 -0.29683292 -0.95224714 -0.018645767 -0.6915043 1.1474366 -0.04837757 -0.21696435 0.51759666 0.054352444 -0.6363142 -1.1991429 -0.83845204 0.17735253 -1.8630091 -0.55709577 0.27694517 -0.23951596 -0.7396398 -0.3313732 0.8579218 0.18637602 0.48557797 0.6080596 -1.325606 0.8007568 -0.9288954 0.7434767 -2.6358082 -0.06713584 -0.0806575 -0.83798945 0.99610865 -0.0045864466 -0.19068243 -0.23253062 -1.1264324 0.2263393 0.8395672 -0.09192 -0.50354 -1.3047867 -0.8846276 -0.54117894 0.4511885 0.2819878
1968 -0.188056 -1.1589952 1.2348281 -0.99182403 0.09645148 1.424287 -0.2618617 1.1112071 0.27440062 -0.75645876 -0.14323525 -0.027223554 -0.83825374 -0.42302817 -0.47286516 1.39783 -1.3760614 0.35094416 -0.11761808 -0.0095600225 0.43538818 -1.1340914 0.040974513 -0.029931376 0.06667243 0.026140168 0.7956917 -0.2931647 -0.30545327 -0.03954586 -1.3031231 -0.23099513 -0.79935527 -0.2219153 -0.37375402 0.4827518 0.11402965 -0.83418006 -0.19416755 -0.52543974 0.8380588 1.2424229 -0.27208477 0.8471607 -0.17103449 -0.7278796 -1.2289178 -0.9590639 -0.22914918 -0.6221442 0.8076116 0.47066343 -0.93274945 -0.14679037 -1.179091 0.33510652 0.01367062 0.8266001 0.30498782 -0.3361033 -0.31435844 0.76926684 1.3969321 0.56740886
1612 -0.8061888 -1.2484512 0.94047326 -1.2633423 0.7088993 1.1401838 -0.35205927 0.6121648 0.39568928 -0.544223 0.35305583 0.29775542 -1.0403733 0.923865 0.24953203 0.07343286 -0.28268054 0.15808362 -0.6722029 0.6605565 -0.3834499 -0.61230534 -0.5871308 -0.07559324 0.8276927 -0.2624778 0.16985042 1.4407922 0.45791125 0.07302584 -0.5716206 0.124646276 -1.5494574 -1.0631068 0.7269425 0.11860888 -0.8704046 -0.5913515 1.2176274 -0.3310746 0.75533444 0.50525534 -0.08897728 0.72046226 0.23980227 0.17865458 -1.7357318 0.8914768 -0.79901296 0.6192543 -0.29157928 0.7064548 -0.08173695 0.21753737 -1.2111226 -1.0319672 -0.1219786 -0.51753783 0.66973305 0.56109244 -0.70701116 0.5236243 0.43979245 -0.6073747
2608 -0.07648308 -0.9461933 0.33176184 0.29047346 1.5335639 0.8868786 0.30748022 0.9099862 1.047747 -1.0378308 1.3501995 -0.13149028 -1.4776572 0.29135478 -0.6220519 0.7570701 -1.0131016 0.39321923 -0.594948 -0.08172653 0.5389072 0.20560311 -0.49516025 0.3523171 -0.3354181 0.6302504 0.07301158 0.123454385 0.33566812 -0.19348322 -0.24654321 0.16341886 -1.3537076 -0.30979145 0.2753992 -0.37341464 -1.0070175 -0.9863905 -0.64781964 -0.9113872 1.2975794 1.1168078 -0.7514777 0.1912188 0.5183451 0.0031886243 -0.97523427 -0.39520597 -0.69735974 0.22836415 0.051482085 0.07760555 0.42192918 0.20440741 0.47438097 1.1199689 0.3607157 0.14407152 -1.457644 0.46315885 -1.0959799 -0.5173403 0.80806875 0.075093545
1796 -0.1359991 -1.3126808 0.19912654 0.21438383 1.3615093 1.0574558 -0.118888706 -0.7014376 1.4449718 -1.321909 -0.39040503 0.13719152 -0.5957535 -0.5555072 -0.021668795 0.5429009 -0.084229 -0.68115395 0.26369965 0.6279714 0.2415725 0.20315593 -1.001646 1.0618114 -1.0554653 0.45782107 0.6130904 0.8758947 -0.6062205 -0.6586374 -0.9419843 -0.8807099 -1.648325 -0.8925125 0.22192588 -0.025286196 -0.49462947 -1.5103629 -0.43272665 -0.45304778 0.7586782 -0.56446666 0.3033312 1.4576377 -0.46019587 0.58744586 -0.46160206 0.4462911 0.24085456 -1.3237315 -0.2677972 -0.062888786 0.050631087 -0.0865138 -0.17928667 -0.46407515 -0.08667533 -0.07375061 0.14302993 -0.4124674 0.10993295 -1.1469824 1.3132137 0.6748171
160 -0.14253457 -0.63774836 -0.3163 -1.1691177 0.53260803 1.0000107 -0.16409622 0.88559675 0.5249355 -1.4981071 -0.6894835 -1.0847069 -1.1961982 0.2537527 -0.29353234 -0.008596198 -0.80951613 -0.66041404 -0.073310226 -0.12683584 1.4673547 -0.56433386 0.12825227 1.1626912 1.1337065 0.42576396 0.72674716 -0.2736459 0.17341135 -0.034593925 -0.22179861 -0.011315604 0.13609192 -0.71970594 -0.3044145 -0.027440874 0.15787408 0.28880683 -0.6131259 -0.42125106 -0.07848452 1.0818923 -1.6560315 1.3572683 -0.091991045 0.16582227 -1.2261864 0.1703508 -0.20183066 -0.4932016 0.43923748 -1.1472086 -0.22385693 0.007206187 -1.0582209 -1.2685413 0.1292318 -1.1127906 0.5926872 -0.029493151 -0.7571143 -0.7611349 0.11435606 0.56801635
1676 0.40138364 -0.33195004 1.0766013 -1.6198785 0.6763416 0.3588387 -1.165804 0.3626465 1.173021 -0.28319284 0.0934648 -0.24870868 -0.6631607 -0.04372395 -0.08419763 -0.45912784 -0.7288802 -0.77525204 -0.46791348 0.023727126 0.1871578 0.051877134 -0.8194516 0.791688 0.8960804 0.62534934 -0.18274485 0.6037807 -0.33882356 -0.34974077 -0.35352358 -0.30758077 -0.31670946 -1.191426 -0.98239106 -0.12671843 -0.58779955 -0.77963924 0.3842546 0.33748734 -0.40300703 0.9210271 0.22091784 0.3811352 0.059218615 0.22802767 -1.025036 0.16137786 -0.74645406 -0.27439687 0.2998309 -0.09064264 -0.570694 -0.55852544 0.22776592 -0.28399318 -0.6139894 -0.017801631 -0.046483822 0.1598192 0.3591072 0.04624455 0.5664864 -0.32715252
520 0.5726449 0.6412946 0.91380644 -0.57210094 0.57298416 -0.017252998 -0.06633165 -0.01811806 0.6591733 -1.3404667 0.4440038 -0.692663 -0.8415087 0.6615599 -1.5374451 0.962894 -1.1906602 0.41690588 0.42877486 0.6684543 0.16792826 -0.78014594 -0.45299903 0.44272736 0.37712997 0.069685675 -0.35931152 0.4842078 -0.016157867 0.5822473 0.5218475 -0.5972572 -1.446291 0.23659837 -0.41954878 -1.1976374 -0.23929545 -0.25986516 -0.49289772 0.40737298 -0.35280746 0.95890963 -1.01482 1.1172993 -0.65729105 0.64638436 -2.0372276 0.5501129 0.004476265 -1.5208663 -0.20007245 -0.33676237 0.09459081 -0.34435862 -1.0669599 -1.0211241 0.14859365 0.18218803 -0.045989085 -0.21339017 -0.27441788 -0.24987264 0.23391433 -0.2753747
112 0.08700749 -1.3350723 -0.32548225 0.5343997 0.61231416 -0.108788654 0.14861351 1.0901054 0.3162432 -1.5383496 -0.3473038 -0.98325443 -0.51697487 0.25317997 -0.2825211 -0.15251361 -0.45922783 0.5820719 -0.41474348 0.3942686 -0.1910828 -0.17972635 -0.60646087 0.6709044 0.103393085 0.3056605 0.67341614 -0.050828956 -1.1477754 0.017526638 -0.76111114 0.091104805 -1.5577039 -0.9126223 -0.79100555 0.057514995 -1.47059 -0.9980338 0.02132863 -0.11746707 0.29086497 0.8172462 0.095928974 1.1842678 -0.2904573 0.35139677 -1.1859795 -0.34900862 0.027368141 -0.04168159 1.1125243 -1.0793744 -0.29916564 -0.9945555 -0.92849904 -0.050728902 -0.12106078 -1.1173809 -0.35689294 0.61902803 0.4551319 -0.172118 0.18588012 -0.57528305
1158 -0.4121428 -0.08749514 -0.9278492 -0.3353699 0.7504666 -0.015888149 -0.4355302 -0.51270306 1.1260395 -1.4808431 0.81982917 -0.29414433 -1.6476717 0.7146368 -0.2218842 -0.1551141 -1.1127107 -0.42622554 -0.3674706 -0.122459754 0.31734923 -0.08814372 -0.6904374 0.47830668 0.7570531 -0.53589 0.52124864 -0.4212337 -0.14305706 0.061018884 -0.021921981 -0.21550773 -1.3059901 -1.2300975 0.5988542 -1.0014044 -0.17211847 -0.21494457 0.2348892 0.88860965 -0.367457 0.50704783 -0.82948637 1.3279861 -0.23533058 -0.69893676 -1.3433195 -0.25425148 -0.13625935 0.6073452 0.23471233 0.037727535 -0.7006838 -1.085201 -0.3315484 0.5181582 -0.5087815 -1.0416787 -0.24690776 0.28374052 -0.82077795 0.6337115 0.75141114 -0.26258513
249 0.09484446 -0.5356893 -0.05246538 -0.5276944 0.37473628 1.3251437 -0.80251837 0.35949558 0.8015769 -1.5538577 -0.6562175 -1.3323987 -0.53842604 0.8388386 0.5346047 0.6040122 -0.75986063 -1.3680483 -0.28205582 0.06151794 0.1434759 -0.5369983 -0.86866057 0.9094243 0.38893187 -0.4875799 -0.083544225 0.13557793 -0.018943641 -1.3416283 0.71843505 0.009679082 -0.31404027 -0.19857463 0.12847786 -0.5047327 -0.9918714 0.30598885 0.24668236 0.07166184 -0.12951052 0.8446728 -0.52627707 0.41223192 0.29131633 0.3305448 -0.6708071 1.6987082 -1.0316322 -0.3367992 0.7409507 -0.8131479 -1.0758563 -0.567939 -0.014851148 0.38357228 -1.1314949 0.17714709 0.09452957 -0.011780142 -0.26645908 0.043900426 2.208875 0.58111125
135 1.0137529 -0.73069304 -0.0005122816 -0.060552377 0.54407084 0.7238371 -0.67548865 0.16686444 0.42238608 -0.68646276 -0.23001939 -0.38595176 -0.5948421 -0.21180746 -0.461932 0.19932824 -1.5539898 -1.0579199 0.6342981 -0.124801405 0.12830468 -0.72339857 -1.0068444 0.022872703 0.7993154 -0.955664 0.9262338 0.3357383 -0.6391173 -0.20133935 -0.7633247 -0.388726 -1.5698067 -0.37095875 -0.8225233 0.20524766 -0.30879804 -1.3147728 0.6157041 -0.08657441 -0.1566191 -0.15755075 -0.46045944 1.6044755 -0.32803103 -0.28234366 -0.9190538 -0.03877212 -0.02851027 0.39613086 -0.33422315 -0.19220519 0.05196955 0.6846048 -0.3417394 -0.16166481 -0.8235461 -1.0957813 -0.27790332 -0.115147255 0.02221412 1.0371488 1.1752204 0.26825282
2245 -1.1299313 -1.2967671 -0.16968824 -0.75222695 0.6108406 0.5791638 0.5464229 0.5661529 0.6726491 -1.1665856 -0.17307764 -0.123661995 -0.385613 0.8829501 -1.1756393 1.1554438 -1.9553114 -0.93643224 -0.28594023 1.0416387 -0.5095115 0.3282351 0.25324604 0.5207401 -0.16136773 0.058494855 -0.5897417 1.0217541 -0.23307273 -0.09024549 -0.41992664 0.27627254 -0.319365 -0.27691355 -0.50968194 -0.7042269 -0.018604318 0.34321412 0.4704331 -0.324312 0.091370836 0.75471437 -0.110493556 1.4128737 0.81406987 -0.06720044 -1.2455908 -0.23558225 0.67329717 -0.20461427 1.0984216 -1.1309382 -1.5241055 0.553422 -0.37808692 -0.09902398 -0.029080274 -0.56576604 0.30207825 0.30693096 -0.16515897 -0.30701846 0.71336746 -0.16847847
513 -0.57478154 -0.50899065 0.32381776 -0.5173971 0.29043186 1.0605804 0.18739693 0.16162173 0.5717067 -1.2955542 0.77748346 -0.71648437 -0.5489827 0.40752336 0.10457626 0.9729808 -0.10140616 -0.30855674 -0.19622995 -0.732971 1.5088252 -0.7141193 -1.0676783 1.3142203 0.0014744323 0.5131196 -0.011161534 1.113848 0.26905447 -0.92694765 0.06310478 -0.74030745 -0.91587406 -0.21395093 -0.36499086 0.0044614724 0.068787776 -0.38583556 -0.15609722 -0.4705816 -0.41540933 1.4216509 -0.8243146 1.9085872 -0.24029106 1.0817144 -0.8039959 -0.048565622 0.003062 0.5262889 -0.75764537 -0.7977935 -0.26198334 0.48318347 -0.6549905 -0.45197278 -0.54347205 0.024334935 0.9757477 -0.27211332 -0.6976103 0.20482156 0.22261582 -0.34477764
1239 -1.0490644 -1.3198937 0.7482774 -0.01709721 0.38790542 1.6735846 0.043124758 0.96268356 0.8112909 -1.594735 -0.40378618 -0.34917995 -0.9282468 -0.694164 0.46912983 0.55115414 -0.5226742 -0.40001428 0.5782413 -0.18333498 0.107350074 -0.13185158 -0.68291557 -0.052632224 -0.63733214 0.45541796 0.6661524 0.055788223 -0.1301933 -0.42048708 -0.07325674 -1.2571787 -0.9454772 -0.12980445 -0.08449558 -0.4616573 0.24536315 -0.14702246 -0.33612517 -0.49567747 -0.3229866 0.73408073 -0.7370135 1.3587755 0.7689251 0.16727442 -0.98323226 -0.8960547 0.6491147 -0.9226324 -1.2758055 -0.18550162 0.10762028 -0.33127648 -0.5951976 -1.0890659 0.022871554 -0.8320742 -0.8167523 0.048405893 -0.523249 0.3951448 1.0700587 -0.2950823
557 -0.58947563 -0.09490821 0.70645255 -1.1840792 1.364861 -0.20950598 -0.10914703 0.7156523 0.3523147 -1.5068395 -0.28958404 -1.2374345 -1.0071814 1.0693414 -0.9620845 -0.47356865 0.59226924 0.02356612 0.7015409 0.44322354 -0.155336 -0.16024972 -0.5841149 1.127868 0.06684075 -0.35393342 1.1960723 1.6957608 -0.60639405 0.18904431 -0.36474693 -0.09167231 -1.798999 -0.45060655 -0.5854948 0.42900792 -0.19845095 0.6461565 -0.49625823 0.007822175 1.0929357 0.8485206 0.085921176 1.3233953 0.4715135 -0.13814196 -0.73620826 -0.20985855 0.17643541 -0.60633737 0.10147231 -0.18397874 0.43994793 -0.3094885 -0.77037734 -0.4209603 -0.4568323 0.0037292775 -0.1411613 -0.1442596 -0.33067858 -0.21389544 1.2408378 0.12124855
744 0.24419618 -0.85289896 0.30040878 0.17702675 0.50052506 0.26463717 -0.11420325 0.4839967 0.6996535 -0.55629116 -0.8376485 0.048524886 -0.14512141 -0.05013549 -1.6046201 1.4267842 -0.5589973 0.2589599 -0.48199883 0.24250272 -0.8202169 0.09852978 -0.8856785 0.5024209 0.31676978 -0.06183595 1.2841169 0.71345013 -0.45398024 -0.9883945 1.0885419 -0.26612893 -0.45803195 0.16109312 -0.10793567 0.89438385 -1.0283165 -0.009618317 0.3183759 -0.25883973 0.3275604 0.6873433 -0.89398795 1.0824968 -0.032787226 0.7014675 -2.4657044 0.6931345 -0.87538373 -1.324503 -0.3611719 0.16510557 0.3736592 0.88911605 -0.2262601 -0.29545686 -0.09382008 -0.10534598 0.21796626 0.27186316 -0.11605487 0.31467867 1.1234654 -0.15660869
984 -0.35702336 0.4465662 1.2691917 -0.7277801 0.8810405 1.4361746 0.059273 1.1820787 0.8744237 -0.56242466 0.6835059 0.24069801 -0.41449064 -0.013890117 0.27137533 0.71203196 -1.2388921 -0.5264228 0.17125022 0.3665091 0.24027717 -1.5692538 -0.46081126 0.9913323 0.44734597 0.18225202 0.59226435 1.4932156 0.22515492 -0.17110379 0.2129257 0.47889018 -0.9424745 0.296986 -0.16339822 0.8982115 -0.4825549 -0.79972506 0.3194473 -0.71649927 0.11185624 1.0736305 0.076814786 0.41529486 -0.5890351 0.8691291 -1.508748 -0.39072996 0.2885098 -0.6519683 -0.6071809 -0.29309627 -0.2519586 -0.16719767 -1.0407417 -0.08363224 0.27951726 -0.5607374 -0.18969104 0.080792 -0.31633988 -0.643639 0.63386685 -0.16579176
535 1.1770195 -1.4211888 0.5389297 -0.0031607163 0.9636784 0.5977566 -1.1654918 1.777296 0.87992483 -1.5169014 0.062844135 0.661156 -0.9082318 0.22851156 -0.7165295 -0.092781425 -0.5859108 0.49784774 0.8769056 0.082301036 -0.28844213 0.99065495 -0.8676338 -0.28578523 0.45082355 0.123591915 0.569428 0.5513705 -0.33994907 -1.0925117 0.5745336 0.1608159 -0.4557003 -0.39565292 0.32776156 0.29468292 0.35682514 -0.66326094 -0.4137672 -0.36503276 -0.16124733 1.7180438 -0.763365 0.650034 -0.029753694 0.2896675 -1.4838051 0.40094072 0.41587707 -0.083556026 0.7878369 0.40227032 -1.0518992 0.050062586 0.26301685 0.6222201 -0.46140522 -0.19423449 -0.17056875 -1.036175 0.02001095 -0.17542492 0.63709 -0.46192926
2500 0.3148249 -0.24463034 0.54008996 0.34701356 1.9237187 1.5793811 -0.15104306 0.026855316 0.70108896 -1.8815249 0.20065695 0.2637689 -0.6413796 -0.6655593 0.0053032795 -0.18491875 -0.70624334 -0.3043673 0.065956 -0.21021678 -0.63818324 0.31706703 0.4462073 0.97090644 0.017193291 0.5171323 0.90843296 -0.26611263 0.5505291 -0.49785066 -0.12913707 -0.86959064 -0.15994382 -0.4137242 -0.02266584 -0.43275717 -0.5913761 0.24388124 0.25845882 -0.08104183 1.0500075 1.3347595 0.17348024 0.9142353 0.8018798 -0.46132496 -1.5590289 0.7619374 -0.68435305 0.3406285 -0.14726481 -1.0472484 -0.3806808 0.068997554 -0.5614026 0.6782483 0.9274632 -0.060542077 -0.99546796 0.04750579 -0.603884 -0.24261197 0.41513827 -0.64096963
2783 0.19386703 -1.5245711 -0.26083177 -1.6931823 -0.07115382 0.46148053 -0.1706482 -0.116112985 0.17674254 -1.8054882 0.16461098 -0.30241734 0.11363154 -0.10463719 -0.07098426 0.06024934 -0.025323262 0.304405 -0.18660341 0.27680987 -0.3494582 -0.57326597 -0.042861357 0.0021997744 0.8353941 -0.92504525 1.6378762 0.10961533 -0.08114775 -0.43729052 0.2726648 -0.5258337 -1.4141978 -0.23939797 0.031959005 -0.405083 -0.50026554 -0.5527297 1.091099 0.77069664 0.6510159 0.25663024 -0.3062867 1.7132338 -0.0022677062 0.3038475 -1.5964048 -0.023120822 0.9506127 -0.6230291 -0.21947467 -0.0016247617 -0.018544978 -0.5763722 -0.21145827 -0.101804785 0.04335314 -0.48904714 -0.56545436 -0.017113145 -0.56176645 -0.82090306 0.28006804 0.24712417
326 0.67902035 -0.086164765 0.10324742 -0.40893045 1.0724022 0.5673213 0.38132405 0.30148056 0.29439652 -1.4067262 0.5844085 -0.17380567 -0.25630477 -0.037489593 -0.24308707 1.1888571 -0.29278457 -1.4050975 -0.7467785 0.46845827 -0.083699696 -0.2216772 -0.21396092 0.95238274 0.25684977 0.04539258 -0.44831994 0.85740685 0.22453736 -0.21365198 -0.104669645 -0.7571954 -1.07073 0.045382064 0.54474527 -0.09027073 -0.62111855 -0.866371 -0.7458288 1.1138393 0.5349688 0.7966905 -0.58025086 1.1403672 -1.6490005 0.011408094 -2.075553 -0.121505514 0.17362358 0.74734515 -0.15590747 -0.2888276 0.33833972 0.47202852 0.035130277 -0.46478885 0.31867954 0.4869474 -0.2887259 0.1567286 -0.181249 0.25401846 1.4322958 0.48049134
1855 0.088587396 -1.937835 -0.037153013 -0.55428183 0.36028057 0.8273152 0.14218071 -0.08647001 0.85321045 -1.4132878 0.3447234 -0.53480166 -0.8870285 0.34005138 -0.65803325 0.44186205 -0.30046546 0.03153391 0.82187486 0.24443196 0.13155247 0.6706666 -0.73155093 0.6762956 0.34113982 0.38667622 0.6106474 1.1889133 -0.18188 -0.21715698 0.18367155 -0.6449623 0.54410255 0.30298427 -0.20133825 0.07772355 -0.6226298 0.34790957 -0.2412933 0.50684214 0.18122664 1.9679214 -1.1739243 0.1985868 -0.039652523 0.42806903 -1.1854824 0.38171408 -0.74578947 0.048175815 -0.87704057 -0.096215285 -0.7088816 -0.73636097 -0.2378539 -0.41162184 -0.7260074 0.0070084757 -0.33949494 -0.115110725 -0.71798384 -0.9767583 0.71457714 0.056264125
1302 0.72724783 -0.2633112 -0.07419581 -1.1424822 0.9805751 0.93947035 0.8820143 0.23496118 0.32257172 -1.6419903 -0.90445787 0.42680308 -1.073575 0.55418783 -1.4249244 0.5343572 -0.8407055 0.5632826 -0.6174935 -0.5808515 0.29040855 -1.346216 -0.7252362 0.54799837 -0.7000297 0.7244559 0.7640835 -0.07779813 0.2066744 -0.2638324 0.32403043 -0.41992533 -1.5253165 -0.6775055 0.8344054 -0.25830317 0.15391529 -1.0465782 0.060684532 -0.6927361 0.6388124 -0.15679283 -0.31604174 0.10548222 0.4608656 -0.18551958 -1.6695342 0.0284471 0.75472015 0.005875557 -0.32028326 0.25719357 -0.65360314 -0.45161194 -0.41307238 0.009063227 -0.10334519 -0.8600648 -0.49898514 0.2425644 0.14977506 0.64420784 0.80228555 -0.1258239
1304 -0.021923099 -1.2972611 -0.018343456 -0.40983224 0.41914195 0.78694206 0.018978931 -0.04373638 1.0779595 -1.1092609 -0.20397404 0.08178815 -0.15580982 -0.33523384 -1.0944642 0.60983735 -0.4781158 -0.82775086 -0.23312716 0.1699007 0.22163121 -0.5670222 -0.32973993 0.7520225 1.3303438 0.69476724 0.036874626 -0.36137655 -0.22179545 0.011764571 0.29598138 -0.33161953 -0.2677017 -1.1886631 -0.12863182 -0.14821109 -0.77251154 -0.5171902 0.8079506 -0.2835062 -0.19393234 0.4869724 -0.48387858 -0.6474299 0.17886521 0.8995794 -2.506989 -0.9760887 -0.6919449 0.018387023 0.74078053 0.49514252 0.35530445 -0.47051823 -1.3953296 -0.6734621 0.84609073 -0.19994846 0.058578998 -0.26332054 -1.002127 0.017635062 0.766837 0.04157144
776 -0.22309421 -0.29986218 -0.04667376 -1.1436468 0.29914203 1.1066113 -0.1390743 1.1025718 0.55589575 -1.1539109 -1.0224981 -0.9483454 -1.1777045 0.12819898 -0.4353545 -0.22560284 -0.58014864 -0.7348286 0.08041063 0.0008735147 0.87894166 -0.26192588 -0.01604697 1.0255908 1.3216512 0.47180423 1.0115851 -0.08578951 -0.11302461 -0.4098003 0.10552561 -0.26342532 -0.37210277 -1.1825311 -0.29040292 -0.17057957 0.10207689 0.2911192 -0.5910356 -0.3463116 0.14583375 0.78999543 -1.7821649 1.0283443 -0.33811578 0.8693046 -1.1018643 0.33097267 0.003159451 -0.6161393 0.3518219 -1.0079776 -0.68287224 -0.2082055 -0.60971695 -1.4786533 0.29620966 -1.0563917 0.6477546 -0.34168965 -0.74959725 -0.33540946 0.1302699 0.7122037
1292 0.1944667 -0.41908455 1.3870779 -0.30251148 0.08709626 1.095 0.30483165 1.1560038 0.43878713 -1.5660789 -0.1723145 -0.6036142 -0.85701513 1.2876575 -0.40084693 0.29438826 -0.35669017 -0.09320932 0.44889888 -0.68147653 0.15635704 0.122333 -1.0901911 -0.17155461 0.26229152 -0.7244976 0.09508827 1.1894344 0.0005704583 -0.3987876 -0.42239168 -0.85509956 -0.6236126 0.38278738 0.5474706 -0.26147792 0.7982507 -0.95583534 -0.2936544 -0.54112446 0.79952496 0.25845018 -0.37759507 -0.07099601 0.69855666 0.10169596 -1.7900268 0.20014155 -0.6411593 0.7506028 0.90815675 -0.37029 -0.3504221 0.12878124 -1.7244797 0.4736723 0.38042963 0.009878356 -0.666182 -0.5638866 -0.8095654 0.34353805 1.5344704 -0.5036422
947 -0.01146773 -0.042770024 -0.12038064 0.09472558 -0.03905137 0.68710935 -0.64721805 1.0204816 0.6596752 -1.0776342 -0.536188 -0.7376013 -0.1791326 -0.4560385 -0.018261204 -0.25214362 -1.3516552 -0.4963902 0.19136524 -1.0151764 0.7013779 0.86030126 -0.24158567 1.0063384 0.3886713 0.7288459 0.2154225 0.057252813 -0.9897783 -0.40479675 -0.35082504 0.27379423 -0.580898 -0.637385 -0.37618753 0.4575979 -0.35130906 -0.98357713 0.48255524 0.29745105 0.8167094 0.67472696 -0.25050926 1.302966 -1.0536544 0.9088323 -1.932089 0.19488823 -0.9231823 -0.7048514 -0.3105637 -0.31003425 -0.6925023 1.0837677 -0.57393533 -1.1584312 -0.69315344 -0.49157846 -0.9297268 -1.1462964 0.0037090168 -0.13726866 1.1993101 -0.20866056
363 0.47421974 -0.20475897 0.88557124 -1.1524435 0.18536519 1.1428527 -0.98756737 0.28703126 1.43938 -0.6108312 -0.13056625 -0.75057244 -1.0582011 0.15638186 -1.2086266 -0.3644703 -0.91673905 -0.99198467 -0.29528376 1.5409504 -0.15863824 -0.54207087 -0.8578164 0.9758166 0.5777244 -0.67488486 0.86622185 0.07710476 -0.2539507 -0.2396388 -0.44022742 0.96894115 -0.35238546 0.15343009 0.5272283 -0.6666779 -0.328859 0.4379402 -0.21737412 -0.45870453 0.14080991 -0.60733783 -1.1740457 0.23247167 -0.9534465 -0.18080172 -1.2539666 -0.18759078 0.07969419 -0.524334 0.7590367 -0.10112364 -0.4048828 0.25214022 -0.1619615 0.04307739 -0.049486753 -1.0814129 0.1351064 -1.0050305 -0.9179509 -0.23930304 1.5563325 -0.47975072
75 -0.049038794 -1.176615 -0.18865411 -1.1554534 0.8302362 0.7902283 -0.7241555 0.37994745 -0.08693124 -0.43558827 -0.02074328 -0.40912163 -0.7335526 0.10952236 -1.2661698 0.26316956 0.41054097 -0.8370136 0.24318415 0.38167605 0.58343697 -0.847414 -1.0869564 -0.42489704 0.46164405 0.69829357 0.033370335 0.2932373 -0.18039753 -0.8882569 -0.39473394 0.45643744 -1.5996922 0.08130142 -0.5261326 0.43611768 0.0026787112 -0.30455473 0.57472616 -0.5608969 -0.6928209 1.2025675 -1.8357924 1.4163414 0.87633705 0.120534845 -0.8149086 -0.47674686 -0.23394771 -0.19809657 0.28674504 0.14926583 -0.50272965 -0.7323244 -0.9393164 0.9215342 -0.03884045 0.5359035 0.61270267 -0.873819 0.3222527 -1.0724943 1.0992286 -0.25630173
654 0.42404094 -0.5375959 0.7066646 -1.7399986 1.3776231 1.1025044 0.17132089 1.0837072 1.1550964 -0.0059469813 0.17636146 -1.2582325 -1.1496793 0.67374665 -0.2527262 0.608632 -1.4320439 0.31165722 0.54678166 0.052649584 -0.42457613 -0.8251192 -0.29460937 0.6978509 0.3144497 -0.26180017 0.19401595 0.034604065 -0.54281926 0.2441094 -0.27727672 -0.60446924 -1.4143649 -0.2622847 -0.49288762 0.32226413 0.05751189 0.57756424 0.684164 -0.27968484 0.9582573 0.45767376 -0.5689849 0.5258556 0.5526672 0.65223897 -1.4642464 1.3964118 -0.7605731 0.38531506 0.08429428 -0.52250606 0.6243777 -1.0670054 -0.6505236 0.46461424 0.1818418 0.56892776 -0.17335725 0.029623223 -1.3746122 0.019841915 0.3985112 0.05617759
851 -0.15055141 -0.5567599 -0.056542303 -0.3738912 1.4472437 0.83057976 -0.0023177676 -0.2872489 0.77812684 -2.9184701 0.2522445 0.0578682 -1.4789826 0.16348615 -1.0005776 0.57416093 -0.10418602 0.42407373 0.2825188 0.7769557 -0.32308507 -0.0062439437 -0.5141097 0.020802915 0.3951393 0.5824423 0.17338222 -0.43074906 -0.18021533 -0.59741265 -1.0114791 0.9115018 -0.8265236 -0.05915972 -0.5665585 -0.3456674 0.1881409 0.21873914 -0.22614719 -0.089406535 -0.35916406 0.77294594 -1.456382 0.9080857 -0.5288187 -0.16144657 -1.3546306 -0.8179736 0.2523333 -0.5909623 -0.31051067 -0.38971972 -0.30762056 0.16615696 0.23051448 0.3895979 -0.35140195 -0.70999444 -0.9979955 0.23890416 0.15449013 -0.2514213 0.3489321 -0.8383318
1632 -0.98641485 -1.3844724 0.6635281 -0.42396554 1.1883309 -0.25713682 0.7839273 -0.6701374 -0.10025528 -0.83725417 -0.013293505 0.63665557 -0.9880489 -0.41247436 -0.107521385 0.3052772 -0.1296466 -0.44333813 -0.19715817 0.3632997 0.45775372 -0.0129188355 -1.6181406 0.4531432 0.8527681 0.14354856 -0.44151944 0.55835766 1.1280385 -0.8299237 -0.07109991 -0.653949 -1.5138983 -1.0661452 1.0754317 -0.5071885 -0.3834828 -0.1880196 0.83192575 0.42371386 -0.44435477 0.39981246 -0.30561227 1.2755828 -0.14948915 -1.1950729 -1.6525592 0.68560344 -0.1755051 -1.0126868 0.8287443 -0.23371296 -0.29723933 -0.53108054 -0.014710392 -0.22648196 0.73867387 -0.7302307 -0.42934334 -0.0013231727 -0.45553994 0.17139085 1.2708983 -0.16400604
1600 1.0979885 -0.5055687 -0.092344515 -0.5766513 0.49474207 1.8858347 0.07653943 0.5068304 0.38674876 -1.1974903 -0.7315419 -0.9040281 -0.7479281 0.42212173 -0.7122275 0.1911535 -1.86298 -0.991734 0.4637347 0.91579515 -0.48173583 -0.15161556 -0.57722497 0.24261045 -0.72143024 0.79861474 0.7349957 0.25903767 -0.4079883 0.33881277 0.24565186 -0.041508798 -1.4908628 -0.041178163 0.15631278 -0.67701924 0.5280703 -0.9012161 0.49662435 0.9185997 -1.0571257 0.6606111 -1.3783977 0.48420757 -0.7304581 0.2469841 -1.2548221 0.8437325 -0.5838538 -0.07942293 0.4859906 -0.5278123 1.0153049 -0.14207354 0.094247356 0.6415342 0.08276487 -0.16736276 -0.5469604 -0.91890234 -0.5606873 0.23743048 0.19200419 -0.1924643
2610 -1.028015 -1.7033207 -0.31341958 -0.6169914 0.7531028 0.91407186 -0.3399565 0.25571072 0.7371311 -1.6970868 -0.8385382 -0.28992173 -0.6638965 0.7972368 0.013531829 0.67400366 -0.30119112 -0.61594415 -0.79476875 0.01908469 -0.2559789 -0.7173194 -0.5072789 0.09550725 0.40269598 0.6856465 0.71223766 -0.29117742 0.06434805 0.09687899 0.38091066 -0.5840716 -1.3168926 -1.2258846 0.1252325 -0.1479695 -1.1354738 -0.42958373 -0.5050178 0.017688055 0.11107714 0.6398329 0.093773805 1.4032346 0.71685225 0.6120637 -1.043793 0.029895602 0.3435101 -0.1494895 1.5288476 -0.4736218 0.34686962 0.1436211 0.54573303 -0.3413234 0.557809 0.39703113 -1.1173011 0.64683807 -0.4821343 0.71624166 0.24701014 -0.72733516
63 0.47139534 -0.59255904 -0.45734584 -0.83685243 -0.53508943 0.89006084 0.49422723 0.70739996 0.7978224 -1.4871941 0.7078117 0.40411088 -1.4193627 0.19457965 -0.96491855 1.2172822 -1.3344358 0.23344919 -0.49026164 0.07282752 0.8317043 0.04546506 -1.239493 1.0777903 0.50474066 0.7824425 0.6039114 0.3854659 0.6962505 0.22330914 -0.8621475 0.12748584 -0.8098923 -1.0873424 -0.03182321 -0.2364984 -0.11223433 -0.120408155 0.254328 0.34892395 -0.25928107 0.5430409 -1.2470456 0.8665808 -0.04004204 0.9268785 -0.49354315 -0.4320801 0.2674729 0.54036677 -0.5809267 -0.45369154 0.50602806 0.93142253 0.33665526 -0.04942673 0.7765077 -0.23422341 -1.3067921 -0.66836786 0.3735703 -0.089670174 1.3356124 -0.5723949
2542 0.010284176 -0.9329267 0.078526214 -0.7374387 1.2654481 0.7178009 -0.21859351 1.2082688 0.6060603 -0.9645556 1.1974933 -1.4432898 -0.53618324 0.8936895 0.27667153 0.22993416 -0.5273152 -1.0638574 -0.49321967 1.0505488 -0.5158034 0.21091746 -0.8316261 0.63315153 -0.11162122 0.41071293 1.0224319 0.69124174 0.8057231 -0.32817256 0.0718273 0.7391635 -0.5042713 -0.028597075 0.6700791 -0.028763296 -0.31015 -0.07166025 -0.01401422 0.92529196 -0.3236863 0.460763 -0.21143326 1.2205217 0.02341239 0.3302963 -1.3820766 0.45516714 -0.7576133 -0.24450284 0.28259137 0.31347296 0.483601 0.2680588 0.4284892 0.41110045 1.058509 -0.73820114 -0.046111934 -0.23164737 -0.42255482 -0.5864729 1.160098 -1.6141735
1242 0.15506203 -0.5961625 -0.31294018 -0.27919242 -0.22248726 1.5705273 -0.31758922 0.4262762 0.047765274 -1.502951 0.46819133 0.3960714 -0.90660197 -0.09437229 -0.19047467 1.0414069 -0.47072294 -1.7806884 0.43700728 -0.3346743 0.27814543 -0.97676784 -0.5758602 0.6825095 0.91594946 -0.3685699 0.55133057 0.108309604 0.26565474 -0.5138245 0.29159302 0.028299505 -1.0130678 0.023276083 -0.37901235 -0.2733072 -0.61768746 0.26991144 0.09346542 -0.060921665 -0.3737959 0.48434448 0.3825909 1.0375953 -0.92186177 -0.12734495 -1.3576566 -0.15347466 -0.29040197 -0.11686527 0.54345447 -0.8851841 0.6183898 0.8902104 -1.4226937 -1.3491538 0.08489741 -0.40255064 -0.8648225 -0.7081643 -1.2328377 -0.3466569 1.4192542 -1.1042819
1424 0.39458498 -0.20815772 0.060354535 -1.1388161 0.45195007 0.526729 -0.7851091 -0.17101456 0.056914236 -1.71416 0.4277136 0.32660812 -1.107527 -0.91333026 -0.8299153 0.44921708 -1.6369922 -0.42231795 0.66204834 -0.8114096 -0.078390725 0.73431516 0.2759785 0.9450911 -0.08063334 -0.1153097 -0.10642604 0.3388187 0.2558878 -0.71727014 0.648912 -0.5775829 -0.7919718 -0.09359935 0.17396887 0.06916237 -1.0356281 -0.40318462 -0.625747 -0.392513 -0.21628039 1.5539746 0.43363073 0.4739276 -0.8994515 -0.08864133 -1.7056286 0.038539257 0.2743039 -0.8833171 0.9107446 0.3934629 -0.9156585 -0.24501638 0.5179537 0.1446204 0.47585797 -0.16649435 0.03215974 -1.0612247 -0.74351764 0.58938366 0.59463614 -0.73986834
2637 -0.5540167 -0.9862442 0.32915077 -0.96429116 0.48835537 0.8556242 0.6325295 -0.30189332 0.31788376 -1.4990662 -0.30971253 0.18861632 -0.2649029 -0.09829105 0.20694101 0.9720525 -0.35009277 -0.06099455 -0.36410397 0.92105144 -1.3454257 -0.6488668 -1.4579564 0.8315154 -0.32798412 0.8180994 0.5193018 -0.4033725 0.53991807 -0.4576634 0.84467906 -1.0132291 -0.5204873 -0.07711915 -0.778531 -0.09541556 0.19506691 -0.5095265 0.17989786 -0.091689974 0.2525642 0.92274284 -0.2123883 1.2903285 -0.23121953 -0.47526288 -1.2808995 0.77717704 0.2676094 -1.1602739 -0.34992486 -0.76597357 0.5908676 -0.09595773 -0.78865147 0.7382931 -0.14553747 -0.5600486 -0.9066519 -1.5197388 0.13099732 -0.35831988 1.051195 0.3334834
905 0.91225106 -1.118106 0.691075 -1.130776 0.600753 1.5640551 -0.45735586 -0.8364344 0.26984093 -1.7431341 -0.0012514236 -0.026939224 -0.67347777 -0.15887703 -0.5963097 0.23848262 -1.2421253 0.10813261 0.34271568 -0.69533724 -0.76644653 1.0709747 -0.47295824 0.5463359 0.4676833 -0.5866246 -0.11654241 1.1450406 -0.7935132 -0.16355261 0.85162926 -0.72182363 -0.84555656 -1.0150068 0.844252 0.12419175 0.8614673 -0.8965354 -0.7752112 -0.08990606 0.48876312 0.8290538 -0.74015886 0.5439738 0.60331124 -0.1577262 -1.2862484 -0.2716407 -0.26303476 -0.16932243 -0.33741164 -0.45239064 0.41244942 0.41429514 0.24233133 0.22541687 0.16999525 -0.27787158 0.344726 -0.11737746 -0.9811377 0.5352136 1.0680332 0.7721424
943 -0.0037592754 -1.4115988 0.5907384 -0.92544127 -0.4429752 0.121898204 0.5538692 -0.068421744 0.7639703 -0.708476 -0.52509344 0.042742454 -0.45965588 -0.16811234 -0.32948956 0.4419707 -1.4996036 -1.5245378 -0.4189796 0.6613464 0.78395396 -0.0891624 -1.0210977 1.4439017 -0.099612795 -0.15530913 0.11633367 0.5158315 0.24442805 0.29121175 0.27165833 -0.400443 -0.8157425 -1.3108157 -0.8081681 0.41635948 -0.85360837 -0.848433 -1.1895801 0.28183606 0.30309203 0.2889463 0.2326455 0.8227306 -1.2568877 0.67753434 -0.9061318 -0.50194323 0.7983792 -0.09066379 0.723208 -0.23282897 -0.46225512 0.3417828 -0.048978522 -0.60154927 -0.09319869 -1.3345127 -1.1504836 -0.40242785 -0.86241424 0.060059305 0.75283957 -0.9665498
2261 0.12413255 -0.5300922 1.2611598 -0.7152854 0.5742349 0.8921448 0.58343947 1.0312988 0.573847 -1.1153207 0.928065 -0.5519719 -0.24710709 -0.77214843 -0.039088886 0.9674949 -2.0695992 -0.4330941 0.19779529 -0.38254762 -1.0037575 0.08977765 -0.059002277 1.4803642 1.0170424 0.08133092 0.82577693 -0.024516761 -0.5777213 -0.62127936 0.051646896 -0.46077064 -0.3443353 -0.091679886 -0.10872036 -0.25085515 0.59553903 -0.4969784 -0.06619597 -0.831571 -0.032640707 -0.045729816 -0.19767492 1.393116 0.467103 1.023367 -1.325696 0.29668534 -0.20382328 0.23439439 -0.62811095 0.03421287 0.2409598 -0.66783416 0.3182872 0.7470694 -0.38299763 0.25380963 0.16563645 -0.44554546 0.018575586 0.020707076 1.5106304 -0.6791249
1726 -0.20010379 -0.8925216 -0.11823738 -0.19925636 1.4674604 1.0546007 0.23553397 2.0912294 0.77415603 -0.74979144 0.19859633 -0.91134334 -0.17069106 -0.784745 0.34696817 -0.009138512 -0.2913592 -0.8251897 -1.1425842 0.38164413 -0.075252384 -0.14448793 -0.80536664 0.39546025 0.83242923 -0.3910095 0.5579701 -0.07076452 0.47216296 -0.22918469 -0.8970087 -1.5141768 -1.2351718 0.08089969 -0.2969069 -0.8603057 -0.11458982 -0.56632286 -0.28724664 -0.5484801 0.17574903 0.9668031 -0.73521554 1.9060916 0.8180552 -0.76620317 -0.5457078 0.12084601 0.23661228 0.17180079 1.2501711 -0.43874648 -0.12651709 -0.082049444 0.35913485 -0.009949778 -0.12807134 -1.0074682 -0.3123758 -0.24078673 -0.75130427 0.24251993 0.6331336 -0.93492943
260 0.49690378 -0.89639986 -0.8073644 -0.859254 -0.09548978 1.3815702 -0.0035387902 -0.11533974 0.19665252 -0.94935644 0.11501603 -0.5807739 -0.6219878 0.17600274 -0.5284923 0.7141922 -0.7050722 -0.30045715 -0.16823684 -1.0440766 -0.5851565 1.1781124 -0.58277583 0.039183363 -0.45520627 0.051534813 0.019941006 1.1112301 -0.84872985 -1.2550061 -1.094939 0.3046526 -0.9808004 0.12037566 0.89723074 -0.1838161 -0.7220475 -1.3067145 0.34211183 0.013245183 0.39105016 0.9771143 -1.0265286 0.5465451 0.8453619 -0.4616553 -2.1502175 -0.09468429 -0.5202381 0.35497987 0.3399322 -0.6816137 -0.58572644 0.4554019 -0.4545467 -0.72629774 0.42670044 -0.8480122 -0.6216673 -0.66472423 -0.11238385 -0.3447719 0.303609 0.1733883
2396 0.576363 -1.3161834 1.0173535 0.04586192 0.66950715 0.41282618 -0.51610786 0.3188766 0.7227775 -1.2992871 0.025304653 -0.5904761 -0.21478589 -0.67924553 0.32948425 0.35570237 -0.5029052 0.3877721 0.8147546 -0.21961065 0.28473884 0.6348522 -0.14398 -0.1701328 0.08739419 -0.12054942 0.15724722 0.6171272 0.49955848 -0.83593196 -0.7450644 -0.17979915 -1.5702713 -1.0645702 0.048478317 -0.5482946 -0.3030407 0.1944065 -0.07068282 0.38350442 -0.39046842 0.29698563 -1.4441057 0.6851151 -0.19433464 -0.40360907 -2.1107707 0.8776621 0.14902197 -0.8166649 -0.20565598 -0.77593523 -0.18244562 -1.3333429 -0.35587707 -0.41936925 -0.35571268 -0.000696051 -0.35731834 -0.9192927 0.55269223 0.6886279 1.7959595 0.11646477
726 0.3387328 -1.337857 0.47994342 0.15545753 -0.22425608 0.9509436 -0.42031568 0.14991207 -0.09035315 -0.8629409 0.699337 -0.1313807 -0.82837254 0.75093955 -1.4524815 1.3556205 -1.8335985 -0.25192076 -0.2141598 -0.58795667 0.23899521 -0.2242149 -1.0240008 0.113179386 -0.5584329 0.031725015 0.10877698 0.904143 0.0995677 0.17033556 -0.09459206 -0.758727 -0.8977482 -0.42999467 0.39741653 0.549534 -0.38592464 0.37113497 0.63692784 0.19046722 0.88281536 1.0119163 0.15924972 0.8056303 0.13412365 -0.010657809 -1.8412299 0.4664267 -0.3751868 0.0672207 -0.64810157 -1.2035229 0.22242916 -0.24594639 0.15769434 0.62690425 -0.30803603 -0.72707397 -0.06395408 0.94835544 -0.78151983 0.9247318 0.9447259 -0.3924012
