1013 64
1 -0.12017001 0.040860463 0.03844825 0.4221649 -0.12358087 -0.2049271 0.13538732 0.10985787 -0.058966633 0.038710352 0.0478882 -0.066190064 0.07528529 -0.16385981 -0.18432775 -0.081253655 -0.15693744 -0.21134067 -0.16890593 0.21548457 0.0878956 -0.07981397 0.3205452 -0.28666076 0.07466905 0.35040888 -0.14305563 0.10829631 -0.48622835 -0.17381385 -0.17659661 -0.101486355 -0.014639328 -0.5031787 0.069364816 0.11703334 0.041422 0.029072624 0.33836567 0.056635693 -0.25120315 0.34959915 0.19115067 -0.2632005 -0.12481776 -0.25293368 -0.12359587 0.07185321 0.041844737 0.098958045 0.12226773 0.08709072 -0.149254 0.2090384 0.2667109 0.16496006 0.030318284 -0.35165596 -0.26699862 0.07251207 0.16735508 -0.23175687 -0.25641802 -0.0945931
4 0.058946796 -0.17526351 -0.3668362 0.5725947 0.05395763 -0.18747458 0.15547335 0.19999216 0.21022733 -0.17434344 0.28313157 0.0039622127 0.33681172 -0.16311933 -0.4593962 0.012664535 0.036362533 0.08544578 -0.06670935 0.19610696 -0.01687381 0.10909604 0.19453095 -0.40435025 -0.13224815 0.33459917 -0.043426234 -0.25634408 0.21542795 0.06773929 0.17717469 0.35162494 0.07151953 -0.21257374 0.019441053 0.39601144 -0.16761158 0.06927895 0.08859912 0.2152243 0.2613371 -0.008618067 -0.06669509 -0.05090684 -0.028009776 -0.34367347 -0.093575925 -0.12613747 -0.4887134 0.23151562 0.45830032 0.29450798 0.4523605 0.45731056 0.1730749 -0.2399533 0.040582564 -0.33354065 0.17809355 -0.3042105 0.06801399 0.098843515 -0.35734606 -0.1765041
5 -0.13503285 0.09918175 0.004765832 0.64698064 0.009966139 -0.051929593 0.23821498 0.13575737 0.17164588 0.032241285 0.17697497 0.086574234 0.3352896 -0.16991325 -0.48106042 0.13151354 -0.18392663 0.12441234 -0.07361303 0.13717434 0.01655728 0.014030399 0.39283478 -0.5108392 0.10730587 0.47407663 0.18366423 -0.03724831 -0.02769319 -0.14718731 -0.052965652 0.2713843 -0.2613469 -0.25107348 -0.17379111 0.051950622 -0.04848199 0.2613614 0.34628263 0.018617446 0.11336065 -0.030302748 -0.31656304 -0.1468818 0.2627812 -0.069370545 -0.13483512 0.18406129 -0.5673648 0.16959143 0.22808467 0.3894981 0.21470767 0.58100903 0.1814765 -0.5493232 -0.15788941 -0.35323787 -0.12010788 -0.23894961 0.06917925 -0.14615956 -0.25524926 0.1084077
6 0.2683482 -0.16026853 -0.3281248 0.66484326 0.0738721 -0.21572071 0.17621204 0.0039999625 0.07285025 -0.14514515 0.030445352 -0.10651471 0.6394174 0.034179322 -0.35673538 -0.04180545 -0.2038838 0.006086795 -0.36299124 -0.11469267 -0.20157811 0.28180942 0.21436764 -0.559571 -0.17290738 0.7393147 -0.2790024 -0.0938582 -0.08832966 -0.33286414 -0.22048895 -0.12967022 0.024416726 -0.35043484 0.064791545 0.22000588 -0.47276273 0.13078253 0.35242268 -0.09220272 0.035030246 -0.15948264 -0.26363 -0.09133798 0.10116225 -0.009632965 -0.23592483 0.17992786 -0.6135108 0.3936933 0.23193465 0.47627822 0.17747088 0.46469945 0.0778479 -0.46929687 0.12209389 -0.4432842 0.20613034 -0.036725957 -0.04653287 0.036928754 -0.39468914 -0.30744252
2 0.17081644 -0.27963042 -0.013620659 -0.046517532 0.025718106 -0.52002907 0.25432163 -0.015095612 -0.12915047 0.44372067 0.15383582 0.05955624 -0.33245647 0.07091625 -0.12363865 0.26416865 0.14825904 -0.29369333 -0.13420774 0.4849283 0.3211723 0.056412213 0.20426998 -0.50318545 0.25786993 0.09877691 -0.20822577 -0.35722217 0.030509148 -0.6682384 -0.2830756 -0.2898672 0.115601145 -0.49381638 -0.10621515 0.638848 -0.046294972 0.0527749 0.209315 0.5127436 0.24698319 0.10614329 0.11590494 -0.45907933 -0.32303688 -0.1178399 -0.15285622 -0.23491235 -0.13547479 -0.468306 0.18976597 0.45034838 0.23459312 0.31585848 0.32684243 -0.057596844 -0.16524115 -0.3224588 0.06506942 0.17922094 0.3780629 -0.38423857 -0.3576965 0.27254963
38 0.33840576 -0.119287595 0.6094812 0.6646551 -0.5401806 -0.23941875 0.37452662 0.48006052 -0.014541819 0.18647909 0.066444576 -0.41910842 -0.04106961 -0.35597134 0.061857805 0.3495525 0.6313886 -0.48891792 -0.64961064 0.47031656 -0.05099308 0.33837488 0.276405 -0.43743962 0.0751217 0.49723938 0.0067479964 0.014704189 -0.36250848 -0.24181706 0.06925669 -0.28172606 -0.43650904 -0.31632137 0.0050170314 0.19458306 -0.3030711 0.49812537 0.18401779 -0.10234931 -0.06427282 0.11268983 0.24094465 0.004248949 -0.022448886 -0.24790978 -0.30389866 0.16891645 -0.04558869 -0.54932797 0.3497221 -0.23892415 -0.057583652 0.23402354 -0.2913587 -0.2626162 -0.14484356 0.10239324 -0.1755618 0.06004548 -0.07253155 0.010495282 0.21810569 0.3884481
12 -0.14992817 0.07717743 0.34989062 0.31915745 -0.25540787 -0.30649358 -0.07035521 0.023874054 -0.2666593 -0.1780759 0.49370244 -0.18057755 0.24684581 -0.36358675 -0.32576442 -0.37113053 -0.08239538 -0.17625625 -0.5242118 -0.010746349 -0.10257649 0.19203979 0.5556001 -0.11382008 0.017814633 0.66258943 -0.3691918 0.16139057 -0.33276358 -0.10812768 -0.6408228 -0.043629017 -0.20703208 0.117746785 0.16702162 -0.21422696 0.2785142 0.052917685 0.5875802 0.36211982 -0.24749449 -0.198765 0.5185966 -0.10225405 -0.41095048 -0.025058739 -0.06694789 0.45919868 -0.11481853 -0.24838388 0.29992962 0.1408365 -0.14591743 0.38193822 0.021160096 0.14296505 0.41925046 -0.2992613 -0.43754888 0.33739927 0.11177262 -0.3890878 -0.12903087 -0.18399975
16 0.029916428 -0.43994215 0.19101715 0.047464907 0.24811304 0.1583718 -0.17907827 -0.20423718 -0.24150129 -0.04570742 -0.51336735 -0.2527318 0.28592113 -0.33530867 0.022935111 0.06299129 -0.12030941 0.10242629 -0.16148697 0.24783391 -0.05197027 0.18727407 -0.18789992 -0.28022477 -0.16437453 0.6863407 0.2466491 -0.14553887 -0.081518814 0.5333052 0.5422767 -0.26359564 -0.36410445 -0.63578504 0.071996726 0.18252009 -0.39120814 -0.43887016 0.91108865 0.19594127 -0.90514874 0.18486309 0.38435948 -0.13685697 0.39686796 -0.7312879 -0.06992812 -0.86024404 0.76143503 -0.16442211 0.33329317 0.110996164 -0.43597877 0.4876275 -0.5741205 -0.20011818 -0.21622954 -0.33249408 0.17651524 -0.2947521 -0.18474042 -0.666032 -0.19431157 -0.1295899
15 -0.46643764 -0.670529 -0.282927 0.07707668 0.27514407 -0.09493983 -0.22062898 0.4512853 -0.47926548 -0.09667244 0.71217287 0.5481785 0.085951544 -0.34087148 0.0774439 -0.25385338 0.2711619 0.24549863 0.047624655 0.118572816 0.04045733 -0.4854655 0.4220778 0.17434211 0.07746504 0.61346185 0.32953903 -0.34936753 -0.21179134 -0.11653994 -0.18680046 -0.09542142 -0.0136689395 -0.38820282 0.08002423 0.76969117 -0.3855221 -0.12018781 0.32565898 -0.3792704 0.120635144 0.5239001 -0.624574 0.079502985 0.20045736 -0.4685036 -0.25121447 -0.6310977 0.23238601 -0.20549782 0.9271163 -0.61987835 0.5520859 0.38242567 0.017916415 -0.34707642 -0.25589702 -0.7302627 -0.022447428 -0.086673506 0.2775202 0.20587726 -0.38850257 0.15020685
27 -0.21507666 0.36568797 -0.16205448 0.70141 0.22174019 0.10555876 0.14652622 -0.49413916 -0.04258561 -0.38134778 -0.56635684 0.73215747 -0.46044368 0.09875312 0.32007626 0.017910907 -0.38219324 -0.24723089 0.12371435 0.17347515 0.17671096 -0.59700024 0.5662579 -0.9876481 0.2794633 0.18459718 -0.32662824 0.14586687 -0.36123747 0.112683944 0.32681847 0.14979112 -0.24221665 -0.2050896 0.1779893 -0.07060194 -0.40490803 0.55553025 0.02152679 -0.16895057 0.45312658 -0.0838824 0.11642546 -0.66547966 0.12036812 -0.67745 -0.13993514 -0.3929453 0.050758492 -0.3562875 0.23793072 0.13292652 -0.17748207 0.17522381 0.16248137 0.42392522 -0.43039632 -0.19948272 -0.18508506 0.15752245 -0.41446176 -0.65535057 -0.38891006 -0.69658303
10 0.25267842 -0.024130756 0.4078179 -0.080276266 0.39651173 0.16780674 0.061615855 -0.52932155 -0.20685291 -0.23882264 0.21336362 -0.558939 -0.1385388 -0.189005 -0.25955814 -0.37985104 -0.20563626 -0.28987285 -0.44965467 -0.15556863 -0.03535271 0.041242067 0.59146154 -0.113368385 -0.5153977 0.7919997 -0.33925417 -0.18409835 -0.2750424 -0.17787512 -0.13204773 0.5371393 -0.07178444 0.17653386 0.3039237 -0.2371998 0.06574406 0.27947772 0.31126398 0.54304844 0.5901057 -0.43082008 -0.5499758 0.15944403 -0.014268966 -0.5774908 -0.03746004 -0.14753492 -0.037823983 -0.27259827 0.39648145 -0.034845844 0.040191464 0.3597275 -0.074134015 -0.08213655 0.6101004 -0.31576887 -0.06297981 0.14813179 0.45326433 -0.1068477 0.03119991 0.30184367
9 -0.17355569 0.22967304 0.5333865 0.018194707 -0.029174125 -0.17344113 -0.0042838873 -0.21472742 0.008719479 -0.5237474 0.36265087 -0.14317065 -0.034784827 -0.27109155 -0.76704204 -0.42230704 -0.22546907 0.14867459 0.06324779 -0.15661106 -0.40015215 0.20257849 0.17884336 0.07867154 -0.37134883 0.7567784 -0.61435634 0.08107654 -0.2898329 -0.3447284 -0.39266434 0.37912965 -0.30080488 0.029049426 -0.0693911 0.09849319 0.44983035 0.027180418 0.28858554 0.59452164 0.57109183 -0.109391615 -0.08129332 -0.32095048 0.23533045 -0.12435587 -0.5397527 0.17741126 0.34918994 -0.4325539 0.26315722 0.17532521 -0.12304174 0.50412357 -0.074196905 0.5435477 0.73525965 -0.4328247 -0.48481196 0.16285518 0.08962784 0.14445199 -0.29701263 0.05271678
19 -0.15576681 -0.59037805 -0.06469056 0.40727928 0.11892161 0.28058395 -0.22175 -0.03262754 0.8413291 -0.4203316 -0.04208201 -0.4233427 -0.69002044 0.03199518 -0.4090086 -0.07086313 0.14799926 -0.00945281 0.2164771 0.41065454 0.5013597 -0.2790035 0.12091688 -0.29143322 0.2137357 0.6241637 -0.08627108 -0.18491432 -0.40273568 -0.23643532 0.280154 -0.26432192 -0.36344868 0.38371524 0.09074618 0.6448887 0.51378775 0.07762605 0.5660192 -0.1270255 -0.6221456 0.57322943 0.06864944 -0.08237363 0.62152666 -0.6131839 0.57265043 0.1326857 -0.26094046 -0.56546074 0.13939634 -0.39016995 -0.15830006 0.31232738 0.7659232 -0.3371053 0.5764643 0.3194361 -0.19503982 -0.58756995 0.2132126 -0.07804493 0.07365612 0.0027420633
35 0.08188518 0.17854509 0.34265265 0.26039922 -0.0768229 0.39743856 0.53355896 -0.29396558 -0.037731234 0.2930476 -0.14644977 -0.046156544 0.007638883 0.0040286183 0.24015214 0.12759513 0.12684715 -0.16807498 0.014479702 0.4724704 0.08519371 -0.23158781 0.36469924 -0.50521827 0.22710048 0.1879903 0.3592022 -0.36261266 -0.3942424 -0.52617383 0.52915436 0.082970634 -0.4711557 -0.24169132 -0.31746113 0.6311524 -0.48606372 0.54881096 -0.16311403 0.20150526 0.09925142 0.4697745 -0.19203003 -0.20500518 -0.24845545 -0.7919565 -0.483709 -0.18204272 -0.3544673 -0.55920535 0.562212 0.17053933 0.0559778 0.1786435 -0.079554364 -0.42085788 -0.31542066 -0.16937476 -0.31048194 0.100038305 0.15863985 -0.33252832 0.33169085 0.7325243
11 0.48268265 0.3268055 0.39030337 -0.44103548 -0.2028861 -0.33171752 -0.24228613 0.9717712 -0.41138843 0.2935752 -0.15683474 0.06891932 0.20245571 -0.43151215 -0.13864893 0.20438279 -0.3973169 -0.33290127 -0.19846573 0.8772061 0.205671 -0.6303309 0.83494097 -0.32109797 0.2455766 0.8469679 -0.27433822 0.04880983 0.3616091 -0.49302328 -0.2582086 0.59396523 -0.18718097 -0.49809182 0.23351632 0.09451717 0.27503678 0.4286704 -0.12305951 0.62250787 -0.18167332 0.30884263 -0.04054961 -0.036715142 -0.24001127 -0.070834115 0.10184116 -0.5654712 -0.05284338 0.01979023 -0.22269326 0.12263987 0.29124415 0.21463573 0.07443642 -0.04584638 0.25716856 -0.070926644 0.27880874 -0.4888382 -0.3057474 -0.50632805 0.38060394 -0.18685243
8 -0.06941857 0.22432339 0.66994476 0.0994017 -0.083707266 0.051579762 -0.017117314 -0.5225766 -0.20331836 -0.58647674 0.11663731 -0.16730976 -0.3127632 -0.4729886 -0.62299544 -0.60141337 -0.1809357 -0.55123264 0.1998222 0.17924581 0.14379293 0.043957073 0.52258086 0.23259038 0.028183756 0.36348468 -0.84586805 0.05448449 -0.24419697 0.0647121 -0.25159165 0.74140865 -0.10933984 0.4155602 0.5104935 -0.10544818 -0.4766406 0.4053258 0.4726903 0.36906284 0.46031716 -0.26900125 0.32867137 -0.47146592 -0.21829613 -0.5818922 -0.10244397 0.10234561 -0.14294514 -0.46783987 0.5075522 -0.17744698 0.3787906 -0.11680846 -0.12938306 -0.035348713 0.12031032 -0.53808326 -0.072455846 -0.38804117 -0.036811333 -0.28209212 0.26251483 -0.00085446297
22 -0.11878562 0.28423953 -0.18969107 0.07281639 0.44341025 0.26178163 -0.20549116 -0.31359902 0.3284103 0.19498505 0.19625308 0.3218686 -0.0051118215 0.10708178 -0.18430257 0.50146204 -0.503689 -0.1352775 -0.49701115 0.97580254 0.0676501 -0.010720401 0.32138726 -0.28718513 -0.7621291 0.4510657 -0.3112003 -0.28634983 -0.9141577 -0.14561878 0.08110758 -0.21246754 -0.03720206 -0.3666571 0.30453637 0.1523824 -0.5836838 -0.093041874 -0.047728274 0.18465829 -0.398002 -0.009820743 -0.3473801 -0.84316033 0.29689813 -0.70727134 0.33451968 0.10892957 -0.46282533 0.40954277 0.32664865 0.18776134 0.103269346 0.04967206 -0.13546237 0.46231633 0.53354675 0.2909936 0.031826623 0.2999116 -0.8035935 0.1677704 -0.41255227 -0.42200473
23 0.6035085 0.11337333 0.36882734 0.5729975 0.26681694 0.071637265 -0.25444537 0.03204931 0.65679985 -0.2974381 0.79379624 -0.3900838 0.50970554 0.19168551 0.047440406 0.635632 0.26444572 -0.097403154 -0.3519267 0.6548337 -0.0454919 -0.18068968 0.75501734 -0.28147244 -0.17840633 0.1841067 -0.06267981 -0.55061567 -0.2761191 -0.54153395 -0.60227656 -0.008325769 -0.1768212 -0.5373257 0.10467715 -0.3409818 -0.89692897 -0.47730473 -0.41299266 0.647124 0.10484367 0.3099575 -0.36542976 -0.7130345 0.27157274 -0.16308601 -0.35998896 0.0028809288 -0.033384167 -0.3220001 -0.0865788 -0.5215452 -0.44159955 -0.188255 0.5499247 0.4757736 0.058051784 -0.22291605 0.4178884 -0.036771078 -0.2920874 0.23402911 -0.0768847 -0.64695656
25 0.2713896 0.31964064 -0.1648421 0.33896527 0.15597257 0.24677321 0.19251539 0.02711647 0.15033743 0.05883489 0.005412493 -0.00050618104 -0.4489658 -0.0061430065 0.07132938 0.33401677 -0.35952923 -0.05442361 0.076022 0.68053764 -0.053569034 -0.14938428 0.079986006 0.047614567 -0.5444292 0.657059 0.07712958 -0.258027 -0.18070167 0.6933102 -0.33661944 0.3115161 0.38538805 -0.14199653 -0.34915516 -0.27964568 0.40023115 0.7440435 -0.08794197 -0.04796051 -0.6080353 0.569558 0.4997075 -0.48448852 -0.85527396 -0.27038413 -0.35712954 0.21780945 -0.09790661 -0.7721481 0.36610597 -0.8263106 0.019106274 0.5966493 -0.046690956 0.4601169 1.0617224 -0.22595467 -0.35151684 -0.5721425 -0.9774556 0.41314334 -0.028025538 -0.63267934
93 0.126753 0.029331973 0.22173402 0.22914727 -0.29926327 -0.33456707 0.103277095 0.33722824 0.041395873 0.71289057 -0.15190813 0.5548022 -0.32077464 0.24064836 -0.4826826 0.4568904 -0.007533129 0.13629325 -0.26583797 -0.26942465 -0.4340757 -0.45050332 0.03276984 -0.20004961 -0.4929653 0.77432734 -0.11187143 0.045289967 -0.39374638 -0.61276233 0.8494986 -0.34640267 -0.3815951 0.03618634 0.21088797 -0.3416814 0.10408832 -0.35282007 0.43092936 -0.09677542 -0.33908314 0.28722867 0.80536866 0.9408623 -0.46935847 -0.64845896 0.6123228 -0.18367383 0.073141165 0.04282406 0.84386855 -0.09649436 -0.5878742 0.7695979 0.61810124 0.2782315 0.2465426 -0.6276264 -0.22707403 0.24464008 0.5760252 -0.5695167 -0.55029255 -0.22168112
815 -0.19976416 0.2604427 0.0083879 1.2206495 -0.66760486 0.23282063 0.5490368 -0.2874442 -0.20782459 0.34750247 0.13510454 0.16515899 0.05229383 -0.5077519 -0.17637736 0.17574655 0.41335666 0.0529343 0.16276321 0.76294947 -0.4064631 0.7682408 -0.48086035 -0.5329043 -0.060640536 -0.010838861 -0.75931823 -0.98707044 -0.6379104 -0.1100527 -0.19514985 0.70077735 -0.4475363 -0.7987598 0.32502392 0.536692 0.44935262 0.27181247 -0.065283686 -0.21417609 0.42419946 0.41558856 0.5434504 0.36864442 0.31589374 0.40063196 -0.8096519 -0.35279873 0.27281117 0.14573917 0.58241177 0.15848243 0.0017223869 0.13209847 0.6892831 0.18267372 -0.09337223 0.3099995 -0.022551991 -0.48300323 -0.30965415 -0.15989083 0.24022262 0.10203469
772 -0.17675829 -0.37509802 -0.30822697 0.032896373 0.42247832 -0.23034967 0.17948239 0.28078142 -0.7851231 -0.32812935 -0.035261672 -0.022379214 0.89772373 -0.47110733 -0.2621003 0.29686153 0.29853377 -0.025746329 0.16159315 0.6449942 0.765042 -0.3430479 0.8512125 0.23630226 0.46708056 0.03712543 0.2770639 -0.18772675 -0.3564834 0.40401423 0.5003383 0.545537 -0.018503305 -0.14238743 0.33825752 -0.17480221 0.24865606 -0.0716404 0.7370357 0.6434389 0.29971805 0.11685099 0.65668637 -0.22957182 -0.09269012 -0.9384251 0.019834828 0.39194143 0.09539298 -0.13180788 -0.032266624 -0.45800892 0.31844473 0.37526932 -0.38894194 0.73577446 0.7351587 0.34388733 0.477226 -0.531218 0.5394794 -0.41735607 0.397223 -0.011081869
735 0.39401627 -0.8294683 0.7581611 0.041621894 -0.22499935 -0.7600639 -0.26255298 0.49502352 0.029088186 -0.49230242 0.45242903 -0.27761132 0.6693741 0.2202163 -0.52443063 -0.24940813 -0.26006255 0.2062455 -0.1789261 0.25646734 1.091281 -0.27457342 -0.060507912 -0.5774894 0.10259749 -0.06384483 -0.51386976 -0.59440535 0.4492934 0.3368223 -0.07566998 0.8635305 0.56038135 -0.43837658 0.5122737 0.13592678 0.14685233 0.12813012 -0.08537542 -0.03792176 -0.24616292 0.48118344 0.35440332 0.1629322 0.3553958 -0.8492694 -0.21448527 -0.31761897 0.4179459 0.047727156 0.306733 0.33316776 -0.57877344 -0.0821167 0.53930336 0.5001835 0.046363432 0.39543748 -0.20540248 -0.22521827 0.35388005 -0.25730464 -0.70671874 -0.615979
785 0.11649266 0.0006320263 0.25597215 -0.19606994 0.3130071 -0.011408274 0.073154114 0.066660084 -0.38626447 -0.13143013 0.034497738 -0.951166 0.30569115 0.059224553 0.23108616 0.27281415 -0.4541352 -0.7108919 0.85418046 0.543841 0.48063403 0.4296551 0.19701535 -0.588763 0.18149224 0.734259 -0.571839 0.39857084 -0.78224444 0.2563482 0.4359338 0.58019906 0.2397198 -0.66747606 -0.2865926 0.40179038 -0.13059998 0.642261 0.037978906 -0.17322941 -0.21852364 0.66550785 -0.14482145 -0.28961283 -1.0074582 0.030902088 0.683837 0.013778293 -0.18801741 0.51076823 0.07539178 0.2807391 -0.42220506 0.18357308 0.06224937 0.7822005 -0.2697407 -0.46577337 -0.92422944 -0.52588385 0.26589587 0.39284348 -0.6078707 0.6478949
786 0.49388018 -0.3690843 -0.39395982 0.7167412 0.3879079 -0.50622505 -0.45495203 -0.046972115 0.47986853 0.68288606 -0.19478011 -0.46839914 0.033245925 -0.7101351 -0.5822821 0.07404706 0.7601104 0.6646753 -0.19785652 0.6562611 0.48955306 -0.05965117 0.5176942 0.1847134 0.18125837 0.37725404 -0.36661914 -0.35886136 0.32244936 -0.4258254 -0.1685516 0.550223 -0.01172018 -0.035690047 -0.7791311 0.08196504 0.115590565 -0.16544391 0.77932304 0.4623125 -0.2509191 0.2611334 -0.025498461 -0.24383219 -0.29864496 -0.37689686 0.05416943 0.30992544 -0.23953845 0.10800102 -0.2540812 -0.5748076 0.34200913 0.8211733 0.072113276 0.39352372 -0.35186467 -0.3569685 -0.4186317 0.34147152 0.34022468 0.8901893 0.50557023 0.2982236
826 -0.33768588 -0.49068415 0.29969892 -0.12673856 0.8427087 -0.042438697 0.09818896 -0.064632826 0.090873756 0.15687634 -0.015952665 0.22506708 -0.3973248 0.16781893 -0.83526385 1.0643287 -0.74584746 -0.39514172 0.016399844 -0.03061216 0.7431165 0.25091898 0.54004073 0.1415829 -0.45805717 0.65212584 0.4829301 -0.5387602 -0.63127595 0.30617908 0.22528672 -0.21946761 -0.203377 -0.6003624 0.21881565 0.4727541 0.2594525 0.040109724 0.11651901 0.021451123 0.6760868 -0.39103404 0.14883994 -0.22877078 0.61602885 -0.10662451 -0.36621904 -0.7499443 0.25381938 -0.22026533 0.26077795 -1.0056103 0.3736186 0.30183968 0.18318394 0.5973108 -0.3176603 -0.26067626 -0.41533962 -0.39236882 0.26977694 0.806776 -0.05783993 -0.11972344
680 -0.058001805 0.26341698 -0.6108173 0.55617577 0.372267 0.26089972 0.07069529 0.6021009 -0.018204974 -0.00529821 0.2716047 -0.0868405 0.6771298 -0.51322216 0.4106964 0.031529244 -0.17461768 -0.7592714 -0.5648998 -0.5419835 -0.48171502 -0.11430787 -0.45850667 -0.3840699 -0.7882031 0.2854007 0.3400687 0.057952825 0.015012336 0.28578335 -0.1649147 0.35223356 -0.56805295 -0.49271584 -0.4412647 0.12618135 -0.03919221 0.18931639 0.3462418 -0.14656302 0.72480136 -0.13786013 0.41241932 -0.014437417 -0.46622097 -0.7664469 -0.4863174 -0.12623869 0.71614456 -0.16802496 0.7555157 -0.9758019 0.24287318 0.2514703 0.57140267 0.17929126 0.6757774 -0.7637692 -0.27261326 -0.14709757 -0.41557527 -0.21830252 0.1619299 -0.16582303
399 0.12887424 -0.028947826 0.099292636 0.10330585 -0.082342654 -0.08051024 0.1786982 -0.145326 -0.29964924 -0.17662632 0.33700234 -0.07223029 -0.21390945 -0.09313229 -0.02662503 0.060963903 -0.10785666 -0.2014092 -0.050857935 0.1782559 0.16236761 0.21075335 0.37088063 -0.1267788 0.07060253 0.35928547 -0.08938483 -0.13023797 -0.09572279 -0.09466074 -0.029354494 0.086856514 -0.21154794 -0.21056288 -0.064505264 0.1028385 -0.08653386 0.17143962 0.09461043 0.11928792 0.062869325 0.09936714 0.1948906 -0.26408714 0.18284479 -0.33617684 0.028997552 0.068844594 0.13225849 -0.057844266 0.23799358 -0.15213883 0.14102362 0.32412103 0.12994425 -0.075072736 0.12020779 -0.21517193 -0.086188786 -0.15081972 0.09308247 -0.15806162 0.07542133 -0.17772445
814 0.28063065 -0.0534562 -0.017975107 0.18269745 -0.009549025 -0.026488403 0.14046134 -0.10596701 -0.2468109 -0.22561821 0.3433767 -0.08929588 0.014975245 -0.08239207 0.038175777 0.17812985 -0.036416832 -0.21316358 -0.032009427 0.23758474 0.018804252 0.12059262 0.34157214 -0.3492898 0.09821992 0.44001517 -0.17831644 -0.11959475 -0.03693114 -0.20019811 0.0047686244 0.097465396 -0.27748117 -0.2589959 -0.10496118 -0.042052545 -0.0009106548 0.14815299 0.17156793 0.07585635 0.032130998 0.13809443 0.011432666 -0.06771273 0.07022475 -0.25062343 -0.039139472 0.031322956 0.14845648 0.011041814 0.22118671 -0.06525502 -0.022758726 0.2734372 0.21630864 -0.12220133 0.069440536 -0.25419348 -0.14715506 0.09595546 -0.22912382 -0.1692336 -0.039075844 0.10443858
598 0.1905608 -0.071419924 -0.0014828739 0.2871204 0.06370104 -0.041660216 0.039672952 0.20235015 -0.41475224 -0.13448134 0.18476635 0.01460687 -0.046359777 -0.11386814 0.02727827 0.022792824 -0.06047497 0.051113855 -0.05986851 0.18123329 0.048075248 0.22188707 0.20622149 -0.15064478 -0.11234946 0.33014777 -0.20496377 -0.1924616 -0.053507715 -0.24384293 0.15190461 0.11485064 -0.29615524 -0.087991685 -0.07231849 0.052641563 0.020056147 0.005570016 0.18514691 0.08892506 -0.10809598 0.0861319 0.10623205 -0.12601636 0.077171154 -0.4376663 -0.071028955 0.049084302 0.087613456 0.07273088 0.2096056 0.0088713635 0.15278047 0.31212202 0.2622223 -0.00029865635 0.22224759 -0.38017592 -0.066171795 -0.18265872 0.08721753 -0.29908004 0.12649524 0.009684618
643 0.098549634 0.025883034 0.03013518 0.13450837 -0.096374944 0.0053013833 0.08749801 -0.06721899 -0.41351175 -0.16060105 0.20144519 -0.05633021 -0.15383837 -0.09773514 -0.06397422 0.05938371 0.063895926 -0.027690984 -0.053153016 0.1935739 0.18547559 0.12649214 0.38681015 -0.2035543 0.00970868 0.3076724 -0.010821015 -0.1292756 0.038418338 -0.15433113 0.015635926 0.10653527 -0.3235859 -0.196662 -0.034432244 0.10529016 0.020477226 0.23444714 0.17470513 0.07775021 -0.00030293938 0.12112171 0.08220849 -0.1838 0.112182535 -0.51593053 -0.03981269 0.023156859 0.019461034 -0.07883678 0.20188676 -0.03774725 0.16888142 0.35105908 0.055094346 -0.035682574 0.23733059 -0.14108609 -0.17831923 -0.16723858 0.0034020403 -0.25316337 0.0047028787 -0.20453905
881 0.2796759 -0.033012357 0.022763705 0.24899688 -0.05828272 -0.19893268 0.14212286 0.12596509 -0.28882214 -0.06401716 0.154868 -0.055092026 0.020809809 -0.1371189 0.013444547 0.027692594 -0.09737028 -0.11638168 0.0072618714 0.21161874 0.05136909 0.16849402 0.1639584 -0.268326 -0.10795739 0.48612374 -0.27721342 -0.15453857 0.06586463 -0.18609317 -0.03680174 0.0070492816 -0.27319428 -0.2025799 -0.111627154 -0.10733883 -0.04816659 -0.008604455 0.16992784 0.05892561 0.057150144 0.08736056 0.08270256 0.004775584 0.06611801 -0.30694795 -0.19167341 -0.16365424 0.12985873 -0.05357309 0.17811885 -0.09681513 0.009364806 0.45767546 0.26041093 0.1412942 0.11493803 -0.30286604 -0.09287697 0.069302306 -0.14879468 -0.12810674 0.15048635 0.15962628
955 0.15005189 0.12184542 0.10871005 0.16243495 -0.109741636 -0.10164505 0.05760496 -0.009170263 -0.2469501 0.0078400895 0.2677744 0.06816404 0.13389848 -0.0838612 -0.03538306 0.08599891 -0.25878656 -0.006518738 0.09827196 0.210381 0.056514684 0.12903537 0.29288673 -0.530907 -0.16995052 0.18869074 -0.2487152 -0.22969264 0.10886352 -0.0725608 0.08226709 0.07205051 -0.3741872 -0.33198214 0.016280415 0.047570825 -0.11794251 0.13066123 0.2584503 0.16828425 -0.038131174 0.14896947 0.06872006 -0.21739012 0.0072678877 -0.4033895 -0.14333822 -0.009888547 0.14250922 -0.07975062 0.28093284 0.02023713 0.104844004 0.17891309 0.34178546 0.10952151 0.051228993 -0.020353463 -0.03111918 -0.020688478 -0.11589528 -0.07489639 0.15330043 0.040568065
708 0.10680628 -0.013085253 0.14111818 0.0974681 0.024132984 -0.17333557 0.13007338 -0.06338421 -0.28246334 -0.057770662 0.1800057 0.016919954 0.017980402 -0.01093539 -0.12765032 0.14644693 -0.040946677 0.14192742 0.011833808 0.16745688 0.25779775 0.0668463 0.36361647 -0.3200211 -0.074058756 0.30576488 -0.17621523 -0.1550082 0.079731226 -0.15506777 -0.058275003 0.094667085 -0.1743918 -0.16333404 0.07523673 0.1289221 -0.20966792 0.12537092 0.20205 0.16702282 -0.0038613204 0.19108889 -0.101532176 -0.18404545 0.2441549 -0.5069929 -0.056441166 -0.12868702 0.05306444 0.08944207 0.22473219 -0.009044749 0.028436093 0.16087252 0.21223171 0.084804215 0.16116725 -0.11852232 -0.07654718 -0.17053427 -0.011196137 -0.1295761 -0.06709195 -0.118994534
308 0.1970756 0.1442099 0.016962914 0.24414547 -0.115003124 -0.083972506 -0.1386056 -0.1598516 -0.16264729 -0.14767796 0.24291083 -0.18826465 -0.11486919 -0.06880437 -0.044085927 0.020188594 -0.1624683 -0.14630115 -0.03296742 0.16205592 0.020602882 -0.054068323 0.21046801 -0.2656434 -0.1979852 0.4049753 -0.0656972 -0.18145111 0.09930655 -0.08913325 -0.10321756 0.013146657 -0.29707468 -0.29695353 0.039914563 0.0099848695 -0.18824683 0.2498738 0.13092785 0.127557 0.046099093 0.061564326 0.048038326 -0.22522017 0.04988528 -0.40690053 -0.050343197 0.03931834 0.0990185 0.0431843 0.21711124 -0.12225385 0.11228017 0.45379487 0.08230126 0.15941179 0.14446263 -0.23807706 -0.104730666 -0.013195969 -0.101230614 -0.2116236 -0.028280761 -0.06832184
490 0.17314577 0.05299478 0.17113864 0.40209824 -0.14850967 -0.22386043 0.044971365 -0.07045455 -0.16665101 -0.17855479 0.21597491 -0.10340552 -0.19498503 -0.056671828 -0.07752495 0.03187318 -0.18886106 -0.03118886 0.010806921 0.273724 -0.028569413 -0.0061678174 0.23202334 -0.24820983 -0.25940546 0.33887008 -0.27358022 -0.32895797 -0.05828069 -0.2531601 -0.022494683 -0.040144306 -0.18993036 -0.19001874 0.06983123 0.045657095 -0.23051515 0.045925945 -0.02427466 0.14716423 0.056477297 0.11992901 0.09676343 -0.07474113 0.02491843 -0.36499676 -0.014058192 0.17380582 -0.03901876 -0.060081087 0.2813868 -0.043683264 0.20103389 0.45113006 0.085506804 0.09990738 0.12896815 -0.1074296 -0.13950785 0.022774551 -0.2775983 -0.06924529 0.17088485 -0.09265133
76 0.14194956 0.015558813 0.19738214 0.14298256 0.1749138 -0.2815558 0.0888056 0.035611965 -0.16466574 -0.008400312 0.29063526 -0.016062267 -0.026715474 -0.11118138 -0.09657535 0.26685908 -0.003718699 -0.023806771 0.067087695 0.045904223 0.23194826 0.016180268 0.30043447 -0.30127275 0.07255292 0.21298477 -0.21147026 -0.2533427 -0.1581631 -0.23528762 0.06360429 0.15347397 0.0677867 0.022620244 0.035306413 -0.0010673924 -0.07733241 0.1622837 0.15774621 0.13080129 -0.033375658 0.28184685 0.1874162 -0.24859169 0.045018155 -0.431931 0.098663695 -0.050421797 0.04246626 0.21133591 0.2778995 -0.16746563 -0.02060204 0.2591186 0.28263658 0.047093034 -0.019320605 -0.19116609 -0.18024892 -0.2197515 -0.11935995 -0.22826234 -0.048348375 -0.17320591
1005 0.26321977 0.07439482 -0.024538416 0.09960229 0.09719445 -0.19229585 -0.12031546 -0.01685542 -0.15230745 -0.17508076 0.22342375 -0.096828066 0.062031224 -0.059149206 0.053051013 0.22567087 -0.2390416 0.010431969 0.19776842 0.40530387 0.02388414 -0.007687763 0.13772936 -0.107067734 -0.17250751 0.34135637 -0.22920002 -0.055000663 -0.15303636 -0.13143332 0.081974715 -0.02019501 -0.31234732 -0.15721643 0.13517916 -0.042336915 -0.06879775 0.17583957 0.24547958 0.14055088 -0.031479668 -0.04015783 0.024670288 -0.16817191 0.13941497 -0.3372452 -0.025296826 -0.06341894 0.08196251 0.30871144 0.24753818 0.00685723 0.0010510265 0.45259094 0.21305463 0.043347012 0.1845177 -0.4224184 -0.17460358 -0.037837382 -0.010556235 -0.29726395 -0.06955927 0.0022125498
904 0.20915969 0.0968059 0.13719583 0.22779204 0.17669132 -0.2356628 0.10728189 -0.09939766 -0.2014581 -0.13814633 0.1316279 -0.09774319 -0.0113842655 -0.06843997 -0.029268138 -0.067451 -0.17607622 -0.048813757 -0.032688458 0.24662241 0.05671539 0.1262184 0.27375633 -0.17398855 -0.059098545 0.39661756 -0.21223883 -0.2590837 0.24414441 -0.15302555 -0.11044773 0.0416344 -0.38606364 -0.24457972 -0.11997339 0.06021516 -0.19509731 0.17075323 0.18154886 0.040048208 0.050498474 0.11147741 -0.03567413 -0.26592204 -0.051381286 -0.42245066 -0.07839208 -0.047812734 -0.08461524 0.022235645 0.12098325 -0.018946555 0.032778803 0.32706046 0.14718135 0.21516383 0.047446538 -0.23090571 -0.020804383 -0.07313975 -0.09202066 -0.12050036 -0.022404937 0.015535551
518 0.18538834 -0.06762659 -0.03253738 0.18912305 0.03264566 -0.059722137 0.012397248 -0.0824745 -0.30278543 -0.18998417 0.2399218 -0.19782408 -0.121068284 -0.07485084 -0.0588601 0.028284468 -0.080188945 -0.19482484 -0.10585121 0.123355374 -0.031999283 0.059046775 0.26260304 -0.3822579 -0.13832784 0.54423714 -0.21065763 -0.21653986 0.073982194 -0.3761226 -0.12200473 0.07163113 -0.30950174 -0.091128826 -0.0722399 0.0325479 -0.13622929 0.05023506 -0.020684794 0.12384692 0.036198147 -0.011406559 0.034648057 -0.13780785 0.05417937 -0.46248287 -0.049944405 0.029658277 0.1129714 -0.022713223 0.19100791 -0.12594187 0.038170096 0.22772948 0.24654944 -0.044428382 0.19975077 -0.31865162 -0.13322663 0.05207415 -0.09995851 -0.07608601 0.069391355 0.16108674
976 0.07961782 -0.1037388 0.22130309 0.3221221 0.16010608 -0.29692498 0.33902526 -0.14490968 -0.20052189 -0.13606717 0.16000775 -0.022935124 0.001288884 -0.2741731 -0.14865334 0.14137092 -0.06702746 -0.12542991 0.096940376 0.27898693 0.2831801 0.27229714 0.28730017 -0.111076474 -0.09105902 0.56528676 -0.006127381 -0.053448416 -0.02058352 -0.17387035 -0.21504621 0.118062556 -0.18497805 -0.08553109 -0.058198407 0.0039016793 -0.15590227 -0.033956844 0.105429746 0.1397711 0.11819009 0.17854176 -0.057278037 -0.3073624 0.15749985 -0.37462008 -0.036811978 -0.069072545 -0.020086741 -0.08914547 -0.052066386 -0.2083068 0.21777993 0.3002513 0.13572583 0.029060813 0.07451495 -0.18843614 -0.08434453 -0.13838589 0.1590788 0.02948203 0.058269557 -0.17917776
230 0.13279794 -0.12060228 0.25497887 0.29665855 0.23123658 -0.20486721 0.13157171 -0.08361723 -0.19037594 -0.14387046 0.13776346 -0.18142527 -0.09430809 -0.04815824 -0.08881822 0.1138247 -0.13464689 -0.21013127 0.044359725 0.24634646 -0.012741509 0.12803715 0.19940925 -0.11900312 0.0068596145 0.38995156 -0.075549714 -0.24396886 -0.0151813775 -0.18121758 -0.015017774 0.24789207 -0.2490664 -0.20430887 -0.07479828 0.14522502 -0.07790819 0.1231749 0.036468692 0.19200978 -0.13591711 0.20609629 0.016538931 -0.14146376 -0.1969474 -0.45630834 0.1721988 0.07860817 -0.0059706746 0.07048813 0.09359786 -0.176595 -0.021313647 0.31652838 0.13213593 -0.05994106 0.09073356 -0.2540627 -0.19470274 -0.013492213 -0.1633105 -0.053903744 -0.017799653 -0.04663048
496 0.15600468 0.007142198 -0.25720385 0.23824197 0.14881118 -0.22423646 -0.053348944 -0.17536978 -0.13916504 -0.14938569 0.40965497 -0.18189321 -0.043609448 -0.043351654 -0.109108284 0.14766723 -0.08308362 -0.16929473 0.1355027 0.15444458 0.1241803 0.11828608 0.20442708 -0.2584773 0.08786145 0.4097429 -0.21655233 -0.046502743 -0.09076093 -0.12360202 0.017848857 0.14946981 -0.2399064 -0.13554417 -0.03388083 -0.036656745 -0.02736204 0.21011138 0.103492595 0.0010349671 -0.030768486 0.112566486 0.039261453 -0.041366816 0.01674731 -0.30596527 -0.12544751 -0.015416086 0.010129607 0.0005562033 0.31271073 -0.11810796 0.03829987 0.27156022 0.077535 0.0010918254 0.2322255 -0.3595063 -0.32158488 0.17508434 -0.08345325 -0.13322394 -0.21493576 -0.123157695
219 0.148419 -0.071302764 0.16250542 0.11142806 -0.033175163 -0.10581274 0.22926709 0.08045879 -0.2781667 -0.20747857 0.20884103 -0.19943304 -0.12524393 -0.1492871 -0.17647558 0.0009792985 -0.015823476 -0.025422815 -0.0405765 0.1632022 0.1468869 0.14002046 0.39910826 -0.27558383 -0.052531727 0.37363476 -0.08184655 -0.29577738 -0.008252687 -0.26332614 0.03126646 0.2421433 -0.27886078 -0.08573752 -0.022641823 0.13424118 0.10732743 0.12971847 0.22336067 0.21814385 -0.05198838 0.10146794 0.086781025 -0.17842963 0.039068066 -0.6137933 -0.15182036 0.11683911 0.15484652 -0.078868985 0.081131086 0.054658875 0.13804023 0.07852504 0.16861777 -0.002031478 0.16824743 -0.024692262 -0.15439786 -0.16022071 0.18909168 -0.014352664 0.0069872197 -0.11761115
964 -0.01755593 -0.22104082 0.18062602 0.3451046 0.23250838 -0.23441447 0.058201887 -0.011674733 -0.19895867 0.09036958 0.2770381 -0.06313657 0.07953254 -0.11231359 -0.21292152 0.20954834 0.11580664 -9.4783005e-05 -0.006124687 0.25094524 0.12971361 0.045230962 0.2648214 -0.4465484 -0.10570947 0.26550546 -0.29702464 -0.19247305 0.018534796 -0.20358582 -0.061755214 0.06697525 -0.21771145 -0.1751893 0.005041708 0.20204626 -0.13575363 0.040513404 0.03880532 -0.08239104 -0.122337595 0.19694492 -0.036077403 -0.09199898 -0.025554188 -0.33333305 -0.0010763335 -0.010020662 -0.24496634 -0.07857199 0.09935918 -0.09304391 0.0703484 0.32270792 0.2533941 -0.09989271 0.13289121 -0.0818645 -0.2562101 0.113421164 -0.19567765 0.029140886 -0.015764885 -0.0748344
627 0.09028963 -0.2829901 -0.03918037 0.45299676 0.12510389 -0.244068 0.1122528 0.17606148 -0.062388364 0.15888532 0.18626504 0.022733161 -0.005533117 -0.18878597 -0.15924777 0.10739506 -0.07737819 -0.10492806 -0.026913244 0.22126956 0.10159808 0.1947542 0.13265559 -0.20669289 -0.03811791 0.34651038 -0.2999834 -0.13641071 -0.105670124 -0.18070006 0.076060325 0.070378296 -0.12169908 -0.10677023 -0.06392849 0.05117498 0.024734562 -0.10990797 0.12630364 -0.07236517 -0.015728699 0.13507509 0.13946038 -0.08086802 0.10317067 -0.18710773 -0.10465019 -0.06546161 -0.162505 -0.10552868 0.24116738 -0.13338113 0.1486985 0.5089648 0.24977386 -0.07807509 0.084259585 -0.42361033 -0.21428438 0.060393367 0.05718167 -0.1280728 0.19479257 0.009119311
84 0.11463642 0.13608612 -0.015682625 0.42016846 -0.09201798 -0.25048298 0.068810806 -0.22522688 -0.1700886 0.012311272 0.30014306 -0.028389355 -0.016785527 -0.07649361 -0.079113156 0.10554191 -0.2443195 -0.05175259 0.15231742 0.28882438 0.008287256 0.1431966 0.0983455 -0.28828308 -0.18915308 0.29029605 -0.13517913 -0.2061161 -0.030908475 -0.12802406 0.065767035 -0.009851605 -0.30726972 -0.26613197 0.051242355 0.08434229 -0.122048594 0.12800404 0.050647885 0.15383402 -0.030880012 0.08454875 0.10076172 -0.12598936 -0.036361378 -0.3610946 -0.18941198 0.112700336 0.056657746 -0.10517462 0.32933754 0.029402474 0.26242152 0.22504097 0.19077308 0.004767758 0.29532465 -0.19362357 -0.13273276 0.07896776 -0.05804644 -0.0384115 0.09519951 -0.1087825
557 0.0077582495 -0.09855281 0.055144306 0.26304364 0.22155058 -0.32975882 0.10228783 -0.13198215 0.040579304 -0.12513216 0.16043308 -0.19796893 -0.13202299 -0.053136196 -0.036535848 0.095651865 -0.18857235 -0.14854531 0.0809744 0.13416852 0.055129834 0.11681097 0.11082734 -0.11515214 0.118878886 0.37383348 -0.18375278 -0.27476704 -0.12495632 -0.35298294 0.06397339 0.20026524 -0.111234054 -0.106970176 -0.07076739 -0.0009169105 0.098359786 0.08586933 0.121404134 0.17074223 -0.07739203 0.16526943 0.16150759 -0.034645215 -0.063629664 -0.3551565 -0.07036374 0.124272265 -0.08070363 -0.03729807 0.26133874 -0.12335203 -0.0278773 0.41612282 0.09842315 -0.026941936 0.179967 -0.3988264 -0.42818758 0.058053374 -0.021051187 -0.07418371 -0.0085647125 -0.048295084
337 0.23023695 -0.03336011 0.24601708 0.043859534 0.078385524 -0.074685104 0.20675674 -0.11505183 -0.3116376 -0.1645743 0.14350618 -0.27802286 -0.028003966 -0.0663766 -0.0797864 0.05006882 -0.061873637 -0.22380671 0.09545655 0.3439618 -0.00939529 0.07963804 0.3870465 -0.27623343 0.124628626 0.3278854 -0.20166427 -0.12895185 -0.06025461 -0.2481014 -0.030546036 0.046979878 -0.37258705 -0.32863823 -0.06131554 0.07221597 0.018705547 0.31277737 0.32008648 0.06822535 0.10509926 0.03801946 0.1170383 -0.24041912 -0.036385164 -0.46379197 0.1618681 -0.11317513 0.03389364 0.18201375 0.14151676 0.09690679 -0.04501501 0.17771168 0.22191522 -0.1970881 -0.11597352 -0.16854894 -0.20332704 0.056348752 -0.07993846 -0.13246734 -0.07772425 -0.0511482
959 -0.009110341 -0.16886564 0.19772191 -0.13686159 0.2631297 -0.3132757 0.21237879 -0.032750532 -0.0407685 -0.12383216 0.37937042 -0.019235112 0.15496464 -0.11713555 -0.053386334 0.263769 -0.066208474 -0.07026273 0.09147717 0.19601464 0.109872185 0.13794273 0.31662405 -0.24540412 -0.048385218 0.30262142 -0.16233489 -0.2534392 -0.13312332 -0.05558235 0.014758649 0.26950637 -0.16584961 -0.14267837 0.062891185 0.1468484 -0.052140303 0.20372684 0.2540364 0.25868687 -0.21999618 0.21390517 0.27522144 -0.1515182 0.11279171 -0.34453884 -0.057970665 -0.025346048 0.00018762589 0.12253956 0.10418866 -0.16207938 -0.13742034 0.39669564 0.17653622 0.03961206 -0.037236966 0.018782794 -0.12983966 -0.11043914 0.10181898 -0.006393115 -0.12225942 -0.19486219
906 0.07788091 -0.020814095 0.09364398 0.16467357 -0.1458947 -0.25596827 0.11191446 -0.1631644 -0.022410583 -0.08023364 0.21543437 -0.031220451 -0.21376988 -0.08717251 -0.028354669 0.093171865 -0.21023017 -0.08581195 0.1253197 0.29152274 0.11053164 0.19818169 0.22367468 -0.0684745 -0.23779967 0.3523465 -0.12293047 -0.23915529 -0.028462032 0.10374037 0.0063149193 -0.028873233 -0.21931405 -0.28557575 0.20760888 0.081246026 -0.06967536 0.16827726 0.16181178 0.17927322 0.08462202 0.052421127 0.16394188 -0.2297061 0.19874722 -0.39853272 -0.045851756 0.036701035 0.02520768 -0.032079138 0.3141681 -0.027706113 0.23444408 0.43812072 0.17189139 0.16260464 0.13446303 -0.057524104 -0.2023923 -0.012307941 -0.09896544 -0.10867817 0.07189581 -0.21912742
917 0.33226305 -0.17431873 -0.01072886 0.31144646 0.11596534 -0.17127353 0.08058672 0.025532149 0.0020472954 -0.10897848 0.17881621 -0.2416649 -0.13159272 -0.11561331 -0.1502479 0.13060236 -0.119426906 -0.14607197 0.02126778 0.23982438 0.12217731 -0.09062715 0.17112362 -0.22395776 0.12605181 0.2842289 -0.24072826 -0.25073534 -0.08789327 -0.18209505 0.22115046 0.1419873 -0.13862787 -0.20509566 -0.048348144 0.075937375 -0.04246436 0.22501223 0.14155385 -0.010303961 -0.029643288 0.18025172 -0.00013653102 -0.032816622 -0.001417111 -0.3272994 -0.04064816 0.07548799 -0.10325635 0.10952185 0.09758146 -0.14523023 -0.05187014 0.46081945 -0.03812145 0.012450773 0.09787032 -0.3263065 -0.28130794 0.025629612 -0.24796006 -0.17124704 0.052788727 -0.1407033
244 0.15723218 0.024938023 0.16772406 0.19680458 -0.049087677 -0.1151249 0.11873052 0.0343645 -0.32616955 -0.21157166 0.1554369 -0.24096395 -0.080682345 -0.1034083 -0.056754276 0.04538564 -0.091420926 -0.047153234 -0.0346436 0.37090427 0.09589362 0.16972238 0.25374025 -0.102434784 -0.053634167 0.51536196 -0.17631909 -0.107669674 0.015461557 -0.09774886 -0.1676017 -0.016108323 -0.38799548 -0.21165429 -0.042085692 0.07742587 -0.0442064 0.022161523 0.13228504 -0.043984033 0.035606902 0.022607556 0.085172504 -0.11697847 0.109775715 -0.40713942 -0.044312764 -0.12597442 0.13572146 -0.07627488 0.15622914 -0.043901943 0.24220575 0.35310856 0.15565756 -0.095997214 0.1453051 -0.2417511 -0.025078801 -0.10208227 0.046370123 -0.16996899 -0.029138435 -0.096069105
725 0.19427466 0.094136104 0.1881687 0.11782146 -0.05325716 -0.3720801 0.04443628 -0.14091834 -0.16550499 -0.12714913 0.33600014 -0.084452905 0.064971425 -0.13478759 -0.01584925 0.11737301 -0.05439585 0.12399239 0.045721926 0.15917371 0.25418246 -0.1503862 0.2656178 -0.36318558 -0.19347267 0.4617833 -0.07778637 -0.3092269 0.21563794 -0.08579227 -0.18508856 -0.03843953 -0.13852324 -0.17454019 0.20491889 0.06302653 -0.19113421 0.1733562 0.10679457 0.109776564 -0.009283533 0.115142465 -0.20998253 -0.17803352 0.0680183 -0.40863866 -0.21724752 0.013758172 0.11765058 0.11834731 0.2137223 -0.034275174 0.085599035 0.32416257 0.18875416 0.15899691 0.3487946 -0.07843008 -0.13951759 -0.07233992 -0.26002303 -0.13173482 -0.12068233 -0.04077011
484 0.17334135 0.07727383 0.17145003 0.10066657 0.009250526 -0.08916415 0.209402 -0.033367373 -0.2651494 -0.21122003 0.102071054 -0.27040237 -0.08390036 -0.06814916 -0.07486483 0.036692396 -0.085389026 -0.003331654 -0.039002582 0.22231053 0.080378704 0.10383103 0.35277298 -0.22129652 -0.024053656 0.2748949 -0.20219581 -0.10963814 0.12246243 -0.17095155 -0.037292063 0.04135891 -0.39730695 -0.25646508 -0.10686221 0.120428264 -0.1144675 0.21044976 0.25179696 0.108458325 0.15125774 0.10475649 0.071999036 -0.1268115 0.12620114 -0.5775095 -0.03233444 -0.02979557 0.018398251 -0.064464614 0.21276341 0.019367348 0.07522264 0.28369617 0.12988554 0.06866202 0.0017742364 -0.13783278 -0.047084957 -0.10635457 0.0826741 -0.08931388 -0.06505756 -0.11191211
733 0.029413989 0.032590117 -0.12399742 0.10642491 0.0822154 -0.15908216 0.21256393 -0.019769844 -0.09063833 -0.06991766 0.20033778 -0.14965542 0.03294739 -0.09567386 -0.06430942 0.07905223 -0.16077398 -0.01188566 -0.06170704 0.020831136 0.15754609 0.19022462 0.3226472 -0.23395257 -0.09655309 0.289896 -0.23452313 -0.09628079 0.05647162 -0.0376417 -0.038959183 0.23786218 -0.1896851 -0.11330713 0.06682125 0.075511 -0.19754836 0.22587697 0.32382765 0.2507076 0.09987192 0.17452267 0.14550795 -0.16579093 0.29172337 -0.55185235 -0.22030257 -0.056460198 0.12045422 0.030785969 0.34933054 -0.12949789 0.05116446 0.08379585 0.15433851 0.2743979 0.1559807 -0.1763423 -0.116382696 -0.15419528 0.23749286 -0.046420585 -0.050426126 -0.09913017
477 0.19919486 -0.108209565 0.2627003 -0.04980166 0.045368586 -0.23953328 0.24557067 0.04424455 -0.22692192 0.02690265 0.31303817 0.061973624 0.2624376 -0.10141598 -0.07394731 0.15550332 -0.006559751 0.013658877 0.03325842 0.2968002 0.14489168 0.08202305 0.27735788 -0.38379553 -0.16661395 0.3659849 -0.0937929 -0.11770644 0.052430563 -0.060042728 -0.11686012 0.10020595 -0.22436973 -0.26491395 -0.022992454 0.22667047 -0.34045106 0.1713546 0.13647172 0.19964534 -0.088330284 0.06555798 -0.063241966 -0.21640153 0.15508233 -0.40739024 -0.17294633 -0.21102484 0.038755164 0.09104459 0.06044048 -0.03579488 -0.18058401 0.42921478 0.1781713 -0.003560962 0.16439213 -0.041704968 0.013479579 0.009544385 -0.08386016 0.034178946 0.027848084 -0.11944568
102 0.22176765 0.14181328 0.15502687 0.19558853 0.18560143 -0.21017022 0.10535555 -0.22970502 -0.22995317 -0.26119003 0.23428047 -0.17974888 0.025387459 -0.08725289 -0.05305813 0.062098473 -0.17129007 -0.25047952 0.13106646 0.30505535 0.05954553 0.06919469 0.33493719 -0.19975784 0.027736902 0.44059843 -0.16722803 -0.13362636 0.0188807 -0.20561288 -0.11574464 0.11508993 -0.31407022 -0.27310994 -0.019676734 -0.101307884 -0.054338325 0.25892743 0.19940822 0.16206847 0.1621552 0.21163972 0.032885842 -0.20299962 -0.026107276 -0.3388809 0.121955246 -0.07644168 0.010963381 0.14435658 0.13318178 -0.044409227 -0.034595862 0.18174799 0.21389097 0.1357001 -0.08703476 -0.16326171 -0.10178277 -0.020243077 -0.11335089 -0.13357553 -0.1531979 -0.011842168
760 -0.015187267 0.12495592 0.12442909 0.12275622 0.11721712 -0.20203842 -0.054106057 -0.11901732 -0.17820501 -0.10927136 0.26807052 -0.013553221 0.026493577 -0.023649296 0.03479934 0.1832342 -0.13294828 0.10401839 0.027998133 0.23973754 0.061131686 -0.0092654 0.23841007 -0.29344183 -0.2274605 0.32253388 -0.30622232 -0.099871136 0.005390588 -0.24138388 -0.12682864 -0.20793031 -0.2789808 -0.1761986 0.036321193 -0.043438964 -0.19673829 0.08168629 0.15751345 0.0033371355 0.046896473 0.047259476 0.08937539 -0.18012397 0.13959593 -0.29352355 -0.057194788 -0.09962587 -0.10417187 -0.00014952463 0.3602743 -0.054349165 0.018372837 0.5536796 0.23159726 0.07975719 0.07843146 -0.25438628 -0.13073045 0.021453165 -0.07798306 -0.18108831 -0.088775046 -0.02619023
334 0.18783928 0.051213764 -0.11292848 0.53371006 -0.11059849 -0.10556129 0.09577018 -0.17758481 -0.30052468 0.02106865 0.25120127 0.069170624 -0.054726493 -0.13243973 -0.25005952 0.14470951 -0.13977788 -0.19169903 0.08489745 0.12725346 0.09289614 0.17224753 0.29656315 -0.40164748 -0.022926014 0.15046114 -0.13928427 -0.17950788 -0.14447042 -0.054131884 0.2008521 0.08709443 -0.20331977 -0.3651786 -0.028719548 0.086601995 -0.22212587 0.19348535 0.12704752 0.2760318 0.09442973 0.23617497 0.24401495 -0.12552434 -0.00985506 -0.34406683 -0.05258789 0.10728765 0.117221095 -0.22617833 0.2946403 -0.12099682 0.18975899 0.084609024 0.24544668 0.12353046 0.07085767 -0.12522586 0.10388474 -0.11159444 -0.0042511867 -0.005879975 0.21693103 -0.022943502
278 0.14921598 0.036871843 0.17821231 0.20036887 -0.1327397 -0.21218137 0.008949434 -0.010218019 -0.08165972 0.13176525 0.15184687 -0.062627114 -0.113345206 -0.05191534 -0.17973216 0.13158973 -0.20558086 -0.059676196 0.08814051 0.32101673 0.110320106 -0.022351012 0.1729416 -0.1978669 -0.10538402 0.22169484 -0.08611138 -0.16688767 -0.08158932 -0.21085048 0.054540828 -0.1312796 -0.116410084 -0.20113225 -0.0037610645 0.11999444 -0.19444983 0.081885636 0.06644841 0.096580416 0.10229728 0.04761676 0.2513754 -0.33800513 0.13220517 -0.40715125 0.09835893 -0.11960776 -0.08871039 0.10635635 0.38237464 -0.1428034 0.0737826 0.518305 0.0639984 0.1285888 0.05953578 -0.24324761 -0.22224273 -0.113577224 0.022638453 -0.107336864 0.16693497 -0.26995555
380 -0.013420576 0.11636659 0.086843506 0.15732619 0.1449184 -0.105449274 0.17458507 0.033367824 -0.41362283 -0.09747695 0.2509676 -0.24741653 0.009162839 0.061926603 -0.07520474 -0.031543314 -0.037203804 0.08003104 -0.10463565 0.1587251 0.0988483 0.22488154 0.3332823 -0.21629722 0.012561753 0.2852559 -0.25513846 -0.12908119 0.01894153 -0.06288107 -0.21288253 0.16378844 -0.3018125 -0.14244206 -0.05016973 0.12079455 -0.10943743 0.15762088 0.26412344 0.062148876 -0.16164565 0.09621811 0.0833231 0.00288563 0.056143947 -0.5495167 -0.16433375 -0.18058944 0.07540148 0.0021079383 0.28805736 0.008804879 0.16224949 0.21623892 0.15057439 -0.18754464 0.17773302 -0.21011828 -0.097486585 -0.014271592 0.08034968 -0.1266385 -0.18300942 -0.06952495
571 0.09812827 0.049679972 -0.118269764 0.26244336 -0.07434122 -0.114871554 0.06081605 0.04722112 -0.28361487 -0.11501608 0.24460928 -0.24492185 -0.112335265 -0.0858054 -0.052410062 -0.028065477 -0.04298666 -0.17409325 0.10153127 0.16240458 0.15524633 0.23156685 0.2696241 -0.26263544 -0.13142374 0.36539987 -0.064852916 -0.03049356 -0.06734787 -0.17773889 -0.060728192 0.10248254 -0.27688962 -0.14432605 -0.025753317 -0.14588624 -0.009201313 0.010327778 0.12616792 0.12057323 0.10787051 0.041146982 0.026712341 -0.10424286 0.14236529 -0.60964066 -0.18173303 -0.100281306 0.05803495 -0.17848413 0.36062336 -0.039801102 0.30039024 0.31128713 0.21161692 -0.10065904 0.14493008 -0.23818484 -0.27690056 0.15404333 0.16385707 -0.03673959 -0.0027075724 -0.02951103
149 0.061038624 0.106238514 0.15895464 0.40014213 -0.120622516 -0.32245412 0.12717102 -0.2380525 -0.10608704 -0.13317876 0.28129005 -0.15331152 -0.12963212 -0.10306211 -0.07988302 0.081557065 -0.15290974 -0.055463742 0.037147053 0.25031182 0.08213622 0.14045662 0.2028476 -0.21562715 -0.2221123 0.42455557 -0.25210166 -0.24433464 -0.061392594 0.0010795823 -0.21740808 -0.008451636 -0.1582247 -0.25595608 0.08492459 0.034189973 -0.15525724 0.078336224 -0.040873267 0.20070504 0.060791813 0.09052303 0.11676486 -0.082410246 -0.015661836 -0.30506745 -0.1368165 0.1495451 0.077687815 -0.2397022 0.2582093 -0.083661504 0.26576298 0.35345253 0.23921499 0.07580965 0.2864208 -0.103303224 -0.04014814 0.055963106 -0.21006997 0.025789345 0.013707545 -0.09311221
296 0.15978195 0.023323309 -0.16254622 0.1362624 -0.0010525517 -0.074197166 -0.019907698 0.019823745 -0.024606029 0.016583355 0.3898154 -0.21318702 -0.06737113 -0.16677263 -0.1277822 0.1521193 -0.091067955 -0.07024119 -0.060934793 -0.07730982 0.22273712 0.12123415 0.24424763 -0.33267567 -0.011529046 0.29243514 -0.10889231 -0.23969012 0.024454538 0.15793505 0.14450441 0.28255078 -0.15557508 -0.10461234 -0.00316144 0.03268481 -0.023544254 0.23435354 0.28075427 0.067381546 -0.25709414 0.22117539 0.1713515 -0.25873867 0.05214424 -0.45013827 -0.20584904 0.07277204 0.19660795 -0.029903214 0.13339368 -0.14443198 0.19171642 0.37840772 0.09528474 0.0895916 0.18989551 -0.16376022 -0.12849653 -0.12289309 0.14396036 -0.2990409 -0.043956395 -0.26216215
150 0.22942589 -0.018510591 0.071733095 0.1726472 -0.08722259 -0.20671068 0.24881035 -0.15076794 -0.4052008 -0.06919771 0.29260135 -0.059487022 -0.086771354 -0.11037778 -0.18522045 -0.011979793 -0.08008636 -0.20785655 0.09255157 0.21387763 0.18358378 0.12775277 0.33729374 -0.17640865 -0.04349079 0.33372036 0.021820907 -0.0654084 -0.05414141 -0.09319638 -0.03650872 0.040616404 -0.18678482 -0.28796795 -0.01730544 0.1267527 -0.23043363 0.25521815 0.19000597 0.18657179 0.20416112 0.116307065 0.12850864 -0.24836217 0.16716701 -0.4994092 0.006636882 -0.1498125 0.10635727 0.031850502 0.22237055 -0.08370216 0.14372976 0.14385973 0.08165893 0.003597143 0.06622203 -0.13573028 -0.06305235 -0.13041013 0.12165783 -0.035899773 0.07865436 -0.2256191
467 0.10086206 0.033184905 0.22173779 0.47309896 0.031632494 -0.2179468 0.115004845 -0.22091568 -0.17604111 -0.18909395 0.31140542 -0.16544227 -0.08914191 -0.12546743 -0.099053256 0.13329367 -0.18567835 -0.09501786 0.06727591 0.3877306 0.01489073 0.047391407 0.20901267 -0.19833522 -0.22524728 0.34505332 -0.20420139 -0.30269983 -0.069862425 0.004437898 -0.12760732 0.06534087 -0.20745935 -0.2834592 0.16774775 0.10711633 -0.1357758 0.12856586 0.041814443 0.098849066 -0.0032100144 0.2161565 0.07446409 -0.075480506 0.009802252 -0.24300803 -0.0029363837 0.16052856 0.0003435365 -0.03987947 0.1745181 -0.046000425 0.28456995 0.40316367 0.12157096 -0.026055075 0.06452878 0.03173841 -0.059148364 0.037258446 -0.23218921 -0.04350651 -0.006090834 -0.14856559
887 0.2749265 -0.086478464 0.075902335 0.14050369 0.070322 -0.21591713 0.020981528 0.170716 -0.23559494 0.068414904 0.10794163 -0.12230576 -0.07846371 -0.06815098 -0.115085505 0.00927196 -0.006718155 0.01761597 -0.059860688 0.26786405 0.09219471 0.015820395 0.32956904 -0.2934736 0.051400684 0.21187606 -0.34637788 -0.23206326 -0.01298834 -0.26613352 0.17148095 -0.10789376 -0.3167701 -0.29516953 -0.19202965 0.05974323 -0.09700107 0.078084305 0.1935812 -0.07896171 -0.005716609 0.07593513 0.13652243 -0.115432635 -0.049313128 -0.38624084 -0.006140974 -0.13616748 -0.1802832 -0.015370864 0.18561949 -0.045795474 -0.0078388015 0.50111413 0.073583975 0.078918606 -0.05930947 -0.3131071 -0.1977075 0.021424916 -0.15728901 -0.15508355 0.112215206 -0.024819205
173 0.06103352 0.09415632 0.19745351 0.15213108 0.06753935 -0.15500371 0.12263794 0.07140629 -0.23909473 -0.23899181 0.24976611 -0.15164359 -0.005758801 0.029788759 -0.018402468 0.060304333 -0.14642245 -0.026624283 -0.055876814 0.21862715 -0.0110569615 0.110388845 0.20844184 -0.44752634 -0.10850721 0.27510867 -0.2769889 -0.12758455 -0.10296045 -0.4356765 -0.038515314 -0.03868092 -0.30661747 -0.2377679 -0.20467113 0.027770616 -0.1279537 -0.059288185 -0.009256454 0.069429 -0.06751365 0.082717314 0.14813371 -0.0006019559 0.041729588 -0.40285352 -0.13844956 0.007952488 -0.111656986 -0.14862074 0.27428478 0.05501355 -0.07840058 0.517722 0.11876448 -0.052477803 0.11161712 -0.18472153 -0.11716435 0.06901498 0.053054456 0.0114162825 -0.14712746 -0.097256914
323 0.00465467 -0.0036062922 0.2157918 0.24045782 0.0043163593 -0.25826946 0.12520024 -0.20244801 -0.07420921 -0.14174128 0.2207193 -0.19869919 -0.02644837 -0.15231086 -0.06742908 0.15942703 -0.2182457 0.015803201 0.08361991 0.27874225 0.011142797 0.033812188 0.25916457 -0.26633874 -0.24525394 0.42271456 -0.28067386 -0.1747806 0.04680561 -0.17931251 -0.16931295 -0.056613836 -0.18092215 -0.13275255 0.12636131 0.0146828815 -0.17629802 0.070037305 0.14220507 0.15759546 0.04877486 0.036792 0.14038634 -0.1937792 0.15026523 -0.32919616 -0.039905995 0.09492278 -0.02813752 0.01871321 0.17260183 0.084361546 0.21215767 0.42874852 0.22598681 -0.0015335022 0.10559091 -0.12189481 -0.097067244 0.04707396 0.031486124 -0.04602703 -0.00020846122 -0.115132526
377 -0.04566352 -0.20202607 0.07218172 0.25116888 -0.103988096 -0.114444554 0.14138798 -0.23666471 -0.018597351 0.010376958 0.30524546 0.1813225 -0.035145916 0.018433709 -0.13313305 0.24164681 -0.09208202 -0.17970516 0.17090625 0.20017853 0.16316862 0.12196015 0.1842509 -0.31671825 0.012437209 0.26269358 -0.051762015 -0.15110712 -0.29435402 0.10927405 0.15753597 0.18419874 -0.05507681 -0.39193484 0.10549195 0.20340812 -0.083363615 0.23358886 0.14331031 0.17129119 -0.0064625423 0.24558263 0.023853842 -0.09948442 0.03386003 -0.28734165 0.03401375 0.046980657 -0.010884653 -0.11669333 0.3308662 -0.2568983 -0.0019667298 0.41493684 0.10929626 -0.050914463 0.18393247 -0.152778 -0.36586225 0.06148077 -0.3249338 0.019060005 0.007592889 -0.22342351
289 0.108801626 -0.027815443 0.097121544 0.3068624 0.26209888 -0.34391397 0.047275607 0.0842855 -0.20255023 -0.05412988 0.10539286 -0.11755532 0.010453011 -0.14454852 -0.034397885 0.06204346 0.017967327 0.04583188 -0.02443229 0.21122123 0.14276415 0.21039468 0.22595018 -0.11015691 -0.1739617 0.45889288 -0.27870217 -0.14743699 0.018232089 -0.26568863 -0.13862456 0.041250117 -0.16946048 -0.002307433 -0.029307857 -0.027551897 -0.09193463 -0.021355629 0.108931795 0.11629012 0.037606858 0.056856886 -0.008605831 -0.13374183 0.07340743 -0.39088953 -0.09018314 -0.13820736 -0.13574803 0.0009974614 0.17453982 -0.06252864 0.11582733 0.4508724 0.3139424 0.054074917 0.088504165 -0.37363842 -0.12281912 -0.02679993 0.060552474 -0.13348645 -0.008144971 0.15154949
874 0.13887516 0.029117553 0.05343014 0.2857748 0.13800324 -0.2746115 0.08482052 -0.15852533 -0.010285519 0.09433491 0.19385724 -0.19446538 -0.017808374 -0.018662293 -0.151554 0.06632621 -0.046525203 -0.13669294 0.055785727 0.19347368 0.10758088 0.12962653 0.21578468 -0.23524565 0.21449901 0.2103073 -0.2201508 -0.17327452 -0.0648128 -0.053629745 0.08625207 0.055940624 -0.24281138 -0.3879558 -0.18665373 0.07102665 -0.09302587 0.28496295 0.22563364 -0.0049457373 -0.08005097 0.2007453 0.0839567 -0.12080936 -0.19815738 -0.28394198 -0.023645224 -0.055291645 -0.21364865 -0.089985594 0.117215596 -0.0965386 -0.04399054 0.4681057 0.012029895 -0.011994858 0.07066276 -0.3266833 -0.2536326 0.10474555 -0.1504854 -0.10491838 -0.03803993 -0.12456108
619 0.1954108 0.04709308 0.16891165 0.10977269 0.0495024 -0.2914446 0.098692 -0.21410874 -0.2338755 -0.24363443 0.26220235 -0.2464346 -0.023258025 -0.13939618 -0.07794661 0.1452709 -0.000740899 -0.16609262 0.19325411 0.40252003 0.07000797 0.010492939 0.29666552 -0.18299668 -0.10470559 0.61292976 -0.082856946 -0.09951216 -0.037281502 -0.18617837 -0.20200694 -0.029182382 -0.25874814 -0.15915626 0.124445796 0.0298582 -0.15707242 0.25413692 0.07549577 0.12405829 0.12817386 0.029628797 -0.06819961 -0.19664815 -0.019747665 -0.44989073 0.09811741 -0.06158911 0.0412154 0.113585435 0.20868728 -0.035104305 0.048282705 0.16358009 0.21371236 -0.0005219417 0.14650433 -0.14458193 -0.1703552 0.056465372 -0.20564479 -0.023002293 -0.19284308 -0.030655317
243 0.11014454 0.055394933 0.084900826 0.1043143 -0.076035075 -0.12891987 0.21695775 -0.12138203 -0.28515843 -0.260054 0.17699684 -0.111026056 -0.17325367 0.0011314105 0.01679113 -0.027055284 -0.1924826 -0.024565693 0.03321423 0.25650465 0.064443864 0.28923905 0.3895459 -0.13773054 -0.07445983 0.2720429 -0.30969423 -0.16304813 -0.047409244 -0.063267194 -0.0020780005 0.0047069127 -0.41326421 -0.3512293 -0.04863662 0.026955323 -0.016723344 0.11793359 0.25432763 0.16826916 0.14044195 0.07471001 0.115160815 -0.09469933 0.0771163 -0.45721084 -0.062536724 0.066658124 0.06737773 -0.21150914 0.29110602 0.0389229 0.22767101 0.27716383 0.17376746 0.066954985 0.049267687 -0.13053258 -0.098602585 0.018971277 -0.0012920451 -0.04983247 0.004788825 -0.07245569
440 -0.013248642 0.15921722 0.17350812 0.33743453 -0.085191764 -0.08884847 0.003990041 -0.17820057 -0.20735487 -0.18746547 0.0028162329 -0.017554866 -0.0055011893 0.055726927 0.028317649 -0.003389638 -0.24762933 0.04520434 -0.022787692 0.19608709 0.019488972 0.19537416 0.23128466 -0.19178846 -0.18347235 0.3198768 -0.42309827 -0.13030523 -0.11738219 -0.16148566 -0.07560639 -0.08089127 -0.24202476 -0.28228074 0.059351414 -0.13157392 -0.0887617 0.03708668 0.2778757 0.18266124 0.1819884 0.10693207 0.18587443 -0.098501734 0.10635514 -0.38585052 0.07436889 -0.015244645 0.042172432 -0.103264734 0.40429392 0.025177905 0.100737266 0.34521246 0.330259 0.16843028 0.057403803 -0.290921 -0.05251129 -0.11270603 -0.045590535 -0.2769023 0.027104087 0.05700094
314 -0.024858441 0.10951294 0.08076469 0.39003357 -0.0998781 -0.17873366 -0.040295735 -0.33023632 -0.0858234 -0.034242444 0.25754055 0.11851522 -0.15978709 0.02701637 -0.11504647 0.044109724 -0.23481031 -0.039087746 0.17329289 0.29416952 0.06873337 0.22411591 0.25596878 -0.22556593 -0.097524285 0.13966148 -0.17788722 -0.34160107 -0.09428427 -0.08393781 0.08348021 0.058012176 -0.32155427 -0.39738426 0.11730432 -0.0027916832 0.013600159 0.12084212 0.13541706 0.19510789 0.04092922 0.17701279 0.054062404 -0.16634908 -0.013369625 -0.32478496 -0.055550933 0.13845065 -0.114597976 -0.22868659 0.35237885 0.016879883 0.31746104 0.31124982 0.14300431 0.09709202 0.09817563 -0.11120832 -0.2172602 0.07941924 -0.11223867 -0.122523986 0.04122792 -0.18757664
113 0.3771827 -0.20581163 0.018292652 0.179726 0.022407163 0.0023383542 0.049444772 0.2024374 -0.31074616 -0.070584 0.072554134 -0.026286867 -0.14948684 -0.13625132 0.022736296 0.014432114 -0.027646225 -0.12624893 -0.12718645 0.12517117 0.116730034 0.12382917 0.2307343 -0.21126194 -0.053912453 0.22637059 -0.068278536 -0.25501183 -0.08516783 -0.28381494 0.29017723 0.19251576 -0.25097942 -0.19735251 -0.18386838 0.036778744 0.04773506 0.10904949 0.15506904 0.18080306 -0.12354761 0.05335831 0.116044685 -0.22654364 0.076672904 -0.5258517 -0.1264922 0.0330011 0.04783146 -0.012695774 0.042343702 -0.070648246 -0.045363933 0.5491445 0.2048364 -0.0437283 0.13577287 -0.37697065 -0.10276269 -0.10300806 0.096593514 -0.21656415 0.28141314 0.03418395
847 0.1216302 0.036180627 0.18477221 0.21364158 -0.04740369 -0.22115608 0.113667846 -0.04078862 -0.06685977 -0.2071849 0.038919915 -0.3007968 -0.16005504 -0.06992139 -0.011753861 0.09600396 -0.1702532 -0.100861736 0.15438998 0.30103743 0.04747041 0.053864356 0.20660424 -0.16216193 -0.040444095 0.28579324 -0.23360112 -0.1283647 -0.15110376 -0.2630155 0.019355852 -0.014941679 -0.2153367 -0.22582723 0.071511656 -0.09000832 0.045984372 0.16272563 0.2046403 0.1342555 0.19807962 0.013787431 0.21059313 -0.07501088 0.06402233 -0.46066165 0.0037522116 -0.034170307 -0.022371866 0.018191023 0.3734541 0.077688806 0.07789762 0.42043284 0.16164525 -0.008870433 -0.023705564 -0.2457593 -0.357208 0.033897884 -0.005865686 -0.1435523 -0.07299002 -0.13650256
31 0.13831091 0.03352651 0.05745712 0.30028018 0.15317823 -0.24426995 0.2440823 -0.09571681 -0.10250954 -0.24472594 0.24910618 -0.22570518 0.09331142 -0.0104069775 -0.0007333561 0.115788825 -0.24091788 -0.09432288 0.09474309 0.12529781 0.025606988 0.1806389 0.2615729 -0.26069653 -0.0062225484 0.33742222 -0.51239514 -0.18086049 -0.021661075 0.14503826 -0.070899345 0.1847119 -0.16492008 -0.17996721 0.120621406 -0.004805721 -0.18731391 0.2772107 0.38457283 0.17347038 0.07332573 0.31408644 0.1543521 0.079501614 0.04332877 -0.35995558 0.07046327 -0.014873571 0.17449497 0.11097192 0.34741038 -0.028480861 -0.010308731 0.11780502 0.30474827 0.1650529 -0.1244201 -0.11463171 -0.03269278 0.040891957 -0.28048024 -0.1606163 -0.13733126 0.07764711
92 0.11978402 0.07131905 -0.15920174 0.24112992 0.055494707 -0.036665358 -0.108221844 0.12763754 -0.17283319 -0.098465204 0.18154788 -0.2499229 -0.0066590416 -0.048930276 0.0021746792 0.032737475 -0.12533443 -0.07150572 -0.08308005 0.19799715 0.059225142 0.13193394 0.13832712 -0.07445461 -0.1727015 0.44119146 -0.1866337 -0.036963858 -0.09552706 -0.027999062 -0.060921747 0.15105763 -0.26802638 -0.06610483 0.052256443 -0.023963295 -0.0733838 0.13094337 0.22897367 0.04216807 -0.018161409 -0.015802912 0.06993614 -0.0037002317 0.112685286 -0.45338672 -0.1752493 -0.15475109 0.10183178 0.05154661 0.41741896 -0.06539779 0.15412213 0.47085992 0.14996707 0.0052628918 0.2592071 -0.45438325 -0.13867827 0.017078105 0.13033654 -0.32789478 -0.124164484 0.020876931
429 0.02859001 -0.06637561 -0.0009402911 0.32525524 0.21906146 -0.054589003 0.12194554 -0.07036205 -0.15515569 -0.18911485 0.24034598 -0.26231897 -0.072271824 0.017428348 -0.12613311 0.0076182773 -0.14831157 -0.08362302 -0.1519673 0.115337156 0.028225001 0.07104264 0.34091714 -0.24410352 -0.0180898 0.23134452 -0.30538782 -0.22560352 0.14045238 -0.20889276 -0.1193554 0.23193228 -0.2268086 -0.12936929 0.03575027 0.0282253 0.028512262 0.20097905 0.32068086 0.12835452 -0.03510636 0.23107474 0.123741865 -0.00817382 0.11099179 -0.49233368 -0.01888446 0.09501182 -0.01142873 0.023592947 0.27525365 -0.016948283 0.08737776 0.14895903 0.21089262 -0.057626095 0.089503914 -0.13884318 -0.21479426 0.07911538 0.017611863 -0.083104506 -0.10341986 -0.099084385
555 0.15836525 0.12165103 0.16849615 0.16297153 -0.24273896 -0.3447205 0.20636433 0.08027474 -0.171866 -0.06332995 0.099822894 -0.14086787 -0.21542661 -0.030450577 -0.16830193 -0.006870703 -0.17046733 0.001228326 0.08364467 0.03240855 0.199514 0.06946821 0.20945975 -0.3412828 0.054679193 0.25163946 -0.122532785 -0.32295614 0.08330158 -0.32930747 0.13440022 0.033035677 -0.11764575 -0.11353557 -0.04539836 0.036165174 -0.09374245 0.14177814 0.104174145 0.12113344 0.08777559 0.19259833 0.1925483 -0.11361092 0.017006977 -0.6651373 -0.1205859 -0.01662321 0.064276055 -0.017077608 0.4514204 -0.06250395 0.0086778235 0.15092382 0.04064863 0.28350747 0.18112805 -0.15715182 -0.29785725 -0.22908787 -0.08187489 -0.106583185 0.05524255 -0.22640935
851 0.13155138 0.09498641 0.3353833 0.1970688 0.039554566 -0.35844797 0.25624332 -0.009224926 -0.15560636 -0.19394395 0.24646178 -0.27854902 0.09614906 -0.1803707 -0.088746324 0.10766374 -0.18826744 -0.036875345 0.0460722 0.21395522 0.098853625 -0.0014159983 0.25401652 -0.3420755 -0.1409895 0.46424994 -0.20487218 -0.24883787 0.15147689 -0.2262859 -0.23308855 0.07835819 -0.18445021 -0.086042956 0.052389063 0.048940074 -0.21040614 0.09279293 0.101730324 0.16165575 0.070151925 0.14638785 0.053300712 -0.15430775 0.029375786 -0.47771052 -0.13732395 0.030065455 0.11003943 0.06356874 0.107596785 -0.006115031 0.08243061 0.18243703 0.18909822 0.08823408 0.110586524 -0.03316541 -0.015201982 -0.09203473 -0.019113122 0.0053623933 -0.03765373 -0.13514362
900 0.075309806 0.05776376 0.16677207 0.42249444 -0.019736765 -0.21842663 0.27526468 -0.11976409 -0.36580962 -0.12437625 0.28165632 0.04051124 0.14450385 -0.111776635 -0.12244273 0.11847062 -0.061219696 0.080663525 0.037235357 0.28405657 0.14893837 0.1699565 0.2599149 -0.4307817 -0.07237437 0.31062007 -0.19554019 -0.094972774 -0.07523477 -0.2096085 -0.11137609 0.033390556 -0.19290993 -0.28499123 -0.06722016 0.10239678 -0.12090383 -0.04670103 0.053183097 0.11157744 0.10126028 0.18404746 -0.10482171 0.023164278 0.0642381 -0.28171265 -0.20184541 -0.0007444062 0.042358037 -0.21339948 0.27907774 0.02999402 0.17489801 0.20538796 0.27010655 -0.13348714 0.25520095 -0.1278888 0.00399774 -0.013325784 -0.0383733 0.06705937 -0.11192688 0.014132773
177 0.18367796 0.12102387 -0.0344717 0.29850647 0.16396196 -0.09660634 0.010207447 -0.001688723 -0.30745816 -0.21785255 0.34007537 -0.18770978 0.023566596 -0.28756982 -0.19976623 0.044803616 -0.23398215 -0.1352701 0.014263684 0.12994735 0.07326186 0.03132652 0.26161024 -0.22455183 -0.14793637 0.43871662 -0.07318419 -0.17392656 -0.0037418122 -0.25309384 -0.018219227 0.22825922 -0.22851601 0.038267568 0.10535969 -0.039924517 0.044782054 0.123874925 0.22565413 0.16718523 -0.0033706021 0.061553963 0.1301695 -0.2809929 0.074381165 -0.44945598 -0.21171802 0.043483667 0.18379119 0.11558502 0.17620558 0.03436417 0.30126277 0.1130089 0.18946072 0.03926177 0.19787823 -0.24095409 -0.04125124 -0.20445229 0.33080962 -0.2124088 -0.010310408 -0.08194261
365 0.23022157 -0.022867369 0.18157376 0.1536758 -0.010117941 -0.10008123 0.0377221 -0.07549191 -0.2808355 0.027767494 0.29387444 -0.039952915 0.111484684 -0.09128875 -0.14864759 0.20096055 -0.08484519 -0.079206035 0.084515594 0.3234828 0.1082939 -0.113840915 0.3114823 -0.50060093 -0.08687656 0.3117418 -0.21519047 -0.068887666 0.017194873 -0.11700845 -0.056516044 -0.093547024 -0.25253364 -0.3069011 -0.025161041 0.15584716 -0.28421134 0.19269148 0.11414357 -0.03634789 0.05300928 0.0718461 -0.049744047 -0.29355666 0.06497936 -0.2908043 0.040936384 -0.16635546 0.006681785 0.1129862 0.113633625 -0.08866566 -0.010396856 0.35257217 0.2199423 -0.0041697724 0.087960586 -0.15670101 -0.022772528 -0.015767423 -0.18836038 -0.048407067 0.029897507 -0.12531923
529 0.033149373 0.1148929 0.14885733 0.11167402 0.06950254 -0.40536168 -0.029302882 -0.19269696 -0.097947106 -0.109459646 0.21546158 -0.01678088 -0.05295637 0.05903351 0.034595523 0.18408285 -0.14942448 -0.042256862 0.25391826 0.30751225 0.047874037 -0.03831458 0.1379055 -0.26160637 -0.14029336 0.3240035 -0.09170322 -0.26359951 -0.24680755 -0.26414552 0.07566728 -0.07602858 -0.16252418 -0.27379912 0.05603131 0.0010270273 -0.14497508 0.12666652 -0.042870242 0.25660354 -0.1431229 0.07020062 0.15281254 -0.06340694 -0.11501258 -0.39452136 0.0048488462 0.033882953 -0.09360402 0.012362 0.35149625 -0.10017142 -0.115423635 0.5173771 0.16055684 0.06333011 0.20314498 -0.17927141 -0.26028517 0.040864408 -0.25312856 0.009679124 -0.09658924 -0.08817373
134 0.20221078 -0.030969491 -0.26188526 0.27954942 0.12509443 -0.13813221 0.12769295 -0.13619468 -0.25887832 0.04386879 0.31536677 -0.12146595 0.107833415 -0.21725631 -0.25443834 0.20656031 -0.03898577 -0.27596137 0.25622857 0.07796773 0.18109116 0.13703556 0.25294662 -0.3635952 0.07746994 0.24332282 -0.050042003 0.09142102 -0.13671032 0.0040799 0.12864396 0.15391512 -0.18621029 -0.2074019 -0.0566293 0.02268414 -0.24688992 0.36575124 0.32971627 0.12615213 0.103285044 0.18360645 0.18913244 -0.2192405 0.17589357 -0.38640013 -0.044385046 -0.1794987 0.06872005 0.1394958 0.16989583 -0.14592257 0.034133513 0.18070583 0.16556023 0.007835267 -0.046932705 -0.25862715 -0.05876084 -0.05997057 0.20919548 -0.09416896 0.026413664 -0.16538109
717 0.09337483 0.028854784 0.06646234 0.477538 -0.017133724 -0.058781933 0.04511644 -0.12709224 -0.33836788 -0.043202836 0.15014972 -0.17504342 -0.1486892 0.012072018 -0.13900155 -0.09056668 -0.035368614 -0.18264073 -0.075054474 0.23625155 0.2054564 0.10283857 0.20574564 -0.1565196 -0.032738335 0.25197425 0.08276555 -0.08311208 -0.004628642 -0.094333 -0.09491062 0.17229192 -0.1296858 -0.32613894 -0.101111986 0.15508924 -0.21913879 0.13855968 -0.03555072 0.16440293 -0.017104557 0.119288966 -0.03627726 -0.09347007 0.011271923 -0.5382491 -0.059697006 -0.048942335 -0.07550003 -0.20958228 0.28625974 -0.14264165 0.14235353 0.44738907 0.013690231 -0.12939093 0.3486187 -0.24232146 -0.14967147 0.023097191 -0.03825924 -0.0023920569 -0.0081007965 -0.08855015
183 0.38212192 -0.08040733 0.011582213 0.19579893 -0.11505148 0.10170339 0.23268257 0.071764044 -0.37555927 -0.045651205 0.17528503 0.021075998 0.0666507 -0.2515118 -0.046834946 0.10748131 -0.11786841 -0.20974274 -0.00422518 0.25656694 0.08578009 0.13907662 0.23534256 -0.3461294 -0.022131855 0.22311759 -0.035496764 -0.108944215 -0.15539588 -0.029326282 0.2362087 0.1280513 -0.321765 -0.37856856 -0.16751486 0.091495946 0.05597048 0.17342529 0.314289 0.19099425 0.016208064 -0.0074140453 0.14013217 -0.23844884 0.0477378 -0.385969 -0.16816913 0.0025487314 0.28352863 -0.1008812 0.06912041 0.0075294957 0.10793382 0.3370788 0.3316705 -0.23349565 0.16761826 -0.23536167 0.0429578 -0.12026059 0.12113652 -0.105289206 0.25853628 -0.007480864
508 0.03215313 -0.13337076 0.101689905 0.42383745 -0.07576062 0.019876678 0.1527461 0.033076804 -0.2133093 -0.00018646565 0.09398285 -0.009676 -0.10284556 -0.0012382654 -0.09976216 0.21621707 -0.11749824 -0.021049876 0.02233485 0.24980204 0.04875165 0.10723793 0.18189342 -0.39891902 0.08334053 0.039836936 -0.3233992 -0.16377439 -0.11837645 -0.27013233 0.23424987 -0.000859282 -0.20736702 -0.2762374 -0.104865134 0.14645065 0.017793916 0.03806386 0.17356099 -0.0021742138 0.11581127 0.22759843 0.20197523 0.031463936 0.099964105 -0.33996487 0.08351974 0.04754667 -0.04868717 -0.107499816 0.45733887 -0.041284792 0.042718306 0.3948183 0.23380375 -0.10874616 0.013444618 -0.23180786 -0.27042708 -0.03328828 -0.12555173 -0.16759355 0.1543891 -0.09331558
829 0.15047538 -0.295755 0.18999967 0.30934507 0.2141487 -0.11616613 0.22763407 -0.033099677 -0.26136371 -0.050949335 0.027761893 -0.24366121 -0.1605585 -0.080232985 -0.23875348 -0.01894463 -0.0017555403 -0.105168715 -0.0711999 0.18712479 0.04815904 0.17138258 0.3068216 -0.12561156 0.056880984 0.29941574 -0.1903977 -0.23169301 0.046354976 -0.31212223 0.015079496 0.17771967 -0.3159307 -0.17578444 -0.15952542 0.22225596 -0.032642256 0.07864369 0.14117447 0.09606803 0.013153502 0.112632126 0.022724507 -0.21347661 -0.012628052 -0.6029067 0.10735771 0.037339196 -0.09325623 -0.027986636 -0.011928875 -0.16960606 0.007561514 0.17679988 0.13625735 -0.030471092 0.13561599 -0.2994219 -0.26464623 -0.052542493 0.0013760608 0.041678872 0.16239071 -0.09011909
291 0.23712249 0.045045763 0.20143406 0.031478025 -0.03018855 0.02052998 0.049132377 -0.037228063 -0.46696174 -0.10047664 0.20386845 -0.06856347 -0.023493959 -0.039941438 -0.030494161 0.03805841 0.07398734 -0.13354321 -0.09939795 0.23459499 0.1710427 0.0019604422 0.38665706 -0.3969316 -0.025400322 0.3827349 -0.090040766 -0.071294025 0.044085566 -0.17267534 -0.16720772 0.0135415895 -0.27548212 -0.3231763 -0.1577733 0.07804049 -0.15529637 0.16615985 0.122161455 0.043914933 0.0567432 0.11556407 -0.038658287 -0.18162954 0.091186486 -0.41764322 0.04798281 -0.24253435 0.030930122 0.010598085 0.17420955 -0.12722506 -0.1254424 0.45799762 0.20510907 -0.039213065 0.09127862 -0.17032167 -0.057305273 -0.06018292 -0.15799132 -0.1289394 -0.044889405 0.05901002
755 0.110581234 -0.019107698 0.05007969 0.05456661 0.12660684 -0.16683394 0.18140051 0.02567311 -0.23033082 -0.03140685 0.32485962 -0.03838984 0.014771281 -0.08276259 -0.06808434 0.1637852 0.04958392 -0.024667706 0.100418 0.10106893 0.20004976 0.2150849 0.32813713 -0.24673271 0.13231705 0.14714718 -0.1557624 -0.12893675 -0.23696674 0.06414445 0.13021976 0.11339114 -0.2371735 -0.29888937 -0.07984322 0.09953429 -0.085285805 0.22555593 0.3456465 0.037516046 -0.050832417 0.20348303 0.09469023 -0.14872989 0.012045941 -0.38321668 -0.09937713 -0.14245437 0.028203672 0.0027126165 0.12621032 -0.071414255 0.1052809 0.44274867 0.11884219 -0.12149697 -0.08700974 -0.2431051 -0.07899024 -0.07695583 0.0469354 -0.20939115 -0.15012668 -0.19663978
644 0.1334325 0.13902746 0.14204335 0.21599832 0.05101854 -0.13982415 -0.025717396 -0.009609624 -0.23111509 -0.21982044 0.1623443 -0.112799965 -0.113786526 -0.008333706 -0.10526886 -0.056490835 -0.19544806 -0.108281314 0.08532612 0.2073635 0.06178726 0.04329838 0.30491874 -0.17174728 -0.13203685 0.3195266 -0.12164935 -0.21745256 0.03084902 -0.36581105 -0.055626057 0.08642846 -0.26498786 -0.09614811 0.06915155 -0.12732372 -0.033422936 0.14186315 0.19986539 0.21626401 0.14950919 0.13830076 0.1019166 -0.22037865 0.0739114 -0.5612931 0.056085914 -0.043555103 -0.094013296 0.11876983 0.37062058 -0.01980578 0.074951455 0.24652626 0.12844117 0.17574053 0.032147672 -0.17077701 -0.2918951 -0.075065136 -0.05498772 -0.18482915 -0.0041613337 -0.086153194
507 0.019442013 -0.18040249 0.11854068 0.41564792 0.06679346 -0.10386026 0.10552144 -0.029597465 -0.23560482 -0.1013268 0.15932749 -0.015965369 -0.07767557 -0.04681732 -0.0007648946 0.25552878 -0.06832692 0.1354276 0.040016662 0.30050611 0.120538145 0.060681295 0.11529795 -0.1301855 -0.23470004 0.25947747 -0.28874615 -0.06745965 -0.16828665 -0.12937407 0.045975607 0.032638732 -0.1104564 -0.058747716 0.20669669 0.106966875 0.018112991 -0.0015409152 0.10225147 0.09045507 -0.013332057 0.06273452 0.004602055 0.11951527 0.23166968 -0.3569375 0.004923692 0.09481208 0.01495091 0.022889726 0.3974296 0.029642057 0.20057753 0.47107622 0.36924264 -0.2467879 0.40390724 -0.31315312 -0.27211016 0.05039381 -0.15237182 -0.22344352 0.021858726 -0.03892955
671 0.2166578 -0.08480751 0.13497141 0.096506745 0.23998807 -0.22625712 0.27649155 0.15592158 -0.21313559 0.027939929 0.33103317 -0.17053396 0.1797895 -0.034443323 -0.24237026 0.16773954 -0.021137217 -0.03863787 0.027634738 0.24053985 0.1717413 -0.055998422 0.2419624 -0.41296685 0.21166678 0.23142979 -0.18823306 -0.18726833 -0.07825125 -0.20712854 0.048124366 0.18196857 -0.1369492 -0.12420651 -0.05510093 0.30179274 -0.08904448 0.19794185 0.16917355 -0.087482646 -0.10648263 0.18852358 -0.046426572 -0.045273095 -0.040396214 -0.49371758 -0.14615022 -0.22093295 -0.01836714 0.18374796 0.29954666 -0.036177237 -0.14051959 0.062761486 0.11474662 -0.21603064 0.1891671 -0.18693769 -0.24238415 -0.038391124 -0.16029736 -0.008839787 -0.26508197 -0.19766203
288 0.31971535 -0.029507466 0.02084369 0.0812509 -0.11855066 -0.25020754 0.100543186 0.085591294 -0.08146693 0.1395077 0.26440847 -0.010380922 -0.087689094 -0.07731413 -0.1402939 0.028179824 -0.1514615 -0.39329025 0.088884115 0.22652331 0.09251547 0.038558315 0.26272228 -0.26250067 0.17580111 0.3540412 -0.0655038 -0.14344168 -0.18606868 -0.18536668 0.13507007 0.015075489 -0.1345367 -0.33470684 -0.1560068 0.0235518 -0.066301964 0.21069524 0.14578497 0.09130663 0.09109734 0.081061944 0.24318044 -0.1919161 -0.09977804 -0.28176904 0.0052632974 -0.1875382 -0.06803044 -0.019135414 0.38689664 -0.2487221 -0.11706742 0.42595202 0.014535269 0.035898015 -0.0067351568 -0.3005005 -0.3229476 0.06157973 -0.1901062 -0.044488303 0.1429447 -0.14043167
956 0.20562628 -0.024244374 -0.14090902 0.3223379 0.0057036737 -0.038634498 -0.1671089 -0.013937678 -0.11824281 0.03746229 0.3623634 -0.08121257 0.122233965 -0.0045926585 -0.12157259 0.16957384 -0.20816754 -0.023118068 0.030511923 0.24077885 0.1288258 0.037942648 0.04578942 -0.33082938 -0.13239002 0.24558109 -0.1707465 -0.0732576 -0.07077788 0.08715774 0.07905018 0.14281236 -0.22501308 -0.26133975 -0.0033694743 0.13584867 -0.2116323 0.12106183 0.073888995 0.049468394 -0.24131966 0.056855403 -0.10263112 -0.094987854 0.14768888 -0.28958127 -0.2053247 -0.034960747 0.089533776 0.009170901 0.19524336 -0.15041785 0.092209004 0.5799798 0.12067895 -0.11477735 0.39698035 -0.3345763 -0.10686378 0.08373398 -0.043745916 -0.14176875 0.010059833 -0.08325181
83 0.04438166 0.0799794 0.104397476 0.36832568 0.057100058 -0.19764762 0.047778822 -0.119878344 -0.34723735 -0.05545261 0.25804356 -0.14465973 0.02723271 -0.01211582 -0.17232056 0.096703455 -0.016660437 -0.08234517 0.08257647 0.26113158 0.080455616 0.09453939 0.2204189 -0.37316006 -0.22031604 0.21962844 -0.13807362 -0.061207168 -0.06027864 -0.12093593 -0.20372199 0.016321877 -0.2548099 -0.29178777 -0.020372266 0.14531742 -0.38648972 0.098059565 -0.03382301 0.17306753 0.03839874 0.10825692 0.043285925 -0.10156798 0.054900613 -0.48500928 -0.0097135855 -0.1475989 -0.07839686 -0.088539 0.2652673 -0.15216286 0.13457689 0.32386965 0.1953836 -0.0781805 0.097059906 -0.07096646 -0.047199737 0.10693476 -0.071607396 0.13412824 -0.03294188 -0.091363914
672 0.3098009 0.04329862 -0.033647146 0.23009029 0.13616467 -0.34839004 0.038674492 0.25187507 -0.20434308 -0.06747388 0.12765208 -0.15824285 0.050846823 -0.10334521 -0.17463662 -0.028932018 -0.19990698 -0.050329015 0.1084896 0.094448455 0.086896986 0.073252864 0.21500623 -0.24631359 -0.18157983 0.35957202 -0.24308741 -0.2524689 -0.006082742 -0.30361268 0.05149242 0.2396001 -0.19150335 0.018856676 0.022200078 -0.1074343 -0.077948794 0.044411242 0.1765643 0.3021672 0.0063810465 0.04760717 0.06368863 -0.10108572 -0.02691176 -0.6519827 -0.24987613 -0.124970056 0.107871406 0.08998852 0.27553022 -0.14764102 -0.030844951 0.021436602 0.23176827 0.3114782 0.20253548 -0.32744077 -0.21938653 -0.070853256 0.027228504 0.06610962 0.09771298 0.13390175
393 -0.023059668 -0.1466732 0.15857388 0.4096583 0.048132885 -0.122308716 0.09174796 -0.27341443 -0.071656324 -0.12570328 0.13407566 -0.00063647167 -0.092321195 -0.12230107 -0.010599413 0.28810784 -0.19887993 0.030490367 -0.07048431 0.32921407 0.07430245 -0.004321849 0.10164489 -0.24272208 -0.26376978 0.33579412 -0.22725411 -0.20821682 -0.064448215 -0.096654184 0.011592491 0.028850876 -0.049356606 -0.23101036 0.1335921 0.26513648 -0.13941729 0.016891396 -0.035850294 0.23868132 -0.032529004 0.13334517 0.11601373 -0.091781676 0.14726102 -0.22799295 -0.007051695 0.289536 0.018358523 -0.1295739 0.31895483 -0.01831301 0.0736134 0.48662645 0.3288539 -0.013529944 0.39932564 -0.163277 -0.027492512 -0.081569664 -0.12872462 -0.01851387 0.0664569 -0.056229062
468 0.20734024 -0.1723445 0.2207069 0.30241445 -0.1126753 0.081292555 0.25309977 -0.055092257 -0.37165165 -0.11518663 0.084865384 -0.0070636454 -0.12461299 -0.1339356 -0.081257194 0.045806125 -0.09145659 -0.1889905 -0.116651766 0.32136258 0.07080824 0.0982132 0.38085318 -0.26907566 -0.017963639 0.38233766 -0.011109016 -0.29042426 0.059970103 -0.2854112 0.011522513 0.14043385 -0.30955294 -0.29581216 -0.040126603 0.12318581 0.13547385 0.07963522 0.20029621 0.17581052 0.07390488 0.1485806 0.030868467 -0.22906974 0.098728456 -0.47406518 0.08269409 0.07358477 0.16856784 0.002157053 0.11333332 0.015351728 0.15874247 0.09913542 0.28765914 -0.1401029 0.030406047 -0.09775153 -0.1490163 -0.107659824 -0.048574965 -0.10753806 0.17826478 -0.011747856
970 0.13758743 -0.060484648 -0.13761634 0.34795016 0.12137933 0.13032414 0.041800316 -0.107249185 -0.34151947 -0.100782685 0.25762177 -0.024871593 -0.0068371156 -0.03300225 -0.030390052 0.098664284 -0.02991728 -0.27417675 -0.08950486 0.056036238 0.108955786 0.054278184 0.27357325 -0.44468865 -0.13119656 0.26410827 -0.0022692261 -0.10728893 0.06116666 -0.14038375 -0.04526608 0.30317995 -0.20077866 -0.24474105 -0.031730883 0.044015612 -0.14248228 0.23101181 0.101078846 0.21721667 0.04818014 0.21929719 -0.10066744 -0.093286 0.20327221 -0.48400807 -0.11390719 -0.09434435 0.08301766 -0.020378813 0.3002042 -0.2312029 -0.057616986 0.26137623 0.31594113 -0.04168092 0.117354356 -0.18265341 -0.13630132 0.033702914 -0.08051528 -0.080059946 -0.00902176 0.16201457
167 0.11464698 0.036326554 0.0579749 0.20949832 0.049213044 -0.2148212 -0.03224925 -0.08911927 -0.04305662 -0.031371232 0.38571313 -0.12603042 -0.100411154 -0.20346126 -0.10511063 0.1783488 -0.14126863 0.010099594 -0.07127648 0.2839513 0.16665184 -0.04117714 0.23869158 -0.18073377 0.06881731 0.4774381 -0.12945044 -0.30772582 0.08029289 -0.19020668 -0.0042290674 0.03603832 -0.1602397 -0.10413189 0.009665525 0.15544704 0.10670887 0.08608881 0.06118879 -0.077312686 -0.14043315 0.10586278 0.043761473 -0.28178865 -0.017730804 -0.18360989 -0.088980794 0.15109777 -0.008506504 0.051803406 0.21051088 -0.032040127 0.25910804 0.400794 0.078912556 -0.05939672 0.3485774 -0.2627239 -0.1780093 -0.12843376 -0.09515258 -0.24657401 -0.06296276 -0.26929733
994 0.0529318 0.019252138 0.06717299 0.35712028 0.018287728 -0.13225718 -0.004407535 -0.0169651 -0.2705343 0.0658227 0.20954062 0.13695262 0.06131751 0.012143481 -0.068951145 0.18386881 -0.14808434 0.16733514 0.04782499 0.26076117 0.1467143 0.056429897 0.18421476 -0.33873132 -0.12272519 0.08948541 -0.44770202 -0.10208793 -0.13672878 -0.13544096 0.0812994 -0.091054216 -0.11728836 -0.21484673 0.08655156 0.052486647 -0.13108186 0.03385171 0.20157723 0.04358577 0.013559671 0.17687334 0.116579995 -0.033902824 0.17350923 -0.26117554 0.014067906 -0.09581417 -0.056813907 0.011296651 0.45193124 -0.013034034 0.09713873 0.3915189 0.32550418 -0.0016037757 0.19471209 -0.2768258 -0.102837525 -0.0599026 -0.11649533 -0.24803753 0.0324006 -0.040729545
136 0.0042187553 -0.06749448 -0.04669272 0.21097133 0.071017526 -0.17441463 0.10540897 -0.17084049 -0.09187814 -0.24101608 0.19990698 -0.23256058 -0.2586105 0.056365933 -0.04424351 0.025877558 -0.08692393 0.078982376 -0.109107286 0.07059972 0.19769844 0.010215443 0.26965165 -0.22392747 -0.031865153 0.28273055 -0.15524445 -0.2501276 0.14043304 -0.17766684 0.02614673 0.22983643 -0.14772461 -0.16440573 0.053700782 0.16730759 -0.0644729 0.2511904 0.13498308 0.2096705 -0.1736249 0.29845616 -0.015244605 0.099270456 0.21784906 -0.5602183 -0.1551113 0.24415337 -0.05087839 -0.07615823 0.2895443 -0.04319602 -0.005587254 0.28916648 0.0155033795 0.11784652 0.41231003 -0.08076174 -0.31222135 -0.014204832 -0.097982116 -0.025198132 -0.13898034 -0.12517846
263 0.3562741 0.0032621892 -0.078564785 0.50707597 -0.06449511 -0.052984577 0.07298477 0.18253925 -0.26025096 -0.06346259 0.19560686 -0.21784742 -0.010898512 -0.13002339 -0.082784355 0.0117816245 -0.2420566 -0.16232294 -0.05036299 0.25746942 0.0050077047 0.017293451 0.10578179 -0.32273763 -0.16534239 0.24467167 -0.30769837 -0.08820755 -0.12513769 -0.124044485 0.13150378 0.035252985 -0.18695207 -0.20764172 -0.07171136 -0.09347756 -0.0044492953 0.011914632 0.16031836 0.0077250656 0.07805862 0.020039028 0.17610987 0.105367966 -0.003817534 -0.30877146 -0.21138926 0.036221832 0.08500104 -0.13905261 0.35957906 0.053109948 0.23472399 0.49417463 0.2525947 -0.06886819 0.20201825 -0.32283786 -0.113600224 0.17550936 -0.07028955 -0.12160401 0.13510975 0.057308786
71 0.07429654 -0.00963753 0.22323029 -0.09878532 0.08156941 -0.25043604 0.22462237 0.043497972 -0.064417064 -0.15466663 0.28323808 0.012826941 0.124673694 -0.22422066 -0.054005753 0.13510066 -0.2579527 0.021613719 0.06347673 0.31025663 0.08498887 0.07648756 0.2656799 -0.13284147 -0.20352691 0.53001803 -0.10565266 -0.16773495 -0.014444363 -0.10297435 -0.01595475 0.11019849 -0.27989793 -0.07447532 0.07176203 0.11543017 -0.0114466995 0.19955496 0.37934247 0.15615974 -0.13971406 0.056366373 0.18596378 -0.2572878 0.13998303 -0.34527984 -0.19550486 0.018550912 0.050414447 0.15100498 0.06768722 0.058560584 0.0076755537 0.37393272 0.06368254 0.12306022 0.18647435 -0.06910714 -0.10489281 -0.15433776 0.1688277 -0.0803867 -0.023947125 -0.23996983
69 0.090247825 0.03295348 0.100953326 0.25499904 -0.037714574 -0.13758415 -0.046485867 -0.16271162 -0.20688267 -0.038781445 0.3171646 0.013053216 0.10729241 0.06005871 -0.05563304 0.118837856 -0.058554277 -0.05372683 0.067847505 0.2624316 0.08813206 0.030291772 0.14443189 -0.37834817 -0.15254372 0.2757967 0.0066699795 -0.1847894 -0.15384047 0.03256573 -0.08921174 0.028616894 -0.20422676 -0.47670457 0.028277336 0.2028575 -0.369908 0.18698144 -0.0040676533 0.12578648 -0.18989749 0.15395817 -0.05385705 -0.14486097 0.017849779 -0.38664198 -0.057280727 -0.08674374 0.05534303 -0.010332206 0.17386276 -0.17544806 -0.035258442 0.503999 0.1666265 -0.10725849 0.20614241 -0.15106626 0.015168192 0.014176887 -0.2032104 0.011041524 -0.0994908 -0.09950195
417 0.1344261 0.11447973 0.23720409 0.12599874 0.10154832 -0.19448909 0.14145255 -0.039806705 -0.31131122 -0.17444661 0.23572129 -0.14956018 0.017224811 -0.15608239 -0.14052394 -0.08126027 -0.16149986 -0.065586984 -0.012183494 0.28102636 0.015057449 0.09322116 0.3420351 -0.18539897 -0.0945135 0.43858495 -0.10752283 -0.16620405 0.11710787 -0.2837111 -0.20040612 0.057092037 -0.340942 -0.14760394 -0.02008741 0.027850186 0.042562503 0.121218644 0.16724692 0.10501687 0.09311679 -0.036147315 0.09362272 -0.29651707 -0.0011479382 -0.44557297 -0.13089278 -0.024534592 -0.025119673 -0.0017975601 0.17008282 0.094125204 0.16992287 0.23497596 0.18040977 -0.05854165 0.21282694 -0.1738129 -0.1379366 -0.021219783 0.07687009 -0.06618132 -0.07194793 -0.13127047
811 0.23363748 0.025888963 0.054549597 0.24324054 -0.027845683 -0.14202213 0.12132962 -0.13240719 -0.16780946 0.006219004 0.27558625 -0.10498414 0.009799778 -0.0757871 -0.17728212 -0.01551036 -0.1597521 -0.24768241 0.08745402 0.27642515 0.07819126 0.019718835 0.27940682 -0.38602972 0.18027207 0.27395603 -0.04258078 -0.19629285 -0.022824958 -0.17196965 0.08620628 0.049531482 -0.28182966 -0.43237582 -0.18234275 0.038666647 0.008599747 0.29500553 0.23294142 -0.027004305 -0.012827664 0.14477724 0.09536774 -0.21313195 -0.17230548 -0.28096575 -0.057956167 -0.03024829 -0.11822097 -0.05050367 0.12845811 -0.05335929 0.05119766 0.39240417 -0.03823071 -0.10006905 0.057805866 -0.2086521 -0.27909753 0.087848455 -0.16374359 -0.05544965 0.0022334435 -0.2121991
298 0.24333392 0.08408285 0.11751307 0.37136298 -0.009233367 -0.15516989 0.052979205 -0.19112776 -0.2455847 -0.18139455 0.19124039 -0.064099036 0.032067493 -0.13757281 -0.033373363 0.083069846 -0.3149283 -0.109532036 0.02955805 0.36354664 -0.05664417 0.120676234 0.2386503 -0.259645 -0.3104726 0.45814973 -0.25801808 -0.21598235 0.12336717 -0.18275121 -0.09438495 -0.0060841884 -0.3257443 -0.1951135 0.12583673 0.007809112 -0.17584217 0.015375295 0.053514663 0.2968693 0.16887963 -0.028496573 0.023355838 -0.25628817 0.08089574 -0.37822625 -0.072753266 0.08026229 0.17378728 -0.001926286 0.2881188 0.035629936 0.19222996 0.089511134 0.40313902 0.12742214 0.25226536 -0.17531067 0.058748405 -0.024164667 -0.121724255 -0.021782493 0.1802858 0.12639286
493 0.1779727 0.0613878 0.14644489 0.18210763 0.08398797 -0.07300122 0.1393706 -0.04081638 -0.3684743 -0.27572754 0.16143268 -0.21817356 -0.07774481 -0.03205631 -0.03897167 -0.01969377 -0.12986867 -0.06150487 0.008936884 0.38317674 0.11744225 0.1400004 0.24688318 -0.061053537 -0.009769397 0.5085792 -0.037615936 -0.06590927 0.06644242 -0.20834443 -0.16215597 0.068682574 -0.35781804 -0.09391329 -0.012062857 0.13733555 -0.06693834 0.065711215 0.13346903 0.082649134 0.029172815 0.025954863 -0.13808216 -0.18737835 0.14038466 -0.5593461 -0.037708037 -0.15723814 0.11661888 0.09188166 0.2297983 0.025202667 0.16934887 0.20056263 0.15811801 -0.15695934 0.2619017 -0.31687012 -0.10413075 -0.1123599 0.06584298 -0.19155869 -0.15530097 -0.010728725
806 0.30458438 -0.004020522 -0.18232557 0.16973533 0.07586182 -0.107411526 0.08108157 0.1096059 -0.12166758 -0.10671483 0.120539345 -0.1947868 0.031835515 -0.049575947 -0.03538942 0.11376577 -0.19360594 -0.029264215 -0.03431334 0.1680686 0.07847423 0.058875136 0.089954 -0.33830944 -0.02257596 0.23756157 -0.25206435 -0.09711689 -0.02827111 -0.2615571 0.19130437 0.075027816 -0.3265618 -0.2435982 -0.18040186 0.01347526 -0.05238774 0.0345193 0.18780369 0.09100064 0.013832437 -0.007852694 0.09685572 -0.03651561 0.14309013 -0.46122536 -0.29084653 -0.05734839 0.10468504 -0.039842594 0.29565236 -0.015386378 -0.06979009 0.42076865 0.16228311 0.01699347 0.19658184 -0.4168064 -0.13725513 0.0331737 0.16416617 -0.068597674 -0.03210081 0.038359303
409 0.034657866 -0.17928343 0.13547702 0.2978618 0.15977804 -0.06541001 0.1382527 -0.14318335 -0.22378816 0.008039626 0.22374737 -0.016521223 0.006369818 -0.13895404 -0.1693876 0.28853297 0.08373172 -0.04648327 -0.086271636 0.16967668 0.19646807 -0.051780164 0.3147096 -0.52311325 -0.03453846 0.26008686 -0.19897561 -0.055711824 0.05606389 -0.19707176 -0.03497717 0.022971863 -0.119078346 -0.21358873 -0.05570107 0.16741736 -0.19527335 0.015236799 0.04558267 -0.012818281 0.039605435 0.21542023 -0.020001356 -0.20613085 0.168016 -0.325011 -0.00083846267 -0.040355667 -0.099190824 -0.12536202 0.15136284 -0.14233787 -0.0017848872 0.37840813 0.24602292 -0.11222128 0.1861882 -0.12353257 -0.1026061 0.0011583441 -0.09281434 -0.026380675 -0.042918723 -0.12850471
692 0.16594648 -0.080091745 0.10876395 0.13033347 -0.024111468 -0.081968725 0.2575586 -0.032220908 -0.14040011 0.118563086 0.18050969 -0.04662707 -0.013039611 -0.08116678 -0.23800112 0.039469756 -0.15786906 -0.23510642 -0.0060104122 0.28588703 0.15105194 -0.017185086 0.31935892 -0.4510691 0.14226127 0.19671133 -0.037792534 -0.0984461 0.025729673 -0.2647537 0.10186405 -0.0066874903 -0.21160497 -0.40889168 -0.18862958 0.16738431 -0.07163627 0.17455977 0.20883635 0.019630017 0.11286665 0.101277635 0.14166299 -0.32528248 0.14957626 -0.35677722 -0.046686787 -0.1643995 -0.14946744 -0.015097822 0.2840871 -0.045748472 -0.06725841 0.35261458 0.027885666 -0.13153884 -0.020775767 -0.15002339 -0.25705785 -0.012490981 0.025064973 0.042031407 0.03622316 -0.2610084
646 0.14557995 0.043637663 0.19747986 0.14782967 -0.08398169 -0.23422791 0.26969525 0.050852157 -0.07205307 -0.06272726 0.25878173 -0.13575363 -0.0069000577 -0.18586668 -0.19580431 0.013175569 -0.2733348 -0.22828795 0.06775275 0.24533458 0.09131925 0.23572737 0.2930144 -0.26037437 -0.007031532 0.5362126 -0.17441893 -0.08387567 -0.029080786 -0.18648711 -0.109259784 -0.005944153 -0.2530807 -0.14885986 -0.09393611 -0.018122282 0.021709869 0.0009444509 0.19893579 -0.04152451 0.18370976 0.004227514 0.21831158 -0.3691406 0.04069335 -0.30326313 -0.094183154 -0.06679759 0.02029678 -0.029131157 0.24864258 -0.04452982 0.206357 0.281407 0.08105321 0.010147169 -0.012617043 -0.20701928 -0.19624151 -0.051212724 0.09636056 0.00036750842 0.0471911 -0.24378417
918 0.1913615 0.043702267 -0.008516068 0.2852434 0.03544795 -0.17398502 -0.019921409 -0.0711812 -0.1698904 -0.13539931 0.3119422 -0.22610548 0.017029611 -0.18722607 -0.060312822 0.084463045 -0.18579668 -0.21010369 0.047647987 0.26172584 -0.07206289 -0.0025390822 0.23615041 -0.26723748 -0.4291501 0.5619255 -0.17798923 -0.16719887 -0.07488265 -0.10691844 -0.19705012 0.028772593 -0.2878157 -0.13422316 0.15747425 -0.04356774 -0.2064708 0.12300538 0.09024076 0.20558311 0.040303346 -0.021397797 0.104571104 -0.16023666 0.060165826 -0.35586542 -0.16074915 -0.0005402936 0.118974015 0.0064510787 0.15773542 -0.08427855 0.1757258 0.3174518 0.27097458 0.066165365 0.14649883 -0.1627988 -0.032316912 0.1299829 0.012800558 -0.00782497 0.04076601 0.06815534
817 0.22248644 -0.28880113 0.20656115 0.33178145 0.17072555 -0.20238365 0.12233819 0.010342733 -0.18322997 0.005376672 0.22077206 -0.10059334 0.016775297 -0.24977441 -0.16917112 0.1935093 0.008630316 -0.033649012 -0.11348918 0.19967745 0.13027897 -0.011119933 0.25962013 -0.41517994 0.011005728 0.344199 -0.22746733 -0.25041425 0.13495108 -0.29292828 0.04550771 0.05272265 -0.16166444 -0.14030021 -0.09386281 0.21662165 -0.14348099 -0.017008811 0.02315387 -0.09415519 -0.025179466 0.15333888 -0.049982358 -0.30089012 0.04227321 -0.29972768 0.029123101 0.046241634 -0.058640566 0.07927627 -0.022614744 -0.07959666 0.042845413 0.37019622 0.21289703 -0.095294 0.103337586 -0.2502378 -0.08126495 -0.07600816 -0.14639689 -0.1288817 0.13651511 -0.10182022
81 -0.06399653 0.16571856 0.09507636 0.082221806 0.067416 -0.1978075 0.122795515 -0.048014425 -0.30749595 -0.08063614 0.3044072 -0.15855782 0.011374223 0.01703496 -0.0925447 -0.03506879 0.0046133557 0.088053346 0.07338365 0.03350554 0.17068376 0.30616572 0.38717532 -0.3067717 0.0055731433 0.25253338 -0.25548843 -0.1424425 0.16014361 -0.16579546 -0.12447425 0.14686419 -0.3651368 -0.14603566 -0.035245195 0.018354021 -0.04628834 0.21759409 0.32625788 0.043166704 -0.0042898827 0.2210868 -0.04188997 -0.10636871 0.07187328 -0.5722523 -0.089685924 -0.13707584 -0.07101418 0.012035435 0.29165843 0.108367674 0.1311589 0.17717478 0.14520346 0.07503224 0.045406666 -0.12876613 -0.2599936 -0.037987825 0.05955122 -0.20158342 -0.19323932 -0.15381694
384 0.075400144 -0.10933939 0.11124747 0.09556091 -0.17136855 0.03607421 0.09704627 -0.024294285 -0.36870244 0.00032142628 0.17066477 0.16489716 0.023026591 0.08378889 -0.02107303 0.008457102 0.03406 0.052687373 -0.0680901 0.24062808 0.13031915 0.22617425 0.35819042 -0.397399 0.13886935 0.26117927 -0.21866304 -0.19927229 -0.07257587 -0.076983616 0.073556595 -0.06411343 -0.3497766 -0.46576318 -0.12829381 0.14553201 0.044818588 0.07494034 0.32051268 -0.04303312 -0.00069678685 0.074559905 0.029756065 -0.14672992 0.039325926 -0.3524101 0.005760049 -0.12734453 0.07602626 -0.12828583 0.25737128 -0.01942047 0.07702395 0.34100994 0.30884337 -0.1853973 0.102412224 -0.2491756 -0.0793238 -0.056693725 -0.16998465 -0.23399326 0.01642671 0.012216775
622 0.23410894 0.12115454 -0.13096033 0.37116846 0.22686534 -0.18360963 0.03745161 -0.07261651 -0.21303533 -0.11943005 0.22416228 -0.2959988 -0.001305672 -0.18371244 -0.06724865 0.09020385 -0.16515858 -0.17329733 0.12855849 0.19785772 0.07777061 0.080617465 0.19995691 -0.17867011 -0.043254256 0.26556247 -0.07692877 -0.12315277 -0.16047728 -0.17429502 0.053204507 0.23104572 -0.1561755 -0.05452438 0.03164199 -0.09184431 0.015323671 0.26517573 0.23916191 0.22217335 -0.06264654 0.11484602 0.23694687 -0.1523275 -0.03238521 -0.44970685 -0.10758893 0.004605979 0.06712876 0.15595095 0.24916574 0.058886167 0.17546777 0.2061962 0.25181285 -0.08409318 0.084828705 -0.3115142 -0.10872861 -0.08365173 0.32942334 -0.15469179 -0.09833345 -0.021259421
383 0.036331683 -0.01057381 0.1467768 0.26877218 0.09930402 -0.48888046 0.106615745 -0.12770417 0.13655514 0.10438008 0.22335996 -0.13708775 -0.037679013 -0.12660828 -0.14943801 0.028811824 -0.074805014 0.146493 0.027072778 0.037686035 0.30273682 0.042751186 0.24628708 -0.30620062 0.049368523 0.27470353 -0.25099745 -0.39785492 0.19236867 -0.14337891 -0.007010549 0.08791532 -0.091941655 -0.16925263 0.057995826 -0.019001486 0.020585146 0.14986517 0.3138973 0.039228044 -0.12622784 0.27986962 -0.00374396 -0.21140826 -0.06624548 -0.40211672 -0.23853055 0.11069694 -0.17459387 -0.06507412 0.1409887 0.033374477 0.12926055 0.3239453 0.09634596 0.19742922 0.14268751 -0.10078377 -0.3377618 0.015608357 -0.06406902 -0.090525135 -0.092902586 -0.20734751
898 0.069681756 -0.050095625 0.13807325 0.28331816 0.078814775 -0.38158554 0.18152471 0.13712552 -0.11016462 0.04740039 0.17523934 -0.17598677 0.061799407 -0.0353833 -0.17296329 0.090825744 -0.040387202 0.06902775 0.08688978 0.05917646 0.22182196 0.092278026 0.2089684 -0.3616681 0.051937126 0.27418882 -0.33915272 -0.1204639 -0.07105728 -0.22527967 -0.012927013 0.04283556 -0.06450817 -0.10893868 -0.09459187 -0.023687119 -0.106812194 -0.015788628 0.16143842 -0.041322947 -0.016593304 0.24351625 0.084121205 -0.0016995195 -0.019444373 -0.41004622 -0.13896698 -0.12726054 -0.0758186 -0.06462471 0.20675969 -0.12090057 0.04016814 0.37673184 0.14520077 0.044869762 0.10813281 -0.29714713 -0.26193586 0.0059277085 2.1112824e-05 -0.034501728 -0.05957552 -0.1665508
949 0.0050102226 -0.13013259 0.24986869 0.207752 0.037892 -0.048500042 0.10360321 -0.0814697 -0.27780563 -0.17904371 0.21595994 -0.1440936 -0.036961604 -0.055508118 -0.111484446 0.0935387 0.042942703 -0.11624217 0.05799345 0.26114005 0.00078593846 0.080085926 0.3097514 -0.31053185 -0.24266513 0.34989035 -0.18046911 -0.1599344 -0.13545139 -0.23786612 -0.13953847 0.15534501 -0.24569866 -0.15437813 0.088695504 0.13976154 -0.20738584 0.07903618 0.052198395 0.1908754 -0.0041839816 0.12396583 -0.08268857 -0.14417326 0.13039407 -0.4838391 0.11687491 0.019548338 -0.044557385 0.059935693 0.1320873 -0.11194195 0.07580181 0.33484775 0.22261873 -0.17418931 0.06908186 -0.096557565 -0.22316091 0.046047773 -0.12633021 0.026235763 0.006482135 -0.041832812
46 0.027375927 0.13242918 0.035793353 0.33888078 -0.054072466 -0.109230936 -0.052465856 -0.14023077 -0.19191934 -0.15720068 0.2370884 -0.20983864 -0.2408663 -0.0807055 -0.15569468 -0.011910882 -0.020863367 -0.04924173 -0.050294027 0.23400706 0.20281307 0.021251503 0.33187684 -0.1416497 -0.15043652 0.5127743 -0.092222854 -0.1460979 -0.042308323 -0.09734333 -0.185432 0.0012559966 -0.1706894 -0.112117164 0.087744504 -0.025886219 -0.104144275 0.14338066 0.08415927 0.01567551 0.052199762 0.105285645 -0.029155618 -0.13928856 0.07885477 -0.4035772 -0.12940936 -0.027434878 -0.056057137 -0.16371311 0.28273216 -0.064374685 0.32595807 0.40195563 -0.031665593 0.13215522 0.24981831 -0.17738532 -0.26502094 -0.012359326 -0.0950998 -0.14267708 -0.10836873 -0.13798033
208 0.033743083 -0.18011685 0.048815314 0.22010773 0.1617996 -0.17679825 -0.0036094205 -0.012878203 -0.2680775 0.047168296 0.26650846 0.22223543 0.05755376 -0.08544755 -0.14366156 0.09785912 0.11066282 0.052012883 0.0272287 0.011539001 0.2164477 0.1409608 0.25544998 -0.2871275 -0.12764221 0.15564044 -0.02119019 -0.29661077 -0.2962448 -0.06205059 0.1914116 0.21211779 -0.19441448 -0.35767996 -0.06789065 0.15446176 -0.23246816 0.13670637 0.14363213 0.21167561 -0.31073922 0.28231278 -0.020725667 -0.12237204 0.041309197 -0.44181693 -0.17594385 -0.093319885 -0.048972588 -0.16807164 -0.10016726 -0.3472699 -0.0040473184 0.5262738 0.006734947 0.029908406 0.15816678 -0.21562512 -0.06733499 -0.1309506 -0.007878608 -0.03046155 0.12001617 -0.11972202
572 0.093489334 -0.039394755 -0.19959022 0.2716119 0.0368726 -0.017837694 -0.061050553 -0.109722294 -0.024895053 0.07243811 0.27558446 -0.15438032 -0.07700966 -0.016225588 -0.010838192 0.1540029 -0.23035692 -0.15900116 -0.15830883 0.1409738 0.07916149 0.14275898 0.11815037 -0.21561444 0.02712716 0.3385343 -0.15728448 -0.13927339 0.067158245 0.024504988 0.07566848 0.15074289 -0.19911392 -0.21675768 -0.041768037 0.10406451 -0.004946908 0.1011047 0.1492346 0.036078088 -0.1904741 0.0580175 0.1751745 -0.15488316 0.09556844 -0.28347227 -0.102804504 0.024139503 0.0923115 -0.02859874 0.3870936 -0.06213977 0.13749138 0.5128729 0.22147508 -0.1334727 0.2886562 -0.39314565 -0.13962917 0.06582167 0.12259163 -0.28134418 -0.030096814 -0.07319994
861 0.13153605 0.06138325 -0.24770787 0.33547202 0.30986735 -0.22781324 0.01487842 -0.12581407 -0.27833983 0.013537492 0.2351082 0.10610077 0.16462716 -0.18988392 -0.09869418 0.12588857 -0.042060036 -0.02809944 0.07568198 0.033016402 0.15868935 0.12507762 0.20538208 -0.4068925 -0.11625497 0.27871668 0.0009309822 -0.07404567 0.025543982 -0.2954056 0.10892331 0.12360759 -0.28583592 -0.18730988 -0.18227462 0.00031142408 -0.19969007 0.10106716 0.12517014 0.22384296 -0.060507026 0.11167327 -0.06559266 -0.21263818 0.03343279 -0.45925555 -0.37875184 -0.110137105 -0.053819824 -0.12206909 0.11364287 -0.13005283 -0.039938495 0.2708232 0.22576694 0.10921135 0.28656068 -0.34248224 -0.043609735 -0.027464906 0.23182955 0.03856818 -0.008934261 0.07011982
68 0.10100762 0.02713608 0.15907712 0.2218489 0.14276654 -0.2350388 0.26139042 -0.18773532 -0.37092134 -0.20931104 0.26509064 0.063081406 0.16354609 -0.051491678 -0.039093044 0.18464777 -0.12734343 -0.06279222 0.15153284 0.22269152 0.099709496 0.30972844 0.23377053 -0.18527599 0.024910783 0.3432106 -0.27649817 -0.11637635 -0.33614907 0.049198393 -0.027967598 0.12691404 -0.15772003 -0.26984194 -0.0280031 0.067095704 -0.22412884 0.12090894 0.19096424 0.29302037 -0.027043654 0.20657456 0.17819718 -0.083923005 -0.0057686497 -0.28507423 0.06288443 -0.06760568 0.21901189 -0.008848915 0.13250513 -0.16814354 0.05693231 0.16172716 0.33771497 -0.08799179 0.03125064 -0.2682311 0.20245664 -0.24387175 0.058411244 -0.10343913 -0.03906987 0.005113045
536 0.1059629 -0.4141844 0.07684097 -0.014266577 0.15291551 -0.37146837 0.13792273 -0.08995334 0.085005954 0.07022513 0.19355536 0.045438606 -0.009509487 -0.055546954 -0.13228677 0.25491634 0.027397146 -0.087339304 0.25570995 0.26615572 0.22698651 0.20447898 0.19890371 -0.09680921 0.11322725 0.37158158 -0.17621084 -0.10126002 -0.26821005 0.048219446 0.14030436 0.06513203 -0.21250057 -0.32786793 -0.010786212 0.21158141 -0.104573175 0.14460106 0.15360604 0.027424367 -0.068205744 0.119344495 -0.035757028 -0.234879 0.12365642 -0.32437772 0.066511475 -0.181477 -0.09309927 0.038709536 -0.01343159 -0.36129948 -0.10524987 0.5380543 0.12277944 -0.076296754 0.030552085 -0.3654344 -0.3670151 0.070214294 -0.1397678 0.018621642 0.002090539 -0.16792113
667 0.060597647 -0.022351496 0.095066205 0.0714802 -0.1350202 -0.21476999 0.17397203 -0.09988563 -0.028572656 -0.15616162 0.1630538 -0.27323273 -0.22264054 -0.05951104 0.10461561 0.087399706 -0.038558245 0.0015143108 -0.09423572 0.11633041 0.20638704 0.1662438 0.19459186 -0.19428232 -0.018331083 0.40409476 -0.034609918 -0.28584588 0.047605336 -0.065315016 0.00093152694 0.009599577 -0.22164114 -0.26720545 -0.10524814 0.05561602 0.09844736 0.09172706 0.14259237 0.040937148 -0.12459214 0.05609582 0.14130417 -0.11431705 0.054366726 -0.47368303 -0.22860755 0.13326436 0.13658774 -0.16563444 0.1677092 0.026992956 0.15962769 0.6092141 0.13647461 -0.09903346 0.2784069 -0.21892263 -0.23198639 -0.031692997 0.06141502 -0.16637234 -0.1294101 -0.20392357
