1012 64
1 -0.17409858 0.13923785 0.41042185 0.301174 0.07239565 -0.36547172 0.12802365 0.113582365 -0.33422562 -0.21032074 0.25503567 -0.032454606 0.06740629 0.013419228 -0.040529363 -0.04828199 -0.016834429 0.21655414 -0.117514275 0.15093724 0.2634454 0.085120395 0.15407783 -0.24694644 -0.10537576 0.019932024 -0.104961924 0.29781887 -0.052735385 -0.30411404 -0.11226188 0.09156 0.15464954 -0.5449184 0.08956716 0.024067678 0.27898836 -0.17855142 0.20967698 0.291618 0.1577987 0.49207136 -0.08817347 -0.22133733 0.21265814 -0.12703641 -0.18046747 0.022407647 -0.019296179 -0.17682493 -0.21092398 0.022808932 -0.12885694 0.140096 0.35418049 -0.15082899 -0.12250455 -0.14221793 -0.30146614 0.28164428 -0.041268036 -0.4170549 -0.4208887 -0.17251946
4 0.27811253 -0.11271253 0.27794537 0.34812513 0.28553626 0.06757991 0.07948843 0.16511598 0.07442627 0.062644094 0.17818841 -0.08718218 0.4337073 0.016540179 -0.2556843 -0.10267706 -0.0683554 0.17983353 -0.14180769 0.51018435 0.18904033 0.22955365 0.18290308 -0.6122247 -0.16647713 0.19786981 -0.14216118 -0.11696897 0.121958435 -0.16289572 -0.13692048 0.019166624 -0.052901946 -0.60782415 0.1991175 0.18340874 -0.05783248 0.42881548 0.17803724 0.47127193 0.07045979 0.4442877 -0.09264286 -0.04607274 -0.09111923 -0.39843297 0.19483685 -0.33141232 -0.5823587 -0.18461339 -0.102766305 0.08536117 0.13819481 0.061772514 -0.34114859 -0.16358232 -0.060452882 -0.28719497 -0.07652197 -0.44837457 -0.10676536 -0.3615293 0.06302902 0.09442692
5 0.1970466 0.11575575 0.4305808 0.22440307 0.0903139 0.035291314 0.18750092 0.053762626 0.20166104 0.14027824 0.12298384 0.114890724 0.5199387 -0.119699605 -0.41954347 -0.080386996 0.07664806 0.44655398 0.01294697 0.242382 0.15625572 0.2874844 -0.064128794 -0.5212313 -0.2377652 0.098843664 -0.27680683 -0.059469018 0.12050034 -0.000743394 -0.4292606 0.06087577 -0.08978738 -0.34877706 0.11227455 -0.070586085 -0.12574801 0.27572694 0.17110077 -0.0119028175 0.1570146 0.5982418 -0.2784833 -0.23256569 0.1370112 -0.05258796 -0.11627102 -0.34686923 -0.624516 -0.4652096 0.19683386 -0.1813341 -0.250875 0.06712412 0.043181032 0.04115275 -0.3262222 -0.3005468 -0.38129172 -0.43982676 -0.091376 -0.41805977 0.112403676 -0.04211759
6 -0.07656272 -0.01044317 -0.0016568737 0.2499978 0.16275866 -0.08671036 0.01945276 0.10728831 0.033403967 0.04327131 0.095264494 0.16524595 0.608454 0.018123288 -0.31485423 0.28669307 -0.18409382 0.10065104 -0.05433982 0.19730513 0.0037574745 0.068824835 0.4035893 -0.49243757 -0.12207508 0.23238134 -0.29770306 0.054957632 -0.0031593046 -0.32464287 -0.45384508 -0.2029978 0.08120223 -0.61374307 0.38640788 0.16854374 -0.19038923 0.44406515 0.5067919 0.3790182 0.3693655 0.36672994 -0.12744944 -0.45196128 0.1146345 -0.26349515 0.3098914 0.037640974 -0.37234265 -0.54212743 0.20995985 -0.05333961 0.19457388 -0.09177826 -0.10091645 -0.110136695 -0.27261782 -0.41925856 0.23748632 -0.41786712 -0.37703642 -0.24443743 -0.005861212 0.17440528
2 -0.15577698 -0.3221864 0.14881667 -0.08066918 0.2852848 -0.35706568 0.29246074 -0.012482375 -0.33783227 0.19503419 0.23501205 0.08703704 -0.21262756 0.2878237 0.010426954 0.21586883 0.15404855 0.17319015 -0.08023128 0.35581085 0.39414787 0.112505764 -0.14555457 -0.43684867 0.10035903 -0.21705921 -0.116157986 0.12812608 0.10880851 -0.17063457 -0.34555486 -0.32577974 0.055327356 -0.5409862 -0.004651476 -0.00692767 0.17886242 0.048794527 0.43942362 0.5527864 0.4827249 0.31682685 -0.023263667 -0.6210306 0.075813234 -0.2668052 -0.28925675 -0.340153 0.2870093 -0.43930727 0.12876111 0.62496567 -0.1513915 -0.10995974 0.520176 -0.07790924 -0.27759442 -0.25869834 0.3119394 -0.13588667 0.09133737 -0.5922522 -0.59804356 0.2753217
16 -0.38473305 -0.09524121 0.35538462 0.32404873 -0.45707953 0.08898348 0.5614946 0.22787257 -0.21596429 -0.24003962 0.19490834 -0.20184314 -0.107006125 -0.039115366 0.501232 0.44610745 0.0067215255 -0.22801304 -0.43065754 0.3866219 0.0676861 0.024915855 0.2341261 -0.008381435 0.24016242 0.5640385 -0.2887828 0.15904495 -0.25183704 -0.071240425 0.15722702 0.29898334 0.0975561 -0.8594321 -0.24032487 0.3062174 0.45169863 0.4394296 0.2745723 -0.1036317 0.18813725 0.61067975 0.5039386 -0.13164559 0.35595647 -0.3739672 -0.40263245 0.1894561 0.08018819 -0.21287404 0.022463556 0.07413377 -0.27716658 0.6784711 -0.19321083 -0.024981651 -0.481737 0.56897193 -0.39454934 0.38590658 -0.49853134 0.26200637 -0.23461983 0.050123308
12 -0.2419072 -0.15601648 0.42454714 0.24276032 0.320336 -0.41624188 -0.4670675 -0.33136022 -0.12224429 -0.30851233 0.45628136 -0.06116102 -0.05695992 0.07757747 -0.3595827 -0.15475106 -0.5198749 0.024722867 -0.005100106 0.016997317 0.31731954 -0.06003931 0.13935694 -0.11637612 -0.036188144 0.35601002 0.013677437 0.22052619 -0.5278078 -0.13250227 0.022776492 -0.298118 -0.24830836 0.08359709 0.6172719 0.22716507 -0.01955096 -0.5654259 0.19044046 0.3750724 -0.17109172 0.48835015 0.16676341 -0.008218306 -0.0086302245 -0.13854603 0.22469264 -0.24369971 -0.1574086 -0.7215514 0.3051484 -0.3857513 -0.013240519 0.2577533 0.2340377 -0.24396135 0.13846226 0.075437285 -0.76169974 0.39772558 -0.15126678 -0.8235535 0.05951105 -0.28975993
38 0.112382755 -0.1878073 0.029833037 0.19878694 0.45118907 -0.36018136 -0.23061799 -0.60274714 -0.6774436 -0.4665544 0.10182246 0.14966433 0.25067183 -0.18378408 -0.118113846 -0.010108084 -0.0418148 0.15191978 -0.13064094 0.5745751 -0.13673957 0.33554506 -0.46108288 0.22749232 0.008300313 0.04800049 -0.15764184 0.31413028 0.27002952 -0.11406642 0.29316813 -0.06427554 -0.46162367 -0.47058347 0.2643919 -0.31741288 0.24859445 -0.21501906 0.83720875 0.609849 -0.11751397 0.305782 0.25997365 -0.42135048 0.36843723 -0.40986264 -0.3449545 0.10395368 0.3830157 -0.055285625 0.07975852 0.5759746 -0.16624044 0.16023557 -0.09409848 0.14635609 -0.22572719 0.06921554 0.34518585 0.43985432 -0.18139806 -0.80097646 -0.2256767 0.15682203
27 -0.15314402 -0.24583167 0.0885583 -0.3864851 -0.1541293 -0.2834033 -0.607249 -0.36272866 -0.6805625 -0.16317025 0.6924077 -0.15235816 -0.3919715 -0.25432885 0.01592467 0.240394 -0.15910845 0.5529446 0.0014606304 0.05930617 -0.5505475 -0.5123004 0.13670266 0.6114926 -0.02825 0.0075438996 -0.0366879 0.009900376 -0.012441641 -0.5123355 -0.61714685 0.052774508 0.31814438 -0.34522876 0.19103454 0.5273998 0.11548492 -0.4358643 0.0563253 0.20862202 0.41366848 0.7468776 -0.09412779 0.23372611 0.57940847 -0.54727894 -0.31085542 -0.458356 0.24339397 -0.06419265 0.49912158 0.05418636 0.12277427 0.34016544 0.022230202 0.18506093 -0.4421527 -0.26385552 -0.11290341 0.47595125 -0.1615085 0.21645766 -0.31795388 -0.05559097
10 -0.23620568 0.2943005 0.19842328 0.17672084 0.59409904 -0.40745702 0.07234432 -0.36245626 -0.060878016 -0.23634925 0.12570982 -0.0823187 -0.275104 -0.28872558 0.34742033 0.31261966 -0.46376705 -0.029900756 0.63158876 0.38218826 0.46208507 -0.67869484 0.35591334 -0.33287102 0.3717357 -0.2969385 0.0673319 -0.17022286 -0.023128524 0.1595685 -0.025011199 -0.22027102 -0.1364148 -0.025715975 0.29912248 0.5256646 0.080892846 0.34284222 -0.21147469 0.18476526 0.48502594 0.41685867 -0.062623955 -0.5224589 -0.23674871 -0.28102845 0.16262081 -0.22473633 -0.11817685 -0.112490244 -0.26640674 -0.28494468 -0.012875842 0.24789657 0.51482576 0.40677476 -0.17971976 0.23726861 -0.6981337 0.04885682 -0.21721749 -0.8413204 0.012978849 -0.38569397
19 0.11443317 -0.25054938 0.7672584 -0.11603207 -0.031952336 0.08679592 -0.42012352 -0.31575093 -0.33313808 -0.24787675 0.33637422 -0.49139822 -0.38354146 -0.09926841 -0.29240537 -0.6630658 -0.20365301 -0.16142672 -0.30572283 -0.050543264 -0.31828797 -0.40981576 0.5539193 -0.027187692 -0.2988961 0.15652129 -0.6437249 -0.24959283 -0.028733073 -0.33259758 -0.06746787 0.97210926 -0.4564682 -0.23859118 0.16833857 0.050954048 0.64444673 0.6124089 -0.06133683 0.8487041 0.44049197 0.135472 -0.17633617 0.7605536 0.2822304 -0.29991043 0.1896557 -0.6006237 -0.60417104 0.04488849 -0.19670963 0.16726787 0.1385553 0.26268756 -0.02227434 -0.16904925 0.39591348 -0.50233746 -0.15317792 0.50891286 0.5028618 -0.34523675 0.0991 0.58860207
15 -0.27621964 0.38417074 0.798763 -0.45569253 -0.18070307 -0.26519686 -0.12217961 0.12224729 -0.0739118 -0.59373444 -0.13983436 -0.0069072274 0.66980547 0.14249547 -0.48611823 -0.22642802 -0.070676826 -0.17996398 0.22945352 -0.027115976 -0.13937694 0.16864517 -0.034882225 0.5071372 -0.33026132 0.82026595 -0.4627094 0.2925412 -0.16681792 -0.44245586 -0.13663843 0.037048265 -0.1860726 -0.2478896 -0.62922645 0.232635 0.6321864 -0.1144441 -0.39736143 0.49257758 0.58705604 0.16262436 -0.13162161 -0.5312125 0.34800506 -0.25356022 -0.26669252 -0.0727036 0.5769474 -0.26156452 -0.54195905 0.29566333 -0.8890693 0.15615974 0.1985204 0.6875923 0.48728746 0.3374737 -0.5212148 -0.21578786 -0.0915776 -0.012655259 -0.67957675 0.17514877
9 0.0027760316 -0.06809178 0.122766264 -0.027512154 0.44355983 -0.11017372 -0.04001252 0.0488137 0.40592328 -0.29358172 0.3919442 -0.8948273 -0.47822222 0.07665333 -0.30837798 0.070266455 -0.4939408 -0.27981433 0.55945104 0.3153803 0.2569544 -0.47600862 -0.12541576 0.07523325 0.082894474 0.32987723 0.17031032 0.07522784 -0.4047152 -0.059489176 0.41651484 -0.5087796 -0.2538876 0.21000564 0.20670524 0.9125569 0.26883724 0.15700816 0.42256722 0.1829638 -0.06418353 0.45402813 0.16390131 -0.2500723 0.32012933 -0.60135686 0.35850856 -0.32288224 -0.3873403 -0.03184408 -0.001072447 0.10470965 0.121119425 0.45179012 0.50622797 -0.24275418 0.06515011 0.10778579 -0.7022321 -0.28536025 -0.16702819 -0.7950112 0.49677554 -0.23523337
8 0.2298693 0.39303356 0.12331845 -0.069239475 0.13318752 0.009341154 -0.10924905 -0.9015732 -0.14317833 -0.18963224 -0.12094864 -0.21151215 -0.09502195 -0.15842101 -0.5215731 0.2619084 -0.4257767 0.10268469 0.41977724 0.37794733 0.47164115 -0.48854727 0.37638012 0.40076372 0.331122 0.3210846 0.49598646 -0.44259855 -0.20593588 -0.078237675 0.5281384 -0.08622357 -0.5889209 0.091011174 0.16740912 0.38579443 -0.20915815 0.13568012 0.016475359 0.2629323 0.31390104 0.4756503 -0.24096099 -0.484266 0.0091565875 -0.754504 -0.14485246 -0.32186836 -0.23550215 -0.40913013 0.15345427 -0.06170796 0.25143564 0.20764048 0.14561638 0.19304347 -0.4197542 0.37648785 -0.6460311 -0.30745015 0.13490844 -0.57584 0.38395488 0.1495899
11 -0.12691244 0.57711905 0.095270954 -0.31696016 0.28235582 -0.59992796 -0.3162463 0.26514363 -0.42557144 -0.16533057 -0.1570792 0.17894912 -0.15508209 -0.20398054 0.045037404 0.062110696 0.029595913 -0.024692217 -0.43535656 0.66525227 -0.33400884 -0.43328294 0.39556274 -0.56935996 0.00950835 0.36943525 -0.13003428 -0.10098713 0.71074474 -0.47028235 -0.21505453 0.5884344 -0.24160458 -0.62415844 0.2783601 -0.21815689 0.5026791 0.111714974 -0.32076782 0.5835407 0.25520146 0.37794262 0.3495568 0.100186676 0.41634318 0.36020574 -0.3238526 -0.26353636 0.097219296 -0.042856935 0.058169007 0.056104496 0.040920317 0.62814784 -0.20657894 0.6202502 -0.18349859 0.15689754 0.28336915 -0.33859742 -0.00023238736 -0.5031402 0.66133136 -0.03893529
35 -0.106695555 0.41108227 0.8184776 0.004653374 -0.2304459 -0.18817247 -0.29289046 -0.6057399 -0.109731264 0.09290227 0.3724837 0.21652327 0.12696843 -0.37176836 -0.07230406 -0.010322161 0.39574227 -0.18375899 0.34471825 0.31255355 0.042005528 -0.5163971 -0.024351876 0.33414847 -0.16409038 -0.31612554 -0.34720922 0.035216033 0.20081806 0.16103981 -0.5605669 0.42353106 -0.08187553 -0.17031384 0.5325891 -0.5436803 -0.48649734 0.8432561 0.668617 0.13456315 0.48606354 0.22097023 -0.10778061 -0.9568432 -0.0478574 -0.73756224 -0.5318374 0.02633052 0.43353018 -0.30495018 0.6233879 -0.07807586 0.2313527 -0.20642893 0.6494617 0.3880471 -0.33587417 -0.35192174 0.19547415 -0.3661031 -0.029973889 -0.15621205 0.3077539 0.027648615
23 -0.27021325 0.35755 0.45719832 0.17801638 0.22499049 -0.23606679 -0.3795576 -0.34604242 0.4124175 0.4244171 0.05809545 0.26301476 -0.3145176 -0.34133303 -0.20336725 0.21733542 -0.36841848 0.34956315 -0.52362263 0.54991937 0.10220791 -0.7344849 -0.13310514 0.11003565 -0.5754008 0.3118552 -0.29974663 -0.46882403 -0.23190679 -0.0325885 0.15417452 0.7886481 -0.4108496 -0.28863168 0.4724905 0.1184633 0.2572122 0.09775642 0.3415325 0.3474317 -0.2535029 0.06360059 -0.08011581 -0.9478812 0.27901238 -0.12733914 0.21871017 0.67622167 -0.4483327 0.20991686 0.71343803 0.49605355 0.8104556 -0.26081225 0.19966207 0.7689779 0.2827067 0.1174185 -0.19079457 0.43571478 -0.53922594 -0.048659556 -0.6382102 0.3902652
25 0.5102305 0.5038399 0.3310128 0.40008488 0.033974126 -0.114673786 -0.5798641 0.25196353 0.6380767 -0.2963443 0.4419467 -0.5846478 0.68334436 0.37139213 -0.0977424 0.1653243 -0.1451855 -0.6060813 -0.22222137 0.6865068 -0.206548 -0.4756243 0.08326833 -0.29196903 -0.03148403 0.20863642 0.0028917466 -0.49277058 -0.17166424 -0.88104916 -0.1293084 -0.6174033 -0.13753703 -0.8184013 0.04053354 -0.2825029 -0.3541802 -0.703611 -0.41058338 0.30696177 0.10487103 0.3594787 0.16126682 -0.5046167 -0.091046885 -0.13760045 -0.44334346 -0.26350197 -0.01353053 -0.48868346 -0.025522457 -0.61711603 -0.45781368 0.38931558 -0.1891028 0.8522747 -0.43466747 -0.4018604 0.072439566 -0.16023466 -0.6156192 0.38359088 0.19199097 -0.46402103
22 0.3098986 0.27092472 -0.03756798 0.0060808137 0.04466165 0.03560218 -0.3867556 -0.24938215 0.008129475 0.11696483 0.15823317 0.1617096 -0.37750223 0.48506615 0.11323406 0.74170786 -0.7730329 0.73342896 -0.19165325 0.4031385 0.6216332 -0.037876584 0.022517461 0.39065748 -0.6005756 0.6390151 -0.24388261 -0.3228291 0.1529055 0.6797226 -0.6850416 0.026123112 0.2722128 -0.35586026 -0.2761006 -0.25656596 0.68847007 0.5002126 0.23145562 -0.17791252 -0.4745781 0.39743695 0.37437412 -0.36587447 0.26264307 -0.27296427 -0.518389 -0.5038702 -0.13966753 -0.5770291 0.66479206 -0.24081875 0.35559508 0.24188186 -0.19968283 0.6244244 0.13793597 0.052705765 -0.34781474 -0.6713229 -0.41320816 0.216248 -0.916419 -0.34336194
786 0.008105333 0.3233372 0.93406993 -0.160924 -0.06661806 -0.24016502 0.34090254 0.40469164 -0.25800592 0.70192295 -0.22270842 0.39764515 0.07497282 0.04470613 -0.33938795 0.48866966 -0.021057285 0.535383 -0.42356476 -0.16533872 -0.83970743 -0.41791832 -0.43724838 0.049246054 -0.44938332 0.25143716 -0.5267293 -0.039040945 -0.41834527 -0.9236647 0.5289708 -0.52612627 -0.9891588 -0.11798077 0.22473699 -0.3483209 0.32642093 -0.20072131 0.29101372 -0.2473135 0.114370674 0.6101786 0.558874 0.32319447 -0.114729874 -1.0895938 0.085169524 0.19264507 -0.08121598 -0.04984528 0.6745534 -0.35298645 -0.51983786 -0.10757779 0.41912588 0.5590238 0.22075766 -0.18943176 -0.34748685 0.34925392 -0.10565475 -0.20572047 -0.40662584 -0.2785253
93 0.16222063 0.24767055 0.39213556 0.46175456 -0.3024596 0.08171111 0.013074087 -0.3109292 -0.3079623 0.12939614 0.03017899 -0.6823904 0.61320335 -0.5217376 0.060708437 -0.24747169 -0.0018991547 0.1708056 0.60968196 0.4356327 -0.3454725 0.69081223 -0.4653586 -0.22942464 -0.38896704 -0.2552614 -0.40979648 -0.4552169 -0.3276753 -0.09127419 -0.49481818 0.6971563 -0.4105513 -0.36231574 0.6990519 0.6618943 0.52300143 0.1542356 -0.01564555 -0.6084495 0.3068148 0.41535172 0.13093355 0.4408952 0.5739039 0.37650204 -0.6457499 -0.43852216 -0.14585838 0.35970712 0.33114865 0.6012118 0.35424373 -0.10234653 0.375884 -0.111073546 -0.87590456 0.31744155 -0.3418222 0.14019544 -0.4813237 -0.8304711 0.34841862 0.07188804
785 -0.27739376 -0.4717491 0.084982716 0.36115813 0.32487816 -0.6475169 0.30000457 0.16230325 -0.33097225 0.2701828 -0.29235527 0.26244834 0.8043381 -0.21778032 -0.3851571 0.74364465 0.42854995 0.39468896 0.33730614 0.11637248 0.30394468 0.04521338 0.15887004 0.04737342 -0.34032893 -0.31046972 -0.011479223 -0.41288152 -0.74236983 -0.11143613 0.3120843 1.1440582 -0.17263404 -0.3049329 0.54036176 -0.121800765 0.046773266 -0.022803113 -0.047662728 0.62312573 0.6912291 0.83109516 0.54804033 0.6998634 0.39436767 -0.79188585 0.08093296 0.13381761 0.3627829 -0.10486927 -0.62212944 0.27015883 0.3299952 -0.41852966 -0.030591307 1.009166 0.4580367 0.42126834 -0.37054378 -0.101892695 0.4341825 -0.086518385 0.5789371 0.31697217
772 0.76395786 -0.7695522 0.8243023 -0.47036675 -0.38422647 -0.22430375 -0.3681352 0.21403928 0.7318239 -0.20047782 0.47628453 -0.7932373 0.19069704 0.016892435 0.029237242 -0.06898726 -0.33253023 0.111458726 -0.068889044 0.2152223 0.6452166 -0.13647377 -0.7375694 -0.22256184 -0.15079615 -0.25908792 -0.6958583 -0.67009056 0.44725284 0.25923577 -0.24770914 0.17890897 0.06690988 -0.50669473 0.22688468 0.40924633 0.016589584 0.33392686 -0.21182176 0.04546012 -0.042279005 -0.05364072 0.27740374 -0.14610375 0.60484535 -1.1201969 -0.44999948 -0.2464533 0.54592043 0.2802135 0.020674787 0.065456994 -0.81744283 -0.5721498 0.22055417 0.41105828 0.09708751 0.41904062 -0.42347142 -0.025237953 -0.12059882 -0.21108624 0.10247063 -0.38063395
680 0.56114256 -0.05400393 0.5723157 -0.155421 0.40341157 -0.44455117 0.17126073 -0.0076986984 -0.2789642 -0.0056792474 0.351237 -0.58968633 0.74507123 -0.32545382 0.43997297 0.31426933 -0.29953316 -0.21368758 0.27121204 0.3189686 -0.24591786 -0.27586883 0.10327024 -0.3030149 -0.11463976 0.5127339 -0.44639352 0.5706359 -0.35190395 0.29782853 0.6169709 0.29393807 -0.43320727 -0.50347817 -0.23665456 0.186163 -0.12904175 0.7127191 0.23695609 -0.17516442 -0.32396555 1.3304176 -0.770577 0.038363986 0.010908131 -0.32779908 0.15909931 0.0883714 -0.14192376 0.406135 -0.16898541 0.19525543 -0.5426985 0.12845173 -0.013571431 -0.042795707 -0.0049521 -0.5108024 -0.5637633 -0.44333342 -0.30010796 0.30184013 -0.7687932 0.14167245
826 0.3439118 -0.08229601 -0.104917936 0.84835005 0.35939085 -0.25233322 -0.26762682 0.47070974 0.5550622 0.29188627 0.045477033 -0.57904726 0.27772692 -0.45153064 -0.30336738 -0.3597919 0.54922837 1.0459644 -0.08181706 0.3402268 0.5627113 -0.3565488 0.66802573 0.7270502 0.12689425 -0.074950166 -0.5478403 0.13368058 0.38678423 -0.39963856 0.06824888 0.43348604 -0.011930906 0.06449853 -0.5582176 0.23889747 0.59302586 -0.1348005 0.75426114 1.216172 0.008067848 0.53884655 0.19673212 -0.29561204 -0.12229694 -0.5349678 -0.71119267 0.35430092 -0.67420244 0.17595114 -0.6392621 -0.28705168 0.3458101 0.40643775 0.050053716 0.112129584 -0.5195118 -0.025504991 -0.6143984 0.4531723 0.23638521 0.49548185 0.2746556 0.08294337
815 0.071988545 -0.724762 0.32385656 0.17850642 0.5556191 0.16160649 -0.039046653 0.47653013 -0.037504137 0.08748015 -0.32566276 -0.61442053 -0.2801672 0.71939754 -1.0229834 0.6884395 0.07453388 0.10824304 -0.3122566 -0.3652197 0.26324958 0.41231525 0.07345395 0.39651567 -0.20431104 0.37328586 0.68812865 -0.61195886 -0.30824617 -0.4320162 0.3266087 -0.1820843 -0.11736455 -1.0575912 0.44352284 -0.1374155 0.29647875 -0.09590117 -0.04105212 -0.56581914 0.09000969 0.11127681 -0.19040944 -0.02624747 0.5813033 -0.21514097 -0.9961641 -0.60600424 0.53824925 -0.37933603 -0.09026179 -0.5359141 0.28236496 0.34813574 0.5394332 0.43028203 -0.7225828 -0.35711807 -0.6350377 0.11870343 0.030433798 -0.2328369 0.035062265 0.5396778
735 -0.22360925 -0.24400836 0.034572918 0.5718315 0.24946573 -0.38536048 0.4903028 0.76125675 -0.0020788223 -0.038414717 0.06226258 -0.7290493 0.8050011 -0.20437227 -0.45802143 0.17394873 -0.2922612 -0.5486317 -0.4217368 0.053598583 -0.22145687 -0.3617999 -0.01599096 -0.2662249 -0.47369364 -0.2712406 0.057991005 -0.026992649 0.35267705 -0.108716786 -0.09277604 0.6242706 -0.4042264 -0.04422572 -0.45475096 0.25071993 0.35422182 0.21840054 0.43377233 -0.096327186 0.84225065 -0.33775154 1.1725804 0.33658037 0.26480535 -0.3299429 -0.21577145 -0.8323693 0.67975026 0.012549136 0.7291785 -0.3329711 0.29295918 -0.2189366 0.52857274 -0.24800876 0.17579453 -0.15684429 -0.599176 -0.4379875 -0.38008055 -0.9331749 -0.2889406 -0.81296563
814 0.10504658 -0.06447183 0.24005651 0.01286421 0.112486474 -0.37716752 0.068338625 -0.10645627 -0.43862998 -0.029513014 0.08774755 -0.2594803 0.015300392 0.03260699 -0.05402891 0.19955187 -0.20531744 0.069084674 0.21882634 0.24982487 0.03191386 0.016649637 -0.004997727 -0.0572718 -0.028521523 0.34794426 -0.29313573 -0.10366354 0.002580951 -0.1879644 -0.0037947309 0.034313686 -0.06945803 -0.09888519 0.14954367 -0.059743613 0.1891206 0.015642723 0.0037270267 0.13576253 0.054340996 0.3161146 0.08951325 -0.17273389 0.2332208 -0.35241932 -0.22114977 -0.13086253 0.12085687 -0.08487377 0.14927499 0.0012438658 0.011880879 -0.23889291 0.14016028 0.36192217 -0.22059757 -0.071806066 -0.25433406 -0.05934203 -0.13330963 -0.098467946 0.09800521 0.077430084
904 -0.09692987 0.080795854 0.1284899 0.20325407 0.12618233 -0.3367782 -0.07282458 -0.15363602 -0.24381325 -0.06370608 0.25262377 -0.13749339 -0.06161844 -0.08704669 -0.10971686 0.19912474 -0.06465025 0.14589752 0.13875507 0.33580306 0.21130855 -0.10115571 0.033766527 -0.17625324 -0.051170733 0.18831582 -0.3611494 -0.17660658 0.14960743 -0.24771446 0.10808307 0.12936157 -0.0892388 -0.14219487 -0.2073935 -0.048627414 0.081665695 0.0013983261 0.21676654 -0.03232593 0.22336447 0.2044509 0.07511917 -0.35927033 0.07623904 -0.20984009 -0.13431054 -0.1689748 0.009539463 -0.19988285 0.33217934 -0.07276315 0.21807137 0.11660366 -0.0023134698 0.15708956 0.09247393 0.035641097 -0.29690245 -0.14332376 -0.22213152 -0.29498845 0.011437059 -0.06914468
708 -0.031321384 0.0089847725 0.19136299 0.24427313 0.18492194 -0.28400326 -0.033067744 -0.17990471 -0.32751086 -0.09929245 0.35938352 -0.0093161315 0.016530853 0.0746704 -0.059360642 0.19890153 -0.07639459 0.15009218 0.15961385 0.35073262 0.093773276 0.047603905 0.13186704 -0.14373456 -0.10724427 0.1937724 -0.3086521 -0.22508392 0.12047861 -0.31543893 0.039649323 0.13315484 -0.11553532 -0.2717145 0.047953233 -0.03840503 0.15996793 -0.06226495 0.14090723 0.022873966 0.15182959 0.27751526 0.06767288 -0.34136704 0.1798538 -0.15807511 -0.011711372 -0.124846786 -0.081011094 -0.048936017 0.27763107 -0.12669103 0.10053886 0.003502426 0.050299857 0.17303428 -0.06877292 0.18976252 -0.16596663 -0.1982797 -0.20237197 -0.095079795 0.014938958 0.023778012
727 0.049235873 -0.21628529 0.320356 -0.033836767 -0.02530146 -0.3992368 0.1119804 0.032230254 -0.16069339 -0.013489957 0.18515244 -0.0006442895 0.11855115 -0.16228445 0.010206867 0.060410913 -0.31990692 0.15204859 -0.08327747 0.3448402 0.058012962 -0.0072133197 0.11054226 -0.1424548 -0.13330479 0.14505525 -0.43593314 -0.0873604 -0.06163377 -0.14154856 0.13473573 -0.071316324 -0.20390984 0.0034679924 -0.011194322 0.16039842 0.27826965 0.19814764 0.119311556 0.2421608 0.06992057 0.27525607 0.03180197 -0.05217902 0.19135779 -0.38984117 -0.2560315 -0.02055705 -0.009638103 -0.057261176 -0.09121076 -0.037199236 -0.03021501 0.027020171 0.101337664 0.37112582 -0.13788337 -0.24754918 -0.25663236 -0.020746002 0.07075422 -0.098579474 0.019761425 0.15858161
71 0.055829126 0.037304983 0.22724834 0.28215742 0.1342931 -0.16068582 -0.152849 -0.20242397 -0.24095772 -0.09335639 0.35551012 -0.062917605 -0.12063855 0.012886073 -0.06550761 0.22594886 -0.12043375 0.059901472 0.09168526 0.3099645 0.2489932 0.15839003 0.31057394 -0.13510765 -0.16803303 0.34143212 -0.24300851 -0.24367364 -0.052506786 -0.2145203 0.09965195 0.07904139 -0.08908355 -0.19707252 0.023835963 -0.053431556 0.078736134 0.15705857 0.15647586 0.13014846 0.13976222 0.06804427 0.0611558 -0.33466735 0.051467087 -0.1761578 0.06816947 -0.2597468 -0.17927204 -0.09323321 0.15228704 0.0128911985 0.05584614 0.2438403 0.19457604 0.301233 0.06495532 0.03147 -0.2351803 -0.11376974 -0.16393135 -0.20283419 0.018707104 0.017493479
314 0.041014705 -0.051670942 0.25770235 0.2100278 0.09255926 -0.2465343 -0.039629783 -0.08666497 -0.2668361 -0.042703774 0.033534087 -0.11258835 -0.11324965 0.10558622 -0.117615074 0.30334306 0.021978201 0.1176405 0.04367655 0.23426402 0.009168417 -0.086963564 0.11999861 -0.0050737984 0.0135099385 0.29404458 -0.22285454 -0.22658756 0.020803496 -0.21783997 0.11190444 0.009148167 -0.124739185 -0.15947159 0.13821091 -0.15212347 0.29406855 -0.013823216 0.1861783 0.0860371 0.04784959 0.17379309 0.08990995 -0.32268336 0.229351 -0.40641722 0.045371704 -0.228012 0.035506263 -0.045095574 0.30866295 0.0025446932 0.14831388 -0.005703119 0.2027175 0.336365 -0.07140612 -0.07246638 -0.39490294 -0.018259324 -0.26653847 -0.12357378 0.17258286 0.03921686
308 0.047148544 0.01975017 0.19544971 0.04689879 0.028135758 -0.15926002 -0.06496784 0.03213701 -0.3426102 -0.051785085 0.40448284 -0.19352686 0.1433044 -0.042493142 -0.057307355 0.20019192 -0.047718674 -0.09225248 0.060287967 0.48469406 0.011772464 -0.06348076 0.15803659 -0.16813104 -0.15596886 0.18798085 -0.237546 0.103419274 0.013960847 -0.22123288 0.017479505 -0.11857025 -0.16283906 -0.37377852 -0.049461022 0.13012221 0.044000797 -0.03985686 0.19787034 0.20454328 0.050341718 0.15322658 -0.035531852 -0.22775784 0.1774358 -0.22286534 -0.073053166 -0.100595646 0.061888546 -0.0090387305 0.16352803 -0.018521065 0.01695183 0.07999851 0.17336914 0.35116765 0.027961716 -0.07190273 -0.26429397 -0.0532311 -0.19324164 -0.0976733 0.09695872 0.16115957
646 -0.0771941 0.007077209 0.22518769 0.16757011 0.15770012 -0.3696053 0.09800698 -0.14705198 -0.29323703 -0.08797744 0.024569057 -0.05729895 0.09962046 -0.051073883 -0.2578334 0.090598844 0.15802823 0.19874442 0.10017985 0.39745528 -0.029220516 0.02829745 0.059616007 -0.17917782 -0.16141179 0.45470405 -0.26439726 -0.23367809 -0.08411669 -0.23000078 0.024879105 0.059600785 -0.21564952 -0.15371874 0.18902153 -0.15845744 0.18831532 0.10299005 0.15092008 0.09739734 0.07862244 0.046964925 0.010955214 -0.2618334 0.17413606 -0.29535303 -0.10994699 -0.18934317 -0.04765134 0.042271197 0.100775324 -0.025214883 0.059083194 -0.16881818 0.33888957 0.295833 -0.16386685 -0.013429659 -0.18191664 0.024637073 -0.17615059 -0.17685546 0.012069133 -0.0199344
87 0.0701129 -0.14057432 0.31616852 0.1115714 0.07426492 -0.26048604 -0.014573474 -0.10356033 -0.12920815 -0.1473902 0.3158936 -0.07424005 -0.073300324 0.03637578 -0.014592463 0.18389139 -0.2126981 0.17348526 0.11411573 0.29803333 0.17558284 0.10036693 0.24126616 0.090926856 -0.024614863 0.112479754 -0.342328 -0.20136492 0.13192186 -0.2910716 0.008337753 0.110415384 0.09349986 -0.16145751 -0.00023723947 0.118031695 0.25922948 -0.050654612 0.25824162 0.07412393 0.11951668 0.35701552 0.16291678 -0.1825873 0.12665407 -0.028710445 0.052124508 -0.23311995 -0.18004312 -0.10001472 0.12826553 -0.12303985 0.07071337 0.24212019 0.034464296 0.15531582 -0.21581298 -0.11737994 -0.27278644 -0.123070896 -0.13063122 -0.16406716 0.13557222 0.004004483
493 -0.08024966 -0.05244251 0.20467758 0.0950187 0.023729166 -0.05750443 -0.073557995 -0.10354815 -0.17233808 -0.0141312145 0.22027907 -0.04134535 -0.058801547 0.085273474 -0.048921995 0.1396356 -0.2770043 0.14734857 -0.06746338 0.3158262 0.24513891 0.10898396 0.2120052 -0.19894098 0.064454235 0.37776166 -0.38140967 -0.06324811 -0.0074273227 -0.2713847 0.027201492 0.03643625 -0.13270907 -0.14103241 -0.02966168 0.040183056 0.21998613 0.10957373 0.27442434 0.057608098 0.13287857 0.17174886 0.110400826 -0.23931038 0.27711403 -0.22283585 0.076191574 -0.27647796 -0.06383227 -0.010949043 0.1734863 -0.0009272804 0.07859865 0.15866545 0.0993301 0.27237695 0.013376545 -0.117132835 -0.24913026 -0.043993942 -0.16194889 -0.30163178 0.048356045 -0.0018776427
399 0.1458021 -0.16497837 0.38830164 0.0706957 -0.09702301 -0.41819575 -0.055274706 0.040477395 -0.2552166 -0.046654303 0.29741117 -0.07038577 0.07556635 -0.048780836 0.04005009 0.16059001 -0.21841565 -0.06836818 -0.010652321 0.33320823 0.18166313 -0.0558047 0.19573185 -0.12338673 -0.0360532 0.18231209 -0.30042303 0.05559825 0.2547476 -0.25848514 -0.013808058 0.057250828 -0.1923271 -0.24381305 0.031472746 0.07823934 0.121918604 0.105562545 0.038066685 0.1722632 0.17841996 0.15981619 -0.012580092 -0.10105616 0.22072302 -0.36901176 -0.1209216 -0.028124558 0.07154543 -0.11601876 0.10808892 -0.0852024 -0.02165449 0.04518254 0.08794466 0.28577256 -0.14592388 0.020381743 -0.16009423 -0.080638275 0.03217206 -0.04325573 0.099819586 0.2560405
97 0.050706554 0.038630087 0.16291532 0.0050787837 0.1754577 -0.13432147 0.02338664 -0.025307734 -0.34767908 -0.046589065 0.38294658 -0.21691531 0.012671418 0.08630477 -0.09853224 0.15359695 -0.17880085 -0.04087961 0.14362638 0.35528314 0.07890061 0.028342413 0.21038061 -0.119523235 -0.0023975666 0.20413947 -0.31662756 0.088338755 0.12723199 -0.23648031 0.04584567 0.009069596 -0.059904948 -0.1778506 -0.09262171 0.09076871 0.07442795 -0.091644645 0.23460767 0.080911584 0.06160127 0.38244337 0.12517591 -0.25122035 0.06087242 -0.15816455 -0.08844096 -0.102297835 -0.07357332 -0.02312441 0.13961998 -0.10778972 -0.018170467 0.1848732 0.009611224 0.4776213 -0.041273955 -0.11446299 -0.4049146 -0.13693097 -0.09633556 -0.20827976 0.0041569737 0.11588743
160 0.09484601 -0.12752354 0.49967906 0.070833616 0.1213211 -0.3711039 0.015184281 -0.085872084 -0.23871301 -0.20163722 0.1337113 -0.29544383 -0.06389978 -0.003104966 -0.10594126 0.29948187 -0.042465273 0.18271683 0.07468625 0.3098294 0.10893711 0.06113914 0.19303246 -0.034089178 0.13160941 0.2828416 -0.09010909 0.010216885 0.07614007 -0.18212917 0.07297523 0.112653926 -0.16068012 -0.24317752 0.24666175 0.07707843 0.1260552 -0.033794496 0.17328383 -0.021179883 0.13877511 0.10825821 0.18323135 -0.15023725 0.17261942 -0.15707032 -0.06229429 -0.3449569 -0.18372473 0.0067040008 0.061569337 -0.12059514 0.20553407 0.13207433 0.19884618 0.1951392 -0.21810757 -0.09586385 -0.16235124 -0.09620948 -0.15117948 -0.3089919 0.04342362 -0.019960672
479 -0.03641195 -0.15630648 0.34241217 0.21966648 0.19806707 -0.310536 0.011007965 -0.14648138 -0.16978171 -0.07530834 0.3789842 -0.08537516 -0.019017152 -0.14266844 -0.11647212 0.10066052 -0.07265063 0.22410294 0.14654663 0.4082913 0.15153733 0.06727576 0.2935581 0.068503805 -0.06831017 0.061484203 -0.21797636 -0.08302645 0.0602625 -0.14811116 0.055438865 0.024822295 -0.2105339 -0.108252086 0.036982585 0.035967853 0.20898315 -0.043240067 0.38284484 0.13118023 0.22129284 0.20561299 0.011293431 -0.26542383 0.04605004 -0.2751999 0.044404645 -0.17492329 -0.14492956 -0.08136793 0.16839987 -0.012683486 0.13362159 0.170352 0.044845667 0.07617622 -0.045415103 -0.0628978 -0.10948149 -0.044346668 -0.13455652 -0.22522828 0.20948964 0.0507324
726 -0.12320529 -0.018791357 0.12015693 -0.046443325 0.07774055 -0.40552866 0.09968057 -0.005083791 -0.14030144 -0.047454175 0.1934263 -0.066325895 0.088676095 -0.062265653 -0.29066163 0.07797032 -0.0036445044 0.0052104173 0.14320245 0.37633324 -0.028155271 -0.031304218 0.16416778 -0.25986537 -0.11614445 0.24802414 -0.20959005 -0.1174292 0.11068278 -0.15559006 0.1161648 0.04120968 -0.15579939 -0.033234842 0.013585208 -0.048311982 0.19360162 0.07268977 0.27323708 0.05241343 0.22948797 0.21850748 0.08136477 -0.22764242 0.0816318 -0.37281644 -0.12166513 -0.22731175 -0.043958046 -0.034650527 0.07573266 -0.11773126 0.16727291 0.033763394 0.13352977 0.35540646 0.055043057 -0.023256741 -0.2754348 0.09657723 -0.26218456 -0.3962088 0.057309736 -0.08821756
851 0.040810846 -0.07354938 0.066717334 0.013740227 0.05035808 -0.41811606 -0.16390967 -0.11616819 -0.12920327 -0.08660828 0.058286734 -0.12078045 -0.041131314 -0.007533569 -0.24219973 0.16775145 -0.16868629 0.08643625 0.08121862 0.36062026 0.35678056 -0.1300648 0.02375838 -0.30160835 -0.034683753 0.101551995 -0.3952261 -0.29875383 -0.00990811 -0.3059672 0.13078438 0.115772195 -0.027137378 -0.010797554 0.017764423 0.12823343 0.17384447 0.12776539 0.06617468 0.06777677 0.2470136 0.20152439 0.14923464 -0.22197455 0.24463783 -0.2952218 -0.08912371 -0.23424141 -0.018021157 -0.1997755 0.107874736 0.031846162 0.25253534 -0.023028752 -0.048333976 0.28526253 0.05603815 0.011101899 -0.20611963 -0.13357088 -0.24015056 -0.30670223 0.0058213635 -0.14114387
84 0.112247206 0.058420792 0.20297438 0.0887108 0.1433382 -0.2314607 -0.11799971 -0.22703066 -0.22114496 -0.091566265 0.29401556 -0.13358104 0.0052434644 0.058158126 -0.17997001 0.26392576 -0.055616368 0.098617196 0.25319827 0.3563123 0.18034704 -0.11899934 0.22428547 -0.11432262 -0.20313336 0.14015713 -0.30599603 -0.12522602 0.13637468 -0.38087127 0.040917717 0.21818703 0.03458794 -0.27186194 0.125984 0.011923513 -0.010609553 -0.069406934 0.15583614 0.12007668 0.18610942 0.050652713 0.13197856 -0.26874247 0.06828459 -0.046499494 -0.059463 -0.2685355 -0.082258545 -0.08724297 0.21882871 0.009740157 0.10369063 0.1491114 0.27855456 0.16743729 -0.087626174 0.22037247 -0.27788362 -0.11445987 -0.35207817 -0.22838107 -0.05093832 0.049061965
230 0.16880609 0.030331854 0.08034322 0.19444688 0.17795032 -0.36381578 0.07841023 -0.081649095 -0.18836164 -0.10166545 0.09302292 -0.21818388 -0.067416385 -0.05202901 -0.034070782 0.34678665 0.09271423 -0.016941896 0.035582364 0.17715576 -0.12624831 -0.052010182 -0.081010036 -0.19402365 -0.1552704 0.2838262 -0.22506472 -0.19295695 0.15583585 -0.27153373 -0.024115004 0.12817773 -0.23491849 -0.21769856 0.0036593687 -0.19942296 0.13708098 0.14344 0.08832769 0.0026432981 0.12572572 0.16205116 0.1870612 -0.32697645 -0.03592474 -0.3617576 -0.3228038 -0.25134552 -0.0007965095 -0.2412871 0.22650802 -0.2266222 0.1533759 0.15307641 0.14795522 0.20860744 0.09789458 -0.33543682 -0.42084435 -0.12703155 -0.16083984 -0.14673057 -0.15684572 0.092359796
725 0.013178 0.022107303 0.01575245 0.08654476 0.15364346 -0.19997711 -0.120233856 -0.24022973 -0.28141224 -0.038217075 0.33481857 0.016853847 0.051403917 0.14430615 -0.3819593 0.16737889 -0.12419208 0.02301349 0.11473816 0.61792105 0.20641193 -0.035915416 0.20020315 -0.13774571 -0.15973963 0.26984754 -0.24101037 -0.13730294 0.08398147 -0.35047868 -0.1533181 0.038410343 -0.0681082 -0.24009873 -0.012087044 -0.021158567 0.16586825 -0.138598 0.15564032 0.12328807 0.057824362 0.18992668 -0.031817 -0.3315855 0.18758534 -0.12627599 0.088128716 -0.13996032 -0.04843436 0.0071373605 0.18484832 -0.104096144 -0.109061405 0.089086555 0.013210109 0.3471449 0.001881486 0.09959807 -0.32063827 -0.12391554 -0.21866846 -0.068315856 -0.14658658 0.09479712
46 0.17123432 -0.17617312 0.2860444 0.0665668 -0.11217424 -0.2069672 0.0008897325 -0.025785513 -0.10367896 -0.10258817 0.28514653 -0.20212723 0.040761244 0.048948865 -0.12271011 0.18756 -0.11855254 -0.2120071 0.105687104 0.41021803 -0.015350935 0.11916241 0.17745733 -0.13323747 -0.19931558 0.26524553 -0.13723777 0.02508387 0.039589312 -0.21869208 -0.11765665 -0.10100492 -0.15858246 -0.16772513 0.14578919 0.059642848 0.08822191 0.11605366 0.012089589 0.15857874 0.17986861 0.19612771 0.03143228 -0.08053492 0.17682447 -0.5153058 -0.047567427 -0.23503341 -0.08335938 -0.081098594 0.13923101 0.07980783 -0.060434148 0.07947917 0.15200076 0.33274192 0.016871773 0.022414675 -0.24895856 0.083476655 -0.28439376 -0.12733383 0.22504114 0.1514723
298 0.022464495 -0.043242313 0.12607165 0.035852343 0.08802608 -0.5197676 -0.04846305 -0.11050635 -0.13737825 -0.19284855 -0.079018585 -0.0795321 -0.087906934 -0.086756654 -0.3297828 0.23548716 -0.10054429 0.080692455 0.20101176 0.2565634 0.307152 -0.06222166 0.121694736 -0.21089453 -0.074444525 0.2738523 -0.19681995 -0.39505064 0.06353909 -0.28285003 0.10071941 0.2696236 -0.044420775 -0.090915486 0.097372256 -0.0709206 0.14809555 0.11858427 0.1247101 0.0004333365 0.36659676 0.2085235 0.20526408 -0.208909 0.2056252 -0.19206238 -0.042350203 -0.3487417 -0.13206433 -0.32783133 0.1560241 -0.20898657 0.21884537 0.09873831 0.015659599 0.11080009 -0.06194453 -0.09006205 -0.17322361 -0.19015542 -0.05503185 -0.27349147 -0.0652844 -0.060517084
225 0.018551264 0.06465412 0.35770887 0.2973679 0.117078915 -0.120172754 -0.13678525 -0.086643316 -0.35558704 -0.046468128 0.3589933 -0.30604473 -0.11550235 -0.0342676 0.1354155 0.22068049 -0.26800367 0.09149949 0.10508864 0.12852876 0.18413213 -0.04745344 0.12017415 0.044179644 0.048834413 0.24748999 -0.3477772 0.004315356 0.094445206 -0.112782195 0.14739622 0.08229253 -0.09431114 -0.259136 -0.17521882 0.0054506543 0.08619217 0.062477343 0.17012872 0.09636827 0.21351741 0.24342692 -0.046071067 -0.34828433 0.1368191 -0.38260517 -0.029164642 -0.041674815 0.03823268 -0.09637232 0.34346572 0.08583132 0.09663525 0.119166 0.051639784 0.27411988 0.0031715175 -0.055231992 -0.37862316 -0.088805735 -0.107473284 -0.19225836 0.08525023 0.15710065
733 0.14275667 -0.19225027 0.31075862 0.19862883 0.112578414 -0.22781138 0.03988101 -0.015017092 0.0480025 -0.15589611 0.20150222 -0.20985071 0.01303695 -0.16583824 -0.10027807 0.18380207 -0.06453369 0.1545338 0.11094547 0.5689894 0.23743965 0.042317066 0.19317038 0.045717157 -0.1703042 0.110866144 -0.35541987 -0.12163507 0.002406029 -0.3933046 -0.06488687 0.04926451 -0.09430117 -0.21781169 0.008510706 0.30474156 0.10859924 -0.026042132 0.19464387 0.056333926 0.22251229 0.07718762 0.12880118 -0.084578454 -0.13235885 -0.0959471 0.028909637 -0.16439189 -0.18488619 -0.16079764 0.12415117 0.016221192 0.043295193 0.21101195 0.15633588 0.08507837 -0.1548529 -0.063948266 -0.21824975 -0.06974383 -0.23097314 -0.14302568 0.12991121 0.01702115
219 0.2726054 -0.20721853 0.42362824 -0.113192156 -0.0965216 -0.4098986 -0.14159383 -0.054678798 -0.13964912 -0.07884142 0.21271369 -0.096671514 -0.06939576 0.0023152393 -0.1567668 0.20464051 -0.02270908 -0.16279207 0.11741314 0.36934438 0.21090516 -0.16816705 0.338355 -0.2975556 -0.0052970024 0.095233634 -0.28432208 -0.014380181 0.19307435 -0.3205896 0.0032619135 -0.02472989 -0.011990142 0.013795998 0.19703282 0.03787337 0.0124164885 -0.019997368 0.043177284 0.10544221 0.16386032 0.19065577 0.06951311 -0.17670712 0.17024462 -0.33839208 0.019502994 -0.3437296 -0.21156316 -0.18517362 0.09866595 -0.037540216 0.043289103 0.25003138 0.17391226 0.22863005 -0.10773858 0.05862308 -0.17838958 -0.10914518 -0.19496284 -0.2803571 0.25661248 0.10050387
524 0.1709452 -0.19813107 0.120496824 0.012421835 0.05381549 -0.31393525 -0.013701933 0.09985047 0.026331387 0.0013071415 0.03950078 -0.12091132 0.09898513 -0.17067741 -0.33231524 0.038424537 -0.05953482 -0.012590834 0.010662827 0.46120912 0.13075596 0.039118834 0.18998514 -0.13055828 -0.2721674 0.16289067 -0.27319103 -0.23248161 0.06135037 -0.2113188 0.010377903 -0.034081243 -0.0771167 0.04318905 -0.005200395 0.042390317 0.23986703 0.0591327 0.23755549 0.10322269 0.19569957 0.21333739 0.0036183684 -0.22491579 -0.027612533 -0.43774128 -0.096283585 0.04321392 -0.06404265 -0.21394259 0.016399067 -0.17398871 -0.047865983 0.058426995 0.09771048 0.3133814 -0.115213476 -0.115896 -0.42020187 0.13418062 -0.25389677 -0.24175893 0.014812068 -0.15716118
955 -0.067052186 0.1682737 0.09877993 0.1552803 0.1733291 -0.14653528 -0.029154101 -0.14088657 -0.20393284 -0.10600542 0.36708403 -0.15031756 0.049181577 -0.0033166977 0.12817533 0.1639629 -0.04881479 0.19871673 0.019103296 0.28292775 0.07991071 0.04714383 0.03758569 -0.0487653 -0.11622171 0.24999486 -0.3535142 -0.1286364 0.058697857 -0.30947143 0.06193101 0.15861154 -0.10843434 -0.39819306 -0.030840253 0.042451695 0.1624055 0.17954214 0.22312889 -0.010595618 0.22972539 0.2079845 0.056260083 -0.3295905 0.11576156 -0.13823605 -0.17752267 -0.2422802 -0.0009365242 -0.048435558 0.14134781 -0.0016121411 0.31050098 0.047536377 0.30796102 0.17662092 0.054656714 0.06580907 -0.109846845 -0.15636922 -0.37383723 -0.2658396 0.09322166 0.05301305
643 0.025561549 0.12049874 0.069012776 0.16865014 0.13312589 -0.14360471 -0.10920261 -0.1936585 -0.21504776 0.04787196 0.35378283 -0.19502275 -0.010667476 0.102109365 -0.33876246 0.11649703 -0.15551922 -0.01928789 0.18619864 0.38710678 0.25139812 -0.03020911 0.119954504 -0.062441014 -0.19637072 0.29507893 -0.25484455 -0.12446721 0.09468816 -0.24083826 -0.13041832 -0.007046711 0.00018823174 -0.23358841 -0.024673007 0.011178502 0.17805614 -0.010329382 0.20705535 0.14464936 0.12844527 0.17905574 -0.05038166 -0.37112406 0.10807489 -0.2881798 0.04332148 -0.15817359 -0.033173192 -0.055541117 0.3090231 0.15098894 -0.0002992971 0.017215284 0.024585856 0.36425316 0.048737712 0.14449911 -0.34120816 0.0493342 -0.36156127 -0.15420346 0.05432953 0.06412342
150 0.053255964 -0.08515031 0.39752796 -0.08732332 -0.16557279 -0.32462752 0.020964399 -0.04944416 -0.20422257 -0.08744594 0.22574262 -0.07911209 0.04043489 -0.05616832 -0.09798112 0.1330794 -0.116109125 -0.10022046 0.17502525 0.38603675 0.15823108 0.076369576 0.20805381 -0.03543232 -0.107810795 0.37060156 -0.17259797 0.069653645 0.1520551 -0.22602327 -0.04771332 0.0679196 -0.016345559 -0.1361967 0.01679671 -0.036297582 0.095830746 0.099048 0.1719999 0.23482378 0.22916648 0.26230642 -0.0033351157 -0.122819684 0.28150254 -0.35611126 0.08820118 -0.30031937 -0.1610606 -0.06595085 0.08883571 -0.08003916 -0.0059612314 0.07721513 0.19836125 0.1841158 -0.014917973 -0.04502237 -0.12597893 -0.06711945 -0.088652536 -0.16900408 0.22454675 0.17637435
17 -0.0069070007 -0.1814009 0.25012866 0.108251125 -0.013355778 -0.21818955 -0.030640118 -0.008473589 -0.14463398 -0.24241024 0.03252121 0.15685114 -0.084416464 -0.015242727 -0.04408212 0.21965343 -0.06536754 0.116683856 0.10124391 0.39915884 -0.015813231 0.022909306 0.23237 -0.3283314 -0.007546872 0.24636063 -0.4020092 -0.2646924 -0.17247795 -0.24312936 0.3367364 0.028677486 -0.24271555 -0.14301123 0.16695157 0.12776299 0.085760266 0.10265141 0.14421847 0.08585735 0.12541835 0.38620618 0.03491079 -0.31540698 0.14489232 -0.3800596 -0.031752374 -0.16494837 -0.06747333 -0.013352504 0.17613709 0.046336398 0.2550933 -0.008422457 0.18345666 0.24872093 -0.053709235 0.033921894 -0.16141854 -0.061145306 -0.18819793 -0.21202622 0.20148443 -0.13345832
490 -0.003509668 -0.039571937 0.302512 0.11324219 0.08875975 -0.24452922 -0.011214438 -0.057853274 -0.16950792 -0.04618302 0.27158704 -0.09474762 -0.09402614 0.0040966617 -0.033887625 0.23066048 0.050194755 0.098737195 0.07044917 0.29391262 0.2592773 -0.15006252 0.16452195 -0.094172426 0.013217724 0.22472547 -0.2571584 -0.14523254 0.23188634 -0.31683385 -0.014343543 -0.073801234 -0.060141046 -0.20386462 -0.019669853 0.10320601 0.21034637 0.005072603 0.23708381 -0.12679942 0.17309324 0.16275139 -0.027964374 -0.38453534 0.13217941 -0.26386008 0.021500595 -0.28735098 0.008855514 -0.11643362 0.25319478 -0.05882432 0.22056827 0.14713427 0.2361855 0.12895262 -0.12096353 0.08106779 -0.22518022 -0.054520756 -0.16800562 -0.22735567 0.23843291 0.0601048
1012 0.08956678 -0.13936445 0.35440582 -0.029306712 0.09970575 -0.36866567 0.009746367 -0.050713006 -0.18927535 -0.046318226 0.13009785 -0.16620009 0.05063998 -0.24238612 -0.2716687 0.09349429 0.019214995 0.14249207 0.21258295 0.5108315 0.25053528 0.10965671 0.2620033 0.050562058 -0.23957951 0.1502298 -0.18421927 -0.24650359 -0.16290501 -0.16514069 0.14894564 0.011152756 0.014289399 -0.07533464 0.044753745 0.03893115 0.10022323 -0.07571213 0.362954 0.21459225 0.1548964 0.27528867 0.07211088 -0.22416942 0.08312574 -0.1398921 -0.00029145216 -0.17098056 -0.16732639 -0.19803919 -0.030586453 -0.103601016 0.09450869 0.021923034 0.20460919 0.12623546 -0.15831275 -0.057292268 -0.010122646 -0.1850802 -0.20427369 -0.28930482 0.23647833 -0.1014157
951 0.19412193 -0.01794916 0.2787687 0.09252038 0.08709633 -0.043667182 -0.17006381 -0.17145324 -0.09414572 0.09448109 0.12500918 -0.3293676 -0.04423058 -0.009739038 -0.2139965 0.23680066 -0.035450134 0.046571426 0.09596826 0.37620145 0.18776323 -0.0041178646 0.024370233 0.013247875 -0.19243108 0.24689725 -0.29688716 -0.21039727 0.04815622 -0.2890868 -0.13054223 0.0547925 0.16674876 -0.15264374 0.08916315 -0.10853807 0.09126404 -0.08522483 0.16513567 0.16441101 0.082301535 0.20881364 -0.030617062 -0.38921496 0.15791358 -0.3141676 0.104093984 -0.09427903 -0.07746666 -0.13849705 0.21712585 0.06818896 -0.006332449 -0.018278131 0.1329597 0.2445295 -0.13541174 0.02467664 -0.45189226 0.09534163 -0.42724097 -0.22261979 0.21100557 -0.038547244
337 0.040724084 0.032744415 0.29439065 0.002852505 0.09842194 -0.39617476 -0.08601644 -0.048942745 -0.278764 -0.047365908 0.37564188 -0.110919066 0.010734897 -0.043703064 -0.17129107 0.13309771 -0.012355316 -0.028263342 0.21181461 0.29727295 0.15094769 -0.1276711 0.2389404 -0.087451294 -0.07936221 0.059953224 -0.07643689 -0.061899196 0.15109351 -0.15366867 0.001833236 -0.0051651644 -0.033206455 -0.20195748 0.06245527 0.041329764 0.17172636 -0.022594046 0.2845973 0.022729928 0.26955652 0.37650308 -0.039058756 -0.33550784 0.16577214 -0.30256262 -0.061209943 -0.33166772 -0.11371921 -0.07238166 0.14118119 -0.08307976 0.16654377 0.20260644 0.071859375 0.17540866 -0.072727434 0.04249466 -0.009051384 -0.1513729 -0.15584604 -0.24908324 0.17328693 0.10543837
444 0.21964802 -0.22864151 0.24540038 0.034357995 0.07602642 -0.10879301 -0.14940709 0.064235866 -0.058279306 0.0633806 0.13227661 -0.071426235 -0.0050692367 -0.09479329 -0.17008358 0.16297293 -0.07650127 0.05673449 -0.099536754 0.5475821 0.3769795 -0.047506556 0.24297525 -0.24999468 -0.16797225 0.02628244 -0.44894907 -0.26385596 -0.12953548 -0.36738887 0.02611772 -0.14209281 0.086187124 -0.056270577 -0.01777087 0.2409818 0.124992065 0.013568251 0.2066396 0.051575195 0.13257812 0.20144427 -0.036274828 -0.27944702 -0.021296717 -0.24023834 0.12136892 -0.09936174 -0.117269196 -0.17201628 0.02385364 0.06546733 0.045503743 0.16665676 0.12109571 0.31527933 -0.13612893 -0.06677328 -0.26245645 -0.04539466 -0.28841132 -0.30348495 0.20638593 -0.0665596
342 0.084825374 -0.07520114 0.28851 0.006964815 0.06429539 -0.1723023 -0.01767386 0.0038764013 -0.18333007 -0.14238952 0.27425534 -0.025101725 0.02692584 -0.0074426993 -0.17222095 0.24027519 0.02041776 -0.0060318965 0.19875158 0.38848436 0.14232583 -0.04809217 0.29054916 -0.23276275 -0.043405395 0.07647603 -0.3260165 -0.045870278 0.12580782 -0.31509253 0.12670058 0.029426377 -0.058399405 -0.1496165 0.046974864 0.18157662 0.0021281114 -0.022954803 0.20445408 0.003078232 0.21688735 0.38677448 0.07096851 -0.23734283 0.08250824 -0.24432011 0.088078246 -0.16117568 -0.2550934 -0.056416318 0.17960422 -0.09406435 0.049614154 0.22239777 0.042917065 0.31112492 -0.1125299 0.049708977 -0.25639117 -0.10803662 -0.06104717 -0.17537615 0.11253789 0.06451851
7 0.03464861 -0.073984385 0.30937022 -0.037380286 0.046862148 -0.30911142 -0.04530921 -0.11158611 -0.13716447 -0.0142861 0.24678199 -0.35210496 0.051930495 0.05278457 -0.14629215 0.17912981 -0.18678619 0.18126114 0.044878654 0.4265633 0.30974063 -0.025156282 -0.026506202 -0.15990435 -0.074675076 0.30124584 -0.32407296 -0.014621498 0.03487249 -0.37961987 -0.1775351 -0.0043746103 0.061773516 -0.21070956 0.104306415 0.2750943 0.19160643 0.061613847 -0.07249763 0.081384644 0.12871139 0.042737473 0.024370689 -0.017434059 0.23131768 -0.12379124 -0.1510054 -0.31179518 0.009320672 0.006286015 -0.07907855 0.18658341 0.24315533 -0.18331696 0.21342374 0.31153488 -0.07420555 0.11958919 -0.21430777 0.13680747 -0.30264705 -0.2641425 0.114664875 -0.04176071
934 -0.05009959 -0.10516688 0.3658852 0.16339134 0.09323226 -0.21262999 -0.10446799 -0.0119838305 -0.133174 0.015463555 0.17288855 -0.07497675 -0.0052361013 -0.19490667 -0.15980372 0.11274295 -0.06549237 0.17279458 0.1472045 0.25598055 0.25021017 0.029533332 0.2486284 -0.16547719 -0.1509538 0.24770252 -0.3026246 -0.22637075 -0.10519799 -0.2176408 0.044563405 -0.04027223 -0.06005415 -0.08381869 -0.04175378 0.014759519 0.18989567 0.07664512 0.24019164 0.11778554 0.34281728 0.22387242 -0.124432586 -0.31397292 0.13929689 -0.31953108 0.053056493 -0.32073155 -0.10659879 -0.10102995 0.11632989 0.11968304 0.15155806 0.07749379 0.108564086 0.030058265 -0.04536244 -0.091052465 -0.03068367 0.03645385 -0.105817445 -0.30276045 0.21613856 -0.011936795
484 -0.018823614 0.018563632 0.13189164 0.101180896 0.058581248 -0.31388423 -0.032923967 -0.2224618 -0.21333121 -0.09714154 0.37876168 0.04429824 0.05289087 0.052583177 -0.024031974 0.06387706 0.021401156 -0.034279536 0.06721552 0.19336843 0.19404657 0.12446777 0.16193412 -0.08621794 -0.08312955 0.22390449 -0.32672817 -0.17823713 0.26602644 -0.35567984 0.003565433 0.09196427 -0.112985425 -0.17473774 0.053686887 -0.11259925 0.18743873 0.13469501 0.16440214 0.062795214 0.1858906 0.2737184 0.10511577 -0.29188687 0.21111758 -0.20110641 -0.07648182 -0.18533935 -0.08598748 -0.30246708 0.112232774 -0.16612871 0.027530247 0.15025939 0.22213633 0.29208267 -0.043305703 0.1371458 -0.1799818 -0.100243405 -0.17383827 -0.19120131 0.0725835 0.13366866
417 0.13792856 -0.018301511 0.23289211 0.25517258 0.28200555 -0.19544147 -0.12521179 -0.07698579 -0.21494067 0.022909325 0.28610033 -0.26370734 -0.027618036 -0.010992633 -0.22266066 0.05921575 -0.057772707 0.13130178 0.005287829 0.2917227 0.2830625 0.022631278 0.19454639 0.087126195 -0.05561641 0.05996654 -0.2616688 -0.3318588 -0.043574616 -0.15799087 0.105012655 0.05179245 0.07775699 -0.17291431 -0.09775366 0.094604366 0.26251945 -0.093064345 0.3927881 0.07407007 0.039898857 0.2672911 0.077961236 -0.37001443 0.0040806243 -0.1130006 0.05256613 -0.11185668 -0.13380973 -0.07200845 0.11826605 -0.014816427 -0.0371443 0.23002502 0.07072402 0.37578744 -0.15387374 -0.12363943 -0.39666858 -0.10719974 -0.1753014 -0.27410746 0.025365235 -0.1007169
1002 0.23621279 -0.16326062 0.39687976 0.0563599 0.046509635 -0.23997201 -0.11875877 -0.02988329 -0.076183915 0.14022851 0.23274527 -0.16426098 -0.047112193 -0.08435126 -0.0071081063 0.13334073 -0.14611271 -0.07575059 0.093271986 0.17359266 0.39644682 -0.01101396 0.189721 -0.109905116 -0.12909359 0.2153321 -0.35660237 -0.11161022 0.13106692 -0.21585283 -0.11428498 0.04315223 0.026634626 -0.0077315927 -0.024328535 -0.015400163 0.14647043 0.13203135 0.12861264 0.08621216 0.23069002 0.35488743 -0.08156957 -0.33379045 0.043628916 -0.44845742 0.009325637 -0.18247713 -0.06511596 -0.3164286 0.13340926 0.03969195 0.011784531 0.0519062 0.11034507 0.10081936 -0.009589014 0.11940095 -0.24954143 -0.034243856 -0.2714987 -0.28701544 0.2620444 0.019250665
996 0.08360795 -0.057001475 0.21574418 0.14292207 0.12795754 -0.18764654 -0.0015669157 -0.1273583 -0.13651125 0.06678287 0.3151195 -0.30969375 0.04600342 -0.22522295 -0.2943786 0.19811776 0.011699365 -0.025655188 0.04644006 0.41363773 0.12349878 0.13121037 0.14925583 -0.24621595 -0.33669302 0.11438714 -0.13308226 0.015861116 0.00015846087 -0.22527756 -0.24362488 0.0033617087 -0.2022241 -0.18284233 -0.04140806 -0.08137083 0.06162065 -0.042186595 0.2996448 0.11374267 0.2592761 0.051827986 0.09015441 -0.28226432 0.110311545 -0.25201112 -0.1156744 -0.3122396 -0.081464894 -0.21729195 0.07419861 -0.03810764 -0.019369034 0.25237128 -0.020754986 0.07755511 0.13650224 -0.2653011 -0.15355071 0.0346411 -0.21649045 -0.2201384 0.055587582 0.08794563
648 0.024306716 -0.04277911 0.25033802 0.13667087 0.054593116 -0.13513696 -0.022581993 0.08213461 -0.34042618 -0.12404037 0.07140602 -0.12287763 -0.06028592 -0.042574856 -0.34845147 0.24587734 0.2442355 -0.14004801 0.13140842 0.37243232 0.17373922 0.045348417 0.05367248 -0.06863628 -0.1716307 0.25207055 -0.19657554 -0.19385333 -0.10349188 -0.31907728 -0.09598033 -0.06777698 -0.039387677 -0.38033253 -0.01353757 0.1709374 0.1618411 -0.0022652145 0.13242732 0.16001782 0.0390602 0.34954464 0.17366898 -0.15738402 0.1766345 -0.15451348 -0.024139734 -0.11307931 0.005873975 -0.28724086 0.22279257 -0.05725632 -0.029441902 -0.022249177 0.16201428 0.40296483 -0.07472695 -0.051183008 -0.32030728 -0.005440182 0.08974382 -0.040790923 0.0038197208 -0.054478746
632 0.27577776 -0.20682243 0.24154434 0.007194275 -0.1013286 -0.2326409 -0.0700369 0.010427091 -0.03373787 -0.092498735 0.14060113 -0.10758443 -0.03723572 -0.018724281 -0.031857017 0.09079018 -0.16551451 0.02069776 -0.20476186 0.467555 0.27049756 0.09038447 0.14261027 0.034048494 -0.091737 0.14389941 -0.4215796 -0.30263475 0.13960598 -0.3987841 0.01258309 0.10584168 0.09825554 -0.11283624 -0.035874266 0.09477366 0.23946497 0.115686096 0.16369145 0.11926346 0.05317474 0.21570502 0.23842357 -0.07033833 0.13671896 -0.1859598 0.053240992 -0.11483392 -0.24459523 -0.113740705 -0.0317015 -0.2198377 -0.050546054 0.265961 0.19026187 0.3972838 -0.13397737 -0.13433908 -0.30237958 -0.20369707 -0.13590787 -0.17017454 0.14931838 0.10035507
69 0.09794244 0.029255752 -0.013390142 0.0060492307 -0.0982285 -0.3243657 0.04750036 -0.09270324 -0.14269839 -0.08868777 0.21633288 -0.17130244 0.06596962 -0.07094655 -0.02713551 0.25974366 -0.08430994 -0.10021246 -0.030520804 0.40405864 0.07826062 0.104092315 -0.047458455 -0.21547073 -0.24621001 0.23330401 -0.3024841 -0.07684964 0.26669508 -0.3853637 -0.08273478 0.13316917 -0.041985743 -0.21244521 -0.05431549 -0.10355599 0.07314694 0.21742584 0.04547909 0.15614034 0.24835938 0.084038205 0.21565677 -0.14241743 0.23392138 -0.2625772 -0.19940564 -0.06986867 -0.03596343 -0.34629276 0.12562697 -0.27736694 0.116017096 0.06928863 0.1396981 0.26697433 0.11351684 -0.111641355 -0.34085554 -0.09893148 -0.31351656 -0.11955201 -0.028909279 0.13215104
68 -0.08337066 0.11480809 0.042834237 0.29108402 0.18459469 -0.14049476 0.05518643 -0.22217269 -0.3179279 -0.16194206 0.2760877 -0.17132066 0.09685728 0.031450927 -0.19233869 0.2754831 -0.13049789 0.13713802 0.14061555 0.45380333 0.050674304 0.13127464 -0.05156754 -0.102525726 -0.3245602 0.14382166 -0.277686 -0.20247449 -0.13725609 -0.40189517 -0.07818281 0.111157544 -0.05457824 -0.45183134 0.041159794 0.16732489 0.11918066 0.049661152 0.02889183 0.18347396 0.13669887 0.21910712 0.2147628 -0.11283461 0.33479115 0.008662381 -0.13582535 -0.044453163 0.008945764 -0.12922259 0.106832035 0.0056605446 0.041571997 -0.09456735 0.0032313962 0.3086539 -0.13752803 0.02972076 -0.22791103 -0.08021916 -0.14618103 0.10042197 -0.16828157 0.031545933
518 0.11047215 -0.13748254 0.2895301 -0.12760933 -0.12621742 -0.34190422 -0.14426886 -0.061562426 -0.16541265 -0.08294825 0.22010942 -0.090628535 0.03222764 0.03934725 -0.09678175 0.1544998 -0.119449295 -0.085130565 0.038220704 0.43619186 0.2773735 -0.054671593 0.22321379 -0.14266695 0.007916496 0.21658628 -0.25803196 -0.027167052 0.2441887 -0.26882753 0.027428946 0.055777352 0.020753875 -0.07022956 0.055596467 0.0038595235 0.06982914 0.11422229 0.07264992 0.13910908 0.2158003 0.2845272 -0.017813003 -0.19359341 0.36102486 -0.3976314 0.047510892 -0.1520714 -0.114709884 -0.12215951 0.05195107 -0.15414971 0.09662773 0.0384509 0.15970367 0.2589516 -0.0731636 0.21476328 -0.21393555 -0.15974648 -0.26006514 -0.27102408 0.21390197 0.0661751
220 0.24530372 -0.05854388 0.15277678 0.014212469 -0.033547692 -0.30537736 -0.08820535 0.037597317 -0.06848171 -0.14493366 0.17173149 -0.37476727 -0.05070661 -0.08644111 -0.11312578 0.34913003 -0.0067380248 -0.16125925 0.13545719 0.28635666 0.18662877 -0.050418857 -0.012295147 0.061146587 -0.1993661 0.21828745 -0.14412111 -0.06690227 0.29791838 -0.32294238 -0.21532774 0.04480889 0.06339439 -0.3160613 -0.004930543 0.11328987 0.15773486 0.16590418 -0.037188828 0.15878671 0.29026127 0.13077086 0.1625418 -0.19667181 0.11618272 -0.3743329 -0.10575329 -0.081065 0.05399918 -0.4306332 0.17658728 -0.20941894 0.092823766 -0.023627473 0.09531005 0.2188791 0.029247018 -0.05000604 -0.47718418 0.042214733 -0.22083826 -0.03594277 -0.07127132 0.021061298
257 -0.084937386 -0.102446705 0.14481197 0.18702614 0.15860927 -0.48008204 -0.10938667 0.18073642 -0.24312127 -0.07762593 -0.0037813066 -0.38123745 0.017747233 -0.2154998 -0.4523826 0.058503244 0.023389118 0.11986832 0.14465998 0.32267344 0.2996857 -0.025979657 0.13003236 0.04768568 -0.06721506 0.2740553 -0.13240035 -0.3721994 -0.07572398 -0.06289626 0.23713626 0.06243342 -0.11547025 -0.148234 -0.08731969 0.15545872 0.3988658 0.07347467 0.2661054 0.09262099 0.30166635 -0.043898594 0.0066222106 -0.16885544 0.12991463 -0.30449352 -0.03259553 -0.055378575 0.12601681 -0.15612383 0.09193727 0.0124581 0.22528385 -0.1091358 0.058541667 0.4183641 0.015139182 -0.10811349 -0.3874386 0.13945939 -0.112703584 -0.2582965 0.022352446 -0.18251203
949 -0.054356094 -0.009948799 0.1161648 0.10266464 0.2669356 -0.26073802 -0.07310057 -0.16325408 -0.23633476 -0.061101776 0.4014594 -0.19195871 0.05472065 0.09283741 -0.25231245 0.02290616 -0.25319073 0.031101359 0.1787577 0.26274225 0.2749079 0.11707128 0.21306317 0.014993895 -0.018710788 0.27390534 -0.1864898 -0.08512849 0.05743839 -0.22135703 -0.0697222 0.0001286967 -0.06187941 -0.11300384 -0.0009002133 0.07441106 0.27554622 0.0077736387 0.26472962 0.07490565 0.22555871 0.28983158 0.021436764 -0.31162763 0.06741736 -0.2363571 0.06657161 -0.21223702 -0.035432514 -0.08156946 0.07974596 -0.02350172 -0.03032946 -0.024592752 -0.008324203 0.35703954 0.00017973175 -0.00049431756 -0.26001498 0.008871023 -0.2058762 -0.24513799 -0.059613407 -0.030310808
873 0.06277791 -0.09673628 0.41421694 0.03922111 0.05480931 -0.3891131 -0.11915806 -0.09839714 -0.22414218 0.01375792 0.26966903 -0.11917117 -0.024266865 -0.058285754 -0.1798178 0.045907833 -0.03805082 -0.00050918816 0.05818474 0.29894644 0.25427788 -0.04693493 0.3697933 -0.14027208 0.046134327 0.20523113 -0.23273045 -0.067850396 0.0743495 -0.19103706 0.09451521 0.03695279 -0.20969668 -0.04001002 0.05288715 -0.106016845 0.14222158 0.03941333 0.25281748 0.10085232 0.25651 0.13967863 -0.0051760077 -0.26713255 0.1990424 -0.38931817 0.029846655 -0.32112685 -0.18056916 -0.13361846 0.08852119 0.019686988 -0.03711364 0.28602532 0.09263388 0.23523176 0.020409958 -0.030787395 0.014261654 -0.15661624 -0.1570612 -0.29315567 0.20086953 0.1732286
468 0.08118504 -0.014171084 0.34719333 0.052619986 0.013226345 -0.35923442 0.040852174 -0.013764838 -0.04681581 -0.059665594 0.2103351 -0.16778007 0.02899282 -0.14762233 -0.21607205 0.29652557 0.00020775718 0.025826564 0.2978187 0.21212925 -0.032968365 -0.080958016 0.26806307 -0.2318646 -0.26545286 0.17206642 -0.25410232 0.0019949803 0.0979114 -0.31370565 0.060122423 -0.06539286 -0.10002429 -0.0969225 0.12338139 -0.04090892 0.06346111 -0.02803073 0.17597544 0.26356053 0.2975066 5.893241e-05 0.14763999 -0.20942374 0.013400607 -0.3124074 -0.12610519 -0.3146041 -0.0760933 -0.25975433 0.18593359 0.10607136 0.07907484 0.17001832 0.12708332 0.18284975 0.050729662 -0.23667562 -0.24045761 0.20340893 -0.22126023 -0.17188835 0.0845345 0.03160823
53 0.06280949 -0.13750672 0.45804527 0.15746047 -0.0028675408 -0.23820347 0.06798678 0.05413045 -0.14592324 -0.10810295 0.06142165 -0.19435902 0.082650475 -0.26422876 -0.002476508 0.22527418 -0.022711992 0.04091368 0.12878749 0.28601947 0.13625892 0.14956963 0.053379532 -0.14746967 -0.2944028 0.31692225 -0.20900024 -0.0893599 -0.17806551 -0.21134445 -0.10301111 0.107807405 -0.13244486 -0.3431353 0.06286731 0.13420527 0.11257071 0.23593175 0.07989007 0.12849607 0.26164305 0.2422715 0.043181784 -0.08538657 0.17337926 -0.21172906 -0.12749977 -0.33989605 -0.05459537 -0.14800307 0.008240886 0.07172665 0.121025205 -0.02497048 0.27008718 -0.016147705 -0.061944354 -0.09018286 0.019956805 -0.09382041 -0.0056578564 -0.17072766 0.21811184 0.06567945
323 0.08294713 0.0009425421 0.053300098 0.38804176 0.26389828 -0.37345818 0.030742716 -0.16233806 -0.3294435 0.07051789 0.20341164 -0.14065583 -0.015035569 -0.12500383 -0.0043446166 0.146587 0.25790152 0.24730872 -0.23393881 0.24193531 0.21745652 -0.013134138 -0.073464155 0.09120746 -0.09588844 0.11656075 -0.24247004 -0.44560498 0.025037536 -0.36168444 -0.10673924 0.09235935 -0.12078947 -0.36406964 -0.07212604 -0.07865786 0.54996616 0.08994379 0.3560179 0.04580438 -0.008754942 0.082196355 0.1054413 -0.41287532 0.17353526 -0.1055132 -0.11902585 -0.19355763 0.08321727 -0.11202196 0.005974974 -0.16073826 0.12158194 0.121576786 0.28149775 0.12348452 -0.01572808 -0.24118714 -0.24800251 -0.14995427 -0.098483875 -0.04110218 -0.0037799417 0.21650285
906 -0.111019425 -0.1024164 0.24392189 -0.031135263 0.024679922 -0.25243285 0.08735744 0.12353752 -0.026482398 -0.16131656 0.20672949 -0.15162826 0.06150217 -0.10571647 -0.21633968 0.12274124 -0.16017191 0.009688316 0.2615578 0.37316608 0.19425094 0.08267506 0.13744456 -0.041987773 -0.087278776 0.32098246 -0.20544364 0.05063311 0.21329713 -0.17923018 0.010958583 0.06995808 -0.13773172 -0.18762095 -0.12754165 0.25719506 0.20366167 0.11039609 0.26295024 -0.02372493 0.37197053 0.32767338 0.03714708 -0.13009252 0.040621225 -0.2649969 0.02095758 -0.1323706 -0.048932686 -0.14730722 0.17038193 -0.11563876 0.18242697 -0.012467231 0.032162383 0.20395918 0.03803402 0.01605791 -0.34483072 0.11968502 -0.107619435 -0.30188367 -0.005464698 -0.07688914
779 -0.00081406935 -0.047912486 0.39323547 0.19968207 0.11287566 -0.3113792 -0.04080052 -0.1553552 -0.18367007 -0.062478155 0.02987222 -0.06705045 0.08296913 -0.11853048 -0.25183812 0.18666326 0.022500379 0.24332365 0.030942699 0.3192795 0.25087684 0.0028863112 0.06490112 -0.1924616 -0.23285273 0.42903805 -0.2117526 -0.34938717 -0.23167893 -0.32925513 -0.09597902 0.12319129 -0.05541814 -0.22708207 0.1878944 0.043048475 0.20465586 0.18728602 0.008477486 0.12276365 0.1412318 0.07972172 -0.0023948315 -0.051213887 0.27504453 -0.13542983 0.023766547 -0.41079295 -0.10601331 0.09276636 -0.054735214 0.0223936 0.0027610604 -0.057457842 0.3096316 0.16256762 -0.1899124 -0.06680831 -0.11594387 0.006848719 0.12502936 -0.10303402 -0.042341076 0.0028375254
598 -0.0014997013 -0.11181265 0.319896 -0.04402383 0.048983544 -0.201793 0.14927442 0.02135534 -0.047249034 -0.10786787 0.10244263 -0.16598639 0.11847289 -0.112816684 -0.12937549 0.14231652 -0.046496835 0.070873156 0.050621577 0.25886992 0.20485896 0.19543293 0.12896222 -0.11551612 -0.15616634 0.4480706 -0.22931036 -0.026696632 0.027871119 -0.39153314 -0.17325586 0.15778176 -0.15855339 -0.29378074 0.09748934 0.13100736 0.15475446 0.11440736 0.17345786 0.016831132 0.23196056 0.15913391 0.15913816 -0.05642542 0.13345262 -0.06465737 -0.10750987 -0.3772863 -0.042902496 -0.107478 -0.1090858 -0.17637074 0.030985175 0.062312026 0.32832792 0.1553965 -0.08206346 -0.1757935 -0.13541447 0.03213776 0.018739203 -0.22742437 0.03762721 0.07121515
976 -0.042125646 -0.024239702 0.19052681 -0.09078143 0.11683797 -0.26283428 -0.04699815 -0.04951834 -0.16644423 -0.062043283 0.24364015 -0.15998715 0.064776935 0.01560523 -0.27911943 0.030129438 -0.1428625 -0.01505815 0.072034836 0.4442562 0.24323139 0.04955924 0.21281146 -0.27718925 0.0038576184 0.3060488 -0.20602868 0.017068181 0.08241102 -0.22844605 -0.035818335 -0.006273977 -0.16154426 -0.03731938 0.056071956 0.09157866 0.11569982 0.04672748 0.19173501 0.006617213 0.23526296 0.25504574 0.026435748 -0.21636368 0.1608022 -0.28024557 -0.063107714 -0.28265163 -0.13500264 -0.029650688 -0.065021746 -0.14932375 0.06508284 0.11098934 0.07076178 0.333238 -0.015724521 0.025748612 -0.13000056 -0.057756893 -0.19315846 -0.39111835 0.08425949 -0.030889194
67 0.23027726 -0.12882867 0.26308262 0.08622616 0.18776785 -0.3491121 -0.044452425 0.16077253 -0.09222923 0.00090901164 0.13116947 -0.37422818 0.008111762 -0.17221914 -0.3327398 0.26191515 0.14863147 0.025626581 0.0719078 0.29502797 0.19762428 -0.18050647 0.20677462 -0.0400559 -0.14047487 -0.0029548586 -0.121749416 -0.10973773 0.08825443 -0.35489658 -0.1119913 -0.040973965 -0.06699287 -0.27613097 0.049489077 0.2353549 0.30310827 -0.13565932 0.24984631 0.02462952 0.2557442 0.022090975 0.14878008 -0.18968175 -0.030443927 -0.16906148 -0.0844265 -0.27078116 -0.010863203 -0.2703875 0.075608894 -0.045144677 0.057106316 0.2530201 0.022685125 0.2370601 -0.065912195 -0.3138344 -0.29515022 0.116617054 -0.118855774 -0.119668305 -0.065560006 0.051348396
149 0.16829951 0.029784724 0.18802513 0.15310211 0.19534938 -0.12127826 -0.08266719 -0.09389984 -0.3048634 -0.117134795 0.30107388 -0.17391816 -0.049222607 -0.06736951 0.01627482 0.21280889 -0.20028254 -0.077369496 0.24915959 0.21679725 0.09031018 0.094395705 0.2144546 -0.109024554 -0.13227284 0.2865307 -0.35457668 -0.073491685 0.07723102 -0.12412498 0.18044782 0.1423354 -0.15867528 -0.18794422 -0.04013966 -0.10967887 -0.08189707 0.06994826 0.18214908 0.0791079 0.16143376 0.3692194 0.002364404 -0.43611798 -0.021688694 -0.37225989 -0.09155479 0.003578742 -0.06939115 -0.25319317 0.3206383 -0.15021157 -0.04467211 0.1837309 0.073082305 0.23318833 -0.032010384 -0.019202689 -0.32938144 -0.22579308 -0.14357625 -0.13336813 0.040427968 0.13126527
55 0.15915078 -0.12126493 0.38528678 0.16363293 0.04293412 -0.50192297 -0.0965134 -0.06068139 -0.1473121 0.114250116 0.4088088 -0.18481398 0.1490892 -0.23523766 0.022107989 -0.024785824 -0.051610295 0.03705113 -0.12230225 0.26595998 0.2934964 -0.0067276084 0.1622304 -0.05526204 -0.1656782 0.06513627 -0.27299297 -0.1564323 0.118767835 -0.13412285 -0.09595368 -0.09146371 -0.09602803 0.0390957 0.007851488 0.046634596 0.30219626 0.27209887 0.16371186 0.15929703 0.1226681 -0.011387227 -0.041782968 -0.21233113 0.11940792 -0.34846625 -0.2022666 -0.09817437 -0.015413239 -0.20991969 -0.13244656 -0.031698383 -0.03733405 0.14661014 0.27467224 0.32141793 -0.1219645 -0.0670761 -0.1756269 -0.019996347 -0.07803975 -0.18591842 0.102578826 0.07992612
31 0.05340327 -0.027223649 0.32571062 0.27201995 0.1388416 -0.13251694 -0.067964956 -0.062019303 -0.10814355 -0.07426084 0.25685427 -0.23567028 0.026628958 0.00034631422 0.017687876 0.16505517 -0.16572893 0.30663428 0.03130804 0.38904914 0.19851722 -0.007911246 0.04223528 0.16792731 -0.11199059 0.13184628 -0.37350726 -0.30163226 0.0034642504 -0.23921785 0.059023425 0.15483385 0.12978013 -0.31366572 -0.04630465 0.1802906 0.21612108 0.06478137 0.14956668 0.054103326 0.15184456 0.2223536 -0.0056794416 -0.18217352 0.061291426 -0.16326645 -0.0019022408 -0.1000105 -0.08967746 0.06718365 0.21440685 0.10940751 0.16629319 0.024953658 0.18346627 0.23628545 -0.252749 0.07090072 -0.35035828 -0.10685888 -0.26718014 -0.18279926 0.10294351 -0.07103485
248 0.103358775 -0.29352218 0.45515695 0.019395478 0.08690664 -0.3051695 -0.12440681 0.072130166 -0.1739381 -0.060048945 0.06301959 -0.146814 0.02043175 -0.17961784 -0.17492302 0.17475434 -0.08963896 0.17404567 0.1620897 0.44778648 0.34351817 0.023843775 0.26198566 0.05238464 -0.03412042 0.11853347 -0.2894348 -0.22371216 -0.107436284 -0.22243847 0.13142715 -0.048614077 0.042821098 -0.050407376 0.1258642 0.20727338 0.2419563 -0.028295802 0.13989541 0.14839879 0.24376455 0.2967837 -0.0011079053 -0.16111594 0.17409007 -0.31282136 0.09872541 -0.04882825 -0.092413254 -0.14855695 -0.0061772675 0.048338413 0.13617042 -0.08027035 0.02930038 0.24878716 -0.25400415 -0.00051983004 -0.1202625 -0.025044687 -0.123793975 -0.1794434 0.27274412 -0.08876745
557 -0.04632544 -0.11136056 0.32004467 0.016365448 0.070661135 -0.5476492 0.05960011 -0.03699816 -0.13929045 -0.08738062 0.09233513 -0.11523051 0.055235475 -0.15930499 -0.31562325 0.11878999 -0.0849561 0.16966961 0.12578706 0.2849201 0.2643226 -0.101341605 0.12238302 -0.28517526 -0.10929008 0.103614666 -0.25329837 -0.13747332 0.01099191 -0.30788776 0.0613342 0.21467105 -0.14069845 -0.07612893 0.0034933703 0.15136541 0.11787088 0.08972486 0.12961017 -0.006238257 0.3643331 0.22909814 0.1677081 -0.028082332 0.16891049 -0.17457142 -0.17805149 -0.34719834 -0.14664587 -0.14183567 -0.073101275 -0.05987535 0.18505123 0.16404752 0.016839346 0.16766012 -0.043557078 -0.09105328 -0.070822194 -0.05236338 0.106450714 -0.29519156 -0.07619593 -0.030399084
189 0.0058015366 -0.19091763 0.40092438 0.14281921 0.0035711962 -0.08242388 -0.05085921 0.067468055 0.00488505 0.011547768 0.2838791 -0.20823248 -0.006977383 -0.14654824 0.026247246 0.21373138 -0.046651576 0.15809779 -0.12945135 0.42078876 0.27899182 -0.04307481 0.009529466 0.11369488 -0.02137553 0.034102928 -0.4045639 -0.060106926 0.06389955 -0.3587031 -0.15395534 -0.10827722 0.017367797 -0.21523269 -0.14083561 0.36236465 0.3494152 -0.018864285 0.22570308 0.13659686 0.12784927 0.23660436 0.0718625 -0.14013095 0.17406343 -0.17842858 0.044939406 -0.06504205 0.030306183 -0.14157884 0.081999466 0.10038065 0.18131784 0.04259313 0.088691086 0.20063783 -0.057852168 -0.111566074 -0.35155028 0.13872537 -0.14685369 -0.17717955 0.25205213 -0.07728755
347 0.13139454 -0.1251041 0.40826344 -0.081313334 0.02994691 -0.3548825 0.012433277 -0.13702437 -0.43015274 0.036548547 0.15615018 -0.16952436 0.10772037 -0.16535608 0.007903268 0.31685665 -0.14668256 0.1571588 0.20913064 0.4240983 0.13400443 -0.028250901 0.042951632 -0.22582933 -0.25553355 0.10652173 -0.36521044 -0.070642464 -0.071211316 -0.3232563 0.028223163 0.17268345 0.03373387 -0.15762393 0.081483915 0.029902933 -0.07413913 -0.04521064 0.036643762 0.22557114 0.10754446 0.29945934 0.05098891 -0.0890421 0.331213 -0.1327962 -0.1884977 -0.11982353 -0.0059435465 -0.049729142 0.009373738 -0.08601854 0.08210647 -0.113659896 0.19897519 0.064978674 -0.22579865 0.04105357 -0.05459447 -0.25370672 -0.057959877 -0.10764415 0.17183855 0.12584671
475 0.026664153 0.087647304 0.26519948 0.16464646 0.07922431 -0.39534375 -0.020209007 -0.10819953 -0.13626917 0.053848468 0.38092506 -0.34033337 0.07065715 -0.049575422 -0.022358108 0.20608991 -0.23302868 0.065764524 0.06617932 0.20704557 0.18265942 -0.13441926 -0.15856175 -0.0041014147 -0.114416234 0.11402582 -0.28682446 -0.05840573 0.32758066 -0.24652244 -0.18137883 -0.048509616 0.063381456 -0.107044816 -0.15068106 0.045101285 0.28971615 0.18371691 0.009637281 0.0462921 0.2657565 0.07783334 -0.002804659 -0.25219104 0.19994222 -0.36238483 -0.17665116 -0.07255337 0.123373576 -0.26569128 0.2112027 0.026166126 0.10313559 -0.071166046 0.004058949 0.2641307 -0.049699347 -0.06369103 -0.4554018 0.014055649 -0.27731982 -0.116370864 -0.10608705 0.0052473852
847 0.107866764 -0.08926705 0.26632997 0.07195755 0.29219526 -0.19015309 -0.096334666 -0.15781887 -0.3118272 -0.07425555 0.35111314 -0.24238926 -0.06827266 0.057000034 -0.30346596 0.22844307 -0.0431217 -0.02087743 0.20229696 0.4555154 0.17789629 0.047890026 0.27463004 -0.26478684 -0.02272809 0.17410439 -0.17772451 -0.0032177067 0.045527615 -0.19136004 -0.094423 -0.07888024 -0.089711145 -0.07658268 0.10368234 0.03510623 0.023595257 -0.17246875 0.16300808 0.074419424 0.104701295 0.28129867 0.07745332 -0.33973834 0.0069132173 -0.2470029 0.002885081 -0.25561455 -0.17697343 -0.11827029 0.11975142 0.04484253 -0.045024835 0.11875951 -0.12113426 0.37865704 -0.048622884 0.0135932835 -0.182128 -0.05597596 -0.19167118 -0.25330156 0.04549509 -0.037869465
244 -0.01904957 -0.11154292 0.189528 0.0042091566 0.1963365 -0.2513643 -0.010619778 0.04816801 -0.3518257 -0.1748496 0.27527916 -0.09007637 -0.040333617 -0.004599155 -0.054632932 0.14181393 -0.19054674 0.017534075 0.14137326 0.43536246 0.12664615 0.0023797536 0.34182638 -0.22951393 0.09351697 0.21875545 -0.2938855 0.07820843 0.0484141 -0.2159782 0.23189089 0.021029074 -0.33014092 -0.18687019 0.05746028 0.1455168 0.049331162 -0.03632881 0.30828008 0.02763206 0.23328696 0.26394364 0.106794186 -0.2884426 0.06367989 -0.23712425 -0.053776942 -0.16261539 -0.086086206 -0.07534674 0.15512006 -0.13576382 0.1437328 0.20345294 0.02110827 0.25022846 -0.011392448 -0.08302957 -0.026956894 -0.26281756 -0.11707428 -0.27932265 0.13296613 0.12276101
827 0.18250598 -0.14144449 0.27196407 0.1495568 0.22255778 -0.44397292 -0.011143586 0.039365787 -0.19869539 -0.12319817 0.1285278 -0.28519621 -0.055311378 -0.136649 -0.29729283 0.27317843 0.057008263 -0.017889088 0.31289604 0.22264421 0.17827846 -0.07874675 0.13442664 -0.163389 -0.16429162 0.19879936 -0.049037583 -0.15014654 0.13699041 -0.25873715 -0.16195232 0.042394396 -0.18655066 -0.20885071 0.14931399 0.12822472 0.17441843 -0.07846219 0.073266365 -0.12181831 0.32804772 0.18751916 0.05336027 -0.21851042 -0.087318115 -0.24872904 -0.10546167 -0.36294863 -0.03368104 -0.24363211 0.2092847 -0.10789839 0.14782412 0.061870974 0.07561429 0.020292593 -0.0728605 -0.045547213 -0.2712108 0.05019831 -0.06818167 -0.22908212 -0.02632977 -0.0015158571
620 0.10724194 -0.1702022 0.2587799 0.20218143 0.21453242 -0.316002 0.025241304 0.0029840847 -0.11606018 -0.15755987 0.08484942 -0.1597155 -0.021042727 -0.19909152 0.0011031599 0.14253494 0.18307123 0.22347736 -0.06948071 0.35226136 0.21253444 0.027592374 0.13944745 -0.0743813 -0.03707494 0.14513433 -0.277815 -0.24738112 -0.025789175 -0.350801 -0.040260404 0.08252184 -0.23473924 -0.32363924 0.11594829 0.28336707 0.31712726 0.082086876 0.25207773 -0.0978541 0.106859416 0.18296556 0.15945509 -0.21739367 0.015193035 -0.014180367 -0.16686352 -0.19223535 -0.058027912 -0.20507799 -0.09003101 -0.17783713 0.26844478 0.13735412 0.29928762 0.091340736 -0.1974112 -0.10891322 -0.11791859 -0.09214674 -0.10678426 -0.22900459 0.102436475 -0.0915269
167 0.21501587 -0.065376386 0.34009627 -0.0781828 0.048250217 -0.2799495 -0.16974032 -0.036453802 -0.1290087 -0.0018668235 0.21597458 -0.046941876 -0.00017944971 0.00039422096 -0.16672814 0.13979442 0.047156826 -0.08738559 0.12296569 0.28225785 0.27299345 -0.13385566 0.39808998 -0.1887072 -0.04103099 0.194314 -0.20157035 -0.07234394 0.089409776 -0.28542095 -0.029508317 0.07147275 -0.064857915 -0.1376648 0.21765018 -0.0138325095 0.033757426 0.029210651 0.20119421 0.06420804 0.20192641 0.2888602 0.05541624 -0.24097408 -0.0062639345 -0.29919353 -0.013803669 -0.44597116 -0.24032544 -0.15940025 0.059009917 -0.07233895 0.004183944 0.37609893 0.20075406 0.231505 -0.026291605 -0.0098247705 -0.06231345 -0.13610722 -0.15301338 -0.33705375 0.14265369 0.14406413
558 -0.08919984 0.029766895 0.058129597 0.09001746 0.023323342 -0.41971654 -0.03539111 -0.11074602 -0.19290996 -0.1753615 0.25035515 -0.07118151 -0.013419242 0.0026133622 -0.10131548 0.23528261 -0.21504836 0.16863444 0.06703278 0.42897943 0.18471947 -0.05205273 -0.01737671 -0.044109564 -0.067225054 0.28835085 -0.29959035 -0.20589685 0.27895957 -0.2794624 0.07162584 0.12682484 -0.009404359 -0.18423174 -0.1100142 0.08286503 0.23421738 0.06936758 0.07849398 -0.058119886 0.23664828 0.061817076 0.09355215 -0.17890611 0.17762189 -0.17668319 -0.058893975 -0.16425784 -0.016950322 -0.04764576 0.28835025 -0.17466564 0.24566446 0.030055424 0.11014097 0.2898415 -0.0122673 0.07137356 -0.42433968 -0.07094629 -0.18697149 -0.22024494 -0.12580082 0.007621644
953 0.26101264 -0.2311321 0.4175594 0.07145678 0.0137198055 -0.16933763 -0.01233657 -0.05944278 -0.26246762 0.08486108 0.190039 -0.14945012 0.100079596 -0.16235568 -0.049518183 0.35146627 -0.061203618 -0.045443248 0.013715708 0.440621 -0.09790396 0.032933116 0.118266 -0.26207846 -0.34641314 -0.020152457 -0.28690252 -0.022051338 -0.08003212 -0.22488257 -0.081873894 -0.015956892 -0.17595583 -0.14359033 0.12441438 -0.08992504 0.031485107 -0.007885069 0.025265882 0.29865858 0.031332947 0.35843927 0.044816613 -0.17650712 0.30946508 -0.4447455 -0.17808594 -0.017866064 0.016358703 -0.111331426 0.0460127 -0.04479612 -0.08964084 0.008063911 0.0094694495 0.15176436 -0.13294634 -0.08504287 -0.21459426 -0.09530032 -0.10984535 0.022404125 0.2261416 0.16393426
840 0.17899175 -0.089197464 0.19326976 0.22757399 0.013107686 -0.26505938 -0.15951268 -0.032659702 -0.30844194 -0.033282563 -0.011415738 -0.116638 -0.035530943 -0.14412181 -0.12140701 0.3739559 0.21426007 0.028299818 -0.06963656 0.35339466 0.1453927 -0.06208317 0.10255457 -0.14621095 -0.1544034 0.14311284 -0.24415433 -0.34481668 -0.08740459 -0.306273 0.14309557 0.117967926 -0.07523688 -0.26631287 0.05718385 -0.06296855 0.12846513 0.044240154 0.08427991 0.24097882 -0.026792796 0.16744307 0.2207328 -0.22368181 0.29527578 -0.18966348 -0.07574712 -0.06580073 -0.047770012 -0.26126462 0.104892515 -0.2083298 0.1579199 0.093417384 0.22524798 0.2465793 -0.060966343 -0.034154117 -0.3878073 -0.12369783 -0.072134614 -0.10169767 0.019816063 -0.06373399
105 -0.060285605 -0.117205605 0.29479522 0.04995836 0.06575017 -0.48331684 -0.040627345 0.024652034 -0.14963098 -0.18913162 0.20117214 -0.20897256 0.001987572 -0.09699086 -0.3496622 0.057565972 -0.23821744 0.049791068 0.25131243 0.320695 0.18076774 0.06540762 0.24831972 -0.12320274 -0.08369411 0.26981413 -0.1658939 -0.019884141 -0.048003115 -0.104853116 0.1717278 0.07554105 -0.2320426 -0.1182863 0.049090147 0.12172665 0.08142268 0.09124678 0.17327961 0.1508295 0.35600907 0.12439503 0.08748705 -0.03777485 0.039877575 -0.3384228 -0.10106738 -0.24836025 -0.097994916 -0.21181731 0.09393096 0.088177495 0.121091545 0.0757563 -0.043418616 0.30154324 0.08489084 -0.10770767 -0.077804215 0.06309143 -0.08917053 -0.301238 -0.051119592 0.011629573
888 0.028366849 -0.14931342 0.3449657 0.0831306 0.19314091 -0.341193 0.12725434 -0.13072821 -0.32459056 -0.001318904 0.2957412 -0.12576295 0.12032159 -0.04733415 -0.09610642 0.21728908 -0.23738277 0.20373237 0.07640666 0.40591884 0.1015322 -0.019419933 0.18069528 -0.13517337 -0.1075841 0.070099436 -0.23639262 0.036894772 0.029026056 -0.23249651 -0.03765735 0.12871157 -0.23666413 -0.2018373 0.07532968 0.029230144 0.15505603 -0.0796076 0.27797425 0.1084409 0.15114883 0.27535665 0.071320966 -0.16028139 0.2637099 -0.18684757 -0.08717992 -0.24797097 -0.060428098 0.12849161 0.053356726 -0.104275525 -0.02646266 0.15621653 -0.002186611 0.06267105 -0.17507468 -0.19138402 -0.030677054 -0.27345398 0.054734685 -0.0596377 0.059101686 0.33233824
255 -0.048783697 0.012073344 0.35151288 0.15201351 0.14006151 -0.27616027 -0.18865809 -0.07963246 -0.27750292 -0.012298763 0.41819453 -0.21988373 0.09523071 -0.0954215 -0.18156844 0.05464143 -0.16932555 0.059654787 0.16607067 0.27487826 0.20854694 0.04700376 0.31975865 -0.004714193 -0.02824884 0.31846768 -0.16402026 -0.063989796 0.06284433 -0.09030476 0.15036282 0.01085907 -0.16016662 -0.08633924 0.06534022 0.00836657 0.167348 0.08581613 0.23984565 0.20037301 0.23395768 -0.020140419 -0.02126605 -0.21697551 0.12079083 -0.31938797 0.077328406 -0.17584199 -0.034187384 -0.004407404 0.11117594 -0.0030550545 0.07215611 -0.0024085504 0.19321357 0.30596554 0.0014121319 0.06189148 -0.2670931 0.054632112 -0.19417417 -0.3282723 0.056202482 -0.03284322
291 0.05209533 -0.19399096 0.22845763 0.05801149 0.022232143 -0.49968284 0.022071231 0.047056414 -0.3464331 0.0031048178 0.114704594 -0.2673599 0.07014998 -0.15926908 -0.26037356 0.1156648 -0.27447203 -0.050786193 0.118366696 0.40096238 0.18157187 0.03140124 0.07420218 -0.27159232 -0.1603645 0.16311947 -0.2694626 -0.0059630563 -0.06502717 -0.101961404 0.003820144 0.041154757 -0.17162336 -0.025662849 -0.11173982 0.079780206 0.11347993 0.10249464 0.06279394 0.10897696 0.22793049 0.3161779 -0.0107292 -0.13694043 0.24546999 -0.42968088 -0.2557397 0.034744605 0.10837704 -0.20349526 0.03518939 -0.059009537 0.011099657 -0.14449061 -0.11071936 0.2501288 -0.06644403 -0.08371088 -0.16235872 -0.04951503 -0.06173955 -0.11084246 -0.016940596 -0.031128839
994 0.032821674 -0.07480129 0.15670158 -0.0072788927 0.16604748 -0.36539426 0.19125171 0.13175787 -0.12162612 -0.14232305 0.1742334 -0.26880798 0.12223423 -0.31680873 0.12163862 0.1416729 -0.10892639 0.25388685 -0.02771522 0.4503395 0.090666175 -0.077684835 -0.010281508 -0.12110471 -0.1655676 0.095125444 -0.46282643 -0.031873673 0.082589336 -0.3172534 0.1266694 0.15939872 -0.15781032 -0.21963114 -0.13391641 0.3217513 0.15277213 0.10663355 0.23009743 -0.07417612 0.26551202 0.19717625 0.1420323 -0.08152056 -0.06489639 -0.07373049 -0.3073589 -0.09834698 -0.04130309 -0.110568374 -0.007608292 -0.20334288 0.23582146 0.18816896 0.20578066 0.050848152 -0.13027126 -0.25152966 -0.16604535 -0.19538885 -0.123428985 -0.28011748 0.023478355 0.10607992
651 0.05033459 -0.117768474 0.59181464 0.31008342 0.02684566 -0.5489513 0.0411512 -0.17496021 -0.4115986 -0.08083878 0.24714783 -0.31419298 0.09840635 -0.27327454 -0.020256907 0.14613353 -0.20755464 0.28207242 0.19696301 0.34404075 -0.018742554 0.09854461 0.14436522 0.24700038 -0.27389744 0.111218505 -0.16863692 -0.19817331 -0.20010921 -0.010180667 0.20482868 0.17317413 -0.12999934 -0.22986408 0.020701032 -0.0838813 0.10638541 0.039670587 0.16166088 0.37983647 0.1212013 0.17705894 -0.011277359 -0.049819093 0.24522933 -0.30366227 -0.16556694 -0.0054166187 -0.062262766 -0.045000933 0.05048442 0.08754974 0.009132996 -0.031526044 0.15128942 0.07854948 -0.24159656 -0.10449222 -0.018911667 -0.1635638 -0.067460366 0.02601469 0.18845455 0.14651075
591 0.10509599 -0.20360027 0.45828232 0.05568938 -0.13385649 -0.28838497 0.025080115 -0.038925234 0.054709036 -0.027467981 0.03980775 -0.048676863 -0.06207333 -0.06267145 -0.07278253 0.11743847 -0.3052332 0.1116149 -0.02277664 0.3961072 0.0054792343 -0.054763306 0.14769801 0.05425701 -0.105670035 0.16878936 -0.39878994 -0.15083563 0.02683053 -0.21166615 0.003424976 -0.10299994 -0.019971995 0.083413035 0.028388208 0.031609174 0.3242862 0.03629989 0.16625772 0.27118832 0.099117056 0.23144935 0.058304965 -0.12265918 0.14646897 -0.4616819 0.102166824 -0.07045507 -0.124031454 -0.15688066 0.21959859 0.06525526 -0.06518774 0.13471597 0.091018096 0.23440324 -0.19373213 -0.28570828 -0.45594957 0.1451803 -0.1911047 -0.15243949 0.20773275 0.040045425
596 0.13777614 -0.043151006 0.38302228 0.17589557 0.08166548 -0.23092097 -0.16437265 0.007415601 -0.168482 -0.18917468 0.06255377 -0.3303227 -0.22339328 0.04420102 -0.1737727 0.1936857 -0.12310803 -0.0016363558 0.11325502 0.1014617 0.3558528 0.048846018 0.2454212 0.15683632 0.12119147 0.5443462 -0.15681748 -0.16006556 0.061958387 -0.20880964 0.07309782 0.15846223 0.01635194 -0.21371056 0.14055878 0.12978584 0.18728161 0.1597699 0.091915734 0.030331008 0.2105491 0.07485419 0.16383418 -0.15870385 -0.012472118 -0.19202988 0.094868034 -0.28695792 -0.21273993 -0.24824789 0.19102651 0.0010833709 0.086494476 0.21988083 0.26712567 0.47520825 -0.11146395 -0.15296064 -0.40513253 0.034683507 -0.009875215 -0.2689998 -0.029964129 0.051333036
505 0.13767621 -0.06239788 0.20798172 -0.077785976 0.095688574 -0.1892908 0.027989192 0.06884161 0.046140637 0.02921901 0.05706884 -0.38459885 0.13378571 -0.15146783 -0.31515238 0.18272038 0.005826258 -0.07423778 0.06456278 0.36686867 0.19587104 -0.016132785 -0.030862682 -0.22781068 -0.35299724 0.3708315 -0.2353526 -0.04602449 0.10226378 -0.40375847 -0.31593558 0.052327957 -0.11069762 -0.18175095 0.087180756 0.1725388 0.08192492 0.10053151 0.054756183 0.042940184 0.18182714 0.030610232 0.15416655 -0.1180184 0.08653818 -0.19134936 -0.22657788 -0.17419134 0.08184644 -0.25181708 -0.039583594 -0.14227083 -0.0035234364 -0.12274602 0.2620426 0.24459027 -0.06400527 -0.067577615 -0.38901034 0.22010809 -0.22410402 -0.22067997 -0.05416637 -0.12700269
908 0.3040689 -0.055739332 0.17086264 0.29397148 0.30290368 -0.10434137 -0.25604963 -0.015755855 -0.13874856 -0.05519477 0.05998861 -0.31640074 -0.13480152 -0.03171986 -0.22414055 0.20633738 -0.043590777 0.13389882 0.080561325 0.30711138 0.36632824 0.0016889304 0.19487962 0.20941728 -0.088493615 0.22786875 -0.20795904 -0.49443397 -0.086898275 -0.20293705 0.033289425 0.14909987 0.12938906 -0.23325124 0.05748316 0.061066173 0.31573102 -0.020825129 0.21831778 0.0898355 0.0483832 0.18062028 0.13450152 -0.35640454 -0.11669824 -0.15361997 0.1622637 -0.13606572 -0.13336448 -0.17453748 0.17957678 -0.102534704 0.0053767515 0.15582742 0.120915726 0.36133474 -0.11174909 -0.15992153 -0.5321704 -0.1564377 -0.19029723 -0.18486072 -0.03364748 -0.087433495
585 -0.13871107 0.02978922 0.47728762 0.08961204 0.07974005 -0.38497323 -0.08419887 -0.21670838 -0.23742276 -0.026675781 0.29418018 -0.122906365 -0.03027265 0.011579295 -0.16796933 0.18634552 -0.10986508 0.31643027 0.09788431 0.31216767 0.16202258 -0.17169558 0.20691435 -0.063892804 0.1286763 0.15604411 -0.2369408 -0.043424204 0.1529246 -0.2192471 0.0939851 0.078965604 -0.075255565 -0.09573964 0.1295494 -0.004971934 0.2028941 -0.039489053 0.20459466 0.07562339 0.21752527 0.13139932 0.030914556 -0.19470379 0.39622295 -0.21549167 0.097646914 -0.28259054 -0.17565434 0.07344673 0.15327007 0.04800015 0.21251269 0.14532994 0.057814956 0.21686664 -0.09186658 0.017457275 -0.15919824 -0.06895277 -0.16894566 -0.27805275 0.13693705 0.051886927
912 0.16833667 -0.10225394 0.15581906 0.09766463 0.071464814 -0.33710882 0.058772627 -0.008508447 0.017121552 -0.09186547 0.25851738 0.10042707 0.03704583 -0.09364793 -0.026477247 0.10975473 0.14671732 0.023897598 -0.038625587 0.3109693 -0.04406944 -0.052455023 0.2090495 -0.2812911 -0.20859301 -0.043248657 -0.4278624 -0.29286376 0.11533961 -0.4639508 0.008997683 -0.11757277 -0.10419812 -0.051979844 0.06847288 0.110025965 0.29673657 0.04695359 0.2563006 0.14022645 0.025272336 0.26925448 0.207714 -0.27005926 -0.06211543 -0.15750362 -0.19007021 -0.17021298 -0.1443022 -0.21164972 -0.017403197 -0.14157291 0.015782168 0.31392825 0.21238506 0.33596298 -0.11685506 -0.28043514 -0.31280473 0.04544536 -0.114054054 -0.11100205 0.07714768 -0.0035710416
289 0.0901205 -0.10077336 0.19991876 0.07072912 0.30496585 -0.1778509 -0.05780877 -0.08137168 -0.20523395 -0.10420636 0.32854664 -0.10759275 0.11345462 -0.063492954 -0.29144627 0.14182082 -0.06612845 -0.035601042 0.19040014 0.4404552 0.20188603 0.17265825 0.2631826 -0.2435066 -0.21567042 0.2554175 -0.15204585 -0.053442124 0.037498403 -0.24895528 -0.11124547 0.02231223 -0.18977998 -0.18123889 0.10128414 0.07766178 0.013374788 -0.021462157 0.16190675 0.037928384 0.20547873 0.2594067 0.05023944 -0.30217353 -0.024633164 -0.17500405 -0.048563294 -0.2095717 -0.08200874 -0.09830296 0.027804235 -0.16505356 -0.110598214 0.11031611 0.091931365 0.20348296 -0.079282664 0.08518911 -0.19037805 -0.04400735 -0.10671977 -0.24372411 -0.1377254 -0.05093988
622 -0.0126423715 -0.10216235 0.35101116 0.07096476 -0.008277205 -0.3274763 -0.11843576 0.07103742 -0.1295673 -0.0748259 0.07343687 -0.0054405923 0.01717145 -0.12827438 -0.18385962 0.21894139 -0.12797545 0.13690072 -0.009219591 0.36752653 0.2866283 -0.16060382 0.17471445 -0.3014674 -0.13772401 0.15186293 -0.2959761 -0.31113854 -0.15947515 -0.27570677 0.20296696 0.034901533 -0.01198679 -0.14227824 0.033700507 0.15720874 0.23252296 0.20340349 0.042784754 0.17125747 0.29039523 0.14735061 0.010759194 -0.080003075 0.36388108 -0.23113777 0.047572467 -0.34502986 -0.13656592 0.014338215 -0.020899225 0.042709798 0.17444721 0.13783431 0.06024531 0.22317752 -0.02808075 -0.11467785 -0.09761279 -0.17161877 0.067088835 -0.21419536 0.11876284 0.04719787
92 0.060133938 -0.0059931856 0.22496347 0.103358686 0.18954872 -0.13312073 0.03357824 -0.17584497 -0.2121242 -0.20962828 0.37803373 -0.29398572 -0.06674406 0.023570595 0.045125846 0.16683826 -0.22228462 0.07869106 0.12469224 0.27906975 0.22306325 0.3199762 0.020726018 0.0042897025 -0.10077948 0.43649277 -0.29169095 -0.12806383 0.060879625 -0.25902697 -0.043524824 0.07993548 0.02624438 -0.17616512 0.052486807 0.1658542 0.15657435 0.18991955 0.07579363 -0.022014199 0.13062672 0.18490694 0.14735414 -0.20066139 0.058853086 -0.1136235 -0.050242756 -0.22957096 -0.14813484 -0.021642143 -0.004404294 -0.054867666 0.122463994 -0.031764705 0.22695993 0.35953194 -0.05077494 -0.039386306 -0.29402137 -0.055559367 -0.17394508 -0.25315112 0.064398326 -0.03411058
129 0.15551454 -0.07329212 0.17806579 -0.06760597 0.005674589 -0.37803707 -0.00024048939 -0.11852442 -0.23241101 0.011245118 0.21516132 -0.08045649 0.12340711 0.08135164 -0.27878675 0.0782068 -0.05703593 -0.12119622 -0.07102471 0.4745808 -0.0051855263 -0.04448759 0.03391809 -0.35174194 -0.18292756 0.13253292 -0.28508618 -0.07370313 0.07593981 -0.28100273 -0.14910325 -0.07405439 -0.10963648 -0.0642035 0.1343238 -0.04136478 0.1484542 0.043491427 0.04644941 0.16349699 -0.03411779 0.24552856 0.06668425 -0.19414118 0.24041359 -0.3800731 -0.28557473 -0.15756406 0.012867643 0.010907879 -0.0456385 -0.018411612 -0.13303478 -0.013575628 0.14714457 0.47996786 -0.0965607 0.006160558 -0.23969737 0.011727534 -0.21328536 -0.19453363 0.04003428 0.03744915
365 -0.023993677 0.026742907 0.23449793 -0.047789883 -0.01932483 -0.27319548 0.019940084 0.031238968 -0.20048264 -0.08004366 0.28483146 -0.08132889 0.03806291 0.052191358 -0.08714882 0.12794636 -0.11528441 -0.06406809 0.087340094 0.4346546 0.17261256 -0.10020512 0.12750961 -0.11860705 -0.05218072 0.20784624 -0.20552723 0.010970469 0.16884463 -0.29812482 -0.092844315 -0.025690893 -0.046625607 -0.32251066 -0.030332036 0.15724407 0.19284779 0.067264214 0.15541247 0.06695521 0.24138075 0.33928564 -0.013689015 -0.18384336 0.16936629 -0.23235872 -0.0060942597 -0.2519388 -0.0718272 -0.061481554 0.15203111 -0.07212538 0.10701121 0.076334104 0.13036668 0.23918769 -0.029711038 0.034426667 -0.12392733 -0.14218827 -0.15493733 -0.21189097 0.15426297 0.13389276
931 -0.009081881 -0.100066565 0.27424148 0.06472042 0.035391726 -0.28965446 0.13063225 0.0752109 -0.17125739 -0.020878285 0.21653509 -0.14745675 0.072654136 -0.28000787 0.016506441 0.16693906 -0.29076105 0.09259633 -0.015827129 0.3142663 0.14005254 0.088440016 0.10179959 -0.2685755 -0.2279511 0.29028732 -0.24410932 0.17816587 0.05453316 -0.15930639 -0.11340313 0.17433892 -0.3421385 -0.22966944 -0.11586884 0.07696485 0.07722206 0.16097558 0.23428203 0.056196976 0.31608734 0.15052314 0.062254004 -0.131615 0.0835192 -0.26614258 -0.2490846 -0.22015196 -0.0066342023 -0.047007024 0.07886066 -0.17921947 0.08202764 0.20924634 0.06863591 0.0077038007 0.079722166 -0.3185575 -0.122319154 -0.07044906 0.1204606 -0.21691985 -0.064763844 0.24023913
366 0.09363585 -0.12078772 0.22965232 -0.06860245 0.23873474 -0.20066203 0.0151553145 -0.063982986 -0.29934427 0.03750362 0.30679122 0.045404244 0.041691657 -0.0027647072 -0.03886407 0.28931153 -0.2179203 0.1368353 0.1913486 0.2995241 0.24491699 -0.05196039 0.25811523 -0.2677809 -0.14195405 0.1306561 -0.42087987 -0.022514695 0.074537285 -0.35903335 -0.053100374 0.042010754 -0.07196766 -0.12449912 0.045312285 0.108569436 0.11464563 -0.120283045 0.24642271 0.0035255891 0.14218749 0.37771264 0.10993191 -0.29173556 0.029856678 -0.08804031 -0.07958045 -0.29456618 -0.042952724 -0.07598848 0.119367264 -0.17784281 0.090530545 0.11924059 0.044865385 0.14130908 -0.116249785 -0.12519725 -0.14595973 -0.22866176 0.028124511 -0.13739046 -0.07171052 0.17768604
571 -0.027482932 -0.011738422 0.33357787 -0.0066267354 -0.02638263 -0.46614677 0.022894926 0.004797252 -0.0481616 -0.07755738 0.271635 -0.12934339 0.099796146 -0.14505659 -0.2753709 0.09735775 -0.055979624 -0.02066087 0.32233533 0.16400737 -0.006585611 -0.012861038 0.14020647 -0.027431065 -0.26336092 0.22376618 -0.12775941 -0.1102944 0.274745 -0.1435124 0.015882855 0.0060390704 -0.02375885 -0.020182783 0.004783367 -0.032256737 0.19229661 0.024598436 0.23813906 0.116509184 0.3210146 0.22908421 0.022652002 -0.21069834 0.076858185 -0.40909895 -0.07998385 -0.21413417 -0.021924527 -0.20838977 0.21948345 -0.10021299 0.021309763 0.029896595 0.15804783 0.19453509 -0.027909946 -0.030548785 -0.40508005 0.25301778 -0.15972112 -0.28410798 -0.009172648 -0.14540274
491 -0.1822613 -0.1545995 0.27732775 0.21848567 0.21012254 -0.35621968 -0.07035767 -0.11963046 -0.3526953 -0.05666488 0.35099882 0.09723001 0.061109584 -0.051588137 -0.24014074 0.2668995 -0.046739094 0.2918133 0.21202004 0.40914246 0.19158535 -0.0073005217 0.23713201 -0.18907923 -0.17054522 0.13122782 -0.3397003 -0.17513517 -0.083063 -0.37538016 0.05794279 -0.050966818 -0.17441694 -0.1850925 0.05437993 0.12426163 0.27551565 -0.10463646 0.17214435 0.1333659 0.22295041 0.15784661 -0.00021180497 -0.23454204 0.27732557 -0.16601256 0.01715139 -0.15220326 0.11150465 -0.07096213 0.16829783 0.08197769 0.16045055 -0.15283144 -0.058388863 0.16288824 -0.048582092 0.08536366 -0.015791744 0.021894783 -0.051191516 0.02334694 -0.07436532 -0.04857458
485 0.012213412 -0.043872677 0.36716664 -0.04264345 0.075668365 -0.2249327 -0.041871104 -0.05153553 -0.17857876 -0.21835244 0.3106881 -0.2706577 0.019175507 -0.060893327 -0.103823625 0.13451841 -0.12730539 0.037424505 0.37163913 0.3454222 0.22048159 0.15077814 0.114043236 0.15046653 -0.17219476 0.42391422 -0.2499336 -0.040075004 0.15516719 -0.26175794 0.0007259002 0.045414675 0.038701996 -0.19463624 0.021865364 0.14241633 0.030550677 0.0695 0.07135758 0.036524545 0.34167233 0.1980302 0.018054329 -0.12959202 0.05624641 -0.22403643 0.004625922 -0.14401136 -0.115956664 -0.22637793 0.1892006 -0.08801504 0.07902404 -0.099300444 0.28095385 0.24916452 -0.1069344 0.19514732 -0.21064094 -0.027263926 -0.20601353 -0.21117836 0.13448907 0.0009926254
242 -0.062234838 -0.14710283 0.3828909 0.2885135 0.10897623 -0.3288309 0.09249406 -0.13497394 -0.34930328 -0.117960446 0.19007747 -0.31063983 -0.021248812 0.018131167 -0.23651472 0.22111641 -0.03169657 0.1276525 0.106860064 0.3786913 0.16889118 0.11584169 0.015918769 -0.072161235 -0.052929156 0.09501009 -0.16053167 -0.096738026 -0.14581804 -0.24106024 -0.07595668 0.048764832 -0.10147011 -0.34075543 -0.050474983 0.15774915 0.16314226 -0.03284459 0.08839355 0.031224228 0.17043754 0.40164718 0.0636212 -0.10684695 0.3118346 -0.22106206 -0.1252083 -0.16127294 -0.017810725 -0.107685715 0.07342688 0.16969281 0.06078124 -0.045822605 -0.036536783 0.16980557 -0.14657569 0.11361378 -0.059407517 -0.06512009 -0.11069983 -0.09801423 0.12566133 -0.04635288
647 0.031036342 0.008491288 0.31201014 0.17268996 0.036468767 -0.41385978 0.097837314 -0.201144 -0.29208335 0.08824327 0.12097292 -0.29911768 0.12198957 -0.06436216 -0.06659522 0.23393257 0.06778087 0.1870663 -0.03340564 0.3893705 -0.0861962 -0.116453744 -0.18008265 -0.050274152 -0.15479524 0.36895043 -0.22842938 -0.07156454 0.056044992 -0.23361795 -0.1512113 -0.05140897 -0.16611356 -0.22554667 0.18873823 -0.111714914 0.28173888 0.08078874 0.0082058245 0.24376367 -0.0706792 -0.12006321 0.021658057 -0.14390041 0.30310705 -0.36442783 -0.26464796 -0.1696036 0.13885291 0.057216953 0.13142768 0.1065268 0.068489425 -0.23416494 0.40441534 0.27026996 -0.16368209 -0.0754873 -0.37047976 0.13579896 -0.29163507 -0.077419564 0.09574953 0.15071732
380 0.15405607 -0.1266392 0.5167786 0.087330125 0.11880356 -0.27490073 -0.04977575 0.099869646 -0.17103347 0.099611804 0.32376203 -0.19301106 0.11426174 -0.3399426 0.05316851 0.144938 -0.20727712 0.19883691 0.058318548 0.2608605 0.13786674 -0.03521627 0.29382083 0.08357731 -0.30382776 0.079190135 -0.2118578 -0.0036700175 -0.03022174 -0.13489802 -0.048676282 0.15468895 -0.13181134 -0.25834978 -0.047751363 0.06353434 0.21386462 -0.06378948 0.38372055 0.31151715 0.17165788 0.31802937 -0.00299046 -0.17387396 0.038949877 -0.16938071 -0.06837821 -0.110501915 -0.043209087 -0.0946333 0.023796493 -0.12964526 0.0034902382 0.22337255 0.09578577 -0.056648817 -0.07593236 -0.30382666 -0.10215017 -0.07444936 0.086884245 -0.08359347 0.08495751 0.20610717
78 -0.100073546 -0.028094452 0.26022992 0.25025374 0.047328796 -0.1883479 -0.15330689 -0.08445861 -0.18982911 -0.15904956 0.3146745 0.016361691 0.045622643 -0.11592462 0.022005772 0.14488219 -0.16791779 0.113775484 0.05579319 0.37176922 0.15649456 0.027625443 0.2883182 -0.12862043 -0.08655221 0.30739298 -0.29523695 -0.107528806 0.040348556 -0.14693218 0.22746725 0.092518784 -0.30361688 -0.28255507 -0.0055989027 -0.0019764358 0.06588322 0.15501074 0.20187175 0.17289793 0.2949636 0.05770666 -0.0655463 -0.28972262 0.2044786 -0.3382839 0.09718943 -0.054349266 0.00060242566 -0.072827116 0.25026733 -0.04279077 0.07673605 0.14512575 0.20128845 0.1326692 0.10386584 0.11679616 -0.23040593 -0.066216744 -0.17418912 -0.2274224 0.07402994 0.057591453
409 0.091821216 -0.16440721 0.51269627 0.11801745 0.20406264 -0.26697618 -0.011930461 0.023634655 -0.28091684 0.04575338 0.4287668 -0.27780882 0.041552994 -0.117208935 -0.027647693 0.2259157 -0.34315553 0.20137541 0.08030607 0.2864998 0.21676072 0.024769222 0.19200243 -0.096961774 -0.08121213 0.19402906 -0.22922207 0.15952732 0.027724246 -0.12131712 -0.04747774 0.03577887 -0.12195041 -0.15064907 -0.04633521 0.12932613 0.13482878 -0.06687116 0.17369923 0.047100425 0.1846504 0.24403045 -0.064217225 -0.14638448 0.08492935 -0.23106608 -0.079408914 -0.30910194 -0.069209285 0.16183256 0.04732533 0.031546246 0.054975316 0.16681059 -0.041455287 0.1309148 -0.06799086 -0.21343662 -0.14445654 -0.08918313 0.079623386 -0.1888474 0.03689101 0.21555842
667 0.071971305 -0.09946897 0.2930659 -0.034116216 0.16998348 -0.09594273 -0.0068698036 0.030816572 -0.08353609 -0.10465891 0.11520542 -0.36843425 0.10840833 -0.13112716 -0.28079113 0.12571782 0.057704985 0.04508947 -0.012062563 0.45667222 0.17709282 0.27492222 0.126207 -0.0032289317 -0.19722418 0.5101334 -0.019830983 -0.076605506 -0.09799487 -0.23950632 -0.21258141 -0.026830852 -0.07711863 -0.29126573 0.19234842 0.039398283 0.19784968 0.09661138 0.16321392 0.13180245 0.18791765 0.08919107 0.049544007 -0.14030938 0.23023272 -0.2742524 0.0015164872 -0.3018008 -0.13880809 -0.011056623 -0.17648163 -0.17509636 -0.025420863 -0.05411109 0.22873385 0.33016247 -0.07083219 -0.24782488 -0.09578558 0.094708614 -0.12517756 -0.17047998 0.10441943 0.001185495
838 0.058908023 0.07886001 0.19445978 0.30887073 0.20321631 -0.18023212 0.035580672 -0.37223232 -0.12186096 0.010170289 0.35647818 -0.16050638 0.06010523 -0.024712754 -0.081818454 0.30742228 -0.042055298 0.25959426 0.1613445 0.4336745 0.09827591 -0.07067862 -0.1002033 -0.10116564 -0.3871938 0.11413774 -0.34966648 -0.30054173 0.0059810337 -0.4420697 -0.25423574 0.12165454 0.071195655 -0.29736197 0.02998787 0.01543182 0.07194788 -0.020361036 0.057232592 0.11470544 0.052448515 0.09393646 0.046386488 -0.30466905 0.029303556 -0.03045676 -0.14656664 -0.31615806 -0.02974504 0.009620479 0.2036737 0.06297248 0.08279708 -0.009049921 0.2723868 -0.01312622 -0.1487268 0.03347688 -0.3130518 -0.06605218 -0.29605088 -0.07646829 -0.00477925 0.048103023
403 0.095161915 -0.010817737 0.36462617 0.13895349 0.064355925 -0.31685287 -0.058851276 -0.08370922 -0.32527333 -0.11714516 0.5556809 -0.17575157 0.033781927 -0.06915643 -0.055955306 0.182953 0.030898338 -0.15835239 0.23223606 0.24710329 0.091380894 0.014080735 0.22316918 -0.051494014 -0.1593706 0.079161905 -0.26087123 0.111764275 0.22676699 -0.25311038 -0.054544456 -0.09387146 -0.12231395 -0.23659728 0.017584702 0.15158743 0.048725184 0.025187962 0.09354486 0.122077204 0.13997085 0.19062243 0.08760274 -0.23172043 0.023526935 -0.22325465 -0.12673916 -0.069107935 0.02699982 -0.29885995 0.21863858 0.037893564 -0.054605056 0.084789716 0.19091812 0.317403 -0.023386743 0.15911637 -0.2766289 0.020167662 -0.1574105 -0.088048704 -0.013623788 0.00789741
714 0.004772433 -0.014048506 0.22579837 -0.11638562 0.05538553 -0.23657914 0.050559144 0.16137365 -0.3218068 -0.17730519 0.32456732 -0.10806248 0.07779883 -0.009360164 0.08377168 0.19081472 -0.1637979 -0.0794151 0.15011917 0.35283482 0.13201474 -0.043519907 0.1655261 -0.23231003 -0.001393918 0.27305692 -0.3406191 0.20654832 0.20597717 -0.23902537 0.06010386 -0.08586011 -0.093967 -0.29029143 -0.09019939 0.2861625 0.110830545 0.049372718 0.16021264 0.036038972 0.20627367 0.36968845 0.013183331 -0.18002447 0.13115388 -0.20093939 -0.101018235 -0.1479156 0.013583216 -0.061428815 0.07648605 -0.085408024 0.13654685 0.07697291 0.102679335 0.3801779 -0.036470495 -0.0829104 -0.16078201 -0.12958667 -0.008732629 -0.19353329 0.0671882 0.1567622
755 -0.10504765 -0.046028055 0.1630961 0.023325803 -0.049133457 -0.40725377 0.048566278 -0.04512942 -0.40408447 -0.20050323 0.30166975 0.047477223 0.101844445 0.025566375 -0.17867775 0.19241832 0.017521368 -0.040452287 0.015052512 0.40470335 0.036168065 0.0828059 0.13387856 -0.14742126 -0.037967447 0.13617921 -0.19944894 0.053677015 0.05664467 -0.3610865 -0.0033418722 -0.035180133 -0.28438285 -0.3726878 0.050558913 0.1482705 0.30738887 0.062611565 0.10433267 0.22990368 0.16137631 0.27498174 0.1973048 -0.0779798 0.48875082 -0.19770335 -0.13573766 -0.08204493 0.056048203 -0.14002378 -0.0570526 -0.094121 0.06742945 0.04465435 -0.0076300744 0.48912287 0.07503843 0.006183399 -0.034155212 -0.09800886 0.04204322 0.08041113 0.01080501 0.19465469
221 -0.0064105694 -0.059885807 0.28998166 -0.048292004 -0.0135001 -0.4521776 -0.06947041 -0.033316944 -0.3171398 0.049285814 0.35925716 0.023823299 0.07521349 0.077258855 -0.19187297 0.10593975 -0.0854071 -0.059405133 0.17748523 0.28223827 0.25693062 -0.09823327 0.3071154 -0.086816795 -0.08269956 0.23237644 -0.22700214 -0.01040991 0.24565573 -0.29597497 -0.0029463926 -0.040878877 -0.011924297 -0.13022834 0.01617216 0.005546419 0.21438494 -0.058325037 0.1977177 0.11918632 0.21775535 0.22500187 -0.030560933 -0.21782592 0.12475397 -0.25478083 0.029116934 -0.27642846 -0.0032782464 -0.099062406 0.16280085 -0.049761806 0.07845901 0.07271857 0.20794502 0.2611321 -0.029553147 0.1487181 -0.19302009 -0.0077400836 -0.17094189 -0.23713535 0.058177438 0.13938287
