3863 64
2124 0.4889048 0.7449289 0.12226694 1.432303 -1.2143061 -0.67410207 0.28835043 -0.25674033 -0.70169455 -0.40896854 0.52460814 -0.19069752 -1.2522317 -0.30913568 -1.2398995 -0.3923001 -0.029733824 0.89680797 -0.50459397 0.027157534 1.405336 -0.1933578 1.585729 -0.15961474 -0.3132675 -0.23596625 -0.008749606 -0.13508195 -1.4586027 0.18496843 -0.7615717 0.17734998 2.018214 -1.7348437 0.5687581 -0.4752809 0.659843 -1.3945775 -0.07170264 -0.32732317 -1.3712946 1.0881197 -0.8547135 -0.48782933 0.86246485 -1.1632407 0.13465957 0.64008695 -0.67084086 0.68048865 -0.3501363 -0.489857 0.02374679 0.2718121 -0.01400726 0.30513075 1.3490673 -0.5100298 -0.78751534 1.2017608 -1.0800377 0.35672066 -0.20631035 -1.1212432
2305 0.5257981 0.8261182 0.13897592 0.87414277 -0.34836867 0.4067897 0.025365733 -0.5324216 -0.05604334 -1.3412256 0.49170977 -0.3997681 0.21441409 -0.44109774 -0.7108509 -1.2368308 -0.8990484 0.48962522 0.6085913 1.503876 -0.07111301 -0.4065941 0.6693321 -0.5010988 -1.1301411 1.2371228 -0.48708713 -0.57980007 -0.23795933 0.744574 0.86214453 0.9369342 -0.03038942 -1.2211297 0.503914 0.6004203 -0.14674883 -0.14657867 0.93759066 1.4073651 0.27066904 0.27994934 -0.114088655 -0.18606146 0.24893148 -1.3867315 1.0803562 -0.6184339 -1.141791 0.69864035 1.1903473 -0.36917055 0.8349329 1.5064454 -0.9291738 0.9450827 1.1440942 -0.88008785 0.5703858 -0.79424196 0.07745368 0.5653028 0.54200613 -0.22798386
2731 0.49422857 1.0355304 0.9834965 0.1514793 0.005453329 -0.3002557 -0.41100997 -0.21149005 0.73460186 0.28139442 0.50298375 0.6470942 -0.28963804 -1.0638752 -1.8577805 -0.48058665 -0.58538294 0.5224186 0.5860061 1.191613 0.47200987 -0.68662363 1.376249 -0.8345695 -0.66569537 0.407985 -0.39020246 0.41392773 0.3197392 1.5544918 -0.7351777 0.708394 0.44163886 -0.7758151 0.45645532 -1.3020209 0.35112646 -0.14861774 1.1290649 -0.6047537 0.18632354 1.4276164 -0.0074577075 -0.81119657 1.0678146 0.23010679 0.8169317 -1.0417849 -1.4827014 -0.095306784 1.3522906 -1.2736989 -0.07906984 0.61790967 -0.35152242 0.36567456 1.0487375 -0.31114042 -0.055148676 -0.61936206 -0.91273844 0.42583823 0.4542644 -0.042468637
581 0.30278257 -0.40466234 -0.091037706 0.83247185 0.50388527 -0.9145322 -1.1448492 -0.7531595 0.19594727 -0.37370455 -0.14870094 -0.09915465 0.21605068 -0.5091345 -0.4925413 -0.17474455 -0.62089336 0.45228237 -0.5415068 0.5552264 1.0874221 -0.4042482 1.4166809 -0.825305 -0.78148496 0.9069495 -0.8219237 -1.0715684 -1.1035985 -0.24498723 0.49297786 -0.21018165 1.7623622 -1.4753034 1.6799487 0.52447706 -0.6531796 0.31338605 0.4892053 -0.8627561 -1.1849641 0.21803424 -1.2856697 -0.7607382 0.37521535 -0.5945732 1.0468559 -0.11055608 -0.98022723 0.24992765 0.3975958 0.105302215 0.9262417 0.66361666 -0.99643254 0.7978365 0.4560868 -0.073564835 -0.47882313 -0.29352102 -0.6988518 -0.5183552 -0.038585264 -0.5217224
455 0.23124681 0.3915985 -0.85491884 0.07308963 0.21133016 -1.1682616 0.16940647 -1.017637 -0.5993055 -0.39443022 1.0485402 0.7194725 -1.5310565 -0.6314553 -0.7521109 -0.6157257 0.37582263 -0.11632504 -0.5653196 1.5838877 1.8003908 -0.9364081 0.828834 0.36149588 -1.509552 -0.91133547 -0.1399651 -0.98781526 -0.52552557 -0.15095827 -0.3648586 -0.37282163 2.0077183 -0.8536284 0.21222258 -0.06919555 0.8944955 -1.3899268 1.1973141 0.14255181 -0.5796533 0.46781272 0.54544175 -1.4718628 0.8626698 -0.21201214 0.55673575 -0.6801926 -0.23917368 -0.15599626 1.2050967 -0.1670414 0.15528923 -0.23344369 -0.23977406 0.9832645 0.8046509 -0.6911834 0.19040054 0.20079802 0.11859145 -0.21853867 0.2523507 0.45442447
2340 0.4602749 -0.04883881 0.5335634 1.1142968 -0.645875 0.452488 -0.16273266 -0.83211863 0.61997133 0.35528767 0.46130645 0.032509495 -1.1241549 -0.42697653 0.10027287 0.3112438 0.7185127 -0.47190523 -0.78956443 1.4275755 0.33744976 -0.64559 1.192254 -0.53748375 -0.5943625 -0.065339595 -0.37677157 -0.8058917 -0.5336227 0.1998571 0.16363253 0.24360543 -0.121178016 -1.7494808 0.6714661 -0.35464132 -0.0039886315 0.8683596 -0.051624566 -0.27642775 -0.4281645 0.7980754 1.3649596 -0.043109167 0.8833188 -1.4996846 0.5882899 0.5272982 -1.3460045 -0.92665625 1.0396265 -1.7700814 0.12689497 1.323796 -0.4964473 0.1276638 0.31550935 -0.16937038 -0.65001625 -0.37170747 -1.1266863 1.0053041 0.8842937 -0.09096655
2855 0.43324688 0.5760331 0.41093394 0.7896622 -0.9117303 -0.80272204 -1.0344042 -1.487345 0.17476894 -0.44061622 0.43567795 -0.084502764 0.18066344 -1.479984 -0.8666579 -0.9847631 -1.081883 0.5907645 -0.6454332 0.29483038 0.12757081 -0.5146065 0.21765515 -0.20659581 -1.3829877 0.67365706 -0.9370725 -0.068445556 -1.3554503 0.013779876 -0.26437575 -0.008035732 -0.3202965 -0.13963646 1.2621588 -0.44318828 0.45886827 -1.7464292 0.9537098 0.82423747 0.036844116 0.4491157 0.118858986 0.48621988 -0.2583973 -0.7024794 1.7765981 -0.17281595 -1.341618 -1.3110462 1.049429 -1.0573164 0.24948171 0.111881316 -0.9538943 0.29568067 0.67179704 -0.19675508 -0.9980439 0.47860578 -0.20984553 -0.49638665 1.0595987 -0.60434717
885 1.2052591 -0.43773332 0.21829809 0.8983473 0.20983006 -0.41805384 -1.3128939 -1.1922923 -0.31800234 -1.2416579 -1.0787526 -0.99989456 -0.51816577 -1.0281512 0.6313276 -0.54534376 -0.5324128 -1.2155536 0.5703435 0.8572606 0.6108929 -0.0015714904 0.8345476 -0.28147733 -0.6245722 1.3586313 0.4810442 -0.5530624 -0.40970793 -0.106170245 0.52252114 0.5334297 0.14242019 -0.6736619 1.4051666 -1.1305188 -1.0285304 -1.3145658 0.58656794 0.5756957 -1.2491276 -0.023902731 -0.11160138 -0.517311 0.9011904 -1.86157 1.2106498 0.070425205 -0.8494072 0.534837 0.3179964 -0.89318967 0.40165612 0.8717598 -0.941296 0.0010248907 0.21470365 -0.11955022 0.018441245 -0.047693845 -0.33734965 -0.311076 1.238735 0.6370348
2643 0.069245234 -0.6776792 -0.6329048 -0.3652463 -0.44200698 -0.71944016 -0.34858415 -1.4260951 -0.61149067 -0.6276851 0.5986145 0.6024733 -1.0786048 -1.318952 -0.27945948 -1.1254336 0.092123814 0.7788007 0.76775473 0.39580935 -0.3452196 -1.7406579 0.2657824 0.7659646 -0.9288672 0.5490721 -0.2007405 -0.73245597 0.4576564 0.1700692 -0.18433851 -0.35416093 1.0386866 -1.1066841 0.0851691 0.87398076 -0.0005161921 -0.7385273 0.43283686 -1.0599922 0.1703561 1.3104752 -0.8581707 -0.08573643 1.5356159 -1.7522278 0.35862893 -0.94561327 -0.32096905 0.22485383 1.3895965 -1.9244095 0.49361673 0.2506624 -0.92781526 1.3157084 0.4476049 -0.595783 -0.5541414 0.16662993 0.31713706 1.1243641 0.5892967 0.13898917
2338 -0.61391866 1.0615737 -0.110741794 0.6885153 1.0604542 -0.67395043 0.124942005 -1.7392602 0.07800877 -0.8016204 -0.686338 0.8233607 -0.99619275 -0.2795672 0.3586443 0.35994107 -0.8060526 -0.17598823 1.1306458 1.2656615 0.103063226 -1.2524929 1.0051506 -0.6263984 -0.18749353 -0.68188643 -0.6469185 -0.4505239 -0.023803733 0.26086077 0.7116422 -0.08161449 1.2611462 -0.89791566 1.2451245 -0.2882883 -0.121342696 0.1819538 -0.29223886 -0.0987927 0.29050347 0.88111395 0.099009186 -1.2343869 1.111576 -0.42466736 1.949133 0.1791349 -0.28577614 0.3101648 0.42342636 -1.043721 0.50009125 0.47813773 0.19940099 1.6318961 0.67681664 0.6933033 -1.0779945 0.28011718 -1.2478116 -0.6761245 0.0434681 -1.1216941
1108 1.2582299 -0.2342962 0.6664787 -0.15456572 -0.037463088 0.62259626 -0.647197 -2.5533948 -0.5787243 -0.48427245 0.15098874 -0.9373271 -1.4164904 -0.2805124 -1.7228608 -1.4574711 0.20323169 -1.3274727 -0.12210067 -0.36939958 0.30146584 -1.2620369 1.2119539 -0.25852153 -1.2590619 0.52533233 -0.9592045 -0.51083004 -1.0946825 0.17686029 -0.19681516 0.81678945 0.038729344 -0.063702956 1.5671638 -0.27187634 0.2849402 0.0745938 -0.65872866 0.34392673 0.1892601 0.43551305 -0.38343844 -0.5954433 1.0219171 -1.0783153 1.3096031 -0.996267 -1.31926 0.254517 0.2634858 -0.38373655 0.014754313 -0.070744276 -0.73356706 0.31902516 0.9412802 -0.572057 0.17836028 0.61564815 -0.23781867 -0.13358729 1.3707187 0.7802592
1174 -0.28360736 1.0419953 0.09723807 0.4904875 -0.96727985 -1.2611823 -0.42321804 -1.0052339 -0.052159242 -0.35089833 -0.81936693 0.007332529 -0.30151704 -0.67326975 -1.2163388 -1.0117747 -0.3192835 0.7439886 0.9610221 0.5661039 0.07285979 -0.36513877 0.10326951 0.6770469 -2.3122284 0.7440708 -0.73025906 -0.4495887 -0.7935244 -0.006221149 0.09955903 0.16251256 0.688651 -1.1215498 -0.51135415 -0.1962596 0.66748714 -0.5230789 0.5447199 0.2538286 0.028188407 0.1326277 -0.36320373 -1.5762454 1.5115894 -0.7761253 -0.06585553 -0.47514307 0.17723872 -0.6459223 0.25633535 -0.29432502 -0.5902907 0.76477975 -1.2235413 0.8697118 1.8792803 0.13278684 -1.0295175 0.7328953 -1.0711625 1.0588639 -0.6777086 -0.026936887
2039 0.06257397 -0.20200062 0.3622133 0.7591959 0.3521652 0.15856324 -0.46757546 -0.8830214 0.93816406 -0.49284205 0.1106639 -0.48284966 -1.0180097 0.038907588 -2.029425 0.44925663 -0.15499759 -0.27261204 0.20880187 1.488459 1.0751605 -0.24698988 0.64048994 -0.7432708 -1.6198806 0.6659243 -0.5836598 -0.20855957 -0.94870883 0.35929224 0.59352726 0.22385332 -0.15334974 -0.25263312 0.5564475 0.72408617 0.32099175 -0.5142543 1.163766 -0.40514913 -1.0220225 0.9588988 0.39253607 -0.68134063 1.2701745 -1.0066817 1.5461982 0.1572049 -1.0790418 -0.23651075 0.0912099 -0.8797268 -0.20772919 0.9578642 0.09717842 -0.31197688 0.94680536 0.03968355 0.07696202 -0.68046993 -0.0031407985 -0.14856915 -0.015046037 -0.79816943
1947 1.2846786 1.9087644 -0.14843741 0.3714798 0.33404702 0.628496 -0.6585361 -2.015106 -0.077651136 0.11310918 0.18288396 -0.12369639 -0.8982135 -0.44137302 -0.25494388 0.556267 -1.1947188 -0.6339179 0.68491435 1.1908218 -0.041817702 -1.3243666 1.016335 -0.4599137 -1.4563235 0.4800015 0.01885562 -1.4655503 -1.0232121 0.4888948 0.88867134 0.14142944 0.026274614 -0.64509284 0.004216601 -0.17777917 -0.6021808 -0.11545281 -0.23740642 0.19689092 0.6998848 0.99894154 -0.08619845 -1.2796319 -0.42181447 -1.3759722 -0.098738566 -0.23603104 -0.43842974 -1.003167 1.3115709 -0.7372076 0.85521007 0.47494495 -1.075572 -0.3655185 1.0439413 0.5233222 -0.718685 -0.36331084 -0.16223787 0.60290223 0.743491 0.45155424
2406 0.5877557 1.5629305 0.32215795 0.4714588 -0.6464127 -0.5982364 -0.8754425 0.08860458 -0.347171 -1.0351398 -0.22581163 0.35451177 -1.6692284 -1.4659332 -0.6150412 -0.93241835 -0.16977772 0.4798883 -0.13794668 1.2496076 1.1220268 -1.6693015 0.9042801 -0.54763097 -1.3085877 0.55849236 -0.8212396 -0.57669246 0.18824711 -0.3431684 -0.46186656 0.86528367 0.6694735 -1.0623901 1.9616687 0.4509933 0.7834119 0.6164814 -1.2354529 -0.18818597 -0.24756062 0.5231232 0.585711 -0.12339049 1.0707856 -0.14758664 0.5184018 -0.47046933 -0.8530024 0.73218226 0.20648687 -0.115099244 0.66960716 0.98412955 -0.20655316 1.0317093 0.5472308 0.6509001 0.1952651 -0.05955122 -0.36126974 0.29342666 1.1900606 -0.60009915
1871 0.26726407 1.6791259 0.5773421 -0.08945385 -0.7323837 -0.14837274 -1.1709857 -1.5448996 0.26111695 -0.5956274 0.18094313 0.12962015 -1.3783756 -1.0288754 -0.18167935 -1.3035463 -0.6384276 -0.3072101 0.81832725 0.53585917 0.9355652 -0.21493497 0.58049726 0.755144 -0.3812301 -0.6153864 -0.7870397 0.06324558 0.13290133 0.5477247 -0.42777988 0.7683465 0.80383706 -0.034454565 1.232845 -1.0225575 -0.5701484 0.20169283 0.8917923 0.6043731 0.25742713 0.5900902 0.30083737 -1.5234388 -0.09319901 -1.0887727 0.46865076 0.78566957 -1.1062866 -0.47785047 1.0360745 -1.0196127 0.7042773 -0.1078995 -0.20141906 0.7735376 0.80694264 -0.3310211 0.071472645 -1.0992013 -0.786906 -0.085111424 0.73130935 -0.62091154
1697 -0.08444525 0.46181303 -0.22283824 -0.5043568 0.5877102 0.9149317 -0.3155219 -1.3073467 0.83982867 0.0038187723 0.36344644 -0.04035508 -0.058181223 -0.6309687 -1.2852451 -0.99738187 -0.36637598 0.0077110194 -1.0246811 1.1496198 -0.28822365 -1.1184994 0.08083543 0.21358903 -1.6497304 -0.008051315 -0.7288208 -0.77786297 -0.771119 0.9417244 0.27012378 0.44299158 0.4536691 -0.62208164 0.30559862 0.057088498 -0.73112565 -0.7153044 0.04459578 -0.09813956 -0.455671 0.78231245 -1.0863314 -0.64508975 1.2206287 -1.1383835 0.8467197 0.5393794 -1.2568197 0.3960642 1.1599689 1.1132014 0.7910943 -0.12201763 -1.0116907 1.3632514 1.1150233 0.4339579 0.30031484 1.307156 -1.8147218 0.58024126 0.105249144 0.47808626
2100 0.79691565 0.7984047 -0.21660651 0.5805175 -0.5178952 0.6617002 -1.123584 -0.30111876 0.9495146 -0.35793146 0.40273523 -0.8306022 0.09052688 0.43405828 -0.3539954 0.6108996 -0.122039296 -0.0066598235 0.18753624 1.2139716 -0.0021451185 -1.3493782 0.6766285 -0.2580443 -0.8062181 -0.24105847 1.028888 -0.4778383 -1.4216915 0.2280109 -0.4708942 -0.6607314 0.76850444 -1.2384522 0.8757193 -1.3999043 -0.932498 -1.4455973 -0.13715866 0.083008856 -0.19915932 0.7318314 0.083885856 -1.235818 0.56708586 -0.49608564 0.7560444 0.17010914 -1.0367876 -0.18158004 -0.10576649 -1.8074441 -0.45897257 0.21132354 -0.9225484 1.5294584 -0.13132052 -0.29212832 0.020222645 -0.12871078 -0.9290932 1.2111493 0.61637473 -1.4505578
1361 0.9350554 0.46308255 -0.46684018 -0.1770114 -0.08639819 0.7203682 -0.86401284 -1.1045026 0.48500347 -0.108736835 -0.13862035 -0.25640622 -1.0685856 0.4688832 -0.15177205 0.998275 -0.6018989 0.4272274 -0.34110972 1.2695891 0.72269195 -0.38422742 0.52572227 0.4486427 -0.8181822 0.36747745 -0.22895029 -0.81691116 -1.0642761 0.89855593 -0.95257413 -0.18196863 1.8453245 -0.37114263 -0.7327963 -1.5646864 0.4963032 -0.19198114 1.177495 -1.0278002 -1.0001571 1.0265386 0.44300708 -1.083629 -0.44484615 -1.0860459 0.3881779 0.32843864 -1.015395 -0.5067574 1.2309794 -1.3677363 0.4363461 0.92971873 -0.02165583 1.262121 1.7062849 -0.1888699 -0.6272152 -0.6294092 -1.0698081 0.37707332 -0.5443241 -0.42558825
1695 0.20884337 1.0336312 0.20988055 -0.07293032 -0.8901327 0.33295184 -0.025400497 -0.44764018 -0.17449963 0.31122616 -0.7545814 0.56849545 -1.0528643 0.15220727 -1.1134429 -0.08541921 -0.036125857 -0.36314473 0.16981333 0.26196125 -0.80293363 -1.5977087 0.9203034 0.45251402 -1.3530942 0.36721894 -0.05903828 -0.6054268 -0.90195465 -0.5999592 1.1988022 -0.4706335 0.63048875 -0.4283723 0.89733577 -0.840792 -0.017834468 -1.5143994 0.18280129 -0.046021827 -0.3708413 0.564806 0.9587561 0.062468693 0.21442983 -1.3010336 1.552035 -0.14667608 -0.6738014 -0.11212113 1.2804073 -1.1741213 -0.73445374 0.40618783 -0.43849552 0.9920737 0.6063502 -0.872986 0.06585733 -0.54503495 -0.07249314 0.12184125 0.074058555 -0.16924325
272 0.8183511 1.283412 -0.095609754 0.51040536 -0.08047959 0.49180758 0.13382646 -1.5950698 0.3130137 0.1975746 -0.3423873 -0.015101762 -1.2753302 -0.7620891 -0.3820054 0.3414676 0.4416858 -0.1301791 0.4038358 1.7172078 -0.39492002 0.33948585 -0.031875145 -0.09640554 -1.818251 0.1440983 -1.4634675 -1.0335399 -1.2829487 0.29146546 -1.1059258 0.28287318 0.3146455 -0.8611231 1.3010601 -0.25440487 0.9405694 0.28292438 0.6666209 -0.12601167 -0.6957393 1.321247 1.0122039 -0.15846851 1.5435466 -0.39216268 -0.12926453 -0.8571284 -0.38780925 0.8841691 1.3371806 -0.4704914 0.54872966 -0.12832862 0.14327504 0.3615131 0.4268509 0.1627415 -0.6122955 -0.15237041 -0.76941 0.0107603315 0.3274758 0.0071402374
2550 -0.1466162 -0.56105113 -0.96646 0.5709441 0.53545016 -0.32292938 -0.34588507 -0.7089659 -0.79783314 -0.3632454 -0.088605374 0.52830005 -0.29773432 -0.26316872 -0.92885005 0.24761629 0.51507246 0.37216175 1.0801849 0.8365077 1.262483 -0.24147466 1.4321085 -0.112882674 -0.34881374 0.25626624 -0.4858068 -0.83860266 -1.5112982 0.75751525 0.7573989 0.9478656 1.044556 -0.3151619 0.99360275 -0.5087992 0.14634995 -0.85934806 1.3829316 0.0797174 0.07582074 0.70818883 1.2640918 0.45093092 0.5947006 -1.4605348 1.4364938 0.20530386 -0.56227946 0.68003863 0.37720677 -1.1849178 0.62537223 -0.7021658 -1.5033259 1.0835453 1.4856955 0.9104155 -0.06528562 -0.9514166 0.38368666 0.0055477316 1.0779307 -0.052013885
1110 1.4981891 -0.16026407 0.28379846 -0.51050013 -0.6416356 -0.05360509 -0.9655868 -0.82087415 0.6519358 -0.16900529 -0.5409666 -0.28283146 -0.5854353 0.028572626 -0.6223769 -0.11110531 -0.9506025 0.47815412 0.3329665 -0.1649942 1.5578567 -1.2481122 0.34613937 -0.60701716 -0.54512763 -0.5363048 -1.0211989 -1.8327243 -0.40572006 1.1381776 0.11514959 0.83639574 1.4746478 -0.44762978 1.2183176 -0.44272518 0.86723953 -0.0036879822 -0.037704986 0.13503358 -0.832793 1.0305247 0.8107759 -0.25798076 0.35341203 -1.5148196 0.6845988 -0.92286795 -0.01070776 0.41484052 0.53825414 -0.3341066 -0.3932408 -0.32262978 -0.93720007 0.972144 1.1508281 0.21864234 -0.28752455 0.14296055 -0.6621926 -0.081184216 -0.12256318 -0.917222
406 0.67745113 0.52708906 -0.31390995 -0.08422716 0.9121702 0.02964342 0.049448393 -0.6913209 0.23732314 -0.029164044 0.43698943 -0.5102257 -0.2913983 -0.3051666 -0.08818092 -0.2183948 -0.8221789 -0.6241104 0.74735636 0.8486145 0.6867866 -0.83269054 0.9575262 -0.5918094 -1.5112668 0.9940303 -0.70726013 0.40151635 -1.4985998 0.6115097 -0.05447069 1.1431649 0.30093136 -1.0327771 -0.24690719 0.3430346 -0.42386305 -0.04367416 -0.4563707 -1.1453106 -0.54942244 1.053314 -0.37898648 -0.77071834 -0.07920371 -0.41635218 0.4225202 -0.26593998 -0.99304557 1.2546045 0.2863265 -1.4272467 -0.3814163 0.35898864 -1.1960515 0.8741396 0.83655536 -0.3758852 -0.3933238 -0.6189741 -0.5939621 1.5734218 0.21287543 0.3214629
2540 0.5689022 -0.59270114 -0.41488194 0.8853948 0.072304286 -0.8455689 -0.5224457 -1.3049387 0.06505795 -0.39939034 -0.8712654 -1.0048039 -0.19458625 -1.0105778 -1.0762409 -0.8147044 0.44292653 -0.48810187 -0.43597984 0.6109594 0.8919857 -0.5867909 1.4276637 0.4502702 -0.9230207 0.6318966 -0.33905157 -0.84741944 0.6607284 -0.2711245 -0.08315567 0.82675934 1.6217114 -0.28839678 -0.40044343 0.40732437 0.6691579 -0.90109545 -0.020993236 0.3684688 -0.68620723 0.014846837 -0.2700242 -1.3557124 0.39321363 -0.7722236 0.97283536 0.5026014 -0.84782153 0.14098789 0.36714226 -1.5490628 0.13478929 1.1669385 -0.51611775 0.21460593 0.027383698 -1.1824663 -0.35465482 0.6005092 0.45237142 1.4994342 1.2156421 0.515063
1216 0.39558712 0.22500277 0.24031116 0.44465545 0.26058435 0.26795435 -0.33531734 -0.6765364 0.36245707 -0.11579302 -0.60671 -0.86195785 -1.4737409 -0.14089482 -0.99948514 0.42108873 -0.9127312 -0.22683075 0.18088344 -0.0010893847 0.8121159 0.0078537855 0.97554046 0.09087321 -1.5400282 0.46541515 0.74806947 -1.1018425 -0.7502507 0.466978 0.66671795 -0.057900153 0.57104427 -2.0652838 0.75207525 0.42495453 0.35491166 -1.1580778 -0.81330144 -1.2719438 -0.678777 -0.1463311 -1.0074184 -0.39096296 1.7846471 -0.14093587 0.17444284 -1.2254386 0.19886069 0.6224659 0.875273 -1.4873524 -0.02731373 -0.35151917 -0.54329157 0.51076937 0.3661652 -1.0601366 -0.46220458 -0.15209925 -0.6972311 1.0544423 0.029535143 -0.14743301
1212 0.38216135 1.9679819 -1.0524337 1.5073477 0.37657005 -0.30187795 -0.52746385 -0.42015344 0.2172813 -0.46354347 0.30082324 -0.79950184 -0.4415636 -1.3140287 0.121388 -0.6965416 -0.94429 -0.6703893 -0.83956057 0.8677854 0.57463884 -0.56448686 0.35061264 -0.95884585 -1.017611 -0.14601792 0.73385304 -0.16814803 0.22340749 0.3595269 -0.5530639 1.0891213 1.1642016 -1.2331778 0.6486758 0.148488 -0.29847968 -0.1597546 0.19511543 -0.31638676 -0.6024819 -0.36488378 0.13366626 -0.06292067 -0.009562887 -1.7426527 0.7067859 0.22246663 -0.1181976 0.33361995 0.20501566 -1.3051084 0.38003567 0.056404315 -0.19911167 0.226594 1.2047876 -0.29445305 -1.1773973 -1.1614524 -0.5445185 0.15393212 0.76153183 -1.2134442
611 0.66767085 0.19068322 -0.6393778 0.49101052 -0.29028672 -0.1031564 -0.37315935 -0.57910967 -0.8653869 0.9200892 -0.14369236 -0.63865864 -0.3853362 -1.5722835 0.018931506 0.5418916 -0.5404919 -0.17986728 -0.050402403 0.79798406 0.17620263 -0.50165224 1.3155885 0.55720615 0.08698976 -0.37975028 0.5723204 0.03786061 -0.7945429 0.25302407 -0.28249824 0.42268878 1.6776608 -1.5884902 -0.027008492 -0.51162094 0.13019657 -1.7680526 0.33667198 0.14167222 -0.48437327 -0.322486 0.15580033 -1.0983262 0.7904648 -0.2832386 1.1276655 0.672649 -0.58263016 0.76771486 1.7370975 -0.88197756 -0.3645842 1.2685761 -0.22180276 -0.03413811 1.9765532 0.14015509 0.18495673 0.23373248 -0.2114596 0.42445546 1.7061186 0.29522187
332 0.6198452 0.076910995 0.4978219 1.071385 -0.08792283 -0.072040156 -0.09799433 -1.544317 1.1880301 -1.155454 -0.50239456 0.24704607 0.41334668 -0.25701466 -1.0107723 0.41285852 -1.0339314 -0.1522437 -0.2359955 -0.093771 0.7558359 0.73941976 0.96180576 -0.11245735 -0.51622957 0.8297579 0.6366402 -0.124022394 -0.30510172 -0.4952743 -0.48512882 -0.30305803 1.82885 -0.9457574 -0.765904 0.2592579 0.49774754 -0.76420015 0.942296 -0.051923227 -0.8216679 0.46892416 -0.14503205 -1.1225204 0.6147435 -0.32362443 1.1163222 -0.809065 -1.1244102 -0.24817039 1.8422685 -0.3539777 -0.21565937 0.5826457 -0.9765289 0.8735412 2.0121975 -0.101163454 -0.606499 -0.6455219 -1.2620661 0.3307041 0.67841744 0.654601
201 0.10222334 0.5585445 0.35187572 0.12210717 0.5459 1.7746525 -0.03552883 -0.74226904 0.01888487 0.47613356 0.17614298 0.04271122 -1.1733866 0.018696414 -0.22549775 -0.18357357 0.58159554 0.1067922 0.04450901 0.36642048 0.13749683 -0.36908492 0.30707568 -0.93627745 -1.4085634 0.022835253 -0.80705976 0.60055685 -0.60003865 0.4407263 0.23507659 0.9775895 0.93347013 -1.2790854 1.7628913 -0.95144117 -0.06681097 -0.30742198 0.6067102 0.87283325 -0.41991392 -0.4087522 0.70576406 -0.117538214 0.84341097 -0.010027834 1.4543377 0.7045546 -1.6583837 0.54418576 1.8118914 -1.3599918 0.08789952 -0.51984656 -1.4089392 0.9401019 1.2792064 0.4137637 -0.15778969 0.26052365 0.0010798528 -0.10694962 0.25286597 -0.755515
651 0.8154312 1.4072088 -0.63270694 -0.15506986 -0.6245676 0.52543366 -0.113332964 -1.2323455 -0.11943503 0.20935556 -0.028162047 -1.0363333 -0.56783557 -0.32664973 -1.2693976 0.34157947 -0.8267442 -0.19692436 0.21260282 0.45796585 0.98202825 0.23709075 1.4899497 0.8354806 -1.1198512 0.19372164 -0.410959 -1.2675569 0.022597779 0.23047096 -1.3240042 -0.23893462 -0.1474749 -1.2972229 0.8388798 -0.24789642 0.8401613 -0.33705258 0.8033022 -0.29702434 -0.45114517 -0.27774668 -0.116884805 -1.100059 0.6399021 0.23147199 -0.15596478 0.040972605 -1.7609204 -0.27185342 0.1806998 -0.50197905 0.61881626 -0.24429475 -1.3210453 0.90831226 1.0407506 0.7505179 -0.84024286 0.18771358 -1.1482618 0.28103754 0.37700137 -0.090762384
275 1.1410978 0.25387916 -0.007408263 0.17218788 -0.042796716 -0.48126718 -0.24888422 -0.9312403 -1.021283 0.65333104 -1.0601808 -1.0223577 -1.3584248 -0.8515631 -0.093354434 0.5867107 -0.0030099736 0.23226589 -0.5247509 2.0845442 0.9384887 -0.38934422 0.89218366 0.3213166 -0.096129626 0.18168019 0.3088936 -0.33269176 -0.6452907 0.5234757 0.8661348 -0.41140774 1.4164045 0.05005763 0.18570526 -0.3868783 0.54328614 -0.1331452 -0.5825111 0.730224 -0.7519531 0.41799858 1.2546642 -0.5137399 0.113800175 -1.2752118 0.95501775 -0.77864915 -0.5194074 -0.21534814 0.35893077 -0.83231217 0.61737657 0.31003577 -1.1846988 0.8580071 1.1467123 -0.21277398 -1.1887318 1.0130129 -0.6708342 -0.041061066 0.060378037 -0.35272652
399 -0.05224743 1.4862242 0.24959262 -0.26809293 -0.11884945 -0.2821176 -1.0856434 -0.40147537 0.548017 -0.6774456 -0.40508085 -0.68154764 -0.6683136 -0.57846946 0.43107563 -1.4451169 -1.1343387 0.4661432 -0.48814663 1.0187876 0.8456552 -0.7355313 1.0316815 0.08867641 -1.4469125 -0.244658 0.788292 0.28363958 0.17491041 1.0623729 -0.15231438 -0.27676937 0.5886631 -1.261115 -0.2850666 -0.07104323 -0.6893284 -0.05686549 0.69123924 0.4071526 -0.7371608 1.3760774 -0.93120384 -0.2334543 0.8277616 -0.1486782 1.177463 -0.61896294 -0.4353998 0.037509937 0.028123947 -1.0659242 0.57321596 0.6719901 -0.15938772 1.4732563 -0.17586088 0.50004286 -0.7966771 0.25861886 -1.123049 1.3172469 0.91346514 -0.22776774
787 1.1458375 0.7372191 -0.7624497 0.23862906 0.18620552 -0.23699951 -0.97496647 -0.280129 -0.09729112 -0.9722128 -1.2550703 -0.20117553 -0.81451535 -0.09337245 -1.0351969 0.061413888 0.34744987 0.3887007 0.7925891 -0.39534658 0.12126458 -0.47152373 0.9312731 -0.6971681 -1.0773305 -1.2925473 -0.5656932 -0.7630759 -0.2333885 -0.48721278 0.890897 0.19505714 0.07507721 -1.8510776 0.4379264 -0.37568748 -0.50864923 -1.2154564 0.81750923 0.61242026 -1.0143151 0.8529485 -0.18679264 -1.1335757 0.93751657 -0.5527806 0.08495665 -0.71781456 -1.0886904 0.22231983 0.19621415 -0.13243866 0.6151008 0.17501543 -0.15326087 1.2647722 0.8330586 -0.020004405 0.20328334 1.3664826 -0.86639154 0.015007415 0.7199155 -1.3668972
2778 0.48156253 1.0872858 0.7673883 1.8576903 -0.3871732 -0.7293205 0.55654556 -1.1263154 -0.25243622 -0.3717682 -0.07839734 -0.396215 -0.8318982 -0.53028 -0.028966362 -0.8695665 -0.64165205 -0.5977066 -0.33558574 0.7700683 0.28983143 -0.4800223 0.18942837 -0.06955182 -1.6104944 1.1335856 -0.017158575 0.37534532 -0.8073501 -0.25589707 0.23565476 0.17376909 1.300753 -1.9466233 0.09354304 -0.58835834 0.69780976 -0.31718266 0.99767673 0.5129896 -0.43344888 0.35528648 1.0215201 -0.4963357 1.0622846 -0.3903402 0.2931924 0.7053104 -0.23790288 1.069906 0.43988866 -0.6604691 0.64719737 -0.3058136 -1.5089569 1.4972687 -0.07305964 -0.43812373 0.7712347 1.2187885 -0.0040013613 -0.15945797 -0.0759707 0.44150162
543 1.3518116 1.0972997 -0.21014388 -0.1342721 -0.56207246 0.5013665 -0.59960055 -1.1466035 -0.61337864 -0.268737 0.50997406 -0.89768064 -2.2505937 0.53348887 -0.086569615 0.47214282 -0.06572514 -0.20403035 -0.36751732 1.1446941 -0.65561455 -1.0971932 0.6575839 0.33114457 -0.3515904 0.9560746 -0.42917234 -0.5649256 -0.38861188 1.0569638 -0.68088454 0.66336066 0.8625053 -1.3627304 -0.20489949 -0.46045184 -0.1676589 -0.6422126 0.09767226 0.4552671 -1.4997501 0.49726698 0.46060687 -0.85685694 0.45049712 -0.6553372 1.4995326 -0.36854088 -0.08512923 0.1297674 0.5242104 -1.279826 -0.81295305 0.7894227 -0.25266755 0.297192 0.7054337 -0.13790223 -0.36468014 0.8858541 -0.5135985 -0.6016871 0.9173614 -0.9497547
205 -0.2230473 0.19782244 -0.6770886 0.3057038 0.09244099 0.11011505 -0.8240985 -0.8240739 -0.1376661 0.14504199 0.6050745 0.208837 -0.026228774 -1.5831091 0.7514951 -0.49463865 0.5171542 0.057170246 0.27638748 0.29282123 0.29033697 0.18742593 0.9631759 -0.03958792 -0.547265 -0.048033763 0.7253569 -0.51377946 -1.2365334 0.1462489 -0.001237661 -0.9551658 2.1806636 -0.98316985 -0.053103894 0.040825475 0.31263667 -0.2159646 0.7998979 -0.72419417 -0.44219035 0.5061779 0.017186379 -0.7954109 1.1989049 -1.192757 0.9315292 0.15528767 0.016750604 0.42594156 0.80856854 -0.5285416 0.97633207 1.0591372 -0.30743533 0.6050384 0.71508914 -0.4972467 -1.2310245 1.0851275 -0.87021405 1.172306 1.4042381 -1.6238711
779 0.65466946 1.4445438 -0.3704545 0.338165 -0.65614957 -0.601736 0.3309573 -1.0298623 0.4396793 0.32928488 -0.52375937 0.44710967 -0.7727549 -1.0858529 -0.40544918 0.029834528 -0.35079262 0.6246417 -0.052144587 1.5097324 -0.6188538 -0.16889513 0.97414833 -0.59988004 -1.4490145 -0.45242313 -0.9815054 0.21568167 0.23238276 0.4369911 -0.26669255 0.8676185 0.73535895 -1.2735425 0.38025898 -0.70646673 -0.5585834 -1.2597301 0.9538975 0.60463 -0.47947335 -0.29765216 -0.19824775 -0.27231982 0.39936832 -0.6975062 0.3574195 -0.5193769 -0.45629537 0.49580017 -0.4061087 -0.841424 -0.3235905 0.460292 -1.8472016 1.0314158 -0.17562488 -0.5139116 0.18337634 -0.52698755 -0.7053457 -0.5069581 1.3616525 0.29031813
401 0.38101712 1.129535 0.60256207 -0.15359518 0.65732396 -1.3314226 0.61628747 -1.3088077 0.005944873 -0.62518287 0.85334957 -0.2674096 0.051178083 -1.4103475 -0.2244678 0.054322608 0.74146134 -0.10124319 0.50051177 1.505587 0.80195373 -0.628705 1.1202058 1.0664692 -0.12708862 0.6868177 -0.026092863 0.31340745 0.3303425 0.23962174 -0.108793594 -0.13729358 1.0120093 -1.1030078 -0.04278565 -1.147894 0.48292246 -0.39431804 0.012075813 -0.25120988 -0.00043690196 0.34629956 0.5262737 -0.50714713 1.3675905 -0.27667338 0.7362027 -0.14170174 -0.12140942 0.16215058 0.4831513 -0.2133536 0.36163297 -0.068235636 -1.2773343 0.94383883 1.3467728 0.57054687 -0.53503215 -0.53365576 -0.63485765 0.6966417 0.84984535 -1.793355
2408 1.033933 0.25431132 0.44574127 -0.8211025 1.1925756 0.7899021 0.097743176 -1.1601896 0.16514848 -0.50699264 -0.94252604 0.23476169 -0.3840918 -1.5091727 -0.9571241 -0.024387754 -0.83077043 0.1781332 -0.30127174 0.8904346 1.1436985 -0.13230462 -0.17122716 -0.5864267 -1.3979007 0.17464209 -0.92940485 -0.3494214 -0.29901177 -0.119643286 -0.8334796 0.19085781 0.93876755 -0.7182305 0.6168196 0.44059777 -0.98003584 -0.87773776 0.032627694 0.050703134 0.32675567 0.7195741 -0.3022632 -0.71386015 0.5442952 -1.0101377 1.4184635 -0.23999676 -1.0966135 -0.020724759 0.5503947 -0.95255953 0.10901211 0.32564256 -1.3233776 -0.21693154 -0.4883504 0.28704667 -0.09865884 -0.65049493 -1.1182884 0.36656982 -0.36474046 -0.4013738
244 0.5019191 0.6799372 -0.6405287 1.5676918 0.084998734 -0.75732344 0.49942496 -2.2117481 -0.6066208 -0.8579204 -0.4738855 0.40233302 -0.62987655 -0.59634763 0.45555192 -0.16565801 -0.6693909 0.39099753 0.11341635 0.8996458 0.01048939 -0.2450273 0.79856175 -0.08557705 -1.1561531 -0.42508358 0.28566134 0.65375817 0.010920232 0.10935853 -0.09298401 0.31477872 1.324642 -1.3755513 -0.9256853 -0.45876688 -0.054578755 0.2966501 0.3390883 0.22626849 -1.4578785 0.7355098 -0.41330785 0.23068848 0.8128597 0.3763858 1.0926169 -0.76818025 -0.19939962 0.5299576 0.28627282 -0.9516756 0.429491 0.42263916 -0.5333804 0.5519995 1.6100932 -0.6258575 0.3930526 -0.46836454 0.2174428 0.41302577 0.7488516 -0.32397148
1260 -0.5395303 -0.26619413 -0.4353941 0.73451334 -0.43261856 0.134685 -0.56091195 -0.48949257 -0.30863553 -0.37551597 0.49386078 0.83633125 -1.5432417 -0.894943 -0.43809563 -0.019172251 -0.46099505 -0.109979525 0.15855537 0.08142071 0.51555014 -0.7981871 0.85573673 -0.75608283 -1.1851773 0.56056273 0.43691757 -0.019146027 -0.7419387 1.1303201 0.19223398 1.1548877 0.79548883 -0.91826653 -0.6012018 -1.0696537 -0.2363134 -1.1039939 0.090657726 -0.18172584 -0.92624 0.81278837 0.22625887 -0.78579366 -0.38460848 -0.49638075 0.87702507 -1.0964587 -0.7661719 0.040923845 0.22541493 -1.5047517 1.1586341 1.1828493 -0.6950404 1.0732832 0.5163629 1.0158328 -0.113740936 0.6752755 -0.63274586 0.10225915 -0.7167838 -0.018845616
4 0.54505146 0.13158043 0.903756 -0.19518182 -0.43993226 -0.6456179 -0.1278143 -1.064084 0.18168302 -0.8027842 -0.5683511 0.3084777 -0.9336039 -0.7874166 0.6973383 -0.74900126 0.10229165 -0.16592747 0.5486832 0.53014547 0.6641652 0.08935435 0.8541776 -1.2640171 -1.2956008 -0.25797415 -0.7540757 -0.6281528 0.47807124 -0.84818816 0.6187305 -0.12449887 0.6932616 -0.44058925 -0.10874127 0.39516398 -0.031732354 -1.8401568 0.21057825 -0.07916398 -1.2889974 -0.039942995 0.6609317 -0.5036372 0.37320396 -1.0039575 0.1276696 -0.23119625 -1.3075855 0.602099 0.8231325 -1.1561133 -0.58664185 -0.1805588 -1.5583414 0.6457583 0.24528845 0.316844 -0.5684362 0.39226636 0.32979703 0.6853882 0.99274284 -1.7331005
2545 1.3599391 0.45023745 0.06759852 0.7813234 1.0463669 0.09773517 -0.6013925 -0.68775016 -1.2766541 -1.589344 0.04228137 -0.17593072 -0.89332825 -0.9849548 -1.6424582 -0.5590346 -0.9201154 0.07481401 1.0382584 1.2802274 1.0662917 -0.58684 -0.08971278 -0.16055441 -1.2979581 0.16798778 0.1011827 -0.9716959 -0.49591604 -0.10626804 0.36740384 0.9134335 1.8469096 -0.6405832 0.14683597 -0.41517836 1.1970818 -0.77486926 -0.25238568 0.18421623 0.17336522 -0.7565571 0.21381553 -0.3762229 1.5266608 -0.54601294 0.3278794 -0.62426555 -0.55779713 -0.38024402 -0.1424238 -0.7261802 -0.05861743 -0.06581092 -0.06323102 0.104365386 0.43671378 0.27699435 -0.2734352 -0.15935503 0.39108187 0.9998664 -0.032600712 0.34320506
615 1.0890778 0.34831938 0.41850397 0.09257247 1.0270922 -0.453807 0.55184704 -0.37715578 -0.28337538 -0.8766357 -0.21069676 0.0039993147 -0.17892204 -0.3315908 0.29157466 -0.20471147 0.8667761 0.024788724 -0.32037997 0.6378412 0.3082277 -0.72618973 0.42393646 -0.40598914 -1.4933039 1.145544 0.5099842 -1.6465014 -0.35214213 0.74862653 -0.26610652 -0.32108298 1.2820519 0.11318205 -0.27610084 -0.37007546 -0.4548866 -1.2247374 0.56415385 -0.49525094 -0.6293715 0.5063815 -0.3636246 -0.18228194 1.2382965 -1.959158 1.2146479 0.15993601 -1.3179178 -0.47879705 -0.031624842 -0.9707737 1.188658 1.1338072 -0.54496676 -0.14943096 1.3260647 0.17456903 -0.46387172 -1.0410713 -1.1478705 0.11286432 0.13177346 -0.26679763
1482 0.47797698 -0.103411816 -0.5843482 0.7061251 -0.5076201 -0.25264776 0.29254034 -0.9699627 -0.47169366 -1.4922974 -0.24186558 0.49686036 -0.9562114 -0.87396777 -0.3433171 -0.49624085 -1.1367502 -0.9536936 0.8982399 1.7466046 0.4305324 -1.4191902 0.1653457 -0.43563256 -0.03838986 0.36630416 -0.775262 -0.9196311 -1.5622927 0.47371408 -0.35816872 -0.41968384 1.302561 0.3103279 0.3045814 -0.66205573 0.99489295 -1.0727745 -0.07295685 -1.0450966 -0.5360729 0.92779344 0.5786189 -0.8469414 0.74842894 -0.56164855 0.72333956 0.71578586 -0.87801784 0.56839716 0.21587016 -0.1456787 -0.563665 -0.11202049 0.12163285 0.7679751 0.56597745 -0.40066877 0.30574772 0.6986614 -1.1070405 0.008781169 1.436026 -0.10612421
2170 1.3183628 0.67580706 -0.8265194 0.9183835 -0.29508972 0.35789022 -0.121468954 -0.35044318 -0.96858585 0.42795134 -0.21906908 0.042412587 -0.47308305 0.49548495 0.25334612 -0.8731896 -0.7296727 -0.22154525 1.1817987 0.9508839 0.31432638 -0.4688905 0.6868013 -0.54367346 -1.6413258 1.0891814 0.09073317 0.266433 -0.57930183 -0.01938854 -0.12274051 -0.6445299 1.4447187 -0.17108168 -0.2899229 0.4517853 0.18005334 -0.90624934 -0.123070195 0.18957527 -1.0198059 1.1399338 -0.5547406 -0.8119864 1.32048 -0.5206493 0.53236765 -0.101299055 -0.3713586 0.72165555 1.4938827 0.2459571 0.69782186 0.41480735 -0.93627584 0.86238533 0.1701008 -0.20837022 0.05600483 1.0218245 -1.0546303 0.42814523 0.49114072 -0.067894995
203 0.8719287 0.8534496 -0.05582708 0.3944507 -0.31029227 -0.59888405 -0.51208425 -1.8369778 0.24943072 -1.0040295 0.20864683 -0.5888777 0.07699976 -1.7072307 -0.82550234 -0.04188796 -1.1273577 0.5564041 0.08365067 1.0347861 0.08130121 -1.0605395 1.106382 0.012930428 -0.5815895 -0.2513051 -0.055188697 -0.958628 0.4717975 1.0273149 -0.04693205 1.2561623 0.88075495 -1.5958232 0.010850848 0.49996483 -0.8227277 -1.259127 1.3156563 0.09132345 0.1524018 0.7577728 0.15606265 -0.59274954 0.48240918 0.09311117 0.35317633 -0.08150349 -0.13112217 -0.22181441 0.116302714 -0.47612283 0.57327795 -0.43553555 -0.3007157 0.73041785 0.27191675 -0.057402156 -0.7291315 1.0574642 -0.32426462 -0.22404164 0.57824916 -0.90219015
740 0.8622417 0.17630938 0.821078 0.27888855 -0.4528999 0.9105925 -0.027983276 -0.96313334 -0.15564814 -0.56362975 -0.32575452 0.15734497 -1.6868666 -1.2185177 -0.10452364 -0.61479354 0.6356298 0.058663525 -0.740139 -0.034016915 0.48272192 0.22633688 1.1517785 0.18419358 -1.2148817 -0.27837116 -1.2506603 -0.27251175 -0.16353989 -0.52890337 1.4940599 0.5667407 0.20341633 -1.2025869 -0.54704267 -1.069968 0.89545435 -0.71037835 0.83301747 -0.15624025 0.69646853 1.0601982 0.4190114 -0.92743665 0.40354395 -1.364776 1.2483579 0.09141627 -0.7494835 0.13128766 0.9070677 -0.86182517 0.7908049 0.5174795 -1.1079171 1.2002561 0.76350796 0.5918235 0.17990467 0.47853884 0.35266837 -0.19641994 -0.28949568 0.31338313
389 0.8385314 1.1945133 -0.16056831 0.27435076 0.3740602 0.35602286 -0.12867297 -1.3653827 0.7359123 0.040304285 -0.6342987 0.18215789 -1.1564305 -0.6193908 -0.05645023 0.6787893 0.39464828 -0.13713926 0.11684014 1.5479854 -0.65836143 0.33372962 -0.16745423 0.117006205 -1.5885063 0.09554069 -1.3643842 -0.85746396 -0.7338812 0.23665424 -0.80460584 -0.010990675 0.99267477 -0.26444253 0.64884454 -0.21535532 0.72438693 0.091337785 0.93575263 0.32826728 -0.7969324 1.0587939 0.8910831 -0.18131521 1.492101 -0.3260426 -0.08101631 -0.902055 -0.5792675 0.7681148 1.1817102 -1.0691212 0.64518535 0.339749 0.210085 0.6764185 0.4903188 -0.094882704 -0.78154826 -0.7743247 -0.9367202 -0.004336498 0.26236445 -0.41648772
211 0.92167276 -0.6231472 -0.6851322 0.277421 -0.48374602 -0.60165244 -0.6730091 -0.83217245 1.4742529 -0.81414646 0.38535023 0.6687465 -1.1966932 -1.1574476 0.050608624 0.19609854 -0.6296722 -0.36808458 0.6665046 -0.1258047 -0.4542986 -0.6984759 0.78018457 -0.21487032 -1.1043077 0.08686362 -0.099914774 -0.01102475 -0.7687797 0.7158504 0.6151485 -0.3450529 1.1087024 -0.97718674 0.44993317 0.23270214 -0.8240455 -0.8676278 0.53565836 -0.066508576 0.3236527 0.03127686 -0.50215787 -1.2682126 0.98311883 -1.1244854 1.0467012 -0.6573247 -0.59162277 0.75152767 0.21093465 -0.6493477 0.062824726 1.011788 -0.25690675 -0.50063586 0.95927835 0.85761154 -0.28168908 0.7698016 -1.2395217 0.847907 1.0377579 0.107860096
1596 -0.519524 0.9014656 0.8768695 1.1014622 -0.9194424 0.5026941 0.42081028 -0.43148977 0.17354584 -0.46219873 0.04294782 -0.60402375 -1.2214456 -0.8577091 -0.7149893 -0.17039554 0.42874816 -0.70676595 -0.636243 1.4623394 1.0383987 0.37974396 0.61957645 0.07843956 -0.87323433 1.0692521 -0.69981164 -0.4584647 -0.2594535 0.21077251 0.13964212 0.01766371 2.1996934 -0.4068081 1.7295985 -0.19503725 0.15626548 -1.2560931 -0.25053465 -0.05570443 -0.16894864 -0.07690587 0.47433326 -0.19476524 0.11284641 -1.3697201 0.59441066 0.7630667 -1.3022096 0.6472205 0.38112116 -0.35172814 -0.30690137 -0.32419458 0.21377511 1.4961035 0.0036955567 0.001065241 -0.21923582 -0.0014169831 0.21587062 0.12827913 1.269627 -0.9386431
1189 -0.6817979 1.6857145 0.0838531 0.21991463 -0.18458453 -0.95182586 -0.28518352 -0.35361952 -0.7160569 0.33228627 -0.29827723 0.18345281 -0.5563091 -0.9616975 -0.9560891 0.28982756 0.45030817 0.80739594 0.27646154 1.6715916 0.14166549 -0.49456373 0.6710449 -0.39521593 -1.3578892 -0.42495143 -0.33232582 -0.2242962 -0.83198947 -0.065779336 0.22429998 0.09047293 0.47408438 -0.8589559 0.5216411 0.07318367 0.6000883 -1.0726063 -0.2030669 -0.5232086 -0.8274607 0.44148755 0.0874838 -0.3547624 0.10029916 -0.82451564 0.87960416 0.15897118 -1.4912379 -0.06260294 1.1103537 -0.491087 1.5442548 -0.8250701 0.04544722 -0.2720411 1.0343524 0.14418167 -0.11209739 -1.1022171 -0.4245786 0.43490678 0.39570194 -1.5895717
830 0.82897586 0.06715301 -0.8052404 0.18707703 -0.64647925 -0.49688002 0.95919573 -0.50247186 0.10821895 -0.5733974 -0.6510543 -0.46484107 -1.2080826 -1.200302 -0.7722701 0.6286618 0.31239644 -0.18312566 0.24814826 0.049620442 0.84876454 -0.18033247 0.6483216 -0.7825105 -1.417594 0.4492817 -0.59232056 -0.19271457 0.7478068 0.96657866 -0.6378956 0.58350897 0.7092425 -1.3202823 0.90979433 -0.48233116 -0.42751303 -0.9810934 -0.8526155 -0.028282288 0.4202116 -0.29305547 -0.83524245 0.38343126 0.39493734 -1.7078156 0.6869333 -0.22375013 0.13825385 0.34075117 1.3272156 -1.6562895 0.9071253 0.41965115 -0.37884846 -0.037322864 0.69876146 0.1722208 -1.0213178 -0.4477508 -0.53789645 0.63384795 1.2615296 -0.37429404
1724 0.6047628 0.31920278 0.39368626 -0.61745316 0.37468618 -0.09429204 -0.39740112 -1.2382532 -0.703294 0.66379344 -0.7553588 0.1022133 -1.3390905 -0.04623593 0.25418562 0.001498029 0.18812717 0.27733582 1.2494018 1.2875955 0.38298315 -0.98114175 -0.7617401 0.41445374 -1.4346732 0.3856398 -0.38304344 0.3971453 0.27954322 1.2324582 -0.025792213 0.6291018 1.056481 0.31286427 -0.152165 -0.47528943 0.59724617 -1.1059096 -0.09231244 0.8844011 -0.9729631 0.30322546 -0.09321055 -0.6575173 1.4196392 -0.8837592 0.83768386 -0.48224837 -1.4100488 0.0009512563 0.50622094 -1.4916971 0.16715264 -0.006251662 -0.57983255 0.9142686 0.9229279 0.2684376 0.04101461 -0.12866142 -1.5310736 0.2850998 -0.08122884 1.1253545
649 1.1866122 1.1518698 0.5805203 -0.3481192 0.24073021 -0.6445209 0.19599572 -0.34834597 -0.18169492 -0.055264216 0.3753646 -0.03519721 -0.57021075 -1.1998501 0.011879414 -0.99494207 -0.50165176 -0.32130823 -0.16380471 0.4823096 -0.6842076 -0.53184634 0.4180772 0.15651634 -0.20164007 0.79529655 -0.1322947 -0.78584665 -0.17023048 -0.13028623 0.02763084 1.0612239 0.16158637 -1.3089793 1.3203951 -0.29265398 -0.27083004 -0.5990721 0.1893649 -0.15320647 -1.4534048 1.2124715 -0.036728155 -0.71561676 0.55644286 -0.018235518 0.4443064 -0.21708499 -1.3524585 0.022157919 0.75745267 -0.8237862 0.49305502 0.30041572 -0.85987455 0.8688987 1.7376871 -1.0744015 -0.9822953 0.68039656 -1.3376491 0.25471374 0.12355638 1.2577909
661 -0.18246108 -0.117932 0.36900556 1.21335 -0.09290879 0.62768257 -0.10249697 -1.8277136 0.12141687 -0.2625473 -0.65846646 -0.2039463 -0.7420453 -0.2192054 -1.6338736 -0.9587068 -0.39548716 0.73137563 -0.41750836 0.8887517 0.39770007 0.088330366 1.3282958 -0.09979048 -0.3316006 0.94383496 0.2914838 -1.0984641 0.009616128 -0.03237788 -0.66525 0.9052234 1.0276195 -0.31576645 1.0732468 -0.7314561 0.4161846 -1.5874442 -0.92535424 1.1158398 -1.4579529 0.22292873 0.10231742 -0.7928131 0.19972335 -1.3339802 0.20227201 -0.31040615 -0.13517907 -0.42879626 -0.01773689 -0.32514673 1.0067614 0.2487571 -1.1213415 1.576159 -0.19300053 0.021976387 0.16444422 0.42473322 0.25561237 0.16035241 0.91226155 0.22919694
1245 0.6339846 1.3390331 -0.42828408 0.81712776 -0.66619277 -0.5418834 -0.2057844 -1.9392444 -0.0019516087 -0.39088297 0.27555883 -0.46246034 -0.57429343 -0.6515376 -1.2297244 0.33254656 0.50166225 -0.69281656 0.2568552 1.9574562 -0.21798548 -0.8864469 1.2521944 0.013907041 -0.67031866 0.7225462 0.7541775 -0.4667982 -0.11928379 0.6920465 1.0738115 0.68432385 0.1878643 -1.1000357 0.797969 -0.481425 0.3250899 -1.4143486 0.108308606 0.7657828 -0.045135166 0.543421 -0.81014824 -0.23965226 0.81564486 -0.17952085 1.5770172 0.32647347 0.57106674 0.9093253 0.5846049 -0.7182419 0.41330814 -1.0882292 -0.19627543 -0.10691228 0.38562262 -0.52362543 0.89638454 -0.02469718 -0.56529224 0.38963735 0.42354056 -0.34364176
1181 -0.4677288 0.04615755 -0.29597247 1.1147922 -0.037620712 0.21544154 -0.8450503 -0.9704269 -0.76849055 0.21114261 0.2691997 -0.7141042 -0.1390458 0.32669294 -1.1044798 -0.5881801 -0.74885696 0.09554242 0.5204078 0.76526546 1.0618508 -1.4677058 -0.05101955 0.17376773 -1.4779297 -0.76062334 -1.0238315 -0.34102243 0.056077857 0.50735325 -0.23638694 1.2136056 1.2386264 -0.98968345 0.883872 -1.2959392 0.11952884 -0.40539914 0.39066976 -0.7028755 -0.14511526 0.6928069 -0.57340574 -0.811282 0.6362357 -0.67496437 -0.03089083 -0.8302608 -0.066714354 0.5794656 1.0718836 -0.47800234 -0.64253193 1.0321722 -1.2594981 0.40591276 0.18400858 0.0250932 -0.8187776 0.9361197 0.008744618 -0.48891747 1.1003644 0.21531689
2538 -0.2725661 0.7313996 -0.8891953 0.91163796 0.32041284 0.11305201 -1.0471972 -0.56006867 -0.29721975 -0.3114622 1.336634 -0.1457308 -1.0184071 -1.0952619 -0.48593765 -0.21461356 -0.48717195 -0.42742503 0.659153 0.14487077 0.9841441 0.010189787 -0.3160475 -0.58651143 -1.2456521 -0.47156015 -0.48462963 0.44069883 -0.15491334 0.86485946 0.17153808 0.023320805 1.0913503 0.07179205 0.41923174 -0.5834224 -0.38361993 0.034574598 -0.8660652 -0.7435787 -1.2828178 0.8795859 0.96778786 0.295537 1.2195184 -1.6982228 0.91002375 0.1908827 0.41230738 0.03619416 1.1119457 -0.79750603 0.84726185 0.49576062 -0.43096507 0.7795768 1.3683387 -0.17958805 0.46236196 0.10753573 -0.49909267 0.9063293 0.8284173 0.15090145
622 0.52544737 -0.009378745 0.05918156 -0.29670244 -0.73040956 0.6467634 -0.5445611 -1.1224347 1.1089978 -0.22713597 0.01669379 0.017334681 0.31340355 -1.0480887 -0.9510007 -0.3207496 -0.4214007 0.3521752 -0.18355513 0.21436016 0.4127584 -0.5333493 0.6558645 -0.09000926 -1.5732802 -0.47576538 -0.42191276 0.18331052 -1.1903781 1.4054797 0.49012235 -0.045724947 0.4408363 -0.4104177 -0.23474848 0.128722 0.48732176 0.193355 0.38803864 0.26054275 -0.564823 -0.175169 0.6488351 -1.1455086 0.4947329 -0.72668946 1.1211716 -0.9107584 -0.994061 0.062062383 0.33682042 -1.2476012 -0.38574794 0.5181205 -1.6358263 0.87064344 -0.20482065 -1.4611491 -0.8001418 1.0440238 -0.56791985 1.0766739 -0.039161768 -0.6222905
916 0.27523327 1.2783511 -0.5595995 -0.6241637 -0.9828363 0.11026224 -0.008461578 -1.6507114 -0.3872617 0.040461153 0.030267527 -1.1398569 -0.23631546 -0.98370355 -0.021571154 -0.18796867 0.08559231 0.7404034 0.8726252 0.88534945 -0.21006714 0.051911082 -0.016881816 -0.28988 -0.570614 -0.44668162 -0.91885054 -1.1707028 -0.50236106 0.2905309 0.01996809 0.5873705 0.6396278 -0.72123545 0.0294104 -1.4385988 -0.25146595 -0.52642095 0.6697976 0.5050103 -1.149417 0.6430492 0.8450617 -0.8369136 0.11614295 -0.7019635 0.39030826 0.7492424 -0.16234148 1.2311423 1.3032736 -1.6259506 0.13159072 -0.05523646 -1.4360213 -0.0074221296 0.86949104 -0.20252125 -1.2465998 0.9379103 -0.90358067 0.5751057 -0.25443432 -0.79135984
2414 -0.15203832 1.0117575 -0.020491932 -0.15192421 0.028152892 -0.2947098 -0.2354004 -0.084980235 -0.17579727 0.32818407 -0.011570418 -1.3628209 -0.9274967 -1.2451115 -1.3350179 -0.67887515 -0.050684106 0.65207195 0.089245096 0.39485994 -0.04153795 -0.6374818 0.62608945 -0.16095619 -1.2188586 -0.32538775 -0.21063076 -0.22959201 -1.3644329 0.8479118 -0.030968443 0.20549779 0.8077741 -1.5978583 -0.13143004 -0.89925176 -0.08415018 -1.6643937 -0.55600595 -0.95316786 1.0279156 0.39205685 -0.81223506 0.10223561 0.20734936 -1.0245358 0.38051584 -0.93087816 -1.205063 -0.35714784 1.376708 -0.26738316 0.6630942 0.42889377 0.23736545 0.1260219 0.92862606 0.5854508 0.61540675 0.3900648 -0.82927537 0.52706045 1.5046195 -0.30906385
2258 -0.4798426 0.36073357 -0.06467823 0.8914582 0.0024639345 0.47896767 -0.4424402 -0.76275814 0.04100202 1.0207083 -0.8978196 -0.5527003 -1.1829988 -1.7955208 -1.0166261 -0.1583341 -0.27002248 -0.22725384 0.89430547 1.1363686 0.91974914 -0.30302143 1.0643003 -0.4320165 -1.3757279 0.018052503 -1.0344357 -0.93076545 -0.88768977 0.13712928 -0.6277569 -0.35041115 0.5928979 -0.49358132 0.23226371 -0.28269798 0.27906185 -0.25384164 -0.35813275 1.3540004 0.9495267 0.7172619 -0.12513442 -0.98159957 0.2654304 -1.242036 0.47901466 0.056999274 -1.364617 1.220136 0.35759234 0.027204633 0.7308424 -0.64462084 -0.8114424 0.82341325 0.33058807 -1.0839944 0.22321272 0.16005212 0.3056914 -0.11162931 0.58013475 0.31056035
1308 0.049717832 0.39831054 -0.885955 -0.2705 -0.22412558 0.49541998 -0.30190462 -0.967868 1.054863 0.32143202 -0.6523055 -0.3949801 -0.41688436 -0.34149078 -0.6685312 -0.9297531 -0.04779047 1.262482 0.17573981 0.8721997 1.2049222 -0.33345833 0.65021485 -0.4343129 -0.5126169 1.066471 -0.0853649 -1.0079107 -0.25412413 -0.24885109 0.6084006 0.1486443 0.016231164 -1.2925239 0.3434171 -0.36125496 -1.3768605 -1.1423469 -0.15178086 0.943854 -0.74741936 0.1988755 0.33084995 -0.90700066 0.6099264 -0.34528232 0.9858354 -0.3566154 -1.3305649 -0.63103324 1.1976376 -1.5439819 0.3213916 0.92998 -0.5158213 0.9382246 0.8402272 0.8631593 -0.0425537 -0.42558354 0.29759985 0.14246096 -0.3256311 -0.27483487
613 0.8213686 0.5727921 0.12277365 -0.0012044626 0.19865528 -0.7611015 -1.6012535 -1.4737059 -0.00082926784 0.5851339 0.76018125 -0.42861775 -0.5983366 0.63947 -0.83156997 -0.24174856 -0.0557044 0.78315514 -0.04172243 0.8347751 1.167253 0.31070423 -0.23988675 -0.9629019 -0.83669275 0.3554496 -0.9124855 0.2685082 -0.92773247 0.518161 0.19837399 0.52540994 1.0883512 -1.1345168 -0.5768896 0.47580177 0.32729837 -0.77028316 0.37435117 -0.49727693 0.172681 0.4341617 -0.7310312 -0.97248095 0.71180063 -0.60900396 1.117301 -0.09261856 -0.08397829 0.75892466 1.1584228 0.5052548 -0.3607855 -0.088525824 -0.9340859 0.55055803 0.70101225 0.36970654 -0.87129366 0.62651646 -0.9756591 -0.13435 1.4155686 -1.147375
198 0.18792552 0.1727464 0.26413754 -0.20880428 -0.2945787 -0.88835466 0.697522 -1.163224 -0.370178 0.09141692 1.2835673 -0.18497057 -1.338998 -0.5971246 -1.1167572 -0.031564716 -0.10249319 -0.025601424 0.27587166 0.6621046 0.07356108 -0.46089172 0.08704555 0.2001986 -0.93651867 0.8379261 -0.48042107 -0.591994 -0.7099829 1.1785556 -0.60668784 0.863231 2.2213635 -0.6941808 0.9598889 -0.2722736 0.5785464 -1.0196826 0.024289036 0.34623536 0.20516706 0.21764623 0.41315454 -0.2608677 0.010433438 -1.0627793 -0.2569398 0.27108195 -1.2233553 -0.19536597 1.3823595 -0.6583198 0.039416604 0.009610456 -0.7710231 0.08869799 0.056073524 0.9136434 -0.9004765 1.5816358 -0.7463283 -0.12775792 0.2833802 -0.20206715
1027 -0.8437234 0.0015062483 -0.4792676 -0.3974134 -0.36946848 -0.40089443 -0.35753495 -1.3693469 -0.34951547 -0.40538505 -0.7558588 -0.6014982 -1.1944848 -0.9009976 -0.81876606 -0.47570455 0.0011148322 -0.17537157 -0.014566749 1.1540419 0.9523222 -1.2136618 1.3528286 -0.74954474 -0.70591855 -0.15043287 -0.37188375 0.29186115 -1.3481512 0.19501428 0.54700595 -0.5276918 0.124290526 -1.230893 0.56360036 -1.2636873 0.12584932 -0.857304 0.20124994 -0.02924127 0.690235 -0.6033824 -0.26540667 0.031474926 0.58070165 -0.7816308 0.08064972 -1.0187097 -0.7759138 -1.2921065 -0.37733206 -0.8752591 0.044426557 0.76837975 -1.1360414 0.822742 0.3577198 -0.52567387 -0.9493887 0.14709423 -0.9349661 0.6563444 0.26278833 -0.7207585
853 0.5465773 1.6260487 0.633778 0.34927762 0.54902774 -0.55707157 0.23779185 -0.6090778 -0.33009636 -0.69890046 -0.012124836 -0.031073062 -1.5388479 -0.576687 -0.96660656 -0.23139426 0.27525192 -0.7045085 0.7242514 0.29969576 0.4201039 0.3691112 1.0549928 -1.1051711 -0.3471643 -0.6776977 -0.56575423 -0.4178523 -0.55450004 1.0147246 0.6034377 0.7288523 1.6999825 0.0025305513 1.0031823 0.010366281 0.4769309 -0.11645276 0.8173426 0.46720183 -1.2934308 0.6634636 0.26934958 0.2671926 0.14658892 -1.3264422 0.65469444 -0.1250951 -1.6677603 -0.16677088 1.1748106 0.26471007 -0.43471912 0.48928788 0.17274399 0.82169205 0.7435061 -0.7708776 -0.38366985 0.07052091 -0.10023873 -0.22414689 0.40558296 -0.10196981
1873 0.28817412 0.4914485 0.37496975 1.0026273 -1.0824039 0.5525555 -0.569195 -1.2109746 0.42152843 -0.5920098 -0.21474375 0.13868977 -0.4622054 -1.1638563 -0.94879353 0.094232604 -0.919737 0.6181949 -0.21610184 0.78597873 -0.084064595 -1.0619428 1.0244334 -0.52664334 -0.7746306 -0.294753 -0.3975566 -0.8514067 0.51179695 -0.041960876 0.5526445 -0.4538101 1.130079 -0.8237224 0.106975935 -0.45382106 -0.958434 -0.5087794 -0.17491198 -0.265692 -0.3095486 -0.4508664 0.2961105 -0.75777406 0.84305376 -1.054393 1.8916535 -0.39125428 -1.1823328 -0.09778784 -1.0915688 0.1673604 1.1828057 0.73224574 0.41624072 1.3738731 0.7911453 0.47001898 0.5548871 0.23859245 -1.0790774 -0.00816428 -0.14650126 -0.5873188
2243 1.0192782 -0.5547836 -0.31957665 1.1810892 0.005888438 -0.7952501 -0.6964015 -1.5919523 -0.24049222 -0.695717 0.15061064 0.54483193 -0.24920684 0.02060851 0.5244844 0.09153022 -0.7408732 0.62074953 -0.86542624 0.0071168137 1.0955149 0.5699403 0.13702774 -0.836163 -0.17269346 -0.15633546 -0.46990082 0.27474245 -0.4395638 0.33023468 0.14769022 0.896568 1.3631287 0.09792576 1.0731136 -0.9565513 -0.34528562 -0.46247134 0.63821924 0.47492746 -0.11105455 1.0234846 0.33861092 -0.26948398 0.50942427 -1.3956254 0.3655892 0.9157527 -0.746221 0.16164513 0.5784832 -1.3115872 0.85721344 -0.0062876553 -0.15233314 1.1397847 0.60708284 0.1002578 -1.175732 0.9214464 -1.2306321 0.75642025 0.8798789 0.03633721
722 -0.29772434 1.1207024 0.08263008 0.8113484 -0.073584944 -0.61599696 -0.21976796 -1.0241488 -0.43226925 -1.3697004 0.3442718 0.38902628 -0.32345793 -0.319471 -0.17233187 -0.7629246 -0.090110816 -0.096729115 -0.16216104 0.87339926 0.80661875 0.49717852 1.2408266 -0.5931421 -1.5284638 1.1426508 -0.55644166 0.20894496 -0.025525376 -0.3865818 0.48177266 0.10656775 1.5144072 -1.3126576 0.4923862 0.092455536 -0.62527734 -0.50991356 -0.11737122 0.47503838 -0.14998673 0.5025689 0.24892136 -0.3795083 1.0134174 -0.02674791 1.1392817 0.5961398 -1.2265404 -0.004654195 -1.1774046 -1.2258202 -0.11091512 0.6045486 -0.9678514 -0.580992 0.03330307 0.48614952 -0.81941426 0.9082268 0.00012235169 1.2880632 -0.27878582 -0.42639282
1480 0.334542 1.5273257 -0.74121714 0.2581799 0.022567825 0.12475553 0.24100022 -0.8443853 0.7649424 -1.1159061 0.26283655 0.03472734 -1.4837619 -0.70085144 -0.70848894 0.27098528 -0.48075083 -0.26114762 -0.5963126 -0.0039170645 0.3217818 -0.6612577 1.1097306 -0.18376727 -1.693292 -0.25947675 0.45420787 -0.3456975 -0.26714998 0.2845627 0.055641927 -0.71619684 0.61358523 0.18275987 -0.43143076 -0.2747452 0.08648524 0.2163464 0.42279908 -0.36815917 0.41663766 0.69044626 -0.2901405 -1.1221751 0.81741685 -0.16402987 0.9292017 0.16979279 -0.87534684 0.6470519 0.033517275 -0.79117215 -0.5879367 0.5449781 -1.170541 1.2472755 1.1350046 -0.7022684 -1.3256862 -0.37233728 -0.63857377 -0.022615975 -0.04405381 -1.0389099
1676 0.26443356 0.30049706 -0.37122983 0.39638928 -0.46816248 -0.01790164 -0.16864388 -0.8972224 0.36864147 -0.6087186 -0.24895574 -0.37476417 0.08294053 -0.4300291 -0.27884534 -0.3106894 -0.25036126 -0.35420623 0.05525254 1.5322275 -0.35473776 0.5350302 -0.12621169 0.27843484 -0.64539576 0.28433153 0.15331927 -0.74447495 -0.66986567 0.5658501 0.08986554 -0.56611556 1.265083 -0.2953348 0.5718594 -0.5440972 -0.70109034 -0.094107084 -0.48508808 -0.38954768 -0.28664437 -0.5852657 -0.24712735 -1.062779 0.12149735 -1.2981696 0.4573707 -0.010633297 -0.91971993 0.20718947 1.2957987 -0.93809074 0.5724491 -0.20207414 -1.30683 0.007157466 0.12618324 0.27398378 0.2522804 0.55712235 -0.5913314 0.8700493 0.11131043 -0.03169949
135 -0.020058388 0.20161794 0.03368866 0.09902355 0.04486983 -0.08768385 -0.9916963 -0.39211616 -0.023587309 -0.6088752 -0.16453415 -1.0344888 -1.9956968 -0.6697918 -0.14459828 0.020779459 -0.56188035 0.4563066 0.019229265 0.26941562 1.4101989 0.022250762 0.20498243 0.1910275 -0.5655311 -0.08090744 0.21772015 -0.8926749 -0.5227347 0.66642106 0.6528209 -0.26197177 0.66287184 -0.8024986 -0.2029953 -0.3077228 -0.119158104 -0.9000568 1.0692039 -0.19294025 0.005977776 -0.3034674 -0.15242727 0.029843163 0.71968704 -0.92793876 0.35359862 -0.10278119 -0.93598664 0.5289564 1.7465407 -0.08658459 0.6014006 -0.22972833 -1.2164764 1.5168843 0.18272167 0.66148174 0.7800946 0.6069248 -0.6611634 1.0777903 0.8430633 -0.041187536
513 0.17961329 1.0908239 0.6957747 0.23016804 -0.5098241 -0.57134205 -0.81773126 -1.2190354 -0.53675 -0.7894853 -0.59731 -0.01062662 -0.013165558 -0.00047688792 0.118615866 -0.3954994 -0.06532486 -0.061994325 -0.24740867 -0.22741812 0.82264215 -1.2689234 0.74414194 -0.12369922 -1.754245 0.06256061 -0.6397729 0.75732553 -0.9568547 -0.49543318 0.99040085 0.27056915 1.815279 -0.38197216 0.5439276 -0.3019039 0.45757282 0.14093427 -0.9341238 -0.024679359 -0.59755814 0.82309085 -0.91607475 -1.0134428 -0.08492157 -0.6462457 0.83047765 -0.30984196 -0.93031394 0.4706403 0.7516576 -1.4557304 -0.58242613 -0.59114444 0.010159919 0.5595177 0.3131605 0.24335565 -1.019942 -0.4087311 -0.50122416 0.82721794 0.74207675 0.4416376
957 0.80841166 -0.2524302 0.39715135 0.95776236 0.5245044 0.18767227 -1.1376878 -0.7024066 -0.44401088 0.42769778 0.12723464 0.24030781 -0.9898271 -1.0065503 -1.4278322 -0.6602166 0.82733965 0.15066281 -0.28070283 0.9607754 -0.5411852 -0.32059667 1.082188 -0.45916677 -0.59424525 0.06288957 0.7840651 -0.77196336 -1.2692424 1.164235 0.45452148 0.82361865 -0.28599182 -0.458206 0.33584327 -1.0010244 -0.52334654 -0.94276243 0.06817002 -0.18960792 -0.88706994 -0.063611045 -0.8636543 0.10257333 0.95200837 -0.7391872 0.48639596 0.20636623 -1.3340299 -0.05227404 0.9457139 -1.0588697 -0.33794466 -0.72674686 -1.0796367 0.85472745 0.4092923 0.060572907 -0.023467131 -0.12699203 -0.46376103 0.20371903 -0.23452522 -1.5430095
1248 0.47034803 0.57089806 -0.95748127 1.2926012 -0.68389696 -0.14289197 0.12744395 -1.068001 -0.806561 -0.21425687 -0.89383024 0.15636292 -0.47463036 -0.33975437 -0.104952954 -0.3815393 1.0806117 0.72619873 -0.14574882 0.53408915 0.29197547 0.214976 1.784913 -0.32350236 -1.0475142 -0.19512126 -0.5359141 -0.945853 0.070252456 -0.090081476 -0.007836731 0.0742243 0.9300102 -1.0006608 0.57063955 0.1964016 1.0414082 -0.54994726 -0.16033849 0.40721127 -0.08516122 0.18632351 -0.38640654 -1.4096746 0.50574404 -1.0004103 -0.34040534 -0.27205658 0.2031733 0.05522055 1.2850205 -0.98858184 0.3479618 0.51582366 -0.69697744 -0.52950245 0.840249 -0.37089777 0.91563183 -0.11689884 -1.7278293 1.5113503 0.66497135 -0.8825162
2504 0.69205475 -0.6603897 0.2207407 0.352347 -0.7068939 0.43983546 -0.44777077 -1.6076802 -0.4832413 -1.9061862 -0.14474145 0.62360424 -0.75637203 -0.4786571 -0.24372289 0.5806326 -0.34884962 0.1803848 0.14837925 0.6418144 0.20306896 0.92673665 1.2316561 -0.304065 -1.4027348 -0.046649463 -0.41972673 -0.087407894 0.42411873 1.1411859 -0.4018718 0.025946492 0.98786294 -0.65552986 -0.1915274 0.2028738 0.58114177 -0.20603704 0.5201846 0.7085106 -0.18203358 0.3878288 -0.37449268 -0.62070054 0.86722606 -0.97672516 1.3306888 -0.1803965 -0.11725177 0.22167619 0.31959313 -0.7420801 -0.6146044 0.90093935 -0.13296354 1.540012 1.1988952 1.2999682 0.056709003 -0.24824227 -1.0523946 0.18741627 0.45235988 -1.0970228
918 0.28198242 1.7977073 1.2332407 1.0666556 0.4585592 -0.7573902 0.4513113 -1.712913 -0.16750254 -0.6891363 0.25290602 0.24945538 -1.0205444 -0.75138044 -0.51234096 -0.9033722 -0.52763534 0.1399688 0.025084913 -0.044221412 0.18710975 -0.9304661 0.26100838 0.046113573 -0.36598355 0.28136137 -0.7697044 -0.9486882 -1.4865843 -0.58164865 0.3142833 -0.21131739 1.0211242 0.044209998 0.67034405 -0.56181407 0.9020604 -0.5897466 0.14766759 -0.41143885 -0.20540768 1.3875985 0.46073398 -0.89809275 1.373161 -0.5265517 1.1228628 -0.73474944 -0.3756171 -0.1515273 0.07471328 -0.083489396 -0.8978491 0.074472785 -0.3937838 1.4107922 0.059010636 0.34466904 0.28606543 0.14993376 -0.6605034 1.2646325 -0.8112636 -0.20628284
657 0.41157085 -0.21653096 0.096957594 0.62590164 0.05033092 -0.8884078 -0.88887304 -1.7543179 0.6557247 -0.17807877 -0.80400616 -0.89493614 -0.49662706 -1.6230558 0.38115773 0.11929617 -0.45691192 0.2398499 0.29489797 0.37349916 0.8676744 -1.6289879 1.7930961 0.42117783 -0.7912248 -0.62931865 -0.0659051 -0.66574556 -1.0144503 0.34299162 0.026163643 0.6819672 0.62079525 -0.5751706 0.98363537 -0.39699477 0.6658643 -0.5039495 0.2175962 0.43842307 -0.3777707 0.8014033 -0.033586685 0.38869894 -0.10801351 -0.34524485 1.0216312 0.84030205 -0.74234414 0.31274644 0.2441952 -1.4899722 0.33038542 -0.058644544 -0.7208171 0.15407303 -0.9957498 0.6932945 0.3211511 0.69570297 -1.2334106 0.56419665 0.027169913 0.17972535
971 0.40368086 0.5397561 -0.6428016 0.6939899 -0.21872312 0.63249445 -0.86757034 -2.0017965 0.30927786 -0.7879168 0.6670112 -0.3104581 -1.0680833 -0.93574685 -1.3232323 -0.58310276 0.72741956 -0.6470394 -0.24611972 0.31101218 -0.8781084 0.49033204 1.5208395 -0.00700861 -1.5786066 0.3955244 0.22816037 -0.9774766 0.06854439 -0.46906456 -0.09399944 -0.5791643 0.79829794 -0.6422647 -0.433727 -0.2973914 0.7450382 -0.12385604 1.3232716 -0.19095106 -0.116934374 0.19458547 -0.052204806 0.53112906 0.82784593 -1.0401671 0.3571153 -0.57086945 -0.3340846 -0.9212223 1.3585094 -1.1450545 0.04386037 0.060242865 -1.02168 -0.4148277 0.15089571 -0.67521566 -0.084664695 0.42945653 -0.55796915 0.7363206 0.572474 -0.715709
516 0.53860956 0.24280806 1.0991665 -0.43795395 -0.89318067 -0.75407594 -0.08269546 -1.1345963 0.22060052 -0.61616254 -0.1104191 0.24329711 -1.1198602 -0.434082 -0.31695843 -0.072888605 -1.2420557 0.5414989 -0.3601969 1.6848519 0.6478568 -0.059320606 -0.32123017 -0.7746688 -0.41232374 0.58194613 -0.95426786 -0.8439061 0.22713874 -0.3340123 -0.5603454 -0.06256758 0.37305075 0.074854895 0.0071811182 -1.3939403 -0.39873245 -0.9741845 0.08691654 -0.44592625 -1.1572452 0.9312677 -0.15309125 -1.5436033 0.6103345 -0.4934411 1.220446 -0.42020997 -0.6953473 0.8213771 0.48136207 -1.2038542 0.4136539 -0.08896589 -0.37743348 1.3101414 1.3662541 -0.2153534 0.08882079 -0.06526064 -0.33541942 -0.62829995 0.0669611 -0.40791148
1608 -0.4836094 0.43918768 0.39432052 0.4563064 -0.6569729 -0.04171157 -0.5938979 -0.31279075 -0.6363313 0.8295731 -0.76185435 -0.24810293 -0.8461746 -0.394964 -0.52574825 0.5297461 0.27899766 -0.96193755 0.5547513 1.0624543 1.294621 0.5832534 0.04445059 0.43378872 -1.1350218 0.13819145 0.79971594 -0.92765015 -0.40668026 0.8697615 -0.4924395 -0.6778224 1.6951087 -0.30760044 -0.46160084 -0.111081265 -0.020636922 -1.9411014 0.25079107 -0.019801252 -0.1930501 1.31265 -0.074447826 0.44315445 0.87727845 -1.5134777 0.904333 0.14405414 -0.36267874 0.15214874 0.45813906 -1.747141 0.20185564 -0.042326916 -0.7256695 0.9604998 0.33443555 0.009835128 -0.4258416 -0.071265355 -0.34248993 1.0857548 0.45255136 -1.123742
1968 0.57061225 0.09412072 -0.06360932 0.4726623 -0.39872965 -0.21656615 0.09888805 -0.7267973 -0.37599677 0.05074381 0.9811258 -0.01711179 -0.5647516 -0.496124 -0.37293914 -0.43713495 0.10349677 0.39261115 -0.23618133 1.4465997 -0.39830726 -1.0672569 1.1850286 -0.29603225 -0.3454748 -1.0651712 0.7091351 -0.44195443 -0.6450402 0.9179867 0.9315237 0.41247138 1.0298421 -0.3945042 -0.83904403 -0.42442885 0.056541294 -1.1144648 -0.07824408 0.12412937 -0.78091216 1.0531062 -0.1950187 -0.7158651 0.8051066 -1.0091431 0.7254524 1.7932777 -0.29385433 -0.8928736 0.18773513 -1.699371 0.9743629 0.00999134 -0.30579516 1.2339007 1.265961 0.04718443 0.036416385 0.51963425 -0.21042086 -0.13835485 0.7446077 0.55748636
2795 0.9952851 1.2665359 -0.35269237 -0.4219187 0.3901815 0.16004151 -0.21551572 -0.3288964 0.62186235 -0.7651084 0.41078922 -0.90178996 -0.4915547 0.28094694 -1.2188148 -0.19433051 -0.86974275 -0.724653 0.64174694 0.6064943 0.2593785 0.013619318 0.13011003 -0.28008586 0.05939746 0.16856033 -0.661251 -0.21603674 -0.5345129 -0.36871278 0.8845622 0.5121697 1.4388711 -1.1805978 1.0791147 -1.0633788 0.5106303 -1.3458891 -0.39333934 -0.25964218 -0.53716785 0.25982442 0.15896624 -0.21783423 0.05013846 -1.1864874 0.20041375 -0.039003685 0.18656172 -0.27630973 1.323443 -0.8121328 1.1136262 0.77527875 0.14964713 0.7600382 0.3638381 0.34852648 -1.2379109 1.1749587 -1.1867986 1.4284312 0.9356631 0.04177499
1184 -0.1367305 -0.44940236 0.4123762 0.8149995 -0.5761549 -0.41239968 -0.40326896 -1.4792813 0.62418276 -0.3714757 0.30014113 -1.0042701 -1.096074 -0.1479306 -0.11386277 0.36342272 0.10187863 -0.7263379 1.25068 0.61016774 -0.41857535 0.12573902 0.8896916 -1.0110992 -1.2640144 0.2938171 -0.35900298 0.48548305 -0.65318996 0.67417765 0.0739927 -0.42691147 0.34673622 0.19842389 0.49855852 -0.6966142 0.083198905 -0.040664434 0.6769655 0.07139175 -0.9437169 0.23773429 0.2976341 -0.9716999 0.8044106 -1.652293 0.5821984 -0.5172172 -0.20745412 -0.68354946 1.2769054 -1.068157 0.6159409 0.14900617 -0.03418659 1.2139548 1.1362163 -0.3034878 0.50140125 0.49769527 -0.54779446 1.3808521 0.15222064 -1.6614581
1604 0.17075337 0.91742563 -1.0151501 0.33248997 0.7127449 -0.34462988 0.37939996 -0.20947936 -0.504209 -0.090171345 0.077811845 -0.46297693 -0.46924257 0.54037684 -0.6468577 -1.0956857 -0.8934282 -0.4096274 0.5247519 1.4997667 0.7319005 -0.59674686 1.023254 0.054143757 -1.6102042 -0.7899391 -0.4827257 -0.97234595 -0.6414673 0.4102609 0.786896 0.48612258 1.0949969 0.05139937 -0.10499359 -0.5311565 0.13846204 -1.0542917 1.0424582 0.642946 -0.33892894 -0.32984772 -0.21412702 -0.8913637 -0.16924079 -0.8908449 1.3119761 0.80735177 -0.68052727 0.3179056 0.45625132 -0.5203919 1.2330122 0.2690479 -0.822484 0.22944316 -0.19309162 0.9093979 -0.6096526 -0.61165845 -1.184918 0.317019 -0.053885013 -0.8577798
1085 -0.43594518 0.30688527 0.019788964 1.4369816 -0.87813914 0.27530095 -0.7320487 -0.50779814 -0.677383 -0.47632617 -0.77994066 -0.9422348 -0.1480967 -0.60295385 -1.0643734 -0.529745 -0.046949446 -0.46812958 0.52455777 0.8527527 0.4873394 -1.4127139 1.4010253 -1.3028064 -0.22946666 0.04525707 -0.07903027 -0.49630818 0.03874673 0.45807797 0.083577916 -0.16396107 0.37902448 -1.3780845 0.19024704 -0.8447787 -0.43588418 -1.2928789 -0.35437098 -0.09061329 -0.99953216 -0.669468 0.58751404 -0.56747246 1.5564352 -0.18542473 0.31001136 0.018172204 -1.7899678 0.34909308 1.28892 -0.17301044 -0.04352023 0.64252573 -1.2255887 0.4529191 -0.03935623 -0.9239069 0.25234845 -0.04811282 -0.98894286 -0.1962327 0.33298132 -0.03173591
949 -0.932116 0.010951392 -0.486857 1.1887723 -0.8211798 0.32941833 0.59011924 -1.3432546 0.08062485 -0.04136679 0.46225995 -0.048637778 -1.0120229 -1.6295825 -0.10415362 -0.8686753 -0.9280825 0.47459877 0.5448462 0.9396959 0.22114812 0.07655531 1.0853968 0.69298106 -1.4432656 -0.5686519 -1.0582606 0.4462669 -0.31661585 -0.45396858 0.8117464 0.89650583 1.4058068 -0.34111255 -0.32785538 0.3164442 -0.3913922 -0.20546237 0.25300664 -0.46860602 0.31560332 -0.06689174 0.6119443 -1.1342772 0.8358963 -0.8891775 0.97750664 0.49308276 -0.9510307 -0.21181883 -0.022062805 -0.88429207 0.24934563 0.24976233 -0.665464 -0.3371693 1.4010959 -0.28407943 0.36203822 0.81217617 -0.9433822 0.8806696 0.246833 -0.8688322
65 -0.15887715 0.59210885 -0.45163536 -0.06602585 -0.83048886 0.3582975 -0.681806 -0.07714619 -0.101609826 -0.86979467 -0.7918744 1.0590512 -0.4101966 -1.4940659 -0.46858478 0.70688915 0.7050808 -0.6636567 -0.08948629 1.1397678 0.8281713 -0.8607954 0.33500287 0.43248183 -0.34379157 0.16328287 -0.6718721 -0.49638963 -1.0029 0.50446063 0.07509839 0.19174847 0.4322602 -1.052012 0.56124854 1.0893979 1.0535501 -0.78094435 1.237737 0.17618753 -0.12668264 0.57225716 -0.70343065 0.12849024 1.4894501 -0.7044692 0.55665296 0.4149696 -1.258795 -0.67289156 0.7786008 -0.78300464 0.13825786 0.35841167 -0.56959677 0.12614073 1.1305343 0.39340228 -1.06869 -0.024901936 -0.24278532 0.14438412 1.2444787 -0.6410312
1612 0.13640203 -0.49925464 -1.051559 -0.29483286 -0.3940761 0.733823 -1.3990927 -1.2028458 0.104071364 -0.40440258 -0.52143174 -0.5674616 -0.7193583 -0.3276041 0.13662563 -0.041301582 -0.8102656 0.51353633 0.82307905 0.7565917 0.6623395 -0.4131649 0.5648294 0.47599152 -0.6603792 0.27449027 0.523379 -1.1424041 -0.78119296 -0.17740478 -0.00039016205 1.1964107 1.6801195 0.008372224 -0.41418177 -0.9053218 0.29038715 -0.23058619 0.84579396 0.17422909 0.3588631 0.24466926 -0.63541037 0.17297424 0.54316294 -1.9432501 0.50061214 -0.034478866 -0.7974812 -0.76780593 0.5845423 -1.1362952 -0.52737266 0.30880117 -1.0506496 -0.0028036328 1.1499351 -0.91832215 -0.428223 0.7213275 -0.16119523 0.9730095 0.81364644 -1.2539682
2212 0.79504687 0.38506415 0.34596187 0.7753988 0.024102563 0.6183457 -0.041514084 -1.5557292 -0.8193109 -0.2677734 0.021193173 -0.78047353 -0.7039576 -0.54461384 -0.37852976 -0.69312286 -1.0615542 0.0901915 1.3127908 -0.038971867 0.17139386 -1.059003 0.10339705 0.032681275 0.028396046 -0.49717483 1.1837684 -0.5206936 -1.9723296 -0.31906253 0.6984111 0.16631733 0.55581963 -1.740155 0.41359195 -0.37071413 0.5118506 -0.6442948 0.10555587 -0.16806102 -0.25787634 0.17689355 -1.4873275 -0.021112632 0.30805215 -1.1566514 0.37888026 1.1152368 -0.5143295 0.15361714 1.162167 -0.9862314 0.5302983 0.40183705 -0.45853752 1.2926093 0.57964605 0.88487697 0.5541028 0.078292035 -0.621257 1.2171942 1.007911 -0.3370098
2608 -0.40473375 0.87863684 0.5685974 -0.19093554 -0.09303885 0.46744278 0.21014689 -0.7297983 -0.25492862 -0.78403455 -0.31624642 -0.3398642 0.24380305 -0.71217376 0.07541106 -0.16425258 -0.81697476 0.17574994 0.5020509 0.9194517 -0.29271168 -1.045253 1.0041833 -0.9246241 -1.3466008 -0.76884145 0.32571712 -0.16274275 -0.28420788 -0.47852606 -0.2953675 0.5028044 -0.04314144 -1.3025191 0.32424045 -0.79529494 0.2063463 -1.3784292 0.917444 -0.37452602 0.53375405 2.2792666 0.8063064 -0.6733918 0.9798836 -1.4796542 1.6311592 0.69602686 -0.25817412 0.5814492 0.1787985 -0.7358964 -0.42323178 -0.22813869 -0.62631696 0.3269368 0.9231052 1.0651373 -0.059639376 0.0010092375 -0.4877353 0.27161747 0.28562617 -0.7335681
1300 -0.16624548 -0.04593743 0.4890187 -0.16532835 0.68954396 0.09274631 -0.96568614 -0.6600302 -0.3870331 0.06723479 0.21335134 0.053514782 -1.3264494 -0.042349514 -0.0066978545 -0.3416744 0.29527634 1.1749046 0.12608723 0.62729955 -0.699366 -1.107349 0.43597284 0.038081653 -0.8465404 -0.089662895 0.05566539 0.11648452 -0.0073475577 0.4108147 0.37579438 0.9880501 0.6271064 -1.3407946 0.88290554 0.39508414 -0.19975287 -1.1909671 1.2417133 0.17751472 -0.046594046 0.22161879 0.17878596 -0.3444128 0.6475167 -0.67423016 -0.04437865 0.00021813593 -0.78406835 0.66126025 1.176537 -0.41920057 0.1471282 1.0182673 -2.23714 -0.3270013 0.94625485 -0.36751175 0.5673864 0.5562274 -1.2555436 1.5920695 0.68392104 -0.688621
1796 0.9407451 0.14385357 -0.9745147 0.6063529 0.20224571 0.32020128 -0.40480283 -0.3785189 0.47663298 -0.694941 0.7508999 0.004877838 -1.48973 0.17695329 -0.42574918 -0.042906407 -0.9059657 0.31461486 -0.18572442 0.9415379 1.21309 -0.17344429 0.28824857 -0.29018193 -1.2077947 -0.16008976 0.70032436 -1.0959258 0.11909878 0.41432714 -0.6431342 0.50092787 0.39093983 -1.8529496 0.3183918 -0.78032064 -0.68067294 -1.0976965 -0.08899137 -0.68682414 0.39140454 1.4138432 0.008687227 -0.77017146 0.8599952 -1.1826837 0.090862714 -0.36861235 -0.61416173 1.0591496 0.97685415 0.09820068 0.58408105 -0.3052656 0.17256771 1.1569985 1.058715 0.3694267 -1.3617808 0.35489085 -1.246932 -0.6037997 -0.2910883 0.15506326
1046 1.116515 0.4477034 0.19299825 0.8157849 0.31495386 0.7467368 -0.74863315 -1.1349525 0.09119588 -0.48823574 -0.9222107 0.3619424 -0.68552816 -0.7217631 -0.16140193 0.79465896 0.8788844 0.10499279 0.4100778 0.95743555 0.8365783 -0.50028026 0.8855579 0.50779754 -1.7251278 0.64249104 -0.10504893 0.0619259 -0.88137716 0.23969026 -0.19611591 0.26390386 1.1587982 -0.65517455 0.45483914 0.20746565 0.37416345 -0.9840325 -0.4425551 -1.557006 -0.32016283 -0.33407405 0.76843804 -0.623485 -0.12993625 -0.81431335 1.72538 0.031378344 0.13790993 -0.36950463 0.37235585 -0.34944913 0.5294627 -0.39229143 -0.36079618 0.101211034 1.8630573 0.32863173 0.64214534 0.20897923 -0.018181335 -0.2859889 0.85202205 -0.22964711
744 -0.030259283 0.3889074 -0.7746413 0.41967982 -0.9177225 0.14476988 -0.6959407 -0.4638944 -1.2096806 -0.40863425 -0.29166186 -0.75527376 -0.33869672 0.2215887 0.49426025 0.22722991 -1.0926527 0.14418337 0.23221359 1.4451439 1.1295031 -0.5414244 0.8577596 0.6453596 -0.92610097 0.84818316 -0.48222065 -0.8544069 -0.064899676 1.1591648 0.5640578 -0.1364843 1.4291915 -0.7872315 0.63507974 0.5304877 0.03691264 -0.6680606 0.87301105 -0.31877843 -1.1533303 0.32020763 -0.017317908 0.18470678 1.0541979 -1.4103413 -0.47612843 -0.17811906 -1.4390526 0.19695847 0.6886701 -1.0410025 0.011790891 0.8350856 -1.0319203 0.41573477 1.0814078 -0.7515943 0.5382555 -0.3295187 -0.7023219 -0.45264262 -0.29178244 -0.10124348
1158 0.7822292 1.3640575 0.61897194 0.20347683 0.38923424 0.5262373 -1.161727 -1.0494528 0.3600637 -0.5953686 -0.036852427 -0.5649739 -0.09349411 -0.6695174 3.7655213e-05 -0.53161234 -1.0477455 -0.32780677 -0.099332854 0.6849772 1.2425683 -1.0213757 1.5809224 -0.08217046 -0.3664053 -0.3908302 -0.7269446 -0.23739 -0.20357402 0.24942736 0.23564392 -0.043702893 0.40650246 -0.64285547 1.0803883 -0.051709104 0.185851 -1.2882525 -0.17015958 0.044574015 -0.5011324 -0.15430509 -0.20834488 -0.4439353 1.0793735 -0.73124737 1.6485082 -0.9193238 -1.2660502 0.24376622 1.1873406 -0.6827188 -0.3167602 -0.32230842 0.45122927 -1.0221248 0.6489819 0.12865354 -0.6044518 -0.51214796 0.5626013 0.381254 0.95250845 -0.048375893
219 0.06304408 1.1112707 0.39026973 0.45810607 0.69441575 -0.4107276 -0.30148923 -1.1155612 -0.14550234 0.15290987 0.04650415 -0.7776698 -0.6987482 -0.025205713 -1.1866812 -0.5659811 -0.7784342 1.3772925 0.5798673 1.0287222 -0.011858798 -1.7613374 1.1388285 0.19754702 -0.5769265 0.6501781 -1.2023268 -0.4611254 -0.049231645 -0.23785856 0.4747456 -0.19296739 0.04413492 -0.9109683 0.38151467 -0.876801 0.54916054 -0.73668104 0.101587415 -0.026215302 -1.2433527 1.0346036 -0.79169834 -0.20459883 0.41969 -0.6512896 0.45334828 0.23209037 -0.8797351 -0.51541257 -0.24905865 -0.80153507 0.9816668 0.71056163 -1.1441336 0.18545222 -0.07671322 0.12934469 -1.4721946 0.15198147 -0.6325058 0.078234084 -0.35395762 0.43906862
2245 0.18329349 0.03535147 0.033700343 1.1517849 0.33082694 -0.38645542 -0.76783043 -0.3865649 -0.0042991033 -0.5282172 0.02900898 -0.77498055 -0.080346264 0.38803053 0.2569637 -0.30837607 -0.2861685 0.38241148 -0.6679451 1.8519955 1.2831326 0.0031137634 -0.11333814 -0.043899152 -0.9511165 0.6034748 -1.2735856 -0.51778287 -1.1172049 1.2861499 -0.8152548 1.0419056 0.7002633 -0.86597043 0.21712396 -0.5671379 0.015427545 -1.054901 -0.08926958 0.30176446 -0.76518035 0.8120336 0.5394034 -0.60098 -0.29889566 -0.6296592 1.5191185 -0.1625942 -1.3791239 0.20806663 0.57306945 -0.5673577 0.72418386 -0.4444199 -0.80264336 0.26398826 1.0729921 -0.054886635 0.037264105 0.85938406 -0.23993087 -0.2429037 -0.15853699 -0.8822162
1239 -1.0212321 1.1622486 -0.93531466 1.2902449 -0.48276803 -0.39021453 -0.64109886 -0.9847403 -0.041276023 -0.3828091 1.3603035 -0.39936703 -0.19289126 -0.09522932 -1.2020258 -0.4130367 0.015366435 0.674297 0.84749436 0.25233158 0.37334937 -0.68921995 0.15566161 0.5067094 -0.9565868 0.12285687 -0.9285638 -0.21825647 -0.6422559 0.6813436 -0.08266955 1.0937083 1.9267405 -0.3761742 0.7179571 -0.44619703 -0.26386496 -0.55545175 0.207342 1.3705978 -0.33798283 -0.24316815 0.1645006 0.17271903 0.9758899 -1.1642994 1.1707116 0.19727822 -0.72883993 0.65828955 0.43225318 -0.8702487 0.13826904 0.13114353 -0.6767646 0.55729926 0.03788428 -0.43430853 -0.44607604 -0.27277115 -0.1663541 0.89399785 0.18511103 0.73230183
520 0.25848687 -0.013947953 -0.45748627 0.50770074 -0.09060176 0.7758186 -1.2017988 -0.81522626 0.8509783 -1.1278636 -0.61693066 -0.8068361 -1.7056047 0.25959867 -0.5758885 -0.68148494 -0.39912552 0.27492994 -0.21795359 0.5840158 0.44153085 0.36534372 0.41503698 0.5052196 -1.180759 -0.27514678 -0.21423689 -0.2580929 -0.35954455 -0.13437851 -0.2750758 -0.6844675 1.6083786 -0.8133066 0.7736061 0.7958713 -0.08525835 -0.509576 1.0440059 -0.11137838 -0.32565343 1.5031043 0.3676222 -0.2779815 0.5571576 0.11904293 1.1580011 0.39354026 -1.4383157 -0.116502374 0.3580714 -0.0944912 0.76050365 0.78318834 0.09159297 0.29219168 0.9801624 -1.0070635 -0.3302966 0.5846639 -0.6747303 0.7987738 0.81048787 0.7471038
2615 0.46445453 0.58422095 0.239845 1.2486105 0.1876691 0.35500747 -1.377405 -0.49668857 0.1960986 0.5601587 -1.0514717 0.7057509 -1.3283713 -0.095340244 -1.4193554 0.44681683 -1.2390465 0.048324518 0.6539886 1.2012463 1.1854105 -0.21304198 0.28435153 0.094807655 -0.09169192 -1.0194447 -0.5754249 -0.2991749 -0.67633533 0.10229444 -0.44588184 -0.53472495 0.8962519 -0.89638805 0.531321 -0.8874374 0.57333773 -0.3234757 0.17354293 0.2267461 -1.2593741 -0.7265261 -0.26054257 -0.5512543 0.114078864 -1.050141 0.9553328 -0.054532085 -0.93451965 0.2595161 0.0021940018 -1.5286714 0.4029039 0.2693078 -0.94600475 0.55220103 -0.1303285 -0.08784112 -0.90055764 0.352218 -0.26381084 0.6589159 0.17623918 -1.1705616
160 -1.1369752 0.03593203 -0.31531453 0.5031614 0.11066687 -0.19799623 0.057524156 -1.6748744 -0.39252278 -1.05117 0.46459478 0.23745382 0.00054553093 -0.08961994 -0.9050984 0.48293108 -0.542688 -0.29649124 0.43247 0.8036492 -0.124722384 -0.65225685 1.1208216 -0.78719693 -0.77493626 0.17648886 -0.3141634 0.7001355 0.03816134 -0.543254 0.74406034 0.48527932 1.1749706 -0.4025305 0.23797292 -0.08763855 0.5505005 -0.4337697 0.14406006 0.09331329 -0.12821807 1.1661675 0.5227006 -0.8115698 1.421373 -1.4970363 0.06532406 -1.0987898 -0.86336726 -0.102294736 1.0576924 -1.5137212 0.4127546 0.6690737 -0.10804015 0.026788482 0.58549666 -0.79460907 -1.0657881 0.7741198 -0.6586847 -0.14172903 0.069547735 -0.22430885
326 -0.12706691 1.9283729 0.010426549 0.036479596 -1.182627 -0.14617917 0.5842997 -1.094408 1.0949299 -0.78847986 0.34290886 -0.5620341 -0.4841929 -0.46186817 0.40718085 -0.29396024 -0.1550513 -0.32075056 -0.012598332 0.37697676 0.48768833 -0.79646015 -0.29027143 0.41102952 -0.5971811 0.18873784 -0.8474177 0.31008467 -1.1577084 0.30143532 0.5729846 -0.00052285875 2.2072272 -0.35331076 0.22418027 0.0779709 0.473393 -1.2214124 0.359272 -0.47231716 -1.1604749 0.83306956 -0.2849531 -0.36861008 0.31747678 -0.38720152 0.5376415 -0.0771919 -1.1496373 0.46983325 0.112164006 -0.3804104 0.7322012 0.6059821 -0.51751083 -0.2521898 0.16874656 0.39762387 0.3560448 -0.14525495 -1.1836005 0.040468983 0.7766528 -0.70503926
2500 -0.3425907 0.76540923 0.2423214 -0.06538623 0.24406692 0.6464737 -0.7451367 0.013745191 -0.5866164 -0.5749014 -0.43758345 -0.9984736 -0.92582816 -0.6506315 0.26369047 -0.9187572 0.29889637 0.43071863 1.1722383 1.0069029 0.17973463 -1.1022497 0.86165017 -0.757524 -0.86972797 -0.24551101 0.054002732 -0.4842637 -1.0622809 -0.033770256 0.32557467 -0.42266124 0.58106923 -1.5561813 0.107279055 0.18403345 0.31743175 0.15937811 -0.8443424 -0.4606727 -0.51499647 0.7812496 0.42138395 -0.01692905 0.883457 -0.833427 2.0290623 -0.63160896 -0.6966169 -0.2640073 -0.02351569 -0.8034055 0.86181617 -0.22473186 -1.109319 0.58420646 -0.07358645 -0.7392971 -0.13816303 0.34309176 -0.5017737 0.3765555 0.6138584 0.72387606
1602 -0.5104451 1.1406909 0.22254154 -0.36062536 0.5698776 0.19504678 -0.45958608 -0.31113327 -0.26457122 -0.87005687 -0.4269819 -1.016948 -0.7976512 -0.26108393 0.036995303 -1.0789849 0.6080482 0.37266862 0.84196764 1.02461 0.07171705 -0.82197905 0.775237 -0.68225634 -0.54429007 -0.36613667 0.07008269 0.09502068 -1.1658201 -0.013863692 0.4276912 -0.28354144 0.7821148 -1.6533961 0.2642222 0.41879755 -0.035688013 -0.06558272 -0.79830277 -0.40612993 -0.28938878 0.69608325 0.13049555 0.35041925 1.1692585 -1.300843 1.9267514 -0.6549117 -0.66816026 -0.16243158 0.5086224 -1.0345134 0.81791836 -0.4017853 -1.2531823 0.32757407 -0.1478553 -0.3654298 -0.44342566 0.29352632 -0.53334934 0.13561103 0.3781773 0.53248394
112 1.2301179 0.39455092 -0.8653217 0.5102811 -0.7982067 -0.38201314 -1.0303359 -2.0269177 -0.124566026 0.92827106 -0.44424278 0.7066565 -0.63022393 -0.54164606 -0.14193997 -0.0361813 0.042302165 -0.50322944 -0.76694214 1.1359884 0.47940528 -0.822374 0.17333986 -0.36686555 -0.6633557 -0.20711853 0.08103744 -0.33632332 -0.27541494 -0.9819076 0.24385975 0.8498104 1.1006594 -1.1276686 0.03607422 -0.10645326 0.27350017 -0.5746861 0.09868724 -1.0093694 0.29219434 0.48501757 -0.59818435 0.032728545 0.73932713 -0.5881858 0.6559922 0.17394464 -1.5232047 0.1970867 -0.112660736 -0.37083986 0.31203 0.16810247 -0.096242785 1.2005187 0.15220104 0.45950657 0.051895984 0.22845945 -0.202932 0.23560221 -0.31691346 -0.27298152
984 -1.0143145 0.9218586 0.4693611 -0.005881542 -0.6074935 0.08056695 0.30336267 -0.9622234 0.32421252 -0.620136 -0.08848912 0.70815414 -0.9468826 -0.13327345 0.034245353 -0.36021802 -1.1817218 -0.19539644 -0.4939444 1.4438446 0.19268134 -0.7739784 0.7476875 -0.07457649 -0.9520374 0.47067845 0.123568855 -0.0614324 -0.8563204 -0.026629053 0.52656513 0.5536356 0.4934759 -1.0888591 0.34848866 0.7295188 0.31152615 -1.1897144 0.33053654 -0.18952008 0.08812415 0.436286 -0.7886706 -0.5755708 -0.73853314 -0.7075742 0.14270556 0.2453984 0.12469269 -0.038909364 0.52258104 -0.7169998 0.45026785 -0.21306843 -1.3777722 1.3306044 0.91653746 0.69211984 0.062429734 0.4935198 -0.5771071 0.5501721 1.2661866 -1.0248064
535 1.1348431 0.41591647 -0.6225561 -0.30143273 0.5793851 0.44831377 -1.5058194 -0.6279945 -0.32924145 -0.27580363 -0.046745382 0.9551591 -0.7915936 -0.664128 -0.18153736 -0.36519375 -0.8089975 1.569116 1.1171707 0.8487207 -0.62877554 -0.19577245 0.54237276 -0.69413567 -1.0673875 -0.37452123 0.020381982 -0.33097097 -0.8936668 -0.18323688 0.64757127 0.75302875 0.98164296 -0.5298948 0.8766573 -0.8707676 0.4776285 -0.20003413 0.08033093 -0.790293 -0.9167143 1.6205897 -0.33147275 -1.196472 0.6434634 -0.9926876 0.5120016 0.056145273 0.44263622 -0.14577748 0.21399605 -1.0272621 -0.16240872 0.22251578 -0.55874336 1.1842879 1.0035193 -0.42813987 0.24190661 -0.32925072 -0.18876176 0.609551 0.26066625 -0.19826993
1065 0.3637627 0.6186035 0.2948328 1.5962733 -0.667432 0.3683933 -0.6589782 -1.3703886 0.12167164 -0.47904077 0.115778 0.27415067 -0.3235817 -0.81548184 -0.52608407 -0.08369477 -0.41617686 0.9397876 0.031108728 0.8697971 -0.064595364 -0.29521328 1.5863947 0.0049135275 -0.47459573 0.22573371 0.65085477 -1.2266074 0.64618534 -0.25550893 0.20512778 -0.06396534 1.0467443 -1.024186 0.628575 -0.55271816 -0.98647016 0.05998981 -0.50374854 0.069870226 -0.013094206 0.35983533 0.3152767 -1.149073 0.9994882 -1.4664428 1.2787429 0.18951778 -1.1693763 0.27293044 -1.2118733 -0.48378536 1.1123412 0.53470534 0.6467798 1.0948086 0.6629732 -0.06582218 0.07325232 0.5839383 -0.8859192 0.68126535 -0.40197298 -0.22160205
1855 0.20012155 0.019646155 -0.20963053 -0.061314497 -0.9380318 0.5467866 -0.599949 -1.4530027 -0.60235304 -0.35956687 -0.86497295 0.33088204 -0.5457035 -1.2174892 -0.44150427 -0.6318156 0.8995947 0.82546127 -0.31637052 0.5693711 0.07748793 -0.5091374 1.3936709 -0.4436366 -1.0122404 0.4730989 -0.34805262 -0.25970632 -0.017529875 -0.25301066 -0.14921893 -0.37081787 0.567777 -0.47698578 1.5106422 0.12644908 0.65505457 -0.30185786 0.21453695 0.6338307 -0.07670399 -0.50215226 0.3722465 0.19641303 0.6129437 -0.681251 1.084348 -1.1298407 -0.04112439 0.6468067 0.52689946 -0.9052219 0.47123936 -0.32197586 -1.1202316 1.6586602 1.5287147 -0.48616517 0.14991191 0.109684855 -0.11722973 0.10964586 0.4081609 -0.07194985
557 -0.064755924 -0.14136654 0.46400872 0.59968174 0.7980797 -0.78765607 -0.643594 -0.3137353 -0.36014518 -0.47800383 0.63053733 -0.018709727 -0.062227357 -0.91402775 0.17286405 0.56304413 -0.1987886 0.60030395 0.43624353 1.8249412 0.12117596 -0.12579301 0.24822764 -0.0033377118 -1.2851534 -0.8363662 -0.21861656 -0.6141486 -0.17014116 0.045062076 0.83991003 -0.539703 0.4129137 -0.5219392 0.38569954 -0.09793105 0.11105068 -0.34751666 -0.48920733 0.13934062 -0.8760023 0.845131 0.18643658 -0.610939 0.39153382 -0.53378105 -0.016633997 -0.49770555 -0.7454664 1.3354791 0.7214488 -1.5364367 1.2249051 1.1700026 -1.6461091 1.1715579 0.60212904 -0.3294048 -0.7512714 -0.5662821 -0.25193343 0.4387711 0.6768808 0.21117453
776 -0.8400597 -0.19657315 -0.26102477 0.10026726 0.017484933 -0.05582355 -0.16253336 -1.5991855 -0.33928245 -1.2628533 0.41790718 -0.08972171 -0.09410498 0.17608535 -0.8939904 0.41614315 -0.48350716 -0.43466678 0.6162938 0.64286584 -0.13227238 -0.47586867 1.0057975 -0.79444546 -0.77890915 0.14099793 -0.42928594 0.7530125 -0.24957164 -0.5835206 0.78959376 0.2973075 1.4111024 -0.37300673 0.44753292 -0.07700692 0.46277475 -0.33587754 0.04282956 0.26327077 -0.17805354 1.2396941 0.28756458 -0.69624215 1.5058451 -1.4591322 0.08865797 -1.1915861 -1.0575143 -0.05237692 0.9633252 -1.2750003 0.5237748 0.34718096 -0.16405888 -0.026255218 0.43325594 -0.8903595 -1.0263377 0.65327984 -0.70695287 -0.21430106 0.36117354 -0.083461896
1302 0.5122769 0.63472205 -0.5734802 -0.29784155 0.3647738 -0.44196692 0.80730015 -1.4786258 -0.39121294 -0.907777 -0.7355305 0.5716288 -0.96985024 0.17867336 -0.6539736 0.37000692 -0.3940017 0.47460547 0.05406925 -0.03798419 1.3496646 -1.0773152 0.060257453 0.6536793 -1.0879022 0.8205806 0.51521134 -1.0202533 0.12064618 0.59616 0.985762 0.47167075 1.1445773 -1.2453464 1.079219 -0.58691657 0.5211225 -1.0272512 -0.048684232 -0.67645043 -0.1981285 0.110588446 0.6988435 -0.6671022 0.77761096 -1.3613607 -0.18130879 0.28295156 0.13801566 0.10378896 0.37466604 -0.543474 -0.08889777 0.17328793 -1.0788532 0.46384034 -0.13946258 -0.58408666 -0.5383647 0.29071945 -0.56983 1.1872537 0.51261985 -0.16497134
249 0.7124074 0.664317 -0.0372404 -0.26342234 -0.12478153 0.11611401 -1.5949085 -0.8520036 -0.07469227 -0.0109615745 0.21388383 0.08725573 -0.40673956 0.3980091 -0.9646172 0.609733 0.23780924 0.80559057 0.29280725 0.8697024 1.5129923 -0.32870683 -0.04629187 -0.9616371 -0.1965193 0.5536528 -1.1533935 -0.31007695 -0.7126772 0.3831606 0.93616503 0.3282896 1.1972146 -1.3655452 -0.44026226 -0.32062384 -0.63933414 -0.97206944 0.8132924 -0.4874344 -0.0803978 0.17404835 -0.20145787 -1.5091263 0.73308796 -0.80215615 0.15584292 -0.14702971 -0.3008559 0.9388992 0.7414537 0.61004144 -0.33977315 0.039265793 -0.46888444 0.45519522 0.98820716 0.13744384 -0.9662219 -0.09309445 -1.2020444 0.2683727 0.5018121 -0.29218844
530 -0.9828402 0.942355 0.045228776 0.28151533 -0.057726357 -0.092251495 0.1346981 -1.0832127 0.29757813 0.41477805 -0.5657244 -1.0767723 -1.563726 -0.3570029 -0.68687695 -0.83519435 -0.15705447 -0.9909355 0.5066801 1.3277273 1.0423733 -0.41349605 0.8900168 0.8173858 -0.14850728 0.5855096 0.009965398 -0.99010736 -0.50891256 -0.18992496 0.4087739 -0.020089637 1.4308622 -0.9010284 -0.4343641 -1.0980055 0.54915345 -0.2036486 0.6086796 0.22258328 0.12054619 0.11653442 -0.5047969 -0.45074448 0.20969339 -0.22746812 1.2188032 -0.14987195 -0.85151905 -0.7624532 1.2706153 -0.9229974 0.01826214 -0.6614008 -0.84389836 0.02387038 0.70476884 -0.8613212 0.052905608 -0.49410614 -0.24829216 0.5217533 0.106212676 0.18384875
1416 0.35367158 0.5732111 0.50693905 0.5435515 0.024372503 0.50107485 0.14639732 0.044791322 0.6646406 -0.68677676 0.08148768 -0.5853727 -0.17468725 -0.11453227 -0.045964263 -0.19470668 0.3726647 0.8367364 0.93879575 0.64422953 0.5806447 0.106494434 0.108856715 0.06193494 -1.0633097 -0.18024392 -0.49072555 0.28286567 -0.70203644 -0.49520215 -0.20865458 -0.46051368 0.7533632 -0.29422942 0.69054973 -0.4076164 0.9939204 -1.6594095 -0.031941447 -0.6479493 0.9223288 0.25280437 -0.7249645 -1.005736 1.2864189 -0.89626116 0.09708962 0.12432859 -1.0731908 1.2146491 0.9060049 -0.76685077 -0.03949697 0.2896509 -1.466543 0.8240154 1.4012519 0.31860292 -0.9150256 -0.36116245 -1.2710294 0.5528839 1.1959827 -0.3623103
2783 1.1905288 0.80057025 -0.543843 0.6205104 -0.47277838 0.8186997 -0.9070349 -0.20109741 -1.2530755 0.17857698 -0.28706697 -0.1843222 -0.42591968 0.119518325 -0.0877495 -1.0125438 -0.6953456 -0.1690792 0.90522647 0.65990967 0.45294824 -0.16347389 0.64174926 -1.0477034 -1.490848 1.2746154 -0.42798534 -0.020540835 -0.8287306 0.31124377 -0.48290765 -0.52620375 1.4151187 -0.27606136 -0.27730313 0.64175284 0.6158648 -1.3511089 0.1678229 0.3531577 -0.7530874 0.74467176 -0.080819175 -0.8753589 0.96466875 -0.44426823 0.44326773 -0.067163 -0.79241276 0.34860438 1.3232706 -0.14038824 0.8193402 0.6438035 -0.2601147 0.083916284 -0.007156785 -0.35643753 -0.23598626 0.67608833 -1.0227011 0.21590914 -0.01523489 -0.08017392
911 -0.21535048 0.12727848 -0.44072577 0.8657158 -0.2400888 -0.6984003 0.5844478 -0.569097 0.16595635 -0.9212124 -0.6416632 0.052848957 -0.3322841 -1.4169888 0.032684952 -0.06805822 -0.43317086 0.77591693 0.39310876 1.493997 0.3680597 -0.42452455 0.49350548 0.8853629 -0.7790062 0.02135479 0.45327994 0.08726945 -0.10762652 0.26389924 0.4486378 0.33333293 1.3630674 -1.3673261 0.9803529 0.76834244 0.18133175 -0.7575833 0.31248698 0.031573717 -0.23694749 1.5721983 0.1940811 0.018444762 0.93027735 -0.9719643 1.1374171 -0.6755166 -0.34071764 0.22722055 1.3848212 -0.39221987 0.099335074 0.4390849 -0.8479116 -1.0739113 0.3095022 0.6020574 0.39335817 0.18094267 -0.21176451 -0.10817551 0.78888345 0.10179883
2542 -0.04801014 1.2153535 -0.09620667 0.27122167 -0.07664507 0.8034396 -0.96998495 -0.6092149 -0.22402163 0.63712674 0.68898165 -0.014004707 -1.1447783 -0.43597752 -0.49243262 -0.53972644 0.2898646 -0.58607066 0.32831636 1.2514588 0.73580503 -0.8397368 0.9987895 -1.0309205 -0.8454347 1.1277486 -0.2747778 -1.4346209 -0.19775338 0.06471947 0.23999517 0.38391367 0.29086992 -0.19128224 0.19040164 0.18624994 0.80180615 -0.6102357 -0.13617703 -0.33329698 -0.7474963 0.97836107 -0.7310293 0.30875656 0.43815747 -0.98375523 1.15021 -0.35930413 -0.42779437 0.50840074 1.3037009 -0.6366295 -0.04956938 -0.4421746 -1.2875898 1.2008598 0.93405896 0.27474347 0.47019228 -0.8431426 0.96569526 -0.34998655 -0.3005135 -0.69399995
75 0.90454936 -0.005124879 0.33382022 -0.32013914 0.05392122 0.19249913 -0.77599317 -0.057276536 -0.7239509 0.06625796 -0.6188407 -0.4679369 -1.0402676 -0.26018664 -0.36548802 -0.5639439 -1.0018587 0.86195403 0.22142224 0.5481362 0.16236976 0.47082785 0.90527344 -1.1951529 -0.65414447 -0.42123783 -0.40877625 0.12485102 -0.4292042 0.56259584 -0.22734809 -0.5459472 1.4687207 -0.96966064 -0.2959041 -0.67385876 0.12566869 -0.5806624 0.5434611 -0.16071224 0.05870714 -0.7992445 0.37043852 -1.4686958 1.1976392 -0.31948325 -0.13061877 0.98649746 -1.3274888 -0.24710885 0.64400244 -1.2076997 0.39782745 -0.59524685 -0.8310907 1.3617672 1.3789043 -0.7933818 0.38931602 0.2331434 -0.95650727 1.1061963 0.6788778 -0.45876834
1292 0.7370705 0.54110557 0.5695078 1.3226591 -0.36834776 -0.004710347 0.4293903 -1.0897244 0.084791005 -0.26077598 -0.24727193 -0.1387563 -1.0706092 -0.99680954 -0.40284097 0.31512028 -0.023811206 0.54736555 -0.35465908 1.1221976 -0.18693066 0.8513959 1.1232541 0.305344 -0.8985128 -0.00068162696 -0.13260603 -0.41438395 -0.32347214 0.73019534 -0.13292024 0.64623684 0.7145107 -1.3857049 0.3065874 -0.4862227 0.56285095 -0.16667296 -0.6289635 -0.3728161 0.23664142 0.28361136 -0.912086 0.29503548 -0.08953299 -0.80113584 1.3409674 -0.38476038 -1.1128074 1.2906431 1.4102184 -0.89323384 0.14863878 -0.08288292 0.9699281 0.92286754 1.3784072 -0.17207548 -0.41882685 0.34850034 0.39365852 0.98532104 -0.43639508 0.21390466
2637 -0.54790705 0.45176357 0.8720523 1.3780488 0.4680009 -0.15394641 0.3301412 -1.4155996 0.7236675 -0.72688437 -0.98775995 -0.022387661 -0.66152465 -1.1203088 -0.48950586 0.27061778 0.22322603 0.1728389 -0.04260176 1.0896447 1.1728704 0.03508903 0.4153347 -0.33690673 -0.026689198 0.6518686 -0.5721782 0.023465792 0.17248204 -0.60574305 -0.3526 0.5628644 1.072899 -1.688552 1.109125 -0.96558386 -0.8988538 -0.086407594 1.141721 0.8664312 -1.250598 -0.4286176 0.7799671 -0.43802214 0.44042188 -1.3094385 0.35937962 0.9187274 -0.7612481 -0.3128219 0.49393362 -0.4778786 0.70677555 -0.04993953 0.20946012 1.0772519 1.0081602 -0.3315397 -0.56293464 -0.086806305 -1.0529739 -0.0055376254 0.53570557 -0.4886166
726 1.329587 0.9160562 -0.015422701 0.26303944 -0.5799065 0.080726236 -0.514057 -1.0481808 -0.27686548 0.39360574 0.29718873 -0.97335577 -0.7969004 0.07814161 -0.3406705 -0.7022569 -0.09981445 1.0180544 -0.17482099 -0.008309871 0.40123516 -0.72360444 1.694695 -0.036689207 -0.88299763 0.109472334 1.1422942 -0.58805096 -0.5282353 0.06471278 -1.0110179 0.58315367 1.1755139 -0.6792422 0.5946909 -0.2801004 0.18018425 -0.3580624 0.23043852 0.39992043 0.033659525 1.6765703 -0.13890003 -1.2859554 0.2676393 0.33005443 -0.29497376 0.5449796 -0.2301943 0.9106767 0.63487196 -1.3140464 1.4218491 0.125319 -0.22261246 1.1904906 0.72041327 -0.7860857 0.04419394 -0.16391538 -0.10583702 1.1506705 0.6431187 0.33183122
260 -0.33695844 -0.1308338 0.13336639 0.4129688 -1.0660508 1.150989 -0.3916417 -1.5478631 -0.48256013 -0.56190443 -0.83536625 -0.20046835 -0.8592829 0.5051177 -0.5557044 -0.45726335 0.808578 -0.5970832 -0.36896345 0.31775182 -0.0028645808 -0.95342517 0.93376625 -0.6255102 -1.0361924 -0.15652794 -0.13740107 -0.39138153 -0.55671954 1.0343424 0.47963643 0.26651996 0.86009264 -1.1908699 0.51138556 -0.17139587 -1.1919667 -0.9998135 -0.39272144 -0.2861429 -0.17363551 0.3368974 0.7049581 -0.14548843 1.6623324 -0.23207448 0.8604867 -0.01939103 -0.43127722 0.2966504 0.94070727 -1.1788322 0.16148527 0.6382465 0.22316143 -0.2134521 1.3380499 0.6714734 -1.1912198 0.6890638 -0.8071843 1.0999571 -0.31847534 -0.88393545
851 0.7550832 0.99957573 -0.7880153 -0.12770887 0.012530251 0.57721764 0.3127666 -0.82614374 1.041054 -0.20819116 0.09231522 0.3568726 -1.339098 -1.336252 -0.67959785 0.2768339 -0.48823494 0.3316592 0.124621905 1.238165 0.4931627 0.637082 -0.5248895 0.27608663 -0.8849611 0.3803389 0.0012605094 -0.4949021 0.5712406 0.622917 -0.31540477 -0.35380372 0.8974692 -0.51664126 -0.1329377 -1.6881361 -0.5706889 -1.3418512 -0.088513546 -0.15131077 -1.094233 0.43725044 -0.7021356 -0.024299802 1.1993167 -0.62131506 0.2035272 -0.7696735 -0.8523104 0.6085746 -0.3166194 -0.5487245 -0.017201483 0.32534453 -0.11241755 0.9443885 0.6412833 0.078421906 -1.4937866 0.5920844 -0.50001246 1.0903237 0.86585593 -0.5305858
1654 0.71878755 0.57651377 0.42104983 0.5509749 0.4509487 0.51060396 -0.83333325 -1.850418 0.8124456 -0.5195053 0.15770741 0.20973265 -0.2115526 -0.3306931 -0.0004046854 -0.68716794 -0.5997689 -0.7303345 0.09195421 0.6745601 0.35902983 -0.30986077 0.92580336 0.18196306 -1.4800329 0.20273063 0.27633604 0.083020255 0.37526798 -0.35235438 -0.673952 1.2918601 0.4468937 -0.9521103 0.87006694 -0.2717312 0.08711791 0.09901548 -0.7308084 0.7789417 -0.76701856 0.0017429225 0.803167 0.043855228 1.5640311 0.040725 0.5412862 -1.3704549 -0.3769653 -0.50505364 0.94643414 0.10006918 1.4313363 0.47033858 -1.1216072 0.8554399 1.1830703 -0.7176652 -0.24384233 0.73895663 -0.4949681 0.7657796 0.25825918 -0.37516075
1424 0.25529152 0.13765065 -0.5232686 0.32758558 -1.0406934 0.8146731 -0.40511242 -1.0844343 -0.37954134 -0.55990595 -0.5315392 0.15075491 -1.2181362 -0.31171772 -0.8830236 0.7915926 -0.68264467 0.12934999 0.65846336 0.039474975 0.2226549 -0.9469756 0.65678495 0.49409932 -0.05324217 0.39723694 -1.2022902 -0.38762504 -0.5429331 -0.668811 0.8312502 0.9933466 1.2563181 -0.23454285 0.31160757 -0.23121502 -0.25260815 0.6535117 -0.19330086 0.10373989 -0.3901058 1.0317744 0.22568506 -0.02375551 -0.32135308 -0.72128725 1.2396096 -0.39875782 -0.9952345 0.38269857 1.3054938 -1.7317044 0.8045915 0.20652065 -0.9311957 -0.11381241 0.3675773 0.65093744 -0.8034402 -0.5740248 -0.07091976 1.1326598 0.34843346 -0.94853806
2610 0.9297404 0.6004707 -0.6835157 -0.34370497 -0.89949626 -0.34096774 -0.5863123 -1.2404599 -0.90124804 -0.21085817 0.19082426 0.36143988 -1.3496397 -0.9443329 -1.157685 -0.2038725 -0.65182 0.2041739 0.9118079 0.16126251 0.37079787 0.3185709 1.1218665 -0.23333278 -1.001437 -0.99928087 -0.6594207 -0.34806776 -0.032872308 -0.31794226 0.5564066 -0.8121049 1.0430282 -0.6141339 0.02113201 0.16107689 -0.5274983 0.2405378 -0.7321385 -0.12303844 -0.39032787 0.9507002 -0.11435372 -1.0074949 0.7056895 -1.1631469 0.019718451 0.30767095 -0.15746106 -0.08159393 1.242474 -0.7912989 -0.71577924 -0.09707398 -0.23584399 1.4048214 0.3126855 0.24975339 -0.7943893 -0.76019996 -0.7672353 0.92093223 -0.5959657 -0.5544263
63 0.22769903 0.93916816 0.5784917 0.07918173 0.84620744 -0.34655738 0.28512594 -0.10525212 -0.5384983 -1.0964096 -0.019505963 0.17136385 0.36888131 -0.54275215 -0.53769577 -0.4667842 0.036985222 0.13281678 1.1547996 0.8425563 0.26107898 -1.2842715 -0.15035485 -0.8248347 -1.4068162 1.1690266 -0.9992127 -1.3192164 -0.10278673 0.7534308 0.48430037 0.2575811 1.4757935 -0.75121236 0.9779039 -0.29837003 -0.49478695 -1.1901821 -0.49663353 0.5574805 -0.5215022 0.7706135 0.53443533 0.38830706 0.04257146 -1.1358994 0.37293828 0.6364885 -1.1194319 -0.27796474 0.37180203 -1.0574534 1.1105785 -0.5215461 -0.60146207 1.2184204 0.022096124 -0.86022776 -0.5413956 -0.3289254 0.36317956 -0.1038191 0.45407495 -0.5907066
654 0.7673044 0.18247174 -0.28314826 -0.38709483 -0.039547544 1.0502716 -0.9954009 -1.5288007 -0.38409522 -0.94941926 1.0045388 0.30502388 -0.5069235 -0.19121489 -1.2111641 0.3459755 -0.93441695 0.15035145 0.07548413 0.49505556 0.16208042 0.4594169 1.0798298 -0.4677823 -0.111511126 -0.51118463 -0.41129243 -0.7367353 -0.92811036 0.9713868 -0.35737622 -0.3422011 1.38865 -1.0525291 1.2557813 -1.2832739 0.4467596 -0.7976507 -0.36072585 0.1678178 -0.09099125 -0.26941615 -0.06132025 0.3978389 0.7428754 -1.2725675 -0.17291681 -0.41689914 -0.9008599 0.33446547 0.36895856 -1.2149417 1.0787438 1.2495439 0.0014361122 1.2395785 0.23469724 -1.0534728 -0.4005204 0.07505406 -0.47652602 0.122623704 0.022192739 -0.04780817
2568 0.85621566 0.23657915 0.84349525 0.67982036 -1.0657141 -0.14527485 -0.22450459 -1.556445 0.3953395 -0.18309239 -1.1139383 -0.13442062 -0.934855 -0.33630273 -0.031575743 -0.50717276 -0.54979354 -0.14238471 0.29548594 1.0618728 1.5444916 -0.21492866 0.50344825 0.3975144 -0.9610225 0.2188288 -0.28035024 -0.5683464 0.05475392 1.0712206 -0.22419494 -0.43435162 0.35382748 -1.0720645 -0.32270175 0.13055661 0.25330457 -0.7943133 -0.64784 -0.048425898 -0.15368079 0.5105638 0.797562 -0.8025137 0.6478299 -0.054347627 1.0720563 -1.0865513 -0.2483706 0.9959011 -0.08607469 -0.39569768 0.8935317 1.0528448 -0.5684088 -0.14792664 0.96066165 -0.97583544 -0.82676685 -0.92188966 -0.7667115 -0.30904517 0.80861413 -0.19944695
2396 0.13165645 0.18256661 0.5857074 0.34920433 0.4053813 -0.3751053 -0.45684302 -1.2812533 1.0751969 0.73316 0.22470845 -0.29779404 -0.61313015 -0.8237497 0.5244386 0.6630096 -0.33096403 -0.9574969 -0.039583597 0.25318262 -0.41272327 -1.2222403 0.6531771 0.35469994 -1.3260849 0.39636475 -1.0318109 -0.9110279 -0.329377 0.8392142 0.40071225 0.5328122 0.7332801 0.03129546 1.4925078 -0.25170097 0.27861896 -1.0993844 0.49150774 0.79724735 -0.6207477 0.08528242 0.06129249 -0.1568776 0.87812126 -0.8953322 0.40750018 -0.16631906 -1.5095243 0.161262 -0.17638284 -0.50975615 0.059452165 0.006671092 -0.75223225 1.1906885 1.2156719 1.3415899 0.026089592 -0.61518115 0.17368355 -0.48260713 1.0300355 -0.7641508
2261 0.6388674 0.3788523 -0.17865905 1.1903983 0.27103907 0.95854735 0.012885053 -0.38223296 0.0006634682 -0.3505099 -0.2099087 -1.1563323 -0.7903056 -0.79859865 -0.727339 -0.6149439 0.23841193 -0.31975746 -0.47513154 0.67498535 0.58836263 -1.0706056 0.6202024 -0.15212926 0.11252755 -0.37449327 -0.091868065 -0.34709722 0.31547776 0.6186535 -0.33792627 -0.20608398 0.49425608 -0.14410813 0.35002288 -0.42639318 0.4063441 -1.5486434 -0.4891303 -0.3547515 -0.8662529 1.1438879 -0.46957755 0.60231626 1.810811 -1.05599 1.5612808 0.4021521 -0.44667354 0.012321004 1.0719355 -1.0718384 1.2075071 0.9464056 -0.17189856 0.31542873 -0.06466255 -1.1285148 -0.35860214 -0.8757412 -0.6424715 0.032130133 0.48326343 -1.4862348
2230 0.5817588 1.6346068 -1.0407062 0.36140832 0.6667287 -0.32943246 -0.022675652 -1.5240794 0.29596403 0.77526194 0.3892813 -0.19622691 -0.08420809 -1.3478956 -0.058474965 -0.6529016 -0.11330755 0.10504646 -0.065684356 0.68821466 0.13206421 0.083868995 0.5008175 -0.19359884 -1.7291816 0.66931885 -0.18205594 0.042178527 -0.83204734 -0.043434307 -0.46550253 0.18428254 0.7803452 -0.66220236 1.0516872 -0.9313201 -0.32502222 -1.4933558 0.6796623 0.8642982 -0.03583517 0.5687459 -0.072421774 -0.905838 0.80158097 -0.658638 -0.47474387 -0.12048397 -0.08865132 0.71904325 0.09098503 0.06961389 0.6450974 0.35185292 -0.7144177 -0.18096441 1.378267 -0.548924 -1.2922665 0.19392814 0.23895931 1.1481981 -0.5663436 0.20979564
2480 0.7264731 0.5416387 0.54725075 1.1585385 -0.5697367 -0.64630204 -1.1457859 -1.0355027 0.6750123 -1.3923542 0.81379956 0.8039534 -0.27163982 -1.4471693 -1.0208943 -0.5125096 0.11626442 -0.23549825 0.7469849 0.06443591 -0.10337196 -0.07489908 0.2909926 0.09825563 -0.8323225 0.6438683 0.15992446 -0.8118671 0.42864704 -0.3249336 -0.53860855 -0.103846855 0.8429218 -1.4319717 1.2387326 -1.0449619 0.5849878 -0.2626023 0.22844431 0.36865357 0.7334123 0.007587636 -0.0075662336 -0.7595976 1.3507589 -1.1942122 0.72439766 -0.16809577 -0.36630982 0.5559406 1.0446986 -1.17648 0.4782444 -0.22310951 -0.6030557 -0.37782526 0.44173405 0.45614 0.38781667 -0.49370193 0.48997214 1.2815596 0.9253467 0.13323146
943 0.40484875 0.34193987 0.1638633 0.85568815 -0.412483 -0.82763636 -0.6527041 -1.0633218 -0.21148492 -0.21262825 0.50839573 0.3860059 -1.6863989 0.7163422 -0.91527426 0.3153498 -0.46010083 0.9629546 0.94969475 0.33848083 -0.021063775 -0.79173356 0.27090937 -0.6299231 -1.3303168 -0.050666332 -0.3985067 -0.3648759 0.39197075 0.9209275 -0.43613988 -0.12803985 0.13417684 -1.3911376 0.27352595 -0.7281351 0.39031687 -0.25323436 0.6767116 0.1164654 0.4342293 0.25850388 0.28813666 -0.20717098 1.3975146 -1.4444351 -0.24278174 0.34540883 -1.3913474 0.35440958 0.044545393 -1.9415642 0.78031915 0.67822844 -0.6008926 1.3668916 -0.57644516 -0.7311482 0.12037335 0.751691 -0.28813803 0.6229171 -0.09112549 -0.38343236
178 -0.5338558 0.35312825 0.10256783 0.40543658 0.08153109 0.86526704 0.24289216 -1.1944878 -0.16695619 -0.11179659 1.0352342 -0.14861025 -0.3053896 0.4360135 -0.85496116 -0.75534725 -0.20636764 -0.7527312 -0.45613033 1.5406523 -0.01623178 -0.057979755 0.55546355 -0.33079028 -0.8490094 0.9084828 0.24772383 0.33749595 -0.31619197 0.824537 0.34767967 0.9396648 1.3167864 -0.8753854 0.16676848 -1.0202802 0.61362255 -0.2740839 -0.21996586 -0.3962827 0.18181993 0.71658796 -0.15714437 -1.6915065 -0.3358977 -0.766299 0.61172146 -0.39473534 -1.1162515 -0.26420712 1.1966478 0.19136044 -0.35220033 -0.1577328 -0.6719248 0.2978799 1.4603547 -0.58549213 -0.66154623 -0.62385017 -0.7364159 1.084553 -0.041617475 -1.4698173
