1986 64
1677 0.1552585 0.051088963 0.06576951 0.07650153 0.17900217 -0.20735213 0.092541896 0.07856531 -0.10972973 -0.19744596 0.27706626 -0.22577842 -0.1851773 -0.0842018 -0.13194908 0.17985049 -0.1278134 0.17723756 0.022501204 0.3868179 0.4324051 0.23068446 0.23737562 -0.2527353 -0.065461144 -0.1259069 0.047260437 -0.05557124 -0.1861253 -0.03487371 -0.07840211 0.029848149 -0.033848178 -0.23335272 -0.021107063 -0.000959565 -0.02253381 0.014877758 0.010190289 -0.084296964 0.05675597 0.1503375 -0.16927311 0.013372122 -0.0009435152 -0.10275796 -0.030990966 -0.17973717 0.10197431 0.23058061 0.15834314 0.010628171 0.082445495 0.07787276 0.039429136 0.15417323 0.27403566 -0.1603538 0.19573024 0.13319059 -0.019170461 0.02900718 -0.12401373 0.04716607
114 0.056197662 0.023217918 0.036249626 0.08361481 0.114681326 -0.06214396 -0.015254244 0.031728417 -0.18533479 -0.1513296 0.081267685 -0.1390822 -0.18045107 0.00022245929 -0.2148452 0.16087098 -0.05695854 0.22910124 -0.0745764 0.410942 0.44744036 0.23308289 0.18971156 -0.2994282 -0.027708666 -0.037278313 -0.11520173 0.09770462 -0.167632 0.11482447 -0.08188155 0.11821117 -0.050804712 -0.18465085 -0.2125827 0.084288135 -0.22172618 -0.019769825 0.07434499 -0.1959563 0.10189307 0.084664345 -0.24798922 -0.0019827972 0.006421093 -0.20045416 0.037228223 -0.16551983 0.078274265 0.26788655 0.139954 0.006984404 0.096640825 0.0802351 0.15345961 0.065430164 0.25554428 -0.23455933 0.1560082 0.17654803 -0.024492726 0.06441943 -0.100060135 0.16565402
1698 0.04721409 0.17440018 0.19938628 0.3746204 0.26993084 -0.11355336 0.11193369 0.18692774 -0.01246488 0.05336405 0.40298682 0.12440028 -0.361608 0.2655712 -0.46566066 0.056112308 -0.19458076 0.1834334 0.2994291 0.25567397 0.50220615 0.5422117 0.3555067 -0.12497302 -0.0871535 -0.052663617 -0.1134786 0.15053988 -0.3815819 -0.074675925 -0.55089164 0.037112385 -0.14526556 -0.2733446 0.15546486 0.28388438 -0.32348505 -0.010669627 0.08160659 -0.11497344 0.07254148 -0.17034627 -0.30085456 -0.24646388 0.07561768 -0.13007131 -0.10247999 -0.13220815 0.04026965 0.2383987 0.1977575 -0.24094641 -0.11187637 0.030459894 0.24785577 0.13104261 0.33858982 -0.46095583 0.2132629 0.17399587 0.3715514 0.16206771 -0.13881803 -0.047281593
1760 -0.049543712 -0.05593164 -0.08817739 0.22815818 0.629765 -0.010486172 -0.150273 0.24694479 0.013019746 0.06215075 0.25977942 0.29876474 -0.067778476 0.25048187 -0.6783277 -0.009289575 -0.10698106 0.58825445 0.04193302 0.46982855 0.31612575 0.7011095 0.3560956 -0.19155109 -0.27586234 -0.30917063 -0.24190776 0.13592184 -0.2759642 -0.016861426 -0.116046496 -0.19107729 -0.067479156 -0.38714287 0.03190338 0.019185314 -0.12842177 -0.085628495 0.17484124 -0.07116758 0.016550664 0.055929966 -0.20867842 -0.20048618 0.06325088 0.043729443 -0.08924595 -0.20135804 -0.09183993 0.30148846 0.13626297 -0.44156224 0.10622911 -0.11626113 0.5082842 0.20227182 0.46203423 -0.38794822 0.43165562 0.034159116 0.27203968 -0.028519992 -0.26074797 0.19821544
1797 -0.10016177 -0.049979836 -0.05991666 0.013300337 0.23084891 -0.18448436 0.2812322 -0.04388959 0.22343753 0.3116924 -0.012835487 -0.028597865 -0.54741186 0.068312205 -0.35373682 0.4129523 -0.1665155 0.08644002 -0.1437996 0.3610011 0.4752612 0.149554 0.4752816 0.12252782 -0.01607188 0.038852885 -0.32755446 0.079485506 -0.37521628 0.022055328 -0.09417831 -0.052656885 -0.32082972 -0.36901176 -0.0024871167 0.30097347 -0.43574703 0.21438828 0.12660795 -0.243077 0.34391522 0.3796757 -0.16579829 -0.6014028 0.15653723 -0.22333881 0.18991655 -0.4803574 -0.0006493157 0.17203355 0.24466515 -0.1223117 -0.003490598 -0.10808365 0.36861017 0.20662983 0.37672618 -0.22134614 -0.1388972 -0.047666665 -0.12320048 -0.2889175 -0.4791513 0.2665425
1785 -0.15864381 -0.284391 0.23771712 0.2655115 0.35749528 -0.15738083 0.60780495 -0.19326347 0.49173966 0.099151574 0.118020885 -0.07629105 -0.5706466 -0.071803875 0.12060929 0.7399052 0.0309633 0.10459227 -0.33674464 0.38776737 0.40243658 0.29261002 0.54030806 -0.23726003 0.33500803 0.09502074 0.029322485 0.40827563 -0.5996585 -0.1083793 0.5325076 -0.0556744 -0.43146765 -0.24927995 -0.11812135 -0.00081964396 -0.026791627 0.24847832 0.45868307 -0.32045853 0.38808024 0.28031683 -0.00467571 -0.32490024 -0.11412311 -0.43929297 -0.13170785 0.029466337 0.105515756 -0.015574449 0.16795906 -0.012959357 0.004258823 0.096290216 0.104608715 0.33618173 0.23027585 -0.089279085 0.12000005 0.14822708 0.26158845 -0.010010486 -0.039936066 0.2933377
119 0.024943259 -0.045578595 0.23125951 0.18873954 0.09508493 -0.21742897 -0.33753517 0.099593446 0.10698226 -0.39796692 0.2101879 -0.3561238 0.3804886 0.40320656 -0.7128545 0.21215993 -0.007663693 0.520808 -0.5966711 0.59835595 0.38764682 0.37781703 0.1460938 -0.028261399 -0.263627 0.109807834 -0.22110581 0.035607982 -0.6600761 0.5170759 -0.65866834 0.11671832 -0.6839628 0.108945206 -0.29758254 0.30494535 -0.102144316 -0.15946777 0.3951952 0.12227759 -0.041076817 -0.054824967 -0.22578718 -0.08067498 -0.06238884 0.085505314 0.06977981 -0.82515275 -0.25402313 0.52409035 0.55976075 -0.4247695 0.0023351572 0.8252017 0.16144526 -0.31308144 0.052650977 -0.42453253 0.21226035 0.22910027 0.5878248 -0.0074106986 0.32644105 0.4279879
1680 0.18971948 -0.29146883 0.64258057 -0.236447 0.84481186 -0.015810797 -0.086914584 0.21116328 -0.17004862 0.18120778 0.41236216 0.022257775 0.01699262 0.0007318387 -0.14378421 -0.10737683 -0.48140183 0.2159318 -0.43615335 0.9037153 0.15184814 0.048411716 -0.023214074 0.08018315 -0.64120096 -0.17131302 -0.28954655 0.10580513 -0.28096718 0.09294767 0.17017817 -0.06112778 -0.90212905 -0.64836174 -0.18655713 0.104951106 -0.42709762 0.120518655 0.33549207 -0.050079037 -0.42588922 0.21398202 -0.30856267 -0.0592056 0.09741266 -0.56092256 0.19495817 -0.10738326 0.44335422 0.056134246 0.5811978 0.7144993 -0.14602195 0.5088463 0.4764335 -0.6433936 -0.28008702 -0.4214058 0.11017693 -0.0054454734 -0.52121615 -0.24885397 -0.111573756 0.5131427
1642 -0.27287647 -0.42630473 0.2891516 -0.3069867 0.17108919 -0.37002775 0.32605538 0.034530494 -0.202216 -0.4715823 0.050877303 -0.14947014 -0.66000426 -0.23979306 -0.093002655 0.3211594 -0.20877929 0.15735658 0.33264098 0.44908273 0.08852426 -0.024594933 0.53841853 -0.015058918 0.34694183 0.3064766 0.12893 0.013868986 0.22962408 -0.23942083 0.33529022 0.15006736 -0.40189642 -0.06106615 -0.14398462 0.22864757 0.3256263 0.28181636 0.26620632 -0.42515844 0.42477313 0.19827946 0.043259863 -0.42358625 -0.050663605 -0.66650933 0.17201735 0.020859523 0.044809356 0.30203646 -0.12323779 0.23328449 -0.030647285 0.23667836 0.38186952 0.515174 0.5352009 -0.5722579 -0.2058485 -0.50729597 0.18188587 -0.19241987 0.0057500224 0.6515871
1660 -0.48311797 0.050583873 0.23713467 -0.42442355 0.43974844 -0.42353007 0.57915497 -0.06416086 -0.14910893 0.10423588 0.3673713 -0.17265777 -0.9010218 -0.33320844 -0.15817522 0.25308913 -0.2348944 -0.0075706257 0.23423837 0.52460015 0.1055209 -0.37590575 0.28409046 0.11803065 0.22470325 0.24530357 0.005868409 -0.054068554 -0.4731081 -0.5957663 0.42121223 -0.011747312 -0.68522054 -0.37357283 -0.05882603 0.15598173 0.028736295 0.5254461 -0.039117992 0.12975045 0.47552505 0.10781368 -0.6124753 -0.56119984 0.09600313 -0.57756513 -0.07020483 0.043447547 0.4636949 -0.10864403 0.2692219 0.18044713 0.019633813 -0.22759147 0.2995969 0.6985813 0.1291316 -0.28781322 -0.45153144 0.52023935 -0.32409376 -0.3377849 -0.555481 0.1499142
1632 0.6416728 -0.051870305 1.0044016 -0.46783528 0.56581235 0.0026331593 -0.13901782 -0.35907635 0.05046763 0.0931365 0.46371618 -0.18282406 -0.5720768 0.42666498 -0.37597236 0.15441337 0.5498007 0.08105794 -0.276375 0.30603823 0.1827124 0.3875032 0.33763915 0.11914761 0.13368128 0.049532976 -0.14548886 -0.15842545 -0.57032454 -0.0743889 0.45818713 0.5002127 -0.30379295 -0.09145176 0.29337922 0.2855926 0.116363116 0.57317597 0.3411684 -0.34353885 0.3151585 -0.24146666 -0.10410233 -0.26420832 -0.3991785 -0.53872937 0.15739253 -0.35044304 -0.13718264 -0.14117475 -0.40846702 0.10561158 0.21777028 0.45508802 0.34618276 0.8030884 0.6670347 -0.09372327 0.1378656 0.20530821 -0.07559047 -0.26002467 0.15381712 0.61048853
1663 -0.47298816 0.015869876 0.57834965 -0.060799383 -0.12622656 -0.29923278 0.118611865 0.1408766 -0.36287948 -0.51805437 0.094434865 -0.2162112 -0.40668824 -0.32915384 -0.5810716 -0.27920341 -0.06837535 0.20510748 0.03860496 0.0870135 0.09363634 -0.16331092 0.6567043 -0.22986649 -0.27008334 0.33202255 0.06555177 0.046776824 -0.22478497 0.013436418 0.014152629 0.52677995 -0.82930434 -0.43048882 -0.73591894 -0.1159591 -0.011808016 -0.37774244 0.09803341 -0.32560977 -0.0411329 -0.16185607 0.30056766 -0.38324037 0.12727243 -0.2779402 0.28935257 0.0135176135 0.40074816 -0.38012013 -0.013438382 0.3434296 -0.03754931 0.48129833 -0.27584937 0.8582962 0.6658944 -0.52224994 -0.5711949 0.11142366 -0.055358026 0.021421267 -0.63101065 0.5977399
1654 -0.6383463 -0.23619974 0.14163966 0.030383702 0.19916737 -0.24875048 0.040527914 -0.24647084 -0.30914202 -0.6534099 0.19416939 -0.81931823 -0.4536946 0.14884149 0.03526077 0.06279569 -0.07191092 -0.30042195 0.3175832 0.73156 -0.03690978 0.10112709 0.3794066 -0.5899838 0.4789419 -0.04550281 -0.1349473 -0.07888343 0.07467142 -0.54679507 0.9749599 -0.11129636 -0.6389312 0.11443787 0.06934955 0.4225785 0.48759356 0.11925421 -0.0560516 -0.46932754 -0.025864195 0.23084328 0.052414853 -0.32108143 -0.0011782888 -0.5985391 0.63809204 0.1588562 0.38867876 0.19452369 -0.08328706 -0.28151262 0.037749887 0.20377623 0.53386617 0.5309376 0.44216782 -0.61973965 -0.03716969 0.014099204 0.3551332 -0.65572536 -0.34588748 0.284568
1667 -0.14101914 0.18418804 0.43417776 0.3072747 -0.25929576 0.21942027 0.39512157 -0.22135417 -0.19082421 -0.21697576 0.046185214 -0.23635505 -0.9446876 -0.4606566 0.019638179 0.14865187 -0.5983446 0.0851994 -0.42245305 0.57707274 0.5139223 -0.25247568 0.2756132 -0.2236055 0.2711342 0.14886533 -0.10664795 -0.60152286 -0.5389192 -0.1885167 0.17986877 0.59455025 -0.7116996 -0.27426752 -0.042239066 0.28279877 -0.76652324 0.68962485 0.07895392 0.061165605 0.13923392 0.120307125 0.2145592 0.29315996 0.05791997 0.003415443 -0.037447628 -0.18974523 -0.14734995 0.10888466 0.56345206 -0.39147118 0.15404856 0.62229794 0.27508715 0.28863174 -0.22826295 -0.4852858 -0.5138657 0.40468255 0.03664361 -0.6254298 0.28591725 0.8135919
239 0.0996587 -0.33888075 -0.01755663 0.03210042 -0.3597926 -0.5816347 -0.52452105 0.66397864 -0.12039637 -0.59784275 0.7799327 0.19790865 0.10303958 -0.5454983 -0.43669412 -0.30454874 0.28478584 0.2546162 0.14319137 0.3162549 1.1047388 -0.127723 0.70801836 -0.8310273 -0.16490899 -0.054934442 0.15940711 -0.43330455 0.31166288 0.18646026 -0.6617015 0.5393922 -0.60720074 -0.07802494 0.27916205 0.5419814 0.11058488 0.45078057 -0.34480053 0.21302336 -0.09255308 0.07233776 -0.38517058 0.11643481 0.3233884 -0.30371162 0.33034053 -0.43490824 0.11117825 0.860276 0.0783698 0.032830335 -0.14020763 0.5238936 -0.14799672 0.42586058 0.48190337 -0.088864304 0.26823378 -0.17836013 0.31093532 0.11999397 0.36210006 -0.094174385
1678 -0.07918441 -0.12954997 0.6084134 0.14505732 -0.62206584 -0.79814494 0.43621686 -0.1619752 -0.6563617 -0.2935783 0.6129898 -0.3075555 -0.32609987 0.14852135 -0.48552504 0.00046832903 -0.32998115 -0.13553074 0.24607183 -0.07739249 0.9255134 0.0076939347 0.6475878 0.2404591 0.5823891 0.20167594 -0.32509014 -0.34554052 0.008102977 -0.19493726 -0.6152288 0.8481287 0.046272583 -0.22697508 0.09233104 0.21640928 0.2919161 0.5286029 0.6311082 -0.14193633 0.30164856 -0.11592278 0.34303224 -0.53514755 -0.10178626 -0.24101502 0.0023395165 0.013585459 0.45250633 0.29391703 0.47834995 0.32085684 -0.022739332 0.32755014 0.5000815 0.54131156 0.2399266 -0.28930834 -0.49597386 0.12175427 0.3228612 0.115269944 0.3831274 0.15582672
1641 -0.2069411 0.35303017 0.29586062 -0.23424515 0.68690056 0.17416587 -0.011537797 -0.66850734 -0.360455 0.22410357 0.53320634 -0.37602416 0.4440042 0.22152112 -0.15849274 0.5495164 -0.066240825 -0.21257403 -0.15906188 0.4386268 0.21146905 0.27399883 0.53826416 -0.17051269 -0.38154304 -0.117175415 -0.36282432 0.3178896 -0.5270263 -0.34490716 0.4094779 0.56819373 -0.6572745 -0.23182532 -0.49642178 0.5049459 0.05438138 0.6708824 0.05360326 -0.3409381 -0.08098127 0.028635057 -0.37525293 -0.41756657 -0.54465985 -0.2470852 0.4444471 -0.009559124 -0.14007787 0.6335462 0.6138656 0.5973138 -0.07433384 0.30418408 -0.0749234 0.32611132 0.74377084 0.4262995 0.049020007 0.10072923 0.17916492 0.10568043 0.14730895 0.30174512
1639 0.383303 0.24883716 0.6385786 0.32780358 0.20580095 0.262831 -0.39180997 0.090331845 -0.036979537 -0.14160581 0.27886385 -0.7024327 0.1557051 0.11316108 -0.10253916 -0.07111375 -0.4522079 0.42178655 -0.18913822 0.20638664 0.8197826 0.152688 0.51929 -0.19509228 -0.072659515 -0.038614973 0.119561955 -0.3004601 -0.18867421 -0.54322714 0.546997 -0.047959656 -1.1140978 -0.23984583 -0.55462027 0.2983057 -0.21872067 0.29344684 -0.46039855 0.5354412 0.7380764 0.04014456 -0.22766814 -0.34376168 -0.14349915 -0.162416 -0.38771495 0.1001509 -0.08305998 0.02829653 -0.011113184 -0.55690885 0.34370747 0.15954724 -0.12730286 0.01173919 0.71904165 -0.9010213 0.1855154 0.44689205 0.03995183 0.19600232 0.03497703 -0.41101688
1693 0.109240584 1.0639232 -0.0918424 0.008715244 0.59597576 -0.008046577 -0.00649663 -0.025929764 -0.1379804 -0.26164246 0.060780257 -0.42555282 -0.5633972 0.051313657 0.61326784 0.48636097 -0.06753555 0.24430735 -0.035654947 1.1652683 0.18139023 0.5918855 0.8409053 0.09208528 -0.31848475 0.8143687 0.22460276 -0.2737306 -0.36615205 -0.12081179 -0.43530208 0.62522703 0.6430971 -0.10801037 -0.36012012 0.3103672 -0.2717146 0.45011258 0.07743006 -0.5339096 -0.19368422 -0.19050905 0.26866055 0.119277686 0.47484013 -0.0014700192 0.08164113 -0.2370433 -0.48662695 -0.17734101 0.01602967 0.28053102 -0.10180045 -0.10021703 0.12161369 0.5477796 0.43100807 -0.74440235 0.69952637 -0.7503397 -0.1503407 -0.04611225 -0.29299822 -0.28468797
1630 0.15066247 -0.19110125 0.36894035 0.23479284 0.17529547 -0.54961413 -0.15082803 0.5689248 -0.83819014 0.023148712 -0.31666663 -0.3403078 -0.70927304 0.013796062 -0.11865137 -0.3069974 0.003343064 0.83942217 -0.62535924 -0.14360462 0.45941257 -0.6905856 0.266181 -0.23308007 -1.051423 0.084517494 -0.95772535 -0.23080498 -0.0486057 -0.5450267 -0.20021938 0.061942294 -0.4306722 -0.4324129 -0.60566986 -0.002697802 -0.0065953876 0.115624994 0.24389261 -0.500184 0.3751126 0.3242922 0.10434591 0.28713495 -0.4071276 0.027972635 -0.12332522 -0.29611728 -0.009849111 0.09349802 0.29923594 0.31698403 0.09884035 0.42493817 0.41539782 0.39671743 0.22138838 -0.0880576 -0.024618348 0.013102682 -0.09560449 -0.751543 -0.16124164 0.18803878
131 0.05343029 0.26964036 0.2286353 1.0941517 0.37509683 -0.4704679 0.06388549 -0.63008577 -0.033555027 -0.065072365 -0.06339477 -0.77553236 -0.03047085 -0.22264954 0.21966134 0.81620437 0.29204577 0.42529827 0.44226843 0.47442433 -0.23015039 0.23539916 0.10228402 -0.22125864 -0.39836517 -0.21870108 -0.621355 -0.67297405 0.09046212 0.20033664 -0.35680652 0.20995021 -0.4636665 -0.7029619 -0.021336151 0.45936203 0.7986744 -0.062871605 -0.36519375 -0.26759076 0.07972007 0.14547902 0.38608375 0.06906708 0.2651654 -0.6742648 -0.7288836 -0.82940954 0.060202055 -0.2517171 0.493283 0.24046192 0.7177027 0.27158222 0.18638198 0.5989838 -0.049742624 0.63780075 -0.04525628 -0.029770337 -0.3007767 -0.06733684 0.012830216 0.3213024
1668 -0.1635517 -0.18461286 0.10812928 0.066988505 0.21183833 -0.02317526 -0.046669226 0.113755606 -0.78043205 -0.5287231 0.50599504 -0.042751215 -0.18894364 -0.069930345 0.12456608 1.1388404 0.36490253 -0.33129153 0.57470614 0.51426893 0.29446325 0.34368935 0.8331365 -0.337254 0.13931201 0.053182647 -0.271465 -0.2539518 0.049712967 -0.28567111 0.5974515 0.69243073 -0.34712362 0.19852911 0.44106102 0.09546718 0.2811368 -0.078022376 0.30844444 -0.010521163 0.2176783 -0.28656444 0.81023544 0.72244084 -0.17419644 -0.09446962 0.05813969 -0.0121282665 0.42649645 0.2519405 -0.6173522 -0.32242045 0.25133926 0.1780369 0.10146812 0.7421025 0.6781198 -0.17133608 -0.11893903 0.30663958 0.67212397 -0.3677357 0.23253943 0.46327484
1 0.4937839 -0.4376794 0.42859203 -0.908412 -0.11426616 -0.51867956 0.23332982 0.101796776 -0.57309586 -0.101096645 0.12380925 -0.6119162 0.456208 0.31806722 0.21396115 0.18487866 -0.59478575 0.37537205 0.20660742 0.6974891 0.5594206 -0.3048522 -0.36431336 -0.6863734 -0.19338837 0.25194135 -0.5981922 -0.33126223 -0.054043047 -0.22344175 -0.09521774 0.3814481 -0.31058088 -0.54239535 -0.2583005 -0.0916275 0.19048834 0.27437833 0.0685716 0.4749191 0.061180618 -0.6924283 0.592106 0.0998848 0.5910848 -0.42793524 0.07582622 -0.62776685 0.38233706 0.8317314 0.045141 0.40489483 0.7052595 -0.07729468 -0.22971348 0.28256792 0.4641312 0.116931126 -0.1697408 -0.2445361 0.3329733 -0.8644875 -0.25903216 -0.4467373
1666 0.25181118 0.07655342 -0.24257219 -0.17207032 0.7433485 -0.055791296 0.27338746 0.35370037 -0.33675388 -0.3677148 -0.079008065 -0.44565246 0.02377066 0.33128908 -0.28505677 0.23095426 -0.8816868 -0.35791582 0.06645477 0.34973222 0.3588478 0.33261073 0.42868543 -0.29076883 -0.12752151 0.049652364 -0.97392404 0.050935924 -0.34614563 0.06698439 0.15481798 0.86115485 -0.5778896 -0.10395631 -0.6410038 -0.10585987 -0.4672875 0.08321949 0.23484878 -0.3056246 -0.28943923 0.57778215 0.036776382 -0.05221718 -0.55274826 -0.5988487 0.3330125 0.43048745 0.11960323 0.12391824 -0.6962328 0.50642544 0.12237668 0.36711034 -0.2937147 0.46390417 -0.050276946 -0.30824417 -0.15177107 0.14693543 -0.011942266 0.10493809 -0.18035524 0.39722306
633 0.65408903 -0.17586029 0.26402867 0.6917017 0.55029637 -0.2277352 0.020627933 0.37072644 -0.14023276 -0.13934161 0.1471729 -0.7039912 -0.13079159 -0.2103226 -0.09304661 0.03544379 0.48289472 0.55686444 -0.31350076 0.6158684 0.7283613 0.002036891 0.048436284 0.35495993 0.030695096 -0.30307007 0.113602445 -0.16403964 -0.37971047 -0.065467365 -0.20653881 0.644697 -0.2695758 0.27040496 -0.68990403 -0.32698807 0.40700004 -0.06964047 0.06710914 -0.09196019 0.026403947 0.20624897 0.60338247 0.012108055 -0.50782526 -0.2707305 -0.1848155 -0.4252325 -0.2128832 0.59802467 0.030042358 -0.38697246 0.45432577 0.18096095 0.26770228 0.48166347 0.09073409 -0.21929982 -0.80118185 0.1434076 -0.0066581643 0.83679426 0.42435503 0.5870186
1671 -0.06523372 -0.7310504 0.75394946 0.42319623 0.7611223 -0.5217875 -0.47351712 -0.22841206 0.09082507 0.44567963 0.108863756 -0.5404145 -0.20915352 0.41476002 -0.45340466 0.20326626 -0.6089437 -0.07619861 -0.40667742 0.031857915 0.76864254 0.6878528 0.17726046 -0.16613626 0.0790248 0.3408141 0.39781687 -0.8423846 -0.20867889 -0.16483995 0.41896093 0.13262936 0.23847544 -0.5251847 -0.2517146 -0.24041528 0.32854053 -0.1297775 0.769921 -0.605031 0.1515215 0.08715729 -0.05714995 0.079169534 0.30240983 -0.3377055 -0.36619863 -0.07787237 0.041656923 0.3790304 0.020800823 -0.6719623 -0.0040082363 0.24154666 0.16754621 0.52974755 0.042438082 -0.2859073 -0.13447537 0.20863846 0.15721938 -0.4117587 0.20821506 0.19821511
24 -0.16118822 -0.2110892 -0.3712797 0.15791109 -0.03388947 0.33933106 -0.32522708 0.17053153 -0.5825848 -0.3104602 0.5961517 -0.7043759 0.04054948 -0.51943207 -0.55141485 0.13444142 -0.43055603 -0.4829708 -0.1715858 0.12490029 0.027287992 -0.033444423 0.09507958 -0.5777654 -0.7535341 -0.16081402 0.09855946 0.23602304 -0.74690056 0.102317095 0.20491478 0.7361193 -0.64296526 -0.17223886 -0.4607556 0.26270217 -0.018629856 0.040780846 -0.19587107 -0.59820604 0.41141316 -0.44145763 0.061697036 0.22204581 -0.01202945 -0.50323105 0.2942766 -0.3139774 0.40760443 0.0743417 0.30062127 -0.11636263 0.3556285 -0.03661508 0.70016307 0.01394691 0.4866108 0.066935316 -0.42937237 -0.16519147 -0.29289865 -0.5515241 -0.18028875 0.43250647
196 0.35219982 -0.6211245 0.24002576 0.4488457 -0.47879934 0.026095591 0.26749727 0.99857044 -0.7155759 0.56207895 0.086520135 -0.5078461 -0.017033033 -0.5705107 0.61070937 0.6309129 -0.32006165 -0.23327172 -0.5395547 0.4965567 0.41673058 0.13739479 0.47199777 0.050064135 0.59391826 -0.43430516 -0.545495 -0.21530694 -0.025032349 0.2764046 -0.16663939 0.25834146 0.04047231 -0.23805417 -1.1079187 0.08659524 0.21194659 0.17110965 -0.12945163 -0.18040603 0.54607165 0.35057506 -0.62241834 -0.26817074 0.7488947 0.36507833 0.05710459 -0.3931254 0.17143261 0.24041215 0.028163407 0.5127455 0.30200914 0.23247206 0.11557804 0.04978795 -0.26781347 -0.4433645 0.031322088 0.60715216 0.043798696 0.09572464 -0.04436525 0.40589723
82 0.07844948 -0.1419555 0.5468746 0.46167985 -0.091440134 0.089468054 0.23878491 0.13432525 -0.49181846 -1.1369984 0.51627463 -0.2640112 0.16470811 -0.15107244 0.025817739 0.7272281 0.09531238 -0.21731567 -0.00058422924 0.17522949 0.6057337 0.78960985 0.29932845 -0.65484494 -0.27670917 0.68793577 -0.15581523 0.4823645 0.24484582 -0.5470224 -0.052017063 -0.6259012 0.41175818 -0.45590782 -0.2738583 0.3131495 0.119963095 -0.5752871 0.25289938 0.39576876 -0.0075438707 0.16959201 -0.2103992 0.11318908 0.39185935 0.6651309 0.25320137 -0.35562465 -0.32787502 0.27202535 0.6936167 0.671011 -0.3075058 0.3095889 -0.34677246 0.18635875 0.2984507 -0.107512735 -0.50835747 0.39236808 -0.35272628 0.1868548 -0.21438338 1.0435131
75 0.55711585 -0.067385316 0.017713377 -0.029339287 0.5980996 0.5316191 0.47612366 0.4619514 -0.35104638 0.084418416 0.96906173 0.32318288 -0.69298303 0.74869543 -0.4215274 -0.39260837 0.28145978 0.511051 0.6534248 0.8507865 -0.29897168 0.26353 0.5293695 -0.6934489 -0.18388206 0.038229294 0.46387985 -0.30897942 0.18079948 -0.19100119 -0.21066429 0.10999293 0.20305267 -0.5780014 -0.06095473 -0.054649424 0.010987135 0.74370253 0.5666645 0.082752034 0.7385206 -0.10257183 0.26983532 0.56468594 -0.057447333 -0.009710245 -0.123661794 -0.12916139 0.058946718 0.7168507 0.7117101 0.13645224 -0.07959874 0.455702 -0.4240604 0.052736312 0.38698313 -0.23301819 -0.4965471 0.18733437 -0.5049701 0.14160122 0.24839403 -0.17796615
1673 -0.07270066 -0.10187518 0.12632903 -0.2161486 -0.726733 -0.030320726 0.4600739 0.010319569 -0.3938634 -0.3838628 -0.20998602 -0.82449114 -0.21561186 -0.4790273 -1.0433649 0.4634935 -0.439137 -0.1652462 0.093924105 0.42113912 0.023288224 0.9577818 0.6637074 -0.027839562 0.06439831 -0.27270752 0.027871858 -0.025007658 0.1782946 0.31461322 -0.3285903 0.40917453 -0.9908382 -0.45411023 0.15682891 0.39140466 0.21222797 0.75940883 0.060511217 -0.056784075 0.17007414 -0.26434425 -0.15021835 -0.39928973 0.3952875 0.24696544 -0.043606836 -0.22941321 -0.3181578 0.12564932 -0.16020802 0.49298316 0.51626456 0.014496066 0.31959945 -0.1488812 0.54023 0.1207638 -0.35939252 -0.18297717 -0.23656215 0.09355131 0.3473568 0.34135506
190 0.9235101 0.057900056 -0.43537694 -0.09679171 0.3019138 0.014462596 -0.4630355 0.1744998 -0.39107195 0.123921916 -0.04130992 -0.69390017 -0.4953593 -0.53000873 -0.52781314 0.35453346 0.16423962 -0.22409722 -0.12512858 1.086459 0.4767806 0.61949545 0.4481697 0.21143194 -0.07699121 -0.20484914 0.045602866 -0.39578336 -0.01959821 0.1562307 0.16554603 -0.28898624 0.13413437 -0.28487155 -0.51824 0.04029955 0.2657466 0.48231775 0.01728632 0.5037921 -0.013201869 -0.7211348 -0.045296118 -0.31186232 -0.6409289 -0.16388698 -0.5391154 -0.44867304 -0.040620666 -0.04866083 -0.17492445 0.65408695 -0.1419776 0.9135965 0.07194833 0.7874903 0.010493214 0.099552974 -0.49966916 0.48454505 0.69732803 -0.16410683 0.052608624 -0.3764599
67 1.2733799 -0.10912743 -0.07330024 -0.95983154 0.43284595 0.23068227 -0.08208321 0.19346339 0.14681067 -0.21022478 0.036470383 -0.976014 -0.35805276 -0.3875883 0.27340868 0.07963679 -0.6188042 0.3390105 0.48509955 0.2754162 0.51781106 -0.0075929454 0.4587892 -0.63325757 -0.5267794 0.18373184 0.10572179 0.14245774 -0.13089465 -0.36801168 0.027312983 0.0822341 -0.04992612 0.015125119 -0.15902366 0.07921658 0.060986828 -0.23857836 0.5491704 -0.80487984 -0.3934669 0.25265563 0.0766711 -0.18520324 0.7828996 0.62882864 0.3383206 -0.6501612 0.27032128 0.3910047 -0.36083692 0.19487888 0.26221928 0.6646589 0.40669522 0.1838265 -0.23375683 -0.34568706 -0.74413794 0.4100343 -0.42870763 0.41043824 0.5381547 0.16211535
41 -0.14506066 -0.19894151 0.33287954 0.251822 0.3931148 -0.51769567 0.55354667 0.059283495 -0.49860463 -1.0974312 -0.112480365 -0.2732932 -0.015422779 0.07382888 -0.71998787 0.09302611 0.07681267 0.04113609 0.9187968 -0.0020462256 0.7309841 0.27037293 0.11106299 -0.16681361 -0.052595258 -0.28502873 -0.30710194 -0.058807913 -0.42724597 -0.15093523 0.58349776 0.3762231 -0.44545582 -0.48438215 -0.33596292 0.1560636 -0.6165319 0.042793028 0.76065487 0.15850505 -0.20957027 -0.39708725 -0.5347808 -0.21213639 0.022596223 0.40143797 -0.2934947 -1.3641572 -0.052423134 0.23360126 -0.48634398 0.25810182 0.106410876 -0.084963985 0.060817324 0.295847 -0.4670249 0.029945852 0.2626293 0.0048220563 -0.73106253 -0.08848848 -0.06781506 -0.30842772
1656 -0.23263063 0.30259523 0.027720679 0.24826635 -0.15511914 -0.29697776 0.21118142 0.35707197 -0.25756887 -0.21685125 0.24348721 -0.9955402 -0.7654806 0.06548413 0.028050559 0.53955173 -0.09793233 0.31005555 0.19356252 -0.04896724 0.04411673 0.6390675 -0.24937494 -0.73301256 -0.40112323 0.37014258 0.082437806 0.1720755 -0.7232845 -0.11624392 -0.12936814 0.62945044 -0.56096244 -0.8891292 -0.69963276 -0.5866382 0.29416054 0.47556385 0.18849768 0.34684756 -0.39546567 0.20672351 -0.10473316 0.40048292 -0.05259983 0.06438355 0.15435992 0.29383808 0.22188854 0.5465558 0.2058977 0.51931185 0.088179246 -0.30088854 0.3441716 0.11703013 -0.28659743 0.25076365 -0.056968145 0.3298706 0.29775217 -0.23557542 -0.20807594 0.47258446
1659 0.3379332 -0.4687703 0.6959092 -0.30367056 -0.30930954 0.084340364 -0.06108821 -0.3449208 -0.4797518 -0.15333796 0.16689648 -0.7308922 -0.78438455 0.6281815 0.16180733 0.88352 0.09467045 -0.0086933775 0.23479132 0.3386438 -0.5469518 0.14768037 0.70333916 -0.17666596 -0.1333015 -0.6635032 -0.08199511 0.24843897 -0.24000464 0.026475307 -0.42717317 0.29200575 -0.38743362 -0.40505528 -0.5271557 -0.28045493 -0.55076015 0.5508241 -0.10225022 0.09323266 -0.58912414 -0.2351343 0.47235328 0.24841093 0.25897402 -0.25791126 -0.262467 -0.61543 0.23431852 0.057302594 0.16094597 0.15930733 -1.0238053 0.45630673 0.48737007 0.0032387043 0.6469973 -0.19672185 -0.17726071 0.64585096 -0.2704207 0.22645389 0.008357766 -0.11670946
58 -0.48497188 -0.10630096 -0.13483879 -0.39989924 0.21586229 -0.4980784 -0.6409074 -0.4181996 -0.80447906 0.12823813 0.02803528 0.21240227 0.27785417 -1.2326921 0.09097408 -0.13345265 0.43039674 0.1505151 0.5512655 0.6838064 0.07788174 1.1773775 -0.11957084 -0.26113304 0.21023552 0.3440673 0.050979372 -0.0011783272 -0.78109825 -0.7011941 -0.042835794 0.13353187 0.090166606 -0.5551983 -0.4078038 0.6610649 0.16662423 0.5492927 0.2067193 -0.4326779 0.54493254 -0.48040664 0.05250884 -0.10876513 0.16011666 -0.042688735 0.27023602 -0.22044016 0.22807497 0.52885914 -0.28184038 0.049305897 0.5917759 0.8426643 0.47985485 0.14242543 0.0010369456 -0.04353115 -0.48094156 0.4341088 -0.11631674 -0.008431528 -0.034004115 -0.24850917
1675 0.27938795 0.5037548 0.16208547 0.02936645 0.009247509 -0.81778634 0.24630779 0.28086302 -0.047599282 0.1580762 0.18381846 -0.38008437 -0.55107397 -0.2905965 -0.24048395 0.65586346 0.5700721 0.03974903 0.112117864 0.98617834 -0.48637754 0.265331 0.096831255 -0.5161462 -0.44908047 0.28721452 -0.12462002 0.41193748 0.24090289 -0.39668047 0.6490937 0.8146808 -0.6664921 -0.5578621 -0.45546225 0.2811053 -0.5638167 -0.24297422 0.71006113 -0.035913307 0.30823344 -0.052810494 -0.09329381 0.06476614 -0.09281102 -0.28756103 -0.238976 0.04030157 -0.18755099 0.5882166 -0.048421875 -0.819218 -0.17229348 0.14732493 -0.24644727 0.31062755 0.17895438 -0.0693804 -0.03360765 -0.57611716 -0.29255623 -0.69825315 0.617749 0.4685516
138 -0.049964733 -0.46315968 0.46514955 0.30418006 0.58439654 -0.8136375 0.3568639 -0.33724973 -0.075475216 0.12500198 0.0801654 -1.1379914 0.4404133 -0.48959437 -0.48319066 0.34502026 0.45257112 -0.55553794 -0.2719069 1.1503767 0.40524313 -0.048191667 0.33459195 0.01842484 0.23266663 -0.14811492 -0.17251545 -0.047600698 0.27895042 0.43634376 -0.23398085 -0.15438965 0.031243758 -0.36711422 -0.7215829 -0.7232982 -0.5473281 0.387844 -0.25963292 -0.4334759 0.28711653 -0.17466871 0.31596538 -0.11309413 0.025193105 0.040294364 0.26154858 -0.4846652 0.3906794 0.24062578 -0.30952457 0.16807067 0.0024795572 0.32118005 -0.06756046 0.22044812 0.3600077 -0.2834256 -0.20988667 -0.74459505 -0.7585815 0.1344179 0.62390244 -0.11084574
94 0.4625686 -0.28555316 0.20182785 -0.21353969 0.5391912 0.08917053 0.35309827 -0.5476559 -0.8295971 0.15165685 0.004633337 -0.10607147 -0.025909416 -0.10683101 -0.81354874 1.0664479 -0.31445187 0.085119255 -0.28462458 0.0703649 0.35500714 0.59758943 -0.07016698 -1.0131531 -0.3709928 -0.37098086 0.0052855117 -0.6144722 -0.15554197 0.21002991 -0.58138376 0.5005034 -0.0074362126 -0.74398607 -0.33477545 -0.44294643 0.30739176 -0.13090158 -0.10973631 0.09879414 0.29922593 0.28966364 0.004308637 -0.75260895 0.3896446 -0.34564522 0.7434799 0.21062733 -0.47149402 -0.5196029 0.02396886 -0.07845054 -0.09498972 0.22729072 -0.0754939 0.62365544 -0.3388513 -0.45106202 0.33892623 -0.102133885 -0.5748207 0.115511715 0.20171097 0.15145265
1807 -0.053212937 -0.64137495 0.04991604 0.09715955 0.1031882 -0.41709056 0.59442526 -0.10062363 -0.70156866 0.12126304 -0.3939339 -0.14314939 -0.71426624 -0.49016777 -0.33678347 0.01636199 -0.7487871 0.20446675 0.17181589 -0.020562455 0.34850353 0.7735734 -0.07379044 -0.008789211 0.032024004 -0.05943586 0.11803442 0.17764978 0.0013720302 -0.26323745 -0.16039877 0.38794672 -0.23815452 0.1725826 -0.9521401 -0.1703132 -0.40458164 0.68066674 -0.102184884 -0.4055853 -0.8699705 -0.09845917 -0.5098602 0.026913483 0.14227034 -0.38201562 0.38727546 -0.7350247 0.17308274 0.65840906 0.8984208 0.11555364 0.38769558 0.5274414 -0.5939342 -0.21235192 0.3813537 -0.12928739 0.6517004 -0.5145553 0.3131822 -0.04653968 0.3176652 -0.35020804
154 -0.0682316 -0.2584508 -0.1909463 0.21961248 -0.2752636 0.2100461 0.4311331 -0.18754031 0.04886108 0.550533 0.39785177 0.11275048 -0.24250488 0.34158972 -0.5002247 0.66102356 0.10898834 -0.21435893 0.22852808 0.17681183 0.5601855 -0.022261215 0.06473979 -1.1949623 0.6359507 -0.22526807 -0.069203705 0.48452827 0.081157185 -0.15195878 -0.21677706 0.1788858 -0.5414376 -0.0063116276 -0.99302137 -0.45818448 0.2784902 0.02031719 -0.0741144 -0.3779615 0.15877955 -0.017178502 0.35780713 -0.25495103 0.108649336 0.0052506384 -0.47351703 -0.9520021 -0.19310014 0.35475355 -0.3588466 -0.77727395 0.83828425 0.8408257 0.061754182 0.6865599 0.25470418 0.028792834 -0.24265184 0.5749348 -0.5301799 -0.30118796 -0.36192396 0.50031346
638 0.15818758 -0.46622935 0.5404412 -0.47925717 0.097521424 -1.0068755 -0.2545061 0.2726349 0.70184463 0.7411821 0.3288637 -0.6246185 -0.53390974 -0.21588756 0.0008610966 0.6100502 0.4235527 -0.17207804 0.055285715 0.7950339 0.19992937 0.33360136 0.19653526 -0.9421424 0.021084268 0.31041747 -0.27618027 -0.3375846 0.12862593 -0.417788 -0.7536831 0.7226674 -0.26037613 0.6321323 -0.49167252 0.32176435 -0.39419326 -0.12744805 -0.6017546 -0.6490983 0.6621404 0.3796559 -0.021488719 -0.07883378 0.12850332 -0.21648896 -0.24676949 0.1335298 0.14969198 0.17872004 0.49550834 0.21059299 -0.23161678 0.35007516 -0.09799981 -0.2635153 0.51858974 -0.1690252 -0.41823918 -0.12199 0.24172392 0.41507894 -0.26470244 -0.38802317
233 0.23266082 -0.39234206 0.4327346 0.11440483 0.3252995 -0.78802156 0.123509385 0.23439817 -0.38200673 -0.18199033 0.5988127 -0.49625707 -0.30232847 0.10402761 -0.06831698 -0.038856898 -0.3190117 -0.18596533 0.11991323 0.71492845 -0.0046850485 0.14606085 -0.48148233 -0.32057366 -0.35520774 -0.37020618 -0.2971852 -0.00025417836 -0.6875537 -0.5217931 0.22574592 -0.1247929 0.33810008 -0.692549 0.33721706 -0.39164448 -0.07597577 0.40610585 -0.08651177 -0.2566334 0.3317719 -0.08845376 -0.22196317 0.21569389 0.79755807 0.14417377 -0.3115031 -0.41019246 -0.059742197 0.04241128 -0.5750055 -0.3894683 -0.66587967 0.99928415 -0.1237221 0.5232023 0.63034743 0.370303 -0.30178577 -0.36300182 0.74784786 0.6910036 -0.9194944 0.6028567
26 0.11780175 0.119220085 0.63741237 0.50986797 0.5958708 -0.22362632 -0.16037214 0.5725154 -0.4734328 -0.36732644 -0.36936742 0.06307523 -0.2147719 -0.1582234 -0.21295655 0.14930066 -0.52860254 -0.72612107 0.15713449 0.6501899 -0.005538187 -0.07559325 0.09946274 -0.70306027 0.12590615 0.6192536 -0.1283872 -0.4201139 0.44201228 -0.0054365047 -0.7841856 -0.020143485 -0.10890007 0.28297976 -0.6200372 -0.4170631 0.39501733 0.6100646 0.5903806 -0.6478957 0.482955 0.16180733 -0.4763795 0.06344479 0.11611402 -0.38956815 0.096064955 -0.6494746 -0.29274485 0.34905854 -0.19949676 0.25779763 0.576841 0.17189339 0.8707398 -0.7323265 0.8759112 0.35143536 0.12831488 0.43447375 -0.2711324 0.20899865 0.026671069 -0.2282088
66 0.2152473 -0.9603287 -0.1719367 0.3502771 -0.3853223 -0.043838836 0.4554485 0.15304655 -0.18971999 -0.72380614 0.15309717 -0.19310965 -0.23720306 0.055475987 -0.8009941 -0.053965546 -0.10229105 -0.37081906 0.03933797 0.86971515 -0.074720025 -0.37369043 -0.057813916 -0.25018257 -0.24964938 0.15069436 -0.4188783 0.023641324 -0.7235047 -0.17065349 -0.2689333 0.4029745 -0.46605924 0.12225573 0.33465752 -0.3932865 0.025524309 -0.29959628 -0.4669922 -0.6867906 0.5155307 0.5515245 -0.1918136 0.48132926 0.47658348 -0.025094043 -0.21882468 -0.21732137 -0.2687319 0.15592344 -0.22593662 0.69390327 -0.32655042 0.07843686 0.39900273 0.0054268776 0.77622414 -0.9582041 -0.045992196 0.59790385 -0.81038684 -0.009793976 0.9873377 0.4090623
23 0.12362154 -0.13909507 -0.077955686 0.4480442 0.48963496 -0.6895935 0.17909403 -0.16997491 -1.0677996 0.40302017 -0.26899463 -0.38755453 0.40657422 0.091927506 0.22117825 0.37551904 -0.056640923 0.05170131 0.89844775 0.69880885 0.41295922 0.2330901 0.46824658 -0.41964298 -0.48737454 0.45450485 0.19534078 0.93877125 -0.68389064 -0.10619631 -0.76559013 -0.3091492 -0.23506205 -0.11595564 0.70644873 -0.023181338 -0.443712 0.85868776 -0.110112704 0.14411253 0.09260762 0.55162793 -0.5224373 -0.3315957 0.5494887 -0.051030368 -0.44273573 -0.06317371 0.57973886 0.20743985 -0.5279493 0.1077847 0.34482625 -0.19078721 -0.16398406 0.24307664 0.41444257 -0.36896172 -0.01731355 0.4884782 0.18293422 0.09456605 0.29560015 0.008888529
93 0.22993381 -0.5235364 -0.41715068 -0.13501318 0.10555507 -0.5523823 0.009449721 -0.6812259 -0.46170738 -0.52311045 0.8291596 -0.13627739 0.51840496 0.26033145 -0.31454054 0.65009004 -0.07632907 0.6211533 -0.23984475 1.2276666 -0.22476324 -0.103195384 0.59149945 -0.80554444 -0.03175175 -0.037036654 -0.098595716 0.28768736 -0.056956895 0.123490095 -0.34067455 0.54976386 -0.25164977 -0.4920641 -0.330898 0.31282762 -0.13351338 -0.41002393 0.50041777 -0.51672083 0.7240716 0.12601824 0.009486468 0.07294791 0.08696053 0.7830986 -0.3656831 0.035349607 -0.07514112 -0.5181664 -0.35496143 0.9809904 0.3299828 -0.18340674 0.26955643 0.17223535 0.07086252 0.5308761 -0.11377945 0.8450913 0.3097292 -0.18772124 -0.2669275 -0.12036372
1665 0.14947021 -0.71977514 0.4758573 0.10865411 -0.029894304 0.12850769 -0.36014196 0.09043182 -0.3351832 -1.0959351 -0.5549207 -0.22788697 -0.69187313 -0.12600705 0.17675264 0.31607112 0.04796614 -0.19347975 -0.044261638 1.1537753 0.155691 0.68295413 0.6021814 -0.06687729 -0.7970278 -0.27343482 -0.74959546 0.03327569 -0.1337299 -0.46254852 0.27850023 0.78770566 0.023002587 -0.24533623 -0.30548984 0.03209949 0.44249108 -0.20852804 0.23383893 -0.3706403 0.40453395 0.13673033 -0.15457931 -0.90251756 0.21885596 0.51788306 0.47238097 0.30273202 0.6529 0.28413182 0.18424459 -0.36883003 0.59857213 0.1138903 -0.24390368 0.04776444 0.042981144 0.5852484 -0.13021256 -0.2187558 -0.030255131 0.19567849 -0.27151445 -0.17909263
35 0.52283823 -0.32379842 0.6872105 -0.09973684 0.08562179 -0.28381777 0.67184967 0.408673 0.33928254 0.07014453 -0.31431106 0.064479105 -0.19529922 -0.5987214 0.1805218 0.22308685 0.20306887 -0.037450664 -8.671122e-05 0.7167811 0.25338402 0.7622354 0.98504025 -0.7235214 -0.18494414 -0.3249231 -0.8732771 0.64979994 0.1704487 -0.25083312 -0.033281058 -0.12894227 -0.2988008 -0.0211495 0.091383204 0.23772216 -0.4288259 0.13859838 0.45912746 -0.09814943 0.12738143 -0.343477 -0.18820056 0.9135696 0.21421565 -0.2437816 -0.030542413 -0.46791607 -0.70184404 0.14227459 0.52390784 0.0022228998 0.30027518 0.15489775 0.5525924 0.46677607 -0.6676247 -0.21635427 -0.013775347 0.517813 -0.47963962 -0.10174152 -0.5611649 -0.25986236
79 0.6556247 -0.4155558 0.30644417 0.2991908 0.7787365 -0.86147004 0.04023613 0.3520625 0.030415842 -0.9872511 0.5097901 -0.3458913 -0.9346317 0.050604247 -0.5632249 0.30812225 0.4612122 -0.016556034 0.31394842 0.16370805 -0.3757089 0.13896203 0.6597416 -0.24072365 0.021756738 -0.20131701 0.11758636 0.39616722 0.042471945 0.31308234 -0.2135886 -0.5300818 0.16983572 -0.42206576 -0.43603787 -0.14522576 0.0043564197 -0.23942459 0.16240497 0.43005997 -0.08663168 -0.055955153 -0.15645279 -0.65421826 0.59672254 -0.8847256 -0.29624814 0.002353992 0.38329032 0.19633484 -0.2042707 -0.15542798 0.8107491 0.2525333 0.06422499 -0.45872116 0.16901535 0.008995416 -0.7679594 0.18236883 -0.008024828 -0.7593532 0.54923284 -0.18915997
95 -0.15309016 0.051945116 0.94944334 -0.24579442 -0.26669616 -0.18093288 0.6431761 0.12801573 0.20658757 -0.53576577 0.5316666 -0.5549018 -0.31730965 -0.41623107 -0.777526 -0.3101308 0.02994709 0.11466439 0.11700547 1.2161024 0.56185704 0.6293385 -0.023242893 -0.6354562 0.4530914 0.13316616 -0.032579217 0.48520547 0.22533128 0.028148564 -0.2392529 0.28281316 0.38850427 -0.40337038 -0.6242543 -0.28400883 0.53542334 0.0030835532 0.3592123 -0.6846746 -0.6237276 -0.65281785 0.15802948 0.1651204 -0.31627136 -0.1285617 -0.2235948 -0.20151389 -0.5653932 0.27020228 -0.8759337 0.4081607 0.053365864 -0.29230034 -0.22152935 -0.14707227 -0.2898868 -0.73399717 -0.055846103 0.19282036 0.3962669 0.034583703 0.31836754 0.13491815
91 0.18164355 0.24396737 0.56142265 -0.4285836 0.09691564 -0.9011537 0.35809776 0.2358643 -0.83387876 -0.13489756 0.40538523 -0.63306564 -0.46841708 -0.06348761 -0.51495415 0.22650287 0.724516 0.17250681 -0.08231581 0.6690877 -0.046993498 0.21240602 -0.65818256 0.18690525 -0.22848074 -0.31133917 -0.006427751 0.0073522227 -0.58984196 -0.37591407 0.16477634 0.19949833 -0.4264185 -0.4423598 0.06517566 -0.15746024 -0.12524104 0.11077315 0.14344187 -0.21732716 0.10251408 0.36627966 0.44013962 0.050245825 0.18409745 -0.16582115 0.5778566 -0.5911561 -0.2512744 -0.5311138 0.7104418 0.15244013 0.9081764 -0.52822196 0.4273661 -0.4812115 0.44906944 -0.25935015 0.09002976 0.3213047 0.71962833 0.52898467 0.014497816 -0.80453634
20 0.6979729 -0.25853822 0.15384388 0.048853632 -0.29876173 -0.0034645775 1.0278821 0.006438047 -0.124064736 0.22094832 -0.2527455 -0.9727738 -0.29743066 -0.45011368 -0.5952351 0.78783166 -0.075637005 0.12291026 0.387487 -0.04544922 0.66056186 0.48465893 0.18275838 -0.9427613 -0.5129898 0.65035987 -0.55046314 0.15410529 0.35775715 0.33418363 0.11152189 0.08376633 0.17363395 -0.597279 0.8064006 -0.23888075 0.63421345 0.32095397 -0.46825483 -0.33983186 0.7877067 0.09022217 -0.27435878 0.42022553 -0.29879862 -0.40797788 0.2140368 -0.2772339 0.7431647 0.030641193 0.07406616 -0.1739872 -0.24823193 0.08344208 0.035992097 -0.06356454 0.13848378 -0.10649395 -0.2629158 -0.26088798 0.19282356 -0.18275471 0.29835087 -0.1895509
64 0.59585446 -0.39109346 0.011919942 -0.3487105 0.20828837 0.29865876 -0.017364642 0.1946602 -0.8744088 0.13013719 0.12810116 -0.5172707 -0.4198216 -0.03903877 -0.18122126 0.023639522 0.18008113 -0.0444462 0.30483586 0.96663976 0.1660565 0.21722122 -0.30301908 -0.28823364 -0.015992155 0.7476018 -0.0026072601 0.76340896 0.6025529 0.3176998 -0.3281025 0.95725083 -0.2607229 -0.5482714 -0.12345713 0.41212118 0.5136194 -0.22096787 0.23233582 0.38060477 -0.114252575 0.58596414 0.34679493 -0.11210177 0.5718249 -0.20214131 -0.28879035 0.0812325 -0.56272334 -0.2529907 0.23694734 -0.4652029 0.44017655 0.09673293 0.6979314 0.078599885 0.5925053 -0.116815686 0.16544458 0.70495135 0.26015797 -0.35107324 -0.28318152 0.85610765
96 0.53953725 -0.0017224535 0.5249419 -0.48651153 0.30561513 -0.0877211 0.629951 0.15935174 -0.7242141 0.23673844 0.5285024 -0.1309493 -0.43457213 -0.77556723 -0.60973865 0.026111914 -0.03054014 -0.71612453 -0.21925762 0.47463512 -0.41332224 0.22114438 0.32892922 0.15533769 -0.22571698 -0.22440599 -0.54609483 -0.12729633 -0.010222389 -0.4136736 -0.42264387 0.0464092 -0.06881299 -0.7492531 0.06945231 0.732139 0.41006008 -0.44084084 -0.42584395 -0.9418071 -0.5321458 0.6082178 -0.21253417 0.0053460347 -0.8202629 -0.29076788 -0.53101337 -0.3741786 0.027279716 0.38085648 -0.09745638 -0.3642824 -0.0043177563 0.3079537 -0.1654492 -0.21680473 0.4001834 -0.2887993 -0.18261302 0.75990844 -0.0026434723 0.18806438 -0.38714066 -0.16069451
132 -0.23690622 -0.24546385 0.3388201 0.111794695 0.5022426 0.27024537 0.18051527 0.2049235 -0.42728704 0.34741816 -0.087560214 -0.30070424 -0.34807733 0.2203887 -0.35873112 0.35785413 0.16033891 0.815213 -0.46344125 0.56667113 -0.23519064 1.2290924 1.3147041 -0.6437763 0.17703998 0.069023356 -0.47589618 -0.47241092 -0.17002068 -0.35054794 0.09849699 0.40013734 -0.022576118 -0.16755567 0.0021730086 -0.03179482 -0.15098651 -0.39282292 -0.67965764 0.23798528 -0.5034581 0.6499259 0.24866576 0.187036 0.39699408 -0.53837043 -0.8356249 -0.026680538 0.31209207 0.38752428 -0.40284565 0.5692374 0.689637 0.26012775 -0.38907966 0.122083455 -0.22983114 0.3327313 0.15146503 0.19026604 0.49684012 -0.02711211 0.2367671 -0.21312001
17 0.52740175 0.077157505 0.073203474 0.099989794 -0.24944931 -0.46925518 0.10561781 -0.9002601 -0.61942905 0.28479987 0.13173234 -0.23401529 -0.65770835 -0.107760824 -0.71648455 0.005401164 0.026723111 -0.13682795 -0.2947056 0.77854663 0.373334 0.33906814 0.40241772 0.2350847 -0.30196783 0.65566856 0.24794534 0.13842732 -0.26648217 -0.59745955 0.14453758 0.5508323 -0.16935 -0.64020824 -0.1086356 -0.80069554 -0.03271715 -0.76415527 0.24890059 0.6091809 0.020787643 0.38347518 -0.49782768 0.43237525 0.30475438 -0.2346115 0.1863481 0.0056242323 0.33023986 1.0471355 -0.7044181 0.1357605 0.22413479 0.21471614 0.4436908 -0.05972913 0.1738893 0.44241336 0.63081455 0.03577572 -0.36644408 -0.09276627 0.011285318 0.012274145
1672 0.30524817 -0.2328337 0.8767994 0.552035 0.067521974 0.046985213 0.32169706 0.089875594 -0.36152795 0.6106217 1.0299009 -0.7276734 -0.25186723 0.014994247 -0.83013195 0.027903426 -0.32228905 0.017051505 0.2591473 0.45813137 0.3557722 0.28794488 -0.24435753 -0.30461457 -0.6266182 -0.6254073 -0.21154046 0.3155516 0.27986977 -0.06718708 0.7377014 0.28286427 -0.27690738 -0.09358355 -0.12555116 -0.21776776 -0.123064324 0.20702736 0.19308122 -0.44902644 0.27901173 0.63477564 -0.15809083 -0.18643 -0.49073586 0.74499625 -0.26360673 -0.22447 0.6869407 -0.040228732 0.0991702 0.46130368 0.56868815 -0.11327987 -0.56889814 0.081929676 0.1340159 -0.35054255 -0.9161328 0.12163335 0.37272468 -0.3729323 -0.22697045 0.3472614
97 -0.29583493 0.29005516 -0.12698604 0.526845 -0.06773959 -0.3586584 -0.6268122 -0.03701193 -0.3006537 0.35741508 1.0603095 -0.12827641 -1.1642821 -0.80529135 -0.112995185 -0.097810134 0.1987062 -0.001845456 0.23192336 0.5735727 0.5226967 0.54062593 -0.059789326 -0.37626508 -0.3953168 0.106421955 -0.68199384 0.67142165 -0.010722114 0.42879042 -0.51071256 -0.3983164 -0.18112902 -0.1955856 -0.61107427 0.2848528 0.02742827 0.23005158 -0.08004772 -0.36398283 -0.08691176 0.819006 0.13734199 0.34072092 -0.058051936 0.34758946 0.46222496 0.36229035 0.034586437 0.25479722 -0.46378815 -0.09023455 0.26664877 0.19572037 -0.26977363 0.467403 0.50156444 -0.16067551 0.7051081 0.34918332 -0.044854388 0.5166255 0.32370982 0.48654714
63 -0.21185799 -0.19197024 0.45851249 0.028407266 0.030009285 -0.4970528 0.4311649 -0.26184374 0.19985928 -0.39112222 0.2055447 -0.4485805 -0.07257616 -0.50336486 -0.09404243 0.0077878456 -0.43208668 0.5167646 -0.26959884 0.45020425 0.1848893 -0.15303761 0.9372354 0.038076315 -0.5893151 0.44120055 -0.2677375 0.2715404 -0.66411203 0.5420888 -0.24153574 -0.16565722 0.3436497 -0.4098961 0.12191166 -0.08145237 1.2951964 0.5730216 -0.31229877 0.13577761 -0.37926897 0.29344526 0.49830005 0.17888081 0.08169773 -0.46053228 0.78007996 -0.37263528 0.18869187 0.56095344 -0.008853993 0.27921188 0.48727852 0.4141312 0.12613799 0.32975036 0.037375588 -0.3959527 -0.09163465 1.0648626 -0.60263985 0.21938126 -0.36845085 -0.35327157
111 -0.6325089 -0.27051657 -0.21480756 -0.6043294 0.42226383 0.30997205 0.06647527 -0.42670202 -0.83487 -0.09319294 0.03800662 -0.6254966 -0.34252214 -0.38021964 -0.14140384 0.41766548 0.4608567 0.26377317 -0.02118265 0.7060308 0.15473291 0.2823971 -0.34286785 -0.94704866 -0.5353513 -0.26957852 -0.62460655 -0.8387452 0.17487912 0.17141446 0.39143446 0.17857236 0.50624734 0.2008725 -0.7467686 0.367363 -0.07653019 0.2382093 -0.08308594 0.32190874 -0.5773782 0.24608588 -0.46393394 -0.6246764 0.34738028 -0.118603915 -0.075493306 -0.58214414 0.50013417 0.63412786 0.21378107 -0.36809525 -0.4580321 -0.1691473 -0.24502365 -0.29899547 0.23829593 -0.51446944 -0.48133826 0.7430785 0.21038578 0.06047523 0.13877547 0.4269331
62 -0.3727108 -0.1953234 0.21075244 -0.73932046 0.4930932 -0.05651824 -0.07017326 0.61189115 -0.08178528 -0.07116818 -0.12820508 -0.5070691 -0.00044259432 -0.33163434 -0.15467112 0.0549012 0.17823471 0.2603335 0.3235718 0.50134826 0.4610042 0.84833896 0.22036076 -0.89333206 -0.13663355 0.1942247 -0.5553107 -0.003715643 -0.40081656 -0.32073417 -0.44016716 -0.38313413 -0.49108714 -0.94642144 -0.13149631 -0.29911464 0.19022122 -0.17577222 -0.5789615 -0.013872477 -0.039787423 0.6906382 0.35522205 -0.23229462 -0.92403203 -0.021544177 0.062839836 -0.73167366 0.0967273 -0.17582436 -0.09184249 0.4112934 -0.5537876 -0.08447166 0.47289738 -0.11632934 0.6354523 0.7569149 -0.23821008 0.27121735 -0.9332114 -0.10022485 -0.08018529 0.08609727
84 0.16279422 -1.0365064 0.29152524 -0.6209473 0.4330418 -0.21868883 0.19274199 0.06462556 -0.54537046 0.43073854 0.760846 -1.1289927 -0.50563025 -0.5253373 -0.37923288 -0.2045468 -0.14899696 0.08925305 0.93876904 -0.22039258 0.16830724 0.016748343 0.6981794 -0.1867301 -0.12551872 0.29827026 -0.108839266 -0.060839523 -0.42701963 -0.34764802 -0.0560245 0.11795162 0.5811372 -0.04781537 -0.48648933 0.044253238 -0.31002098 -0.06692173 -0.42861688 0.6490786 0.8132516 -0.15736064 -0.17532964 -0.06129458 0.16808191 -0.37050527 0.24925737 0.048635155 -1.0363691 0.1120849 -0.17926145 0.2839388 0.3507068 0.12083012 -0.23343429 0.3485184 0.21650311 -0.5829526 0.22071795 -0.21048734 -0.10746461 -0.32250395 -0.010493975 0.806157
36 0.74694735 -0.057929803 -0.42112717 0.19969517 -0.10114697 -0.14652693 0.42174867 -0.8904089 0.22216944 -0.34814194 0.44844162 -0.6888345 -0.21526033 -0.6052492 0.32246473 -0.65751606 0.39207852 0.027793966 0.13493457 0.4079658 0.7134518 0.4640109 0.06715543 -0.4694962 -0.023948258 0.22189859 -0.22721429 -0.33473673 -0.00018984114 -0.56947744 -0.45315424 0.1491374 -0.1695871 -0.6220612 -0.40849203 -0.4931868 -0.6448437 -0.20119293 0.33219513 0.42736658 0.1873847 0.4665748 -0.21402258 -0.55256516 0.46366265 -0.756332 0.6612525 -1.0965503 -0.13703552 -0.48298237 -0.10674375 0.13807456 0.20180379 0.24564151 0.014330819 0.35485134 -0.09819152 -0.024652146 -0.45167547 0.37622932 0.476119 -0.3707517 -0.65098786 0.33688498
107 1.2035962 0.030157153 0.22228883 -0.05028215 -0.20925012 -0.6078086 -0.44280848 -0.6354392 -0.23172025 -0.30725092 0.292749 -0.21860673 -0.64833003 -0.18223901 -0.256667 -0.2070037 -0.050234564 0.4140217 0.019975016 0.3106144 0.18268614 0.6818927 -0.1510009 -0.0094304625 0.46337706 0.5265502 -0.6730028 0.59978074 -0.18834324 0.39790407 0.5624098 0.2655107 0.21710081 -0.764017 -0.7464308 0.2353021 0.02956412 -0.1586785 0.014985548 -0.43190572 0.2860736 -0.36685652 -0.09752115 -0.41212007 0.44170237 -0.8289244 -0.17117953 -0.189827 -0.0127507495 0.5942491 0.43163413 0.34060457 -0.9199025 -0.66560304 0.09678603 0.30207163 0.08749676 0.09395719 0.19922139 0.7647721 -0.3540671 0.10791283 -0.21794525 -0.39051297
56 0.22038262 -0.269182 0.29258505 -0.0939473 0.6568098 -0.05327751 0.29694065 -0.37626958 0.10270367 -0.52595514 1.2596464 -0.08625353 -0.38763902 -0.5609359 0.38193983 0.16176978 0.18895563 -0.20757626 -0.25690418 0.38928747 0.2907667 -0.0814683 -0.122469105 -0.5298984 -0.8530597 0.4643284 -0.66692847 -0.0209869 -0.7622669 0.14971648 -0.06587419 0.524972 0.75015235 -0.38968796 -0.22865056 -0.5261912 -0.576099 0.24101263 -0.15933903 0.09056521 0.4224431 0.136865 -0.94553584 -0.03565012 -0.504159 -0.09246973 -0.3236093 -0.30039608 -0.1597511 0.005555209 0.3626625 -0.7533732 0.67608184 0.021964557 0.52088714 0.68061316 0.037829664 -0.041136075 0.21120757 0.41269785 -0.3961638 -0.09594268 0.41850483 -0.74843603
70 -0.5913823 -0.717408 -0.4428986 -0.29717004 0.21704309 0.08458597 -0.27472866 0.26105127 -0.2937931 0.17294738 -0.40333784 -0.43611816 -0.82475865 0.18508922 -0.3945373 -0.10623632 0.045572426 0.26544043 0.041623604 1.0505965 0.6287682 -0.1475001 0.19150308 -0.7252057 -0.04603446 -0.10603438 -0.51193464 0.7523999 -0.1596233 0.40288374 0.1404574 0.13186838 -0.52865213 -0.7186955 0.29076988 -0.60199136 0.38304806 0.16195613 0.32994097 0.024450729 0.36082232 -0.67775613 -0.71969926 0.44178393 0.5259959 -0.58156043 0.46954697 -0.09531443 0.21211705 -0.33067045 0.37608162 -0.2004723 0.24431935 0.19331029 -0.50988847 0.02164317 0.37403846 -0.2676388 -0.17233439 0.35888687 0.31592694 0.74473625 0.32659227 -0.45655873
28 0.17880908 0.41175342 0.111050636 0.3723266 0.37033218 -0.39170602 0.041721247 -0.65119326 0.21637706 -0.53842396 0.32236126 -0.5408381 -0.61540586 -0.30779243 -0.53796226 0.075552724 0.14670125 -0.49418333 0.30848557 -0.13650268 1.0590686 0.7618842 0.2763244 -0.6803957 -0.08971539 -0.6235156 -0.32560036 0.32242218 -0.45772597 0.13845657 0.3144035 0.641202 0.12864892 0.8476734 -0.29988 -0.37791067 0.44703078 0.056355428 -0.006426076 -0.08731148 -0.08515126 0.4401408 0.26895946 0.46750015 0.3893115 0.022342596 -0.19908781 0.37136915 0.068635754 -0.12713495 0.28746203 0.5602388 0.11179873 0.53604573 0.48553854 -0.3425554 0.7976234 -0.44888344 0.030417103 0.4318842 0.1793911 -0.6469843 -0.16505133 -0.38059485
1676 0.3896505 -0.12420417 0.6944173 0.07326865 0.01750494 0.09866042 -0.3763702 0.2391657 0.39495227 0.5330306 0.31152412 -0.6286076 -0.33483392 0.26360112 -0.7167849 0.45113245 -0.47433057 -0.046596024 -0.3451439 0.51369506 -0.49019575 0.30627146 0.47720724 -0.47567534 0.27949685 0.047120236 -0.51582855 -0.09537122 0.21962461 -0.47729662 0.4374118 0.39234638 0.22377357 -0.6852533 -0.0040502436 -0.34106538 -0.5918734 0.0042394036 0.07194718 -0.26587075 -0.29885 0.031397495 0.15513045 0.3743315 0.38640958 -0.17580888 1.2434143 -0.6566441 -0.38420954 0.12857151 -0.21365061 0.19805379 0.9045441 0.085354194 0.36304796 0.8546172 0.45016906 0.10180902 0.27367538 0.60222846 0.12557632 0.2811682 -0.13532099 -0.27534273
104 0.020228876 -0.8323813 0.27210364 -0.31559145 0.268298 -0.67610544 0.0049234256 0.04308718 -0.9960409 -0.4126422 0.106818795 0.12892002 -0.08705563 0.27114516 0.10088397 0.22804046 0.4241506 0.14482632 -0.39185187 0.07794211 0.017551526 0.7039089 -0.061358415 -0.47770277 0.44994268 -0.26431793 -0.96782243 -0.45076066 -0.43012533 0.44854444 0.52812433 0.6413536 0.37564367 0.105817504 0.1749318 -0.67849296 -0.29383665 0.15163374 0.37914202 -0.05276021 0.43772998 0.20223933 0.015881121 0.26521143 0.09724998 -0.064734004 -0.1674681 -0.05253638 -0.16174357 0.5677358 0.5649234 0.22457233 0.8299803 0.08965372 0.077535495 0.552205 0.49097726 -0.22516443 -0.41483766 0.30153018 -0.8457458 0.861456 -0.25453025 0.25571945
60 -0.2879112 0.53374213 0.016933244 -0.025413541 -0.6788686 -0.58855015 0.27070108 -0.02624839 -0.6581523 -0.24182364 0.6882195 -0.51793677 -0.2670613 0.43592617 -0.08154655 -0.7138649 0.09385073 0.028780859 -0.34595752 0.6987279 0.21765704 0.15716127 0.7080937 -0.9970301 -0.24796939 -0.07401721 -0.40518907 -0.57942164 -0.3010469 -0.15508132 0.4758091 -0.10129368 -0.39098203 -0.37067175 -0.12769821 -0.061440036 -0.4959715 0.28111637 -0.1484345 -0.9627966 0.032856796 0.010304051 0.3337223 -0.034260668 0.58828497 -0.34945476 0.31696725 -0.5403013 -0.1437983 0.40973383 -0.38859934 -0.65801287 0.36400536 -0.30627576 -0.5712451 -0.27167076 -0.24958725 0.40718946 -0.43945616 0.5398727 -0.33311465 0.6568774 0.29787448 0.30978125
105 0.32070053 0.20446631 -0.19109264 -0.29001784 0.44916496 -0.366013 -0.2273452 -0.41176343 0.22716448 -0.1317708 0.6333735 -0.6158616 -0.3925702 -0.4801189 0.008793224 0.02483195 -0.18983974 -0.6241777 -0.4916037 0.11286283 -0.47965628 0.6655145 0.48470312 -0.392849 -0.47814488 -0.08597064 -1.0048318 -0.6189355 -0.3000329 -0.3663623 -0.4296135 0.13367595 -0.095972665 -0.06035679 0.11977208 -0.5647487 0.07478479 0.33117682 0.27343532 -0.22777578 0.47377053 -0.37531015 -0.5347592 -0.19690943 0.35793087 0.21919902 -0.5089813 0.026702946 0.30623168 1.3211398 -0.34759748 0.6195232 0.07028762 -0.15452565 -0.6657638 0.12114413 0.50572336 -0.94537 0.2410586 0.44686347 -0.21884924 -0.37702307 0.06264862 0.39150432
80 0.5372651 -0.03449353 0.10419472 0.06598036 0.1864435 -0.6229316 0.10278186 -1.0180932 -0.8705902 -0.06413133 -0.20004104 -0.68146586 -0.6530593 0.21157238 -0.46433052 0.20705251 -0.28739125 0.7074972 0.47584918 0.9859857 -0.031790175 0.400734 0.3630958 -0.41855118 -0.17811388 0.29847014 -0.05999792 -0.13410725 0.28054604 0.08033865 -0.26237544 -0.37555024 -0.4394106 0.5953835 0.15674783 -0.40050858 0.052702405 -0.014988065 -0.20790738 -0.10449543 -0.2929823 -0.32124886 -0.5778418 0.17533249 0.07940439 -0.1150036 0.47535 0.39678982 -0.6654978 0.42671162 0.11348658 -0.055346694 0.37843564 -0.03895077 -0.43765596 0.2157049 0.119104795 -0.17071265 -0.97613734 0.7633602 -0.16270036 -0.37130353 -0.7844958 0.35306743
99 -0.11041174 0.43877456 -0.35694665 -0.09088724 0.7415143 -0.6501449 0.6106538 0.11427884 -0.7385018 0.39121574 0.21297432 -0.8722997 -0.4806516 0.08654856 -0.17083345 0.31650066 -0.13415109 0.35748452 -0.23353891 -0.002776019 0.5695697 0.19931157 -0.3811259 -0.57687724 0.40540218 0.52270085 -0.25275117 0.40387064 0.26223332 0.03228606 -0.03131448 -0.4380386 0.03249822 -0.13629904 -0.61876744 0.58832073 -0.49510083 0.12076103 0.055678476 -0.42490816 0.43776056 -0.58179474 -0.2485633 0.62958395 -0.057960015 -0.70423937 -0.20171389 -0.6517144 0.011779284 -0.21371809 0.07506976 0.73159856 0.09511122 0.357391 0.29296032 0.3444867 -0.06602142 0.08588616 0.10708432 0.6344241 -0.17083967 0.36505252 1.0390928 0.25300804
1679 -0.39818552 -0.18106338 -0.08802898 0.14180996 0.4545643 0.032966964 0.11204367 -0.5352355 -0.9532188 -0.2695162 -0.4994964 -0.30363855 -0.049500935 -0.14697583 0.24807139 0.21654615 0.31358984 -0.42657536 -0.27738518 0.40421292 0.38465673 -0.12081441 0.9319166 -0.2433797 -0.2512138 -0.5411697 0.20020097 0.20406188 -0.007887754 -0.5687379 -0.2593909 1.0199994 0.5090591 -0.7577072 -0.14807028 -0.9687423 0.23759188 0.4912244 0.15187523 -0.17423362 0.33723763 0.16873063 -0.39914015 0.37605843 -0.10169586 -0.6655356 -0.28385782 -0.7799547 -0.71965563 0.35352296 0.2572352 0.28897664 0.011648004 0.16200085 -0.20257507 0.035582636 0.29065385 -0.47551855 -0.13391931 -0.054591432 0.6783637 -0.20733291 -0.24228422 0.4731473
1657 0.11692656 -0.8759126 0.48089 0.282529 0.53817207 -0.15247075 -0.049765017 0.27257943 -0.52670705 -0.4090573 -0.287919 -0.26889908 -0.5923369 -0.5199067 -0.24877435 -0.3609041 0.46723 -0.1991763 0.27003923 1.2852426 0.3180749 0.517056 0.09065296 -0.57271016 0.040520042 -0.41096452 0.2503592 -0.22728464 -0.46261507 0.36460212 -0.19416443 0.30531052 -0.72491544 -0.07878719 -0.91733134 -0.17773212 0.27094716 0.15830623 -0.698929 0.15448977 0.33057415 0.24443994 0.18675596 0.53853905 0.016054664 -0.01721406 -0.7901542 -0.0036368414 -0.057623547 0.343347 0.23989396 -0.2884949 -0.22431052 -0.54177475 -0.7404086 0.4453343 -0.16096771 0.09719809 0.56077623 -0.030077042 0.07016313 -0.53702205 -0.654993 -0.06466607
100 0.59879047 -0.6348477 -0.47420686 0.35378584 -0.1726523 -0.27263632 0.4350009 0.007983003 0.094206795 -0.34216246 -0.41266963 -0.70017445 -0.3166589 -0.06928156 -0.29382685 -0.25059262 0.333327 0.12973392 0.81274086 0.57035655 0.17716081 -0.062354617 0.5673779 -0.64018255 0.5805661 0.22096209 -0.66512126 -0.49202523 -0.1926334 -0.7657202 -0.22956994 0.23552774 0.24325977 -0.5622046 0.015067189 -0.42920277 0.23107542 -0.35560942 0.25486922 0.14703345 -0.0764387 0.06550812 0.43631938 -0.77339286 -0.3564279 0.2391542 -0.4538127 -0.038839653 -0.28870052 -0.08941318 0.53321254 0.03917554 0.27772564 0.81438106 -0.44762358 0.06044655 0.81387895 -0.51993984 0.616277 0.9017317 -0.047846463 0.15583488 0.09998997 -0.14696755
51 -0.10822389 -0.09902245 0.25646624 0.43431756 0.2678118 -0.078811966 -0.4477893 -0.18382834 0.004060689 -0.8105579 -0.09854399 -0.2657567 -0.89719856 -0.94094837 -0.17939605 0.5517325 -0.59165174 0.46094045 0.40695667 0.78213227 -0.14268021 0.33436158 -0.6196555 -0.27907175 0.1877869 -0.8936042 -0.77857846 0.116512634 0.48696965 0.11141939 0.004916737 0.4738826 0.30808294 -0.7640482 0.18047664 -0.14551544 -0.027448002 0.07919221 0.18745072 0.70520127 0.9279473 0.009294438 0.28503487 0.17416939 0.23263691 0.09187653 0.2493479 -0.83493847 -0.42154157 0.21668501 0.055422097 0.517785 0.009069669 -0.1766342 0.45018408 -0.19721337 0.5512191 -0.62894607 -0.029863616 -0.09082505 0.03653869 -0.21208823 0.24567488 0.13403621
103 0.32451004 0.46655828 0.8549629 0.70369714 0.67112935 0.070011176 0.7558774 -0.11119164 -0.72971153 0.08200503 0.07931005 -0.016555035 -0.33209223 -0.48981693 -0.2392119 0.13427517 -0.23350132 0.7024085 0.5026414 0.6405544 -0.02919574 0.11424997 -0.13604599 -0.2048574 0.26005244 0.22971764 -0.425329 -0.48013246 -0.7243103 -0.44143048 0.4825131 -0.22766714 0.12741178 0.18851309 -0.40162712 0.11746661 -0.02003573 0.0697746 0.3739437 -0.18921651 0.5986459 0.8856838 0.4240684 -0.02682565 0.8129716 -0.1505113 0.4585327 -0.33272383 0.24732904 0.5164061 -0.062234778 0.028506132 -0.19864978 0.028543063 -0.5234587 0.5102749 0.4349969 0.44978648 0.159579 0.80160236 0.18339385 -0.09001651 0.5321298 -0.18628025
54 0.20221959 -0.6801408 -0.09067146 0.2550898 0.22692953 -0.87293607 -0.6024775 -0.16592346 -0.5755321 0.28767636 -0.14577271 -0.42214966 -0.6564243 -0.61506015 0.02916637 0.23894776 -0.659734 0.5690243 0.5811282 0.49362475 0.31662977 -0.14672807 0.32570407 -0.1712914 0.016657578 -0.70999163 0.30423898 -0.15857066 -0.24533859 0.021936584 0.29009485 0.47005624 -0.2332799 -0.11593486 0.021567404 -0.26957566 -0.025272617 0.064913206 0.23146223 -1.07745 0.26940596 0.81884676 -0.22713494 0.09830276 -0.27869028 0.41748828 0.2389723 -0.83102477 -0.07838888 -0.052305985 -0.022835815 0.16394587 -1.0540925 0.3020111 -0.12579788 0.11047238 -0.18321766 -0.31000507 0.2796389 0.7085862 -0.36172992 0.19721057 -0.58387524 -0.05309826
1658 -0.19344053 0.64010125 0.12597497 -0.029654885 0.3867963 0.051445805 -0.09559244 -0.14127262 -0.6777679 -0.454317 0.22413744 -0.46868202 -0.691464 -0.46029598 -0.59588516 -0.08018657 1.0661474 -0.19635522 -0.4312253 0.29693073 0.2682642 0.33860645 0.54798406 -0.2817202 -0.0072582536 0.0082725985 -0.050873343 -0.011565521 0.9541146 -0.5073971 0.0507722 0.200573 -0.2856037 -0.28548768 -0.118318945 -0.3464443 0.3830339 0.5550536 -0.020438442 -0.48465404 0.25834873 0.76377594 -0.504476 0.40146318 0.9657417 0.22086649 -0.2633407 -0.34556606 1.0367812 -0.2006937 0.0687911 0.26644617 -0.15755881 0.61765915 0.46362758 0.30998048 -0.4070906 -0.54840827 0.09877117 0.61613566 -0.52504236 -0.049784247 -0.08487259 -0.11844318
1092 -0.012562175 -0.078434646 0.30333945 -0.45341083 -0.0071947323 -0.65042907 0.76329005 0.013821785 -0.50942796 -0.7241056 -0.27653342 -0.48025662 -0.0010653697 -1.0058472 -0.06313678 0.38617235 -0.95531875 0.24480502 -0.3299771 0.7239584 0.37181875 0.8717275 -0.03175072 -0.4420982 0.44761536 0.37454695 -0.5571882 0.21272558 -0.05197038 -0.6917929 -0.086471066 -0.15953512 0.060166337 0.7061781 -0.14924063 -0.48074242 -0.49212638 -0.7352968 -0.26613522 0.080864154 0.21613781 -0.14777905 0.3609104 -0.277091 0.3721543 -0.17314461 -0.71465194 -0.11137871 0.60501134 -0.24415024 -0.26926258 -0.5345734 0.29595995 -0.33249104 0.7022857 0.18057342 0.49852923 -0.4359784 0.005469723 0.33355972 0.13409714 -0.09123324 -0.29916182 0.24669556
37 -0.72576874 -0.7347129 0.7873181 0.04956406 -0.16548024 0.20512615 -0.17420897 0.5021291 -0.3973018 -0.19477825 0.26672277 -0.76879466 -0.55172616 0.4308984 -0.4161462 0.4737169 0.32930872 -0.46069536 0.07016423 0.512276 0.64175266 0.73131233 -0.18497223 0.3024492 -0.6921825 0.56784856 -0.044654176 -0.49571872 0.25106716 -0.06365969 0.2289242 -0.20913382 0.4156203 -0.4094663 -0.13154213 0.58388644 -0.27591237 -0.18667266 0.18468876 0.024689492 0.34953 0.7469435 -0.24464583 0.44393095 0.36961442 -0.7000084 -0.1407369 -0.8550708 -0.15807891 0.4825514 -0.46023092 0.23929057 -0.08516996 -0.06880989 0.06277568 0.5622183 0.1425615 -0.65615726 -0.29295528 -0.19509561 -0.25159082 0.42862532 -0.47456238 -0.5527984
110 0.5009089 -0.15072073 0.20393866 0.03944026 0.25925827 -0.55467993 -0.094784945 0.5192852 -0.45693046 0.319354 0.26473287 -0.25486943 -0.041619904 -0.91302884 -0.38852844 -0.2145786 0.0088856965 0.41858414 -0.18106495 0.89910465 -0.36058447 0.28946033 0.6662139 -0.47879693 -0.080814034 -0.43608963 0.100599386 -0.49051204 -0.64220667 0.0011308646 0.26323876 0.54185 0.60543865 0.15030517 -0.4788143 -0.21168457 0.2404941 -0.8051658 0.19085786 -0.30270472 0.06259634 -0.2829706 -0.8063589 0.5580063 -0.085487805 -0.5904177 0.29362577 -0.26491413 0.5679648 -0.76927304 0.80039567 0.19735558 -0.31043577 0.17258228 0.047056857 0.078583404 0.8527567 -0.09244726 -0.019502504 0.08481609 0.2502715 -0.17459138 0.50287133 0.20807019
65 -0.0040318714 -0.107134886 -0.49668893 0.49913365 0.3280599 0.12621659 0.23476633 0.84994096 -0.1283631 0.05264463 0.58268625 -0.6581182 -0.36337084 0.07069773 0.041352317 0.22274868 -0.18192533 -0.2609829 0.48142183 1.3782365 -0.18010905 0.6784043 -0.42676866 -0.15250051 0.9839869 0.56157553 -0.22504982 -0.14331867 -0.106870666 -0.50890166 0.057475176 0.67894745 -0.016260756 0.14549807 0.5100111 -0.13506833 0.16090456 -0.2096908 -0.23649777 -0.1324211 -0.16924044 -0.3825277 -0.80373406 -0.33350244 -0.5268374 -0.29626915 -0.05587371 -0.8233665 0.30944645 0.41314632 0.66218567 0.27767652 0.29171783 0.2534319 0.14853439 0.2435194 -0.02039341 -0.12800138 -0.33883464 0.31993023 -0.38681954 0.5869732 -0.36847955 0.13410786
98 0.51141196 -0.917876 -0.114884324 -0.1920868 -0.56347233 -0.50299805 0.27614847 -0.03480882 -0.15365776 -0.043001004 0.8373516 -0.20380816 -0.22643597 -0.09606108 -0.37609696 0.42468494 -0.25001845 -0.87269425 -0.10001222 0.24116993 0.56409883 0.82043195 0.120368004 -0.57229745 -0.8953533 0.451378 0.55271035 -0.5440025 -0.008730265 0.19207916 0.2646421 -0.3057675 -0.34700134 -0.12785271 0.06637491 -0.18538767 -0.06345526 0.24181402 0.10352828 -0.24759379 -0.48408365 0.05946256 0.45560926 -0.10224359 0.2827222 -0.5634929 -0.50210536 -0.30913916 0.6320193 -0.65837675 0.5709341 0.004465843 0.6945731 0.35427442 0.25663888 0.49703088 0.5630457 0.012363384 0.6433023 0.2373134 -0.4640636 0.23119916 -0.010579403 0.058440264
87 -0.5586659 0.36854216 -0.31611916 0.33528033 0.86011356 -0.71993095 0.5546073 0.61021775 -0.03358566 0.191187 0.3860785 -0.5593982 0.117381096 -0.23948143 -0.2984097 0.36608788 -0.7127374 -0.58089644 0.61359763 1.3925608 0.66955614 -0.17748514 0.25609228 -0.7436012 -0.641337 -0.39038682 0.13083753 -0.26569405 -0.44368005 0.08660233 0.57479024 -0.22872528 -0.07486275 -0.22937308 0.09954886 0.013325015 0.7940653 -0.55866486 0.3349055 -0.18843128 0.3592865 0.20332575 -0.20081712 -0.34414974 0.35108677 0.14624932 -0.17984636 -0.07807694 -0.5890541 0.08137473 0.6312696 0.3285864 0.3224263 -0.23660326 -0.34825918 0.19866624 -0.35018867 -0.05994735 0.0042756014 0.056065746 -0.2360635 0.104042575 0.3243122 -0.33781067
101 0.43849477 0.6114411 0.34162644 0.036339488 0.33233562 -0.27103272 -0.47126475 -0.27166125 -1.1362786 0.2320784 -0.19333126 0.18136668 -0.028168561 0.083960734 -0.45535585 -0.29770386 -0.25704917 -0.21939507 0.1869968 0.68437195 0.6686371 -0.16956428 0.9610344 -0.83258295 0.1902302 0.24393262 -0.24060841 -0.18347408 0.11394612 -0.14066894 0.1825256 0.093006685 0.4358292 -0.40616646 -0.20223604 -0.2710375 -0.26118177 -0.8099031 -0.28942746 0.07679174 0.10459032 -0.5083806 0.23717983 -0.7735218 -0.011948507 0.5202503 0.21831743 -0.68820924 0.48891518 0.3412343 0.8445914 -0.043249283 0.347431 0.13905339 0.40902096 0.2622341 0.38543317 -0.6660406 -0.09886532 0.0339391 -0.7509255 -0.578598 -0.2130246 -0.6194985
68 -0.19167528 -0.42331856 -0.031460423 0.7513125 0.5157445 -0.18293779 0.6451736 -0.4411178 0.1639301 -0.06678869 0.60983205 -0.40055868 -0.13343664 -0.0056394627 0.38338566 -0.4389277 -0.59972847 0.9188886 0.050507106 0.3156016 0.28336594 0.80806196 0.3167296 0.3238077 -0.5741639 -0.54213375 -0.41943657 0.42876938 0.624359 -0.37277007 0.12816031 1.0769603 -0.27492538 -0.6474607 -0.054481663 0.11584885 -0.589479 -0.044561915 -0.4681546 -0.017392414 0.47961774 -0.20440656 -0.037650693 -0.09548135 0.75713664 -0.47786695 0.020833937 -0.28358752 -0.15657124 -0.02896397 -0.5865087 0.42230138 0.10150843 0.31476387 0.016288185 0.21371612 0.5569715 -0.4191093 -0.46281648 0.35587484 -0.56570405 0.29739335 0.0088350065 -0.5290669
71 -0.030356979 0.09223582 -0.036477394 0.25428286 0.19724756 0.17069486 0.56926006 -0.009961103 -0.6523074 0.4540851 0.16737281 -0.70872915 -0.06838765 -0.5894567 0.20856386 0.020546965 0.3365542 0.35770854 0.056735154 0.3783009 0.9184371 0.5940744 0.3674837 -0.27710956 0.6400439 0.4581704 -0.19970089 -0.51270634 -0.6189607 0.44075996 -0.25656798 0.34928766 -0.6421121 -0.5357243 -0.19822821 0.30626896 0.23201011 -0.6716387 0.7149509 -0.012869418 -0.325099 0.27411264 -0.57446057 0.57502735 0.96734333 -0.07289963 -0.4824376 0.09026287 -0.403443 0.06703401 -0.10691541 0.08999656 0.11069434 0.679846 -0.3216394 -0.46937716 0.7618795 -0.10282739 -0.79662913 -0.15626177 -0.5767249 -0.5082668 0.2730808 -0.43709788
73 0.3625929 -0.16801387 0.06438933 -0.06761948 0.6396322 -0.8023348 -0.34039506 0.06280611 0.3102397 -0.45237437 -0.07584854 -0.3132516 0.39771837 0.08324646 -0.19598845 0.6020344 0.11991681 0.3177859 0.19571179 0.4478241 0.9936987 0.7173144 -0.07611129 -0.11869376 -0.118249066 -0.19707648 -0.80697685 -0.42951977 0.20359677 -1.1019995 -0.6547529 0.35766122 0.06726041 -0.43061623 -0.3739293 0.5285917 0.33049402 0.1833078 0.2345606 -0.6019023 -0.11847974 -0.31584492 -0.9090159 0.098767556 0.3498363 -0.19021583 0.3242988 -0.15231085 0.19065653 -0.6166086 -0.14025834 -0.3487287 0.079240195 -0.6595181 -0.24970178 -0.4941165 0.54431176 -0.2011143 0.36328617 0.7964677 -0.27780977 0.14929725 0.6030002 0.3082474
83 0.977595 -0.24764673 0.2818799 0.54986566 0.16526172 -0.027629174 0.9532158 -0.31539273 -0.7928531 -0.0100767305 0.34234744 -0.38198507 -0.7298851 -0.0521873 0.6324627 0.2664363 0.18483245 0.05450203 0.023795633 0.3573624 -0.11782732 0.0014917329 -0.11403469 -0.9360682 -0.03248353 -0.4588553 0.4875452 -0.17163643 -0.07940404 -0.64381564 0.10392894 0.19116567 -0.403548 0.03616839 -0.22425343 0.5517749 -0.17118728 -0.06469386 -0.49074224 -0.0127719855 -0.1350508 -0.539252 -0.56913304 -0.04026843 0.28852993 -0.18281966 0.1597049 0.082455136 0.48297793 0.5000293 -0.52415484 0.10845718 0.80451334 0.14710043 0.54287595 0.25348318 0.8787162 -0.34057042 0.023338322 -0.41846883 -0.5346412 0.6245354 -0.46824592 -0.054837644
16 0.50252676 0.57220143 0.4614244 -0.41953942 -0.40701824 0.18504407 0.20394932 -0.24609104 -0.627701 0.08722657 0.605587 -0.16485852 -0.7628979 -0.52207553 -0.28465512 0.29762086 0.009910828 0.20599286 0.87356627 0.21813414 0.8136327 0.13919911 0.71113 -0.27769074 -0.51235074 -0.45306274 -0.16112566 0.33051878 0.021249415 0.30097944 -0.19147801 0.3707216 0.08373704 0.77076507 -0.16258484 -0.081242 0.7407298 -0.17544661 0.77263963 -0.06485609 0.5891624 0.08819341 -0.4969864 -0.2550131 0.8888324 -0.58010006 -0.15260462 -0.9787287 0.13997255 0.23821516 0.1507768 0.20441689 0.08953972 -0.366387 -0.56377155 0.015984178 0.41969413 0.26856676 0.2515581 -0.3601772 0.022224892 0.7933478 0.054214086 0.28591987
89 -0.2319211 -0.10476307 0.74869233 0.21679974 0.5526828 0.21473049 -0.22304465 0.04351793 -0.5621161 -0.5274229 0.31022832 -0.057635475 -0.9871249 0.427021 0.8491983 0.010892708 -0.40791047 -0.11062826 -0.41181532 0.74490845 0.47273594 0.4645016 -0.25321048 -1.3339001 0.42598146 -0.16445391 -0.27073237 0.47195017 -0.056965496 0.36233678 0.07054235 0.1769855 -0.5289178 -0.46803916 0.21250498 0.008696298 0.12150313 0.41846225 0.12666637 -0.13482255 0.66895086 0.04268516 0.5244191 -0.49119946 0.17166372 -0.15284279 -0.33582178 0.14467451 0.085919656 0.0109275235 -0.18410318 0.29919115 0.13335192 0.91988355 -0.5468769 0.13356364 0.0100393295 -0.1417803 0.7759698 0.41760352 -0.50600207 0.11253142 0.16662419 -0.61283666
69 0.55698204 -0.39878932 -0.8538193 0.22544076 0.6534784 0.18662722 0.17664726 0.017221771 -0.23318593 -0.2220641 0.01797195 0.3136948 -0.9718639 -0.1489605 -0.48020697 -0.30475488 -0.2970777 0.6253025 -0.9116964 0.74555343 0.8750325 0.4810382 -0.27318045 -0.35225767 -0.87155557 0.4508132 -0.06015086 -0.1051673 0.31286258 0.28515646 -0.31133944 0.047089577 -0.34703678 0.16441968 0.25745633 -0.40250915 -0.15143907 -0.123970635 -0.13522464 -0.42084366 0.53613794 0.36631346 0.06148012 -0.12787396 0.18508902 -0.11058858 -0.2900975 -0.6463881 0.25697684 0.67545056 0.13038601 0.32137078 -0.18513279 0.05498722 -0.23861888 0.5488232 0.7030836 0.15218072 -0.55334854 -0.34418613 -0.3907001 -0.023898717 -0.32745764 -0.11008219
85 -0.21037899 -0.3555801 0.7545027 0.07671416 0.74853116 0.63348144 0.35529074 -0.8829588 -0.34583387 -0.1421304 0.036888804 -0.16830361 -0.63403875 -0.70303756 0.16319227 0.68122697 0.379169 0.5095605 0.15155476 0.85284734 0.7002077 -0.25161555 0.07141918 -0.45622563 -0.62608767 0.336225 0.033451084 -0.25886387 -0.20689774 -0.389475 -0.1606075 -0.2996592 0.009517675 -0.054805685 -0.29812968 -0.2776971 -0.09700149 -0.7111931 -0.17457731 -0.40009946 0.13189858 -0.46485797 0.22558917 0.38615498 -0.05176272 0.05129304 0.24024867 -0.8460479 0.42802396 0.19733417 -0.30117452 0.42854527 0.3849989 0.43366462 -0.14608 -1.0082339 0.27071285 -0.22868523 0.16366458 0.17317986 -0.02856516 -0.43386683 0.5143589 0.39640325
53 0.52830625 -0.1913445 0.049284436 0.4099262 -0.13554797 -0.36364213 -0.11577529 0.019998286 -0.93887043 -0.29982108 -0.0018197137 -0.7181379 0.10573602 0.3602304 -0.022691758 -0.08561749 0.1557786 0.12955092 0.5334844 0.9143911 0.7889706 0.5752796 0.18742397 0.34499797 0.24126808 -0.33332324 -0.57901716 0.2639899 -0.13162322 0.3533627 0.58434993 0.26342398 -0.04014348 0.3646839 0.052211978 0.1576511 0.11032177 0.40141594 -0.70708025 0.08489921 0.46748877 0.56368333 -0.50717723 0.4706116 -0.4481697 -1.0074869 0.3243897 -1.0232246 -0.022957578 -0.32160428 -0.1501034 -0.5261662 0.23963752 0.628039 0.0015424049 -0.26577395 0.13244084 -0.012410482 -0.015420122 -0.019521184 -0.87240046 -0.6510127 0.0965644 -0.12079115
1233 -0.017090157 0.12992018 0.49346507 0.28452146 0.04212702 -0.12767535 -0.63240874 -0.05007856 -0.78628445 -0.22462933 0.3443228 -0.963238 -0.23263417 -0.53487456 0.67250085 0.110366985 -0.5757133 -0.30709863 -0.5480347 0.42491993 -0.08339973 0.33315906 0.5495909 -0.56865805 0.04256024 0.18207419 -0.099775895 0.38144442 -0.0070353243 0.51655114 0.042770166 -0.64980745 -0.42973015 -0.52056473 0.040521447 -0.21091926 0.1473483 -0.9301451 -0.0040369625 -0.8532118 -0.023744786 0.1099153 -0.2273309 -0.33190748 -0.24966644 -0.52234733 -0.0724578 -0.61443263 -1.0387813 0.2942522 0.49985832 0.25826997 0.39464635 -0.1300233 -0.13356057 0.5172408 0.55443 -0.3893006 -0.5525746 0.072752655 0.46453926 0.24793716 0.517802 0.12413327
39 -0.2431884 0.008142315 0.24669376 -0.47052565 0.4168328 -0.15327528 0.106742434 -0.15279132 -0.25908452 -0.72056895 1.1287141 -0.6844061 -0.23306444 -0.5991088 -0.36264405 0.6049222 -0.626336 0.7515719 0.15033364 0.5603435 -0.16369641 0.054201905 0.45255643 0.16438341 0.34926066 0.09396398 -0.3689216 -0.46219826 0.37372792 -0.36403668 0.14569938 0.12861268 -0.5338907 -0.24134667 -0.8535892 -0.18032493 0.05113592 0.72836065 0.0010649096 -0.26641783 0.095263936 -0.02374095 -0.23313245 0.8452696 0.6161419 -0.4717279 -0.21538018 0.25762916 -0.21825497 0.19117521 0.5583819 -0.21283364 0.3683116 0.40505442 -0.4313898 -0.26659164 -0.03783465 0.54898036 -0.36405468 -0.18945327 -0.6107125 0.33734328 -0.7793312 0.03450057
109 0.3483596 -0.863721 -0.8061634 0.6379904 0.41353527 -0.39154834 0.15449302 -0.021471914 -0.42175865 -0.6967399 0.9202321 -0.8640501 0.1731328 0.043593176 0.022926042 0.09420251 -0.022921378 0.20295161 -0.4573807 -0.25126132 0.16350716 0.38626605 0.19656356 -0.35098875 0.72630364 0.46143544 -0.13761243 0.051341273 -0.2659857 0.32212925 -0.11308269 0.7645371 0.18317485 -1.3335185 0.041876845 0.7720244 0.10638714 0.01613149 -0.47231665 -0.46412516 0.20064306 -0.26635754 0.18218367 0.614411 0.055391174 0.1298695 0.17470075 -0.6760791 0.56431764 0.47543982 0.19511572 -0.3370326 0.2148845 -0.09691618 -0.2227151 -0.16184384 0.03689187 -0.68884206 0.30467716 -0.030503342 0.5580619 -0.60365504 -0.09873599 -0.10633547
112 -0.062369402 0.048387527 -0.0032140242 0.16081986 0.4884202 0.19441056 0.057862855 -0.2506539 -0.28361416 0.023801869 0.1584028 -0.97898126 -0.624536 -0.26304644 -0.09046691 -0.3491813 -0.15706336 0.35024497 -0.18394843 0.40618148 -0.16930005 0.50062436 1.0581045 -0.85472685 0.16796587 0.0891768 0.23492719 -0.5567584 -0.4264478 0.5065074 -0.45969102 0.5085366 -0.1542169 -0.58799076 0.099009655 -0.23922206 0.23077579 0.008044005 0.5538448 0.3608906 0.6377543 0.005881672 -0.44890043 -0.17148265 -0.7361864 -0.12948257 0.23901115 -0.6537716 0.3706377 -0.32028455 -0.5672637 -0.4679334 0.33559436 -0.27354378 0.6703943 -0.15016887 -0.42866942 -0.6596719 -0.0120094605 -0.28021762 -0.108680554 1.0695623 -0.6106766 0.39730892
33 0.45420322 -0.24532732 -0.768392 -0.29955515 0.5105349 -0.4977557 -0.33396327 -0.34300917 -0.44021222 -0.3134509 0.07111951 -0.479113 -1.2010608 0.042708006 -0.101859264 0.41296232 -0.046362706 -0.8103251 0.40754083 0.6539683 0.75428534 0.5449986 0.5550981 0.19930229 -0.45764384 -0.41424268 -0.16016604 -0.12855561 -0.05110922 -0.93981206 -0.46364626 -0.36768782 -0.16776764 -0.5265705 -0.25439125 0.3497017 -0.56951773 -0.20604414 -0.38335952 -0.006853078 0.6097742 0.09505073 0.57355285 0.20131145 -0.32001656 -0.050351437 0.23341718 0.05180678 -0.516539 0.1265356 0.33301196 0.14680688 0.62076455 0.08574449 0.6196963 -0.35275024 -0.47444448 0.22398388 0.25489104 0.3741215 -0.15484746 0.0921413 0.16555434 -0.057938077
43 0.5786952 0.2855605 -0.3943044 0.5043416 0.022717053 -0.36644062 0.46046346 0.17930408 -0.5818504 0.1501129 -0.013978585 0.52368844 -0.15820979 -0.35102484 -0.6291302 0.4537823 -0.24825956 -0.2805553 0.3505716 0.33062303 0.5654082 -0.20033757 0.5366931 -0.53132313 -0.0032793614 -0.6061878 -0.8750721 -0.6489516 -0.107861236 0.053327274 0.13058697 -0.23964164 -0.17094123 -1.0273873 -0.7579497 0.3097233 0.12941106 -0.15063016 0.100105606 0.4772217 -0.17452472 -0.54485804 0.2724845 0.78970903 0.004546239 -0.78964686 0.31757495 0.013135944 0.0039659757 0.46700698 -0.47158253 0.09300395 0.004423212 -0.52545375 0.29776406 0.025583062 0.6363523 -0.6559618 0.035525493 0.63738763 -0.015882393 0.4136353 0.21733028 0.34976187
50 -0.11371425 -0.14418422 0.053071477 0.23234466 0.15874894 -0.10124267 0.8083475 -0.36035296 -0.30987623 -0.16511449 0.6463806 -0.16720007 0.5639747 -0.18584312 -0.5280896 0.38241333 -0.50202674 0.04812114 0.1852956 0.54132974 0.028053762 0.024923993 0.44397488 -0.9178191 -0.82913834 0.30887163 0.020968392 -0.037303686 0.28654838 -0.33517548 0.3733576 0.94856906 0.22594374 0.04921673 -0.73642844 0.5217688 0.51308584 -0.4748907 0.19317795 0.09033565 0.3261121 0.72223336 0.6050647 -0.11365758 -0.08212845 -0.9561803 0.23631386 -0.1890059 -0.02522185 0.594168 0.49433652 -0.20286506 -0.061711237 0.32830516 0.32505357 -0.69161177 -0.03913349 -0.026113883 -0.19169933 0.7718796 0.30455944 -0.111798204 0.04782586 -0.68601584
86 0.15629241 0.39407432 -0.1455973 0.04572819 0.20495856 0.0013317696 0.53600395 0.65077746 -0.22955984 -0.38645393 0.76788026 -0.5381989 -0.10187302 -0.031495556 -0.519958 0.6646686 0.16629957 0.064660214 -0.5527642 0.82207274 0.68684685 -0.3549661 0.33860216 -0.51944864 0.14545186 0.0339343 -0.2879604 0.5577418 -0.5167626 -0.11037119 1.0192612 -0.23930328 -0.11765655 -0.20449215 -0.84352267 -0.042763513 0.79433036 0.45861128 -0.09835772 0.11851484 0.11022158 -0.03828888 -0.5579736 -0.21135017 0.28969744 0.28821433 -0.13902728 -0.03394167 -0.07325542 0.42319462 -0.65314025 0.14291874 -0.54709953 0.47754163 0.742921 -0.17800489 0.622671 0.36470744 0.73429155 -0.28990823 -0.07596611 -0.10816103 -0.20481552 -0.24614203
1670 -0.26553893 0.068469435 0.1463226 0.303345 -0.024928277 0.07413558 -0.20238082 0.25168785 -0.6044285 -0.2749863 0.11730515 -0.013000756 -0.851148 -0.164628 0.08433256 0.31939885 -0.1857693 -0.13150808 0.5850805 0.2878852 0.7169098 0.006105571 0.23378313 -0.32766566 -0.6468755 1.0740172 0.04005983 -0.5736433 -0.01894381 -0.34132627 1.0226088 0.4948482 -0.039011993 -0.5024873 -0.22249232 -0.23357402 0.6097555 0.32716292 -0.74632514 -0.82236797 -0.2561409 -0.272689 -0.47379443 0.21228805 -0.6102547 -0.6008512 -0.54529405 -0.11583877 -0.14717469 0.39933047 -0.014698136 0.47127286 0.3854536 0.33262238 -0.39613315 0.13812445 -0.18347414 -0.27571008 0.41188473 0.68825924 -0.08803159 0.05226141 0.57776654 0.1668812
106 0.19852914 0.35615075 0.6255308 -0.16247657 0.48390925 -0.389857 0.46569878 -0.105734594 -0.35595185 0.020834208 -0.7207627 -0.73864603 -0.0932583 0.3613146 -0.6128827 -0.6247957 0.3004695 0.10409609 0.09666677 0.18016668 0.16287296 0.19185518 0.56544095 -0.92005396 0.14069504 -0.22286402 -0.5246274 0.62128884 -0.4212987 -0.27424854 0.038643684 0.24208441 0.3104559 -0.32069406 -0.25860086 0.82336414 0.33033553 0.31757504 -0.6080674 -0.5969815 0.8052865 0.30593574 0.2495537 -0.14130019 0.6111604 0.041749585 -0.16325738 -0.5251536 0.19824083 0.15600485 0.5499279 0.53564715 0.3110735 0.017946979 0.023766197 -0.5904067 -0.31268042 -0.6992655 0.12731704 -0.15657574 -0.058505483 0.3122983 -0.6239636 0.9586133
108 0.09048186 -0.3850259 0.18903805 1.0983355 -0.09956801 -0.4617216 0.0197612 -0.09253592 0.07555958 0.0029729707 -0.095225185 -0.71207654 -0.6660552 0.48047224 -0.9226177 0.76639986 0.38313314 0.06752398 -0.027584985 0.68767506 -0.53584266 -0.021105517 0.03229077 -0.87362087 -0.35148513 0.7453392 -0.29756105 -0.76047033 -0.6097142 0.016863743 0.33206165 0.106596574 0.22390242 -0.069757566 -0.4998008 0.712388 -0.7898131 0.37478068 -0.07782728 0.15449825 0.6136166 -0.5165077 -0.6635001 0.10940713 0.6087574 0.5842465 0.17151916 0.21121697 0.45054445 -0.24630652 0.2854971 0.33605155 0.42664325 0.3681145 0.2986795 0.07184638 0.22940248 -0.4782936 0.5490414 0.2573475 -0.063552074 0.095613874 0.03061249 0.22416118
77 -0.6398164 -0.26474223 -0.12769672 -0.52394754 0.45572808 -0.5650959 0.14641932 -0.6033168 -0.35364282 -0.005960299 -0.13467108 -0.5413247 -0.9458156 -0.2910886 -0.25689888 0.28887853 -0.37353173 0.25754318 0.09415217 0.30608967 0.47586888 0.16708185 0.73743445 -0.017757155 0.038072076 0.063308395 -0.26331112 -0.051559612 0.45642427 0.31148112 0.296981 -0.26922685 0.07463976 -0.28550526 0.0039587873 0.4355507 -0.17580001 0.13858746 0.7391402 -0.26875117 -0.22867708 0.012794004 0.47192907 0.60271376 -0.1435041 0.333318 -0.9737005 -0.47836766 -0.30449352 0.21556118 -0.3484271 -0.3482187 0.80013067 0.07417986 -0.33268172 -0.048508298 1.4702721 -0.04931287 0.29629368 0.51433164 -0.4022092 -0.022987405 0.04058557 -0.5594192
32 0.06048914 0.43411624 0.38222334 -0.34236872 -0.15761022 -0.22618003 -0.41422507 -0.4143675 -0.23896344 0.17521678 0.69403064 0.38404128 -0.4876429 -0.38065857 -0.00048116053 0.76720524 -0.28483674 0.8560738 0.26358467 -0.0048126844 0.315011 0.4983165 0.4908316 -1.3388718 0.03409994 -0.6753428 -0.38061783 -0.0947364 -0.75111336 -0.27171198 0.57067925 0.34146404 0.0111644035 -0.59128475 0.2722515 -0.12472898 0.21004823 0.18269122 -0.75665504 -0.7532199 -0.4755743 0.26118007 -0.47113326 -0.089380644 0.38827282 -0.19313239 -0.23826376 -0.14928593 -0.6800848 0.3316698 -0.18517053 0.2201776 0.035075672 -0.16838865 0.89115435 0.41249582 -0.18499678 -0.6521463 -0.381933 -0.46401384 0.26697236 -0.19731876 -0.07017879 -0.10945724
19 0.5332777 0.026369601 0.0676974 0.10586862 0.16042592 -0.16360633 -0.6054139 0.5370286 -0.6754721 -0.24342196 0.70826715 -0.2803775 0.34193256 -0.3917505 -0.49922693 0.3914724 -0.48408508 0.0012662938 0.57203716 0.36775625 0.13853988 0.6726389 0.5854403 -0.61859554 0.20080817 0.6295499 -0.05968031 0.83088464 0.69075614 0.091835834 0.25644612 0.5045181 0.32210597 -0.9539594 -0.62997204 -0.8384961 -0.65992934 0.0045335176 -0.2216071 -0.16054763 0.3883432 0.38941628 -0.27501035 0.17930453 -0.19091909 -0.21397613 -0.49729747 -0.024371732 0.07495699 -0.09868891 -0.17727286 -0.6029255 -0.114287026 0.7184196 0.24145189 0.2576247 -0.20446068 0.07577049 -0.016139917 0.07960848 -0.15293731 0.41462195 0.22570415 0.046804037
61 0.4171792 -0.5530286 -0.31054053 -0.07441363 0.5480758 0.1606456 -0.20892462 -0.12843652 -0.099619 -0.051116377 0.13575661 -0.61856323 0.07544111 -0.11674274 0.19444281 0.52191454 0.044399567 0.078825325 0.11941656 0.42354187 -0.23761219 -0.23920347 0.4641886 -0.45787594 0.09325875 0.30477983 0.56398463 0.36080724 -0.0950101 -0.33026868 0.13731842 -0.09189954 -0.66186 -0.13499728 -0.7350669 -0.24742267 -0.07940121 -0.110922255 0.5432372 0.48853326 0.7473283 0.23355138 0.1309468 -0.0075075827 -0.22839287 -0.45951527 0.1923068 -1.1167608 0.65188056 0.72229177 0.512079 -0.24975254 0.16468604 -0.94620025 -0.1616206 0.33356607 0.88164467 -0.8713783 0.6870967 0.36250797 -0.49912024 0.32103038 0.16389845 0.5547517
29 0.33367383 0.17220041 0.25639227 0.03585339 0.685183 -0.9691703 0.1078491 -0.30413505 -0.53663516 -0.13583979 0.4604123 -0.9178836 -0.24913417 -1.0228266 -0.5752939 0.20155412 -0.17563348 0.28519523 0.09904744 -0.1362219 0.17724515 -0.06621757 0.15118633 -1.0885524 0.2660353 -0.052684918 0.033059243 -0.024640683 0.5085185 0.20162801 0.40072843 0.2495685 -0.63811564 0.2960471 0.7915774 0.054575298 -0.07174158 -0.120097116 -0.2192097 0.3117072 -0.4547585 0.12617764 0.6366326 -0.2185055 -0.04927662 0.039240245 -0.023765422 -0.65299165 -0.079508215 0.4656985 -0.11732739 0.32383668 0.29022726 1.2223749 0.4347295 -0.14269051 0.26139918 0.17243156 0.41677102 -0.12111793 0.26342398 0.70769745 0.27505407 0.53746617
34 -0.15126318 -0.2032321 0.109427385 0.03123187 0.08707742 0.172647 -0.08497333 0.5449922 -0.28631335 -0.1615548 -0.20063974 -0.7186283 -0.3264209 0.015970068 0.10226037 -0.11786238 -0.044055082 -0.35360008 0.0201678 0.89356196 -0.053155925 0.13851668 0.120001286 -0.30217144 0.095162764 0.00079858187 -0.2707077 0.25201073 0.18109752 -0.23827837 0.030181808 0.41201708 -0.5541252 -0.5645374 -0.40839756 -0.14019284 0.0010881701 -0.05760639 -0.0020645862 -0.1894377 0.040603787 0.42632303 -0.117130704 0.25896445 0.5123499 -0.016456304 0.0642485 -0.52830076 0.26884872 0.25476554 -0.051701505 -0.08092236 0.19943257 -0.32665297 0.030854842 0.42204213 0.4670667 0.052909803 -0.6598878 0.079946555 -0.37560105 0.046855263 0.48888868 -0.11777476
42 0.0139864925 0.31643122 -0.18855685 -0.44712946 0.26908118 -0.55049706 0.16961768 -0.653035 -0.4747933 -0.88593787 0.05474941 -0.10813601 -0.24984312 0.03455884 -0.5292001 0.67383975 0.38864073 0.52340454 -0.42019492 0.21589787 0.39012793 0.2280201 -0.02040456 -0.2816149 -0.8062993 0.29199177 0.20251107 0.5625649 0.059773225 -0.43453205 0.041207813 0.31417537 -0.1994798 -0.21436808 -0.37268755 -0.3498436 0.14373788 0.12486582 -0.7008886 0.29473755 -0.073936306 -0.14078064 0.14393073 -0.32078514 0.23345971 -0.37408912 -1.2315562 -0.1751373 -0.086906694 0.629547 0.75339484 0.20433715 0.25672325 0.17766757 0.30640662 0.117448084 -0.04001195 -1.0502404 -0.2598534 0.30222782 -0.3908339 0.995483 0.30170044 -0.3353967
31 0.6730714 -0.46289346 0.12780099 -0.10161434 0.4069422 -0.06725778 -0.07762628 -0.06830609 0.019819904 -0.05456108 0.37443003 0.45958987 -0.5150031 -0.6025705 -0.18993083 0.50444776 -0.15826811 0.2949664 0.30442545 0.16094242 0.46676746 -0.5856957 0.31909865 -0.29152247 0.63244563 0.45822456 0.19655862 -0.31183013 -0.12916756 0.1371117 0.3821535 0.6091317 0.24902108 -0.8829228 -0.0082244715 0.022272572 -0.31786814 0.064375445 -0.28769183 -0.54124117 -0.082794316 0.31240946 -0.2825797 -0.77262515 0.63391066 -0.2617631 -0.80863476 -0.7961165 0.07505538 0.01050581 -0.122221716 0.5725428 0.82941157 -0.11058757 -0.57215464 -0.82195693 0.7641693 -0.30987075 -0.34876713 0.5365454 0.3066464 0.41935304 -0.4358661 0.7146437
59 -0.08458556 0.33817804 -0.03416858 -0.41120887 -0.47662705 -0.41267836 -0.6013222 -0.35518217 -0.27379715 -0.07261779 0.29196024 -1.1180053 -0.21294369 0.24450698 0.036735397 0.14897266 -0.351346 -0.1439966 0.09011373 1.0198196 0.7674516 0.14837542 0.1948694 -0.021050792 -0.35001397 0.33748507 -0.75475395 -0.09486632 -0.7994639 0.56078017 0.0013657052 -0.021868182 0.22361252 -0.96865296 -0.5212177 0.2545522 0.08679928 0.18856612 -0.11753878 -0.03300578 -0.32488266 0.06991364 -0.20847026 -0.3446374 0.1306635 0.26104128 -0.838365 -0.028502563 0.61378485 -0.7059855 0.19812343 -0.03610526 0.7939482 0.51492506 0.061753135 -0.66881907 0.32518506 -0.56494385 -0.37148792 -0.47586727 -0.28325254 0.03596951 0.008707229 0.71795493
90 -0.05307037 0.22329912 0.098069556 -0.06397465 -0.1093327 0.02709458 -0.13005766 -0.12631975 -0.3927843 -0.5155115 0.7190463 -0.7832286 -0.3327916 0.23759829 -0.7272381 0.0584509 -0.07431425 -0.015297368 -0.04828683 -0.04529134 -0.04929733 0.7538222 0.47337088 0.07467849 0.064615786 -0.17290759 0.56561536 0.42509857 -0.33417857 -1.0393159 0.03085123 -0.24278946 -0.26040655 -0.221983 -0.50847405 -0.3188841 0.29365656 -0.32201654 -0.11724274 -0.75081265 0.5065518 -0.49212036 -0.377164 0.019378856 -0.16306078 -0.098380126 -0.24918787 -0.59141016 0.17420526 -0.037812926 0.41970095 -0.05449019 0.022431983 0.88691944 -0.45088524 -0.089644134 0.8276976 -0.5176259 -0.22136949 0.20707776 0.18309727 -0.35029155 0.13400257 -0.0732478
40 0.3125498 -0.16117948 0.25538048 -0.17217825 -0.08021891 -0.36327225 0.69352984 -0.049318478 -0.11975743 -0.22510299 -0.26011103 -0.04525679 -0.055403374 -0.2699026 -0.2517595 0.25077045 -0.094535895 -0.45402434 -0.13270843 0.63146806 0.4179766 0.08522499 0.22197035 -0.46502697 0.033214312 -0.12152745 -0.38273844 0.26084763 -0.2632537 -0.25000674 0.30965462 0.37437627 -0.30563086 -0.111024916 -0.6539082 -0.05403921 -0.10413295 0.1957166 -0.03951398 0.2780836 -0.03492058 -0.5395209 0.072110526 0.2164494 -0.08742405 -0.29646015 -0.4875944 -0.47198406 -0.039420802 0.23674126 -0.3492775 0.032047547 0.420963 -0.061005495 0.38693336 0.5741872 0.24456921 -0.31855485 -0.61169803 -0.2024081 -0.22950324 0.33159125 0.003543416 0.09045802
961 0.13636656 -0.5060462 0.1683259 -0.0321937 -0.031112384 -0.11404203 -0.14258012 0.18361968 -0.346814 0.019699262 -0.0380323 -0.29634085 -0.54984736 0.1554747 -0.112673916 0.32818976 -0.6039984 -0.435579 -0.04087996 0.50541943 0.026456943 0.33160132 0.34604302 -0.3854045 -0.4523203 0.05610546 0.09556267 -0.062258855 -0.0115211615 -0.40739807 0.49968353 0.33004192 -0.024445644 -0.5055211 -0.19200347 -0.29903927 0.08477223 0.8117957 -0.12029145 -0.15371017 -0.4456728 0.011873612 -0.08394088 0.09476974 0.038522903 0.14105304 0.01924861 -0.49887386 0.17057781 0.13343695 0.1585927 0.26393133 0.22513896 0.040664338 -0.025626611 0.4759117 0.43196952 0.29884717 -0.17992835 0.039001 0.41093746 -0.18056585 0.094189666 0.12815195
21 0.18872465 -0.31048042 0.23585358 0.19427784 0.1960693 -0.10333297 0.069467455 0.018148594 -0.07562521 0.13712172 0.11117943 -0.37363052 -0.28883648 -0.06975777 -0.4621799 0.41792879 -0.4415835 -0.6181457 0.007511448 0.7210812 0.29103813 0.3094201 0.08183375 -0.40466043 -0.06774485 -0.2510808 -0.17584085 -0.04702648 -0.12588218 -0.17831111 0.149976 0.40518516 -0.21871936 -0.39475772 -0.6698819 -0.0970488 0.2738226 0.15254852 -0.027767612 0.10072967 0.0585796 0.16418152 -0.020116195 -0.09721844 0.2694388 0.34061736 0.14624685 -0.107107185 0.23370329 0.14589271 0.060920063 0.03233668 0.30429763 -0.14926364 -0.119803235 0.9108012 0.04093725 0.0050149146 -0.28191936 -0.19849364 0.08561509 -0.2669299 0.2655718 -0.07419323
898 0.44625324 -0.33415276 0.44034132 0.0802578 0.4574369 -0.207253 -0.07198945 -0.2584848 -0.3074222 0.05515276 -0.024061166 -0.6628379 -0.22196828 0.07416546 -0.018420354 -0.14725879 -0.34607702 0.15312079 0.44086373 0.2366504 0.10024266 -0.12075441 0.16929454 -0.28643426 -0.23254053 0.05556279 -0.14260456 0.16922152 -0.71116674 -0.53599447 -0.09358153 0.06648442 -0.103447855 -0.040776692 -0.45084387 0.24695106 0.08816076 0.5329177 -0.26473874 0.11857078 0.37733108 0.294509 0.1814786 0.12807441 0.46486214 -0.20139234 -0.3894767 -0.5718288 0.10246372 0.19888826 0.1703114 0.020840406 -0.12591052 -0.18996687 0.062778816 0.45358908 0.30338266 0.028517226 -0.139475 -0.045121793 0.029446347 0.11748442 0.22479086 0.29348636
44 0.116357066 -0.29068515 0.15639733 -0.10772194 0.12688638 -0.5380888 -0.15723337 -0.37004727 -0.14775497 -0.14300229 -0.22900674 -0.53667057 -0.0056793336 0.013087602 -0.16837487 0.36666444 0.09577453 -0.024898808 -0.057695996 0.40978 0.2725302 0.31368127 0.5641483 -0.24210049 -0.029693699 -0.26566026 -0.34862363 -0.14058277 0.090879366 -0.18948147 -0.22426425 -0.021159401 -0.10092403 -0.34659088 -0.33756927 -0.022178696 0.3264356 0.6368243 0.043104522 0.16442207 -0.18928541 0.40753144 0.35795045 0.3377235 -0.38726786 -0.09685154 -0.45770457 -0.6541023 -0.13876618 0.2564638 0.095591344 0.43856817 0.088741995 0.19357798 0.23562954 0.31816676 0.84629273 0.15637046 -0.31685695 -0.35301423 0.042789996 -0.4054311 0.13220365 -0.044023465
1314 0.05286632 -0.5037572 0.40188032 0.36861387 0.12779576 -0.34566262 0.04865591 -0.11911347 -0.118741825 0.08242699 0.44909292 -0.22292905 -0.2117254 0.22640732 -0.6526074 -0.23897085 -0.28048235 -0.34094003 -0.12846345 0.5549304 0.46672004 -0.18598138 0.004014574 -0.35787433 -0.10881689 -0.07565652 -0.25084412 0.10575659 -0.30103704 -0.32437107 0.045464337 0.46782535 -0.19914065 -0.046592478 -0.21724702 -0.25674152 0.19730996 0.15061842 -0.19438203 -0.3876786 0.031251997 0.12082574 0.07913261 0.005092765 0.12099257 0.14115262 -0.14446314 -0.54890096 0.2960987 -0.05772967 -0.029467056 -0.20728491 0.014501874 0.19112271 0.18938428 0.5255028 0.5156175 -0.058758225 -0.48764652 -0.14645796 -0.23597908 -0.09360744 0.20382743 0.4150671
790 0.24514017 0.010831497 0.3903651 -0.017460916 0.027108042 -0.09836594 0.3673566 0.08258116 -0.21436869 -0.43261528 -0.206871 -0.24307019 -0.7084104 -0.19994691 -0.010300686 0.2562019 -0.04150949 -0.28233534 0.08460141 0.47511894 -0.27630726 0.45335406 0.3223581 -0.7033638 -0.10234724 0.09747463 0.0096594505 0.23616938 -0.092769414 -0.018969204 -0.11849133 0.48728848 -0.45425704 -0.36613676 -0.23711587 0.09399098 0.22429489 -0.22229777 0.05936241 0.39309695 0.016877221 0.16969801 -0.03754963 -0.27323785 0.25087273 0.08919052 0.025023319 -0.28225842 0.32857984 0.017958466 -0.192997 -0.7345971 0.67355734 0.11129852 0.4672843 0.2504837 0.30738333 -0.13536099 -0.20960565 -0.08273019 0.1648919 0.02310259 -0.053888015 0.418575
868 0.28610525 -0.13804004 0.22335488 -0.2454301 0.28565007 -0.3845674 0.43716446 0.061388988 -0.40918455 -0.14527713 0.38553974 -0.28419012 -0.7308117 0.074878976 0.065408915 0.23431191 -0.05726171 -0.31272095 0.33521307 0.5423384 -0.30896428 0.47041613 0.039478485 -0.44436076 -0.17766923 0.06779902 0.06548794 0.024652448 -0.050229512 -0.06242024 0.26306543 0.28167596 -0.63824564 -0.47946987 -0.46274304 -0.026957778 -0.06302385 0.25655654 -0.18380077 0.17781876 -0.3165352 0.12953044 0.07697127 0.3524151 0.40616012 -0.20500493 -0.19012387 0.16695721 0.20874329 -0.28378007 0.12383693 -0.42755026 -0.08044146 -0.01785245 -0.055866726 0.46379706 0.42371878 0.04153064 0.05835476 -0.029839642 -0.01007911 0.11647185 -0.49566534 0.3978964
726 0.31536794 -0.13845886 0.08981019 -0.09523151 0.19853409 -0.3584187 -0.10437133 -0.14149198 -0.73589027 0.0553897 0.078059435 0.15034702 -0.22776437 0.117177516 -0.46926433 0.286001 -0.31275755 -0.10935778 -0.3384699 0.30424976 0.29190162 0.08115722 0.3896756 -0.4616904 0.079667576 0.23937146 -0.5414407 -0.088153295 -0.38293865 -0.31652832 0.33780086 0.4972808 -0.20672439 -0.102920964 -0.4577142 0.040140145 -0.18052423 0.02321213 0.19505377 0.14577454 0.15469925 0.09478822 0.015386364 -0.18031947 -0.23375139 -0.024074778 0.02193635 -0.03664873 -0.15989293 -0.17019498 0.3841972 -0.064381 0.14311036 -0.08142585 0.12555662 0.37360552 0.21349907 -0.47460437 -0.3459399 -0.2786899 -0.43546787 -0.04519939 0.18732029 0.008303651
727 -0.1271551 -0.23999438 0.23336911 0.46291143 0.2638995 -0.12387344 -0.19034289 -0.5443679 -0.11356856 0.037041068 0.06985752 -0.17966184 -0.22247855 0.18569218 -0.15733293 0.03035451 -0.22661273 -0.36341515 0.00887285 0.2701345 0.4732737 0.11212741 0.24650103 -0.30617398 -0.065858416 0.115911804 -0.20836832 -0.05249875 -0.15179557 -0.28385115 0.07196371 0.5301212 -0.4085933 -0.14918926 -0.4624841 -0.07127927 0.41412175 0.12521717 -0.06214886 0.117945574 0.24679014 0.05566521 0.17977881 0.17292346 0.084139235 -0.20225804 -0.257862 -0.6145582 -0.09635303 0.05326695 0.116861634 -0.21529937 0.19579294 0.23777655 0.22412866 0.32783452 0.4600195 -0.2668223 -0.33083194 0.0026843217 0.2478144 0.07684142 -0.009844519 0.4413538
760 -0.018508825 0.11267242 0.25341544 0.09497012 -0.045271635 -0.25160354 -0.08364456 -0.09428414 -0.5612898 -0.49904987 0.093536645 0.324925 -0.2985562 0.026279705 -0.19031127 -0.06591479 -0.2183525 -0.44578272 -0.04297596 0.4581596 0.23248094 0.37928927 0.6006304 -0.42095175 -0.047063533 0.307774 -0.25047824 -0.031773247 -0.26355487 -0.3813032 0.12740667 0.05432042 -0.050379854 -0.168688 -0.5232727 0.18661363 0.2642231 0.11887367 0.21600185 -0.35869703 0.308811 0.017719438 0.0720983 -0.23193005 0.07597343 0.16375439 0.48376885 -0.39967272 0.090811044 0.3219396 0.47404593 -0.09524218 0.28267676 0.20079756 0.22533472 -0.064960465 0.28827772 0.24192022 -0.58190435 -0.102880284 -0.086078696 0.07567177 -0.081993386 0.27784547
1254 0.31578448 -0.18094055 -0.09586997 0.20517568 0.6893254 -0.022687107 0.3193767 0.034192458 -0.32444865 -0.03980246 0.3867637 0.024501907 -0.4451052 0.28572607 -0.5136753 -0.21498716 -0.12654266 0.23939854 -0.05795796 0.36448854 0.6238666 0.17275673 0.167895 0.049368076 -0.4581197 -0.16147205 -0.2533536 0.046119712 0.13186318 -0.36438856 0.042464018 0.4140092 -0.32130203 -0.19102454 -0.27584955 0.15790746 0.050681964 0.5234441 0.19351487 0.06864167 0.11103004 0.067091435 0.03704386 -0.123555586 -0.28222957 0.14870061 -0.13881467 -0.6507597 0.010870952 0.02113524 -0.107323416 0.50058013 -0.20262167 0.10033276 -0.18262243 0.66669667 0.23120078 -0.15419282 -0.6358571 0.05515772 -0.17124414 0.018759733 0.05103138 -0.18361995
1333 0.1968034 -0.14401858 0.2397605 0.17560136 0.24310565 -0.3060409 0.33625585 0.021544756 -0.15834859 -0.09523708 0.57149744 -0.33653674 -0.46395716 0.13227494 -0.31307447 0.14760086 -0.11732593 -0.18513896 -0.035988316 0.5802779 0.18697405 0.29901388 0.09431655 -0.29660684 0.15194987 0.2845387 -0.27305683 0.20690496 -0.04605694 -0.21388605 0.26482064 0.63869077 -0.28476766 -0.3954949 -0.19381271 0.13936518 0.06370141 0.2125933 0.21957839 0.009187954 -0.21373826 0.17588893 0.17106064 0.28453457 -0.1287041 0.17405878 -0.03889563 -0.31977886 0.18701889 0.09607976 -0.069121964 -0.15099105 -0.043531187 -0.23285016 -0.11337957 0.052569237 -0.24066366 -0.5188754 -0.31010047 -0.11974065 0.3761112 -0.46578726 0.35299945 0.22984613
844 0.1751134 -0.0348129 0.27824366 0.3317834 0.2873257 -0.42559567 0.07478591 -0.45551708 -0.49598286 0.13277204 0.51811653 -0.15132351 0.16637479 -0.034977283 0.060892865 0.090851955 -0.19741409 0.06444278 0.37751755 0.7143183 0.010233228 0.11649524 0.41836336 -0.18303388 -0.20298761 0.12931156 -0.30556628 -0.042195994 -0.22875458 0.0894795 0.2354017 0.2711769 -0.2736903 -0.24074492 -0.2593665 0.17578591 0.25230628 0.03459765 0.2524311 -0.30520105 0.017089393 0.2100864 -0.34972137 0.05009431 -0.09797024 0.113571025 -0.34230593 -0.2271528 0.7273536 -0.72795796 0.06733213 0.2817117 0.27214122 -0.121273376 0.20549288 0.43477234 0.38182545 -0.25356904 -0.29207832 -0.033950936 0.27586856 -0.23258604 0.18646063 0.23862226
1100 0.13820809 -0.2730979 0.4693525 0.08685312 0.16393644 0.17438473 0.12506959 -0.274384 -0.3324536 -0.17100686 -0.1482831 -0.0777995 -0.43511182 -0.20703214 -0.2759921 0.2712024 0.08236788 0.3151559 -0.14179626 0.39042774 0.43151593 0.059687037 0.5718986 -0.309397 -0.35869327 0.31564847 -0.48275012 0.045712445 -0.021409336 -0.41149962 0.2882009 0.09518769 -0.40747833 -0.2782207 -0.2496671 0.24499047 0.3493596 0.15027565 -0.37671933 -0.025194606 0.40456492 -0.026663097 -0.13760266 0.005590829 -0.18833801 0.20658477 0.2842462 -0.29682973 0.1783312 -0.014891976 -0.030336801 -0.20530617 0.05445736 0.13839102 -0.025495876 -0.122272454 0.4650322 -0.085110195 -0.18589395 -0.25107855 0.32501557 0.03233869 0.22541414 -0.02728432
49 0.13938898 -0.39254698 0.4601788 0.7689382 0.26599053 -0.13221686 -0.10393126 0.18565401 -0.17227128 0.40119666 0.6393717 -0.54189473 0.26732567 -0.06742711 -0.2983579 0.49001417 -0.24248977 -0.08366945 -0.3403847 0.4496676 0.5106945 0.014390745 0.072009936 -0.24808677 0.09568084 -0.007480734 -0.23738341 0.3323849 0.04208566 -0.22297654 0.48454314 -0.045514107 -0.072383024 -0.42527172 -0.59777987 -0.4015119 0.0798941 0.29563832 -0.104456656 -0.14583208 0.10148619 0.09031531 -0.060374122 -0.17514102 0.1480761 0.27358526 -0.41320235 -0.2509468 0.0050041634 0.33424872 -0.16826566 -0.53300595 -0.088475525 0.53032535 0.16551428 0.0188994 0.22975956 -0.19343497 -0.2305372 -0.17814861 -0.068918355 0.2970359 -0.17992058 0.10149029
692 0.44105366 -0.31238848 0.16751397 -0.2764649 0.43621463 -0.06329714 0.18503673 -0.21630628 -0.41997027 -0.073922835 0.38311708 -0.009684432 -0.61974144 -0.11830661 0.44832852 -0.08931984 0.026624134 -0.1080229 -0.08640666 0.38600886 0.36901566 0.0726526 -0.07385989 -0.72977024 0.22273572 0.2161041 -0.07599317 0.20784555 -0.051749863 0.028118944 0.1916177 0.5093571 -0.5661417 0.073473774 0.103822395 0.007473179 -0.1280796 -0.055897962 0.013586899 0.2980847 0.02107712 0.16112071 -0.05736125 -0.4791556 0.32248813 0.0016232586 0.14402962 -0.49777845 -0.18942653 0.083611384 -0.021465141 0.16877195 0.41762808 0.61503494 0.22496188 0.35928318 0.2106362 -0.04663553 -0.11857917 0.11439165 -0.23645273 0.25273252 -0.072388604 0.4140463
57 0.08011857 -0.0577831 -0.0024099676 -0.21113804 0.546505 -0.09758222 -0.29983178 -0.69729763 -0.6373585 -0.013257701 0.08133852 -0.48051468 0.1318082 -0.27285558 -0.32926294 -0.18818215 0.46058545 0.30945596 -0.5212789 0.43096802 -0.25694132 0.43055362 0.5687916 -0.7501625 0.60814685 0.06910344 -0.5676062 -0.52586645 -0.5776566 0.1470296 0.030195035 0.32774675 0.36292842 -0.35456535 -0.07305253 0.27539393 -0.074550845 -0.295447 0.17731352 -0.17119527 0.43632424 -0.022555664 -0.4879964 0.04780039 0.4505361 0.14720589 -0.43549028 -0.26174092 0.68581456 0.1730381 0.3643658 0.40343302 0.119459756 0.10646249 0.11259979 -0.13736646 -0.13160554 -0.29501945 0.0084102545 0.35204792 -0.3824142 0.010124923 -0.12225202 -0.07852078
